<?xml version="1.0"?>
<opencv_storage>
<my_nn type_id="opencv-ml-ann-mlp">
  <layer_sizes type_id="opencv-matrix">
    <rows>1</rows>
    <cols>3</cols>
    <dt>i</dt>
    <data>
      400 60 32</data></layer_sizes>
  <activation_function>SIGMOID_SYM</activation_function>
  <f_param1>6.6666666666666663e-001</f_param1>
  <f_param2>1.7159000000000000e+000</f_param2>
  <min_val>-9.4999999999999996e-001</min_val>
  <max_val>9.4999999999999996e-001</max_val>
  <min_val1>-9.7999999999999998e-001</min_val1>
  <max_val1>9.7999999999999998e-001</max_val1>
  <training_params>
    <train_method>RPROP</train_method>
    <dw0>1.0000000000000001e-001</dw0>
    <dw_plus>1.2000000000000000e+000</dw_plus>
    <dw_minus>5.0000000000000000e-001</dw_minus>
    <dw_min>1.1920928955078125e-007</dw_min>
    <dw_max>50.</dw_max>
    <term_criteria><epsilon>1.0000000116860974e-007</epsilon>
      <iterations>20000</iterations></term_criteria></training_params>
  <input_scale>
    1. 0. 1. 0. 1. 0. 1. 0. 1. 0. 1. 0. 1. 0. 1. 0. 1. 0. 1. 0. 1. 0. 1.
    0. 1. 0. 1. 0. 1. 0. 1. 0. 1. 0. 1. 0. 1. 0. 1. 0. 1. 0. 1. 0.
    2.4243693394143811e+001 -8.2501296182890208e-003
    3.7461693155411173e+000 -1.0517277663232584e-002
    1.5275798351547090e+000 -1.8844035626359026e-002
    9.2670640498592916e-001 -2.2337873812155511e-002
    7.3140903982621575e-001 -2.4578728758020182e-002
    6.2724014071353074e-001 -2.5738493140472420e-002
    5.8485229997136889e-001 -2.7249874623627005e-002
    5.6178274945186779e-001 -2.8023022893282915e-002
    5.6039369001885764e-001 -2.7858382400903423e-002
    5.8376715368092202e-001 -2.7265533338413594e-002
    6.4338462084179182e-001 -2.5890105123628236e-002
    8.1895932225583823e-001 -2.4339091107509810e-002
    1.1249708940093694e+000 -2.0257962104640832e-002
    1.9468522653358373e+000 -1.5900333278981400e-002
    4.5749603984222214e+000 -1.1287228955639998e-002
    5.2163087106776889e+000 -5.3253300508861066e-003
    1.4445162583415140e+001 -5.3253300508861075e-003 1. 0.
    4.9968605725003329e-001 -3.6261708320416162e-002
    2.3618952277973543e-001 -7.3911788102951542e-002
    1.2397895989810320e-001 -1.2841946202076163e-001
    7.5699188412626961e-002 -1.8667300076525578e-001
    5.5201103276628548e-002 -2.7014931222133381e-001
    4.0799538004911783e-002 -3.8554828715193684e-001
    3.1693216541310965e-002 -4.8612143578249467e-001
    2.7199506852306394e-002 -5.7273230940348518e-001
    2.4744650005603514e-002 -6.4655862495854144e-001
    2.3077126991481414e-002 -6.8661766042833616e-001
    2.2866921514111464e-002 -7.0061697743682594e-001
    2.4490221619832348e-002 -6.5490282061970750e-001
    2.8689706597225709e-002 -5.5346652739210278e-001
    3.7208100752268193e-002 -4.2523468348319321e-001
    5.5974047370121460e-002 -2.9136568678550845e-001
    9.8285750018606635e-002 -1.7640596104777337e-001
    1.9715636372625475e-001 -9.3543462595467433e-002
    4.8470825276791274e-001 -4.4535483054987869e-002
    1.4398558097228558e+000 -1.5148640371130631e-002
    5.0753273941728860e+000 -5.3253300508861066e-003
    4.1524014878783638e-001 -4.2486074832728739e-002
    1.4350004121035242e-001 -9.7076070756117086e-002
    6.3741064907927025e-002 -1.8285766574457094e-001
    3.4998349695316719e-002 -2.9824274981548032e-001
    2.3848872121723621e-002 -4.4937502579652594e-001
    1.8360466682547937e-002 -6.6905659304484999e-001
    1.5277076966632431e-002 -9.0973665478742805e-001
    1.4183267036545577e-002 -1.1144975781328994e+000
    1.4158276292583791e-002 -1.2475451750079083e+000
    1.3853627812150535e-002 -1.2762411536210509e+000
    1.3809764690385031e-002 -1.3147723874040909e+000
    1.3913155136753143e-002 -1.2568416714190149e+000
    1.4470006876313576e-002 -1.0257775277017493e+000
    1.7253902792674768e-002 -7.3021982762926052e-001
    2.5082349968759181e-002 -4.6941828153823045e-001
    4.4956474995836729e-002 -2.7248751458356257e-001
    8.9825870713355405e-002 -1.4371426066716061e-001
    2.3993490191002839e-001 -7.4709616963165693e-002
    9.1799848408275597e-001 -2.3846145008076580e-002
    4.3660637753700247e+000 -8.6670012272325580e-003
    5.4882248132531875e-001 -4.8496465184745853e-002
    1.4216423959383098e-001 -1.0740832235654496e-001
    5.2551732591202306e-002 -2.2476249206455892e-001
    2.5911033223857596e-002 -3.8041155977624602e-001
    1.7191324351546900e-002 -5.8712202109325484e-001
    1.3879449380297986e-002 -8.8437948010904754e-001
    1.2860462123165068e-002 -1.2479768665794286e+000
    1.2901854090921629e-002 -1.4914405028312889e+000
    1.3035918881077763e-002 -1.4520763386018833e+000
    1.2673174525479567e-002 -1.3130739270697069e+000
    1.2818959225122072e-002 -1.3766321862692028e+000
    1.3275141282422990e-002 -1.5627596606856378e+000
    1.3018950171616386e-002 -1.4263889358503365e+000
    1.3555824443636398e-002 -1.0043945994182728e+000
    1.7862973761536956e-002 -6.4462220754214650e-001
    2.9177172386764920e-002 -3.8147438075918833e-001
    5.5481740061193628e-002 -2.1007004526019704e-001
    1.4531504991024757e-001 -1.1376961398412258e-001
    5.6547605717247051e-001 -4.3168804296522999e-002
    3.3486285481582421e+000 -9.0213456618844952e-003
    4.0567707407083298e-001 -5.6520757306808903e-002
    1.1714629185028200e-001 -1.0707044171892886e-001
    4.8746190903667587e-002 -2.3283518624273153e-001
    2.4206021084268298e-002 -4.0371398208278630e-001
    1.5837614832569697e-002 -6.3219942616716562e-001
    1.2975054397056825e-002 -9.5631224949927762e-001
    1.2598930334074471e-002 -1.3313982066034313e+000
    1.2909202304617699e-002 -1.4695470112948006e+000
    1.2995571562989396e-002 -1.2566702591566601e+000
    1.2671697814422914e-002 -1.0266691285040555e+000
    1.2675661403069052e-002 -1.0408309344280280e+000
    1.2861534188066267e-002 -1.2929717133394716e+000
    1.2903018479859890e-002 -1.4301409590215803e+000
    1.2746721531007997e-002 -1.1324856427578909e+000
    1.4695564506111689e-002 -7.5262185702886897e-001
    2.1688482313581822e-002 -4.6866877179803118e-001
    3.9613795815800254e-002 -2.6699404053941089e-001
    9.8830100504985433e-002 -1.4395007861319403e-001
    3.7800746178225031e-001 -6.3085214320634742e-002
    3.3507181351563804e+000 -7.5066424489508557e-003
    5.8088390688430502e-001 -4.2318882590414303e-002
    1.3805281361156235e-001 -1.0261078878028101e-001
    5.0584635166592742e-002 -2.2033716294567898e-001
    2.4566403404056823e-002 -3.9535238351204460e-001
    1.5501258309332083e-002 -6.2481197006737299e-001
    1.2658105044140461e-002 -9.3762841001735664e-001
    1.2621580884383818e-002 -1.3044292707667635e+000
    1.3038882118027886e-002 -1.3895307754147657e+000
    1.3212538839694666e-002 -1.1344004159116525e+000
    1.3223136670821664e-002 -8.9949953156793649e-001
    1.3282393534132091e-002 -9.0399715013363247e-001
    1.3047228431944851e-002 -1.1221445246291151e+000
    1.2818908271137850e-002 -1.2828476194051281e+000
    1.2607359988811559e-002 -1.0833223460470813e+000
    1.3964801513496123e-002 -7.5730623980542311e-001
    1.8955100091300709e-002 -4.9232301910278214e-001
    3.3822992009712963e-002 -2.9865482296073292e-001
    8.8714912314634131e-002 -1.5810087725345412e-001
    4.0677805882948143e-001 -6.7667529509506788e-002
    3.9598359344147456e+000 -7.5237219636953168e-003
    1.2307324192379476e+000 -3.3749773116385315e-002
    2.0855302259374242e-001 -9.8294281130590105e-002
    5.8060126519258883e-002 -2.2096699882361506e-001
    2.4575858578504688e-002 -3.9409953586235574e-001
    1.5207801359760929e-002 -6.1413503411307824e-001
    1.2618384356733200e-002 -9.0633228367824992e-001
    1.2704747218845970e-002 -1.2503563801467878e+000
    1.3237032429856799e-002 -1.3737451791007074e+000
    1.3043755173858853e-002 -1.1428697626921434e+000
    1.2957635074756972e-002 -9.4965578899134839e-001
    1.3253569800501687e-002 -9.7777127817926257e-001
    1.3299259248785014e-002 -1.1455235848938521e+000
    1.2945137089567306e-002 -1.2023522476099091e+000
    1.2819297406905949e-002 -1.0090778861704777e+000
    1.3931458128271023e-002 -7.1653673371519278e-001
    1.8031005407638696e-002 -4.8399671169721170e-001
    3.2458796809496350e-002 -3.0941205614764855e-001
    9.8169635143548636e-002 -1.6946323428120388e-001
    5.6439386786075396e-001 -5.5922416535900923e-002
    5.1648472792706617e+000 -7.9091896061201754e-003
    1.8414654995199944e+000 -1.9582836466551283e-002
    2.6317501185034464e-001 -1.0106672746157068e-001
    6.1768879888151794e-002 -2.2617468085977255e-001
    2.4310376794972804e-002 -3.9275360238350671e-001
    1.4941435247028855e-002 -6.0170133858823072e-001
    1.2473534860211166e-002 -8.6002481320505142e-001
    1.2418090708391945e-002 -1.1772316888855097e+000
    1.2834521368159699e-002 -1.3594470765008420e+000
    1.2868047703315302e-002 -1.2812124262016120e+000
    1.2731610218128140e-002 -1.1621476484915092e+000
    1.3015622313793159e-002 -1.1844633390122417e+000
    1.2961528136693852e-002 -1.2280723531314193e+000
    1.2717643601227997e-002 -1.1796522379558927e+000
    1.2837030524870386e-002 -9.4401446741926354e-001
    1.4047117750755790e-002 -6.6548434458880734e-001
    1.8146372549017530e-002 -4.6462288651155448e-001
    3.3052333593973526e-002 -3.0331606238864006e-001
    1.0190228573341976e-001 -1.7029469127046554e-001
    7.2096589858403215e-001 -4.5163873464314629e-002
    7.6347685514968830e+000 -8.0108452600568484e-003
    3.1250994849553644e+000 -1.8965240897837618e-002
    3.5635505174147691e-001 -1.0656393445293576e-001
    6.4365986338230347e-002 -2.2702686336358438e-001
    2.3940544316635535e-002 -3.8959615566429212e-001
    1.4607709751433159e-002 -5.9587343105895718e-001
    1.2228240520927436e-002 -8.4139782481018810e-001
    1.1968406888546956e-002 -1.1357191009431742e+000
    1.2152375946173759e-002 -1.3384172587503373e+000
    1.2327332719239149e-002 -1.3400173882178417e+000
    1.2150811771928043e-002 -1.2800449308435184e+000
    1.2176431709216099e-002 -1.2983978820382911e+000
    1.2130651287604368e-002 -1.2537836345684672e+000
    1.2057880620704620e-002 -1.1450397735688449e+000
    1.2447982422723042e-002 -9.0355732957484103e-001
    1.3840590473811008e-002 -6.3632294270318335e-001
    1.8280110634487236e-002 -4.4397190799361874e-001
    3.3521641114720217e-002 -2.8339822616114313e-001
    1.0211548803454371e-001 -1.5203372479090205e-001
    1.0720059778904503e+000 -3.6145963409572220e-002
    1.3212838848699565e+001 -7.4938824539599949e-003 1. 0.
    8.3550363206121225e-001 -2.1679545794062022e-002
    6.8572510057574060e-002 -1.8908340230406415e-001
    2.3251269504233535e-002 -3.6237244956636272e-001
    1.3947805703661395e-002 -5.7466873896033754e-001
    1.1607007819815838e-002 -8.1218838270518723e-001
    1.1306994893524337e-002 -1.0845031541484000e+000
    1.1611721783032325e-002 -1.2275114203941848e+000
    1.1880108061867733e-002 -1.1298214217201710e+000
    1.1626029888453113e-002 -1.0405380822355126e+000
    1.1391921559762572e-002 -1.0935201226690674e+000
    1.1673488168255048e-002 -1.1350614243315473e+000
    1.1374598710360482e-002 -1.0700928803812153e+000
    1.1768420459037346e-002 -8.6602665793007239e-001
    1.3467601032774407e-002 -6.1264198446785445e-001
    1.8434208404661562e-002 -4.1213365428423726e-001
    3.4435586384774321e-002 -2.5373430638182504e-001
    1.0806413923932416e-001 -1.2604060864855976e-001
    1.8324042840367840e+000 -1.3406695552888020e-002 1. 0.
    9.3893556792198396e+001 -5.3253300508861066e-003
    8.8180723246982451e-001 -5.8190324985318370e-002
    7.4427545910700194e-002 -2.2243415990956417e-001
    2.4510813075651412e-002 -4.0157196036060716e-001
    1.4557686310825733e-002 -6.1788611907056956e-001
    1.2215952257603625e-002 -8.8137594955817644e-001
    1.2194769094919669e-002 -1.1639639606732932e+000
    1.2939561783401849e-002 -1.2985352780054167e+000
    1.3089492378652593e-002 -1.1278032543205598e+000
    1.2901478375101786e-002 -9.6731452792182282e-001
    1.2515750827836951e-002 -9.8822221944960409e-001
    1.2730076782837494e-002 -1.0941808389579295e+000
    1.2126778688249141e-002 -1.0834502821659369e+000
    1.2135259154148686e-002 -9.1892884586180079e-001
    1.3809213608253306e-002 -6.7346026691518934e-001
    1.9057053561462398e-002 -4.5384192284016389e-001
    3.6038520157194574e-002 -2.8259420140732050e-001
    1.1013338446300058e-001 -1.5576020616336572e-001
    9.2543258072179857e-001 -7.4637162452791742e-002
    5.4211007688511884e+001 -9.2240038037339784e-003
    1.6796380584372503e+001 -7.1447610460138831e-003
    7.1239545748059840e-001 -6.8102120839608010e-002
    8.3086887193693004e-002 -2.2556901167231957e-001
    2.6318997923760315e-002 -4.1019512539815894e-001
    1.4974430152337440e-002 -6.3626953747619674e-001
    1.2369150498535588e-002 -9.2861652551857887e-001
    1.2566138269815036e-002 -1.2653131596373390e+000
    1.3319100925215096e-002 -1.3935640494232113e+000
    1.3091371492978053e-002 -1.1350003388446301e+000
    1.3220057578520862e-002 -8.8453593371819017e-001
    1.3156506277897998e-002 -8.7191599219480931e-001
    1.2724184331175219e-002 -1.0086092829811317e+000
    1.2161273346459171e-002 -1.0928964548369533e+000
    1.2103116397783074e-002 -9.7195819296703068e-001
    1.3607485997133207e-002 -7.1951545403132533e-001
    1.8773106601887798e-002 -4.8004754919022341e-001
    3.4456609612423923e-002 -2.9191528661437793e-001
    1.0035289892553174e-001 -1.6246907522498388e-001
    6.4369325643179065e-001 -7.1227379593252052e-002
    2.8638985193262673e+001 -1.2182309443295809e-002
    5.5595496069976171e+000 -1.0247872400386953e-002
    5.0192325975334717e-001 -7.2606146612648498e-002
    8.4292110166686154e-002 -2.0339777256850874e-001
    2.8253853265833958e-002 -3.9705785867803112e-001
    1.5634588375745242e-002 -6.4281067199198083e-001
    1.2588187112664427e-002 -9.7216017020809076e-001
    1.2776572067799983e-002 -1.3666051630858285e+000
    1.3516641178893533e-002 -1.5081379354535300e+000
    1.3167308912654545e-002 -1.1711996977327228e+000
    1.3478644020717315e-002 -8.6241343397474923e-001
    1.3680676579934315e-002 -8.5066123414372219e-001
    1.2818785701076640e-002 -1.0455513162341639e+000
    1.2295841162486613e-002 -1.1933985049144524e+000
    1.2186341922487352e-002 -1.0551036645647316e+000
    1.3460975591666388e-002 -7.5808505635153434e-001
    1.8359753787730936e-002 -4.9718419435393330e-001
    3.2756438710587144e-002 -2.9888218315082504e-001
    8.4640173465996602e-002 -1.6155632803928477e-001
    4.2690604254247488e-001 -6.8606656923353229e-002
    5.7414689242058303e+000 -1.5956213441062059e-002
    3.9868249063963490e+000 -1.4584703880132973e-002
    4.2987374571516829e-001 -7.7056176351007533e-002
    8.4743477681231652e-002 -1.8771270288066821e-001
    3.1177404737925789e-002 -3.6619901132028665e-001
    1.7343967833469490e-002 -6.2310305854057102e-001
    1.3285166322768282e-002 -9.6691733368452604e-001
    1.2981693295563004e-002 -1.3970916510762346e+000
    1.3570003056920183e-002 -1.6030263121111936e+000
    1.3003619664532092e-002 -1.2654307105662321e+000
    1.3027123120112038e-002 -9.5752846023016736e-001
    1.3248687046023732e-002 -9.5348053849174075e-001
    1.2812345049623402e-002 -1.1816155519233007e+000
    1.2533574641812952e-002 -1.3384359929873195e+000
    1.2395397516068545e-002 -1.1170290881950553e+000
    1.3956969962099008e-002 -7.7062794380159350e-001
    1.9221807376254701e-002 -4.9804066492555960e-001
    3.3690230220335377e-002 -3.0115987521832793e-001
    8.0061300131272134e-002 -1.5985015163322308e-001
    3.2730154952643120e-001 -6.9408756695648485e-002
    2.2565368743854077e+000 -2.6236568598758392e-002
    2.2058484546383714e+000 -1.0759320936897028e-002
    3.9964985183196949e-001 -5.5329682007874408e-002
    1.0322218773197823e-001 -1.5409416120542205e-001
    4.0204539460221407e-002 -2.9561732140953934e-001
    2.1412991183714074e-002 -5.2808105183768284e-001
    1.4766618521064496e-002 -8.2713331543626012e-001
    1.3133667375523321e-002 -1.2198269282897074e+000
    1.3331569136357675e-002 -1.5238543431369738e+000
    1.3064662409530243e-002 -1.4083997284252772e+000
    1.2821576779577532e-002 -1.1943431665458011e+000
    1.2925948996563344e-002 -1.1925321531193731e+000
    1.2866697286410591e-002 -1.3360855378517296e+000
    1.2731606536585654e-002 -1.3112475201629585e+000
    1.3333217765725033e-002 -1.0323872364916964e+000
    1.6334873322955398e-002 -7.0402085727497710e-001
    2.3895578690075778e-002 -4.4811714894131499e-001
    4.1982799432403871e-002 -2.6867420094463262e-001
    9.2522481169703519e-002 -1.4013103463436252e-001
    2.7554434726033650e-001 -6.2027366603878031e-002
    1.3804238812788661e+000 -2.7285127336056762e-002
    2.9412532217779677e+000 -1.4096128930620665e-002
    4.1701949135592337e-001 -4.6618008533733657e-002
    1.3122485782250984e-001 -1.1105158968718880e-001
    5.5916413120595497e-002 -2.2444105803539707e-001
    2.8943860058750031e-002 -4.0045750652194584e-001
    1.8486686433527372e-002 -6.1900648270375203e-001
    1.5048379169364004e-002 -8.8919136931756526e-001
    1.4139952515491492e-002 -1.1163023959396314e+000
    1.4000658659961794e-002 -1.1896005865141028e+000
    1.3987387993687855e-002 -1.1473577146213816e+000
    1.3953852282380955e-002 -1.1154055725727208e+000
    1.4118256167846253e-002 -1.0723180496963192e+000
    1.4906960165868486e-002 -9.4177890315413604e-001
    1.7145767174339552e-002 -7.3557543779093548e-001
    2.2915751623376349e-002 -5.1552415473200575e-001
    3.6857772669315336e-002 -3.2679589858201102e-001
    6.4496146302642970e-002 -1.8399042433884447e-001
    1.2031305740901216e-001 -9.8988819289557592e-002
    2.8714849728054359e-001 -5.0959229106475386e-002
    1.1345164170527162e+000 -2.2875001347715203e-002
    3.9258059133479746e+000 -2.0595924736107968e-002
    5.6709403003705261e-001 -3.5589118579587596e-002
    2.2746388375114843e-001 -7.7412417233290759e-002
    1.1179768074602479e-001 -1.5153225615906193e-001
    6.2037123240014556e-002 -2.6836953752577092e-001
    3.9891317571247711e-002 -3.9613142855801775e-001
    3.1257056480379790e-002 -5.2308745624584085e-001
    2.7523178479731673e-002 -6.1216847051265366e-001
    2.4656413192794296e-002 -6.4089473615998949e-001
    2.3512203296392840e-002 -6.3108625929140938e-001
    2.3637420463199832e-002 -6.0102714771627097e-001
    2.5603539286893337e-002 -5.5687244152887905e-001
    2.9883726868082518e-002 -4.9676494676839233e-001
    3.6115056193489939e-002 -4.1108567224389148e-001
    4.8807994029223825e-002 -3.1176049091485220e-001
    7.7345171093332554e-002 -2.1252320173400646e-001
    1.4119088082811446e-001 -1.3016403439415741e-001
    2.4041093523418425e-001 -6.8012916935491080e-002
    4.3752628585767828e-001 -3.6391248516024453e-002
    1.1299691847384068e+000 -1.7431960879610166e-002 1. 0. 1. 0.
    3.1297852264066137e+001 -5.3253300508861075e-003
    7.4698815878817264e+000 -7.6260028121187115e-003
    2.5659008521242366e+000 -1.3752524205299625e-002
    1.3600176316042933e+000 -1.8165451166537790e-002
    9.5693579961043729e-001 -2.3772105619452203e-002
    6.9893714874544999e-001 -2.4022681685604893e-002
    6.4213591926639069e-001 -2.4292014754880898e-002
    6.0597952347378525e-001 -2.5570641491903481e-002
    5.7610150410346439e-001 -2.6548079975275207e-002
    5.7152796989435628e-001 -2.6466981675906297e-002
    5.8854051337047886e-001 -2.5769405684258836e-002
    6.1838492275538126e-001 -2.4866568938182534e-002
    6.9376222954546740e-001 -2.4159601221729120e-002
    1.0932551534001975e+000 -2.2787129221823021e-002
    2.2971497409082113e+000 -1.4852682441286113e-002
    3.7939664615804802e+000 -8.8224271857073808e-003
    6.1744306553645014e+000 -6.1283802551614312e-003
    2.0865234842710755e+001 -5.3253300508861066e-003 1. 0. 1. 0. 1. 0.
    1. 0. 1. 0. 1. 0. 1. 0. 1. 0. 1. 0. 1. 0. 1. 0. 1. 0. 1. 0. 1. 0. 1.
    0. 1. 0. 1. 0. 1. 0. 1. 0. 1. 0.</input_scale>
  <output_scale>
    5.2631578947368418e-001 4.9999999999999994e-001
    5.2631578947368418e-001 4.9999999999999994e-001
    5.2631578947368418e-001 4.9999999999999994e-001
    5.2631578947368418e-001 4.9999999999999994e-001
    5.2631578947368418e-001 4.9999999999999994e-001
    5.2631578947368418e-001 4.9999999999999994e-001
    5.2631578947368418e-001 4.9999999999999994e-001
    5.2631578947368418e-001 4.9999999999999994e-001
    5.2631578947368418e-001 4.9999999999999994e-001
    5.2631578947368418e-001 4.9999999999999994e-001
    5.2631578947368418e-001 4.9999999999999994e-001
    5.2631578947368418e-001 4.9999999999999994e-001
    5.2631578947368418e-001 4.9999999999999994e-001
    5.2631578947368418e-001 4.9999999999999994e-001
    5.2631578947368418e-001 4.9999999999999994e-001
    5.2631578947368418e-001 4.9999999999999994e-001
    5.2631578947368418e-001 4.9999999999999994e-001
    5.2631578947368418e-001 4.9999999999999994e-001
    5.2631578947368418e-001 4.9999999999999994e-001
    5.2631578947368418e-001 4.9999999999999994e-001
    5.2631578947368418e-001 4.9999999999999994e-001
    5.2631578947368418e-001 4.9999999999999994e-001
    5.2631578947368418e-001 4.9999999999999994e-001
    5.2631578947368418e-001 4.9999999999999994e-001
    5.2631578947368418e-001 4.9999999999999994e-001
    5.2631578947368418e-001 4.9999999999999994e-001
    5.2631578947368418e-001 4.9999999999999994e-001
    5.2631578947368418e-001 4.9999999999999994e-001
    5.2631578947368418e-001 4.9999999999999994e-001
    5.2631578947368418e-001 4.9999999999999994e-001
    5.2631578947368418e-001 4.9999999999999994e-001
    5.2631578947368418e-001 4.9999999999999994e-001</output_scale>
  <inv_output_scale>
    1.8999999999999999e+000 -9.4999999999999996e-001
    1.8999999999999999e+000 -9.4999999999999996e-001
    1.8999999999999999e+000 -9.4999999999999996e-001
    1.8999999999999999e+000 -9.4999999999999996e-001
    1.8999999999999999e+000 -9.4999999999999996e-001
    1.8999999999999999e+000 -9.4999999999999996e-001
    1.8999999999999999e+000 -9.4999999999999996e-001
    1.8999999999999999e+000 -9.4999999999999996e-001
    1.8999999999999999e+000 -9.4999999999999996e-001
    1.8999999999999999e+000 -9.4999999999999996e-001
    1.8999999999999999e+000 -9.4999999999999996e-001
    1.8999999999999999e+000 -9.4999999999999996e-001
    1.8999999999999999e+000 -9.4999999999999996e-001
    1.8999999999999999e+000 -9.4999999999999996e-001
    1.8999999999999999e+000 -9.4999999999999996e-001
    1.8999999999999999e+000 -9.4999999999999996e-001
    1.8999999999999999e+000 -9.4999999999999996e-001
    1.8999999999999999e+000 -9.4999999999999996e-001
    1.8999999999999999e+000 -9.4999999999999996e-001
    1.8999999999999999e+000 -9.4999999999999996e-001
    1.8999999999999999e+000 -9.4999999999999996e-001
    1.8999999999999999e+000 -9.4999999999999996e-001
    1.8999999999999999e+000 -9.4999999999999996e-001
    1.8999999999999999e+000 -9.4999999999999996e-001
    1.8999999999999999e+000 -9.4999999999999996e-001
    1.8999999999999999e+000 -9.4999999999999996e-001
    1.8999999999999999e+000 -9.4999999999999996e-001
    1.8999999999999999e+000 -9.4999999999999996e-001
    1.8999999999999999e+000 -9.4999999999999996e-001
    1.8999999999999999e+000 -9.4999999999999996e-001
    1.8999999999999999e+000 -9.4999999999999996e-001
    1.8999999999999999e+000 -9.4999999999999996e-001</inv_output_scale>
  <weights>
    <_>
      -4.6222180089869102e-003 -3.0386965129628293e-003
      4.1951311306622193e-003 1.2393182417243767e-003
      3.9910867379776820e-003 -3.6096718242828603e-003
      2.7212430466679316e-003 -4.3222094542688183e-003
      4.2447361673685078e-003 -2.9648579954383437e-003
      1.8223902578679845e-003 2.2345350336514091e-003
      -2.8510467270295809e-003 3.2893528653748744e-003
      6.6332868772747005e-004 2.3070695693070183e-003
      4.4132864887138209e-003 2.4871913685018442e-003
      6.6752844171497007e-004 4.5411576321843479e-003
      2.6542105002752810e-003 1.3940396294657149e-003
      3.9125175763899530e-003 3.0413716111723937e-003
      -1.3362404417424599e-003 -2.2059426488131306e-003
      1.5680867236652495e-003 2.6706976345374977e-003
      -3.8907308630967393e-003 -1.4327270612453627e-003
      -1.1536972816925295e-003 -4.6264017750555914e-003
      2.3060224160819263e-003 1.3092783029316777e-003
      -1.8383566451348704e-003 3.9834846521900739e-004
      -2.9908813254164806e-003 4.1617280994612621e-003
      -4.4932590840112627e-003 -4.6598758093927663e-003
      1.2861381847023793e-003 -4.9377651111871367e-004
      -2.9506613804476368e-003 -2.9307322729695330e-003
      2.0694142749792597e-003 3.6126918873206678e-003
      4.8341336313847258e-003 1.6555333764410316e-003
      -1.8915031729696118e-003 6.3986230241183998e-004
      -2.6937071349175212e-003 -2.0456329913700453e-004
      -3.8397497722587183e-003 -2.5998439387365066e-003
      1.2625594265404177e-003 -1.8229237608033452e-003
      -3.5485943055033461e-003 -3.1430571140462818e-003
      -2.4621547577512448e-003 -1.5562364787584315e-003
      3.9465962783385364e-003 1.9445897513581125e-003
      -2.0512523005369746e-003 1.3795432742528333e-003
      1.5883914200944711e-003 1.6319220725004501e-003
      -2.3643416429982751e-003 1.8106297601928724e-003
      -4.7374210554400140e-003 5.6880728248780491e-004
      -3.6725714549732877e-003 -2.5920662679817202e-003
      2.8725399787440486e-004 8.3635052721691306e-004
      -2.8678647515879736e-003 1.4719575907745769e-003
      -3.0976136310436409e-003 3.9642033701190382e-003
      4.5363844566419630e-003 4.2988454258555504e-003
      -4.8108213563682499e-003 -4.2817316452198684e-003
      2.0251181385126668e-004 1.4318919384391968e-003
      -1.8672345114128803e-003 -1.7333742334773134e-003
      -3.9045569749589469e-003 5.6491604324825887e-004
      7.8036035827621177e-006 4.1099302360720937e-003
      -2.0927461498505182e-003 -2.6279956628809118e-003
      4.1391044263893858e-003 -1.8829944215139963e-003
      4.4589804284261535e-003 6.0622435323023807e-004
      1.4538455969069577e-003 1.0063244392069025e-003
      3.5520411701148004e-003 -3.8485067180491070e-003
      -7.7695574176499466e-004 -3.4223608190397828e-003
      -1.2787527935625004e-003 4.6216685150028899e-003
      2.7902824190821781e-003 4.4540194340013210e-003
      9.6362806363266252e-004 3.2971025865644711e-003
      2.1063584495908763e-003 -2.0822562636899095e-003
      2.8864432769716460e-003 -2.2287280881655815e-004
      -3.2487751328682231e-003 -1.6637057910007122e-004
      4.6998134805608990e-003 3.8753132525677085e-003
      5.0920072121160846e-004 3.8765447843678944e-003
      -4.1325140825440396e-003 -3.5444265093086376e-003
      4.3015752880493779e-003 -3.7110712366382535e-003
      -4.3361205254166327e-003 5.1566338849717034e-003
      -3.9791159955182053e-003 2.0340101534452593e-003
      1.5944370790950350e-003 -4.0883589033024002e-003
      -2.1511219261158832e-004 -3.6493688271758461e-003
      2.2506392641068844e-003 2.2313667931869938e-003
      -9.4943131670522068e-004 1.9068519598256805e-003
      4.1296695600824569e-003 4.3091136164203139e-003
      -2.1552803689897926e-003 -2.3400453506371706e-003
      -2.3162366264342653e-003 -4.3794371809704746e-003
      -4.6294544969943292e-003 2.8776311372734212e-003
      -3.8795869166235544e-003 2.2428074307504825e-003
      -3.8358615237973214e-003 1.1728225894667322e-003
      -3.1071943215289495e-003 3.9861142294205492e-003
      3.1846707833046422e-003 -4.4334292756442548e-003
      1.4212821494564206e-003 -3.0470132373285825e-003
      -2.0911385281922727e-003 -3.1734441344305102e-003
      3.2304997057587123e-003 1.8990682160172911e-003
      2.8157064717315799e-003 -1.0528168660828793e-003
      1.7279837822281633e-003 2.9349992969469099e-004
      -1.0539831750296408e-003 -1.0257491711496904e-003
      -1.9984161965575249e-003 2.7051444621732901e-003
      3.1410314236137351e-003 3.4695272033325717e-003
      -3.5859455570172579e-003 2.4631046261454153e-003
      4.8925653244496553e-003 3.0571286351795618e-003
      -3.1468230988576803e-003 -4.1537954032868267e-003
      3.1003209163921342e-003 4.2295527443812157e-003
      4.2672138835083712e-003 4.2401261281558500e-003
      -9.6750614773076179e-004 4.1641127102173799e-003
      -3.2627687891940227e-003 1.7403475588227237e-003
      -2.2327431882718102e-003 -3.2721434942178571e-003
      2.5183947571933746e-003 2.7535367690862504e-003
      -1.8107315983045035e-003 -1.8517084449777930e-003
      1.8629958307694063e-003 -4.4672396984591608e-003
      1.8433448687276799e-003 -9.7411543408456171e-004
      -2.7587052741414879e-003 1.1951269973259403e-003
      4.2687073922807791e-003 4.7258985234843363e-004
      1.1557961134744446e-003 1.0055675149410234e-003
      -8.8513746702735270e-004 -1.5317276963743851e-003
      -1.0018757495817245e-003 -4.1994242521559734e-003
      -3.0192986562172209e-003 -3.9629218922747128e-003
      -3.3775284583646132e-005 1.9858372839450336e-003
      -2.0716159669029082e-003 1.6076168303270075e-003
      3.0563454327652527e-003 -1.3989180154272492e-003
      -2.5769457616751324e-003 4.9711290945740590e-003
      -1.8211122489984531e-003 2.5210516523581977e-003
      -5.9822848514318682e-004 1.2966824364491472e-003
      -2.1502752877916669e-003 1.9353294818848345e-003
      -3.8159975277577248e-004 -2.0159822884408289e-004
      -1.2562906298949396e-003 -5.0796805918467997e-004
      1.0184311573069163e-004 3.7786697693535963e-004
      -1.8218697339330077e-003 1.3274566711086063e-003
      -2.2109453702163990e-003 3.1026795601207706e-003
      7.0381326436841631e-005 -1.0515704000539669e-003
      4.9283035142787535e-003 -4.2832448781853513e-004
      3.2856835427117446e-003 2.4915079106945788e-003
      -4.8543456915862730e-003 3.8979093276328663e-004
      3.5824317441728189e-003 -2.2195046958161904e-003
      -2.7203000943790503e-003 -4.2001728049903941e-003
      4.0741229681363700e-003 -1.4919471293616145e-003
      3.0288291998666109e-003 8.0309408815687022e-004
      -2.1525956360041484e-003 1.4109957079640318e-003
      -1.8819726344801800e-003 -4.4736827791917880e-003
      2.1872761428835706e-003 -4.0600594512353133e-004
      9.1758736652363846e-004 4.0097982241848852e-003
      -3.5376286347447517e-003 -4.0441639786810302e-003
      -3.5419809209699003e-003 -1.8773187598502699e-003
      -4.7654023041936782e-003 1.1358322822972828e-003
      7.2094832605908187e-004 3.2826683028150880e-003
      -7.3613935721177212e-004 -3.0013772181585120e-003
      3.0456624837697992e-003 1.8930545431341983e-003
      -4.8609685821415054e-003 -8.9576565022660897e-004
      3.0285697469817638e-003 1.4546726520641203e-003
      8.4989960043608550e-004 -3.0328695698650658e-003
      5.0189697537539662e-003 2.1144588119505819e-003
      -4.6562680012438027e-003 4.7059797672945074e-004
      2.4529230046671309e-003 1.6330575746910856e-003
      -4.5274870512645735e-003 -8.2229519086903316e-004
      -9.4740187010106613e-004 4.3318102775026521e-003
      1.1507583521921767e-003 -1.8223202103237917e-003
      3.7729266146134728e-003 4.5805032836796905e-003
      1.5662744885507757e-003 -1.5201459399774709e-003
      -3.1877665380743722e-003 -4.2797259256367764e-004
      -1.8841173846132521e-003 1.9635713360748120e-003
      2.3469385729701451e-003 3.2391363213827682e-003
      3.3342050357456194e-003 3.9991405377923272e-003
      -1.3386380823605304e-003 9.2607705644261911e-004
      -2.4093521000327872e-003 -3.0071216758546337e-004
      -2.3702628421345327e-004 -2.6581435211411392e-004
      -2.1576163838851514e-004 -2.5817910664278246e-003
      4.7081249332946587e-003 4.4930166486924139e-003
      -3.8751743812233627e-003 3.5263266308409071e-003
      4.1044882030785166e-003 -2.4296362606537748e-003
      2.7407218217761638e-003 1.8286617436704742e-003
      3.4134864401273459e-003 -1.6361141159096726e-003
      -4.3646721846362481e-003 -1.8977456291292853e-003
      2.8429671925708070e-003 -2.4644484839508787e-003
      3.5936981639492901e-003 9.8746835829837667e-004
      3.5418969312810381e-003 -1.7773628033753920e-003
      -3.8407289483803060e-003 -3.0877454459673028e-003
      -4.5616898387392186e-003 -4.6875545453827676e-003
      5.3209224059438964e-004 -5.7278626318714400e-004
      3.9245780587387107e-003 4.5439439487753334e-003
      -1.8848319855068276e-003 -2.4805218024117671e-003
      1.5554555068870450e-003 -1.6981292767557366e-003
      -2.4673428745266785e-003 2.9613349598096015e-003
      -8.6216581632468848e-005 3.7425627644134163e-003
      -2.3905863604121399e-003 3.9621632718827510e-003
      3.5873859894536607e-003 -9.0240343236675554e-004
      -2.8464935674232484e-003 3.3779062861133097e-003
      -4.2591812174551952e-003 -2.8032617465259075e-003
      -4.7416080137275595e-003 2.8942625583741888e-003
      -3.8493527340057536e-003 4.0306099985372256e-004
      -2.3890890985498584e-003 2.8401316760132303e-003
      -2.3043934960146509e-003 -2.3126749485672103e-003
      -4.0279833307027722e-003 -2.0574407019897717e-003
      1.3484791408244514e-003 -2.8834617075532707e-003
      4.4224603303089889e-003 1.6014880662567890e-003
      1.5855434954729524e-003 1.5080223604761441e-003
      8.7314669041207678e-004 3.5704601091568278e-003
      8.4473290218875388e-004 -2.1491281186268186e-003
      -2.4435903814171689e-003 4.8396512509930106e-003
      -3.2169394979653571e-003 5.1619529733347783e-003
      6.8285537649022312e-004 1.5258547810191648e-003
      -1.9573949128976129e-003 4.3167233204608763e-003
      4.2853341070208748e-003 3.5936558696162738e-003
      -2.7979386289166764e-003 5.0491108055112635e-003
      3.0477921394776150e-004 1.2961795683618064e-003
      4.7032219875550625e-003 4.4882112599707738e-003
      -2.2285441238296356e-003 -9.8300971548921515e-004
      9.5630059973688200e-004 -5.0258135920656108e-004
      3.8412279939672767e-004 2.3435258911095208e-003
      -8.7977757825764467e-004 4.0516431316928768e-003
      4.6100217065952855e-003 -1.5015662046686045e-003
      3.2364255386143543e-003 -4.4279295209453595e-003
      -3.0576121761382766e-004 3.3873181999466411e-003
      -4.2950899902523413e-003 1.6040736245267679e-003
      1.4961500229958094e-003 -5.0956957870746549e-004
      -4.5712289473428510e-003 -3.0988346955645183e-003
      6.7464910357217117e-005 -1.7109320765968012e-003
      7.1420371520698528e-005 1.8688772514382646e-003
      -1.1395012547844039e-003 4.6078990801377354e-003
      2.1324312852632477e-003 -4.7354712999357271e-003
      4.3042005080525398e-004 2.9424347197031372e-003
      -2.3032814594515952e-004 -1.7362039948996804e-003
      5.9721609964249957e-004 1.7074177167336157e-003
      4.6267750366163398e-003 2.7203129641212172e-003
      -1.9787431160939364e-003 4.6966174061115924e-003
      -4.5153799378030452e-003 2.4261248299017775e-003
      -3.1279825804813371e-003 6.4457716037098095e-004
      1.6081560113274883e-003 -4.7348201954982700e-005
      6.7434797500688995e-004 -2.5773998030595336e-003
      1.2849586425357746e-004 1.6646258385707841e-004
      3.4771863785385804e-003 -7.0815453172679975e-004
      3.5066104188695860e-003 2.0462953756550050e-004
      -1.3837582977269715e-003 -1.0986174593051521e-005
      4.3401523393741858e-003 4.6898127052449343e-003
      2.5470356418627249e-003 -3.0571936584756270e-003
      2.5858899080707424e-003 2.0472722522242941e-003
      3.0388416120986318e-003 -6.4257334455487781e-004
      -4.1020953128887020e-003 -3.6389870789516479e-003
      3.3862912316147812e-003 4.6832816358236091e-003
      4.2044556233187284e-003 3.2749864584341679e-003
      -4.6664375593143542e-003 3.0065920983694126e-003
      4.6615041244590094e-003 -5.2685023684934790e-004
      3.2840624765676676e-003 -3.9354965315139417e-004
      -3.9032878612826820e-003 1.4818657536588289e-003
      2.2129683846624972e-003 -3.9137366777333834e-003
      -1.0815082662952254e-003 1.5907191177359004e-003
      -4.5498512325032351e-003 2.4470970329042545e-003
      -2.7411416114966501e-003 -4.7378192378403705e-003
      2.9201169663616447e-003 -1.6718968823751920e-003
      2.3320035694354472e-003 2.6560474365059381e-003
      -2.1459549804838224e-003 3.6810930258131291e-004
      -1.0918728851209251e-003 -2.5897736558792863e-003
      1.2662636529412665e-003 -4.1016655148711145e-003
      4.6861431381132728e-003 -7.3639470038115490e-004
      -1.7364607969628972e-003 -2.6136032370175032e-003
      6.7225242769337749e-004 3.4734007095860607e-003
      -4.9575868905279170e-003 -2.8292946732124038e-003
      -9.2840574203413139e-004 1.7448383994783758e-003
      -3.6714198014812897e-004 -1.6701089295383009e-003
      4.4756380724683522e-003 4.8388352995544946e-003
      -3.1730998450739799e-003 -8.2291570583766221e-004
      -3.4326616776510261e-003 -8.3727255543920062e-004
      4.2661511845251058e-004 -5.1314044922523240e-003
      -2.4903153421602904e-003 3.2612277774699333e-003
      -2.3221272378894683e-003 -4.9891340139843264e-004
      -1.8271867646407446e-003 -9.8889759958796248e-004
      5.9882747950629084e-006 -3.1209443941522070e-003
      4.9264133641204475e-004 2.9430808183473958e-003
      -2.4331389050270724e-003 -1.1996931982755049e-003
      3.7946857511109888e-003 -1.8504522073809441e-003
      -4.0860343117734245e-003 -4.0238585081462056e-003
      1.8695082089443876e-003 6.1799854958289008e-004
      -3.2037265069745115e-003 -2.6140450876223557e-003
      1.1556471896208833e-003 -3.5948268799641464e-003
      7.2645849015746781e-004 -3.3129657518928537e-003
      -4.6421292136478234e-003 7.5676569700772916e-004
      3.3219485422765599e-003 -2.6295631296605593e-003
      2.7890224024764137e-003 2.3088030338653075e-004
      -8.2615345098788358e-004 1.5413376903583353e-004
      -2.2159911162229866e-003 -8.5940809904821167e-004
      -2.2728536653892325e-003 -2.6295792859326947e-004
      -2.5704033437261656e-004 -2.3459478506514171e-003
      -2.5939110894525595e-003 4.4065455567517224e-003
      -2.8502259316247744e-003 3.1150062531443701e-003
      1.2460105906843043e-003 4.5709490054655745e-003
      -1.9187282660005707e-003 -2.7066031048125368e-003
      -3.8310744706149288e-003 1.6694684709550205e-003
      1.4732349167335239e-003 -7.7715963565945428e-005
      -1.0751530896694122e-003 2.0953081912117220e-003
      -4.0504339568270455e-003 4.3371705914425473e-003
      3.6397261437061930e-003 -4.8022760004250648e-003
      -2.0798970233880903e-003 -6.1573182623063751e-004
      -3.7599146918981651e-003 -4.0346363581717877e-003
      2.7628967249706824e-003 1.5133022535191115e-003
      -4.0251695751829623e-003 -1.1026374770916065e-003
      -4.1012339189164053e-005 2.9914963843896969e-003
      -7.7133475314892879e-004 -4.3126864069224181e-003
      3.8332902331423453e-003 -2.4082798703766858e-003
      2.0117794757436632e-003 -1.4760858728206110e-003
      4.8658355336863301e-003 -2.5760508947261312e-003
      -1.4939390705217825e-003 4.6289386422672064e-003
      1.5138144698627124e-003 2.9300316854352633e-003
      3.6745625529746848e-003 -1.4051763931695392e-003
      -2.7783242717376502e-003 1.7432875039738419e-003
      -3.4737545385920012e-003 2.2800883041274050e-004
      4.1646297492304810e-003 -4.6644746661571477e-003
      -3.6289101593428423e-003 3.2502380156689266e-003
      3.0070628359797551e-003 -9.7660066335177932e-004
      -1.0364024717427714e-003 4.7280837658071010e-003
      4.3115538404592648e-003 3.6768922875698830e-003
      -1.3249967704896367e-003 1.8643363520729397e-003
      3.4599309545405104e-003 8.2333020915407789e-004
      1.9174690261145990e-003 4.2423045892235776e-003
      1.1575119945754740e-003 -1.9441205086129280e-003
      -9.5220368209893863e-004 4.2324513329826579e-003
      6.8803207891232436e-004 1.9936502809399055e-003
      1.5313349416103529e-004 4.4471626398643440e-003
      1.2229822079533441e-003 -1.4982662338495489e-003
      1.0786112593368269e-003 -2.8019206731116921e-003
      -2.3640450307273724e-003 2.6301756514053591e-003
      -3.7223349398086470e-003 -2.1032321024913234e-004
      2.5588053504673751e-003 -3.2753831401402147e-003
      -4.4240174222727399e-003 -3.3473209221574488e-004
      -1.3899238095676771e-004 -6.1619802347339238e-004
      -4.2278231941955879e-003 -9.0295825450381097e-004
      4.8089652594817750e-004 1.8664975157177254e-003
      -4.1502334254598051e-003 -1.7577368866239030e-003
      1.5344180507460509e-003 7.4855675650853804e-004
      -3.0684840578158348e-003 4.9253025559326830e-003
      3.5713438097376097e-003 4.5473880233665859e-003
      3.7217682063956305e-003 -3.4278985812146749e-003
      -2.0760406347174565e-003 1.2455785907180801e-003
      -4.3285276459608876e-003 4.7324669415129833e-003
      3.3230104972150048e-003 -2.8213522613718509e-003
      -1.3274010863282854e-003 -2.8847170504403960e-003
      2.0196090268510881e-003 -2.3548048371413452e-003
      -3.0499132001309604e-003 -3.4226296353080291e-004
      3.9206668316373898e-003 3.9227627005271682e-003
      -4.4070745864588246e-003 -1.7269382830383184e-003
      -1.6430389378695696e-003 3.0915916013913407e-003
      -1.2948331088329266e-003 -1.3910142775834012e-003
      -1.0025340610577899e-003 -4.4160774584669927e-003
      -8.2783700962227595e-004 2.5756836217156269e-003
      -9.0916433784548515e-006 4.6692736270851146e-003
      -1.7557513247067565e-003 8.1572442145993887e-004
      -6.7718053846921355e-004 -3.2076201173423312e-003
      -1.5750331849956486e-003 -3.7097954574032864e-003
      -4.4132979181611921e-003 4.0995900545092445e-003
      2.3403234978529733e-003 -1.3745301017782994e-003
      2.1645172021401119e-003 -4.2769013328250770e-003
      -4.4582697855003522e-003 1.3992546603450813e-004
      -6.0246953916726960e-005 4.3838142883372289e-003
      -2.2031123929905938e-003 -2.3478297981410290e-003
      1.3472225875310545e-003 7.3494668397963594e-004
      -3.6565043950433831e-003 -3.6542312224672434e-003
      3.5459343957911652e-003 1.2769589795176646e-003
      1.6813698596694056e-003 5.7499471709463899e-004
      1.6631260301051124e-003 -3.1680769955756537e-003
      -5.4999698516686895e-004 -1.3213052931879531e-004
      2.0096443335905051e-003 3.7225986258980053e-005
      -2.4432784346977597e-003 -2.6120236501021867e-006
      2.2680132849204437e-003 -3.7189905765090394e-003
      1.2490153679090596e-004 3.8907705879788609e-003
      4.5892937928784421e-003 1.1153558925067579e-003
      -3.5372005917979669e-003 -1.3056118520453678e-003
      2.7917719549241772e-003 -4.8957903478149762e-003
      -2.7266562030407813e-003 1.5176714188057390e-003
      -3.5086137322659916e-003 1.8733651353236601e-003
      4.9775590416218859e-003 -2.7855156685532472e-003
      3.4177600412352211e-003 3.4289741499960872e-003
      -4.4807223194995886e-003 -3.1448554690451224e-003
      -9.0313838201451231e-004 4.2567933739408293e-004
      4.3217719796049088e-003 3.2686764120715001e-003
      -1.0318933945912760e-003 -4.8082751626960058e-003
      2.8588103915278924e-003 1.8754582236144718e-003
      2.8819175121052821e-003 2.8087390596225866e-003
      3.7446296845933362e-003 -3.2374424783051473e-003
      1.5645507249782702e-003 3.5515686524584308e-003
      -1.7673190325954418e-003 -2.8754855272457125e-003
      -9.8206276017617387e-004 -3.2027357207178200e-003
      -2.0933723166414800e-003 3.6389906416246262e-003
      -1.7396568935210109e-003 -3.6687447401666023e-003
      3.6599821157312943e-003 -2.2825251733305340e-003
      -3.8950046222393894e-003 -4.2207101862792281e-003
      -1.1188263884665910e-003 1.8519480255265567e-003
      -1.6026181835985581e-003 -1.1923029500435494e-003
      -4.2266742018087439e-003 3.8375475964581309e-003
      -1.4542910807288532e-003 -1.8332755881539020e-003
      7.2978588911098432e-004 -1.2192299098968823e-003
      3.4457361031726575e-003 -2.4511778434498374e-003
      -4.2033808312813845e-003 -2.8202107756870091e-003
      3.8536978652563537e-003 -2.9610039521365053e-003
      1.9856267622819714e-003 -1.8777075003469030e-003
      4.2693661053350941e-003 3.2674934774664052e-003
      -1.5415989098477925e-003 1.1809385579844129e-003
      -1.8404073211460603e-004 -2.1183465252304565e-003
      1.7957709994791612e-003 -3.6447023072264948e-003
      3.8583195801601524e-003 -2.6197182628301262e-003
      -2.9352922929167468e-003 -7.7514968181387884e-004
      2.7022258620527872e-003 4.3978375064463527e-003
      1.9508226898159147e-003 -7.4169705178093906e-004
      3.6663337924105474e-004 3.2264323797381498e-003
      -2.0995514136097231e-003 -3.4923107949076827e-004
      -3.0389138825220523e-003 2.1243896285543535e-003
      2.3539918154033470e-003 4.8721425693837523e-003
      -1.5839862334468130e-003 -1.4177830106338698e-003
      3.1617381344998040e-003 -6.6232284846096448e-004
      3.7579938271329455e-004 -2.7268634664340168e-003
      3.7670530067799046e-003 4.9331330995699670e-003
      2.2055657533985820e-004 -1.2153775079367718e-003
      4.8641320801089171e-003 4.0690363215115447e-003
      4.5652385490528612e-004 2.9819231910571111e-003
      -4.0664033087593398e-003 4.2141917929488307e-003
      4.3631403397140648e-003 -4.0046069567249042e-004
      -3.2311171202963384e-003 -9.6659743050111319e-004
      -1.0930811726143465e-003 1.5341141373694249e-003
      -1.3721731605861797e-003 3.7396853008890914e-003
      3.8723999062832211e-003 3.7732197366287701e-003
      4.5926277210098544e-003 5.0521872157478246e-003
      -4.0319046591121392e-003 8.7375048013894451e-004
      -7.0862125567542494e-004 4.2385029433402088e-003
      -3.5665585461373841e-003 -6.9755546779678469e-004
      -4.3386741899087301e-003 2.3165813974989316e-003
      3.1011833097876907e-003 -2.6964629541900331e-003
      2.9380234113818085e-003 6.9747925014212336e-004
      -1.3120572371039952e-003 8.9735803451946965e-004
      1.6813083580076104e-003 -5.0491842759991005e-004
      2.8056836894258651e-003 -4.7575342966837497e-004
      -3.0167989610360695e-003 8.8084549550459710e-004
      -3.9036480193153961e-003 -3.3609778890720809e-003
      4.7143988456940537e-003 -4.5657699690021527e-003
      -4.4500675917273722e-003 1.2515716598975493e-003
      2.9252664542367360e-003 -3.4807923204515983e-003
      -1.9814290017686450e-003 6.0280668802095434e-004
      -3.7603733048137303e-003 5.8713630881621157e-004
      8.7296144637413449e-004 3.3138580530580222e-003
      3.6264556259210123e-003 -3.3404557103009968e-003
      -1.5141699540767691e-003 -3.0424331570659377e-003
      4.5586327237650938e-003 -2.1977635159672331e-003
      2.0064155004187456e-003 -4.8062167688743881e-003
      4.8417855726310939e-003 4.3948817091649675e-004
      -3.3789263406996039e-004 -1.6158935978322030e-003
      -4.8026048631158768e-003 3.4544099285683102e-003
      -5.1615784533290548e-003 4.2282209138255677e-003
      -4.4920314474323660e-003 1.3989283398626753e-003
      -1.0133057403962956e-003 -1.0553091167282952e-003
      8.6816838000349894e-004 3.3737332000804078e-003
      -4.7754562599558008e-003 2.7848699596124595e-003
      -2.0604497661390335e-003 -2.3057402987873956e-003
      -4.1812312259641403e-003 -2.3649581191526447e-003
      -3.3612790216893877e-003 3.7243447820258061e-004
      -3.7816253728278214e-003 3.2459545486010323e-003
      2.2386265882187082e-003 1.4131180070820896e-003
      4.0507558257736999e-003 9.2083796449038326e-004
      2.3933020876577235e-003 3.4166590399760674e-003
      2.4620480901285493e-003 2.1347394471491025e-003
      3.6886520299003857e-003 2.2760655867603468e-003
      -1.4707520082898580e-003 -4.1410981007418048e-003
      -3.2493607705877093e-003 -4.5684058959213321e-003
      3.5336001590784878e-003 -1.1726017602793084e-003
      -4.1701816934648977e-003 2.9851406422346997e-003
      -3.6592867754609536e-003 -2.4334430697872432e-003
      4.2784461029351404e-003 1.6092174813016843e-003
      2.2010747341775303e-003 -9.3657987029859588e-004
      8.8134531591816680e-004 2.4621950258795081e-003
      -1.2500062815278782e-003 -1.5576501765648693e-003
      -1.9013897555650461e-003 -3.6210768975372034e-003
      2.6048830683187574e-003 4.1971782999374423e-003
      3.2479562444015873e-003 -1.7701958334028973e-003
      8.5679016893902766e-004 -1.6954380761264928e-003
      4.2114428017525837e-003 -3.7810548118201214e-003
      -3.8776105011889567e-003 -1.5539291110835602e-003
      -2.2949837096613184e-003 -3.5856382456260117e-003
      -3.1024705378622122e-003 2.6222259670192244e-003
      1.6069511524299974e-003 1.7718380107540949e-003
      -2.1873132756900287e-003 1.2560315937435841e-003
      -2.2190361440390174e-003 -3.3835101626067910e-003
      -1.9120094586419999e-004 -2.8781202121626820e-003
      2.0096406748251710e-003 -2.1334061091600365e-003
      -3.2653435895553759e-003 -3.5060355132724911e-003
      -1.7562727287359479e-004 -3.4206917521062440e-003
      1.8274113637523669e-003 -1.1833191568893966e-004
      1.6720961224374086e-003 -2.0272018234758480e-003
      1.0744912237818953e-003 -1.5469307720483317e-003
      3.5546425884917239e-003 4.4329764802183303e-003
      1.1195550531286479e-003 -4.5919320368559401e-003
      2.4670971812480644e-003 7.7680048147292708e-004
      3.9394027968645299e-003 -4.4313615062590989e-003
      -3.7044119198431568e-003 -2.6404599228509865e-003
      -2.5419352980309597e-003 -3.9090120899019356e-003
      5.1934564902344027e-005 2.5783814865067930e-003
      1.4935054853532176e-004 2.3010730207590289e-003
      2.5597252656305099e-003 4.2200501508713592e-003
      2.0143535488851014e-003 1.1741156000303859e-003
      2.1664615364160302e-004 -5.0095233970643919e-003
      1.0655550847853822e-003 -1.9749650133699562e-003
      -5.3608348231197196e-004 -2.7497579909082858e-003
      -4.6578290267129078e-004 -3.4250145568218513e-003
      3.2168918263403325e-003 3.0402798916037729e-003
      -5.0451672572618452e-003 -2.8568682370131212e-003
      -3.1503695216996532e-003 3.5552598152417164e-003
      -2.6001430514731002e-003 -7.4868205857372736e-005
      -3.5041813263178771e-003 4.5264328426026781e-003
      9.7420094368280751e-004 3.0924757719915205e-003
      3.7931531252583797e-003 -6.5282265249348508e-004
      5.5224079416243185e-004 -3.5424317066425682e-003
      -1.1804801188050218e-003 1.3635383368507214e-003
      8.4010101950098514e-004 -4.7780122471998750e-003
      -1.5071276486873853e-004 3.2677144880491047e-003
      -2.9568243568345817e-003 -3.4956297337144491e-003
      -2.2884557403602978e-003 -4.7003177324228106e-003
      2.4442410727658443e-003 -1.3813087408187151e-003
      -4.9674765799387829e-003 -4.4369818425278318e-003
      -4.7546844783551440e-003 2.2700320988212415e-003
      3.3852415480821094e-003 -4.0126133612524021e-003
      -1.2490345998560895e-003 1.4936887896371328e-003
      -3.2740623538912534e-003 1.1279320621331347e-003
      -3.0907881965551928e-003 3.9462739925354472e-003
      3.8635781833451449e-003 -3.8739622724918423e-003
      8.2564877909904592e-004 -4.2216457465507808e-003
      -2.1941514993576165e-003 3.0163561240619538e-003
      -2.7267123623664919e-003 3.5782258104779213e-003
      -1.9219650359011666e-004 1.4583101155037548e-003
      -3.9946626236848776e-003 4.0011455214759221e-004
      2.2408308812427793e-003 -4.1783951030285238e-003
      4.5756095854565569e-003 4.7465086417493984e-003
      -2.0760488933930670e-003 2.3277778307272757e-003
      -1.8675520994880157e-003 -4.8516916228133304e-003
      3.8456689399414670e-004 -3.7839748540587585e-003
      3.7572726592869387e-003 -2.7707961119524311e-003
      -2.4649900780121950e-003 3.3445973310662912e-004
      -4.4764712875324450e-003 2.0649106628964849e-004
      4.7901780545260382e-003 1.0675833001688733e-003
      -3.6230892762888559e-003 3.5402342709769238e-003
      2.2069679542109540e-003 3.0318175511530776e-003
      3.4355413588313842e-003 -6.6664299167475236e-004
      4.5416816739315882e-003 4.9196513347845305e-003
      -1.9784572403296441e-003 -1.2768254223518526e-003
      1.8938228976321983e-003 -3.1123444512596741e-003
      8.5820376791858493e-004 -5.9213131351599862e-004
      4.7937878230331831e-003 3.3231571395259232e-004
      -3.4073961120802310e-003 -7.4444217197775246e-004
      3.8449658779335931e-003 4.2362495124178357e-003
      4.0052983539618477e-003 -2.8823336356550160e-003
      4.7972645791594520e-003 -6.9708740887207724e-004
      -2.9793995300497261e-003 1.9934082162082400e-003
      -1.9689816315658117e-003 -2.4899341199124494e-003
      -3.7885785012550465e-003 -1.6006753237588903e-003
      4.2173044689356627e-003 -1.9071000352112722e-003
      1.3687587961310917e-003 -3.2259874851955938e-003
      5.1364037392746132e-003 -3.5107476132609085e-003
      1.9444409347205106e-003 -4.6307282883067671e-003
      4.7594610986902682e-003 -1.7801716693787342e-003
      -5.0887293660090305e-003 3.3850219679941564e-003
      2.4132990212967949e-003 -4.6563384817370360e-003
      4.1398818259079564e-003 -6.5009141226595325e-004
      3.0601286833964883e-003 -4.0674403850611664e-003
      9.2948939446187465e-004 1.0237688039163089e-003
      -2.0265680246258659e-003 9.8045803066563867e-004
      -2.5236784904259641e-004 1.5727924967585093e-003
      -2.9737845426430717e-003 3.2459790776502014e-004
      1.5947003406249819e-003 3.1513907970896482e-003
      3.0038071613091803e-003 -3.6900325129719082e-003
      -7.2227873405410648e-004 -2.5631176026530656e-003
      -4.6680787670235523e-003 4.1578842253704772e-003
      3.6033495123886593e-003 2.1500293050439072e-003
      -2.6400245588015596e-003 3.8919443658380587e-003
      2.9069310568211487e-003 2.0724689206177510e-004
      1.9625163667489009e-003 1.1374292347504822e-003
      2.8533835833288285e-003 1.5595629791258360e-003
      3.1445780081430078e-003 -2.8032446784076090e-003
      -2.2168195920559820e-003 1.2862562500914755e-003
      -1.9439954429767549e-003 -2.7475814767080543e-003
      -1.9346443525880281e-003 1.0190554329080664e-003
      8.1448245794013140e-004 4.0755615785399999e-003
      2.9246044162376831e-003 8.7489632790645970e-004
      -4.4350263540091073e-004 -1.1414206736045744e-003
      3.1945453262938435e-003 9.3992453096310689e-004
      6.9491102831352838e-004 -2.7283564804901871e-003
      -3.6148059776564706e-004 -1.9454335087318419e-003
      -4.6183170041372750e-003 -4.6728032203652630e-003
      2.7322191013090021e-003 -3.3684376528685493e-003
      4.5941469641824285e-004 -2.4493912251429407e-003
      1.1863648874191478e-003 -1.8831772136510513e-003
      -3.3272544655017569e-003 1.3725106978263132e-003
      -3.0926782563436323e-003 4.1708985355932396e-004
      3.2208958009871933e-003 1.4372354868932337e-003
      -4.6789493697921621e-003 -4.4294990888884824e-003
      2.7137525926839360e-003 -7.8663643944641373e-005
      -4.6836504848198068e-003 -3.4498204770849906e-003
      1.2180863294188823e-003 -4.2906359919444295e-003
      -1.9449909752313917e-003 2.9909704882622547e-004
      1.7768484712696012e-003 3.9951902542655028e-003
      1.1874384443957414e-003 3.3425340597871046e-004
      3.0630592397158430e-003 1.1239385831826195e-003
      -2.9405788540911868e-003 -3.2177526068619768e-003
      3.7767380277239546e-003 -3.4675452741078131e-003
      -8.9219784239875455e-004 -5.7023583401520390e-004
      -2.3245408346488127e-003 7.8861987990807984e-004
      -2.6117477508819918e-003 4.4356991975370123e-003
      -3.5855366667424528e-003 2.4216811053808522e-003
      2.4287684686802964e-003 2.7077570236381881e-003
      4.8927980192230418e-003 -5.0627460253129214e-004
      -8.2243414458874661e-004 2.5728529540919236e-003
      1.8187054090596007e-003 2.3956193096730220e-004
      -3.8636385632149460e-003 -4.8682135780117337e-003
      -4.1984235093635398e-003 -1.6803219807217668e-003
      -3.4061417460952799e-003 4.9303575057924555e-003
      1.0322625298978313e-004 2.2275771015580078e-003
      -2.5292348987189981e-003 2.4335818592757185e-003
      -4.8476726635895678e-003 -1.4213231652305465e-004
      -1.6844398816169908e-003 -4.0788173174394958e-004
      8.0061329825606268e-004 4.2907483303621201e-003
      -3.8245926103690848e-004 -2.9161431362819887e-003
      1.7391460107321741e-003 -1.4994083285473103e-004
      2.5491722647163068e-003 -3.3439278421429734e-003
      -1.5079500660636924e-003 2.4652123616214494e-004
      4.0542044688994441e-003 -2.2050087471490033e-003
      -3.8082310452576267e-003 -1.3242387019078762e-003
      -8.5703240788172620e-005 4.1790232745207305e-004
      -4.3859117789445184e-003 -9.7886432217794654e-005
      3.8096315466101534e-003 1.3166832152260739e-003
      3.9001798040830911e-003 -8.7691322855022106e-004
      -2.2334106748155705e-003 2.1387270353332272e-003
      9.4741477303509898e-004 3.2776809843691524e-003
      2.5597349874420259e-003 4.7629358835966406e-003
      4.6522053134242366e-003 2.1436730477212740e-003
      1.3837672011595039e-003 3.9629123883329681e-003
      -3.4570566913050115e-003 -7.3036556521611780e-004
      1.8337400409721544e-003 3.0219425674972073e-003
      -1.5074255485661866e-003 1.7534316582259201e-003
      3.9830719100564715e-003 -4.5698646951901822e-003
      -6.9498440742623939e-004 9.0902932686618668e-004
      -2.9508905783461525e-003 9.8938735833807253e-004
      2.5705384226829189e-003 -1.8384329511515489e-003
      2.8037539685193034e-003 -2.3221290729142862e-003
      3.6590683656271641e-003 4.4210986381445945e-003
      -1.9563056610467072e-003 -8.4975820291929469e-004
      -2.1582372773941076e-003 1.6586959104027824e-003
      -2.9541098831063002e-003 3.1393123480079883e-003
      -1.4527274982215194e-003 4.2888376479896214e-003
      9.1682784693748233e-004 4.1888922583394831e-003
      1.1607947752610202e-003 3.6248578324600653e-003
      1.6688871508270067e-003 -1.1319837821455296e-003
      1.4170945042756451e-003 3.7609660191393344e-003
      -2.2091600413880314e-003 3.5484135709873761e-003
      -3.1486441220529905e-003 -2.4051165621599921e-004
      -5.4224786577073769e-004 4.5300476504795507e-004
      -4.2118360442106508e-003 2.5167502616150533e-003
      2.0758930378779695e-003 1.2061394735134031e-003
      -3.5079331870883396e-003 -3.3716951872839462e-003
      -1.9705402696435304e-003 -5.3261378864766153e-004
      -7.7259033156645558e-004 -2.3477188378344337e-003
      8.1864415703008034e-004 1.7550826729127267e-003
      2.7065730009682623e-004 9.5983929455469084e-004
      4.9206683127956527e-003 -1.0771208127319687e-003
      1.5489726515548305e-003 -2.4776723234183977e-003
      1.3558066677711404e-003 -4.8395762128876701e-003
      -1.0596988103173982e-003 -4.7400746877095477e-003
      -2.8931447037253226e-003 1.9603117961776535e-003
      -3.6774066081173068e-003 8.0604163625318834e-004
      -3.7475625173943317e-003 2.6570215173874135e-004
      -4.9409868306375115e-003 -4.0094595024552171e-003
      -7.2054829566297902e-004 -2.2892548412859408e-003
      -9.4952925757915176e-004 -2.5194131135957156e-003
      -3.1990211975162063e-003 -1.9308817884933444e-003
      -3.4917861459082371e-003 2.0108240996042194e-003
      -3.1515815681077515e-003 -9.0728250565697585e-004
      -4.1185607761930320e-003 1.4981655759868570e-003
      4.5482674617808774e-003 -3.2100695431460336e-003
      -4.3801717534259557e-003 4.5728643790558174e-003
      -3.9518480691600388e-004 4.6271508090839309e-003
      -1.2263498348294044e-003 -4.7296908942763647e-003
      3.7033179937435343e-003 -1.8855468979149005e-003
      2.8113055761424399e-004 -2.5962348198202301e-003
      -3.7816819332884373e-003 -1.8391346792818602e-003
      2.1337368521828215e-003 1.2092612298884985e-003
      -5.4047215738999843e-001 6.8085716421435571e-002
      2.4844193130649653e-001 -1.0232414144582576e+000
      2.0968010337483589e+000 -1.6117969177810771e+000
      4.1373943176251538e-001 2.9770410604305758e-001
      -2.1750904539324414e-001 1.4310787711602921e+000
      -3.7203460884107598e-001 2.7422113784110297e-001
      -3.7528916656244349e-001 -1.1529430916389058e+000
      -7.9300819005339265e-002 -6.0723874486924490e-001
      1.1150231017818373e+000 -1.2243098483225248e+000
      -1.4368689960250039e-001 7.6795731573849917e+000
      4.7816070583500064e-001 3.1791434031674426e-001
      -2.0335465889598847e+000 1.0760102034669612e+000
      -4.3341825639417175e+000 -1.4173028443214857e+000
      6.1559348802701197e-001 -3.3436436757504956e-001
      1.5165377446996013e+000 -7.7909410959720993e-001
      7.5159327810268517e-001 -6.3748084371907654e-001
      4.2342276388973532e-001 8.8980966474882262e-001
      -4.5256262358276805e-001 -2.3364133803854834e+000
      -1.3399296902288460e-001 9.2820817827646562e-001
      1.4466644671975406e+000 2.3557432140840584e+000
      -4.8043603836197141e-001 -4.5398661364332205e-001
      1.2237743638938449e-003 -1.4802759502956647e-001
      -3.0227259875591330e+000 -4.8420637533749383e-001
      -3.6905992327984782e-001 1.6038564641213704e-001
      8.0075929713870808e-001 -1.8413076435520395e-001
      -1.1932695008746026e+000 1.4224755963800681e-001
      -1.0757120168270815e+000 -1.0261338179802146e+000
      5.7755257038741925e-001 -6.7163304541993790e-002
      -2.0641122440660062e+000 -1.6221614472295168e-001
      -1.0775658469880658e-001 2.7381935051077028e-001
      -5.4221973300101500e-001 -2.8649471640787780e-002
      4.1563777456499651e-001 -1.0279837236401781e+000
      2.1023690604894152e+000 -1.6114600292740258e+000
      4.1534284823419032e-001 4.5288052974414367e-001
      1.0213533185999663e-001 1.4290095675968295e+000
      -3.7794623923906301e-001 2.8172312657684778e-001
      -3.7813734655622622e-001 -1.1591575251043507e+000
      -8.0166857449679704e-002 -6.0594095449359675e-001
      1.1081554198130472e+000 -1.2299224882522786e+000
      -1.8900090421176990e-001 7.6808156114183266e+000
      5.1016562408056421e-001 3.2098527121477738e-001
      -2.0294445192610686e+000 1.0755775686962763e+000
      -1.6578697553782664e+000 -1.4155737177831600e+000
      6.1347339933896861e-001 -3.3071116729234923e-001
      2.3437539773191707e-001 -7.7693632268440460e-001
      7.5057393944297346e-001 -3.7321405318364592e-001
      4.2561704327529271e-001 8.9216314283330234e-001
      -4.5316964421309419e-001 -2.3329654110238334e+000
      -6.9752799118419129e-001 9.3516114159440200e-001
      1.4485049726325825e+000 2.3547078523255403e+000
      -4.8204396669247634e-001 -4.5014170282209598e-001
      9.7370120916914563e-003 -1.5740505403084898e-001
      -3.0291469467770149e+000 -1.7666523644984575e+000
      -3.6135967070074104e-001 1.5910194232232047e-001
      8.0863203715189902e-001 1.5515102926523630e+000
      -1.1942713074028797e+000 1.3803095671726456e-001
      -1.0671288188034496e+000 -1.0321390470203862e+000
      5.6893943187434826e-001 -6.1878323855668077e-002
      -2.0629073935254709e+000 -1.6269614605423588e-001
      -1.0422810114178709e-001 2.7015176781478606e-001
      -5.4053110257545067e-001 3.5480161348778372e-001
      1.3818451876803972e+000 -8.2675408085626778e-001
      2.0969687995482915e+000 -4.3729245631074853e-001
      4.1016958125396230e-001 5.0445522770667917e-001
      1.0166201681559500e-001 1.4248297151654554e+000
      -3.2023917865408008e-002 1.1599375939298286e+000
      -3.7512352628527512e-001 -1.1530767809581559e+000
      -1.7559443496471688e-001 -6.0754131497084707e-001
      1.1072778644116326e+000 -1.2282796124450119e+000
      -6.3805406053916869e-001 4.0727407258005277e-001
      4.8475625733933297e-001 3.1503135345187083e-001
      -2.0265942379377933e+000 1.0753169953866317e+000
      -7.8996416407930923e+000 -1.4177866882504293e+000
      6.1611509905244455e-001 -3.3442465228887902e-001
      2.5129417995380421e-001 -7.7015801949174911e-001
      7.5017781743579648e-001 -3.7232843736665372e-001
      3.2036311296219067e-001 8.9113434370733657e-001
      -1.4170424630199150e+000 -2.3310795093756629e+000
      7.6462386110467448e-002 9.2851708776467468e-001
      1.4444485983789985e+000 2.3478533567172315e+000
      1.7493720812059532e+000 -4.2382904473048483e-001
      9.6805400477533654e-001 4.7897025588664724e-002
      -4.4948843008827497e+000 -1.7602484232320694e+000
      -9.0958533864126301e-001 -1.5222903443886387e-001
      1.1154549838261065e+000 -1.9347723344843293e-001
      -1.1940503884716067e+000 1.4428421298005009e-001
      -1.0754551175691536e+000 -1.0301732008285165e+000
      5.7079327610540942e-001 3.2401255156009640e-002
      -2.0611955171785348e+000 -6.4609402687921391e-001
      2.9399565778352272e+000 1.1341263817991918e+000
      -5.4340929367475499e-001 2.0208435101720529e-001
      1.3797028561731886e+000 -7.9000015140844226e-001
      2.0988354423666506e+000 -3.0077181715047752e-001
      4.1193019561222499e-001 4.9794412731843452e-001
      1.6830527981300511e-001 1.4248498034826136e+000
      -3.7796539283229430e-002 1.1647161415777183e+000
      -3.7290260515184609e-001 -1.1578973784408015e+000
      -1.8049771996694391e-001 -6.0009576540995102e-001
      1.1108462070041651e+000 -1.2243491151970212e+000
      -3.3323334594424364e-001 1.6316530085024225e-001
      2.9716698565663313e-001 3.1921271727202594e-001
      -2.0293828071692008e+000 1.0771722773845323e+000
      -6.2207257768770621e+000 -1.4092740077207824e+000
      6.2112329667830124e-001 -3.2948043160506241e-001
      6.8309633371719614e-001 -7.7296203829428323e-001
      7.4930774012794066e-001 -3.7734598408715708e-001
      3.2508853917980440e-001 8.9063627162319037e-001
      -1.4098408751096980e+000 -2.3319544208742915e+000
      8.0786314891838323e-002 9.3078927141263834e-001
      1.4476051212241121e+000 2.3495364116937454e+000
      1.7503103541925156e+000 -4.1367877508233247e-001
      8.0333831665852687e-002 -2.6294008105580624e-001
      -4.4879726313353512e+000 -1.7654521443021263e+000
      -2.8877018012508276e-001 -1.4563319238056616e-001
      1.1182024055102646e+000 -1.9398329795428598e-001
      -1.1950218124027190e+000 1.3716311248081686e-001
      -1.0730379037557147e+000 -1.0273139038245052e+000
      5.7788731270677063e-001 1.1260706482154181e+000
      -2.0617997580476697e+000 -2.1686379190043731e+001
      2.9421494377390474e+000 1.1357797438303159e+000
      -5.4079132839706712e-001 6.8735098270034614e-002
      1.3786365509937533e+000 -7.9494434163557703e-001
      2.0952072556971704e+000 -2.8665636923720017e-001
      4.1507827635209615e-001 5.0374023844561389e-001
      1.6958081503631481e-001 1.4252111793162807e+000
      -2.9602483253719905e-002 1.1607147991428728e+000
      -3.7496618948807936e-001 -1.1581168808875284e+000
      -1.7466264090234412e-001 -6.0157589482235552e-001
      1.1088639468406860e+000 -1.2232981012587556e+000
      -3.3678934797883497e-001 1.5658737898292865e-001
      2.9890802104150693e-001 3.9608735043131438e-001
      -2.0292555819395357e+000 1.0761524497715693e+000
      4.1620548116078189e-002 -1.4088714023648359e+000
      6.2016086472216359e-001 -3.2648489749102755e-001
      6.8541615388278065e-001 -7.7396136845457697e-001
      7.4903216279927887e-001 -3.7116475359227558e-001
      3.1925508305571793e-001 8.8606744903966261e-001
      -1.4183762815542937e+000 -2.3334614394979405e+000
      1.9214399667434306e-001 9.3119095128799723e-001
      1.4480041458257531e+000 2.3483405310671572e+000
      1.7507976096920954e+000 -3.8891642330341109e-001
      -1.8539774862772626e-002 4.5842267706039989e-002
      -4.4931448081423389e+000 -1.7587780270670013e+000
      -2.8834826409580522e-001 -1.6574381024784912e-001
      1.9834157501055708e-001 -2.0832176698981980e-001
      -1.1953068090385388e+000 1.4199299165991874e-001
      -1.0746591967530372e+000 -1.0348563689266317e+000
      5.7317926638710692e-001 1.1267778489636580e+000
      -2.0586907146210938e+000 2.7447969237650910e-001
      7.5965783919566454e-001 1.1384974623501858e+000
      -5.4153848709405650e-001 -9.6345979709369492e-002
      1.3769274526601003e+000 -7.7353255326852355e-001
      2.1044191905762855e+000 -2.8377273938841041e-001
      1.0125865708673459e-001 4.9736316030672556e-001
      1.6521083272889162e-001 1.4250332445280829e+000
      -3.3631829195825025e-002 1.1614108409000621e+000
      -3.7102545254875818e-001 -1.1565163706303134e+000
      -1.8013643184385897e-001 -6.0692658010469147e-001
      1.1118479227939277e+000 -1.2249434543539721e+000
      -3.3002194256400834e+000 1.5301351403977567e-001
      6.9844763305854751e-001 3.9955984427061098e-001
      -2.0323040625726803e+000 1.0738735663597661e+000
      5.1813634058834032e-002 -1.4175913196200549e+000
      6.1423308726340442e-001 -3.3465676561409213e-001
      5.6251057667375752e+000 -7.7883743807882100e-001
      7.5284715524540491e-001 -5.3196325152017621e-001
      3.2566265158270813e-001 8.8957154501886559e-001
      -1.4111281622736096e+000 -2.3385929107553931e+000
      1.9515308991213767e-001 9.3182677483499832e-001
      1.4488930974458569e+000 2.3476587264008635e+000
      5.4872517128589804e+000 -3.9080458359745057e-001
      -1.8475106489956886e-002 3.8855953169255053e-002
      -4.4944203466563870e+000 -1.7605076191264184e+000
      -2.8428086945391939e-001 -1.5297503632051102e-001
      1.6870335152837010e-001 -2.3194186493491270e-001
      -1.1987188868108074e+000 1.3951015680413115e-001
      -1.0719564111775284e+000 -1.0342778677570823e+000
      5.7029570610276514e-001 3.0056252257801810e+000
      -2.0551600105099554e+000 2.2173084535939433e-001
      9.1231300335288235e-001 1.1405582307928821e+000
      -5.4224369880232204e-001 -9.4279750157087089e-002
      4.1357847949357640e-001 -7.7717774345551049e-001
      2.0951630285322955e+000 -2.8526153759750233e-001
      1.0755561454904114e-001 5.0178322748757931e-001
      1.6710848192438735e-001 1.4270554455088023e+000
      -3.8348985586617174e-002 1.1637663220078589e+000
      -3.7114042134782493e-001 -1.1512165212568615e+000
      -1.7930339328576145e-001 -6.0043443968159038e-001
      1.1101993170825903e+000 -1.2288068352011294e+000
      -3.3047784523501269e+000 1.5771606140560349e-001
      3.7769695319673974e-001 3.9175987542055490e-001
      -2.0315722907881240e+000 1.0744162182511796e+000
      -5.1832775285894828e-001 -1.4181082935941405e+000
      6.2131219383211711e-001 -3.3410689433749391e-001
      1.6329089478524519e+001 -7.7092651679786250e-001
      7.5574462412128351e-001 -1.2678578483821510e+000
      3.1961144432149835e-001 8.9315972380839015e-001
      -1.4114744830696944e+000 -2.3316243691293010e+000
      2.0729506107798557e-001 9.3048803592362794e-001
      1.4407879488948072e+000 2.3471273676357596e+000
      1.5497626359498664e+000 -5.2732866560674219e-001
      1.1914306754235569e-002 -2.2939698057284716e+000
      -4.4912448323625771e+000 -1.7588373428924629e+000
      -2.0759741740601087e-001 -2.4592346890466960e-001
      1.3526468061739857e-001 -2.2907804147313249e-001
      -1.1920670017569917e+000 1.3889211435888504e-001
      -1.0724896200297771e+000 -1.0302180433643335e+000
      5.7409841541788342e-001 3.0050505625841804e+000
      -2.0621313164899222e+000 2.4611110560857397e-001
      2.2842769368783764e+000 1.1411144995014055e+000
      -5.4068995461333214e-001 -1.1607124817467922e-001
      4.1218288903584910e-001 -7.9152513448517181e-001
      2.0961525051539200e+000 -2.8786731323386611e-001
      1.0338337058802197e-001 5.0241015628661556e-001
      1.6487631976806036e-001 1.4291271484064445e+000
      -3.5815971395418256e-002 1.1569703347582210e+000
      -3.7148847566373056e-001 -1.1542617803119968e+000
      -1.7813389790970718e-001 -6.0197139391616172e-001
      1.1111471200067393e+000 -1.2275853656467814e+000
      -3.3029015452652066e+000 1.5484441693023102e-001
      2.9607019314769267e-001 3.9062152590702404e-001
      -2.0342558756884799e+000 1.0773514221192841e+000
      -4.1640420507189386e+000 -1.4162136968522756e+000
      6.1869568486087800e-001 -3.2752913144544898e-001
      1.9443684080343089e+000 -7.7165437393978042e-001
      7.4967284310482307e-001 -1.2652356346106799e+000
      3.2375375127337369e-001 8.9180191340479165e-001
      -1.4149351741068530e+000 -2.3388928370275281e+000
      2.1292440468548848e-001 9.2802436409771494e-001
      1.4404467426673475e+000 2.3513502891515028e+000
      1.5525283956575895e+000 -1.5048095131727315e+000
      4.5138601234181543e-002 -6.5686226117782036e+000
      -4.4938230117881846e+000 -1.7587772301662132e+000
      -1.5715472397393626e+000 -2.5923558545607489e-001
      2.0606862626695802e-001 -2.7381406943832615e-001
      -1.1943534906253936e+000 1.4504768516242994e-001
      -1.0681330525856827e+000 -1.0312435508221962e+000
      5.7149120289983646e-001 3.0026576995445509e+000
      -2.0555894464362736e+000 2.6435265368980804e-001
      2.2854306376282345e+000 1.1436098321317925e+000
      -5.4198752387388116e-001 -1.0756573507487778e-001
      4.1042467854415698e-001 -9.7162359290188682e-001
      2.1027683768356864e+000 -2.8944749200995534e-001
      1.0465943173585113e-001 4.9410428732900163e-001
      1.7173869133456351e-001 1.4320689692127055e+000
      -3.7697510394692368e-001 1.1614873311608522e+000
      -3.7670614672261593e-001 -1.1525736945009717e+000
      -1.7809112643267799e-001 -6.0439754030374160e-001
      1.1146620403052594e+000 -1.2269813734338035e+000
      -3.3055492080896425e+000 1.6176601972794533e-001
      2.9907819022201010e-001 3.9261697479525048e-001
      -2.0250284112243362e+000 1.0809754475145910e+000
      -1.1757648383884183e+001 -1.4179590640183457e+000
      6.1995913140858627e-001 -3.2736145678415801e-001
      1.9496092101076348e+000 -7.7263701738731128e-001
      7.4942213611561437e-001 -1.2727903983646998e+000
      3.2294037295942957e-001 8.9357328439289330e-001
      -1.4179415875093604e+000 -2.3319979918373668e+000
      2.2433565996230190e-001 9.2852254729496786e-001
      1.4449544264369927e+000 2.3536929580591153e+000
      1.5496139464794503e+000 -1.4354397225904463e+000
      -4.0929782995375225e-002 -2.2631023408995414e+000
      -4.4883959205768456e+000 -1.7676429770320439e+000
      -1.5775799662993510e+000 -2.5896842167981032e-001
      2.2334971049460778e-001 -2.3487835747918454e-001
      -1.1997638671666095e+000 1.4093378226629172e-001
      -1.0692742612121695e+000 -1.0338557587815849e+000
      5.7804311573154044e-001 3.0002849861568301e+000
      -2.0624857789706632e+000 2.6646986869240064e-001
      2.2831716730234621e+000 1.1417191814471792e+000
      -5.4856094559370239e-001 -1.0693109209023655e-001
      4.0970113815035769e-001 -2.9737102139710769e+000
      2.1018141103682044e+000 -2.8286296150607487e-001
      1.0827185496493946e-001 5.0442024692301946e-001
      1.6766066630294321e-001 1.4309013661507117e+000
      -3.7775823031642730e-001 1.1558995700408219e+000
      -3.7413191198423357e-001 -1.1543662082365018e+000
      -1.7780871963145412e-001 -6.0314175981056950e-001
      1.1081566231270383e+000 -1.2301247992287572e+000
      -3.3063968764701812e+000 1.6058213792676901e-001
      2.9409694128705322e-001 3.8477684305791465e-001
      -2.0277004560367660e+000 1.0759623401552738e+000
      -6.0318283012071170e+000 -1.4170979068479170e+000
      6.1907126311668226e-001 -3.2689368589713902e-001
      6.8768733674108840e-001 -7.7404379122963196e-001
      7.4959463730682108e-001 -1.2657699300816612e+000
      3.2312809349016369e-001 8.9396732757606634e-001
      -1.4164068034906114e+000 -1.3751793847205125e+000
      2.0538410340295260e-001 9.3126217179932214e-001
      1.4429203641295667e+000 2.3480076016523794e+000
      1.5471702603639574e+000 -1.4457797069218963e+000
      2.9015863307217900e-002 -2.2599751157815744e+000
      -4.4913385314749377e+000 -1.7645902343347808e+000
      -1.5757869515897802e+000 -2.5827551020649103e-001
      2.1772131781984971e-001 -2.5418698484592311e-001
      -1.1993831706708931e+000 1.4086097944675960e-001
      -1.0696924329655182e+000 -1.0275515507704172e+000
      5.7171813927735704e-001 9.6541767727044536e-001
      -2.0565977276109613e+000 2.6188439867291963e-001
      6.9971674482288835e+000 1.1374038044817993e+000
      -5.4746021923234411e-001 -1.0467287393294009e-001
      1.3759812009217429e+000 -1.7326967384361907e+000
      2.0966548182597289e+000 -2.8866299640072218e-001
      4.1092501501053547e-001 5.0293654970261759e-001
      1.7094586337765635e-001 -7.0575742650497458e-002
      -3.7614298321685780e-001 1.1616487258462826e+000
      -3.7682285282474859e-001 -1.1530795551285968e+000
      -1.7992277013964125e-001 -6.0456106141005272e-001
      1.1070856962038229e+000 -1.2285324685651366e+000
      -3.2990334432440642e+000 1.6028658132332366e-001
      4.6609724091996280e-001 2.7877196485328881e-001
      -2.0333213610061547e+000 1.0821470098264026e+000
      -9.7291762632525836e-001 -1.4133637465245614e+000
      6.2173474357286063e-001 -3.3151454743724301e-001
      6.8945747543600444e-001 -7.7508527984848208e-001
      7.5023485042046534e-001 -1.2693022169316954e+000
      3.2094906199836393e-001 8.9443148878251844e-001
      -1.4100200546156227e+000 -1.3828641893626954e+000
      8.4495870935795706e-002 9.3195154924183066e-001
      1.4433025049316826e+000 2.3496544064347016e+000
      1.3907078477009105e-001 -1.5274897060799011e+000
      -6.2755372249638309e-003 -1.7117114227864960e-001
      -4.4874654967519998e+000 -1.7585909146232257e+000
      -1.5781001309152280e+000 -2.5878626619507550e-001
      1.9724579061630670e-001 -2.3683899945824613e-001
      -1.1995632695598153e+000 1.4365460796943877e-001
      -1.0743153244120613e+000 -1.0272297315906671e+000
      5.7080991239493961e-001 9.6770089837176332e-001
      -2.0636157478883934e+000 2.6391421382263630e-001
      2.6283426881965823e+000 1.1432232555539050e+000
      -5.4129299826477317e-001 1.3416025524298064e-001
      1.3809101582352314e+000 -1.3267482430780224e+000
      2.1035333061068338e+000 -2.8966163336778450e-001
      4.1069487257053505e-001 4.7573271606898032e-001
      1.6448646302020006e-001 -7.2283548476168677e-002
      -3.6949392403862713e-001 1.1591964444254077e+000
      -6.8767760000944456e-001 -1.1523973930826075e+000
      -1.7969416251500347e-001 -6.0604314580557728e-001
      1.1058986233346888e+000 -1.2249993729234350e+000
      -6.4472276164699904e-001 1.6016877744318497e-001
      4.9295009922468991e-001 2.6258134849365378e-001
      -2.0335220297607064e+000 1.0752456400400381e+000
      6.6768786287354248e-002 -1.4132389365796085e+000
      6.1782714651641590e-001 -3.2911333145066873e-001
      5.8994833070892154e+000 -2.5549854289418783e-001
      7.4770174467898731e-001 -1.2719578255895587e+000
      3.2230107537519359e-001 8.8628019220483367e-001
      -1.4099746755302895e+000 -1.3787295531130450e+000
      7.7485506039472241e-002 9.2812987713319395e-001
      1.4464091033709920e+000 2.3560073738178828e+000
      5.6911646347642786e-002 -1.6716745036298650e+000
      2.2865609170488976e-001 1.4264031226251809e-002
      -4.4887400622717877e+000 -1.7620959568366776e+000
      -1.6453276365109493e+000 -2.2927454997938934e-001
      -2.6283993783229497e-002 -2.3543309479531813e-001
      -1.1924450110303337e+000 1.4179960812389680e-001
      -1.0676223585903537e+000 -1.0282154115170496e+000
      5.7303381337599746e-001 3.1558686443253059e-001
      -2.0570055245051355e+000 7.0761835523437316e-002
      6.4176335583445188e-001 1.1391432181829995e+000
      -5.4463221151237984e-001 -2.2463535847682105e-002
      1.3815443448802960e+000 -2.3904301504264986e+000
      2.0962369015184632e+000 -1.2405561050491882e+000
      4.1280642276162927e-001 -1.8511934885319900e-001
      1.6953663351795081e-001 -6.6026908881693019e-002
      -3.7031828543836298e-001 1.1631776329028685e+000
      -6.8705903837975002e-001 -1.1578682959428876e+000
      -1.7439261849203069e-001 -7.5928991093282816e-001
      1.1098857084157998e+000 -1.2251968333605341e+000
      -6.4410552790684994e-001 1.5889505411975330e-001
      6.4549225143986322e-001 3.7814490735141343e-001
      -2.0279181440386660e+000 1.0752103459360378e+000
      1.1447915232499865e-001 -1.4177715915517595e+000
      6.1853442616230458e-001 -3.3530218849494059e-001
      5.9264080407808485e-002 -2.5023272544585579e-001
      7.4724055150353785e-001 -1.2676655101601630e+000
      3.1913934795481502e-001 8.9169763736469387e-001
      -1.4133958826869033e+000 -1.3795418221252187e+000
      -2.2030751732413389e-001 9.2828022760595508e-001
      1.4407956969264946e+000 2.3533563157330395e+000
      6.3495327614336128e-002 -1.5421043821000102e+000
      5.8040506034179995e-001 -2.0705731347227510e-001
      -4.4917091978995449e+000 -1.7605544337965344e+000
      -1.6447170862945275e+000 -2.2039274105023690e-001
      -2.5728035841158837e-002 -2.4056105497646058e-001
      -1.1958083574872562e+000 1.3904267181290608e-001
      -1.0677482255790729e+000 -1.0282264093008577e+000
      5.7496968724744568e-001 5.3172663389870478e-002
      -2.0574085216401552e+000 5.2912155605608885e-002
      -1.1066803693555487e-001 1.1411904460674602e+000
      -5.4678870501126675e-001 2.1676167991833914e-001
      1.3748083062101124e+000 -2.3935167146018776e+000
      2.1041830592595439e+000 -1.6122348588628699e+000
      4.1265119900299729e-001 9.2489874644511888e-002
      1.7286686105906621e-001 -7.2185246193003358e-002
      -3.7018031822575792e-001 1.1567644313857612e+000
      -6.8699342732118063e-001 -1.1565028769155803e+000
      -1.7181831665517761e-001 -7.6182121601308173e-001
      1.1134927295739552e+000 -1.2240197822944141e+000
      -6.3850321953784062e-001 1.6066168114002735e-001
      4.9538762838567613e-001 3.1636388581644381e-001
      -2.0340401995645472e+000 1.0755916286900504e+000
      -1.0519092476877880e-001 -1.4176907439092086e+000
      6.1395329584550973e-001 -3.3532763316373465e-001
      2.7464927359091427e-002 -2.5701619608675541e-001
      7.4940898812313761e-001 -1.2692790142579526e+000
      1.2891812180887257e+000 8.9204218262601720e-001
      -1.4117720228992212e+000 -1.3816757285178189e+000
      -2.3809753403988926e-001 9.2970390538666259e-001
      1.4494007001941525e+000 2.3521422557728795e+000
      5.9600417960294055e-002 -9.6130599140623085e-001
      5.7512183762980318e-001 -8.6578090689722853e-001
      -4.4861093130442207e+000 -1.7619548242418339e+000
      -6.6648381000113754e-001 -1.5404492230473385e-001
      -2.1820739536702580e-002 -1.9472240301770963e-001
      -2.9361199770572016e-001 1.3912369260399546e-001
      -1.0759590335754285e+000 -1.0348538357349726e+000
      5.7217090652814695e-001 -6.0413437447405891e-002
      -2.0628561874610090e+000 2.4047315098832740e-002
      -2.4777740509845120e-001 1.1346848785411929e+000
      -5.4845611169391861e-001 -4.1819108875746957e-003
      1.3768331339466353e+000 -7.6875229090168329e-001
      2.0989604174611434e+000 -1.6128265771683130e+000
      4.1011269825889818e-001 -9.8847797754855249e-002
      -3.2322636473083304e-002 -6.5264536571038798e-002
      -3.7182223637549638e-001 1.1631969064098686e+000
      -6.8901020621852005e-001 -1.1522730900508473e+000
      -1.7795473183350180e-001 -2.0741681076954905e+000
      1.1107325432625903e+000 -1.2315146374725352e+000
      -4.5464459335076868e-001 1.5559853964221862e-001
      -2.3583047881443660e-003 1.3031987856021694e+000
      -2.0276296025528993e+000 1.0788360131642392e+000
      2.2813428132016281e-001 -1.4092946880748098e+000
      6.2211319973542345e-001 -3.2608181871870506e-001
      6.9621363628702776e-002 -1.4885319295586147e-001
      7.5110367923566335e-001 -1.2697217435948123e+000
      1.2867097916543773e+000 8.8721909035639346e-001
      -1.4158053251012881e+000 -1.3799849906171153e+000
      1.3545887241350374e-001 9.3396148933778378e-001
      1.0573490249030513e-002 2.3510745169763032e+000
      -1.5572345535906812e-001 -9.6410815020864726e-001
      4.7745434479405124e-001 -5.5515015567468529e-001
      -4.4937485201843677e+000 -1.7582539378759845e+000
      -1.6415060647565312e+000 1.5013958115409679e-001
      2.1457400501913443e-002 -1.7614943036914982e-001
      -1.1978923418998402e+000 1.4299813135095535e-001
      -1.0759468198666389e+000 -1.0279283778695043e+000
      5.7772886396681256e-001 -3.2770736419534846e-001
      -2.0582085178717691e+000 -1.2952036754669183e-001
      -5.7551029511436691e-001 1.1360412298788427e+000
      -5.4687839881023481e-001 4.7288689683548331e+000
      4.0728241501419093e-001 -1.0845936711358135e+000
      2.0970178570210929e+000 -1.6075473139350127e+000
      4.0863004003737491e-001 3.0161114370038372e-001
      -2.0607265674447264e-001 1.4310425854326991e+000
      -1.4449879580719842e+000 1.1602557583983502e+000
      -3.7886275964428823e-001 -2.7157226253103578e-001
      8.4295923224540784e-002 -6.0590793402668197e-001
      1.1080475572565434e+000 -1.2323736591997039e+000
      -4.4861857941694461e-001 1.5539907072286160e-001
      1.2455718632076510e-001 1.3080008249604600e+000
      -2.0254208066147283e+000 2.5247781928281648e-001
      7.9890374796128802e-002 -1.4113996449807662e+000
      3.5861637238569744e-001 -1.3147977717370953e+000
      4.0311044174923338e-001 -1.5551863987209061e-001
      7.5509175926373040e-001 -1.2731564458503168e+000
      1.2920370272561648e+000 -1.0026261345711418e-001
      -1.4099124116844226e+000 -1.3805771778072993e+000
      -6.7095153929603946e+000 9.2926146056600678e-001
      1.7980001597624060e-002 2.3501601230425950e+000
      -1.4961591168585542e-001 -9.6384483877552851e-001
      2.0118233557667900e-001 7.9912360439021099e-002
      -4.4950899307500407e+000 -1.7637953120121821e+000
      -4.1693314028342632e-001 3.6819533207271599e-001
      4.1196608624537237e-002 -7.1334678828951198e-002
      -1.1974764113629934e+000 1.3760924714378583e-001
      -9.8240386169564750e-002 -1.0333257116267265e+000
      5.7181993708640810e-001 -3.2160846662682646e-001
      -2.0623262478727207e+000 -4.1341271016737213e-001
      -5.7737678160129036e-001 1.1342439489110741e+000
      -5.4625421309310984e-001 4.7262794048956218e+000
      4.1358364025079353e-001 -1.0823163490333325e+000
      2.0967259532521503e+000 -1.6073426173682950e+000
      4.0836358572691245e-001 2.9929456811272420e-001
      -1.9949878489761103e-001 1.4301595935054168e+000
      -1.4394173821802259e+000 1.1602918791574459e+000
      -3.7397316712344175e-001 -2.7370675318047605e-001
      8.0783449000930610e-002 -6.0246190755502838e-001
      1.1145736059700566e+000 -1.2322632346791844e+000
      -4.4947060283971263e-001 1.6010896603911171e-001
      1.2607312441236779e-001 1.3046078215957511e+000
      -2.0280359874650928e+000 2.4404077457307341e-001
      8.1161270096167623e-002 -1.4128059113784819e+000
      3.5871456548296182e-001 -1.3135644229090044e+000
      4.0872682641919067e-001 -1.5436906227346489e-001
      7.4853577819857087e-001 -1.2653935368084903e+000
      1.2907017718206741e+000 -1.0064540992276938e-001
      -1.4161864945651881e+000 -1.3793411040418553e+000
      -6.7063356746331211e+000 9.3039618814332259e-001
      1.6003806232064460e-002 2.3529622274843627e+000
      -1.5692540552918549e-001 -9.6248725745686914e-001
      2.0001136483009693e-001 8.0622646770028047e-002
      -4.4883974347801976e+000 -1.7606939684235632e+000
      -4.1498415850395759e-001 3.7356733668072001e-001
      3.5309984069226565e-002 -6.3689898653413068e-002
      -1.1985738230091130e+000 1.4495121539047662e-001
      -9.9911377805900051e-002 -1.0272496578094470e+000
      5.7713055756067322e-001 -3.2104616535927138e-001
      -2.0605779496869157e+000 -4.2164555479212873e-001
      -5.8451439306520736e-001 1.1429399376797678e+000
      -1.7539321922879505e-003 -3.4635344423030786e-003
      3.1350962297579115e-003 -1.2685192622885204e-003
      3.4127855102790931e-003 3.7262906856386393e-003
      3.8387974867066339e-003 -6.8446600548566292e-004
      -1.7017383343780807e-003 1.0933893825237741e-003
      -5.0769724157731882e-005 -3.3830093635666449e-003
      3.0559439401566125e-003 1.9797527947827851e-003
      1.1368185792216814e-003 -2.5328976291776762e-003
      3.0914463092867124e-003 2.8963006874189868e-003
      -2.3425318066443179e-003 1.6666312855845408e-003
      3.3702764647711623e-003 1.0126568311895833e-003
      4.0464834477974207e-003 3.8949917857341691e-003
      -3.0987817178481192e-003 1.3927949201488447e-004
      7.5974954433451235e-004 2.3434780708560029e-003
      2.0425997637354581e-003 -9.0755468992997392e-004
      -1.0364792342909708e-003 -4.6615524069678962e-003
      4.2341289121952995e-003 1.7747823180023332e-003
      -3.2449415867533238e-003 2.6551059744635260e-003
      -4.2696489977182370e-003 -5.0586509045160940e-004
      -3.1838892392222068e-003 1.9116836203557140e-003
      3.4653716641715386e-003 -3.3207060835128968e-003
      4.4087239206603420e-003 1.8726169276144498e-003
      4.0377183257365480e-003 4.2826200504757841e-003
      -3.3176367825905862e-003 -4.2323428943688126e-003
      3.5218008358850732e-003 -1.1718600984471713e-003
      2.9873823636395935e-003 1.7715616191934516e-003
      3.6557650127077060e-003 -1.2959586310901253e-003
      2.1391933513112459e-003 -4.7019580740074911e-003
      -4.1563581212314725e-003 1.2161502965804957e-003
      1.2295117136612620e-003 -2.1406416644882578e-003
      -8.0564528073750072e-002 1.3570618603973761e-001
      1.2923420261696259e+000 -1.3340382749576270e-002
      5.7961779429948412e-001 -1.3507794748826769e+000
      -6.0141847370878913e-003 1.3952550656513715e-001
      1.8097761294867293e-001 -3.3235190706857576e-001
      8.9785632172727239e-002 -1.4131848509797240e-001
      -6.9068893548515919e-002 -7.1574156461428826e-002
      -2.7763001148395097e-002 -3.8292202688022817e-002
      -1.0706558411503669e-001 -1.4860444185655380e-001
      -3.0757243965090844e-002 2.4881446422772244e-001
      -1.9915802580520475e-001 6.7667181493483216e-003
      -1.2596320968085764e-002 -1.5951664791624803e-001
      -1.0956422294607093e+000 -4.3920299667357478e-002
      2.5201803855385907e-001 -1.2612569040442345e-001
      1.5075417023433082e+000 -2.1648111591639360e-001
      5.5697894387059896e-002 -1.2715136988343692e+000
      4.1331268914183691e-002 5.0453595122505798e-003
      -3.0328271862026251e-001 -9.2340375668820196e-002
      -3.6037662776129326e-002 -1.4909612830374486e-001
      2.2489616817107655e-001 -1.6437043548143770e-001
      1.5406064910837536e-001 4.0460004579244389e-002
      -1.7291030243607040e-002 3.5630293121913237e-002
      -1.8527345738789947e-001 1.8437757907709929e-001
      -8.0521541761968907e-002 6.6038391667612037e-002
      -2.1871428151647590e-001 -1.0327194912940671e-001
      -1.0285425938787487e-001 7.5618661526295594e-002
      -7.6931645263570825e-002 3.2908586039915805e-001
      -4.0015716124066755e-003 -6.1755967183102563e-002
      9.7224303544313113e-003 -1.2154084491602622e-001
      2.3462456145782046e-002 1.9583071888449996e-001
      -7.7076361748348907e-002 -4.8651346609032670e-002
      -1.1178002547096026e-002 3.3211555372965862e-003
      2.9691267944614528e+000 -1.2481413255619074e+000
      -1.6252795062273059e-002 5.6458504230416026e-002
      5.0506890095337098e-002 2.0322331735510771e-001
      -3.0274956903527678e-001 1.1731823179403590e-001
      -1.7695762057746853e-002 -8.0845143050630053e-003
      -1.5551550706447608e-002 1.0067504732023051e-001
      1.9788737597309253e-001 1.1499411601216734e-002
      -3.3923047517509283e-002 -9.2216261010653708e-002
      -5.0039223726296256e-001 -5.7326514725827532e-002
      1.8480790886975543e-001 2.4751972898453134e-001
      -2.9610460343667766e-001 -2.0009131014668884e-002
      -1.0199432077628358e-001 -7.9071185086110288e-002
      1.0230830119280805e+000 -1.9615471763992040e-001
      1.1220056736525766e-001 -1.7022532069181147e+000
      3.8538704815583066e-002 9.1587533762154477e-002
      -1.7194930204825307e-001 2.8692739758368657e-001
      7.0971791378536167e-002 6.0282371985719084e-002
      7.4404786497955039e-002 -5.6172393601158310e-001
      2.0199918391844987e-001 8.7430719346790053e-001
      9.0173480348839041e-002 3.3881964161027352e-002
      1.2769648959756216e-001 -5.8306503190803903e-002
      -9.0189316743731124e-002 -1.1492467184221225e-001
      3.8532135980973686e-002 1.3579296378078304e-001
      -2.5989671231146518e-002 -5.2407039900541331e-002
      4.0133261239717131e-002 -2.1433873182636276e-001
      1.7970241814438448e-001 2.6689889848035716e-002
      -2.1238311290889245e-001 6.4224767173672011e-003
      1.3682200040742354e-001 4.5144064547624381e-002
      1.8621362462470123e-001 -1.9618653619161075e-001
      6.7657600976720092e-002 -2.5178473727395626e-002
      3.4378466529770307e-001 -1.8949479399293748e-001
      -4.3417052154734057e-002 3.7666197573067099e-002
      -1.9551914929303099e-001 -2.3887493948779132e-001
      3.8975642816892414e-001 -2.7380066546925547e-001
      -1.7171782490716322e-002 1.3440347726397253e-001
      2.2815860665986465e-001 -3.5321778633694310e-002
      -4.7788843488607990e-001 1.5563567063329295e-001
      1.5954175756780936e-001 -7.2386731963618736e-002
      -2.1044905049117554e-001 3.7583289219655085e-002
      -2.4735477684231472e-001 -2.8191419329419976e-001
      6.3337947478722947e-003 1.8427968623825876e-002
      -3.4643252922669690e-002 1.7928301427914239e-001
      2.6921232111023058e-001 2.9457817655810242e-001
      -1.9367122655375815e-001 -1.2378034909276026e-001
      -7.3065409692158120e-002 -1.8753536457521477e-001
      -9.5785372543793991e-004 1.2111568210568034e-001
      -8.7664563549824243e-002 -2.3215226782415282e-001
      -2.3177553096801268e-001 -4.8041803663173815e-002
      -3.5544804328033192e-001 2.0061834859965968e-001
      -1.6028024331926982e-001 -9.5609586640077585e-002
      -4.8866601320988856e-002 2.3311243460778075e-001
      1.5724321671506217e-001 2.5716650174728684e-001
      4.0195450456062730e-002 -1.5436900558089298e-001
      5.5210472236043917e-002 -6.1224405720577524e-002
      8.5862098504372888e-002 3.0796149261306871e-001
      -2.9734044782295493e-001 -6.6867462356168805e-002
      8.2199412747265027e-002 2.0999853431543894e-001
      -3.5347179453660788e-001 -2.9026110335310629e-001
      7.0684846579371088e-002 8.7433582447921550e-003
      4.3492381078258695e-002 -1.1171620067150329e-001
      4.3272864264809735e-001 -2.0330297206949541e-001
      8.3149080198303374e-002 3.0173584402639281e-001
      3.4238758196720710e-002 -1.4255460425157881e-001
      6.6584957687517876e-002 -1.0939862183678863e-001
      -2.5816338889810352e-002 9.7129287888778809e-002
      7.1857373713338710e-002 -1.1522790770939405e-001
      4.0705485956396982e-002 -8.0616748903353797e-002
      1.0172527479816655e-001 -9.9598705389899247e-002
      -2.5716836110604185e-001 -2.1795244053140792e-002
      -2.4259722062636652e-001 -1.3668755129051313e-001
      -2.6009917391087160e-002 -8.5584479196627858e-002
      -1.4247217120410297e-001 3.9533201840521136e-002
      1.6157220619103038e-001 5.1418599330807805e-003
      -1.1514101727672116e-002 -2.6957974066201029e-001
      -1.6495212900401970e-001 -1.8564865398751526e-001
      1.9331445300747208e-001 2.0726208029651441e-001
      -9.1155322509176268e-002 -8.5369320785597780e-002
      -3.7536316135048313e-002 -2.2138329621999253e-001
      -3.7430387202225371e-002 1.7912538712659162e-001
      -1.4647526654043522e-001 9.8824567693710355e-002
      -1.0255894452201521e-001 1.6868256182016314e-001
      5.1754127445350481e-003 1.7042520419229717e-001
      -2.0537524717231689e-001 -1.5658311334920944e-001
      9.0078827676570952e-002 -1.0198176961632220e-001
      3.6602157746937460e-002 -6.8100307618058648e-003
      1.9458480969433610e-002 -2.9564012117871512e-002
      3.0426831049106629e-001 9.9461646363416756e-002
      4.2931517139557125e-002 6.1314704019972611e-002
      -1.6193835547927603e-002 2.0110405778039665e-002
      -1.3268898406524770e-002 1.1785609172806808e-003
      1.1947170843872841e-001 -1.2198810549253400e-001
      -1.3819174856121316e-001 8.6808896997575893e-002
      -2.1239406030192320e-002 5.5290615055595682e-002
      9.7671392518239100e-002 -2.5384363713490156e-002
      3.5942745552370245e-002 8.1395326053907910e-004
      -4.2113396532690577e-002 -5.9609532611483849e-002
      -5.1545931842048500e-003 8.4017086625895285e-002
      -8.1343814096845879e-002 7.1923175123872682e-002
      -1.5340095694042008e-001 1.7157934082088527e-001
      2.2252885608341086e-002 5.5801905139034332e-002
      -5.1026354813807344e-002 9.4565528439549115e-002
      1.8926798796663064e-001 5.1036494408661006e-003
      1.3977125712279648e-001 -4.5372001979516680e-003
      -6.5509989792699411e-002 -4.8079997570248736e-003
      1.1199345039942815e-001 9.8914548133183580e-002
      -7.1281206135391691e-003 -8.2644652338077787e-002
      -1.7192878860349696e-002 -4.0249587577463129e-002
      -6.0213248987515417e-003 -2.0095423819767047e-001
      1.0651347632511060e-001 3.3103679548896559e-001
      1.7073174608093787e-002 1.3064740971283484e-002
      -1.7406390752067549e-001 1.2869829538660080e-001
      7.7464007311158992e-003 -7.2681366892997767e-003
      5.2255147506337529e-002 7.1376809801334609e-002
      -8.5974654550300414e-002 6.2264371880391474e-002
      -8.3409977286727166e-002 -1.0850497872431601e-001
      -2.2688843588877902e-004 3.3108455082652623e-002
      -1.4940546377900182e-001 -8.5522122596137617e-002
      -6.1510542113657876e-002 4.1193601600160661e-002
      -2.9440535004950667e-003 1.6999063100764483e-001
      7.6617534586725905e-002 -3.8209024550834990e-002
      4.2952422389707579e-001 -9.5937750414987491e-002
      1.4741340909862791e-001 3.7454600216352912e-002
      -7.6386037887872030e-002 -7.6528527173798350e-002
      2.5860685994457538e-002 5.1080043814322129e-002
      -1.5685568596800425e-001 -1.9262158739593700e-002
      4.7108340991165183e-002 -1.4314425972431691e-001
      -3.0179299122953018e-001 -5.4565342106809162e-003
      1.9252333335683589e-002 -6.4077707841558945e-002
      -8.9482387836892024e-002 8.9094228487121174e-002
      -1.2071851310084515e-001 -6.7220712407706495e-002
      -1.2335223694038618e-001 -1.1200196695858231e-001
      -1.6857287152210668e-001 1.3792528753835305e-002
      8.6783446350940277e-002 4.9991199441425521e-002
      -7.1314817135283537e-002 -6.6134422393381131e-002
      -9.8952850296490008e-002 -2.4100705350549756e-002
      1.3158297762645380e-001 8.0316364719998964e-002
      -2.1022000188999868e-001 2.1019536001883440e-002
      -9.4828534287480670e-002 -4.1672270668464001e-001
      -1.0176593779898646e-001 2.7186330845931344e-002
      -4.1178390258941142e-002 -1.2385277787909831e-002
      -1.3880321371888579e-001 2.5964803293548708e-002
      4.1864389718047096e-002 2.3272822537805674e-001
      -7.3801014891605524e-002 -4.1049461673763790e-002
      8.0064197945184809e-002 -6.1981715949744234e-002
      1.3173486585224034e-001 2.2529561715044122e-001
      -8.2922663736284458e-002 -1.3476505206698161e-001
      1.8873455739991554e-001 6.8883137681335499e-002
      -1.3162068311961830e-002 -1.0813687574616734e-001
      -1.6881315909936381e-002 8.6376904971898733e-002
      3.0053546297155384e-002 3.5650912402074846e-002
      4.5841777780614484e-001 -1.6730422766459968e-001
      5.7771600547008924e-002 3.7233717237929405e-002
      -9.8292726247577344e-002 7.9356900046570061e-002
      -5.1382246664190612e-002 -3.3044802782628654e-002
      -1.0118996292653824e-001 4.5623894787774018e-002
      -1.4623561869345708e-003 3.1109979411323558e-002
      1.6491501087925758e-001 1.4091093068911930e-003
      2.2770058282649882e-003 -9.7942272867812291e-002
      -4.8055639078418901e-002 8.1803596447213838e-003
