<?xml version="1.0"?>
<opencv_storage>
<my_nn type_id="opencv-ml-ann-mlp">
  <layer_sizes type_id="opencv-matrix">
    <rows>1</rows>
    <cols>3</cols>
    <dt>i</dt>
    <data>
      400 65 32</data></layer_sizes>
  <activation_function>SIGMOID_SYM</activation_function>
  <f_param1>6.6666666666666663e-001</f_param1>
  <f_param2>1.7159000000000000e+000</f_param2>
  <min_val>-9.4999999999999996e-001</min_val>
  <max_val>9.4999999999999996e-001</max_val>
  <min_val1>-9.7999999999999998e-001</min_val1>
  <max_val1>9.7999999999999998e-001</max_val1>
  <training_params>
    <train_method>RPROP</train_method>
    <dw0>1.0000000000000001e-001</dw0>
    <dw_plus>1.2000000000000000e+000</dw_plus>
    <dw_minus>5.0000000000000000e-001</dw_minus>
    <dw_min>1.1920928955078125e-007</dw_min>
    <dw_max>50.</dw_max>
    <term_criteria><epsilon>1.0000000116860974e-007</epsilon>
      <iterations>20000</iterations></term_criteria></training_params>
  <input_scale>
    1. 0. 1. 0. 1. 0. 1. 0. 1. 0. 1. 0. 1. 0. 1. 0. 1. 0. 1. 0. 1. 0. 1.
    0. 1. 0. 1. 0. 1. 0. 1. 0. 1. 0. 1. 0. 1. 0. 1. 0. 1. 0.
    1.1050998487561817e+001 -5.3230661686042803e-003
    4.0840646584467581e+000 -5.3230661686042803e-003
    3.4046956919933895e+000 -1.1286923638206629e-002
    1.7438415074334912e+000 -1.0227954326317758e-002
    1.5263555237612885e+000 -1.4617860964817826e-002
    1.1675406517897065e+000 -1.6739171218247001e-002
    9.2199543390040772e-001 -2.3798992442786712e-002
    6.9383186209000358e-001 -2.5360357637381481e-002
    6.1193442622052507e-001 -2.7360454610715679e-002
    5.5692556485180278e-001 -2.7583540287336051e-002
    5.3606780806131715e-001 -2.7613727227933996e-002
    5.6419184272181822e-001 -2.7303988535088135e-002
    6.0713745601326286e-001 -2.5924578420989632e-002
    7.7365624466652205e-001 -2.4792599459321576e-002
    8.9505397943949028e-001 -1.8766892720517462e-002
    1.4386310876899691e+000 -1.7853977174176364e-002
    2.0882705994944613e+000 -1.0532178242428076e-002
    5.6390629820895040e+000 -1.0545381713594969e-002 1. 0. 1. 0.
    4.0840646584467581e+000 -5.3230661686042803e-003
    2.7444578894515870e-001 -5.6673020424229066e-002
    1.3503726696885329e-001 -1.0669294731041493e-001
    7.9064109772963964e-002 -1.7714097277300259e-001
    5.0396752102029638e-002 -2.7089271671492182e-001
    3.6052631481856515e-002 -3.7586449127565502e-001
    2.8617419572021321e-002 -4.7969794482047706e-001
    2.5968731317315370e-002 -5.4347956607813097e-001
    2.4005594230299666e-002 -5.9060237120539172e-001
    2.2807321061588545e-002 -6.2934131286453898e-001
    2.3096796883305064e-002 -6.3201247006679651e-001
    2.4045110478363534e-002 -6.0846808497764415e-001
    2.6358091767475094e-002 -5.3745846672677722e-001
    3.1341355443852664e-002 -4.3329714731996671e-001
    4.2937538475466101e-002 -3.0034378094740577e-001
    7.2612056549684667e-002 -1.8896869549132791e-001
    1.5709159644849824e-001 -9.3450204500502093e-002
    2.0882705994944613e+000 -1.0532178242428076e-002 1. 0. 1. 0.
    2.9036137862031799e+000 -1.4562084270477511e-002
    1.4488745614712734e-001 -1.0637587520710519e-001
    5.4718056829135296e-002 -1.9466282439281843e-001
    3.1987873128008056e-002 -3.1638021343591566e-001
    2.1040352729858571e-002 -4.6578451221494771e-001
    1.6003448582064348e-002 -6.5068372300300203e-001
    1.3827835451796475e-002 -8.4540368300379598e-001
    1.3368008904091276e-002 -1.0070966943756148e+000
    1.3135649366012527e-002 -1.1118123344568109e+000
    1.2934416912369979e-002 -1.1407732058025859e+000
    1.3188382458484454e-002 -1.1682665509564916e+000
    1.3267619982466712e-002 -1.1411720803863568e+000
    1.3516843394361780e-002 -9.6032666447149417e-001
    1.5656561625827077e-002 -7.1068758898323681e-001
    2.1049690060919508e-002 -4.7420282282054393e-001
    3.4170766109773341e-002 -3.0446769348715308e-001
    8.3789801918187357e-002 -1.7297835173431361e-001
    1.5254986785373379e+000 -1.8543023633369730e-002 1. 0. 1. 0.
    1.4159740610191542e+000 -1.3801464227767235e-002
    9.8210989682636765e-002 -1.4560092973577204e-001
    3.3706376929495754e-002 -2.6295806528942406e-001
    1.9900082840862501e-002 -4.2901416514270485e-001
    1.4304744909129001e-002 -6.3901268982656512e-001
    1.2102775967165762e-002 -8.7523271827405036e-001
    1.1748921550361465e-002 -1.1069392929844908e+000
    1.1746655911504532e-002 -1.2331635581607445e+000
    1.1871303540711291e-002 -1.2444350498383714e+000
    1.1733011583509865e-002 -1.1793433617774534e+000
    1.1922092701488347e-002 -1.2455186882602811e+000
    1.2069953055999371e-002 -1.3527875343047409e+000
    1.1910127519123346e-002 -1.2272597923121031e+000
    1.2690081307014250e-002 -9.1939428724559646e-001
    1.5141768780902079e-002 -6.1725971953885495e-001
    2.2631347874983079e-002 -4.0724370828582163e-001
    5.9114042700158922e-002 -2.4246254478762377e-001
    9.4410206640389382e-001 -1.9501045714686725e-002 1. 0. 1. 0.
    2.1322187485592021e+000 -1.6372404750504173e-002
    8.6793089179459201e-002 -1.6728075006843207e-001
    2.9067866338222587e-002 -2.8920768587166951e-001
    1.7196428463372881e-002 -4.7501473182703202e-001
    1.2717989265512528e-002 -7.1448772176763797e-001
    1.1377997360015126e-002 -9.7324738753293338e-001
    1.1599195196849156e-002 -1.1723495528796009e+000
    1.1757665714500098e-002 -1.1779733200316789e+000
    1.1737396032599974e-002 -1.0263764680312217e+000
    1.1920882863060395e-002 -9.3613636244275200e-001
    1.1948854453835337e-002 -1.0046588563881778e+000
    1.1687487720400411e-002 -1.1758066992716421e+000
    1.1477712951596414e-002 -1.1733027266245488e+000
    1.1861197482495426e-002 -9.5740831584198027e-001
    1.3438483332117723e-002 -6.8143197066909922e-001
    1.9104840462090638e-002 -4.5778322251720982e-001
    5.0678809422359965e-002 -2.7957706955271761e-001
    8.1197214939033013e-001 -2.4018896777363914e-002 1. 0. 1. 0.
    1.8908151207395283e+000 -1.1625729782123300e-002
    9.1191809334252083e-002 -1.5836673521394171e-001
    2.8381726686821363e-002 -2.9459481202041887e-001
    1.6416657080294449e-002 -4.8355853477028132e-001
    1.2437130226346536e-002 -7.3172881134145851e-001
    1.1313051887811209e-002 -9.9643391589402941e-001
    1.1658392366845963e-002 -1.1665943746708998e+000
    1.1890684616271841e-002 -1.1079211847379382e+000
    1.1907006233684059e-002 -9.0096493364415453e-001
    1.2429898153092492e-002 -8.1611387288880666e-001
    1.2384917691870379e-002 -9.0513524974313109e-001
    1.1812466873137733e-002 -1.0748136597807199e+000
    1.1428842369260686e-002 -1.0713656481798384e+000
    1.1818253294424229e-002 -8.8397775386714328e-001
    1.3466718628990624e-002 -6.4244905663410312e-001
    1.9529417104642774e-002 -4.2820680362984381e-001
    5.4260444165630042e-002 -2.5236725836126161e-001
    6.7942538726521962e-001 -2.4833784307713522e-002 1. 0. 1. 0.
    1.2689961048734064e+000 -1.8697134687733298e-002
    9.5687490027230204e-002 -1.5400336634819170e-001
    2.8358687964223406e-002 -3.0655072355829505e-001
    1.5853600166917992e-002 -4.9352792316294902e-001
    1.2388874655213648e-002 -7.3850758253056992e-001
    1.1440815536699929e-002 -1.0056737162623741e+000
    1.1797889646402243e-002 -1.1868553967722419e+000
    1.1864161423781487e-002 -1.1099366241393569e+000
    1.1852722222029936e-002 -9.1874431971327541e-001
    1.2265491060366486e-002 -8.7023299376384466e-001
    1.2381217677896713e-002 -9.7855576433641489e-001
    1.1969024844910034e-002 -1.0902288430630500e+000
    1.1684312390978660e-002 -1.0092868189782780e+000
    1.2203535005717827e-002 -7.9352022870248373e-001
    1.4179299255447777e-002 -5.7104453037214165e-001
    2.1756361545875711e-002 -3.8072738853123667e-001
    6.3749563964757630e-002 -2.1317891760747726e-001
    7.5771450218998682e-001 -2.4861400094523128e-002 1. 0. 1. 0.
    9.8913511275247201e-001 -2.1328076978568870e-002
    8.8231176289172125e-002 -1.6053509153115880e-001
    2.6970734789142959e-002 -3.1729682847565560e-001
    1.5261517889537175e-002 -5.0830847876168850e-001
    1.2175194623060505e-002 -7.4183443934543836e-001
    1.1432004232785174e-002 -1.0034153186220272e+000
    1.1736935159830228e-002 -1.2242661282184717e+000
    1.1827103304893317e-002 -1.2017275941237462e+000
    1.1787867079909982e-002 -1.0828571906507531e+000
    1.2070551511398015e-002 -1.0766998298066250e+000
    1.2142644961782465e-002 -1.1359959924422112e+000
    1.1848387951247610e-002 -1.1347427379218860e+000
    1.1843367316789238e-002 -9.6224599363451391e-001
    1.2691584845755759e-002 -7.1063489412024217e-001
    1.5432062752110213e-002 -4.9982121993373774e-001
    2.5714519537422837e-002 -3.2511420860879509e-001
    7.5231605738201701e-002 -1.7557807217987129e-001
    8.3478529308041960e-001 -2.2091901049418067e-002 1. 0. 1. 0.
    9.3791012926859885e-001 -2.2615292551145486e-002
    7.7507628131028766e-002 -1.7314861090682859e-001
    2.4974311378721109e-002 -3.3432163058176695e-001
    1.4573323441834263e-002 -5.3403861787206153e-001
    1.1817338593275148e-002 -7.6547846215785220e-001
    1.1292699767753590e-002 -1.0371231081238903e+000
    1.1438353033706871e-002 -1.2522230404591348e+000
    1.1580506832578887e-002 -1.2562095306064509e+000
    1.1424813731281770e-002 -1.1958425983081904e+000
    1.1485519044313632e-002 -1.2234119876433756e+000
    1.1549026254671354e-002 -1.2086820227654727e+000
    1.1404957222725358e-002 -1.1284544813456325e+000
    1.1734946289252948e-002 -9.0860796694322010e-001
    1.2992273794864952e-002 -6.4438519500750768e-001
    1.6824494662122890e-002 -4.4664735795298666e-001
    3.0128660219443746e-002 -2.8152664701637198e-001
    8.9882403834250571e-002 -1.4508572986239254e-001
    1.2717726962554137e+000 -1.8233558618004683e-002 1. 0. 1. 0.
    8.3585879192473733e-001 -2.1670325407620056e-002
    6.8600630490691247e-002 -1.8900015033469419e-001
    2.3259859811657648e-002 -3.6219818989180752e-001
    1.3951557605557694e-002 -5.7443313852709799e-001
    1.1608070424060599e-002 -8.1197191262775537e-001
    1.1306814878875419e-002 -1.0841218099581551e+000
    1.1610781575283171e-002 -1.2272385247251802e+000
    1.1878884278908441e-002 -1.1300668403793761e+000
    1.1626059779834776e-002 -1.0408629187079024e+000
    1.1393345261294494e-002 -1.0936994861449660e+000
    1.1673278924284252e-002 -1.1350926683341076e+000
    1.1374857324855591e-002 -1.0700014012877326e+000
    1.1769172787666796e-002 -8.6589371999268516e-001
    1.3468761787481230e-002 -6.1250332431104848e-001
    1.8433528087192733e-002 -4.1208099025486067e-001
    3.4425371646803156e-002 -2.5373117119531685e-001
    1.0809237655832898e-001 -1.2606438419849203e-001
    1.8331834373298332e+000 -1.3400995291731986e-002 1. 0. 1. 0.
    7.9166346126921627e-001 -2.1556359229300905e-002
    6.2063017241459253e-002 -2.1287264970760114e-001
    2.1662600404530583e-002 -4.0274710407268272e-001
    1.3387069517940839e-002 -6.2320292589623882e-001
    1.1551616045665340e-002 -8.8593560139372152e-001
    1.1491207526838599e-002 -1.1399253121440083e+000
    1.1984936377816004e-002 -1.2140082097446887e+000
    1.2194724210743935e-002 -1.0123162150366984e+000
    1.2183078054842377e-002 -8.9042825348154786e-001
    1.1756656579950049e-002 -9.3721435972859435e-001
    1.1901983168791963e-002 -1.0268309263374298e+000
    1.1439960201510561e-002 -1.0140774490891784e+000
    1.1679364850043858e-002 -8.4463519908653095e-001
    1.3597701154991388e-002 -6.1340762170316698e-001
    1.9194688469438687e-002 -4.0599760099206406e-001
    3.7780620252419274e-002 -2.4287587468761210e-001
    1.2474247283307160e-001 -1.1628799191570251e-001
    2.3046416661547751e+000 -1.3451851166743649e-002 1. 0. 1. 0.
    7.8707400642695768e-001 -2.3148579567369792e-002
    5.6912545542376222e-002 -2.4059914487330680e-001
    2.0121556049254596e-002 -4.4038402565862006e-001
    1.2894839329425346e-002 -6.8705273556725721e-001
    1.1457592203654037e-002 -9.8253438715422892e-001
    1.1630799663119902e-002 -1.2330450280091729e+000
    1.1965490891690762e-002 -1.2180664951822497e+000
    1.2140870002118019e-002 -9.3719170922733341e-001
    1.2480020755068483e-002 -7.7716267858153698e-001
    1.2057025507282845e-002 -8.2053844022529565e-001
    1.1743612514600967e-002 -9.5070787288604641e-001
    1.1306547145756348e-002 -9.9762009900347537e-001
    1.1514697105916334e-002 -8.6174423177158910e-001
    1.3536147825029436e-002 -6.2401553260028952e-001
    1.9342945310490186e-002 -4.0639312706823150e-001
    3.8292086637574635e-002 -2.3788333605705136e-001
    1.2459042825028406e-001 -1.1484361804998841e-001
    1.8066121181979300e+000 -1.5766201014506060e-002 1. 0. 1. 0.
    7.4571555703729042e-001 -2.3432367686350129e-002
    5.0601379528043833e-002 -2.7597272364764858e-001
    1.8651079319846303e-002 -4.8394511930931944e-001
    1.2544360955014518e-002 -7.4921251784807696e-001
    1.1415365380852933e-002 -1.0690468816927901e+000
    1.1697973342961332e-002 -1.3154182593087411e+000
    1.1958947564488258e-002 -1.2235081232616576e+000
    1.2300941020759208e-002 -9.0185001033462631e-001
    1.2782176593535031e-002 -7.3956479323181379e-001
    1.2162610950951183e-002 -8.0759833207418341e-001
    1.1664960694755621e-002 -9.9707072048579359e-001
    1.1359258388571146e-002 -1.0544274325554783e+000
    1.1448199937537595e-002 -8.8588982158534235e-001
    1.3487480500503666e-002 -6.3180398555919548e-001
    1.9271214574876544e-002 -4.0557462248261766e-001
    3.7730469571536231e-002 -2.3492463739001909e-001
    1.1498956389610261e-001 -1.1446500322437528e-001
    1.1627061534625867e+000 -1.5780360057478224e-002 1. 0. 1. 0.
    9.3235114372508365e-001 -2.4145551394461406e-002
    4.6619535529699628e-002 -3.1907032009743985e-001
    1.8102853400028641e-002 -5.2010221563108383e-001
    1.2817172330005412e-002 -7.8054629295206779e-001
    1.1727743026490581e-002 -1.1117138100769695e+000
    1.1800131326784017e-002 -1.3536261548815167e+000
    1.1945412472817281e-002 -1.2408668247377250e+000
    1.2126526659769942e-002 -9.6135700385827538e-001
    1.2307833159175554e-002 -8.3222092349439292e-001
    1.1942993474245484e-002 -9.2571210733567988e-001
    1.1654018967698104e-002 -1.1074699345758363e+000
    1.1510282021639841e-002 -1.1058242625836312e+000
    1.1684607898020146e-002 -8.8476944873541774e-001
    1.3898331935873590e-002 -6.2073558407851448e-001
    2.0394292934838604e-002 -3.9999753826910983e-001
    3.9320587939943967e-002 -2.3146816733671882e-001
    1.2023097116179028e-001 -1.1737960338737556e-001
    1.2591331765294145e+000 -1.7695578600815731e-002 1. 0. 1. 0.
    8.9703922835712147e-001 -1.7410587692308056e-002
    5.3414465197226764e-002 -2.8565910090147517e-001
    2.1035609981982357e-002 -4.6928250699327934e-001
    1.4182400157676843e-002 -7.1364601510838843e-001
    1.2351962677985891e-002 -1.0391275406473328e+000
    1.1920964796305852e-002 -1.2849136864214863e+000
    1.2042447358506020e-002 -1.2808386318299927e+000
    1.1969956725460626e-002 -1.1070617617133134e+000
    1.2020075545287966e-002 -1.0304800922225161e+000
    1.1948584311031742e-002 -1.0981609924515272e+000
    1.1786398532215773e-002 -1.1575814299578726e+000
    1.1858841747185392e-002 -1.0319329351006781e+000
    1.2885035713491132e-002 -7.8305114426098377e-001
    1.6561047901368260e-002 -5.4871111448346621e-001
    2.5642006709818536e-002 -3.4838414732113893e-001
    4.9214927994514976e-002 -1.9834481945869795e-001
    1.4804150628686036e-001 -1.0104892999887982e-001
    1.1587374941516293e+000 -1.5562337353805918e-002 1. 0. 1. 0.
    1.4918032176819376e+000 -1.6611754867792521e-002
    7.5651777325649913e-002 -2.0812437785557056e-001
    2.9422575542411126e-002 -3.6145258487301141e-001
    1.7932125399430367e-002 -5.6838125607982248e-001
    1.4117656151687932e-002 -8.1337988089263635e-001
    1.3340065615928078e-002 -1.0160569286682510e+000
    1.3211666294168440e-002 -1.0806467714941668e+000
    1.3145520009597787e-002 -1.0260273354591207e+000
    1.3349243141657099e-002 -9.7922162128558288e-001
    1.3499398933909218e-002 -9.4868916489990507e-001
    1.3796053821113799e-002 -8.8300998864250169e-001
    1.4585967240129690e-002 -7.4867964213832705e-001
    1.7893765531407417e-002 -5.7053546124697130e-001
    2.5527696756349444e-002 -3.9422002654726429e-001
    4.2422908662632833e-002 -2.4066853972267435e-001
    8.6190740634300919e-002 -1.3487985167688887e-001
    2.4499293202788053e-001 -6.5987669278809738e-002
    2.1470439078516468e+000 -1.5817057661333074e-002 1. 0. 1. 0.
    2.1673331447660429e+000 -8.8429992589553214e-003
    1.3670390899905349e-001 -1.1106200047402773e-001
    6.2556641401258190e-002 -2.3277104171872129e-001
    3.7376011642983799e-002 -3.8117749623737651e-001
    2.8171534827470621e-002 -5.1138443849949977e-001
    2.5762674807458731e-002 -5.7876780026038599e-001
    2.3850948564571990e-002 -6.0146789966574898e-001
    2.3237121076547823e-002 -5.8829822308094892e-001
    2.3850660823783870e-002 -5.5113860773678813e-001
    2.5120504511050433e-002 -5.0685651845551782e-001
    2.7952846126327837e-002 -4.6409898240744463e-001
    3.1053449449447396e-002 -4.1573066113593349e-001
    4.0488040981588425e-002 -3.3518816235515558e-001
    6.1550269434914720e-002 -2.3966813043273708e-001
    1.0163334739609224e-001 -1.4742350003104146e-001
    1.9686939084495786e-001 -8.0291786241530147e-002
    4.4863908316125350e-001 -3.2796555536679629e-002
    3.3628671240629568e+000 -7.5274559487992967e-003 1. 0. 1. 0.
    5.8089227192195336e+000 -8.8879332116242535e-003
    2.1673331447660429e+000 -8.8429992589553214e-003
    1.6019360047331495e+000 -1.4706238220993975e-002
    1.0199672672970932e+000 -1.5634893367175568e-002
    8.8160055092357303e-001 -2.1857039131219405e-002
    6.9343047027935600e-001 -2.3125482773320542e-002
    6.6230303816059499e-001 -2.3888923230624696e-002
    6.3437251255762905e-001 -2.4337414841555823e-002
    6.1288662324942156e-001 -2.4885006406834814e-002
    6.0790025420681026e-001 -2.5164827909108033e-002
    6.1568025325138531e-001 -2.5364777384396742e-002
    6.6587700031107611e-001 -2.4885721344468006e-002
    7.0881140860072067e-001 -2.2031737603348839e-002
    9.2970766050187670e-001 -2.0678902714248524e-002
    1.1782162723413188e+000 -1.5757177926078895e-002
    2.0122575680825348e+000 -1.4824100181380416e-002
    3.3628671240629568e+000 -7.5274559487992967e-003
    9.8335457969425821e+000 -7.5229007598518029e-003 1. 0. 1. 0. 1. 0.
    1. 0. 1. 0. 1. 0. 1. 0. 1. 0. 1. 0. 1. 0. 1. 0. 1. 0. 1. 0. 1. 0. 1.
    0. 1. 0. 1. 0. 1. 0. 1. 0. 1. 0. 1. 0.</input_scale>
  <output_scale>
    5.2631578947368418e-001 4.9999999999999994e-001
    5.2631578947368418e-001 4.9999999999999994e-001
    5.2631578947368418e-001 4.9999999999999994e-001
    5.2631578947368418e-001 4.9999999999999994e-001
    5.2631578947368418e-001 4.9999999999999994e-001
    5.2631578947368418e-001 4.9999999999999994e-001
    5.2631578947368418e-001 4.9999999999999994e-001
    5.2631578947368418e-001 4.9999999999999994e-001
    5.2631578947368418e-001 4.9999999999999994e-001
    5.2631578947368418e-001 4.9999999999999994e-001
    5.2631578947368418e-001 4.9999999999999994e-001
    5.2631578947368418e-001 4.9999999999999994e-001
    5.2631578947368418e-001 4.9999999999999994e-001
    5.2631578947368418e-001 4.9999999999999994e-001
    5.2631578947368418e-001 4.9999999999999994e-001
    5.2631578947368418e-001 4.9999999999999994e-001
    5.2631578947368418e-001 4.9999999999999994e-001
    5.2631578947368418e-001 4.9999999999999994e-001
    5.2631578947368418e-001 4.9999999999999994e-001
    5.2631578947368418e-001 4.9999999999999994e-001
    5.2631578947368418e-001 4.9999999999999994e-001
    5.2631578947368418e-001 4.9999999999999994e-001
    5.2631578947368418e-001 4.9999999999999994e-001
    5.2631578947368418e-001 4.9999999999999994e-001
    5.2631578947368418e-001 4.9999999999999994e-001
    5.2631578947368418e-001 4.9999999999999994e-001
    5.2631578947368418e-001 4.9999999999999994e-001
    5.2631578947368418e-001 4.9999999999999994e-001
    5.2631578947368418e-001 4.9999999999999994e-001
    5.2631578947368418e-001 4.9999999999999994e-001
    5.2631578947368418e-001 4.9999999999999994e-001
    5.2631578947368418e-001 4.9999999999999994e-001</output_scale>
  <inv_output_scale>
    1.8999999999999999e+000 -9.4999999999999996e-001
    1.8999999999999999e+000 -9.4999999999999996e-001
    1.8999999999999999e+000 -9.4999999999999996e-001
    1.8999999999999999e+000 -9.4999999999999996e-001
    1.8999999999999999e+000 -9.4999999999999996e-001
    1.8999999999999999e+000 -9.4999999999999996e-001
    1.8999999999999999e+000 -9.4999999999999996e-001
    1.8999999999999999e+000 -9.4999999999999996e-001
    1.8999999999999999e+000 -9.4999999999999996e-001
    1.8999999999999999e+000 -9.4999999999999996e-001
    1.8999999999999999e+000 -9.4999999999999996e-001
    1.8999999999999999e+000 -9.4999999999999996e-001
    1.8999999999999999e+000 -9.4999999999999996e-001
    1.8999999999999999e+000 -9.4999999999999996e-001
    1.8999999999999999e+000 -9.4999999999999996e-001
    1.8999999999999999e+000 -9.4999999999999996e-001
    1.8999999999999999e+000 -9.4999999999999996e-001
    1.8999999999999999e+000 -9.4999999999999996e-001
    1.8999999999999999e+000 -9.4999999999999996e-001
    1.8999999999999999e+000 -9.4999999999999996e-001
    1.8999999999999999e+000 -9.4999999999999996e-001
    1.8999999999999999e+000 -9.4999999999999996e-001
    1.8999999999999999e+000 -9.4999999999999996e-001
    1.8999999999999999e+000 -9.4999999999999996e-001
    1.8999999999999999e+000 -9.4999999999999996e-001
    1.8999999999999999e+000 -9.4999999999999996e-001
    1.8999999999999999e+000 -9.4999999999999996e-001
    1.8999999999999999e+000 -9.4999999999999996e-001
    1.8999999999999999e+000 -9.4999999999999996e-001
    1.8999999999999999e+000 -9.4999999999999996e-001
    1.8999999999999999e+000 -9.4999999999999996e-001
    1.8999999999999999e+000 -9.4999999999999996e-001</inv_output_scale>
  <weights>
    <_>
      -4.6222180089869102e-003 -3.0386965129628293e-003
      4.1951311306622193e-003 1.2393182417243767e-003
      3.9910867379776820e-003 -3.6096718242828603e-003
      2.7212430466679316e-003 -4.3222094542688183e-003
      4.2447361673685078e-003 -2.9648579954383437e-003
      1.8223902578679845e-003 2.2345350336514091e-003
      -2.8510467270295809e-003 3.2893528653748744e-003
      6.6332868772747005e-004 2.3070695693070183e-003
      4.4132864887138209e-003 2.4871913685018442e-003
      6.6752844171497007e-004 4.5411576321843479e-003
      2.6542105002752810e-003 1.3940396294657149e-003
      3.9125175763899530e-003 3.0413716111723937e-003
      -1.3362404417424599e-003 -2.2059426488131306e-003
      1.5680867236652495e-003 2.6706976345374977e-003
      -3.8907308630967393e-003 -1.4327270612453627e-003
      -1.1536972816925295e-003 -4.6264017750555914e-003
      2.3060224160819263e-003 1.3092783029316777e-003
      -1.8383566451348704e-003 3.9834846521900739e-004
      -2.9908813254164806e-003 4.1617280994612621e-003
      -4.4932590840112627e-003 -4.6598758093927663e-003
      1.2861381847023793e-003 -4.9377651111871367e-004
      -2.9506613804476368e-003 -2.9307322729695330e-003
      2.0694142749792597e-003 3.6126918873206678e-003
      4.8341336313847258e-003 1.6555333764410316e-003
      -1.8915031729696118e-003 6.3986230241183998e-004
      -2.6937071349175212e-003 -2.0456329913700453e-004
      -3.8397497722587183e-003 -2.5998439387365066e-003
      1.2625594265404177e-003 -1.8229237608033452e-003
      -3.5485943055033461e-003 -3.1430571140462818e-003
      -2.4621547577512448e-003 -1.5562364787584315e-003
      1.4445438086689406e-004 1.2770301559855831e-003
      -2.6479797593721962e-003 4.6089118174772199e-003
      6.0508296790771606e-004 3.9465962783385364e-003
      1.9445897513581125e-003 -2.0512523005369746e-003
      1.3795432742528333e-003 1.5883914200944711e-003
      1.6319220725004501e-003 -2.3643416429982751e-003
      1.8106297601928724e-003 -4.7374210554400140e-003
      5.6880728248780491e-004 -3.6725714549732877e-003
      -2.5920662679817202e-003 2.8725399787440486e-004
      8.3635052721691306e-004 -2.8678647515879736e-003
      1.4719575907745769e-003 -3.0976136310436409e-003
      3.9642033701190382e-003 4.5363844566419630e-003
      4.2988454258555504e-003 -4.8108213563682499e-003
      -4.2817316452198684e-003 2.0251181385126668e-004
      1.4318919384391968e-003 -1.8672345114128803e-003
      -1.7333742334773134e-003 -3.9045569749589469e-003
      5.6491604324825887e-004 7.8036035827621177e-006
      4.1099302360720937e-003 -2.0927461498505182e-003
      -2.6279956628809118e-003 4.1391044263893858e-003
      -1.8829944215139963e-003 4.4589804284261535e-003
      6.0622435323023807e-004 1.4538455969069577e-003
      1.0063244392069025e-003 3.5520411701148004e-003
      -3.8485067180491070e-003 -7.7695574176499466e-004
      -3.4223608190397828e-003 -1.2787527935625004e-003
      4.6216685150028899e-003 2.7902824190821781e-003
      4.4540194340013210e-003 9.6362806363266252e-004
      3.2971025865644711e-003 2.1063584495908763e-003
      -2.0822562636899095e-003 2.8864432769716460e-003
      -2.2287280881655815e-004 -3.2487751328682231e-003
      -1.6637057910007122e-004 4.6998134805608990e-003
      3.8753132525677085e-003 5.0920072121160846e-004
      3.8765447843678944e-003 -4.1325140825440396e-003
      -3.5444265093086376e-003 5.0864509520890072e-004
      -2.3708028945360927e-003 -2.7786058485877512e-003
      5.0810875860270470e-004 -4.5629303838797429e-003
      4.3015752880493779e-003 -3.7110712366382535e-003
      -4.3361205254166327e-003 5.1566338849717034e-003
      -3.9791159955182053e-003 2.0340101534452593e-003
      1.5944370790950350e-003 -4.0883589033024002e-003
      -2.1511219261158832e-004 -3.6493688271758461e-003
      2.2506392641068844e-003 2.2313667931869938e-003
      -9.4943131670522068e-004 1.9068519598256805e-003
      4.1296695600824569e-003 4.3091136164203139e-003
      -2.1552803689897926e-003 -2.3400453506371706e-003
      -2.3162366264342653e-003 -4.3794371809704746e-003
      -4.6294544969943292e-003 2.8776311372734212e-003
      -3.8795869166235544e-003 2.2428074307504825e-003
      -3.8358615237973214e-003 1.1728225894667322e-003
      -3.1071943215289495e-003 3.9861142294205492e-003
      3.1846707833046422e-003 -4.4334292756442548e-003
      1.4212821494564206e-003 -3.0470132373285825e-003
      -2.0911385281922727e-003 -3.1734441344305102e-003
      3.2304997057587123e-003 1.8990682160172911e-003
      2.8157064717315799e-003 -1.0528168660828793e-003
      1.7279837822281633e-003 2.9349992969469099e-004
      -1.0539831750296408e-003 -1.0257491711496904e-003
      -1.9984161965575249e-003 2.7051444621732901e-003
      3.1410314236137351e-003 3.4695272033325717e-003
      -3.5859455570172579e-003 2.4631046261454153e-003
      4.8925653244496553e-003 3.0571286351795618e-003
      -3.1468230988576803e-003 -4.1537954032868267e-003
      3.1003209163921342e-003 4.2295527443812157e-003
      4.2672138835083712e-003 4.2401261281558500e-003
      -9.6750614773076179e-004 4.1641127102173799e-003
      -3.2627687891940227e-003 1.7403475588227237e-003
      3.1621626851383788e-003 2.2643494649390024e-003
      -3.8198714859965029e-003 3.3853432037235362e-003
      3.2510993168348152e-003 -2.2327431882718102e-003
      -3.2721434942178571e-003 2.5183947571933746e-003
      2.7535367690862504e-003 -1.8107315983045035e-003
      -1.8517084449777930e-003 1.8629958307694063e-003
      -4.4672396984591608e-003 1.8433448687276799e-003
      -9.7411543408456171e-004 -2.7587052741414879e-003
      1.1951269973259403e-003 4.2687073922807791e-003
      4.7258985234843363e-004 1.1557961134744446e-003
      1.0055675149410234e-003 -8.8513746702735270e-004
      -1.5317276963743851e-003 -1.0018757495817245e-003
      -4.1994242521559734e-003 -3.0192986562172209e-003
      -3.9629218922747128e-003 -3.3775284583646132e-005
      1.9858372839450336e-003 -2.0716159669029082e-003
      1.6076168303270075e-003 3.0563454327652527e-003
      -1.3989180154272492e-003 -2.5769457616751324e-003
      4.9711290945740590e-003 -1.8211122489984531e-003
      2.5210516523581977e-003 -5.9822848514318682e-004
      1.2966824364491472e-003 -2.1502752877916669e-003
      1.9353294818848345e-003 -3.8159975277577248e-004
      -2.0159822884408289e-004 -1.2562906298949396e-003
      -5.0796805918467997e-004 1.0184311573069163e-004
      3.7786697693535963e-004 -1.8218697339330077e-003
      1.3274566711086063e-003 -2.2109453702163990e-003
      3.1026795601207706e-003 7.0381326436841631e-005
      -1.0515704000539669e-003 4.9283035142787535e-003
      -4.2832448781853513e-004 3.2856835427117446e-003
      2.4915079106945788e-003 -4.8543456915862730e-003
      3.8979093276328663e-004 3.5824317441728189e-003
      -2.2195046958161904e-003 -2.7203000943790503e-003
      -4.2001728049903941e-003 4.0741229681363700e-003
      -1.4919471293616145e-003 9.5384835544098196e-004
      -5.7336572277325460e-004 2.6467394420884032e-003
      4.0641075655601135e-003 -2.4437785743808222e-003
      3.0288291998666109e-003 8.0309408815687022e-004
      -2.1525956360041484e-003 1.4109957079640318e-003
      -1.8819726344801800e-003 -4.4736827791917880e-003
      2.1872761428835706e-003 -4.0600594512353133e-004
      9.1758736652363846e-004 4.0097982241848852e-003
      -3.5376286347447517e-003 -4.0441639786810302e-003
      -3.5419809209699003e-003 -1.8773187598502699e-003
      -4.7654023041936782e-003 1.1358322822972828e-003
      7.2094832605908187e-004 3.2826683028150880e-003
      -7.3613935721177212e-004 -3.0013772181585120e-003
      3.0456624837697992e-003 1.8930545431341983e-003
      -4.8609685821415054e-003 -8.9576565022660897e-004
      3.0285697469817638e-003 1.4546726520641203e-003
      8.4989960043608550e-004 -3.0328695698650658e-003
      5.0189697537539662e-003 2.1144588119505819e-003
      -4.6562680012438027e-003 4.7059797672945074e-004
      2.4529230046671309e-003 1.6330575746910856e-003
      -4.5274870512645735e-003 -8.2229519086903316e-004
      -9.4740187010106613e-004 4.3318102775026521e-003
      1.1507583521921767e-003 -1.8223202103237917e-003
      3.7729266146134728e-003 4.5805032836796905e-003
      1.5662744885507757e-003 -1.5201459399774709e-003
      -3.1877665380743722e-003 -4.2797259256367764e-004
      -1.8841173846132521e-003 1.9635713360748120e-003
      2.3469385729701451e-003 3.2391363213827682e-003
      3.3342050357456194e-003 3.9991405377923272e-003
      -1.3386380823605304e-003 9.2607705644261911e-004
      -2.4093521000327872e-003 -3.0071216758546337e-004
      -2.3702628421345327e-004 -2.6581435211411392e-004
      -2.1576163838851514e-004 -2.5817910664278246e-003
      -2.3309420450078979e-003 -1.0054975072634421e-003
      4.8278430666251751e-003 3.3916384278673399e-003
      -7.0768640657827508e-004 4.7081249332946587e-003
      4.4930166486924139e-003 -3.8751743812233627e-003
      3.5263266308409071e-003 4.1044882030785166e-003
      -2.4296362606537748e-003 2.7407218217761638e-003
      1.8286617436704742e-003 3.4134864401273459e-003
      -1.6361141159096726e-003 -4.3646721846362481e-003
      -1.8977456291292853e-003 2.8429671925708070e-003
      -2.4644484839508787e-003 3.5936981639492901e-003
      9.8746835829837667e-004 3.5418969312810381e-003
      -1.7773628033753920e-003 -3.8407289483803060e-003
      -3.0877454459673028e-003 -4.5616898387392186e-003
      -4.6875545453827676e-003 5.3209224059438964e-004
      -5.7278626318714400e-004 3.9245780587387107e-003
      4.5439439487753334e-003 -1.8848319855068276e-003
      -2.4805218024117671e-003 1.5554555068870450e-003
      -1.6981292767557366e-003 -2.4673428745266785e-003
      2.9613349598096015e-003 -8.6216581632468848e-005
      3.7425627644134163e-003 -2.3905863604121399e-003
      3.9621632718827510e-003 3.5873859894536607e-003
      -9.0240343236675554e-004 -2.8464935674232484e-003
      3.3779062861133097e-003 -4.2591812174551952e-003
      -2.8032617465259075e-003 -4.7416080137275595e-003
      2.8942625583741888e-003 -3.8493527340057536e-003
      4.0306099985372256e-004 -2.3890890985498584e-003
      2.8401316760132303e-003 -2.3043934960146509e-003
      -2.3126749485672103e-003 -4.0279833307027722e-003
      -2.0574407019897717e-003 1.3484791408244514e-003
      -2.8834617075532707e-003 4.4224603303089889e-003
      1.6014880662567890e-003 1.5855434954729524e-003
      1.5080223604761441e-003 8.7314669041207678e-004
      3.5704601091568278e-003 -2.0578547290918230e-003
      -4.6130028857043689e-003 3.4635367958793513e-003
      -2.6065637618154019e-004 1.0701625379749594e-003
      8.4473290218875388e-004 -2.1491281186268186e-003
      -2.4435903814171689e-003 4.8396512509930106e-003
      -3.2169394979653571e-003 5.1619529733347783e-003
      6.8285537649022312e-004 1.5258547810191648e-003
      -1.9573949128976129e-003 4.3167233204608763e-003
      4.2853341070208748e-003 3.5936558696162738e-003
      -2.7979386289166764e-003 5.0491108055112635e-003
      3.0477921394776150e-004 1.2961795683618064e-003
      4.7032219875550625e-003 4.4882112599707738e-003
      -2.2285441238296356e-003 -9.8300971548921515e-004
      9.5630059973688200e-004 -5.0258135920656108e-004
      3.8412279939672767e-004 2.3435258911095208e-003
      -8.7977757825764467e-004 4.0516431316928768e-003
      4.6100217065952855e-003 -1.5015662046686045e-003
      3.2364255386143543e-003 -4.4279295209453595e-003
      -3.0576121761382766e-004 3.3873181999466411e-003
      -4.2950899902523413e-003 1.6040736245267679e-003
      1.4961500229958094e-003 -5.0956957870746549e-004
      -4.5712289473428510e-003 -3.0988346955645183e-003
      6.7464910357217117e-005 -1.7109320765968012e-003
      7.1420371520698528e-005 1.8688772514382646e-003
      -1.1395012547844039e-003 4.6078990801377354e-003
      2.1324312852632477e-003 -4.7354712999357271e-003
      4.3042005080525398e-004 2.9424347197031372e-003
      -2.3032814594515952e-004 -1.7362039948996804e-003
      5.9721609964249957e-004 1.7074177167336157e-003
      4.6267750366163398e-003 2.7203129641212172e-003
      -1.9787431160939364e-003 4.6966174061115924e-003
      -4.5153799378030452e-003 2.4261248299017775e-003
      -3.1279825804813371e-003 6.4457716037098095e-004
      1.5347805190110270e-003 4.1012145667171478e-003
      -1.1942932108618682e-003 -4.7168571252570882e-003
      -3.9826374182953478e-003 1.6081560113274883e-003
      -4.7348201954982700e-005 6.7434797500688995e-004
      -2.5773998030595336e-003 1.2849586425357746e-004
      1.6646258385707841e-004 3.4771863785385804e-003
      -7.0815453172679975e-004 3.5066104188695860e-003
      2.0462953756550050e-004 -1.3837582977269715e-003
      -1.0986174593051521e-005 4.3401523393741858e-003
      4.6898127052449343e-003 2.5470356418627249e-003
      -3.0571936584756270e-003 2.5858899080707424e-003
      2.0472722522242941e-003 3.0388416120986318e-003
      -6.4257334455487781e-004 -4.1020953128887020e-003
      -3.6389870789516479e-003 3.3862912316147812e-003
      4.6832816358236091e-003 4.2044556233187284e-003
      3.2749864584341679e-003 -4.6664375593143542e-003
      3.0065920983694126e-003 4.6615041244590094e-003
      -5.2685023684934790e-004 3.2840624765676676e-003
      -3.9354965315139417e-004 -3.9032878612826820e-003
      1.4818657536588289e-003 2.2129683846624972e-003
      -3.9137366777333834e-003 -1.0815082662952254e-003
      1.5907191177359004e-003 -4.5498512325032351e-003
      2.4470970329042545e-003 -2.7411416114966501e-003
      -4.7378192378403705e-003 2.9201169663616447e-003
      -1.6718968823751920e-003 2.3320035694354472e-003
      2.6560474365059381e-003 -2.1459549804838224e-003
      3.6810930258131291e-004 -1.0918728851209251e-003
      -2.5897736558792863e-003 1.2662636529412665e-003
      -4.1016655148711145e-003 4.6861431381132728e-003
      -7.3639470038115490e-004 -1.7364607969628972e-003
      -2.6136032370175032e-003 6.7225242769337749e-004
      3.4734007095860607e-003 -4.9575868905279170e-003
      -2.8292946732124038e-003 2.0617692586471430e-003
      -5.0684181283601427e-004 1.6307093735353044e-003
      3.2540446446858999e-003 1.9555406290405089e-003
      -9.2840574203413139e-004 1.7448383994783758e-003
      -3.6714198014812897e-004 -1.6701089295383009e-003
      4.4756380724683522e-003 4.8388352995544946e-003
      -3.1730998450739799e-003 -8.2291570583766221e-004
      -3.4326616776510261e-003 -8.3727255543920062e-004
      4.2661511845251058e-004 -5.1314044922523240e-003
      -2.4903153421602904e-003 3.2612277774699333e-003
      -2.3221272378894683e-003 -4.9891340139843264e-004
      -1.8271867646407446e-003 -9.8889759958796248e-004
      5.9882747950629084e-006 -3.1209443941522070e-003
      4.9264133641204475e-004 2.9430808183473958e-003
      -2.4331389050270724e-003 -1.1996931982755049e-003
      3.7946857511109888e-003 -1.8504522073809441e-003
      -4.0860343117734245e-003 -4.0238585081462056e-003
      1.8695082089443876e-003 6.1799854958289008e-004
      -3.2037265069745115e-003 -2.6140450876223557e-003
      1.1556471896208833e-003 -3.5948268799641464e-003
      7.2645849015746781e-004 -3.3129657518928537e-003
      -4.6421292136478234e-003 7.5676569700772916e-004
      3.3219485422765599e-003 -2.6295631296605593e-003
      2.7890224024764137e-003 2.3088030338653075e-004
      -8.2615345098788358e-004 1.5413376903583353e-004
      -2.2159911162229866e-003 -8.5940809904821167e-004
      -2.2728536653892325e-003 -2.6295792859326947e-004
      -2.5704033437261656e-004 -2.3459478506514171e-003
      -2.5939110894525595e-003 4.4065455567517224e-003
      -2.8502259316247744e-003 3.1150062531443701e-003
      1.2460105906843043e-003 4.5709490054655745e-003
      -1.9187282660005707e-003 -2.7066031048125368e-003
      -3.8310744706149288e-003 1.6694684709550205e-003
      -2.4969315573338553e-003 -2.5956457852943020e-004
      3.6143513196660324e-003 -4.0449417833611874e-003
      3.1472977933630030e-005 1.4732349167335239e-003
      -7.7715963565945428e-005 -1.0751530896694122e-003
      2.0953081912117220e-003 -4.0504339568270455e-003
      4.3371705914425473e-003 3.6397261437061930e-003
      -4.8022760004250648e-003 -2.0798970233880903e-003
      -6.1573182623063751e-004 -3.7599146918981651e-003
      -4.0346363581717877e-003 2.7628967249706824e-003
      1.5133022535191115e-003 -4.0251695751829623e-003
      -1.1026374770916065e-003 -4.1012339189164053e-005
      2.9914963843896969e-003 -7.7133475314892879e-004
      -4.3126864069224181e-003 3.8332902331423453e-003
      -2.4082798703766858e-003 2.0117794757436632e-003
      -1.4760858728206110e-003 4.8658355336863301e-003
      -2.5760508947261312e-003 -1.4939390705217825e-003
      4.6289386422672064e-003 1.5138144698627124e-003
      2.9300316854352633e-003 3.6745625529746848e-003
      -1.4051763931695392e-003 -2.7783242717376502e-003
      1.7432875039738419e-003 -3.4737545385920012e-003
      2.2800883041274050e-004 4.1646297492304810e-003
      -4.6644746661571477e-003 -3.6289101593428423e-003
      3.2502380156689266e-003 3.0070628359797551e-003
      -9.7660066335177932e-004 -1.0364024717427714e-003
      4.7280837658071010e-003 4.3115538404592648e-003
      3.6768922875698830e-003 -1.3249967704896367e-003
      1.8643363520729397e-003 3.4599309545405104e-003
      8.2333020915407789e-004 1.9174690261145990e-003
      4.2423045892235776e-003 1.1575119945754740e-003
      -1.9441205086129280e-003 -9.5220368209893863e-004
      4.2324513329826579e-003 6.8803207891232436e-004
      1.9936502809399055e-003 1.5313349416103529e-004
      4.4471626398643440e-003 3.8901034668995942e-004
      1.1870435166826748e-003 3.4845724850691910e-003
      -4.6524788869505146e-003 -4.4444689224707552e-003
      1.2229822079533441e-003 -1.4982662338495489e-003
      1.0786112593368269e-003 -2.8019206731116921e-003
      -2.3640450307273724e-003 2.6301756514053591e-003
      -3.7223349398086470e-003 -2.1032321024913234e-004
      2.5588053504673751e-003 -3.2753831401402147e-003
      -4.4240174222727399e-003 -3.3473209221574488e-004
      -1.3899238095676771e-004 -6.1619802347339238e-004
      -4.2278231941955879e-003 -9.0295825450381097e-004
      4.8089652594817750e-004 1.8664975157177254e-003
      -4.1502334254598051e-003 -1.7577368866239030e-003
      1.5344180507460509e-003 7.4855675650853804e-004
      -3.0684840578158348e-003 4.9253025559326830e-003
      3.5713438097376097e-003 4.5473880233665859e-003
      3.7217682063956305e-003 -3.4278985812146749e-003
      -2.0760406347174565e-003 1.2455785907180801e-003
      -4.3285276459608876e-003 4.7324669415129833e-003
      3.3230104972150048e-003 -2.8213522613718509e-003
      -1.3274010863282854e-003 -2.8847170504403960e-003
      2.0196090268510881e-003 -2.3548048371413452e-003
      -3.0499132001309604e-003 -3.4226296353080291e-004
      3.9206668316373898e-003 3.9227627005271682e-003
      -4.4070745864588246e-003 -1.7269382830383184e-003
      -1.6430389378695696e-003 3.0915916013913407e-003
      -1.2948331088329266e-003 -1.3910142775834012e-003
      -1.0025340610577899e-003 -4.4160774584669927e-003
      -8.2783700962227595e-004 2.5756836217156269e-003
      -9.0916433784548515e-006 4.6692736270851146e-003
      -1.7557513247067565e-003 8.1572442145993887e-004
      -6.7718053846921355e-004 -3.2076201173423312e-003
      -1.5750331849956486e-003 -3.7097954574032864e-003
      3.6371947468125886e-003 2.1240459348663850e-003
      4.5771138454064400e-003 4.6512946804877393e-003
      -7.6552651139904593e-004 -4.4132979181611921e-003
      4.0995900545092445e-003 2.3403234978529733e-003
      -1.3745301017782994e-003 2.1645172021401119e-003
      -4.2769013328250770e-003 -4.4582697855003522e-003
      1.3992546603450813e-004 -6.0246953916726960e-005
      4.3838142883372289e-003 -2.2031123929905938e-003
      -2.3478297981410290e-003 1.3472225875310545e-003
      7.3494668397963594e-004 -3.6565043950433831e-003
      -3.6542312224672434e-003 3.5459343957911652e-003
      1.2769589795176646e-003 1.6813698596694056e-003
      5.7499471709463899e-004 1.6631260301051124e-003
      -3.1680769955756537e-003 -5.4999698516686895e-004
      -1.3213052931879531e-004 2.0096443335905051e-003
      3.7225986258980053e-005 -2.4432784346977597e-003
      -2.6120236501021867e-006 2.2680132849204437e-003
      -3.7189905765090394e-003 1.2490153679090596e-004
      3.8907705879788609e-003 4.5892937928784421e-003
      1.1153558925067579e-003 -3.5372005917979669e-003
      -1.3056118520453678e-003 2.7917719549241772e-003
      -4.8957903478149762e-003 -2.7266562030407813e-003
      1.5176714188057390e-003 -3.5086137322659916e-003
      1.8733651353236601e-003 4.9775590416218859e-003
      -2.7855156685532472e-003 3.4177600412352211e-003
      3.4289741499960872e-003 -4.4807223194995886e-003
      -3.1448554690451224e-003 -9.0313838201451231e-004
      4.2567933739408293e-004 4.3217719796049088e-003
      3.2686764120715001e-003 -1.0318933945912760e-003
      -4.8082751626960058e-003 2.8588103915278924e-003
      1.8754582236144718e-003 2.8819175121052821e-003
      2.8087390596225866e-003 3.7446296845933362e-003
      -3.2374424783051473e-003 -1.0092407298500055e-003
      -1.1594318304045861e-003 -3.7006792782393492e-003
      -4.8548869133926888e-003 -2.8638770576296302e-003
      1.5645507249782702e-003 3.5515686524584308e-003
      -1.7673190325954418e-003 -2.8754855272457125e-003
      -9.8206276017617387e-004 -3.2027357207178200e-003
      -2.0933723166414800e-003 3.6389906416246262e-003
      -1.7396568935210109e-003 -3.6687447401666023e-003
      3.6599821157312943e-003 -2.2825251733305340e-003
      -3.8950046222393894e-003 -4.2207101862792281e-003
      -1.1188263884665910e-003 1.8519480255265567e-003
      -1.6026181835985581e-003 -1.1923029500435494e-003
      -4.2266742018087439e-003 3.8375475964581309e-003
      -1.4542910807288532e-003 -1.8332755881539020e-003
      7.2978588911098432e-004 -1.2192299098968823e-003
      3.4457361031726575e-003 -2.4511778434498374e-003
      -4.2033808312813845e-003 -2.8202107756870091e-003
      3.8536978652563537e-003 -2.9610039521365053e-003
      1.9856267622819714e-003 -1.8777075003469030e-003
      4.2693661053350941e-003 3.2674934774664052e-003
      -1.5415989098477925e-003 1.1809385579844129e-003
      -1.8404073211460603e-004 -2.1183465252304565e-003
      1.7957709994791612e-003 -3.6447023072264948e-003
      3.8583195801601524e-003 -2.6197182628301262e-003
      -2.9352922929167468e-003 -7.7514968181387884e-004
      2.7022258620527872e-003 4.3978375064463527e-003
      1.9508226898159147e-003 -7.4169705178093906e-004
      3.6663337924105474e-004 3.2264323797381498e-003
      -2.0995514136097231e-003 -3.4923107949076827e-004
      -3.0389138825220523e-003 2.1243896285543535e-003
      2.3539918154033470e-003 4.8721425693837523e-003
      -1.5839862334468130e-003 -1.4177830106338698e-003
      3.1617381344998040e-003 -6.6232284846096448e-004
      -2.7307556368608293e-003 2.1705630662639231e-003
      1.4712663621642599e-003 1.0418898964502554e-003
      4.2637884764122379e-003 3.7579938271329455e-004
      -2.7268634664340168e-003 3.7670530067799046e-003
      4.9331330995699670e-003 2.2055657533985820e-004
      -1.2153775079367718e-003 4.8641320801089171e-003
      4.0690363215115447e-003 4.5652385490528612e-004
      2.9819231910571111e-003 -4.0664033087593398e-003
      4.2141917929488307e-003 4.3631403397140648e-003
      -4.0046069567249042e-004 -3.2311171202963384e-003
      -9.6659743050111319e-004 -1.0930811726143465e-003
      1.5341141373694249e-003 -1.3721731605861797e-003
      3.7396853008890914e-003 3.8723999062832211e-003
      3.7732197366287701e-003 4.5926277210098544e-003
      5.0521872157478246e-003 -4.0319046591121392e-003
      8.7375048013894451e-004 -7.0862125567542494e-004
      4.2385029433402088e-003 -3.5665585461373841e-003
      -6.9755546779678469e-004 -4.3386741899087301e-003
      2.3165813974989316e-003 3.1011833097876907e-003
      -2.6964629541900331e-003 2.9380234113818085e-003
      6.9747925014212336e-004 -1.3120572371039952e-003
      8.9735803451946965e-004 1.6813083580076104e-003
      -5.0491842759991005e-004 2.8056836894258651e-003
      -4.7575342966837497e-004 -3.0167989610360695e-003
      8.8084549550459710e-004 -3.9036480193153961e-003
      -3.3609778890720809e-003 4.7143988456940537e-003
      -4.5657699690021527e-003 -4.4500675917273722e-003
      1.2515716598975493e-003 2.9252664542367360e-003
      -3.4807923204515983e-003 -1.9814290017686450e-003
      6.0280668802095434e-004 -3.7603733048137303e-003
      5.8713630881621157e-004 8.7296144637413449e-004
      3.3138580530580222e-003 3.6264556259210123e-003
      -3.3404557103009968e-003 -2.1137735193197263e-003
      4.1834185777548686e-003 -4.2061124928995455e-003
      -8.9261540750573546e-004 -3.0187083524271276e-003
      -1.5141699540767691e-003 -3.0424331570659377e-003
      4.5586327237650938e-003 -2.1977635159672331e-003
      2.0064155004187456e-003 -4.8062167688743881e-003
      4.8417855726310939e-003 4.3948817091649675e-004
      -3.3789263406996039e-004 -1.6158935978322030e-003
      -4.8026048631158768e-003 3.4544099285683102e-003
      -5.1615784533290548e-003 4.2282209138255677e-003
      -4.4920314474323660e-003 1.3989283398626753e-003
      -1.0133057403962956e-003 -1.0553091167282952e-003
      8.6816838000349894e-004 3.3737332000804078e-003
      -4.7754562599558008e-003 2.7848699596124595e-003
      -2.0604497661390335e-003 -2.3057402987873956e-003
      -4.1812312259641403e-003 -2.3649581191526447e-003
      -3.3612790216893877e-003 3.7243447820258061e-004
      -3.7816253728278214e-003 3.2459545486010323e-003
      2.2386265882187082e-003 1.4131180070820896e-003
      4.0507558257736999e-003 9.2083796449038326e-004
      2.3933020876577235e-003 3.4166590399760674e-003
      2.4620480901285493e-003 2.1347394471491025e-003
      3.6886520299003857e-003 2.2760655867603468e-003
      -1.4707520082898580e-003 -4.1410981007418048e-003
      -3.2493607705877093e-003 -4.5684058959213321e-003
      3.5336001590784878e-003 -1.1726017602793084e-003
      -4.1701816934648977e-003 2.9851406422346997e-003
      -3.6592867754609536e-003 -2.4334430697872432e-003
      4.2784461029351404e-003 1.6092174813016843e-003
      2.2010747341775303e-003 -9.3657987029859588e-004
      8.8134531591816680e-004 2.4621950258795081e-003
      -1.2500062815278782e-003 -1.5576501765648693e-003
      -1.9013897555650461e-003 -3.6210768975372034e-003
      -6.1602581821065252e-004 8.1582161070377129e-004
      1.8143069755548588e-003 2.1485011162903521e-003
      1.2422201942492177e-003 2.6048830683187574e-003
      4.1971782999374423e-003 3.2479562444015873e-003
      -1.7701958334028973e-003 8.5679016893902766e-004
      -1.6954380761264928e-003 4.2114428017525837e-003
      -3.7810548118201214e-003 -3.8776105011889567e-003
      -1.5539291110835602e-003 -2.2949837096613184e-003
      -3.5856382456260117e-003 -3.1024705378622122e-003
      2.6222259670192244e-003 1.6069511524299974e-003
      1.7718380107540949e-003 -2.1873132756900287e-003
      1.2560315937435841e-003 -2.2190361440390174e-003
      -3.3835101626067910e-003 -1.9120094586419999e-004
      -2.8781202121626820e-003 2.0096406748251710e-003
      -2.1334061091600365e-003 -3.2653435895553759e-003
      -3.5060355132724911e-003 -1.7562727287359479e-004
      -3.4206917521062440e-003 1.8274113637523669e-003
      -1.1833191568893966e-004 1.6720961224374086e-003
      -2.0272018234758480e-003 1.0744912237818953e-003
      -1.5469307720483317e-003 3.5546425884917239e-003
      4.4329764802183303e-003 1.1195550531286479e-003
      -4.5919320368559401e-003 2.4670971812480644e-003
      7.7680048147292708e-004 3.9394027968645299e-003
      -4.4313615062590989e-003 -3.7044119198431568e-003
      -2.6404599228509865e-003 -2.5419352980309597e-003
      -3.9090120899019356e-003 5.1934564902344027e-005
      2.5783814865067930e-003 1.4935054853532176e-004
      2.3010730207590289e-003 2.5597252656305099e-003
      4.2200501508713592e-003 2.0143535488851014e-003
      1.1741156000303859e-003 2.1664615364160302e-004
      -5.0095233970643919e-003 1.0655550847853822e-003
      -1.9749650133699562e-003 -5.3608348231197196e-004
      -2.7497579909082858e-003 -5.2909409513776824e-004
      9.3990720080492762e-004 7.2633003624016491e-004
      -1.8088785890844846e-003 4.5594562554564805e-003
      -4.6578290267129078e-004 -3.4250145568218513e-003
      3.2168918263403325e-003 3.0402798916037729e-003
      -5.0451672572618452e-003 -2.8568682370131212e-003
      -3.1503695216996532e-003 3.5552598152417164e-003
      -2.6001430514731002e-003 -7.4868205857372736e-005
      -3.5041813263178771e-003 4.5264328426026781e-003
      9.7420094368280751e-004 3.0924757719915205e-003
      3.7931531252583797e-003 -6.5282265249348508e-004
      5.5224079416243185e-004 -3.5424317066425682e-003
      -1.1804801188050218e-003 1.3635383368507214e-003
      8.4010101950098514e-004 -4.7780122471998750e-003
      -1.5071276486873853e-004 3.2677144880491047e-003
      -2.9568243568345817e-003 -3.4956297337144491e-003
      -2.2884557403602978e-003 -4.7003177324228106e-003
      2.4442410727658443e-003 -1.3813087408187151e-003
      -4.9674765799387829e-003 -4.4369818425278318e-003
      -4.7546844783551440e-003 2.2700320988212415e-003
      3.3852415480821094e-003 -4.0126133612524021e-003
      -1.2490345998560895e-003 1.4936887896371328e-003
      -3.2740623538912534e-003 1.1279320621331347e-003
      -3.0907881965551928e-003 3.9462739925354472e-003
      3.8635781833451449e-003 -3.8739622724918423e-003
      8.2564877909904592e-004 -4.2216457465507808e-003
      -2.1941514993576165e-003 3.0163561240619538e-003
      -2.7267123623664919e-003 3.5782258104779213e-003
      -1.9219650359011666e-004 1.4583101155037548e-003
      -3.9946626236848776e-003 4.0011455214759221e-004
      2.2408308812427793e-003 -4.1783951030285238e-003
      4.5756095854565569e-003 4.7465086417493984e-003
      -2.0760488933930670e-003 2.3277778307272757e-003
      -3.1226393147649992e-003 4.0137629712296416e-003
      -4.8870210280194757e-003 1.1854613350503972e-003
      4.5892478164097326e-003 -1.8675520994880157e-003
      -4.8516916228133304e-003 3.8456689399414670e-004
      -3.7839748540587585e-003 3.7572726592869387e-003
      -2.7707961119524311e-003 -2.4649900780121950e-003
      3.3445973310662912e-004 -4.4764712875324450e-003
      2.0649106628964849e-004 4.7901780545260382e-003
      1.0675833001688733e-003 -3.6230892762888559e-003
      3.5402342709769238e-003 2.2069679542109540e-003
      3.0318175511530776e-003 3.4355413588313842e-003
      -6.6664299167475236e-004 4.5416816739315882e-003
      4.9196513347845305e-003 -1.9784572403296441e-003
      -1.2768254223518526e-003 1.8938228976321983e-003
      -3.1123444512596741e-003 8.5820376791858493e-004
      -5.9213131351599862e-004 4.7937878230331831e-003
      3.3231571395259232e-004 -3.4073961120802310e-003
      -7.4444217197775246e-004 3.8449658779335931e-003
      4.2362495124178357e-003 4.0052983539618477e-003
      -2.8823336356550160e-003 4.7972645791594520e-003
      -6.9708740887207724e-004 -2.9793995300497261e-003
      1.9934082162082400e-003 -1.9689816315658117e-003
      -2.4899341199124494e-003 -3.7885785012550465e-003
      -1.6006753237588903e-003 4.2173044689356627e-003
      -1.9071000352112722e-003 1.3687587961310917e-003
      -3.2259874851955938e-003 5.1364037392746132e-003
      -3.5107476132609085e-003 1.9444409347205106e-003
      -4.6307282883067671e-003 4.7594610986902682e-003
      -1.7801716693787342e-003 -5.0887293660090305e-003
      3.3850219679941564e-003 2.4132990212967949e-003
      -4.6563384817370360e-003 4.1398818259079564e-003
      -6.5009141226595325e-004 3.0601286833964883e-003
      -4.0674403850611664e-003 -3.5857650173955575e-003
      -4.3692843689782952e-003 8.6368634889721853e-004
      -2.1496474009054206e-003 1.0263399304293184e-004
      9.2948939446187465e-004 1.0237688039163089e-003
      -2.0265680246258659e-003 9.8045803066563867e-004
      -2.5236784904259641e-004 1.5727924967585093e-003
      -2.9737845426430717e-003 3.2459790776502014e-004
      1.5947003406249819e-003 3.1513907970896482e-003
      3.0038071613091803e-003 -3.6900325129719082e-003
      -7.2227873405410648e-004 -2.5631176026530656e-003
      -4.6680787670235523e-003 4.1578842253704772e-003
      3.6033495123886593e-003 2.1500293050439072e-003
      -2.6400245588015596e-003 3.8919443658380587e-003
      2.9069310568211487e-003 2.0724689206177510e-004
      1.9625163667489009e-003 1.1374292347504822e-003
      2.8533835833288285e-003 1.5595629791258360e-003
      3.1445780081430078e-003 -2.8032446784076090e-003
      -2.2168195920559820e-003 1.2862562500914755e-003
      -1.9439954429767549e-003 -2.7475814767080543e-003
      -1.9346443525880281e-003 1.0190554329080664e-003
      8.1448245794013140e-004 4.0755615785399999e-003
      2.9246044162376831e-003 8.7489632790645970e-004
      -4.4350263540091073e-004 -1.1414206736045744e-003
      3.1945453262938435e-003 9.3992453096310689e-004
      6.9491102831352838e-004 -2.7283564804901871e-003
      -3.6148059776564706e-004 -1.9454335087318419e-003
      -4.6183170041372750e-003 -4.6728032203652630e-003
      2.7322191013090021e-003 -3.3684376528685493e-003
      4.5941469641824285e-004 -2.4493912251429407e-003
      1.1863648874191478e-003 -1.8831772136510513e-003
      -3.3272544655017569e-003 1.3725106978263132e-003
      -3.0926782563436323e-003 4.1708985355932396e-004
      3.2208958009871933e-003 1.4372354868932337e-003
      4.4980797543295488e-003 -4.5345717326389905e-003
      -4.8509184354043437e-003 3.5560710521530302e-003
      -2.4381412857450106e-003 -4.6789493697921621e-003
      -4.4294990888884824e-003 2.7137525926839360e-003
      -7.8663643944641373e-005 -4.6836504848198068e-003
      -3.4498204770849906e-003 1.2180863294188823e-003
      -4.2906359919444295e-003 -1.9449909752313917e-003
      2.9909704882622547e-004 1.7768484712696012e-003
      3.9951902542655028e-003 1.1874384443957414e-003
      3.3425340597871046e-004 3.0630592397158430e-003
      1.1239385831826195e-003 -2.9405788540911868e-003
      -3.2177526068619768e-003 3.7767380277239546e-003
      -3.4675452741078131e-003 -8.9219784239875455e-004
      -5.7023583401520390e-004 -2.3245408346488127e-003
      7.8861987990807984e-004 -2.6117477508819918e-003
      4.4356991975370123e-003 -3.5855366667424528e-003
      2.4216811053808522e-003 2.4287684686802964e-003
      2.7077570236381881e-003 4.8927980192230418e-003
      -5.0627460253129214e-004 -8.2243414458874661e-004
      2.5728529540919236e-003 1.8187054090596007e-003
      2.3956193096730220e-004 -3.8636385632149460e-003
      -4.8682135780117337e-003 -4.1984235093635398e-003
      -1.6803219807217668e-003 -3.4061417460952799e-003
      4.9303575057924555e-003 1.0322625298978313e-004
      2.2275771015580078e-003 -2.5292348987189981e-003
      2.4335818592757185e-003 -4.8476726635895678e-003
      -1.4213231652305465e-004 -1.6844398816169908e-003
      -4.0788173174394958e-004 8.0061329825606268e-004
      4.2907483303621201e-003 -3.8245926103690848e-004
      -2.9161431362819887e-003 1.7391460107321741e-003
      -1.4994083285473103e-004 2.5491722647163068e-003
      -3.3439278421429734e-003 -1.5079500660636924e-003
      2.4652123616214494e-004 -3.3589499216226193e-003
      4.1785198447804881e-003 2.3784550632362369e-004
      -3.3128719365588854e-003 4.1467892886423519e-003
      4.0542044688994441e-003 -2.2050087471490033e-003
      -3.8082310452576267e-003 -1.3242387019078762e-003
      -8.5703240788172620e-005 4.1790232745207305e-004
      -4.3859117789445184e-003 -9.7886432217794654e-005
      3.8096315466101534e-003 1.3166832152260739e-003
      3.9001798040830911e-003 -8.7691322855022106e-004
      -2.2334106748155705e-003 2.1387270353332272e-003
      9.4741477303509898e-004 3.2776809843691524e-003
      2.5597349874420259e-003 4.7629358835966406e-003
      4.6522053134242366e-003 2.1436730477212740e-003
      1.3837672011595039e-003 3.9629123883329681e-003
      -3.4570566913050115e-003 -7.3036556521611780e-004
      1.8337400409721544e-003 3.0219425674972073e-003
      -1.5074255485661866e-003 1.7534316582259201e-003
      3.9830719100564715e-003 -4.5698646951901822e-003
      -6.9498440742623939e-004 9.0902932686618668e-004
      -2.9508905783461525e-003 9.8938735833807253e-004
      2.5705384226829189e-003 -1.8384329511515489e-003
      2.8037539685193034e-003 -2.3221290729142862e-003
      3.6590683656271641e-003 4.4210986381445945e-003
      -1.9563056610467072e-003 -8.4975820291929469e-004
      -2.1582372773941076e-003 1.6586959104027824e-003
      -2.9541098831063002e-003 3.1393123480079883e-003
      -1.4527274982215194e-003 4.2888376479896214e-003
      9.1682784693748233e-004 4.1888922583394831e-003
      1.1607947752610202e-003 3.6248578324600653e-003
      1.6688871508270067e-003 -1.1319837821455296e-003
      1.4170945042756451e-003 3.7609660191393344e-003
      -2.2091600413880314e-003 3.5484135709873761e-003
      -3.1486441220529905e-003 -2.4051165621599921e-004
      4.2556117191602134e-003 -4.5844282996170055e-003
      -3.5405616062984678e-003 -4.3628375376788212e-003
      1.7787263956908312e-003 -8.0738470723976941e-001
      -1.0050798875497791e+000 1.1430848117570873e+000
      4.5814464523747374e+000 -1.5330101391275305e+001
      1.1883795220351909e+000 -1.3315030131888517e-001
      4.1537504129788871e+001 -3.2568453377749762e-001
      -7.9888609196654423e+000 5.9042021864547580e+000
      -1.0589478448126179e+000 7.8888248611066480e-001
      -8.0768234202091582e-001 -1.5362907045103839e+001
      -3.0713629515122594e+000 -4.3115615911167053e-003
      -5.2766777849273705e-001 -8.6603324570265761e-001
      1.8714981105060347e-001 1.4349518661448211e+000
      -1.4606439019987903e-002 6.8891897584278916e-001
      8.5684505313274286e+000 -7.6963003534395391e-001
      -1.3110478282094284e+000 -9.5290843749746461e+000
      -5.7499616253755703e-001 -1.0384865454570198e+000
      -7.0768398296629613e-003 5.2789635542864055e-001
      6.0724586162620042e-001 2.7961362602844280e+000
      1.6748074897625724e+001 -2.7482751424213525e+001
      -9.5840673490855070e-003 1.2339818090066772e+000
      1.9026804181219161e+000 1.3128636069040838e+000
      -1.5791632991690534e+000 -5.3980648802375359e+000
      -5.3541791590173720e+000 2.3379170386869100e-002
      -2.3704019938033255e+001 -7.8336840403004526e-001
      -4.5581865133671912e-001 1.0808209383782439e+000
      7.8174919656988850e-001 -9.0262374559265601e-001
      4.6789629926790532e-001 -1.3070772145343329e-001
      -2.6634967229725931e-001 -2.2400652036356850e-001
      2.1717839158917698e+001 -2.9730109963401746e-001
      -1.2995122673675634e+000 7.0246666881025654e-001
      -6.4967967908526403e-001 5.5086533850805719e-001
      -1.0800628001009500e+000 1.4809998752011491e+000
      7.2848520501995875e+000 -1.3379090410175359e-001
      -1.3185059115056783e+000 -5.1508564738423868e-001
      -8.0233661073572149e-001 -1.0064946383339812e+000
      1.1435728107896432e+000 4.5740804822775560e+000
      -1.5335422720509571e+001 1.1862120113121015e+000
      -1.2847868546314295e-001 4.1538502346314438e+001
      -3.2614805225838889e-001 -7.9867400959137713e+000
      5.9067127907376751e+000 -1.0590573606440756e+000
      7.8890978173909088e-001 -8.0728657721736852e-001
      -1.5366011817921647e+001 -3.0766607300345643e+000
      -4.2800229114896863e-003 -5.2278847706694809e-001
      -8.7178456425399542e-001 1.9211651719078532e-001
      1.4317053152242192e+000 -9.2081986778050177e-003
      6.8583246898993444e-001 8.5710756399290524e+000
      -7.6450253376594068e-001 -1.3167154937530903e+000
      -9.5274317752885693e+000 -5.7938941412453826e-001
      -1.0348013733991652e+000 -1.1862178999940366e-002
      5.3222108066970664e-001 6.0715954344741663e-001
      2.7988143377449926e+000 1.6749637480272892e+001
      -2.7481504673760586e+001 -8.1484625625505396e-003
      1.2387040454031919e+000 1.9018386076415583e+000
      1.3179025031538016e+000 -1.5770242798444292e+000
      -5.3948480828862015e+000 -5.3547238958988519e+000
      2.2911246214067926e-002 -2.3708367410121991e+001
      -7.8611147171865348e-001 -4.5163980572934387e-001
      1.0808539904625871e+000 7.7429329006317904e-001
      -9.0655171996040917e-001 4.6657943789702905e-001
      -1.2736856033670974e-001 -2.6034528924859429e-001
      -2.3208232829347958e-001 2.1724457016142082e+001
      -2.9344700226342774e-001 -1.3002966583888609e+000
      7.0157576404851152e-001 -6.5215985891971595e-001
      5.4870533840083635e-001 -1.0764788048689680e+000
      1.4793729774867983e+000 7.2915075125571462e+000
      -1.3257677239541171e-001 -1.3274580818433914e+000
      -5.0978018950652937e-001 -8.0408418634673817e-001
      -1.0103334145356175e+000 1.1507686540481430e+000
      4.5837727667435582e+000 -1.5329854693768516e+001
      8.5226772741368240e-001 7.6050003087749188e-002
      4.1545113334268912e+001 -8.7765044243473767e-001
      -7.9888092994772348e+000 5.9008011603396886e+000
      -6.0498053013266329e-001 7.8606160174530748e-001
      -2.5148811459479198e-001 -5.2541820396290735e+000
      -3.0753629396589170e+000 -1.5371869052765233e-001
      -4.2422358275740146e-001 -8.6281128804612250e-001
      1.0318182757743095e+000 5.3520591685092855e-001
      -2.4319131778822659e-001 2.9539571418189281e-001
      7.6757309684411377e+000 -1.4580200156977265e+000
      1.3896372945682073e-001 -8.4036445438427556e+000
      -5.3631294796116467e-002 -1.0345076571706497e+000
      -1.8797607222596716e-001 5.3120174200999482e-001
      6.1142633398284851e-001 2.8010086171305502e+000
      1.6751990958357371e+001 -2.8997263265379065e+001
      4.2336500172186731e-001 6.4065644298429522e-002
      1.0551832798875356e+000 1.3197430085888426e+000
      -4.7597702626527172e-001 -4.9562111333428360e+000
      -5.3531819071447959e+000 7.7735731692333804e-002
      -2.3704825959225040e+001 -7.9253243093653514e-001
      -1.3265518825897451e+000 1.0885542430416941e+000
      7.7300958597336222e-001 -8.9867897994721813e-001
      7.5443566913389237e-001 -1.4418581241260556e-001
      -5.2456189216933891e-001 -3.4516865605944058e-001
      2.1718451787101909e+001 1.2569783429938419e-001
      -1.2950116777025353e+000 5.5896045314194243e-001
      -9.1243569393517088e-001 5.5223382195785586e-001
      -4.0722498224456483e-001 1.4815397357799385e+000
      7.2853688304010573e+000 2.6328500469924399e-001
      -1.3206361267044529e+000 -5.1097897056163033e-001
      -8.0239555592117373e-001 -1.0043247712219170e+000
      1.1501012175431633e+000 3.9858896751672401e+000
      -1.5335254954709638e+001 1.1060997063776750e+000
      1.4968647812252664e-001 4.1543904400676510e+001
      -8.7812375747913929e-001 -8.7485912278213274e+000
      5.9069181483714601e+000 -3.5328218992301580e-001
      7.8907542201625891e-001 -2.2299256731107148e-001
      -1.7373338226276394e+000 -3.0769633001361663e+000
      -1.2878936531815605e-001 -4.2258070695013422e-001
      -8.6385391561601799e-001 1.0244027143470285e+000
      5.3703415364498763e-001 -6.6096523999694590e-001
      2.9824599550516767e-001 7.6754703951314935e+000
      -4.1552577631009591e+000 1.3675075898955147e-001
      -8.4010028441292803e+000 -5.7344779792646315e-002
      -1.0336714284587956e+000 -5.5808529195415846e-001
      5.3080562000281784e-001 6.1231194979984105e-001
      2.7957546868174474e+000 1.6118595020432096e+001
      -2.9000181467987527e+001 4.2402396145576238e-001
      1.1203181105645740e-001 1.0485392260578099e+000
      1.3156866343352593e+000 -4.8283152187358069e-001
      -4.9596172794546911e+000 -5.3577271515621980e+000
      8.8202336310945006e-001 -8.1086709443531468e+000
      -7.9237448858610704e-001 -1.3201479413233566e+000
      1.0835584932768407e+000 7.7764042874985473e-001
      -9.0706678700971133e-001 7.5347451104191276e-001
      -2.0301552088910779e-001 -1.0293592973376573e+000
      -3.5349495482514509e-001 2.1720417633293778e+001
      -8.5227662206358623e+000 -1.2936759892332701e+000
      4.0764915827828063e-001 -1.4590885327908667e+000
      5.4705338534942716e-001 -4.1301942507208478e-001
      6.1429846450597081e-001 6.5459549312820862e+000
      -5.4611784273119257e-001 -1.3269946697964372e+000
      -5.1667230191918589e-001 -8.0527374702047816e-001
      -1.0034091879025107e+000 1.1479588860359544e+000
      3.9873867775385405e+000 -1.5333388311891278e+001
      1.7888803912609001e+000 5.3876556649320527e-002
      4.1537375470246680e+001 -8.7648049448172916e-001
      -7.9929690635914499e+000 5.9011455269536395e+000
      -3.4850364227512665e-001 7.9129634314968722e-001
      3.3575048624975949e-002 -1.7402594841737160e-001
      -3.0695177505752702e+000 -1.4575379140234862e-001
      -7.9591818222060151e-001 -8.6403320102109193e-001
      1.0232855050307723e+000 5.3784297374683143e-001
      -6.0587597929126391e-001 5.1561093699134364e-001
      8.5722377138466239e+000 -9.3066720813594683e-001
      1.4526343951919829e-001 -8.3959946465034250e+000
      -5.7450547815455077e-001 -1.0386028333002357e+000
      -2.9277683575178248e-001 5.2993554269496224e-001
      6.0729440307933702e-001 2.8004801130350612e+000
      1.6750464087147257e+001 -2.8992979880077311e+001
      4.2201552920988455e-001 1.3064636575927221e-001
      1.0508114097057732e+000 1.3188431571803725e+000
      -4.8114846689706658e-001 -4.9586790064681283e+000
      -5.3512261104060599e+000 1.0551642741725925e-001
      -8.1062603266551410e+000 -7.8546281903870829e-001
      -1.3253516623934138e+000 1.0811437336173517e+000
      7.8158423723479908e-001 -9.0561763526916850e-001
      4.5644911941389305e-001 -3.1837136889439721e-001
      -1.0364803978368915e+000 -3.5107774101170613e-001
      2.1463276930297788e+001 7.6185397887471487e-002
      -1.2986860875973079e+000 7.3690972818595279e-001
      -1.4595439701557578e+000 5.4924624525324683e-001
      -4.1136606304096002e-001 6.1123811721475296e-001
      7.2906316092517693e+000 2.3301281038863350e-001
      -1.3224808864076263e+000 -5.1470136817533962e-001
      -8.0265578174279018e-001 -1.0090120434861329e+000
      2.8148807385184388e-001 3.9824425873114069e+000
      -1.5337016498560759e+001 1.0814707711557496e+000
      1.3638954296999259e-001 4.1543914224896810e+001
      -8.7520495925841935e-001 -7.9926076877577836e+000
      5.9093395829831463e+000 -3.1471744082971376e-001
      7.8923275881345456e-001 2.1039524890392991e-001
      -1.7207217939770716e-001 -3.0709978799876754e+000
      -1.3857030002256474e-001 -1.7307201676499040e+000
      -8.6758920305568321e-001 1.0272166513094827e+000
      5.3595018247336002e-001 -6.0291859482003929e-001
      5.1573816222100854e-001 8.5712178862336597e+000
      -9.3056234079176592e-001 1.4566604487514490e-001
      -8.3969570784595629e+000 -5.7150994404051625e-001
      -1.0362830131346510e+000 -1.7079247210020684e-001
      5.2965996536630078e-001 6.1347563357421919e-001
      2.7946466569109751e+000 1.6745895264563735e+001
      -2.9001515286521904e+001 4.1742951440680784e-002
      -1.2892763071106567e-001 1.0512130895811318e+000
      1.3192421817820135e+000 -4.8234434752365474e-001
      -4.9581917509685489e+000 -5.3568006377613120e+000
      -8.9691609058271463e-002 -8.1030005047289286e+000
      -7.9063499584569685e-001 -1.3186775451582884e+000
      1.0815656496466293e+000 7.7607727850200015e-001
      -9.0236099843484685e-001 5.0213124870833847e-001
      2.1102725610948742e-001 -1.0316505186577898e+000
      -4.9528442632723957e-001 2.1455734465195661e+001
      -2.1253420589788752e-001 -1.2979788868490680e+000
      7.4001877161252871e-001 -1.4589380828181546e+000
      5.4481500304693731e-001 -4.0864834452109078e-001
      6.1973307739899919e-001 7.2881197830712550e+000
      -3.2980617276879891e-002 -1.3244566365799531e+000
      -5.1088528760315255e-001 -8.0340294043977911e-001
      -1.0034366113383875e+000 2.7977897551819086e-001
      3.9874959780439281e+000 -1.5327804563681644e+001
      1.0482250649236651e+000 -6.5077685139929148e-002
      4.1537635034154121e+001 -8.7957494156584237e-001
      -7.9927856225459815e+000 5.9053102370410429e+000
      -1.0560229979046578e+000 7.9317349575277518e-001
      2.2590238507454244e-001 -1.9681735565951078e-001
      -3.0763485652700111e+000 -1.3124267320076352e-001
      -1.7323655207451210e+000 -8.6501092157550097e-001
      1.0236427863663295e+000 5.3449421412283693e-001
      -6.0355228185241871e-001 4.3507989181019951e-001
      8.5689390028218568e+000 -9.3159810516152031e-001
      1.3701320204212192e-001 -8.4028848559183196e+000
      -5.7968181216358072e-001 -1.0320060223469290e+000
      -8.8047045825036890e-002 5.3347495781242626e-001
      6.1267713564631887e-001 2.8010542254379653e+000
      1.6749399360542935e+001 -2.8994267167241222e+001
      -3.6695081583659522e-001 1.0377027048022677e-001
      1.9054572042000910e+000 1.3201311334021220e+000
      -4.8302615218994860e-001 -5.3926327178922708e+000
      -5.3554725549748490e+000 -8.3412019726692207e-003
      -8.1075423827673223e+000 -7.9191053435974434e-001
      -4.5014316786400949e-001 1.0856330442885154e+000
      7.7312397738677940e-001 -9.0702218283129699e-001
      4.9962382702122182e-001 2.0377313671834690e-001
      -1.0341333535135770e+000 -6.0999624843352218e-001
      2.1456312966365211e+001 -6.8075780944155995e-001
      -1.2951388624133517e+000 7.4354947572366703e-001
      -1.4577726240886741e+000 5.5013918101550907e-001
      -1.0795089813987817e+000 6.2006135438544097e-001
      7.2835985995579273e+000 2.1722186907180877e-001
      -4.2231844728374757e-001 -5.1554177848496219e-001
      -8.0410815214804521e-001 -1.0038382678173945e+000
      2.8330485197204786e-001 3.9838507878569422e+000
      -1.5337060725725634e+001 1.0467548140703493e+000
      6.1201135395222428e-002 4.1542061129492076e+001
      -8.7767729237034675e-001 -7.9907634215652612e+000
      5.9005930806502525e+000 -1.0536675167968610e+000
      7.9305852695370838e-001 -4.0457316357490225e-002
      -4.2200174541634705e-001 -3.0698564248469098e+000
      6.2637708251811405e-002 -1.7362289015922778e+000
      -8.6956994828554512e-001 1.0283453337321573e+000
      5.4232769198003528e-001 -6.1148702440858071e-001
      2.2116308168577292e-001 8.5694816547132717e+000
      -1.7144532268000725e+000 1.3649622806803635e-001
      -8.3958057493496092e+000 -5.7913194088698250e-001
      -1.0336247779118342e+000 -3.1574870907765465e-002
      5.3637242668830398e-001 6.1298348341571129e-001
      2.7950030181767560e+000 1.6752987539332459e+001
      -2.8994613488037306e+001 4.2736768458397301e-002
      1.1575969692241068e-001 1.9041184652887211e+000
      2.1544547801972977e+000 -4.8355751095505217e-001
      -5.3929344388248612e+000 -5.3513099125170438e+000
      4.4581023272041809e-001 -8.1049690878900318e+000
      -7.8873502006593510e-001 -4.4847289163005372e-001
      1.0823164963364234e+000 7.8000424055384621e-001
      -9.0326316515209837e-001 4.9507599713463085e-001
      3.2203106503373885e-001 -1.0347513959588233e+000
      -8.3923319508048577e-001 2.1460372790757958e+001
      -1.6217486853882839e+000 -1.2957135256093524e+000
      7.3657816974370016e-001 -1.4583189094355193e+000
      5.5243454251218094e-001 -1.0789527126902587e+000
      6.1830745260410269e-001 7.2908244891783518e+000
      2.4974832439219918e-001 -4.2589829391572465e-001
      -5.1273077710216630e-001 -8.0255440795905519e-001
      -1.0085710110365935e+000 2.8190926151432050e-001
      4.5782180378013075e+000 -1.5336071249104011e+001
      1.0442356604997787e+000 1.1587095372307711e-001
      4.1542697810064659e+001 -8.7990945452667357e-001
      -7.9886917186676198e+000 5.9031260948414506e+000
      -1.0604635040464998e+000 7.9271047263780259e-001
      -2.8450454408622247e-002 -4.2083225004029273e-001
      -3.0713933790814818e+000 -4.0637909694278334e-003
      -1.7350074320379303e+000 -8.6769304120062407e-001
      1.0254736892567848e+000 5.3272963694113729e-001
      -6.1168893574285776e-001 1.8312102939774780e-001
      8.5724168585813754e+000 -1.7189339688719811e+000
      -1.3156263462838802e+000 -8.3984222583208474e+000
      -5.7255417799493757e-001 -1.0387246040351144e+000
      1.9910105959390473e-001 5.3030064567184443e-001
      6.1560569718718239e-001 2.7991453251286305e+000
      1.6751629728928862e+001 -2.8998074179074461e+001
      3.3638120367637185e-002 -6.8548494641943902e-002
      1.9016547934628074e+000 2.1541135739698380e+000
      -4.7933458943930929e-001 -5.3901686791171377e+000
      -5.3573391011149543e+000 4.6232599560101695e-001
      -8.1025996266191118e+000 -7.9131319949154189e-001
      -4.4841277890380410e-001 1.0896009603774650e+000
      7.7664873461859474e-001 -8.9793950943135248e-001
      4.9618496494042380e-001 3.4248536201474916e-001
      -1.0285958251552780e+000 -5.6391428875879501e-001
      2.1459347283300094e+001 -1.6294093008608259e+000
      -3.5065789916890511e-001 7.4312003979734853e-001
      -1.4582090615001404e+000 5.5358824326203859e-001
      -1.0764573800598713e+000 6.1439645610875582e-001
      7.2835943766520774e+000 -1.3774994605773849e-001
      -4.2809907340683040e-001 -5.1714218980153348e-001
      -8.0385197721960433e-001 -1.0015347918319160e+000
      2.8015105102262833e-001 4.5765406888443358e+000
      -1.5329455377422244e+001 1.0426624443927757e+000
      1.0728292323344174e-001 4.1536379007822084e+001
      -8.7304708296017075e-001 -7.9857498978613579e+000
      5.9017722956318277e+000 -1.0559465076438674e+000
      7.8749280157891766e-001 -1.3859657010631613e-002
      -5.4576717935258257e-001 -3.0738195254690610e+000
      -9.7871303469165574e-002 -1.7344034398249524e+000
      -8.7034070402506036e-001 1.0323952920544996e+000
      5.4132137201117558e-001 -6.0632461019780237e-001
      5.9258324772370596e-001 8.5760408839766811e+000
      -1.7145477023089266e+000 -1.3173717134499503e+000
      -8.3971588117731404e+000 -5.7238650333364660e-001
      -1.0334838019617878e+000 1.5855152435065406e-001
      5.3004993868263595e-001 6.0805093343316097e-001
      2.7983319468146868e+000 1.6753401099916964e+001
      -2.9001080592476971e+001 1.5819803726608076e-002
      -7.0262446002691242e-002 1.9021529766600611e+000
      2.1586212577394841e+000 -4.7699192053169681e-001
      -5.3930831282952774e+000 -2.0127133186850323e+000
      8.4132708270353906e-002 -2.3707549764726910e+001
      -7.8588610828020311e-001 -4.5727852576963507e-001
      1.0835682338174770e+000 7.7560106971396359e-001
      -9.0403801942089879e-001 1.5424042456739451e+000
      3.3802026850506822e-001 -1.0327097280514168e+000
      -4.3033920415696176e+000 2.1456735075340706e+001
      -4.1922721019255942e+000 -3.5303061255662571e-001
      7.3622370726295949e-001 -1.4571570015362425e+000
      5.5132927865726666e-001 -1.0783480307444848e+000
      6.1058687560645464e-001 7.2905635967686440e+000
      2.1077935916870655e-001 -4.2801001169527064e-001
      -5.0933805049667824e-001 -8.1042539893942556e-001
      -1.0013751489041036e+000 2.7942751062882898e-001
      4.5783717231007639e+000 -1.5330409643889725e+001
      1.8267296999633256e+000 3.6328525936705616e-002
      4.1542509231449635e+001 -8.7712510799179089e-001
      -7.9869175009233517e+000 5.9009891692623242e+000
      -2.7837096970749284e+000 7.9006703631729980e-001
      3.1002116801504116e-002 -5.4548477255135897e-001
      -3.0725637449758891e+000 -7.4565210878362084e-002
      -1.7375468656199060e+000 -8.7118837240559954e-001
      1.0312268813478964e+000 5.4152355485436088e-001
      -6.0463649806564079e-001 5.8991120291127574e-001
      8.5710277766173650e+000 -1.7184968884962082e+000
      -1.3165105562795214e+000 -8.0876621595745757e+000
      -5.7191873244662761e-001 -1.0342640345011038e+000
      1.5807388579564655e-001 5.3022243987384243e-001
      6.1507140171620134e-001 2.7985196673454209e+000
      1.6753795143100135e+001 -2.8999545808458219e+001
      2.7372114920629534e-002 -4.0468110837943841e-002
      1.9048926011644152e+000 2.1565871954320577e+000
      -4.8267727693843254e-001 -5.3955268144107702e+000
      -2.0102712653020829e+000 -2.7378227611419958e-002
      -2.3708832111928622e+001 -7.8882871917829567e-001
      -4.5422578307237166e-001 1.0853612485270479e+000
      7.7673699013057640e-001 -9.0547172042451796e-001
      4.3205687666655646e+000 3.3800555318169784e-001
      -1.0327825308709488e+000 -7.3635237038023782e-001
      2.1463039283351875e+001 -1.9467280362782230e-001
      -3.5233846141622982e-001 1.6130519053379500e+000
      -1.4587246857582719e+000 5.4912220109303445e-001
      -1.0826634077098636e+000 6.1197391968449733e-001
      7.2855412894483553e+000 1.1738915593922615e-002
      -4.2127164240863713e-001 -5.1296850797965632e-001
      -8.0932467257806728e-001 -1.0024008479841331e+000
      2.7883272377983354e-001 4.5772499662501733e+000
      -1.5335568935998202e+001 1.8208396765825239e+000
      3.6311111513369666e-002 4.1544426147800337e+001
      -8.7383991091707791e-001 -7.9895179084150234e+000
      5.9026044163618927e+000 -2.7779605412694677e+000
      7.8737609547678522e-001 1.5891515501762130e-002
      -5.4759882305954621e-001 -3.0739830465753726e+000
      -7.6423122837152316e-002 -1.7359545349562855e+000
      -8.6382493917948178e-001 1.0309678362404882e+000
      5.3754501076924466e-001 -6.0847715826125959e-001
      3.4143762233846642e-001 8.5772124462884936e+000
      -1.7182532951943312e+000 -1.3127763959561660e+000
      -8.0849986791183959e+000 -5.7653959398673127e-001
      -1.0319754049876246e+000 1.6096835815517069e-001
      5.3086265298748658e-001 6.1153911486616663e-001
      2.7963406358536207e+000 1.6754259304306590e+001
      -2.8993159059583231e+001 -8.6129602271810303e-003
      -3.6341748828506437e-002 1.9055819786069230e+000
      2.1569693362341740e+000 -4.8103047215611039e-001
      -5.3927337175740222e+000 -2.0125925087950689e+000
      -2.5560064158246826e-002 -2.3708272838205914e+001
      -7.8495568445535735e-001 -4.4822646336081667e-001
      1.0830480692016000e+000 7.7826505111425182e-001
      -9.0208553042717177e-001 4.3244194671273428e+000
      3.3779982755072940e-001 -1.0299889023482687e+000
      -7.4097526182678097e-001 2.1463361102531625e+001
      -2.4975306229407113e-001 -3.5005524031491186e-001
      1.6060338850605180e+000 -1.4562849921584438e+000
      5.4924985225097578e-001 -1.0768439566377590e+000
      6.1314411010293302e-001 7.2879238288632493e+000
      1.2860035138394487e-002 -4.2867340861153669e-001
      -5.1219425637641780e-001 -8.0315745161049579e-001
      -1.0046168765960943e+000 2.8376168109332189e-001
      4.5825007061180516e+000 -1.5328690448151095e+001
      1.8199551093879964e+000 6.0657586389006250e-002
      4.1536962236969657e+001 -8.8029931127453398e-001
      -7.9912257142406942e+000 5.9092534755401216e+000
      -2.7804128226903422e+000 7.9197721196712978e-001
      -1.6729321989549802e-002 -3.5584104105550413e-001
      -3.0754651309708976e+000 -6.6815781237771643e-001
      -1.7324214393145834e+000 -8.7052261672384834e-001
      1.0308586265944417e+000 5.4122635145211029e-001
      -6.0381311370301283e-001 3.4123695358391493e-001
      8.5703110765021293e+000 -1.7218999241557940e+000
      -1.3126515860112131e+000 -8.0889062761748409e+000
      -5.7413837800015721e-001 -1.0381004684366579e+000
      1.5904199103145000e-001 5.2832954724600956e-001
      6.0888350620830245e-001 2.7976926492304508e+000
      1.6746108007728903e+001 -2.8993113680497903e+001
      3.9136955129656066e-003 -6.4090432471707398e-002
      1.9017603064982869e+000 2.1600759346734835e+000
      -4.7467750477292914e-001 -5.3993559288156492e+000
      -2.0136672205249804e+000 1.2610518137035287e+000
      -2.3709986937465406e+001 -7.8623024997514479e-001
      -4.5173150557426894e-001 1.0851205636058789e+000
      7.7407284150125844e-001 -9.0060548919576733e-001
      5.0340331191088550e-001 3.4476763393887566e-001
      -1.0318439021938119e+000 -5.1103103706408959e-001
      2.1462375422605245e+001 -3.6318538412921064e-001
      -3.5077802230226496e-001 7.4170396172848685e-001
      -1.4628952356060212e+000 5.4727223941935954e-001
      -1.0809239940086641e+000 6.1634829587187112e-001
      7.2894374609266741e+000 4.4752461008315458e-003
      -4.2810358448205010e-001 -5.1467339416734603e-001
      -8.0649666485810301e-001 -1.0097540570043928e+000
      2.8439586773838649e-001 4.5794281052914707e+000
      -1.5335986852739465e+001 1.8219439854035822e+000
      5.6431283362714094e-002 4.1545023070017685e+001
      -8.7524914077678317e-001 -7.9849690746462185e+000
      5.9084291141403869e+000 -2.7764316342128823e+000
      7.9259577359682420e-001 -2.6532079001757025e-002
      -6.3427576591020640e-001 -3.0687118960981477e+000
      -6.9903761391771624e-001 -1.7326188997516825e+000
      -8.6990538298369902e-001 1.0295397975408811e+000
      5.3350538568314998e-001 -6.1126843377214246e-001
      3.4684083930595488e-001 8.5702757823981290e+000
      -1.7162536705842146e+000 -1.3171842409833641e+000
      -8.0881989965289520e+000 -5.8032723504442896e-001
      -1.0319385527278397e+000 1.6417075203838100e-001
      5.2786835407056032e-001 6.1317582163769890e-001
      2.7945309218100722e+000 1.6751525452888764e+001
      -2.8996534887654516e+001 -4.2680536606898489e-001
      -3.8509560772237855e-002 1.9019106569710484e+000
      2.1544625282289851e+000 -4.7732856285777259e-001
      -5.3927722475489546e+000 -5.3523379989549547e+000
      3.6745373504584954e+001 -2.3704728018656418e+001
      -7.8919938560290293e-001 -4.5018998253412562e-001
      1.0857311138223005e+000 7.7724984792824847e-001
      -9.0260695763459631e-001 4.9493324335602856e-001
      3.4067819719461245e-001 -1.0346008385048022e+000
      -3.9571491595867342e-001 2.1462364424821434e+001
      -8.6318930934972238e-001 -3.4551339394493241e-001
      7.4130096459346728e-001 -1.4584944088330636e+000
      5.4892756528411424e-001 -1.0788767661242031e+000
      6.1692555994424747e-001 7.2903576860915456e+000
      1.6885998412653432e-002 -4.2204587678017502e-001
      -5.1669142773164589e-001 -8.0865315835698992e-001
      -1.0074092036175530e+000 2.7765982906820286e-001
      4.5763415411160899e+000 -1.5328040694998384e+001
      1.8202628364877869e+000 -1.3476537222223051e-001
      4.1544701521531742e+001 -3.1954915891565833e-001
      -7.8093211262283413e+000 5.9085670813529925e+000
      -9.1664496934058903e-001 7.9266138465539349e-001
      5.3923187045380773e-002 -2.0546789529248252e-001
      -3.0712432011784014e+000 -5.2445271498661142e-002
      -1.7314418486855629e+000 -8.6430307461468991e-001
      1.0312909534665808e+000 5.3372424983557776e-001
      -6.0872481074684626e-001 3.4071878378007397e-001
      8.5706570651521421e+000 -9.2595499155252192e-001
      -2.1515329666922833e-001 -8.0927801268457475e+000
      -5.8035267971322302e-001 -1.0306978677248104e+000
      3.3510397701129250e+001 5.3003679069015919e-001
      6.1156231753990897e-001 2.7961321461559714e+000
      1.6751869998150084e+001 -2.8994911027866831e+001
      -7.5283522853636153e-001 8.5746412884347700e-003
      1.9033343347517555e+000 2.1630675314966479e+000
      -4.7854262281793236e-001 -5.3966671572029972e+000
      -5.3496059228768047e+000 2.3317729670902848e-001
      -2.3700921599548213e+001 -7.8359950074757778e-001
      -4.5159037297942500e-001 1.0874600219169663e+000
      7.7249432250000749e-001 -8.9861716166809624e-001
      5.0447452062205200e-001 -4.0872394802899509e-001
      -1.0345198177137129e+000 -3.9863082746497835e-001
      2.1455736998387319e+001 -4.1149834001145180e+000
      -3.4609830181419610e-001 7.3585329877261374e-001
      -1.4620821577199627e+000 5.5193483292312673e-001
      -1.0853823336504702e+000 6.1672037001694080e-001
      7.2910469658236874e+000 -4.1567222103779361e-002
      -4.2431457574738030e-001 -5.1015051791779920e-001
      -8.1032056503964178e-001 -1.0094577428520504e+000
      2.7968465680472587e-001 4.5765103067320512e+000
      -1.5333263336796785e+001 1.8196711181823437e+000
      -3.1751947332947214e-002 4.1545847988627557e+001
      -3.2816164333822773e-001 -7.8024004166063774e+000
      5.9069251632032547e+000 -9.1021249431648177e-001
      7.9064460575805406e-001 -3.3957568122947417e-003
      -3.3006317975891120e-001 -3.0684769567328023e+000
      -4.6406224704021382e-001 -1.7389367038636840e+000
      -8.7027481162705711e-001 1.0262278119687729e+000
      5.4018703232723131e-001 -6.0900640145973495e-001
      3.4712938079172156e-001 8.5739014496263302e+000
      -9.2705719088473193e-001 -1.3087073375064144e+000
      -8.0846202229558326e+000 -5.7110686526819365e-001
      -1.0359691131120958e+000 3.1295068343805416e-001
      5.3173148180268481e-001 6.1111958820304957e-001
      2.7936607197216241e+000 1.6747046905880463e+001
      -2.8998944330068898e+001 -4.0913085829360007e-001
      -1.4361962790222518e-002 1.9075919187028745e+000
      2.1538915870137845e+000 -4.7961036161450887e-001
      -5.3976186699660404e+000 -5.3524080816792203e+000
      6.4744223788162109e-002 -2.3703541636717695e+001
      -7.9123870788772499e-001 -4.4788948661357547e-001
      1.0889421353602968e+000 7.7770376972891475e-001
      -9.0034141887970986e-001 6.5910293512706652e-001
      -1.2246197112814448e-001 -1.0306453789667529e+000
      -4.1749973744623953e-001 2.1462662456252787e+001
      -4.1094254426758523e+000 -3.5339222856213903e-001
      7.4050096836185331e-001 -1.4578807640726155e+000
      5.5007453842497889e-001 -1.0840259823128209e+000
      6.1663475196173900e-001 7.2915595204463539e+000
      -1.2473324036286646e-002 -4.2797169463593254e-001
      -5.1430793752243520e-001 -8.0874285215595798e-001
      -1.0075229675255577e+000 2.7700878749266222e-001
      4.5788433572758613e+000 -1.5335205897236838e+001
      1.0474616151581597e+000 1.6613114659033104e-002
      4.1543304504896071e+001 -3.2593849877969033e-001
      -7.8049699959121766e+000 5.9004004490513982e+000
      -3.5296402545449423e-001 7.8533618865724530e-001
      -5.1839091791138943e-002 -1.7800742109636306e-001
      -3.0753299191920016e+000 2.1962038619285704e-001
      -8.0394272622328400e-001 -8.6424879769323304e-001
      1.0260283430494159e+000 1.4362740020760993e+000
      -6.0420436210144401e-001 2.4866234044200247e-001
      8.5777082969809246e+000 -6.7054435184216021e-001
      -1.3108122944123706e+000 -8.3985015707960287e+000
      -5.7390090004014138e-001 -1.0374373148212079e+000
      2.6968731720224010e-001 5.3571956183075065e-001
      6.0768488594754411e-001 2.7989879553234105e+000
      1.6755127797568857e+001 -2.8993051416652033e+001
      -3.8296063948981512e-001 3.0859026475364742e-002
      1.9028918899310996e+000 2.1612980983623791e+000
      -4.8052475554821683e-001 -5.3915111262928264e+000
      -5.3521447702461025e+000 5.1980857831011806e-002
      -7.9452333892348630e+000 -7.9258011845339804e-001
      -4.5343086074977307e-001 1.0822947901946780e+000
      7.7363186658414784e-001 -8.9878469363599867e-001
      5.8379531997624290e-001 -9.7379887920332711e-002
      -1.0360342631739226e+000 -4.2792277725347683e-001
      2.1457265122495564e+001 -4.1153343695562565e+000
      -3.4729333099361703e-001 4.0651842758409495e-001
      -1.4543676807450081e+000 5.5283335057860239e-001
      -1.0858232632805893e+000 6.1076543145683360e-001
      7.2903197951642307e+000 1.9997479435757412e-001
      -1.3192078501938245e+000 -5.1183358791654410e-001
      -8.0811866643883301e-001 -1.0101125309847694e+000
      2.8331001272926498e-001 4.5811206793783423e+000
      -1.5335497801005781e+001 1.0476663117248777e+000
      -2.9600444315594804e-002 4.1540987929308415e+001
      -3.1936462693282858e-001 -7.8058529878394589e+000
      5.9059710249431552e+000 -3.5292790469539853e-001
      7.9022578117809128e-001 -4.6583035168625539e-002
      -1.8151989531997334e-001 -3.0718838927203476e+000
      2.2649584104315026e-001 -8.0383230170276498e-001
      -8.6510082111600106e-001 1.0307382383656656e+000
      1.4377899401677023e+000 -6.0759736546615284e-001
      2.4604715959163717e-001 8.5692712522711822e+000
      -6.6927345654212156e-001 -1.3122185608100865e+000
      -8.3984033776987630e+000 -5.7266755121205037e-001
      -1.0318209301512500e+000 2.7967734506602299e-001
      5.2916358076559256e-001 6.1544779498937197e-001
      2.7976526998879199e+000 1.6754745001103203e+001
      -2.8999325499532798e+001 -3.8372526986939098e-001
      3.2634237772675427e-002 1.9040266175084157e+000
      2.1593219029968194e+000 -4.7772265110644929e-001
      -5.3988206201361582e+000 -5.3507871889274430e+000
      5.0809887084429912e-002 -7.9445231029038554e+000
      -7.8588762248355426e-001 -4.5032951716115427e-001
      1.0842437719741465e+000 7.7900387119215220e-001
      -9.0467131819130953e-001 5.9144010015178128e-001
      -9.5584003466183523e-002 -1.0286922949272310e+000
      -4.2959376888981216e-001 2.1463341176312845e+001
      -4.1100237490819920e+000 -3.4673102972606207e-001
      4.0826672576989997e-001 -1.4626005253697645e+000
      5.4569573911468539e-001 -1.0771272745118956e+000
      6.1200112847229760e-001 7.2874637370515689e+000
      1.9918531535925316e-001 -1.3199101269953990e+000
      -5.1051782982396288e-001 -1.7539321922879505e-003
      -3.4635344423030786e-003 3.1350962297579115e-003
      -1.2685192622885204e-003 3.4127855102790931e-003
      3.7262906856386393e-003 3.8387974867066339e-003
      -6.8446600548566292e-004 -1.7017383343780807e-003
      1.0933893825237741e-003 -5.0769724157731882e-005
      -3.3830093635666449e-003 3.0559439401566125e-003
      1.9797527947827851e-003 1.1368185792216814e-003
      -2.5328976291776762e-003 3.0914463092867124e-003
      2.8963006874189868e-003 -2.3425318066443179e-003
      1.6666312855845408e-003 3.3702764647711623e-003
      1.0126568311895833e-003 4.0464834477974207e-003
      3.8949917857341691e-003 -3.0987817178481192e-003
      1.3927949201488447e-004 7.5974954433451235e-004
      2.3434780708560029e-003 2.0425997637354581e-003
      -9.0755468992997392e-004 -1.0364792342909708e-003
      -4.6615524069678962e-003 4.2341289121952995e-003
      1.7747823180023332e-003 -3.2449415867533238e-003
      2.6551059744635260e-003 -4.2696489977182370e-003
      -5.0586509045160940e-004 -3.1838892392222068e-003
      1.9116836203557140e-003 3.4653716641715386e-003
      -3.3207060835128968e-003 4.4087239206603420e-003
      1.8726169276144498e-003 4.0377183257365480e-003
      4.2826200504757841e-003 -3.3176367825905862e-003
      -4.2323428943688126e-003 3.5218008358850732e-003
      -1.1718600984471713e-003 2.9873823636395935e-003
      1.7715616191934516e-003 3.6557650127077060e-003
      -1.2959586310901253e-003 2.1391933513112459e-003
      -4.7019580740074911e-003 -4.1563581212314725e-003
      1.2161502965804957e-003 1.2295117136612620e-003
      -2.1406416644882578e-003 -4.2092738206626823e-003
      3.9768019922897689e-003 1.0426404909389965e-003
      -9.7610261795610400e-004 4.8545071682333015e-003
      -2.5302752373876055e-003 1.4590412678682015e-003
      3.2122333286868604e-003 1.1061994906542731e-003
      5.0613038257430638e-003 -2.1174209150231606e-003
      1.8501080251932041e-004 -4.3034012895009780e-003
      1.3195441196353042e-003 -3.8716296954018278e-003
      -2.2033281888973288e-003 -3.5936353197301494e-003
      -4.7392112259839374e-003 -9.2562346769048680e-004
      3.7904233817787609e-005 3.9862224803989439e-003
      2.2869263167429148e-003 -3.1639375516332854e-003
      3.4399829872048780e-003 -3.9803858927475507e-003
      -4.9205556326454812e-003 -2.7354363632136162e-003
      2.0518547072424778e-004 2.2983664101444007e-003
      -9.4663643104329919e-004 -1.7833889805240692e-003
      -2.9704271654344468e-003 2.3080269615436831e-003
      -1.5325043802801195e-003 -5.0474648594055968e-003
      2.6001866743163198e-003 -1.9280658201928811e-003
      3.0971159810741253e-003 2.0099201755330929e-003
      4.2458693805161561e-003 4.4602490853842503e-003
      5.8128649399249207e-004 -4.1144057517679350e-003
      -1.7559921455509078e-003 4.6685755449669850e-004
      -4.3073867436637147e-003 1.0472842950241612e-003
      5.2200910404656762e-004 -1.6759295392929545e-003
      -3.0685341340016474e-003 1.0600005865705187e-003
      -1.0376465485155667e-003 1.5655894796534409e-003
      9.9087861599806370e-004 -3.3691902270892482e-003
      -4.6746722921180983e-003 -2.1824219889521792e-003
      -3.1296659033813300e-003 3.7892996471744315e-003
      -4.8201205450014465e-003 4.9226964392976172e-003
      -4.1469651045706836e-003 2.5370333440457773e-003
      -1.2399749887851432e-003 -1.5532862054849197e-003
      2.5302816701514011e-003 1.1622727099552849e-003
      3.3753790408661876e-003 -2.8204624475598435e-003
      2.8253431651258823e-003 -8.0435088621751893e-001
      -1.0094026120273887e+000 1.1487314517061042e+000
      4.5773826228025030e+000 -1.5336660185563380e+001
      1.1822565306016584e+000 -1.2908501940221057e-001
      4.1545772305909281e+001 -3.2625407006473772e-001
      -7.9913926155278405e+000 5.9034921692267890e+000
      -1.0525573377247854e+000 7.8438418137253763e-001
      -8.1399988441296189e-001 -1.5363675645463253e+001
      -3.0750961552399891e+000 -5.9379144824562901e-003
      -5.2177996791221148e-001 -8.6566168947179067e-001
      1.8546155977687315e-001 1.4364615186761305e+000
      -1.2334690030110663e-002 6.8637980545707655e-001
      8.5688943819003427e+000 -7.6908393033867639e-001
      -1.3160497411889394e+000 -9.5220076317891866e+000
      -5.7693639486877080e-001 -1.0356205855216025e+000
      -7.4515402117447584e-003 5.3563560677300415e-001
      6.1479150387135051e-001 2.7964147369866539e+000
      1.6745920804698581e+001 -2.7477898490518584e+001
      -4.7175880626254248e-003 1.2388782418633559e+000
      1.9010604373240378e+000 1.3212355362637997e+000
      -1.5851789735896600e+000 -5.3921853880549477e+000
      -5.3536641306420858e+000 2.6855000605275681e-002
      -2.3707713084444791e+001 -7.8603808312273804e-001
      -4.5390413713693484e-001 1.0833846605820083e+000
      7.7567201026721311e-001 -9.0244820915732915e-001
      4.6423518440223377e-001 -1.2553251850246730e-001
      -2.6164892148029534e-001 -2.2848856759292896e-001
      2.1719819906980682e+001 -2.9281990441627126e-001
      -1.2937024866990690e+000 7.0767399629721328e-001
      -6.4632105904978676e-001 5.5342706871949343e-001
      -1.0771319487529751e+000 1.4831720080146922e+000
      7.2905054899175790e+000 -1.3138021321853183e-001
      -1.3246477542125825e+000 -5.1130867485416698e-001
      -5.3150098237743582e-001 -5.4248909794970079e-001
      5.3163843003678835e-001 1.1016986842575120e-001
      1.4333084919215204e+000 6.3441687773444411e-001
      -6.8407624659954785e-002 -4.8657201454495896e-001
      -6.7653800067918124e-001 -5.8059409419056185e-001
      -1.5597282948882282e-002 -4.7762239943427487e-001
      3.7207207235743089e-001 2.0442937723766730e+000
      -1.0779920959461082e+000 1.8307493950553602e-001
      4.6839120834716447e-001 -5.6528671821194032e-001
      -7.4272225973551542e-001 6.3293774702975969e-001
      7.3742805486669083e-001 -4.0723028124667843e-001
      6.5550763700550296e-001 2.5897772056096308e-001
      -3.3777611521611983e-001 -6.1447034173663895e-001
      8.3305577045469204e-001 -4.3247286383850592e-001
      -1.1907589261430687e+000 -1.0421278994734713e+000
      1.5703858786565654e+000 4.4853703290278668e-001
      -4.8663770450116293e-002 -3.0821189962128803e-001
      3.0835921118284242e+000 -3.7619055777143967e-001
      -2.4153875294290458e-002 -1.8261194182369647e+000
      3.7913937563919767e-002 -3.6812242319307903e-001
      -2.3201231100537581e-001 4.2985792828218605e-001
      1.1508414701583528e-001 -1.3736440258398533e-001
      -8.0041696695118869e-001 -3.6086701452096437e-001
      4.1875506597612333e-001 4.5800954825512652e-001
      -6.3836143312867122e-001 5.7823978814544730e-001
      8.0691849687946127e-001 -5.5225361547447693e-001
      -4.1570282374554918e-001 5.4804348686546134e-001
      -4.3061561949753274e-002 -5.7046028483707645e-001
      5.3596836296025607e-001 -1.6418598459910241e+000
      3.9454505157911801e-001 -1.0161180821351108e+000
      6.3482068346308207e-001 3.6731202659909390e-001
      -7.6838473790531298e-002 -6.3878521343313710e-001
      -6.0890573501123768e-001 2.1428203794292569e-002
      9.2463054423330665e-002 -2.5116537671575508e-002
      1.2888009582734611e-001 2.6039523952793797e-001
      -5.5625728182478983e-002 6.6564571770514613e-002
      2.9084949999814032e-002 2.8466686952356775e-002
      1.6040570433273665e-001 8.3249300086052028e-003
      2.7598975102148947e-002 -2.8031907411324684e-003
      9.0456972902156652e-002 -5.6403709839946602e-002
      -2.1638674115415835e-001 -2.4369129261923188e-002
      7.2035206464700588e-002 5.9844109661434178e-002
      -8.3462082969249285e-002 -1.0984438879855120e-001
      -2.3314252389423080e-003 -2.9303310948421632e-002
      -1.4661423315055441e-001 6.5545928834940856e-002
      1.1031756610335394e-002 5.3616504022268674e-001
      -1.2709163250067731e-002 -1.5540998185479285e-002
      1.6718461591114293e-002 -7.7805330279380774e-002
      -2.5193620532334014e-002 -8.2504699003673618e-002
      4.6569367230290687e-001 9.1433106559872734e-001
