<?xml version="1.0"?>
<opencv_storage>
<my_nn type_id="opencv-ml-ann-mlp">
  <layer_sizes type_id="opencv-matrix">
    <rows>1</rows>
    <cols>3</cols>
    <dt>i</dt>
    <data>
      400 65 32</data></layer_sizes>
  <activation_function>SIGMOID_SYM</activation_function>
  <f_param1>6.6666666666666663e-001</f_param1>
  <f_param2>1.7159000000000000e+000</f_param2>
  <min_val>-9.4999999999999996e-001</min_val>
  <max_val>9.4999999999999996e-001</max_val>
  <min_val1>-9.7999999999999998e-001</min_val1>
  <max_val1>9.7999999999999998e-001</max_val1>
  <training_params>
    <train_method>RPROP</train_method>
    <dw0>1.0000000000000001e-001</dw0>
    <dw_plus>1.2000000000000000e+000</dw_plus>
    <dw_minus>5.0000000000000000e-001</dw_minus>
    <dw_min>1.1920928955078125e-007</dw_min>
    <dw_max>50.</dw_max>
    <term_criteria><epsilon>1.0000000116860974e-007</epsilon>
      <iterations>20000</iterations></term_criteria></training_params>
  <input_scale>
    1. 0. 1. 0. 1. 0. 1. 0. 1. 0. 1. 0. 1. 0. 1. 0. 1. 0. 1. 0. 1. 0. 1.
    0. 1. 0. 1. 0. 1. 0. 1. 0. 1. 0. 1. 0. 1. 0. 1. 0. 1. 0.
    1.1050998487561817e+001 -5.3230661686042803e-003
    4.0840646584467581e+000 -5.3230661686042803e-003
    3.4046956919933895e+000 -1.1286923638206629e-002
    1.7438415074334912e+000 -1.0227954326317758e-002
    1.5263555237612885e+000 -1.4617860964817826e-002
    1.1675406517897065e+000 -1.6739171218247001e-002
    9.2199543390040772e-001 -2.3798992442786712e-002
    6.9383186209000358e-001 -2.5360357637381481e-002
    6.1193442622052507e-001 -2.7360454610715679e-002
    5.5692556485180278e-001 -2.7583540287336051e-002
    5.3606780806131715e-001 -2.7613727227933996e-002
    5.6419184272181822e-001 -2.7303988535088135e-002
    6.0713745601326286e-001 -2.5924578420989632e-002
    7.7365624466652205e-001 -2.4792599459321576e-002
    8.9505397943949028e-001 -1.8766892720517462e-002
    1.4386310876899691e+000 -1.7853977174176364e-002
    2.0882705994944613e+000 -1.0532178242428076e-002
    5.6390629820895040e+000 -1.0545381713594969e-002 1. 0. 1. 0.
    4.0840646584467581e+000 -5.3230661686042803e-003
    2.7444578894515870e-001 -5.6673020424229066e-002
    1.3503726696885329e-001 -1.0669294731041493e-001
    7.9064109772963964e-002 -1.7714097277300259e-001
    5.0396752102029638e-002 -2.7089271671492182e-001
    3.6052631481856515e-002 -3.7586449127565502e-001
    2.8617419572021321e-002 -4.7969794482047706e-001
    2.5968731317315370e-002 -5.4347956607813097e-001
    2.4005594230299666e-002 -5.9060237120539172e-001
    2.2807321061588545e-002 -6.2934131286453898e-001
    2.3096796883305064e-002 -6.3201247006679651e-001
    2.4045110478363534e-002 -6.0846808497764415e-001
    2.6358091767475094e-002 -5.3745846672677722e-001
    3.1341355443852664e-002 -4.3329714731996671e-001
    4.2937538475466101e-002 -3.0034378094740577e-001
    7.2612056549684667e-002 -1.8896869549132791e-001
    1.5709159644849824e-001 -9.3450204500502093e-002
    2.0882705994944613e+000 -1.0532178242428076e-002 1. 0. 1. 0.
    2.9036137862031799e+000 -1.4562084270477511e-002
    1.4488745614712734e-001 -1.0637587520710519e-001
    5.4718056829135296e-002 -1.9466282439281843e-001
    3.1987873128008056e-002 -3.1638021343591566e-001
    2.1040352729858571e-002 -4.6578451221494771e-001
    1.6003448582064348e-002 -6.5068372300300203e-001
    1.3827835451796475e-002 -8.4540368300379598e-001
    1.3368008904091276e-002 -1.0070966943756148e+000
    1.3135649366012527e-002 -1.1118123344568109e+000
    1.2934416912369979e-002 -1.1407732058025859e+000
    1.3188382458484454e-002 -1.1682665509564916e+000
    1.3267619982466712e-002 -1.1411720803863568e+000
    1.3516843394361780e-002 -9.6032666447149417e-001
    1.5656561625827077e-002 -7.1068758898323681e-001
    2.1049690060919508e-002 -4.7420282282054393e-001
    3.4170766109773341e-002 -3.0446769348715308e-001
    8.3789801918187357e-002 -1.7297835173431361e-001
    1.5254986785373379e+000 -1.8543023633369730e-002 1. 0. 1. 0.
    1.4159740610191542e+000 -1.3801464227767235e-002
    9.8210989682636765e-002 -1.4560092973577204e-001
    3.3706376929495754e-002 -2.6295806528942406e-001
    1.9900082840862501e-002 -4.2901416514270485e-001
    1.4304744909129001e-002 -6.3901268982656512e-001
    1.2102775967165762e-002 -8.7523271827405036e-001
    1.1748921550361465e-002 -1.1069392929844908e+000
    1.1746655911504532e-002 -1.2331635581607445e+000
    1.1871303540711291e-002 -1.2444350498383714e+000
    1.1733011583509865e-002 -1.1793433617774534e+000
    1.1922092701488347e-002 -1.2455186882602811e+000
    1.2069953055999371e-002 -1.3527875343047409e+000
    1.1910127519123346e-002 -1.2272597923121031e+000
    1.2690081307014250e-002 -9.1939428724559646e-001
    1.5141768780902079e-002 -6.1725971953885495e-001
    2.2631347874983079e-002 -4.0724370828582163e-001
    5.9114042700158922e-002 -2.4246254478762377e-001
    9.4410206640389382e-001 -1.9501045714686725e-002 1. 0. 1. 0.
    2.1322187485592021e+000 -1.6372404750504173e-002
    8.6793089179459201e-002 -1.6728075006843207e-001
    2.9067866338222587e-002 -2.8920768587166951e-001
    1.7196428463372881e-002 -4.7501473182703202e-001
    1.2717989265512528e-002 -7.1448772176763797e-001
    1.1377997360015126e-002 -9.7324738753293338e-001
    1.1599195196849156e-002 -1.1723495528796009e+000
    1.1757665714500098e-002 -1.1779733200316789e+000
    1.1737396032599974e-002 -1.0263764680312217e+000
    1.1920882863060395e-002 -9.3613636244275200e-001
    1.1948854453835337e-002 -1.0046588563881778e+000
    1.1687487720400411e-002 -1.1758066992716421e+000
    1.1477712951596414e-002 -1.1733027266245488e+000
    1.1861197482495426e-002 -9.5740831584198027e-001
    1.3438483332117723e-002 -6.8143197066909922e-001
    1.9104840462090638e-002 -4.5778322251720982e-001
    5.0678809422359965e-002 -2.7957706955271761e-001
    8.1197214939033013e-001 -2.4018896777363914e-002 1. 0. 1. 0.
    1.8908151207395283e+000 -1.1625729782123300e-002
    9.1191809334252083e-002 -1.5836673521394171e-001
    2.8381726686821363e-002 -2.9459481202041887e-001
    1.6416657080294449e-002 -4.8355853477028132e-001
    1.2437130226346536e-002 -7.3172881134145851e-001
    1.1313051887811209e-002 -9.9643391589402941e-001
    1.1658392366845963e-002 -1.1665943746708998e+000
    1.1890684616271841e-002 -1.1079211847379382e+000
    1.1907006233684059e-002 -9.0096493364415453e-001
    1.2429898153092492e-002 -8.1611387288880666e-001
    1.2384917691870379e-002 -9.0513524974313109e-001
    1.1812466873137733e-002 -1.0748136597807199e+000
    1.1428842369260686e-002 -1.0713656481798384e+000
    1.1818253294424229e-002 -8.8397775386714328e-001
    1.3466718628990624e-002 -6.4244905663410312e-001
    1.9529417104642774e-002 -4.2820680362984381e-001
    5.4260444165630042e-002 -2.5236725836126161e-001
    6.7942538726521962e-001 -2.4833784307713522e-002 1. 0. 1. 0.
    1.2689961048734064e+000 -1.8697134687733298e-002
    9.5687490027230204e-002 -1.5400336634819170e-001
    2.8358687964223406e-002 -3.0655072355829505e-001
    1.5853600166917992e-002 -4.9352792316294902e-001
    1.2388874655213648e-002 -7.3850758253056992e-001
    1.1440815536699929e-002 -1.0056737162623741e+000
    1.1797889646402243e-002 -1.1868553967722419e+000
    1.1864161423781487e-002 -1.1099366241393569e+000
    1.1852722222029936e-002 -9.1874431971327541e-001
    1.2265491060366486e-002 -8.7023299376384466e-001
    1.2381217677896713e-002 -9.7855576433641489e-001
    1.1969024844910034e-002 -1.0902288430630500e+000
    1.1684312390978660e-002 -1.0092868189782780e+000
    1.2203535005717827e-002 -7.9352022870248373e-001
    1.4179299255447777e-002 -5.7104453037214165e-001
    2.1756361545875711e-002 -3.8072738853123667e-001
    6.3749563964757630e-002 -2.1317891760747726e-001
    7.5771450218998682e-001 -2.4861400094523128e-002 1. 0. 1. 0.
    9.8913511275247201e-001 -2.1328076978568870e-002
    8.8231176289172125e-002 -1.6053509153115880e-001
    2.6970734789142959e-002 -3.1729682847565560e-001
    1.5261517889537175e-002 -5.0830847876168850e-001
    1.2175194623060505e-002 -7.4183443934543836e-001
    1.1432004232785174e-002 -1.0034153186220272e+000
    1.1736935159830228e-002 -1.2242661282184717e+000
    1.1827103304893317e-002 -1.2017275941237462e+000
    1.1787867079909982e-002 -1.0828571906507531e+000
    1.2070551511398015e-002 -1.0766998298066250e+000
    1.2142644961782465e-002 -1.1359959924422112e+000
    1.1848387951247610e-002 -1.1347427379218860e+000
    1.1843367316789238e-002 -9.6224599363451391e-001
    1.2691584845755759e-002 -7.1063489412024217e-001
    1.5432062752110213e-002 -4.9982121993373774e-001
    2.5714519537422837e-002 -3.2511420860879509e-001
    7.5231605738201701e-002 -1.7557807217987129e-001
    8.3478529308041960e-001 -2.2091901049418067e-002 1. 0. 1. 0.
    9.3791012926859885e-001 -2.2615292551145486e-002
    7.7507628131028766e-002 -1.7314861090682859e-001
    2.4974311378721109e-002 -3.3432163058176695e-001
    1.4573323441834263e-002 -5.3403861787206153e-001
    1.1817338593275148e-002 -7.6547846215785220e-001
    1.1292699767753590e-002 -1.0371231081238903e+000
    1.1438353033706871e-002 -1.2522230404591348e+000
    1.1580506832578887e-002 -1.2562095306064509e+000
    1.1424813731281770e-002 -1.1958425983081904e+000
    1.1485519044313632e-002 -1.2234119876433756e+000
    1.1549026254671354e-002 -1.2086820227654727e+000
    1.1404957222725358e-002 -1.1284544813456325e+000
    1.1734946289252948e-002 -9.0860796694322010e-001
    1.2992273794864952e-002 -6.4438519500750768e-001
    1.6824494662122890e-002 -4.4664735795298666e-001
    3.0128660219443746e-002 -2.8152664701637198e-001
    8.9882403834250571e-002 -1.4508572986239254e-001
    1.2717726962554137e+000 -1.8233558618004683e-002 1. 0. 1. 0.
    8.3585879192473733e-001 -2.1670325407620056e-002
    6.8600630490691247e-002 -1.8900015033469419e-001
    2.3259859811657648e-002 -3.6219818989180752e-001
    1.3951557605557694e-002 -5.7443313852709799e-001
    1.1608070424060599e-002 -8.1197191262775537e-001
    1.1306814878875419e-002 -1.0841218099581551e+000
    1.1610781575283171e-002 -1.2272385247251802e+000
    1.1878884278908441e-002 -1.1300668403793761e+000
    1.1626059779834776e-002 -1.0408629187079024e+000
    1.1393345261294494e-002 -1.0936994861449660e+000
    1.1673278924284252e-002 -1.1350926683341076e+000
    1.1374857324855591e-002 -1.0700014012877326e+000
    1.1769172787666796e-002 -8.6589371999268516e-001
    1.3468761787481230e-002 -6.1250332431104848e-001
    1.8433528087192733e-002 -4.1208099025486067e-001
    3.4425371646803156e-002 -2.5373117119531685e-001
    1.0809237655832898e-001 -1.2606438419849203e-001
    1.8331834373298332e+000 -1.3400995291731986e-002 1. 0. 1. 0.
    7.9166346126921627e-001 -2.1556359229300905e-002
    6.2063017241459253e-002 -2.1287264970760114e-001
    2.1662600404530583e-002 -4.0274710407268272e-001
    1.3387069517940839e-002 -6.2320292589623882e-001
    1.1551616045665340e-002 -8.8593560139372152e-001
    1.1491207526838599e-002 -1.1399253121440083e+000
    1.1984936377816004e-002 -1.2140082097446887e+000
    1.2194724210743935e-002 -1.0123162150366984e+000
    1.2183078054842377e-002 -8.9042825348154786e-001
    1.1756656579950049e-002 -9.3721435972859435e-001
    1.1901983168791963e-002 -1.0268309263374298e+000
    1.1439960201510561e-002 -1.0140774490891784e+000
    1.1679364850043858e-002 -8.4463519908653095e-001
    1.3597701154991388e-002 -6.1340762170316698e-001
    1.9194688469438687e-002 -4.0599760099206406e-001
    3.7780620252419274e-002 -2.4287587468761210e-001
    1.2474247283307160e-001 -1.1628799191570251e-001
    2.3046416661547751e+000 -1.3451851166743649e-002 1. 0. 1. 0.
    7.8707400642695768e-001 -2.3148579567369792e-002
    5.6912545542376222e-002 -2.4059914487330680e-001
    2.0121556049254596e-002 -4.4038402565862006e-001
    1.2894839329425346e-002 -6.8705273556725721e-001
    1.1457592203654037e-002 -9.8253438715422892e-001
    1.1630799663119902e-002 -1.2330450280091729e+000
    1.1965490891690762e-002 -1.2180664951822497e+000
    1.2140870002118019e-002 -9.3719170922733341e-001
    1.2480020755068483e-002 -7.7716267858153698e-001
    1.2057025507282845e-002 -8.2053844022529565e-001
    1.1743612514600967e-002 -9.5070787288604641e-001
    1.1306547145756348e-002 -9.9762009900347537e-001
    1.1514697105916334e-002 -8.6174423177158910e-001
    1.3536147825029436e-002 -6.2401553260028952e-001
    1.9342945310490186e-002 -4.0639312706823150e-001
    3.8292086637574635e-002 -2.3788333605705136e-001
    1.2459042825028406e-001 -1.1484361804998841e-001
    1.8066121181979300e+000 -1.5766201014506060e-002 1. 0. 1. 0.
    7.4571555703729042e-001 -2.3432367686350129e-002
    5.0601379528043833e-002 -2.7597272364764858e-001
    1.8651079319846303e-002 -4.8394511930931944e-001
    1.2544360955014518e-002 -7.4921251784807696e-001
    1.1415365380852933e-002 -1.0690468816927901e+000
    1.1697973342961332e-002 -1.3154182593087411e+000
    1.1958947564488258e-002 -1.2235081232616576e+000
    1.2300941020759208e-002 -9.0185001033462631e-001
    1.2782176593535031e-002 -7.3956479323181379e-001
    1.2162610950951183e-002 -8.0759833207418341e-001
    1.1664960694755621e-002 -9.9707072048579359e-001
    1.1359258388571146e-002 -1.0544274325554783e+000
    1.1448199937537595e-002 -8.8588982158534235e-001
    1.3487480500503666e-002 -6.3180398555919548e-001
    1.9271214574876544e-002 -4.0557462248261766e-001
    3.7730469571536231e-002 -2.3492463739001909e-001
    1.1498956389610261e-001 -1.1446500322437528e-001
    1.1627061534625867e+000 -1.5780360057478224e-002 1. 0. 1. 0.
    9.3235114372508365e-001 -2.4145551394461406e-002
    4.6619535529699628e-002 -3.1907032009743985e-001
    1.8102853400028641e-002 -5.2010221563108383e-001
    1.2817172330005412e-002 -7.8054629295206779e-001
    1.1727743026490581e-002 -1.1117138100769695e+000
    1.1800131326784017e-002 -1.3536261548815167e+000
    1.1945412472817281e-002 -1.2408668247377250e+000
    1.2126526659769942e-002 -9.6135700385827538e-001
    1.2307833159175554e-002 -8.3222092349439292e-001
    1.1942993474245484e-002 -9.2571210733567988e-001
    1.1654018967698104e-002 -1.1074699345758363e+000
    1.1510282021639841e-002 -1.1058242625836312e+000
    1.1684607898020146e-002 -8.8476944873541774e-001
    1.3898331935873590e-002 -6.2073558407851448e-001
    2.0394292934838604e-002 -3.9999753826910983e-001
    3.9320587939943967e-002 -2.3146816733671882e-001
    1.2023097116179028e-001 -1.1737960338737556e-001
    1.2591331765294145e+000 -1.7695578600815731e-002 1. 0. 1. 0.
    8.9703922835712147e-001 -1.7410587692308056e-002
    5.3414465197226764e-002 -2.8565910090147517e-001
    2.1035609981982357e-002 -4.6928250699327934e-001
    1.4182400157676843e-002 -7.1364601510838843e-001
    1.2351962677985891e-002 -1.0391275406473328e+000
    1.1920964796305852e-002 -1.2849136864214863e+000
    1.2042447358506020e-002 -1.2808386318299927e+000
    1.1969956725460626e-002 -1.1070617617133134e+000
    1.2020075545287966e-002 -1.0304800922225161e+000
    1.1948584311031742e-002 -1.0981609924515272e+000
    1.1786398532215773e-002 -1.1575814299578726e+000
    1.1858841747185392e-002 -1.0319329351006781e+000
    1.2885035713491132e-002 -7.8305114426098377e-001
    1.6561047901368260e-002 -5.4871111448346621e-001
    2.5642006709818536e-002 -3.4838414732113893e-001
    4.9214927994514976e-002 -1.9834481945869795e-001
    1.4804150628686036e-001 -1.0104892999887982e-001
    1.1587374941516293e+000 -1.5562337353805918e-002 1. 0. 1. 0.
    1.4918032176819376e+000 -1.6611754867792521e-002
    7.5651777325649913e-002 -2.0812437785557056e-001
    2.9422575542411126e-002 -3.6145258487301141e-001
    1.7932125399430367e-002 -5.6838125607982248e-001
    1.4117656151687932e-002 -8.1337988089263635e-001
    1.3340065615928078e-002 -1.0160569286682510e+000
    1.3211666294168440e-002 -1.0806467714941668e+000
    1.3145520009597787e-002 -1.0260273354591207e+000
    1.3349243141657099e-002 -9.7922162128558288e-001
    1.3499398933909218e-002 -9.4868916489990507e-001
    1.3796053821113799e-002 -8.8300998864250169e-001
    1.4585967240129690e-002 -7.4867964213832705e-001
    1.7893765531407417e-002 -5.7053546124697130e-001
    2.5527696756349444e-002 -3.9422002654726429e-001
    4.2422908662632833e-002 -2.4066853972267435e-001
    8.6190740634300919e-002 -1.3487985167688887e-001
    2.4499293202788053e-001 -6.5987669278809738e-002
    2.1470439078516468e+000 -1.5817057661333074e-002 1. 0. 1. 0.
    2.1673331447660429e+000 -8.8429992589553214e-003
    1.3670390899905349e-001 -1.1106200047402773e-001
    6.2556641401258190e-002 -2.3277104171872129e-001
    3.7376011642983799e-002 -3.8117749623737651e-001
    2.8171534827470621e-002 -5.1138443849949977e-001
    2.5762674807458731e-002 -5.7876780026038599e-001
    2.3850948564571990e-002 -6.0146789966574898e-001
    2.3237121076547823e-002 -5.8829822308094892e-001
    2.3850660823783870e-002 -5.5113860773678813e-001
    2.5120504511050433e-002 -5.0685651845551782e-001
    2.7952846126327837e-002 -4.6409898240744463e-001
    3.1053449449447396e-002 -4.1573066113593349e-001
    4.0488040981588425e-002 -3.3518816235515558e-001
    6.1550269434914720e-002 -2.3966813043273708e-001
    1.0163334739609224e-001 -1.4742350003104146e-001
    1.9686939084495786e-001 -8.0291786241530147e-002
    4.4863908316125350e-001 -3.2796555536679629e-002
    3.3628671240629568e+000 -7.5274559487992967e-003 1. 0. 1. 0.
    5.8089227192195336e+000 -8.8879332116242535e-003
    2.1673331447660429e+000 -8.8429992589553214e-003
    1.6019360047331495e+000 -1.4706238220993975e-002
    1.0199672672970932e+000 -1.5634893367175568e-002
    8.8160055092357303e-001 -2.1857039131219405e-002
    6.9343047027935600e-001 -2.3125482773320542e-002
    6.6230303816059499e-001 -2.3888923230624696e-002
    6.3437251255762905e-001 -2.4337414841555823e-002
    6.1288662324942156e-001 -2.4885006406834814e-002
    6.0790025420681026e-001 -2.5164827909108033e-002
    6.1568025325138531e-001 -2.5364777384396742e-002
    6.6587700031107611e-001 -2.4885721344468006e-002
    7.0881140860072067e-001 -2.2031737603348839e-002
    9.2970766050187670e-001 -2.0678902714248524e-002
    1.1782162723413188e+000 -1.5757177926078895e-002
    2.0122575680825348e+000 -1.4824100181380416e-002
    3.3628671240629568e+000 -7.5274559487992967e-003
    9.8335457969425821e+000 -7.5229007598518029e-003 1. 0. 1. 0. 1. 0.
    1. 0. 1. 0. 1. 0. 1. 0. 1. 0. 1. 0. 1. 0. 1. 0. 1. 0. 1. 0. 1. 0. 1.
    0. 1. 0. 1. 0. 1. 0. 1. 0. 1. 0. 1. 0.</input_scale>
  <output_scale>
    5.2631578947368418e-001 4.9999999999999994e-001
    5.2631578947368418e-001 4.9999999999999994e-001
    5.2631578947368418e-001 4.9999999999999994e-001
    5.2631578947368418e-001 4.9999999999999994e-001
    5.2631578947368418e-001 4.9999999999999994e-001
    5.2631578947368418e-001 4.9999999999999994e-001
    5.2631578947368418e-001 4.9999999999999994e-001
    5.2631578947368418e-001 4.9999999999999994e-001
    5.2631578947368418e-001 4.9999999999999994e-001
    5.2631578947368418e-001 4.9999999999999994e-001
    5.2631578947368418e-001 4.9999999999999994e-001
    5.2631578947368418e-001 4.9999999999999994e-001
    5.2631578947368418e-001 4.9999999999999994e-001
    5.2631578947368418e-001 4.9999999999999994e-001
    5.2631578947368418e-001 4.9999999999999994e-001
    5.2631578947368418e-001 4.9999999999999994e-001
    5.2631578947368418e-001 4.9999999999999994e-001
    5.2631578947368418e-001 4.9999999999999994e-001
    5.2631578947368418e-001 4.9999999999999994e-001
    5.2631578947368418e-001 4.9999999999999994e-001
    5.2631578947368418e-001 4.9999999999999994e-001
    5.2631578947368418e-001 4.9999999999999994e-001
    5.2631578947368418e-001 4.9999999999999994e-001
    5.2631578947368418e-001 4.9999999999999994e-001
    5.2631578947368418e-001 4.9999999999999994e-001
    5.2631578947368418e-001 4.9999999999999994e-001
    5.2631578947368418e-001 4.9999999999999994e-001
    5.2631578947368418e-001 4.9999999999999994e-001
    5.2631578947368418e-001 4.9999999999999994e-001
    5.2631578947368418e-001 4.9999999999999994e-001
    5.2631578947368418e-001 4.9999999999999994e-001
    5.2631578947368418e-001 4.9999999999999994e-001</output_scale>
  <inv_output_scale>
    1.8999999999999999e+000 -9.4999999999999996e-001
    1.8999999999999999e+000 -9.4999999999999996e-001
    1.8999999999999999e+000 -9.4999999999999996e-001
    1.8999999999999999e+000 -9.4999999999999996e-001
    1.8999999999999999e+000 -9.4999999999999996e-001
    1.8999999999999999e+000 -9.4999999999999996e-001
    1.8999999999999999e+000 -9.4999999999999996e-001
    1.8999999999999999e+000 -9.4999999999999996e-001
    1.8999999999999999e+000 -9.4999999999999996e-001
    1.8999999999999999e+000 -9.4999999999999996e-001
    1.8999999999999999e+000 -9.4999999999999996e-001
    1.8999999999999999e+000 -9.4999999999999996e-001
    1.8999999999999999e+000 -9.4999999999999996e-001
    1.8999999999999999e+000 -9.4999999999999996e-001
    1.8999999999999999e+000 -9.4999999999999996e-001
    1.8999999999999999e+000 -9.4999999999999996e-001
    1.8999999999999999e+000 -9.4999999999999996e-001
    1.8999999999999999e+000 -9.4999999999999996e-001
    1.8999999999999999e+000 -9.4999999999999996e-001
    1.8999999999999999e+000 -9.4999999999999996e-001
    1.8999999999999999e+000 -9.4999999999999996e-001
    1.8999999999999999e+000 -9.4999999999999996e-001
    1.8999999999999999e+000 -9.4999999999999996e-001
    1.8999999999999999e+000 -9.4999999999999996e-001
    1.8999999999999999e+000 -9.4999999999999996e-001
    1.8999999999999999e+000 -9.4999999999999996e-001
    1.8999999999999999e+000 -9.4999999999999996e-001
    1.8999999999999999e+000 -9.4999999999999996e-001
    1.8999999999999999e+000 -9.4999999999999996e-001
    1.8999999999999999e+000 -9.4999999999999996e-001
    1.8999999999999999e+000 -9.4999999999999996e-001
    1.8999999999999999e+000 -9.4999999999999996e-001</inv_output_scale>
  <weights>
    <_>
      -4.6222180089869102e-003 -3.0386965129628293e-003
      4.1951311306622193e-003 1.2393182417243767e-003
      3.9910867379776820e-003 -3.6096718242828603e-003
      2.7212430466679316e-003 -4.3222094542688183e-003
      4.2447361673685078e-003 -2.9648579954383437e-003
      1.8223902578679845e-003 2.2345350336514091e-003
      -2.8510467270295809e-003 3.2893528653748744e-003
      6.6332868772747005e-004 2.3070695693070183e-003
      4.4132864887138209e-003 2.4871913685018442e-003
      6.6752844171497007e-004 4.5411576321843479e-003
      2.6542105002752810e-003 1.3940396294657149e-003
      3.9125175763899530e-003 3.0413716111723937e-003
      -1.3362404417424599e-003 -2.2059426488131306e-003
      1.5680867236652495e-003 2.6706976345374977e-003
      -3.8907308630967393e-003 -1.4327270612453627e-003
      -1.1536972816925295e-003 -4.6264017750555914e-003
      2.3060224160819263e-003 1.3092783029316777e-003
      -1.8383566451348704e-003 3.9834846521900739e-004
      -2.9908813254164806e-003 4.1617280994612621e-003
      -4.4932590840112627e-003 -4.6598758093927663e-003
      1.2861381847023793e-003 -4.9377651111871367e-004
      -2.9506613804476368e-003 -2.9307322729695330e-003
      2.0694142749792597e-003 3.6126918873206678e-003
      4.8341336313847258e-003 1.6555333764410316e-003
      -1.8915031729696118e-003 6.3986230241183998e-004
      -2.6937071349175212e-003 -2.0456329913700453e-004
      -3.8397497722587183e-003 -2.5998439387365066e-003
      1.2625594265404177e-003 -1.8229237608033452e-003
      -3.5485943055033461e-003 -3.1430571140462818e-003
      -2.4621547577512448e-003 -1.5562364787584315e-003
      1.4445438086689406e-004 1.2770301559855831e-003
      -2.6479797593721962e-003 4.6089118174772199e-003
      6.0508296790771606e-004 3.9465962783385364e-003
      1.9445897513581125e-003 -2.0512523005369746e-003
      1.3795432742528333e-003 1.5883914200944711e-003
      1.6319220725004501e-003 -2.3643416429982751e-003
      1.8106297601928724e-003 -4.7374210554400140e-003
      5.6880728248780491e-004 -3.6725714549732877e-003
      -2.5920662679817202e-003 2.8725399787440486e-004
      8.3635052721691306e-004 -2.8678647515879736e-003
      1.4719575907745769e-003 -3.0976136310436409e-003
      3.9642033701190382e-003 4.5363844566419630e-003
      4.2988454258555504e-003 -4.8108213563682499e-003
      -4.2817316452198684e-003 2.0251181385126668e-004
      1.4318919384391968e-003 -1.8672345114128803e-003
      -1.7333742334773134e-003 -3.9045569749589469e-003
      5.6491604324825887e-004 7.8036035827621177e-006
      4.1099302360720937e-003 -2.0927461498505182e-003
      -2.6279956628809118e-003 4.1391044263893858e-003
      -1.8829944215139963e-003 4.4589804284261535e-003
      6.0622435323023807e-004 1.4538455969069577e-003
      1.0063244392069025e-003 3.5520411701148004e-003
      -3.8485067180491070e-003 -7.7695574176499466e-004
      -3.4223608190397828e-003 -1.2787527935625004e-003
      4.6216685150028899e-003 2.7902824190821781e-003
      4.4540194340013210e-003 9.6362806363266252e-004
      3.2971025865644711e-003 2.1063584495908763e-003
      -2.0822562636899095e-003 2.8864432769716460e-003
      -2.2287280881655815e-004 -3.2487751328682231e-003
      -1.6637057910007122e-004 4.6998134805608990e-003
      3.8753132525677085e-003 5.0920072121160846e-004
      3.8765447843678944e-003 -4.1325140825440396e-003
      -3.5444265093086376e-003 5.0864509520890072e-004
      -2.3708028945360927e-003 -2.7786058485877512e-003
      5.0810875860270470e-004 -4.5629303838797429e-003
      4.3015752880493779e-003 -3.7110712366382535e-003
      -4.3361205254166327e-003 5.1566338849717034e-003
      -3.9791159955182053e-003 2.0340101534452593e-003
      1.5944370790950350e-003 -4.0883589033024002e-003
      -2.1511219261158832e-004 -3.6493688271758461e-003
      2.2506392641068844e-003 2.2313667931869938e-003
      -9.4943131670522068e-004 1.9068519598256805e-003
      4.1296695600824569e-003 4.3091136164203139e-003
      -2.1552803689897926e-003 -2.3400453506371706e-003
      -2.3162366264342653e-003 -4.3794371809704746e-003
      -4.6294544969943292e-003 2.8776311372734212e-003
      -3.8795869166235544e-003 2.2428074307504825e-003
      -3.8358615237973214e-003 1.1728225894667322e-003
      -3.1071943215289495e-003 3.9861142294205492e-003
      3.1846707833046422e-003 -4.4334292756442548e-003
      1.4212821494564206e-003 -3.0470132373285825e-003
      -2.0911385281922727e-003 -3.1734441344305102e-003
      3.2304997057587123e-003 1.8990682160172911e-003
      2.8157064717315799e-003 -1.0528168660828793e-003
      1.7279837822281633e-003 2.9349992969469099e-004
      -1.0539831750296408e-003 -1.0257491711496904e-003
      -1.9984161965575249e-003 2.7051444621732901e-003
      3.1410314236137351e-003 3.4695272033325717e-003
      -3.5859455570172579e-003 2.4631046261454153e-003
      4.8925653244496553e-003 3.0571286351795618e-003
      -3.1468230988576803e-003 -4.1537954032868267e-003
      3.1003209163921342e-003 4.2295527443812157e-003
      4.2672138835083712e-003 4.2401261281558500e-003
      -9.6750614773076179e-004 4.1641127102173799e-003
      -3.2627687891940227e-003 1.7403475588227237e-003
      3.1621626851383788e-003 2.2643494649390024e-003
      -3.8198714859965029e-003 3.3853432037235362e-003
      3.2510993168348152e-003 -2.2327431882718102e-003
      -3.2721434942178571e-003 2.5183947571933746e-003
      2.7535367690862504e-003 -1.8107315983045035e-003
      -1.8517084449777930e-003 1.8629958307694063e-003
      -4.4672396984591608e-003 1.8433448687276799e-003
      -9.7411543408456171e-004 -2.7587052741414879e-003
      1.1951269973259403e-003 4.2687073922807791e-003
      4.7258985234843363e-004 1.1557961134744446e-003
      1.0055675149410234e-003 -8.8513746702735270e-004
      -1.5317276963743851e-003 -1.0018757495817245e-003
      -4.1994242521559734e-003 -3.0192986562172209e-003
      -3.9629218922747128e-003 -3.3775284583646132e-005
      1.9858372839450336e-003 -2.0716159669029082e-003
      1.6076168303270075e-003 3.0563454327652527e-003
      -1.3989180154272492e-003 -2.5769457616751324e-003
      4.9711290945740590e-003 -1.8211122489984531e-003
      2.5210516523581977e-003 -5.9822848514318682e-004
      1.2966824364491472e-003 -2.1502752877916669e-003
      1.9353294818848345e-003 -3.8159975277577248e-004
      -2.0159822884408289e-004 -1.2562906298949396e-003
      -5.0796805918467997e-004 1.0184311573069163e-004
      3.7786697693535963e-004 -1.8218697339330077e-003
      1.3274566711086063e-003 -2.2109453702163990e-003
      3.1026795601207706e-003 7.0381326436841631e-005
      -1.0515704000539669e-003 4.9283035142787535e-003
      -4.2832448781853513e-004 3.2856835427117446e-003
      2.4915079106945788e-003 -4.8543456915862730e-003
      3.8979093276328663e-004 3.5824317441728189e-003
      -2.2195046958161904e-003 -2.7203000943790503e-003
      -4.2001728049903941e-003 4.0741229681363700e-003
      -1.4919471293616145e-003 9.5384835544098196e-004
      -5.7336572277325460e-004 2.6467394420884032e-003
      4.0641075655601135e-003 -2.4437785743808222e-003
      3.0288291998666109e-003 8.0309408815687022e-004
      -2.1525956360041484e-003 1.4109957079640318e-003
      -1.8819726344801800e-003 -4.4736827791917880e-003
      2.1872761428835706e-003 -4.0600594512353133e-004
      9.1758736652363846e-004 4.0097982241848852e-003
      -3.5376286347447517e-003 -4.0441639786810302e-003
      -3.5419809209699003e-003 -1.8773187598502699e-003
      -4.7654023041936782e-003 1.1358322822972828e-003
      7.2094832605908187e-004 3.2826683028150880e-003
      -7.3613935721177212e-004 -3.0013772181585120e-003
      3.0456624837697992e-003 1.8930545431341983e-003
      -4.8609685821415054e-003 -8.9576565022660897e-004
      3.0285697469817638e-003 1.4546726520641203e-003
      8.4989960043608550e-004 -3.0328695698650658e-003
      5.0189697537539662e-003 2.1144588119505819e-003
      -4.6562680012438027e-003 4.7059797672945074e-004
      2.4529230046671309e-003 1.6330575746910856e-003
      -4.5274870512645735e-003 -8.2229519086903316e-004
      -9.4740187010106613e-004 4.3318102775026521e-003
      1.1507583521921767e-003 -1.8223202103237917e-003
      3.7729266146134728e-003 4.5805032836796905e-003
      1.5662744885507757e-003 -1.5201459399774709e-003
      -3.1877665380743722e-003 -4.2797259256367764e-004
      -1.8841173846132521e-003 1.9635713360748120e-003
      2.3469385729701451e-003 3.2391363213827682e-003
      3.3342050357456194e-003 3.9991405377923272e-003
      -1.3386380823605304e-003 9.2607705644261911e-004
      -2.4093521000327872e-003 -3.0071216758546337e-004
      -2.3702628421345327e-004 -2.6581435211411392e-004
      -2.1576163838851514e-004 -2.5817910664278246e-003
      -2.3309420450078979e-003 -1.0054975072634421e-003
      4.8278430666251751e-003 3.3916384278673399e-003
      -7.0768640657827508e-004 4.7081249332946587e-003
      4.4930166486924139e-003 -3.8751743812233627e-003
      3.5263266308409071e-003 4.1044882030785166e-003
      -2.4296362606537748e-003 2.7407218217761638e-003
      1.8286617436704742e-003 3.4134864401273459e-003
      -1.6361141159096726e-003 -4.3646721846362481e-003
      -1.8977456291292853e-003 2.8429671925708070e-003
      -2.4644484839508787e-003 3.5936981639492901e-003
      9.8746835829837667e-004 3.5418969312810381e-003
      -1.7773628033753920e-003 -3.8407289483803060e-003
      -3.0877454459673028e-003 -4.5616898387392186e-003
      -4.6875545453827676e-003 5.3209224059438964e-004
      -5.7278626318714400e-004 3.9245780587387107e-003
      4.5439439487753334e-003 -1.8848319855068276e-003
      -2.4805218024117671e-003 1.5554555068870450e-003
      -1.6981292767557366e-003 -2.4673428745266785e-003
      2.9613349598096015e-003 -8.6216581632468848e-005
      3.7425627644134163e-003 -2.3905863604121399e-003
      3.9621632718827510e-003 3.5873859894536607e-003
      -9.0240343236675554e-004 -2.8464935674232484e-003
      3.3779062861133097e-003 -4.2591812174551952e-003
      -2.8032617465259075e-003 -4.7416080137275595e-003
      2.8942625583741888e-003 -3.8493527340057536e-003
      4.0306099985372256e-004 -2.3890890985498584e-003
      2.8401316760132303e-003 -2.3043934960146509e-003
      -2.3126749485672103e-003 -4.0279833307027722e-003
      -2.0574407019897717e-003 1.3484791408244514e-003
      -2.8834617075532707e-003 4.4224603303089889e-003
      1.6014880662567890e-003 1.5855434954729524e-003
      1.5080223604761441e-003 8.7314669041207678e-004
      3.5704601091568278e-003 -2.0578547290918230e-003
      -4.6130028857043689e-003 3.4635367958793513e-003
      -2.6065637618154019e-004 1.0701625379749594e-003
      8.4473290218875388e-004 -2.1491281186268186e-003
      -2.4435903814171689e-003 4.8396512509930106e-003
      -3.2169394979653571e-003 5.1619529733347783e-003
      6.8285537649022312e-004 1.5258547810191648e-003
      -1.9573949128976129e-003 4.3167233204608763e-003
      4.2853341070208748e-003 3.5936558696162738e-003
      -2.7979386289166764e-003 5.0491108055112635e-003
      3.0477921394776150e-004 1.2961795683618064e-003
      4.7032219875550625e-003 4.4882112599707738e-003
      -2.2285441238296356e-003 -9.8300971548921515e-004
      9.5630059973688200e-004 -5.0258135920656108e-004
      3.8412279939672767e-004 2.3435258911095208e-003
      -8.7977757825764467e-004 4.0516431316928768e-003
      4.6100217065952855e-003 -1.5015662046686045e-003
      3.2364255386143543e-003 -4.4279295209453595e-003
      -3.0576121761382766e-004 3.3873181999466411e-003
      -4.2950899902523413e-003 1.6040736245267679e-003
      1.4961500229958094e-003 -5.0956957870746549e-004
      -4.5712289473428510e-003 -3.0988346955645183e-003
      6.7464910357217117e-005 -1.7109320765968012e-003
      7.1420371520698528e-005 1.8688772514382646e-003
      -1.1395012547844039e-003 4.6078990801377354e-003
      2.1324312852632477e-003 -4.7354712999357271e-003
      4.3042005080525398e-004 2.9424347197031372e-003
      -2.3032814594515952e-004 -1.7362039948996804e-003
      5.9721609964249957e-004 1.7074177167336157e-003
      4.6267750366163398e-003 2.7203129641212172e-003
      -1.9787431160939364e-003 4.6966174061115924e-003
      -4.5153799378030452e-003 2.4261248299017775e-003
      -3.1279825804813371e-003 6.4457716037098095e-004
      1.5347805190110270e-003 4.1012145667171478e-003
      -1.1942932108618682e-003 -4.7168571252570882e-003
      -3.9826374182953478e-003 1.6081560113274883e-003
      -4.7348201954982700e-005 6.7434797500688995e-004
      -2.5773998030595336e-003 1.2849586425357746e-004
      1.6646258385707841e-004 3.4771863785385804e-003
      -7.0815453172679975e-004 3.5066104188695860e-003
      2.0462953756550050e-004 -1.3837582977269715e-003
      -1.0986174593051521e-005 4.3401523393741858e-003
      4.6898127052449343e-003 2.5470356418627249e-003
      -3.0571936584756270e-003 2.5858899080707424e-003
      2.0472722522242941e-003 3.0388416120986318e-003
      -6.4257334455487781e-004 -4.1020953128887020e-003
      -3.6389870789516479e-003 3.3862912316147812e-003
      4.6832816358236091e-003 4.2044556233187284e-003
      3.2749864584341679e-003 -4.6664375593143542e-003
      3.0065920983694126e-003 4.6615041244590094e-003
      -5.2685023684934790e-004 3.2840624765676676e-003
      -3.9354965315139417e-004 -3.9032878612826820e-003
      1.4818657536588289e-003 2.2129683846624972e-003
      -3.9137366777333834e-003 -1.0815082662952254e-003
      1.5907191177359004e-003 -4.5498512325032351e-003
      2.4470970329042545e-003 -2.7411416114966501e-003
      -4.7378192378403705e-003 2.9201169663616447e-003
      -1.6718968823751920e-003 2.3320035694354472e-003
      2.6560474365059381e-003 -2.1459549804838224e-003
      3.6810930258131291e-004 -1.0918728851209251e-003
      -2.5897736558792863e-003 1.2662636529412665e-003
      -4.1016655148711145e-003 4.6861431381132728e-003
      -7.3639470038115490e-004 -1.7364607969628972e-003
      -2.6136032370175032e-003 6.7225242769337749e-004
      3.4734007095860607e-003 -4.9575868905279170e-003
      -2.8292946732124038e-003 2.0617692586471430e-003
      -5.0684181283601427e-004 1.6307093735353044e-003
      3.2540446446858999e-003 1.9555406290405089e-003
      -9.2840574203413139e-004 1.7448383994783758e-003
      -3.6714198014812897e-004 -1.6701089295383009e-003
      4.4756380724683522e-003 4.8388352995544946e-003
      -3.1730998450739799e-003 -8.2291570583766221e-004
      -3.4326616776510261e-003 -8.3727255543920062e-004
      4.2661511845251058e-004 -5.1314044922523240e-003
      -2.4903153421602904e-003 3.2612277774699333e-003
      -2.3221272378894683e-003 -4.9891340139843264e-004
      -1.8271867646407446e-003 -9.8889759958796248e-004
      5.9882747950629084e-006 -3.1209443941522070e-003
      4.9264133641204475e-004 2.9430808183473958e-003
      -2.4331389050270724e-003 -1.1996931982755049e-003
      3.7946857511109888e-003 -1.8504522073809441e-003
      -4.0860343117734245e-003 -4.0238585081462056e-003
      1.8695082089443876e-003 6.1799854958289008e-004
      -3.2037265069745115e-003 -2.6140450876223557e-003
      1.1556471896208833e-003 -3.5948268799641464e-003
      7.2645849015746781e-004 -3.3129657518928537e-003
      -4.6421292136478234e-003 7.5676569700772916e-004
      3.3219485422765599e-003 -2.6295631296605593e-003
      2.7890224024764137e-003 2.3088030338653075e-004
      -8.2615345098788358e-004 1.5413376903583353e-004
      -2.2159911162229866e-003 -8.5940809904821167e-004
      -2.2728536653892325e-003 -2.6295792859326947e-004
      -2.5704033437261656e-004 -2.3459478506514171e-003
      -2.5939110894525595e-003 4.4065455567517224e-003
      -2.8502259316247744e-003 3.1150062531443701e-003
      1.2460105906843043e-003 4.5709490054655745e-003
      -1.9187282660005707e-003 -2.7066031048125368e-003
      -3.8310744706149288e-003 1.6694684709550205e-003
      -2.4969315573338553e-003 -2.5956457852943020e-004
      3.6143513196660324e-003 -4.0449417833611874e-003
      3.1472977933630030e-005 1.4732349167335239e-003
      -7.7715963565945428e-005 -1.0751530896694122e-003
      2.0953081912117220e-003 -4.0504339568270455e-003
      4.3371705914425473e-003 3.6397261437061930e-003
      -4.8022760004250648e-003 -2.0798970233880903e-003
      -6.1573182623063751e-004 -3.7599146918981651e-003
      -4.0346363581717877e-003 2.7628967249706824e-003
      1.5133022535191115e-003 -4.0251695751829623e-003
      -1.1026374770916065e-003 -4.1012339189164053e-005
      2.9914963843896969e-003 -7.7133475314892879e-004
      -4.3126864069224181e-003 3.8332902331423453e-003
      -2.4082798703766858e-003 2.0117794757436632e-003
      -1.4760858728206110e-003 4.8658355336863301e-003
      -2.5760508947261312e-003 -1.4939390705217825e-003
      4.6289386422672064e-003 1.5138144698627124e-003
      2.9300316854352633e-003 3.6745625529746848e-003
      -1.4051763931695392e-003 -2.7783242717376502e-003
      1.7432875039738419e-003 -3.4737545385920012e-003
      2.2800883041274050e-004 4.1646297492304810e-003
      -4.6644746661571477e-003 -3.6289101593428423e-003
      3.2502380156689266e-003 3.0070628359797551e-003
      -9.7660066335177932e-004 -1.0364024717427714e-003
      4.7280837658071010e-003 4.3115538404592648e-003
      3.6768922875698830e-003 -1.3249967704896367e-003
      1.8643363520729397e-003 3.4599309545405104e-003
      8.2333020915407789e-004 1.9174690261145990e-003
      4.2423045892235776e-003 1.1575119945754740e-003
      -1.9441205086129280e-003 -9.5220368209893863e-004
      4.2324513329826579e-003 6.8803207891232436e-004
      1.9936502809399055e-003 1.5313349416103529e-004
      4.4471626398643440e-003 3.8901034668995942e-004
      1.1870435166826748e-003 3.4845724850691910e-003
      -4.6524788869505146e-003 -4.4444689224707552e-003
      1.2229822079533441e-003 -1.4982662338495489e-003
      1.0786112593368269e-003 -2.8019206731116921e-003
      -2.3640450307273724e-003 2.6301756514053591e-003
      -3.7223349398086470e-003 -2.1032321024913234e-004
      2.5588053504673751e-003 -3.2753831401402147e-003
      -4.4240174222727399e-003 -3.3473209221574488e-004
      -1.3899238095676771e-004 -6.1619802347339238e-004
      -4.2278231941955879e-003 -9.0295825450381097e-004
      4.8089652594817750e-004 1.8664975157177254e-003
      -4.1502334254598051e-003 -1.7577368866239030e-003
      1.5344180507460509e-003 7.4855675650853804e-004
      -3.0684840578158348e-003 4.9253025559326830e-003
      3.5713438097376097e-003 4.5473880233665859e-003
      3.7217682063956305e-003 -3.4278985812146749e-003
      -2.0760406347174565e-003 1.2455785907180801e-003
      -4.3285276459608876e-003 4.7324669415129833e-003
      3.3230104972150048e-003 -2.8213522613718509e-003
      -1.3274010863282854e-003 -2.8847170504403960e-003
      2.0196090268510881e-003 -2.3548048371413452e-003
      -3.0499132001309604e-003 -3.4226296353080291e-004
      3.9206668316373898e-003 3.9227627005271682e-003
      -4.4070745864588246e-003 -1.7269382830383184e-003
      -1.6430389378695696e-003 3.0915916013913407e-003
      -1.2948331088329266e-003 -1.3910142775834012e-003
      -1.0025340610577899e-003 -4.4160774584669927e-003
      -8.2783700962227595e-004 2.5756836217156269e-003
      -9.0916433784548515e-006 4.6692736270851146e-003
      -1.7557513247067565e-003 8.1572442145993887e-004
      -6.7718053846921355e-004 -3.2076201173423312e-003
      -1.5750331849956486e-003 -3.7097954574032864e-003
      3.6371947468125886e-003 2.1240459348663850e-003
      4.5771138454064400e-003 4.6512946804877393e-003
      -7.6552651139904593e-004 -4.4132979181611921e-003
      4.0995900545092445e-003 2.3403234978529733e-003
      -1.3745301017782994e-003 2.1645172021401119e-003
      -4.2769013328250770e-003 -4.4582697855003522e-003
      1.3992546603450813e-004 -6.0246953916726960e-005
      4.3838142883372289e-003 -2.2031123929905938e-003
      -2.3478297981410290e-003 1.3472225875310545e-003
      7.3494668397963594e-004 -3.6565043950433831e-003
      -3.6542312224672434e-003 3.5459343957911652e-003
      1.2769589795176646e-003 1.6813698596694056e-003
      5.7499471709463899e-004 1.6631260301051124e-003
      -3.1680769955756537e-003 -5.4999698516686895e-004
      -1.3213052931879531e-004 2.0096443335905051e-003
      3.7225986258980053e-005 -2.4432784346977597e-003
      -2.6120236501021867e-006 2.2680132849204437e-003
      -3.7189905765090394e-003 1.2490153679090596e-004
      3.8907705879788609e-003 4.5892937928784421e-003
      1.1153558925067579e-003 -3.5372005917979669e-003
      -1.3056118520453678e-003 2.7917719549241772e-003
      -4.8957903478149762e-003 -2.7266562030407813e-003
      1.5176714188057390e-003 -3.5086137322659916e-003
      1.8733651353236601e-003 4.9775590416218859e-003
      -2.7855156685532472e-003 3.4177600412352211e-003
      3.4289741499960872e-003 -4.4807223194995886e-003
      -3.1448554690451224e-003 -9.0313838201451231e-004
      4.2567933739408293e-004 4.3217719796049088e-003
      3.2686764120715001e-003 -1.0318933945912760e-003
      -4.8082751626960058e-003 2.8588103915278924e-003
      1.8754582236144718e-003 2.8819175121052821e-003
      2.8087390596225866e-003 3.7446296845933362e-003
      -3.2374424783051473e-003 -1.0092407298500055e-003
      -1.1594318304045861e-003 -3.7006792782393492e-003
      -4.8548869133926888e-003 -2.8638770576296302e-003
      1.5645507249782702e-003 3.5515686524584308e-003
      -1.7673190325954418e-003 -2.8754855272457125e-003
      -9.8206276017617387e-004 -3.2027357207178200e-003
      -2.0933723166414800e-003 3.6389906416246262e-003
      -1.7396568935210109e-003 -3.6687447401666023e-003
      3.6599821157312943e-003 -2.2825251733305340e-003
      -3.8950046222393894e-003 -4.2207101862792281e-003
      -1.1188263884665910e-003 1.8519480255265567e-003
      -1.6026181835985581e-003 -1.1923029500435494e-003
      -4.2266742018087439e-003 3.8375475964581309e-003
      -1.4542910807288532e-003 -1.8332755881539020e-003
      7.2978588911098432e-004 -1.2192299098968823e-003
      3.4457361031726575e-003 -2.4511778434498374e-003
      -4.2033808312813845e-003 -2.8202107756870091e-003
      3.8536978652563537e-003 -2.9610039521365053e-003
      1.9856267622819714e-003 -1.8777075003469030e-003
      4.2693661053350941e-003 3.2674934774664052e-003
      -1.5415989098477925e-003 1.1809385579844129e-003
      -1.8404073211460603e-004 -2.1183465252304565e-003
      1.7957709994791612e-003 -3.6447023072264948e-003
      3.8583195801601524e-003 -2.6197182628301262e-003
      -2.9352922929167468e-003 -7.7514968181387884e-004
      2.7022258620527872e-003 4.3978375064463527e-003
      1.9508226898159147e-003 -7.4169705178093906e-004
      3.6663337924105474e-004 3.2264323797381498e-003
      -2.0995514136097231e-003 -3.4923107949076827e-004
      -3.0389138825220523e-003 2.1243896285543535e-003
      2.3539918154033470e-003 4.8721425693837523e-003
      -1.5839862334468130e-003 -1.4177830106338698e-003
      3.1617381344998040e-003 -6.6232284846096448e-004
      -2.7307556368608293e-003 2.1705630662639231e-003
      1.4712663621642599e-003 1.0418898964502554e-003
      4.2637884764122379e-003 3.7579938271329455e-004
      -2.7268634664340168e-003 3.7670530067799046e-003
      4.9331330995699670e-003 2.2055657533985820e-004
      -1.2153775079367718e-003 4.8641320801089171e-003
      4.0690363215115447e-003 4.5652385490528612e-004
      2.9819231910571111e-003 -4.0664033087593398e-003
      4.2141917929488307e-003 4.3631403397140648e-003
      -4.0046069567249042e-004 -3.2311171202963384e-003
      -9.6659743050111319e-004 -1.0930811726143465e-003
      1.5341141373694249e-003 -1.3721731605861797e-003
      3.7396853008890914e-003 3.8723999062832211e-003
      3.7732197366287701e-003 4.5926277210098544e-003
      5.0521872157478246e-003 -4.0319046591121392e-003
      8.7375048013894451e-004 -7.0862125567542494e-004
      4.2385029433402088e-003 -3.5665585461373841e-003
      -6.9755546779678469e-004 -4.3386741899087301e-003
      2.3165813974989316e-003 3.1011833097876907e-003
      -2.6964629541900331e-003 2.9380234113818085e-003
      6.9747925014212336e-004 -1.3120572371039952e-003
      8.9735803451946965e-004 1.6813083580076104e-003
      -5.0491842759991005e-004 2.8056836894258651e-003
      -4.7575342966837497e-004 -3.0167989610360695e-003
      8.8084549550459710e-004 -3.9036480193153961e-003
      -3.3609778890720809e-003 4.7143988456940537e-003
      -4.5657699690021527e-003 -4.4500675917273722e-003
      1.2515716598975493e-003 2.9252664542367360e-003
      -3.4807923204515983e-003 -1.9814290017686450e-003
      6.0280668802095434e-004 -3.7603733048137303e-003
      5.8713630881621157e-004 8.7296144637413449e-004
      3.3138580530580222e-003 3.6264556259210123e-003
      -3.3404557103009968e-003 -2.1137735193197263e-003
      4.1834185777548686e-003 -4.2061124928995455e-003
      -8.9261540750573546e-004 -3.0187083524271276e-003
      -1.5141699540767691e-003 -3.0424331570659377e-003
      4.5586327237650938e-003 -2.1977635159672331e-003
      2.0064155004187456e-003 -4.8062167688743881e-003
      4.8417855726310939e-003 4.3948817091649675e-004
      -3.3789263406996039e-004 -1.6158935978322030e-003
      -4.8026048631158768e-003 3.4544099285683102e-003
      -5.1615784533290548e-003 4.2282209138255677e-003
      -4.4920314474323660e-003 1.3989283398626753e-003
      -1.0133057403962956e-003 -1.0553091167282952e-003
      8.6816838000349894e-004 3.3737332000804078e-003
      -4.7754562599558008e-003 2.7848699596124595e-003
      -2.0604497661390335e-003 -2.3057402987873956e-003
      -4.1812312259641403e-003 -2.3649581191526447e-003
      -3.3612790216893877e-003 3.7243447820258061e-004
      -3.7816253728278214e-003 3.2459545486010323e-003
      2.2386265882187082e-003 1.4131180070820896e-003
      4.0507558257736999e-003 9.2083796449038326e-004
      2.3933020876577235e-003 3.4166590399760674e-003
      2.4620480901285493e-003 2.1347394471491025e-003
      3.6886520299003857e-003 2.2760655867603468e-003
      -1.4707520082898580e-003 -4.1410981007418048e-003
      -3.2493607705877093e-003 -4.5684058959213321e-003
      3.5336001590784878e-003 -1.1726017602793084e-003
      -4.1701816934648977e-003 2.9851406422346997e-003
      -3.6592867754609536e-003 -2.4334430697872432e-003
      4.2784461029351404e-003 1.6092174813016843e-003
      2.2010747341775303e-003 -9.3657987029859588e-004
      8.8134531591816680e-004 2.4621950258795081e-003
      -1.2500062815278782e-003 -1.5576501765648693e-003
      -1.9013897555650461e-003 -3.6210768975372034e-003
      -6.1602581821065252e-004 8.1582161070377129e-004
      1.8143069755548588e-003 2.1485011162903521e-003
      1.2422201942492177e-003 2.6048830683187574e-003
      4.1971782999374423e-003 3.2479562444015873e-003
      -1.7701958334028973e-003 8.5679016893902766e-004
      -1.6954380761264928e-003 4.2114428017525837e-003
      -3.7810548118201214e-003 -3.8776105011889567e-003
      -1.5539291110835602e-003 -2.2949837096613184e-003
      -3.5856382456260117e-003 -3.1024705378622122e-003
      2.6222259670192244e-003 1.6069511524299974e-003
      1.7718380107540949e-003 -2.1873132756900287e-003
      1.2560315937435841e-003 -2.2190361440390174e-003
      -3.3835101626067910e-003 -1.9120094586419999e-004
      -2.8781202121626820e-003 2.0096406748251710e-003
      -2.1334061091600365e-003 -3.2653435895553759e-003
      -3.5060355132724911e-003 -1.7562727287359479e-004
      -3.4206917521062440e-003 1.8274113637523669e-003
      -1.1833191568893966e-004 1.6720961224374086e-003
      -2.0272018234758480e-003 1.0744912237818953e-003
      -1.5469307720483317e-003 3.5546425884917239e-003
      4.4329764802183303e-003 1.1195550531286479e-003
      -4.5919320368559401e-003 2.4670971812480644e-003
      7.7680048147292708e-004 3.9394027968645299e-003
      -4.4313615062590989e-003 -3.7044119198431568e-003
      -2.6404599228509865e-003 -2.5419352980309597e-003
      -3.9090120899019356e-003 5.1934564902344027e-005
      2.5783814865067930e-003 1.4935054853532176e-004
      2.3010730207590289e-003 2.5597252656305099e-003
      4.2200501508713592e-003 2.0143535488851014e-003
      1.1741156000303859e-003 2.1664615364160302e-004
      -5.0095233970643919e-003 1.0655550847853822e-003
      -1.9749650133699562e-003 -5.3608348231197196e-004
      -2.7497579909082858e-003 -5.2909409513776824e-004
      9.3990720080492762e-004 7.2633003624016491e-004
      -1.8088785890844846e-003 4.5594562554564805e-003
      -4.6578290267129078e-004 -3.4250145568218513e-003
      3.2168918263403325e-003 3.0402798916037729e-003
      -5.0451672572618452e-003 -2.8568682370131212e-003
      -3.1503695216996532e-003 3.5552598152417164e-003
      -2.6001430514731002e-003 -7.4868205857372736e-005
      -3.5041813263178771e-003 4.5264328426026781e-003
      9.7420094368280751e-004 3.0924757719915205e-003
      3.7931531252583797e-003 -6.5282265249348508e-004
      5.5224079416243185e-004 -3.5424317066425682e-003
      -1.1804801188050218e-003 1.3635383368507214e-003
      8.4010101950098514e-004 -4.7780122471998750e-003
      -1.5071276486873853e-004 3.2677144880491047e-003
      -2.9568243568345817e-003 -3.4956297337144491e-003
      -2.2884557403602978e-003 -4.7003177324228106e-003
      2.4442410727658443e-003 -1.3813087408187151e-003
      -4.9674765799387829e-003 -4.4369818425278318e-003
      -4.7546844783551440e-003 2.2700320988212415e-003
      3.3852415480821094e-003 -4.0126133612524021e-003
      -1.2490345998560895e-003 1.4936887896371328e-003
      -3.2740623538912534e-003 1.1279320621331347e-003
      -3.0907881965551928e-003 3.9462739925354472e-003
      3.8635781833451449e-003 -3.8739622724918423e-003
      8.2564877909904592e-004 -4.2216457465507808e-003
      -2.1941514993576165e-003 3.0163561240619538e-003
      -2.7267123623664919e-003 3.5782258104779213e-003
      -1.9219650359011666e-004 1.4583101155037548e-003
      -3.9946626236848776e-003 4.0011455214759221e-004
      2.2408308812427793e-003 -4.1783951030285238e-003
      4.5756095854565569e-003 4.7465086417493984e-003
      -2.0760488933930670e-003 2.3277778307272757e-003
      -3.1226393147649992e-003 4.0137629712296416e-003
      -4.8870210280194757e-003 1.1854613350503972e-003
      4.5892478164097326e-003 -1.8675520994880157e-003
      -4.8516916228133304e-003 3.8456689399414670e-004
      -3.7839748540587585e-003 3.7572726592869387e-003
      -2.7707961119524311e-003 -2.4649900780121950e-003
      3.3445973310662912e-004 -4.4764712875324450e-003
      2.0649106628964849e-004 4.7901780545260382e-003
      1.0675833001688733e-003 -3.6230892762888559e-003
      3.5402342709769238e-003 2.2069679542109540e-003
      3.0318175511530776e-003 3.4355413588313842e-003
      -6.6664299167475236e-004 4.5416816739315882e-003
      4.9196513347845305e-003 -1.9784572403296441e-003
      -1.2768254223518526e-003 1.8938228976321983e-003
      -3.1123444512596741e-003 8.5820376791858493e-004
      -5.9213131351599862e-004 4.7937878230331831e-003
      3.3231571395259232e-004 -3.4073961120802310e-003
      -7.4444217197775246e-004 3.8449658779335931e-003
      4.2362495124178357e-003 4.0052983539618477e-003
      -2.8823336356550160e-003 4.7972645791594520e-003
      -6.9708740887207724e-004 -2.9793995300497261e-003
      1.9934082162082400e-003 -1.9689816315658117e-003
      -2.4899341199124494e-003 -3.7885785012550465e-003
      -1.6006753237588903e-003 4.2173044689356627e-003
      -1.9071000352112722e-003 1.3687587961310917e-003
      -3.2259874851955938e-003 5.1364037392746132e-003
      -3.5107476132609085e-003 1.9444409347205106e-003
      -4.6307282883067671e-003 4.7594610986902682e-003
      -1.7801716693787342e-003 -5.0887293660090305e-003
      3.3850219679941564e-003 2.4132990212967949e-003
      -4.6563384817370360e-003 4.1398818259079564e-003
      -6.5009141226595325e-004 3.0601286833964883e-003
      -4.0674403850611664e-003 -3.5857650173955575e-003
      -4.3692843689782952e-003 8.6368634889721853e-004
      -2.1496474009054206e-003 1.0263399304293184e-004
      9.2948939446187465e-004 1.0237688039163089e-003
      -2.0265680246258659e-003 9.8045803066563867e-004
      -2.5236784904259641e-004 1.5727924967585093e-003
      -2.9737845426430717e-003 3.2459790776502014e-004
      1.5947003406249819e-003 3.1513907970896482e-003
      3.0038071613091803e-003 -3.6900325129719082e-003
      -7.2227873405410648e-004 -2.5631176026530656e-003
      -4.6680787670235523e-003 4.1578842253704772e-003
      3.6033495123886593e-003 2.1500293050439072e-003
      -2.6400245588015596e-003 3.8919443658380587e-003
      2.9069310568211487e-003 2.0724689206177510e-004
      1.9625163667489009e-003 1.1374292347504822e-003
      2.8533835833288285e-003 1.5595629791258360e-003
      3.1445780081430078e-003 -2.8032446784076090e-003
      -2.2168195920559820e-003 1.2862562500914755e-003
      -1.9439954429767549e-003 -2.7475814767080543e-003
      -1.9346443525880281e-003 1.0190554329080664e-003
      8.1448245794013140e-004 4.0755615785399999e-003
      2.9246044162376831e-003 8.7489632790645970e-004
      -4.4350263540091073e-004 -1.1414206736045744e-003
      3.1945453262938435e-003 9.3992453096310689e-004
      6.9491102831352838e-004 -2.7283564804901871e-003
      -3.6148059776564706e-004 -1.9454335087318419e-003
      -4.6183170041372750e-003 -4.6728032203652630e-003
      2.7322191013090021e-003 -3.3684376528685493e-003
      4.5941469641824285e-004 -2.4493912251429407e-003
      1.1863648874191478e-003 -1.8831772136510513e-003
      -3.3272544655017569e-003 1.3725106978263132e-003
      -3.0926782563436323e-003 4.1708985355932396e-004
      3.2208958009871933e-003 1.4372354868932337e-003
      4.4980797543295488e-003 -4.5345717326389905e-003
      -4.8509184354043437e-003 3.5560710521530302e-003
      -2.4381412857450106e-003 -4.6789493697921621e-003
      -4.4294990888884824e-003 2.7137525926839360e-003
      -7.8663643944641373e-005 -4.6836504848198068e-003
      -3.4498204770849906e-003 1.2180863294188823e-003
      -4.2906359919444295e-003 -1.9449909752313917e-003
      2.9909704882622547e-004 1.7768484712696012e-003
      3.9951902542655028e-003 1.1874384443957414e-003
      3.3425340597871046e-004 3.0630592397158430e-003
      1.1239385831826195e-003 -2.9405788540911868e-003
      -3.2177526068619768e-003 3.7767380277239546e-003
      -3.4675452741078131e-003 -8.9219784239875455e-004
      -5.7023583401520390e-004 -2.3245408346488127e-003
      7.8861987990807984e-004 -2.6117477508819918e-003
      4.4356991975370123e-003 -3.5855366667424528e-003
      2.4216811053808522e-003 2.4287684686802964e-003
      2.7077570236381881e-003 4.8927980192230418e-003
      -5.0627460253129214e-004 -8.2243414458874661e-004
      2.5728529540919236e-003 1.8187054090596007e-003
      2.3956193096730220e-004 -3.8636385632149460e-003
      -4.8682135780117337e-003 -4.1984235093635398e-003
      -1.6803219807217668e-003 -3.4061417460952799e-003
      4.9303575057924555e-003 1.0322625298978313e-004
      2.2275771015580078e-003 -2.5292348987189981e-003
      2.4335818592757185e-003 -4.8476726635895678e-003
      -1.4213231652305465e-004 -1.6844398816169908e-003
      -4.0788173174394958e-004 8.0061329825606268e-004
      4.2907483303621201e-003 -3.8245926103690848e-004
      -2.9161431362819887e-003 1.7391460107321741e-003
      -1.4994083285473103e-004 2.5491722647163068e-003
      -3.3439278421429734e-003 -1.5079500660636924e-003
      2.4652123616214494e-004 -3.3589499216226193e-003
      4.1785198447804881e-003 2.3784550632362369e-004
      -3.3128719365588854e-003 4.1467892886423519e-003
      4.0542044688994441e-003 -2.2050087471490033e-003
      -3.8082310452576267e-003 -1.3242387019078762e-003
      -8.5703240788172620e-005 4.1790232745207305e-004
      -4.3859117789445184e-003 -9.7886432217794654e-005
      3.8096315466101534e-003 1.3166832152260739e-003
      3.9001798040830911e-003 -8.7691322855022106e-004
      -2.2334106748155705e-003 2.1387270353332272e-003
      9.4741477303509898e-004 3.2776809843691524e-003
      2.5597349874420259e-003 4.7629358835966406e-003
      4.6522053134242366e-003 2.1436730477212740e-003
      1.3837672011595039e-003 3.9629123883329681e-003
      -3.4570566913050115e-003 -7.3036556521611780e-004
      1.8337400409721544e-003 3.0219425674972073e-003
      -1.5074255485661866e-003 1.7534316582259201e-003
      3.9830719100564715e-003 -4.5698646951901822e-003
      -6.9498440742623939e-004 9.0902932686618668e-004
      -2.9508905783461525e-003 9.8938735833807253e-004
      2.5705384226829189e-003 -1.8384329511515489e-003
      2.8037539685193034e-003 -2.3221290729142862e-003
      3.6590683656271641e-003 4.4210986381445945e-003
      -1.9563056610467072e-003 -8.4975820291929469e-004
      -2.1582372773941076e-003 1.6586959104027824e-003
      -2.9541098831063002e-003 3.1393123480079883e-003
      -1.4527274982215194e-003 4.2888376479896214e-003
      9.1682784693748233e-004 4.1888922583394831e-003
      1.1607947752610202e-003 3.6248578324600653e-003
      1.6688871508270067e-003 -1.1319837821455296e-003
      1.4170945042756451e-003 3.7609660191393344e-003
      -2.2091600413880314e-003 3.5484135709873761e-003
      -3.1486441220529905e-003 -2.4051165621599921e-004
      4.2556117191602134e-003 -4.5844282996170055e-003
      -3.5405616062984678e-003 -4.3628375376788212e-003
      1.7787263956908312e-003 -8.0738195236719401e-001
      -1.0049497529828761e+000 1.1158796372566995e+000
      4.0896471742647620e+000 -1.4212188608299414e+001
      1.1196138465375751e+000 -1.2909682481659299e-001
      3.7008677778547252e+001 -3.2299702013956993e-001
      -6.6769106648525476e+000 5.1495765182007087e+000
      -1.0265113943514783e+000 7.7891566139862733e-001
      -6.6154280775981222e-001 -1.3882900239161369e+001
      -3.0178310339500789e+000 -6.1423419487667327e-003
      -4.8248338321332945e-001 -8.5763940489252888e-001
      1.8709300203817864e-001 1.3870422226238230e+000
      2.9844584291584198e-002 6.8450336928323219e-001
      8.1520687973335857e+000 -7.2622373284720598e-001
      -1.2752100859138538e+000 -8.5139587975826210e+000
      -5.4370998493660450e-001 -9.8486759492162179e-001
      -5.0994344890913035e-002 5.1204754398422270e-001
      5.9003348905702113e-001 2.3074785469825807e+000
      1.4644274086466105e+001 -2.3380788619274249e+001
      -8.2362847911049211e-003 1.1429864301468458e+000
      1.8386427409879813e+000 1.2616329953497574e+000
      -1.5691319208713945e+000 -5.0491834907341211e+000
      -5.2944396864792962e+000 2.3201109594192828e-002
      -2.0169615135611686e+001 -7.4939550817875256e-001
      -4.3814549568658695e-001 1.0292218574920542e+000
      7.8164337714650067e-001 -8.7223780640495496e-001
      4.3421739856779423e-001 -1.2981383811641567e-001
      -2.4689190091623936e-001 -1.8643109885761205e-001
      1.6004129134452349e+001 -2.3802364994797001e-001
      -1.2612159917969328e+000 6.3162023207872176e-001
      -6.1081886478594949e-001 5.5637192840564598e-001
      -9.8585672313860684e-001 1.4079576366421089e+000
      6.5076115078421424e+000 -1.3189466770083508e-001
      -1.3098618283155263e+000 -4.9446405421915623e-001
      -8.0233385586314609e-001 -1.0063645037670783e+000
      1.1163676362892554e+000 4.0822812041675807e+000
      -1.4217509937533681e+001 1.1174463358144857e+000
      -1.2442520896085069e-001 3.7009675995072818e+001
      -3.2346053862046120e-001 -6.6747898411008766e+000
      5.1520871224836258e+000 -1.0266209101829360e+000
      7.7894295702705341e-001 -6.6114704295626492e-001
      -1.3886005011979178e+001 -3.0231288124723839e+000
      -6.1108032691397137e-003 -4.7760408178754138e-001
      -8.6339072344386669e-001 1.9205970817836049e-001
      1.3837956717032212e+000 3.5242824633767100e-002
      6.8141686243037747e-001 8.1546939059352095e+000
      -7.2109623126919276e-001 -1.2808777514575156e+000
      -8.5123061978965442e+000 -5.4810323652358572e-001
      -9.8118242286376767e-001 -5.5779684061190438e-002
      5.1637226922528878e-001 5.8994717087823734e-001
      2.3101566244431453e+000 1.4645836669113272e+001
      -2.3379541868821310e+001 -6.8006800045699728e-003
      1.1477086665433605e+000 1.8378009305076235e+000
      1.2666718915994752e+000 -1.5669929015467703e+000
      -5.0459666933827867e+000 -5.2949844233607761e+000
      2.2733185421391654e-002 -2.0173962607700421e+001
      -7.5213857586736077e-001 -4.3396665007921170e-001
      1.0292549095763974e+000 7.7418747063979121e-001
      -8.7616578077270812e-001 4.3290053719691796e-001
      -1.2647467699969211e-001 -2.4088751786757473e-001
      -1.9450690678752314e-001 1.6010746991676733e+001
      -2.3416955257738040e-001 -1.2620003828182302e+000
      6.3072932731697673e-001 -6.1329904462040141e-001
      5.5421192829842514e-001 -9.8227272790662479e-001
      1.4063307389277582e+000 6.5142669701997011e+000
      -1.3068053599449320e-001 -1.3188139986532394e+000
      -4.8915859634144493e-001 -8.0408143147416278e-001
      -1.0102032799687146e+000 1.1235634795477552e+000
      4.0919734886335828e+000 -1.4211941910792625e+001
      7.8350205191606581e-001 7.5979574184462995e-002
      3.7016286983027292e+001 -8.7496292879680793e-001
      -6.6768590446643401e+000 5.1461754920856393e+000
      -5.7254407967152643e-001 7.7609477703327001e-001
      -2.5079805912444353e-001 -4.7402907875657139e+000
      -3.0218310220967366e+000 -1.5411663248364199e-001
      -3.7903918747799453e-001 -8.5441744723599378e-001
      1.0317614667618946e+000 4.8729627332992764e-001
      -1.9874029447665439e-001 2.9098010762233584e-001
      7.2593492344472619e+000 -1.4146137132009815e+000
      1.7480147175239413e-001 -7.3885189664507314e+000
      -2.2345117195164483e-002 -9.8088870663525207e-001
      -1.8323233059191743e-001 5.1535293056557696e-001
      5.9421396141366922e-001 2.3123509038287029e+000
      1.4648190147197752e+001 -2.4895300460439788e+001
      4.2363522382789720e-001 5.5543015114942897e-002
      9.9114560275359909e-001 1.2685123970345162e+000
      -4.6594564796760524e-001 -4.6073297438394212e+000
      -5.2934424346067201e+000 7.0319390050470054e-002
      -2.0170421156803471e+001 -7.5855953508524243e-001
      -1.3088787269396145e+000 1.0369551621555044e+000
      7.7290376654997439e-001 -8.6829304075951708e-001
      7.2075676843378333e-001 -1.4422860602303350e-001
      -5.0510412078831735e-001 -3.0759323455348403e-001
      1.6004741762636559e+001 1.8497528398543200e-001
      -1.2567154021319047e+000 4.8811401641040758e-001
      -8.7357487963585634e-001 5.5774041185544465e-001
      -3.1301890528222098e-001 1.4084974972208983e+000
      6.5081282880436122e+000 2.6507415637401766e-001
      -1.3119920435143009e+000 -4.9035737739654600e-001
      -8.0239280104859834e-001 -1.0041946366550141e+000
      1.1228960430427755e+000 3.4940903970572554e+000
      -1.4217342171733748e+001 1.0373340308800592e+000
      1.2737539634906417e-001 3.7015078049434891e+001
      -8.7543624384120955e-001 -7.4366409730084584e+000
      5.1522924801174108e+000 -3.2084573946187883e-001
      7.7910859730422144e-001 -2.2250878858596593e-001
      -1.5588993601056371e+000 -3.0234313825739858e+000
      -1.4053589311367523e-001 -3.7739631167072729e-001
      -8.5546007480588926e-001 1.0243459053346136e+000
      4.8912451012398667e-001 -6.1651421668537354e-001
      2.9383038894561070e-001 7.2590886611376177e+000
      -4.1118514606042069e+000 1.7258850128512487e-001
      -7.3858772667372561e+000 -2.6058602191694320e-002
      -9.8005247792339800e-001 -5.3725799260729579e-001
      5.1495680855839998e-001 5.9509957723066176e-001
      2.3070969735156002e+000 1.4014794209272505e+001
      -2.4898218663048251e+001 4.2415569586253976e-001
      1.0595500360524698e-001 9.8450154892387454e-001
      1.2644560227809329e+000 -4.7280014357591421e-001
      -4.6107358899512763e+000 -5.2979876790241223e+000
      1.6251691875183266e-001 -6.8814470546234361e+000
      -7.5840159273481433e-001 -1.3024747856732259e+000
      1.0319594123906510e+000 7.7753460932646690e-001
      -8.7668084782201028e-001 7.1979561034180373e-001
      -2.0320847506394857e-001 -1.0099015259566415e+000
      -3.1591953331918854e-001 1.6006707608828428e+001
      -8.2242168963143527e+000 -1.2553797136626395e+000
      3.3680272154674507e-001 -1.4202277184915537e+000
      5.5255997524701594e-001 -3.1881334810974093e-001
      5.4125622594693124e-001 5.7687143889246411e+000
      -5.4147768888651260e-001 -1.3183505866062852e+000
      -4.9605070875410334e-001 -8.0527099214790276e-001
      -1.0032790533356077e+000 1.1207537115355666e+000
      3.4955874994285558e+000 -1.4215475528915388e+001
      1.7201147157632843e+000 5.3195728027530705e-002
      3.7008549119005060e+001 -8.7379298084379942e-001
      -6.6810188087785551e+000 5.1465198586995902e+000
      -3.1606719181398968e-001 7.8132951843764975e-001
      3.3818660563255394e-002 -1.2076537744334484e-001
      -3.0159858330130898e+000 -1.4454766623879253e-001
      -7.5073378694119441e-001 -8.5563936021096321e-001
      1.0232286960183574e+000 4.8993333022583052e-001
      -5.6142495597969155e-001 5.1119533043178667e-001
      8.1558559798527810e+000 -8.8726090563919890e-001
      1.8110118181477169e-001 -7.3808690691113990e+000
      -5.4321930055359824e-001 -9.8498388276483784e-001
      -2.9082500462778665e-001 5.1408673125054438e-001
      5.9008203051015773e-001 2.3118223997332139e+000
      1.4646663275987638e+001 -2.4891017075138034e+001
      4.2216449504095283e-001 1.2944833773169653e-001
      9.8677373257183798e-001 1.2676125456260461e+000
      -4.7111708859940010e-001 -4.6097976169647135e+000
      -5.2914866378679841e+000 1.0566527465278494e-001
      -6.8790364369254302e+000 -7.5148992318741559e-001
      -1.3076785067432832e+000 1.0295446527311620e+000
      7.8147841781141125e-001 -8.7523169608146745e-001
      4.2277021871378195e-001 -3.1835319826730246e-001
      -1.0170226264558757e+000 -3.1350231950574958e-001
      1.5749566905832442e+001 1.3546284757351923e-001
      -1.2603898120266772e+000 6.6606329145441800e-001
      -1.4206831558564448e+000 5.5475283515083562e-001
      -3.1715998607861617e-001 5.3819587865571339e-001
      6.5133910668943242e+000 2.3531431226975785e-001
      -1.3138368032174743e+000 -4.9407977501025729e-001
      -8.0265302687021478e-001 -1.0088819089192300e+000
      2.5428289935145409e-001 3.4906433092014222e+000
      -1.4219103715584868e+001 1.0127050956581338e+000
      1.3579195851497758e-001 3.7015087873655190e+001
      -8.7251744562048961e-001 -6.6806574329448889e+000
      5.1547139147290970e+000 -2.8228099036857679e-001
      7.7926593410141709e-001 2.1055087882520876e-001
      -1.1881160842368042e-001 -3.0174659624254949e+000
      -1.3776286951896807e-001 -1.6855357723704960e+000
      -8.5919536224555448e-001 1.0271598422970678e+000
      4.8804053895235905e-001 -5.5846757150846693e-001
      5.1132255566145157e-001 8.1548361522398167e+000
      -8.8715603829501799e-001 1.8150378717071830e-001
      -7.3818315010675368e+000 -5.4022376643956371e-001
      -9.8266406259925332e-001 -1.7044644253182145e-001
      5.1381115392188292e-001 5.9626326100503990e-001
      2.3059889436091279e+000 1.4642094453404113e+001
      -2.4899552481582628e+001 4.1866763178772678e-002
      -1.2987631326075810e-001 9.8717541244719642e-001
      1.2680115702276871e+000 -4.7231296922598826e-001
      -4.6093103614651341e+000 -5.2970611652232362e+000
      -8.9509238374851766e-002 -6.8757766149992197e+000
      -7.5666209999440415e-001 -1.3010043895081578e+000
      1.0299665687604396e+000 7.7597145907861231e-001
      -8.7197505924714580e-001 4.6845234800822844e-001
      2.1117845003477120e-001 -1.0121927472767740e+000
      -4.5770900482128302e-001 1.5742024440730315e+001
      -1.5325675621183971e-001 -1.2596826112784374e+000
      6.6917233488099392e-001 -1.4200772685188416e+000
      5.5032159294452609e-001 -3.1444226755874694e-001
      5.4669083883995961e-001 6.5108792407138099e+000
      -3.2778919455507850e-002 -1.3158125533898011e+000
      -4.9026369443806833e-001 -8.0340018556720372e-001
      -1.0033064767714845e+000 2.5257380101780108e-001
      3.4956966999339434e+000 -1.4209891780705753e+001
      9.7945938942604882e-001 -6.4389512871738330e-002
      3.7008808682912502e+001 -8.7688742792791263e-001
      -6.6808353677330867e+000 5.1506845687869935e+000
      -1.0235865474435182e+000 7.8320667104073771e-001
      2.2815996724191165e-001 -1.4355678468548402e-001
      -3.0228166477078307e+000 -1.3095284472539181e-001
      -1.6871811254657130e+000 -8.5661708076537224e-001
      1.0235859773539147e+000 4.8658457060183591e-001
      -5.5910125854084636e-001 4.3066428525064254e-001
      8.1525572688280139e+000 -8.8819180266477238e-001
      1.7285094433769532e-001 -7.3877592785262953e+000
      -5.4839563456262819e-001 -9.7838707181153173e-001
      -8.7903246109458238e-002 5.1762614636800841e-001
      5.9546476307713958e-001 2.3123965121361181e+000
      1.4645598549383315e+001 -2.4892304362301946e+001
      -3.6697509194197786e-001 8.6470307311050987e-002
      1.8414195270661562e+000 1.2689005218477956e+000
      -4.7299477389228212e-001 -5.0437513283888560e+000
      -5.2957330824367732e+000 -8.0046343702059562e-003
      -6.8803184930376107e+000 -7.5793763850845164e-001
      -4.3247001221387732e-001 1.0340339634023257e+000
      7.7301815796339157e-001 -8.7663624364359594e-001
      4.6594492632111073e-001 2.0392658442736836e-001
      -1.0146755821325613e+000 -5.7242082692756668e-001
      1.5742602941899866e+001 -6.2148035975551275e-001
      -1.2568425868427211e+000 6.7270303899213224e-001
      -1.4189118097893612e+000 5.5564577091309786e-001
      -9.8530290443643853e-001 5.4701911582640139e-001
      6.5063580572004822e+000 2.1720495023677569e-001
      -4.1367436409359420e-001 -4.9492018531987975e-001
      -8.0410539727546981e-001 -1.0037081332504916e+000
      2.5609967747165807e-001 3.4920515097469575e+000
      -1.4219147942749743e+001 9.7798913857273329e-001
      6.1456372465090107e-002 3.7013234778250457e+001
      -8.7498977873241701e-001 -6.6788131667523665e+000
      5.1459674123962031e+000 -1.0212310663357214e+000
      7.8309170224167091e-001 -4.0183440557601945e-002
      -3.6874117444231991e-001 -3.0163245072847293e+000
      6.2252609489869090e-002 -1.6910445063128698e+000
      -8.6117610747541640e-001 1.0282885247197424e+000
      4.9441804845903453e-001 -5.6703600109700836e-001
      2.1674747512621637e-001 8.1530999207194288e+000
      -1.6710469243033275e+000 1.7233397036360976e-001
      -7.3806801719575832e+000 -5.4784576328602996e-001
      -9.8000582737643660e-001 -3.1522985969418070e-002
      5.2052361524388613e-001 5.9577111084653200e-001
      2.3063453048749087e+000 1.4649186728172840e+001
      -2.4892650683098029e+001 4.2737715432286195e-002
      1.1498248472779445e-001 1.8400807881547863e+000
      2.1032241686429720e+000 -4.7352613265738569e-001
      -5.0440530493214464e+000 -5.2915704399789680e+000
      4.1918895159115083e-001 -6.8777451981603210e+000
      -7.5476212421464239e-001 -4.3079973597992155e-001
      1.0307174154502337e+000 7.7989842113045837e-001
      -8.7287722596439732e-001 4.6139709643451976e-001
      3.2209857041056172e-001 -1.0152936245778075e+000
      -8.0165777357453027e-001 1.5746662766292614e+001
      -1.5172458969938678e+000 -1.2574172500387217e+000
      6.6573173301216537e-001 -1.4194580951362064e+000
      5.5794113240976972e-001 -9.8474663572791554e-001
      5.4526521404506312e-001 6.5135839468209067e+000
      2.4991347130179026e-001 -4.1725421072557128e-001
      -4.9210918393708286e-001 -8.0255165308647980e-001
      -1.0084408764696906e+000 2.5470408701393071e-001
      4.0864187596913322e+000 -1.4218158466128120e+001
      9.7546998500216242e-001 1.1515643888325386e-001
      3.7013871458823040e+001 -8.7722194088874383e-001
      -6.6767414638547251e+000 5.1485004265874013e+000
      -1.0280270535853602e+000 7.8274364792576512e-001
      -2.8290761490335544e-002 -3.6757167906626559e-001
      -3.0178614615193013e+000 -5.4630747123424854e-003
      -1.6898230367585223e+000 -8.5929920039049534e-001
      1.0254168802443699e+000 4.8481999342013649e-001
      -5.6723791243128541e-001 1.7870542283819124e-001
      8.1560351245875324e+000 -1.6755276663752361e+000
      -1.2797886039883055e+000 -7.3832966809288214e+000
      -5.4126800039398504e-001 -9.8510565349971646e-001
      1.9910624162356585e-001 5.1445183422742657e-001
      5.9839332461800310e-001 2.3104876118267832e+000
      1.4647828917769242e+001 -2.4896111374135184e+001
      3.3771399889529756e-002 -6.7893830283066503e-002
      1.8376171163288726e+000 2.1028829624155123e+000
      -4.6930321114164281e-001 -5.0412872896137229e+000
      -5.2975996285768785e+000 3.7273314482947173e-001
      -6.8753757368894020e+000 -7.5734030364024918e-001
      -4.3073962325367193e-001 1.0380018794912753e+000
      7.7654291519520691e-001 -8.6755357024365143e-001
      4.6250606424031271e-001 3.4248713175679873e-001
      -1.0091380537742622e+000 -5.2633886725283952e-001
      1.5745637258834750e+001 -1.5249065124664098e+000
      -3.1236162359827291e-001 6.7227360306581374e-001
      -1.4193482472008274e+000 5.5909483315962738e-001
      -9.8225130309752817e-001 5.4135421754971624e-001
      6.5063538342946323e+000 -1.3631493211509094e-001
      -4.1945499021667704e-001 -4.9652059663645093e-001
      -8.0384922234702894e-001 -1.0014046572650130e+000
      2.5294587652223854e-001 4.0847414107343605e+000
      -1.4211542594446353e+001 9.7389676889515941e-001
      7.8288212064972842e-002 3.7007552656580465e+001
      -8.7035956932224101e-001 -6.6737996430484632e+000
      5.1471466273777784e+000 -1.0235100571827278e+000
      7.7752597686688019e-001 -1.3832428554920442e-002
      -4.9250660837855631e-001 -3.0202876079068806e+000
      -9.7841176860914078e-002 -1.6892190445455444e+000
      -8.6194686321493164e-001 1.0323384830420848e+000
      4.9341172849017484e-001 -5.6187358688623001e-001
      5.8816764116414899e-001 8.1596591499828381e+000
      -1.6711413998121816e+000 -1.2815339711543756e+000
      -7.3820332343811144e+000 -5.4110032573269407e-001
      -9.7986485142639035e-001 1.5854087421179236e-001
      5.1420112723821809e-001 5.9083856086398168e-001
      2.3096742335128395e+000 1.4649600288757345e+001
      -2.4899117787537694e+001 1.5998013087863368e-002
      -6.9554066116727362e-002 1.8381152995261263e+000
      2.1073906461851584e+000 -4.6696054223403033e-001
      -5.0442017387918625e+000 -1.9529738461469563e+000
      7.9032120180500889e-002 -2.0173144962305340e+001
      -7.5191321242891040e-001 -4.3960537011950290e-001
      1.0319691529312873e+000 7.7549525029057575e-001
      -8.7365208023319774e-001 1.5087253449738345e+000
      3.3798196891678545e-001 -1.0132519566704010e+000
      -4.2658166200636538e+000 1.5743025050875362e+001
      -3.9043194357204105e+000 -3.1473433698599351e-001
      6.6537727053142470e-001 -1.4182961872369295e+000
      5.5683586855485545e-001 -9.8414195378214164e-001
      5.3754463704741506e-001 6.5133230544111989e+000
      2.1044980033687827e-001 -4.1936592850511728e-001
      -4.8871645733159458e-001 -8.1042264406685016e-001
      -1.0012450143372007e+000 2.5222233612843920e-001
      4.0865724449907885e+000 -1.4212496860913834e+001
      1.7579640244657098e+000 3.4612438150173140e-002
      3.7013682880208016e+001 -8.7443759435386115e-001
      -6.6749672461104570e+000 5.1463635010082749e+000
      -2.7512732466137972e+000 7.8010021160526233e-001
      3.0783330442530860e-002 -4.9222420157733254e-001
      -3.0190318274137087e+000 -7.4555914708335475e-002
      -1.6923624703404980e+000 -8.6279453159547081e-001
      1.0311700723354815e+000 4.9361391133336013e-001
      -5.6018547475406844e-001 5.8549559635171877e-001
      8.1546460426235221e+000 -1.6750905859994631e+000
      -1.2806728139839467e+000 -7.0725365821825461e+000
      -5.4063255484567507e-001 -9.8064508396570615e-001
      1.5801230900358040e-001 5.1437362842942458e-001
      5.9785902914702205e-001 2.3098619540435736e+000
      1.4649994331940515e+001 -2.4897583003518942e+001
      2.7491781186404989e-002 -4.0278300966373790e-002
      1.8408549240304803e+000 2.1053565838777319e+000
      -4.7264589864076606e-001 -5.0466454249073553e+000
      -1.9505317927640073e+000 -2.8000883097954656e-002
      -2.0174427309507053e+001 -7.5485582332700296e-001
      -4.3655262742223949e-001 1.0337621676408582e+000
      7.7663117070718857e-001 -8.7508578123681691e-001
      4.2868898659654615e+000 3.3793175206382647e-001
      -1.0133247594899331e+000 -6.9877694887428232e-001
      1.5749329258886529e+001 -1.3539535394177449e-001
      -3.1404218584559762e-001 1.5422054686064164e+000
      -1.4198638714589589e+000 5.5462879099062323e-001
      -9.8845733074752107e-001 5.3893168112545775e-001
      6.5083007470909102e+000 1.0223489394151531e-002
      -4.1262755921848376e-001 -4.9234691481457299e-001
      -8.0932191770549189e-001 -1.0022707134172302e+000
      2.5162754927944375e-001 4.0854506881401980e+000
      -1.4217656153022311e+001 1.7520740010849081e+000
      3.5434498628458544e-002 3.7015599796558718e+001
      -8.7115239727914817e-001 -6.6775676536021287e+000
      5.1479787481078434e+000 -2.7455240908083365e+000
      7.7740927076474775e-001 1.5686071605505787e-002
      -4.9433825208551968e-001 -3.0204511290131921e+000
      -7.6408704514440387e-002 -1.6907701396768775e+000
      -8.5543109836935305e-001 1.0309110272280733e+000
      4.8963536724824380e-001 -5.6402613494968723e-001
      3.3702201577890945e-001 8.1608307122946506e+000
      -1.6748469926975862e+000 -1.2769386536605913e+000
      -7.0698731017263663e+000 -5.4525341638577873e-001
      -9.7835645445222741e-001 1.6084357639426333e-001
      5.1501384154306873e-001 5.9432674229698734e-001
      2.3076829225517734e+000 1.4650458493146971e+001
      -2.4891196254643955e+001 -8.4685486298525271e-003
      -3.6425121967663482e-002 1.8415443014729882e+000
      2.1057387246798482e+000 -4.7099909385844391e-001
      -5.0438523280706073e+000 -1.9528530362569929e+000
      -2.6527040729230858e-002 -2.0173868035784345e+001
      -7.5098278860406464e-001 -4.3055330771068451e-001
      1.0314489883154103e+000 7.7815923169086398e-001
      -8.7169959123947072e-001 4.2907405664272398e+000
      3.3773403536535324e-001 -1.0105311309672529e+000
      -7.0339984032082548e-001 1.5749651078066279e+001
      -1.9047561260802331e-001 -3.1175896474427967e-001
      1.5351874483289845e+000 -1.4174241778591308e+000
      5.5475644214856457e-001 -9.8263787967541605e-001
      5.4010187154389344e-001 6.5106832865058042e+000
      8.6614235610307719e-003 -4.2002932542138333e-001
      -4.9157266321133403e-001 -8.0315469673792039e-001
      -1.0044867420291914e+000 2.5655650659293211e-001
      4.0907014280080762e+000 -1.4210777665175204e+001
      1.7511894338903806e+000 5.5267345825948652e-002
      3.7008135885728038e+001 -8.7761179763660424e-001
      -6.6792754594277994e+000 5.1546278072860723e+000
      -2.7479763722292110e+000 7.8201038725509231e-001
      -1.6732776571999522e-002 -3.0258047008147698e-001
      -3.0219332134087171e+000 -6.6811533887046259e-001
      -1.6872370440351754e+000 -8.6212877591371961e-001
      1.0308018175820268e+000 4.9331670793110954e-001
      -5.5936209039144047e-001 3.3682134702435795e-001
      8.1539293425082864e+000 -1.6784936216590489e+000
      -1.2768138437156384e+000 -7.0737806987828113e+000
      -5.4285220039920468e-001 -9.8448151790126004e-001
      1.5887140475348763e-001 5.1248073580159170e-001
      5.9167113363912316e-001 2.3090349359286035e+000
      1.4642307196569281e+001 -2.4891150875558626e+001
      4.2651546477935334e-003 -6.4078799976193854e-002
      1.8377226293643520e+000 2.1088453231191577e+000
      -4.6464612647526266e-001 -5.0504745393122343e+000
      -1.9539277479869053e+000 1.1023374646722308e+000
      -2.0175582135043836e+001 -7.5225735412385208e-001
      -4.3405834992413678e-001 1.0335214827196892e+000
      7.7396702207787060e-001 -8.7021955000806628e-001
      4.6972441121077557e-001 3.4474155644858134e-001
      -1.0123861308127962e+000 -4.7345561555813293e-001
      1.5748665398139899e+001 -3.0390793444316300e-001
      -3.1248174673163276e-001 6.7085752499695206e-001
      -1.4240344213067082e+000 5.5277882931694833e-001
      -9.8671791704632161e-001 5.4330605731283155e-001
      6.5121969185692290e+000 2.0327787080264156e-003
      -4.1945950129189674e-001 -4.9405180100226370e-001
      -8.0649390998552761e-001 -1.0096239224374899e+000
      2.5719069323799670e-001 4.0876288271814953e+000
      -1.4218074069763574e+001 1.7531783099059663e+000
      5.9394881177223420e-002 3.7016196718776065e+001
      -8.7256162713885344e-001 -6.6730188198333238e+000
      5.1538034458863375e+000 -2.7439951837517511e+000
      7.8262894888478673e-001 -2.6552575406383210e-002
      -5.8101519493617992e-001 -3.0151799785359672e+000
      -6.9903028032953118e-001 -1.6874345044722745e+000
      -8.6151154217357029e-001 1.0294829885284662e+000
      4.8559574216214935e-001 -5.6681741046057010e-001
      3.4242523274639791e-001 8.1538940484042861e+000
      -1.6728473680874696e+000 -1.2813464986877894e+000
      -7.0730734191369224e+000 -5.4904105744347642e-001
      -9.7831960219244252e-001 1.6387354492880055e-001
      5.1201954262614247e-001 5.9596344906851961e-001
      2.3058732085082250e+000 1.4647724641729145e+001
      -2.4894572082715239e+001 -4.2532014409521696e-001
      -3.8230162226252369e-002 1.8378729798371136e+000
      2.1032319166746594e+000 -4.6729718456010610e-001
      -5.0438908580455397e+000 -5.2925985264168789e+000
      3.5126377289461892e+001 -2.0170323216234848e+001
      -7.5522648975161022e-001 -4.3251682688399345e-001
      1.0341320329361108e+000 7.7714402850486064e-001
      -8.7222101844689526e-001 4.6125434265591747e-001
      3.4071594210261835e-001 -1.0151430671237864e+000
      -3.5813949445271687e-001 1.5748654400356090e+001
      -8.0391185966367518e-001 -3.0721711837430021e-001
      6.7045452786193249e-001 -1.4196335945337506e+000
      5.5443415518170303e-001 -9.8467068916185996e-001
      5.4388332138520790e-001 6.5131171437341004e+000
      1.5090917486697322e-002 -4.1340179359002166e-001
      -4.9606983456656334e-001 -8.0865040348441453e-001
      -1.0072790690506501e+000 2.5045465456781307e-001
      4.0845422630061146e+000 -1.4210127912022493e+001
      1.7514971609901711e+000 -1.2957616707871067e-001
      3.7015875170290123e+001 -3.1686164527773064e-001
      -6.4973708714154466e+000 5.1539414130989432e+000
      -8.8420851887945218e-001 7.8269455994335602e-001
      5.3769343590525411e-002 -1.5220732431845579e-001
      -3.0177112836162210e+000 -5.2608298331607226e-002
      -1.6862574534061550e+000 -8.5590923380456119e-001
      1.0312341444541659e+000 4.8581460631457729e-001
      -5.6427378743527390e-001 3.3630317722051700e-001
      8.1542753311582992e+000 -8.8254868905577399e-001
      -1.7931555437365493e-001 -7.0776545494537180e+000
      -5.4906650211227048e-001 -9.7707891718941331e-001
      3.1098712221177522e+001 5.1418797924574133e-001
      5.9434994497072968e-001 2.3074744328541241e+000
      1.4648069186990465e+001 -2.4892948222927554e+001
      -7.1120874710447191e-001 9.5555301030797388e-003
      1.8392966576178207e+000 2.1118369199423221e+000
      -4.6851124452026588e-001 -5.0477857676995823e+000
      -5.2898664503387289e+000 2.1386347677629231e-001
      -2.0166516797126643e+001 -7.4962660489628508e-001
      -4.3391721732929284e-001 1.0358609410307766e+000
      7.7238850307661966e-001 -8.6823122248039519e-001
      4.7079561992194208e-001 -4.0742436668121890e-001
      -1.0150620463326971e+000 -3.6105540595902180e-001
      1.5742026973921975e+001 -3.9637118401791005e+000
      -3.0780202624356390e-001 6.6500686204107895e-001
      -1.4232213434206498e+000 5.5744142282071552e-001
      -9.9117625668812770e-001 5.4367813145790123e-001
      6.5138064234662423e+000 -4.4456093205592517e-002
      -4.1567049255722693e-001 -4.8952892475271487e-001
      -8.1031781016706639e-001 -1.0093276082851474e+000
      2.5247948230433609e-001 4.0847110286220758e+000
      -1.4215350553820894e+001 1.7509054426847279e+000
      -3.2488926879550607e-002 3.7017021637385938e+001
      -3.2547412970030004e-001 -6.4904501617934827e+000
      5.1522994949492054e+000 -8.7777604385534491e-001
      7.8067778104601659e-001 -3.4106123476741108e-003
      -2.7680260878488405e-001 -3.0149450391706218e+000
      -4.6402623378851715e-001 -1.6937523085842761e+000
      -8.6188097081692838e-001 1.0261710029563580e+000
      4.9227738880623062e-001 -5.6455537814816259e-001
      3.4271377423216459e-001 8.1575197156324872e+000
      -8.8365088838798400e-001 -1.2728695952108398e+000
      -7.0694946455638030e+000 -5.3982068766724112e-001
      -9.8235016257669827e-001 3.0529676961506969e-001
      5.1588267035826696e-001 5.9390721563387028e-001
      2.3050030064197768e+000 1.4643246094720844e+001
      -2.4896981525129622e+001 -4.0891834516686920e-001
      -1.3839596675082133e-002 1.8435542415689397e+000
      2.1026609754594587e+000 -4.6957898331684239e-001
      -5.0487372804626256e+000 -5.2926686091411446e+000
      4.6694768816038068e-002 -2.0169136834296125e+001
      -7.5726581203643228e-001 -4.3021633096344331e-001
      1.0373430544741071e+000 7.7759795030552692e-001
      -8.6995547969200882e-001 6.2542403442695749e-001
      -1.2233861794916276e-001 -1.0111876075857371e+000
      -3.7992431594028298e-001 1.5748952431787442e+001
      -3.9581538827404339e+000 -3.1509595299150683e-001
      6.6965453163031852e-001 -1.4190199497733025e+000
      5.5558112832256767e-001 -9.8981990535047837e-001
      5.4359251340269943e-001 6.5143189780889088e+000
      -1.4062760964072791e-002 -4.1932761144577918e-001
      -4.9368634435735298e-001 -8.0874009728338259e-001
      -1.0073928329586548e+000 2.4980361299227238e-001
      4.0870440791658860e+000 -1.4217293114260947e+001
      9.7869593966054369e-001 -2.0529234529019301e-002
      3.7014478153654451e+001 -3.2325098514176265e-001
      -6.4930197410992818e+000 5.1457747807973488e+000
      -3.2052757499335727e-001 7.7536936394520783e-001
      -5.0867873828619077e-002 -1.2474685012233631e-001
      -3.0217980016298212e+000 2.2329079101199564e-001
      -7.5875833094387690e-001 -8.5585495688310431e-001
      1.0259715340370010e+000 1.3883643585551013e+000
      -5.5975333878987166e-001 2.4424673388244592e-001
      8.1613265629870817e+000 -6.2713804934541229e-001
      -1.2749745521167959e+000 -7.3833759934040026e+000
      -5.4261472243918885e-001 -9.8381836428581015e-001
      2.6203340337925562e-001 5.1987075038633279e-001
      5.9047251337836482e-001 2.3103302420215632e+000
      1.4651326986409238e+001 -2.4891088611712757e+001
      -3.8300269219346905e-001 3.3488753780028031e-002
      1.8388542127971648e+000 2.1100674868080533e+000
      -4.7049337725055035e-001 -5.0426297367894115e+000
      -5.2924052977080267e+000 3.3931402858887683e-002
      -6.7180094995051522e+000 -7.5860722260210534e-001
      -4.3575770509964090e-001 1.0306957093084883e+000
      7.7352604716076001e-001 -8.6839875444829762e-001
      5.5011641927613386e-001 -9.7318776164844828e-002
      -1.0165764917929068e+000 -3.9034735574752027e-001
      1.5743555098030219e+001 -3.9640628096208390e+000
      -3.0899705542298483e-001 3.3567199085255939e-001
      -1.4155068664456951e+000 5.5833994047619118e-001
      -9.9161718631824702e-001 5.3772319289779402e-001
      6.5130792528067856e+000 1.3939451960043645e-001
      -1.3105637670036725e+000 -4.9121199475146021e-001
      -8.0811591156625762e-001 -1.0099823964178665e+000
      2.5610483822887520e-001 4.0893214012683670e+000
      -1.4217585018029890e+001 9.7890063622726142e-001
      -4.4532622594447888e-002 3.7012161578066795e+001
      -3.1667711329490089e-001 -6.4939027330265642e+000
      5.1513453566891059e+000 -3.2049145423426156e-001
      7.8025895646605381e-001 -4.5611817206105673e-002
      -1.2825932434594661e-001 -3.0183519751581671e+000
      2.3016475122568064e-001 -7.5864790642335789e-001
      -8.5670698030587233e-001 1.0306814293532507e+000
      1.3898802966467043e+000 -5.6314634215458048e-001
      2.4163155303208061e-001 8.1528895182773393e+000
      -6.2586715404537363e-001 -1.2763808185145118e+000
      -7.3832778003067370e+000 -5.4138137361109784e-001
      -9.7820197961585276e-001 2.7202343124303852e-001
      5.1331476932117470e-001 5.9823542242019268e-001
      2.3089949865860726e+000 1.4650944189943583e+001
      -2.4897362694593522e+001 -3.8376395520469420e-001
      3.5490701792168483e-002 1.8399889403744809e+000
      2.1080912914424936e+000 -4.6769127280878281e-001
      -5.0499392306327433e+000 -5.2910477163893672e+000
      3.2760432112305789e-002 -6.7172992131741447e+000
      -7.5191472663226155e-001 -4.3265636151102210e-001
      1.0326446910879568e+000 7.7889805176876437e-001
      -8.7428537900360848e-001 5.5776119945167224e-001
      -9.5522891710695640e-002 -1.0092345235462152e+000
      -3.9201834738385560e-001 1.5749631151847501e+001
      -3.9587521891465736e+000 -3.0843475415542987e-001
      3.3742028903836441e-001 -1.4237397110704515e+000
      5.5120232901227417e-001 -9.8292119754955265e-001
      5.3895888991325802e-001 6.5102231946941238e+000
      1.3860504060211548e-001 -1.3112660438052470e+000
      -4.8989623665887866e-001 -1.7539321922879505e-003
      -3.4635344423030786e-003 3.1350962297579115e-003
      -1.2685192622885204e-003 3.4127855102790931e-003
      3.7262906856386393e-003 3.8387974867066339e-003
      -6.8446600548566292e-004 -1.7017383343780807e-003
      1.0933893825237741e-003 -5.0769724157731882e-005
      -3.3830093635666449e-003 3.0559439401566125e-003
      1.9797527947827851e-003 1.1368185792216814e-003
      -2.5328976291776762e-003 3.0914463092867124e-003
      2.8963006874189868e-003 -2.3425318066443179e-003
      1.6666312855845408e-003 3.3702764647711623e-003
      1.0126568311895833e-003 4.0464834477974207e-003
      3.8949917857341691e-003 -3.0987817178481192e-003
      1.3927949201488447e-004 7.5974954433451235e-004
      2.3434780708560029e-003 2.0425997637354581e-003
      -9.0755468992997392e-004 -1.0364792342909708e-003
      -4.6615524069678962e-003 4.2341289121952995e-003
      1.7747823180023332e-003 -3.2449415867533238e-003
      2.6551059744635260e-003 -4.2696489977182370e-003
      -5.0586509045160940e-004 -3.1838892392222068e-003
      1.9116836203557140e-003 3.4653716641715386e-003
      -3.3207060835128968e-003 4.4087239206603420e-003
      1.8726169276144498e-003 4.0377183257365480e-003
      4.2826200504757841e-003 -3.3176367825905862e-003
      -4.2323428943688126e-003 3.5218008358850732e-003
      -1.1718600984471713e-003 2.9873823636395935e-003
      1.7715616191934516e-003 3.6557650127077060e-003
      -1.2959586310901253e-003 2.1391933513112459e-003
      -4.7019580740074911e-003 -4.1563581212314725e-003
      1.2161502965804957e-003 1.2295117136612620e-003
      -2.1406416644882578e-003 -4.2092738206626823e-003
      3.9768019922897689e-003 1.0426404909389965e-003
      -9.7610261795610400e-004 4.8545071682333015e-003
      -2.5302752373876055e-003 1.4590412678682015e-003
      3.2122333286868604e-003 1.1061994906542731e-003
      5.0613038257430638e-003 -2.1174209150231606e-003
      1.8501080251932041e-004 -4.3034012895009780e-003
      1.3195441196353042e-003 -3.8716296954018278e-003
      -2.2033281888973288e-003 -3.5936353197301494e-003
      -4.7392112259839374e-003 -9.2562346769048680e-004
      3.7904233817787609e-005 3.9862224803989439e-003
      2.2869263167429148e-003 -3.1639375516332854e-003
      3.4399829872048780e-003 -3.9803858927475507e-003
      -4.9205556326454812e-003 -2.7354363632136162e-003
      2.0518547072424778e-004 2.2983664101444007e-003
      -9.4663643104329919e-004 -1.7833889805240692e-003
      -2.9704271654344468e-003 2.3080269615436831e-003
      -1.5325043802801195e-003 -5.0474648594055968e-003
      2.6001866743163198e-003 -1.9280658201928811e-003
      3.0971159810741253e-003 2.0099201755330929e-003
      4.2458693805161561e-003 4.4602490853842503e-003
      5.8128649399249207e-004 -4.1144057517679350e-003
      -1.7559921455509078e-003 4.6685755449669850e-004
      -4.3073867436637147e-003 1.0472842950241612e-003
      5.2200910404656762e-004 -1.6759295392929545e-003
      -3.0685341340016474e-003 1.0600005865705187e-003
      -1.0376465485155667e-003 1.5655894796534409e-003
      9.9087861599806370e-004 -3.3691902270892482e-003
      -4.6746722921180983e-003 -2.1824219889521792e-003
      -3.1296659033813300e-003 3.7892996471744315e-003
      -4.8201205450014465e-003 4.9226964392976172e-003
      -4.1469651045706836e-003 2.5370333440457773e-003
      -1.2399749887851432e-003 -1.5532862054849197e-003
      2.5302816701514011e-003 1.1622727099552849e-003
      3.3753790408661876e-003 -2.8204624475598435e-003
      2.8253431651258823e-003 -8.0434813134494354e-001
      -1.0092724774604858e+000 1.1215262772057164e+000
      4.0855833446925276e+000 -1.4218747402587489e+001
      1.1134908551040426e+000 -1.2503154289991839e-001
      3.7016945954667662e+001 -3.2356655642681004e-001
      -6.6794423607149458e+000 5.1488665009727397e+000
      -1.0201208872636458e+000 7.7441735666050016e-001
      -6.6786035015185830e-001 -1.3883668839520784e+001
      -3.0215642376778087e+000 -7.7686948401063174e-003
      -4.7659557263280478e-001 -8.5726784866166195e-001
      1.8540475076444832e-001 1.3885518751551325e+000
      3.2116333281461434e-002 6.8196419889751958e-001
      8.1525126479064998e+000 -7.2567762784192846e-001
      -1.2802119988933647e+000 -8.5068820543971615e+000
      -5.4565021726781826e-001 -9.8200163498620496e-001
      -5.1369045272994837e-002 5.1978679532858629e-001
      5.9757913130217122e-001 2.3077570236848066e+000
      1.4642119993538959e+001 -2.3375935685579307e+001
      -3.3698055046448585e-003 1.1478828630035245e+000
      1.8370227601901030e+000 1.2700049247094733e+000
      -1.5751475952920011e+000 -5.0433039985515329e+000
      -5.2939246581040100e+000 2.6676939812599408e-002
      -2.0173308282023221e+001 -7.5206518727144533e-001
      -4.3623098148680267e-001 1.0317855796958186e+000
      7.7556619084382528e-001 -8.7206226996962810e-001
      4.3055628370212268e-001 -1.2463863516544946e-001
      -2.4219115009927558e-001 -1.9091314608697252e-001
      1.6006109882515332e+001 -2.3354245473022392e-001
      -1.2554062111284383e+000 6.3682755956567849e-001
      -6.0746024475047222e-001 5.5893365861708222e-001
      -9.8292587179063218e-001 1.4101297694556520e+000
      6.5132649475601339e+000 -1.2948397681761331e-001
      -1.3160036710224305e+000 -4.9068708168908276e-001
      -5.1426724908259580e-001 -5.4394336986247671e-001
      5.4398716226378130e-001 7.5741245382675265e-002
      1.2866459701587978e+000 6.5976381989683153e-001
      -8.2144826899732265e-002 -4.2789160787673469e-001
      -6.8178782507527680e-001 -4.3011601422259782e-001
      -1.1520922203132699e-002 -4.8735783272020872e-001
      3.9476337174661286e-001 2.0045455967512540e+000
      -1.0754176985326160e+000 2.1591831208040915e-001
      4.9178315948169571e-001 -5.4683487078773230e-001
      -7.0884423833687615e-001 6.2786036385377786e-001
      7.4663869066999666e-001 -4.0667660437092656e-001
      6.4904862578334477e-001 2.4417780120839094e-001
      -3.6744077747038562e-001 -5.6873895317481504e-001
      7.8444070386790610e-001 -4.2982123081211521e-001
      -1.1161051826208126e+000 -9.9157084802341466e-001
      1.2437142771046947e+000 4.5594303371497696e-001
      -6.5453677043823821e-002 -2.9049515451594721e-001
      2.6305325199150102e+000 -3.7793238611992264e-001
      -9.0406476760388238e-002 -1.8517575637878068e+000
      -1.2105241480937126e-002 -3.9515624080501016e-001
      -2.2709813412846228e-001 5.8513954016990832e-001
      9.2733272094411526e-002 3.9056371950106673e-002
      -7.4443665006458815e-001 -4.0022954722076470e-001
      4.5492495459997800e-001 4.7682699680602236e-001
      -5.8455748773804705e-001 5.8789969759660132e-001
      7.7075215921742068e-001 -5.7469795499829379e-001
      -4.3966135937269035e-001 3.9321712183272522e-001
      -9.1663793440942956e-002 -5.6804000576806379e-001
      5.3002927753550599e-001 -1.3221593500625359e+000
      4.0006048565375923e-001 -9.4120384965127035e-001
      5.7441590406944310e-001 2.9996028454273982e-001
      -1.3958477424040577e-001 -7.0002459355178503e-001
      -6.1586898289141145e-001 2.3049093546263340e-002
      8.7278414675945826e-002 -2.5562164367624922e-002
      8.8741228982059661e-002 2.2233467164738535e-001
      -6.2375997726222036e-002 6.5104952468068744e-002
      2.9059299117462994e-002 3.0780550378381028e-002
      7.0947331058949639e-002 1.1245627789739008e-002
      2.8193723570936496e-002 4.7305161037015345e-004
      7.8809115296710044e-002 -3.6436341360439328e-002
      -2.4422303423288996e-001 -4.7477999140952076e-002
      7.0509859937724087e-002 5.5279532936904456e-002
      -8.4461275367271701e-002 -1.1882867911260420e-001
      1.0521215513871796e-002 -2.7217040749329600e-002
      -1.2590223602951447e-001 6.9966642024388737e-002
      7.0110853074821181e-003 3.7737808274842050e-001
      -1.8692561457530846e-002 -8.8850554732251789e-003
      1.6580945601128032e-002 -7.4362566823921714e-002
      -3.5405977703372594e-002 -5.4849249579989878e-002
      4.2530717745982299e-001 8.3537531262544307e-001
