<?xml version="1.0"?>
<opencv_storage>
<my_nn type_id="opencv-ml-ann-mlp">
  <layer_sizes type_id="opencv-matrix">
    <rows>1</rows>
    <cols>3</cols>
    <dt>i</dt>
    <data>
      400 65 32</data></layer_sizes>
  <activation_function>SIGMOID_SYM</activation_function>
  <f_param1>6.6666666666666663e-001</f_param1>
  <f_param2>1.7159000000000000e+000</f_param2>
  <min_val>-9.4999999999999996e-001</min_val>
  <max_val>9.4999999999999996e-001</max_val>
  <min_val1>-9.7999999999999998e-001</min_val1>
  <max_val1>9.7999999999999998e-001</max_val1>
  <training_params>
    <train_method>RPROP</train_method>
    <dw0>1.0000000000000001e-001</dw0>
    <dw_plus>1.2000000000000000e+000</dw_plus>
    <dw_minus>5.0000000000000000e-001</dw_minus>
    <dw_min>1.1920928955078125e-007</dw_min>
    <dw_max>50.</dw_max>
    <term_criteria><epsilon>1.0000000116860974e-007</epsilon>
      <iterations>20000</iterations></term_criteria></training_params>
  <input_scale>
    1. 0. 1. 0. 1. 0. 1. 0. 1. 0. 1. 0. 1. 0. 1. 0. 1. 0. 1. 0. 1. 0. 1.
    0. 1. 0. 1. 0. 1. 0. 1. 0. 1. 0. 1. 0. 1. 0. 1. 0. 1. 0. 1. 0.
    2.4250223422773914e+001 -8.2479077454023844e-003
    3.7471783017425597e+000 -1.0514445095870796e-002
    1.5279911700488027e+000 -1.8838959213514798e-002
    9.2695590541389394e-001 -2.2331855325713107e-002
    7.3160593894662962e-001 -2.4572105823132365e-002
    6.2740898716569493e-001 -2.5731557293485648e-002
    5.8500972344737689e-001 -2.7242530911627465e-002
    5.6193395687906678e-001 -2.8015470499129256e-002
    5.6054452496043139e-001 -2.7850874447469989e-002
    5.8392428493614668e-001 -2.7258185400199350e-002
    6.4355781186191052e-001 -2.5883128366647329e-002
    8.1917979295363186e-001 -2.4332532821705291e-002
    1.1252738007273089e+000 -2.0252504491294177e-002
    1.9473765522989912e+000 -1.5896050310699773e-002
    4.5761925889696089e+000 -1.1284188970023127e-002
    5.2177137770202870e+000 -5.3238959234944254e-003
    1.4449053536363873e+001 -5.3238959234944263e-003 1. 0.
    4.9982047967748394e-001 -3.6251930375111430e-002
    2.3625279714255173e-001 -7.3891775309451235e-002
    1.2401172982035258e-001 -1.2839477576689698e-001
    7.5717939597507000e-002 -1.8665088035298386e-001
    5.5209108496888884e-002 -2.7018851359991813e-001
    4.0801141548593940e-002 -3.8558015471222828e-001
    3.1691268428631195e-002 -4.8619805914234071e-001
    2.7198844419553468e-002 -5.7275684584005726e-001
    2.4747263397112099e-002 -6.4655995721343296e-001
    2.3078894046069866e-002 -6.8668965678185112e-001
    2.2869848627565179e-002 -7.0067675367637083e-001
    2.4490900472260442e-002 -6.5488343001948590e-001
    2.8688438954925947e-002 -5.5334487428388746e-001
    3.7212214941589834e-002 -4.2515498745492730e-001
    5.5987439076252372e-002 -2.9130860256964192e-001
    9.8311401289094949e-002 -1.7635697803378800e-001
    1.9720900667683816e-001 -9.3518051434447566e-002
    4.8483855868935083e-001 -4.4523466077702419e-002
    1.4402435716831010e+000 -1.5144559976600828e-002
    5.0766944857494680e+000 -5.3238959234944254e-003
    4.1535179928597904e-001 -4.2474612885432014e-002
    1.4353833129819174e-001 -9.7049682362631479e-002
    6.3757414683266941e-002 -1.8283317805096694e-001
    3.5005080464763978e-002 -2.9822776831421149e-001
    2.3852498830097102e-002 -4.4934735643979451e-001
    1.8359512686964962e-002 -6.6893161829422632e-001
    1.5275427088144562e-002 -9.0957370836915841e-001
    1.4182581148849419e-002 -1.1143082203334309e+000
    1.4158279291120318e-002 -1.2474245830943913e+000
    1.3853547227283821e-002 -1.2762885670051189e+000
    1.3810245104652601e-002 -1.3146972092003522e+000
    1.3912955102189860e-002 -1.2565292846379843e+000
    1.4469545347047065e-002 -1.0254602303087057e+000
    1.7255120983769884e-002 -7.3005564934573619e-001
    2.5085046543299145e-002 -4.6935457316269524e-001
    4.4966797815294529e-002 -2.7244536785278795e-001
    8.9849567248683107e-002 -1.4367476007698554e-001
    2.3999917198457291e-001 -7.4689385760178292e-002
    9.1824562282385591e-001 -2.3839719701452641e-002
    4.3672397645206864e+000 -8.6646670686595997e-003
    5.4896996884364180e-001 -4.8483374607924380e-002
    1.4220209235358458e-001 -1.0737906423910777e-001
    5.2564389881059548e-002 -2.2475068306493731e-001
    2.5915186161794498e-002 -3.8043951623368327e-001
    1.7192196888072483e-002 -5.8707731885752101e-001
    1.3879584735825004e-002 -8.8418328474123564e-001
    1.2859453878497015e-002 -1.2475758711513563e+000
    1.2901123150232983e-002 -1.4910421340364628e+000
    1.3035846962704458e-002 -1.4519203828868150e+000
    1.2674097578746008e-002 -1.3132077865722225e+000
    1.2818979437494802e-002 -1.3765513666313416e+000
    1.3273563510391646e-002 -1.5622433475216619e+000
    1.3017717834916145e-002 -1.4259396774924600e+000
    1.3555334669460753e-002 -1.0041966503491206e+000
    1.7861925490347753e-002 -6.4454304015170105e-001
    2.9173050372685614e-002 -3.8145156610681602e-001
    5.5494864987002686e-002 -2.1004748200482717e-001
    1.4535368654152658e-001 -1.1373857995687506e-001
    5.6562809445827877e-001 -4.3157157482049957e-002
    3.3495304878375842e+000 -9.0189160576092751e-003
    4.0578600141069887e-001 -5.6505487923892171e-002
    1.1717748559846977e-001 -1.0704127772911629e-001
    4.8758251246210506e-002 -2.3280192416626405e-001
    2.4210292134316011e-002 -4.0370157781477223e-001
    1.5837394172680694e-002 -6.3216438798550645e-001
    1.2974025496990584e-002 -9.5608771755027966e-001
    1.2597634259404392e-002 -1.3309624468896708e+000
    1.2908444847477185e-002 -1.4690664165068965e+000
    1.2994948162921540e-002 -1.2564706430662780e+000
    1.2671978021474078e-002 -1.0268012347979623e+000
    1.2675447278434809e-002 -1.0409070694647913e+000
    1.2860600742299246e-002 -1.2927972910407606e+000
    1.2902495319569008e-002 -1.4298368901272269e+000
    1.2746927106493220e-002 -1.1322972294353715e+000
    1.4696393416948334e-002 -7.5251640783282137e-001
    2.1691959681738867e-002 -4.6861199153965194e-001
    3.9623705957039929e-002 -2.6691701702878751e-001
    9.8856170597664481e-002 -1.4391051057868723e-001
    3.7810887968827850e-001 -6.3068158181665418e-002
    3.3516206602505481e+000 -7.5046208310127916e-003
    5.8004681364993071e-001 -4.2547507333088277e-002
    1.3794055546320344e-001 -1.0272235571226708e-001
    5.0585397265912671e-002 -2.2035803093325723e-001
    2.4570306463695228e-002 -3.9535964389421002e-001
    1.5501219656988570e-002 -6.2478280481035320e-001
    1.2657115766307543e-002 -9.3742010278960708e-001
    1.2620340056357870e-002 -1.3039849574471822e+000
    1.3038264642310223e-002 -1.3892100616424621e+000
    1.3211301353053711e-002 -1.1343700689018488e+000
    1.3222642157684638e-002 -8.9966884224340604e-001
    1.3282308115157576e-002 -9.0402629610761809e-001
    1.3046963032777536e-002 -1.1220939196650754e+000
    1.2818661648212926e-002 -1.2826033414123086e+000
    1.2607055889397381e-002 -1.0831619952127198e+000
    1.3965742916306556e-002 -7.5719446102029997e-001
    1.8958388547575148e-002 -4.9224589136248481e-001
    3.3831333062572445e-002 -2.9857623314128295e-001
    8.8738212026282043e-002 -1.5805723763867249e-001
    4.0688713013123623e-001 -6.7649223551664639e-002
    3.9609025267803402e+000 -7.5216957455439826e-003
    1.2235172712995235e+000 -3.4123377216675105e-002
    2.0724333277669857e-001 -9.8235289874652992e-002
    5.7958522091260206e-002 -2.2080485200313613e-001
    2.4573016833989384e-002 -3.9403120137311737e-001
    1.5208700256053236e-002 -6.1409836627114567e-001
    1.2618033109849533e-002 -9.0617161888981701e-001
    1.2704180232135194e-002 -1.2500762836904193e+000
    1.3236359854653948e-002 -1.3734886140841192e+000
    1.3043428236897910e-002 -1.1428685684840560e+000
    1.2957254810318440e-002 -9.4982752046651986e-001
    1.3253944225638997e-002 -9.7791245876129784e-001
    1.3299700302146930e-002 -1.1455930303029247e+000
    1.2945257758999617e-002 -1.2022296324122310e+000
    1.2820001784377061e-002 -1.0089499828452413e+000
    1.3931760120459439e-002 -7.1640844418539074e-001
    1.8032032573227108e-002 -4.8394250653189885e-001
    3.2464800475111293e-002 -3.0940292753690612e-001
    9.8195319598241515e-002 -1.6941628860563906e-001
    5.6454542207830982e-001 -5.5907309810714095e-002
    5.1662384363792340e+000 -7.9070595647774689e-003
    1.8419613410399873e+000 -1.9577560877784572e-002
    2.6322602719111454e-001 -1.0109902767606124e-001
    6.1779273845486433e-002 -2.2616796459890054e-001
    2.4311562979590740e-002 -3.9269630743559897e-001
    1.4942492289221414e-002 -6.0163034376930624e-001
    1.2473918815831968e-002 -8.5995016713410433e-001
    1.2417745363812309e-002 -1.1770915348306727e+000
    1.2833798843741319e-002 -1.3592455974755362e+000
    1.2867466686965473e-002 -1.2811995294099778e+000
    1.2731691526647028e-002 -1.1622812508278904e+000
    1.3016045925385626e-002 -1.1845346999650641e+000
    1.2962704850351576e-002 -1.2281205761468699e+000
    1.2717584419575351e-002 -1.1795784833727938e+000
    1.2837564964684429e-002 -9.4381936261545918e-001
    1.4047016101089963e-002 -6.6536362057495169e-001
    1.8147813967552703e-002 -4.6457519049718088e-001
    3.3058127455544400e-002 -3.0330799146559689e-001
    1.0192817464980250e-001 -1.7027222622540417e-001
    7.2111387410061478e-001 -4.5210132348238757e-002
    7.6368249811995979e+000 -8.0086878381153311e-003
    3.1259409837392118e+000 -1.8960131809993518e-002
    3.5644995245224337e-001 -1.0653491153021104e-001
    6.4382477129155888e-002 -2.2697003820082587e-001
    2.3946134174197050e-002 -3.8952206317631721e-001
    1.4609654751969299e-002 -5.9581444985711784e-001
    1.2228132697263062e-002 -8.4126378259150858e-001
    1.1968520540318049e-002 -1.1355565525865441e+000
    1.2152003490301502e-002 -1.3381831569852403e+000
    1.2327390299590669e-002 -1.3401402212628897e+000
    1.2151533042074539e-002 -1.2802991186862658e+000
    1.2176438692881097e-002 -1.2984075966853845e+000
    1.2131007169518834e-002 -1.2537266285818600e+000
    1.2057337507748829e-002 -1.1448336365362235e+000
    1.2449269825030780e-002 -9.0345030710228613e-001
    1.3840736690922947e-002 -6.3627963744589933e-001
    1.8279521735910645e-002 -4.4395736908282113e-001
    3.3518294544498430e-002 -2.8343108627284119e-001
    1.0213332006711735e-001 -1.5205365067642065e-001
    1.0722780705401898e+000 -3.6166059292070341e-002
    1.3216397763662707e+001 -7.4918642728091980e-003 1. 0.
    8.3572858416635920e-001 -2.1673704849844641e-002
    6.8590320996474052e-002 -1.8903066328700624e-001
    2.3256710367055917e-002 -3.6226205591194155e-001
    1.3950100840544238e-002 -5.7455223300046965e-001
    1.1607451988693651e-002 -8.1209526718380221e-001
    1.1307058328578808e-002 -1.0843270882517002e+000
    1.1610963508129839e-002 -1.2273001020418681e+000
    1.1879575709357770e-002 -1.1299398403633847e+000
    1.1626138622910964e-002 -1.0407535950081384e+000
    1.1392713302809120e-002 -1.0935212651235540e+000
    1.1673166052572719e-002 -1.1348893426877265e+000
    1.1374562852486763e-002 -1.0699855455667708e+000
    1.1769097913375588e-002 -8.6591733324217646e-001
    1.3468279088689484e-002 -6.1252345316708723e-001
    1.8432354490392513e-002 -4.1210694767721062e-001
    3.4420331516470198e-002 -2.5377019145906632e-001
    1.0807579806300043e-001 -1.2608434680775354e-001
    1.8328977862465712e+000 -1.3403084543155586e-002 1. 0.
    9.3918847986365165e+001 -5.3238959234944254e-003
    8.8204395884648612e-001 -5.8174601559882466e-002
    7.4446602523275299e-002 -2.2237129698204222e-001
    2.4516351007315508e-002 -4.0144638817120309e-001
    1.4560132290338850e-002 -6.1774792665717959e-001
    1.2216953265358783e-002 -8.8125016240209608e-001
    1.2195036678392574e-002 -1.1637726059960891e+000
    1.2938975593342884e-002 -1.2983716680083652e+000
    1.3088899758656297e-002 -1.1279576946516097e+000
    1.2901997975914086e-002 -9.6749809009707644e-001
    1.2516376115374022e-002 -9.8828960987607062e-001
    1.2729251006058309e-002 -1.0941282269428199e+000
    1.2126942848877944e-002 -1.0833111266532347e+000
    1.2135844979846447e-002 -9.1870671714603969e-001
    1.3810091750243239e-002 -6.7330440436548833e-001
    1.9055282916130841e-002 -4.5376924935541424e-001
    3.6031004713606742e-002 -2.8262412911643198e-001
    1.1016007475691729e-001 -1.5577025479345286e-001
    9.2568047407785292e-001 -7.4616951087733502e-002
    5.4225609152187246e+001 -9.2215196109382540e-003
    1.6800904759407739e+001 -7.1428368967495067e-003
    7.1258646408242587e-001 -6.8083696230991933e-002
    8.3108129538570802e-002 -2.2550517751957194e-001
    2.6324894780471401e-002 -4.1006608390082300e-001
    1.4976924728437837e-002 -6.3611518462899319e-001
    1.2370130604355935e-002 -9.2841332753707206e-001
    1.2565847843091478e-002 -1.2649284189506111e+000
    1.3318204742214058e-002 -1.3933234620580839e+000
    1.3090937105165746e-002 -1.1351499522644879e+000
    1.3219646484072207e-002 -8.8468143365541574e-001
    1.3155598356038800e-002 -8.7197880198112621e-001
    1.2723222640766894e-002 -1.0086029848384548e+000
    1.2161205807878418e-002 -1.0927444205797929e+000
    1.2103496592474020e-002 -9.7165328290754094e-001
    1.3609362401386028e-002 -7.1932666460520156e-001
    1.8775888922760876e-002 -4.7997189822304320e-001
    3.4459268218093510e-002 -2.9192416854993597e-001
    1.0036689383248182e-001 -1.6250094788523017e-001
    6.4386576719246158e-001 -7.1208101116291167e-002
    2.8646698472167920e+001 -1.2179028317060223e-002
    5.5610470140145951e+000 -1.0245112406069630e-002
    5.0205774913313750e-001 -7.2586491081235022e-002
    8.4313876553466338e-002 -2.0334073340327791e-001
    2.8260020974840674e-002 -3.9696670923459376e-001
    1.5636650794877648e-002 -6.4261440573099959e-001
    1.2589049191994987e-002 -9.7185839834665111e-001
    1.2775808840650297e-002 -1.3661718231248703e+000
    1.3515702792450391e-002 -1.5078880663825176e+000
    1.3166976848803830e-002 -1.1714485618603616e+000
    1.3477472627902687e-002 -8.6263846668959432e-001
    1.3679078471803238e-002 -8.5083930127736584e-001
    1.2818515495253296e-002 -1.0455664386487793e+000
    1.2296085022364765e-002 -1.1931858548330601e+000
    1.2186816514338963e-002 -1.0547976039481171e+000
    1.3462043051332907e-002 -7.5785098285698482e-001
    1.8361959646767189e-002 -4.9710157898995738e-001
    3.2761411741864671e-002 -2.9888265088849603e-001
    8.4662402038411799e-002 -1.6151413238488352e-001
    4.2702049613969800e-001 -6.8588094541796624e-002
    5.7430150979965777e+000 -1.5951915413062314e-002
    3.9878986006890291e+000 -1.4580775451756837e-002
    4.2998885245673457e-001 -7.7035302317868010e-002
    8.4765500634970611e-002 -1.8766037227474505e-001
    3.1184231727813205e-002 -3.6612260816584224e-001
    1.7346360768844538e-002 -6.2293012624179300e-001
    1.3286056747700855e-002 -9.6661956121880210e-001
    1.2980433909224895e-002 -1.3965687914475258e+000
    1.3568114864167501e-002 -1.6024958129016706e+000
    1.3004681746533627e-002 -1.2657382804239075e+000
    1.3025999052393785e-002 -9.5774948375299074e-001
    1.3249436877372043e-002 -9.5365377404108420e-001
    1.2811986069068432e-002 -1.1814102226944967e+000
    1.2532276880971839e-002 -1.3379240987565379e+000
    1.2395642474427824e-002 -1.1167018658555068e+000
    1.3957997746325829e-002 -7.7040338170355371e-001
    1.9223837949186987e-002 -4.9796180562884385e-001
    3.3688782857501882e-002 -3.0112130660131253e-001
    8.0067607213546513e-002 -1.5988331531704530e-001
    3.2738217639215517e-001 -6.9425583690440024e-002
    2.2571442946573774e+000 -2.6229498350703609e-002
    2.2064425706550606e+000 -1.0756423166279417e-002
    3.9975717515720893e-001 -5.5314736384487674e-002
    1.0324933234840386e-001 -1.5405167942533518e-001
    4.0213818212607069e-002 -2.9556506710046559e-001
    2.1415862178987728e-002 -5.2798276442157388e-001
    1.4767570582391115e-002 -8.2694795660828802e-001
    1.3133493887971921e-002 -1.2195916830959488e+000
    1.3331138001282076e-002 -1.5236490956792113e+000
    1.3065811233264276e-002 -1.4086782803403732e+000
    1.2822380872564740e-002 -1.1946674259370385e+000
    1.2926878939727821e-002 -1.1926080866199258e+000
    1.2866740587421002e-002 -1.3358880103965547e+000
    1.2730406662977962e-002 -1.3108750365562816e+000
    1.3333307190035636e-002 -1.0321220055156108e+000
    1.6334706201085090e-002 -7.0385999939586363e-001
    2.3896258298125646e-002 -4.4808565992996030e-001
    4.1965492756440709e-002 -2.6864243135264965e-001
    9.2451006959793414e-002 -1.4019369010721805e-001
    2.7549032948353158e-001 -6.2145783469174869e-002
    1.3807954463863812e+000 -2.7277774109497978e-002
    2.9420453436111202e+000 -1.4092332154364244e-002
    4.1713157893505182e-001 -4.6605427247944399e-002
    1.3125766182802417e-001 -1.1105301465983644e-001
    5.5922130960946954e-002 -2.2444298601536003e-001
    2.8945158994675823e-002 -4.0041979174761533e-001
    1.8488672599621638e-002 -6.1899690180662847e-001
    1.5047745804359752e-002 -8.8911910460394916e-001
    1.4138649399273652e-002 -1.1162716563029449e+000
    1.4001200149636775e-002 -1.1898262110609432e+000
    1.3988030446100348e-002 -1.1474637252574853e+000
    1.3954585552444778e-002 -1.1152997427891851e+000
    1.4119002305955076e-002 -1.0721097647774311e+000
    1.4906769857117700e-002 -9.4167039480573056e-001
    1.7144907223285499e-002 -7.3550155295126585e-001
    2.2915546039283752e-002 -5.1553808368804144e-001
    3.6856922407303129e-002 -3.2684219871626818e-001
    6.4479973627220230e-002 -1.8402067639226968e-001
    1.2029914370836760e-001 -9.9074094970070775e-002
    2.8722564503674658e-001 -5.0945470399636081e-002
    1.1348218594812687e+000 -2.2868837993627968e-002
    3.9268629509722817e+000 -2.0590375997105382e-002
    5.6724659351818596e-001 -3.5579522460624270e-002
    2.2752118311150041e-001 -7.7422462571188538e-002
    1.1180602675313142e-001 -1.5156970295341182e-001
    6.2041335324388609e-002 -2.6838741930419996e-001
    3.9896896960753235e-002 -3.9610804479287598e-001
    3.1260858767414690e-002 -5.2307669187658590e-001
    2.7523309781194705e-002 -6.1215298334164692e-001
    2.4658503865220418e-002 -6.4097572980234707e-001
    2.3515193675837365e-002 -6.3119053376819023e-001
    2.3641503709355010e-002 -6.0101631483692253e-001
    2.5608254840702331e-002 -5.5677958036226638e-001
    2.9885042489506186e-002 -4.9672850525051249e-001
    3.6109250522694293e-002 -4.1113393724063652e-001
    4.8802410554151812e-002 -3.1185158073483071e-001
    7.7364768766825354e-002 -2.1248450166690316e-001
    1.4122826884321588e-001 -1.3012838818162531e-001
    2.4047539470733267e-001 -6.7994516682737677e-002
    4.3764398534196663e-001 -3.6381435548097849e-002
    1.1302734696984278e+000 -1.7427265107305273e-002 1. 0. 1. 0.
    3.1306282662121721e+001 -5.3238959234944254e-003
    7.4718936172841772e+000 -7.6239490454688046e-003
    2.5665918927737708e+000 -1.3748820014008352e-002
    1.3603838558421746e+000 -1.8160557681017635e-002
    9.5719342176024169e-001 -2.3765700285187114e-002
    6.9912531135105382e-001 -2.4016208756801691e-002
    6.4230878802142122e-001 -2.4285469168997671e-002
    6.0614264819689767e-001 -2.5563750935802498e-002
    5.7625657800413621e-001 -2.6540925663418213e-002
    5.7168181336165325e-001 -2.6459849249463742e-002
    5.8869894203739337e-001 -2.5762461496109498e-002
    6.1855139282479887e-001 -2.4859868347190204e-002
    6.9394899776554098e-001 -2.4153091356954946e-002
    1.0935494883648040e+000 -2.2780989568282155e-002
    2.2977683828515962e+000 -1.4848681800639531e-002
    3.7949883548690053e+000 -8.8200511620446249e-003
    6.1760937864006316e+000 -6.1267298487620338e-003
    2.0870855108081148e+001 -5.3238959234944254e-003 1. 0. 1. 0. 1. 0.
    1. 0. 1. 0. 1. 0. 1. 0. 1. 0. 1. 0. 1. 0. 1. 0. 1. 0. 1. 0. 1. 0. 1.
    0. 1. 0. 1. 0. 1. 0. 1. 0. 1. 0.</input_scale>
  <output_scale>
    5.2631578947368418e-001 4.9999999999999994e-001
    5.2631578947368418e-001 4.9999999999999994e-001
    5.2631578947368418e-001 4.9999999999999994e-001
    5.2631578947368418e-001 4.9999999999999994e-001
    5.2631578947368418e-001 4.9999999999999994e-001
    5.2631578947368418e-001 4.9999999999999994e-001
    5.2631578947368418e-001 4.9999999999999994e-001
    5.2631578947368418e-001 4.9999999999999994e-001
    5.2631578947368418e-001 4.9999999999999994e-001
    5.2631578947368418e-001 4.9999999999999994e-001
    5.2631578947368418e-001 4.9999999999999994e-001
    5.2631578947368418e-001 4.9999999999999994e-001
    5.2631578947368418e-001 4.9999999999999994e-001
    5.2631578947368418e-001 4.9999999999999994e-001
    5.2631578947368418e-001 4.9999999999999994e-001
    5.2631578947368418e-001 4.9999999999999994e-001
    5.2631578947368418e-001 4.9999999999999994e-001
    5.2631578947368418e-001 4.9999999999999994e-001
    5.2631578947368418e-001 4.9999999999999994e-001
    5.2631578947368418e-001 4.9999999999999994e-001
    5.2631578947368418e-001 4.9999999999999994e-001
    5.2631578947368418e-001 4.9999999999999994e-001
    5.2631578947368418e-001 4.9999999999999994e-001
    5.2631578947368418e-001 4.9999999999999994e-001
    5.2631578947368418e-001 4.9999999999999994e-001
    5.2631578947368418e-001 4.9999999999999994e-001
    5.2631578947368418e-001 4.9999999999999994e-001
    5.2631578947368418e-001 4.9999999999999994e-001
    5.2631578947368418e-001 4.9999999999999994e-001
    5.2631578947368418e-001 4.9999999999999994e-001
    5.2631578947368418e-001 4.9999999999999994e-001
    5.2631578947368418e-001 4.9999999999999994e-001</output_scale>
  <inv_output_scale>
    1.8999999999999999e+000 -9.4999999999999996e-001
    1.8999999999999999e+000 -9.4999999999999996e-001
    1.8999999999999999e+000 -9.4999999999999996e-001
    1.8999999999999999e+000 -9.4999999999999996e-001
    1.8999999999999999e+000 -9.4999999999999996e-001
    1.8999999999999999e+000 -9.4999999999999996e-001
    1.8999999999999999e+000 -9.4999999999999996e-001
    1.8999999999999999e+000 -9.4999999999999996e-001
    1.8999999999999999e+000 -9.4999999999999996e-001
    1.8999999999999999e+000 -9.4999999999999996e-001
    1.8999999999999999e+000 -9.4999999999999996e-001
    1.8999999999999999e+000 -9.4999999999999996e-001
    1.8999999999999999e+000 -9.4999999999999996e-001
    1.8999999999999999e+000 -9.4999999999999996e-001
    1.8999999999999999e+000 -9.4999999999999996e-001
    1.8999999999999999e+000 -9.4999999999999996e-001
    1.8999999999999999e+000 -9.4999999999999996e-001
    1.8999999999999999e+000 -9.4999999999999996e-001
    1.8999999999999999e+000 -9.4999999999999996e-001
    1.8999999999999999e+000 -9.4999999999999996e-001
    1.8999999999999999e+000 -9.4999999999999996e-001
    1.8999999999999999e+000 -9.4999999999999996e-001
    1.8999999999999999e+000 -9.4999999999999996e-001
    1.8999999999999999e+000 -9.4999999999999996e-001
    1.8999999999999999e+000 -9.4999999999999996e-001
    1.8999999999999999e+000 -9.4999999999999996e-001
    1.8999999999999999e+000 -9.4999999999999996e-001
    1.8999999999999999e+000 -9.4999999999999996e-001
    1.8999999999999999e+000 -9.4999999999999996e-001
    1.8999999999999999e+000 -9.4999999999999996e-001
    1.8999999999999999e+000 -9.4999999999999996e-001
    1.8999999999999999e+000 -9.4999999999999996e-001</inv_output_scale>
  <weights>
    <_>
      -4.6222180089869102e-003 -3.0386965129628293e-003
      4.1951311306622193e-003 1.2393182417243767e-003
      3.9910867379776820e-003 -3.6096718242828603e-003
      2.7212430466679316e-003 -4.3222094542688183e-003
      4.2447361673685078e-003 -2.9648579954383437e-003
      1.8223902578679845e-003 2.2345350336514091e-003
      -2.8510467270295809e-003 3.2893528653748744e-003
      6.6332868772747005e-004 2.3070695693070183e-003
      4.4132864887138209e-003 2.4871913685018442e-003
      6.6752844171497007e-004 4.5411576321843479e-003
      2.6542105002752810e-003 1.3940396294657149e-003
      3.9125175763899530e-003 3.0413716111723937e-003
      -1.3362404417424599e-003 -2.2059426488131306e-003
      1.5680867236652495e-003 2.6706976345374977e-003
      -3.8907308630967393e-003 -1.4327270612453627e-003
      -1.1536972816925295e-003 -4.6264017750555914e-003
      2.3060224160819263e-003 1.3092783029316777e-003
      -1.8383566451348704e-003 3.9834846521900739e-004
      -2.9908813254164806e-003 4.1617280994612621e-003
      -4.4932590840112627e-003 -4.6598758093927663e-003
      1.2861381847023793e-003 -4.9377651111871367e-004
      -2.9506613804476368e-003 -2.9307322729695330e-003
      2.0694142749792597e-003 3.6126918873206678e-003
      4.8341336313847258e-003 1.6555333764410316e-003
      -1.8915031729696118e-003 6.3986230241183998e-004
      -2.6937071349175212e-003 -2.0456329913700453e-004
      -3.8397497722587183e-003 -2.5998439387365066e-003
      1.2625594265404177e-003 -1.8229237608033452e-003
      -3.5485943055033461e-003 -3.1430571140462818e-003
      -2.4621547577512448e-003 -1.5562364787584315e-003
      1.4445438086689406e-004 1.2770301559855831e-003
      -2.6479797593721962e-003 4.6089118174772199e-003
      6.0508296790771606e-004 3.9465962783385364e-003
      1.9445897513581125e-003 -2.0512523005369746e-003
      1.3795432742528333e-003 1.5883914200944711e-003
      1.6319220725004501e-003 -2.3643416429982751e-003
      1.8106297601928724e-003 -4.7374210554400140e-003
      5.6880728248780491e-004 -3.6725714549732877e-003
      -2.5920662679817202e-003 2.8725399787440486e-004
      8.3635052721691306e-004 -2.8678647515879736e-003
      1.4719575907745769e-003 -3.0976136310436409e-003
      3.9642033701190382e-003 4.5363844566419630e-003
      4.2988454258555504e-003 -4.8108213563682499e-003
      -4.2817316452198684e-003 2.0251181385126668e-004
      1.4318919384391968e-003 -1.8672345114128803e-003
      -1.7333742334773134e-003 -3.9045569749589469e-003
      5.6491604324825887e-004 7.8036035827621177e-006
      4.1099302360720937e-003 -2.0927461498505182e-003
      -2.6279956628809118e-003 4.1391044263893858e-003
      -1.8829944215139963e-003 4.4589804284261535e-003
      6.0622435323023807e-004 1.4538455969069577e-003
      1.0063244392069025e-003 3.5520411701148004e-003
      -3.8485067180491070e-003 -7.7695574176499466e-004
      -3.4223608190397828e-003 -1.2787527935625004e-003
      4.6216685150028899e-003 2.7902824190821781e-003
      4.4540194340013210e-003 9.6362806363266252e-004
      3.2971025865644711e-003 2.1063584495908763e-003
      -2.0822562636899095e-003 2.8864432769716460e-003
      -2.2287280881655815e-004 -3.2487751328682231e-003
      -1.6637057910007122e-004 4.6998134805608990e-003
      3.8753132525677085e-003 5.0920072121160846e-004
      3.8765447843678944e-003 -4.1325140825440396e-003
      -3.5444265093086376e-003 5.0864509520890072e-004
      -2.3708028945360927e-003 -2.7786058485877512e-003
      5.0810875860270470e-004 -4.5629303838797429e-003
      4.3015752880493779e-003 -3.7110712366382535e-003
      -4.3361205254166327e-003 5.1566338849717034e-003
      -3.9791159955182053e-003 2.0340101534452593e-003
      1.5944370790950350e-003 -4.0883589033024002e-003
      -2.1511219261158832e-004 -3.6493688271758461e-003
      2.2506392641068844e-003 2.2313667931869938e-003
      -9.4943131670522068e-004 1.9068519598256805e-003
      4.1296695600824569e-003 4.3091136164203139e-003
      -2.1552803689897926e-003 -2.3400453506371706e-003
      -2.3162366264342653e-003 -4.3794371809704746e-003
      -4.6294544969943292e-003 2.8776311372734212e-003
      -3.8795869166235544e-003 2.2428074307504825e-003
      -3.8358615237973214e-003 1.1728225894667322e-003
      -3.1071943215289495e-003 3.9861142294205492e-003
      3.1846707833046422e-003 -4.4334292756442548e-003
      1.4212821494564206e-003 -3.0470132373285825e-003
      -2.0911385281922727e-003 -3.1734441344305102e-003
      3.2304997057587123e-003 1.8990682160172911e-003
      2.8157064717315799e-003 -1.0528168660828793e-003
      1.7279837822281633e-003 2.9349992969469099e-004
      -1.0539831750296408e-003 -1.0257491711496904e-003
      -1.9984161965575249e-003 2.7051444621732901e-003
      3.1410314236137351e-003 3.4695272033325717e-003
      -3.5859455570172579e-003 2.4631046261454153e-003
      4.8925653244496553e-003 3.0571286351795618e-003
      -3.1468230988576803e-003 -4.1537954032868267e-003
      3.1003209163921342e-003 4.2295527443812157e-003
      4.2672138835083712e-003 4.2401261281558500e-003
      -9.6750614773076179e-004 4.1641127102173799e-003
      -3.2627687891940227e-003 1.7403475588227237e-003
      3.1621626851383788e-003 2.2643494649390024e-003
      -3.8198714859965029e-003 3.3853432037235362e-003
      3.2510993168348152e-003 -2.2327431882718102e-003
      -3.2721434942178571e-003 2.5183947571933746e-003
      2.7535367690862504e-003 -1.8107315983045035e-003
      -1.8517084449777930e-003 1.8629958307694063e-003
      -4.4672396984591608e-003 1.8433448687276799e-003
      -9.7411543408456171e-004 -2.7587052741414879e-003
      1.1951269973259403e-003 4.2687073922807791e-003
      4.7258985234843363e-004 1.1557961134744446e-003
      1.0055675149410234e-003 -8.8513746702735270e-004
      -1.5317276963743851e-003 -1.0018757495817245e-003
      -4.1994242521559734e-003 -3.0192986562172209e-003
      -3.9629218922747128e-003 -3.3775284583646132e-005
      1.9858372839450336e-003 -2.0716159669029082e-003
      1.6076168303270075e-003 3.0563454327652527e-003
      -1.3989180154272492e-003 -2.5769457616751324e-003
      4.9711290945740590e-003 -1.8211122489984531e-003
      2.5210516523581977e-003 -5.9822848514318682e-004
      1.2966824364491472e-003 -2.1502752877916669e-003
      1.9353294818848345e-003 -3.8159975277577248e-004
      -2.0159822884408289e-004 -1.2562906298949396e-003
      -5.0796805918467997e-004 1.0184311573069163e-004
      3.7786697693535963e-004 -1.8218697339330077e-003
      1.3274566711086063e-003 -2.2109453702163990e-003
      3.1026795601207706e-003 7.0381326436841631e-005
      -1.0515704000539669e-003 4.9283035142787535e-003
      -4.2832448781853513e-004 3.2856835427117446e-003
      2.4915079106945788e-003 -4.8543456915862730e-003
      3.8979093276328663e-004 3.5824317441728189e-003
      -2.2195046958161904e-003 -2.7203000943790503e-003
      -4.2001728049903941e-003 4.0741229681363700e-003
      -1.4919471293616145e-003 9.5384835544098196e-004
      -5.7336572277325460e-004 2.6467394420884032e-003
      4.0641075655601135e-003 -2.4437785743808222e-003
      3.0288291998666109e-003 8.0309408815687022e-004
      -2.1525956360041484e-003 1.4109957079640318e-003
      -1.8819726344801800e-003 -4.4736827791917880e-003
      2.1872761428835706e-003 -4.0600594512353133e-004
      9.1758736652363846e-004 4.0097982241848852e-003
      -3.5376286347447517e-003 -4.0441639786810302e-003
      -3.5419809209699003e-003 -1.8773187598502699e-003
      -4.7654023041936782e-003 1.1358322822972828e-003
      7.2094832605908187e-004 3.2826683028150880e-003
      -7.3613935721177212e-004 -3.0013772181585120e-003
      3.0456624837697992e-003 1.8930545431341983e-003
      -4.8609685821415054e-003 -8.9576565022660897e-004
      3.0285697469817638e-003 1.4546726520641203e-003
      8.4989960043608550e-004 -3.0328695698650658e-003
      5.0189697537539662e-003 2.1144588119505819e-003
      -4.6562680012438027e-003 4.7059797672945074e-004
      2.4529230046671309e-003 1.6330575746910856e-003
      -4.5274870512645735e-003 -8.2229519086903316e-004
      -9.4740187010106613e-004 4.3318102775026521e-003
      1.1507583521921767e-003 -1.8223202103237917e-003
      3.7729266146134728e-003 4.5805032836796905e-003
      1.5662744885507757e-003 -1.5201459399774709e-003
      -3.1877665380743722e-003 -4.2797259256367764e-004
      -1.8841173846132521e-003 1.9635713360748120e-003
      2.3469385729701451e-003 3.2391363213827682e-003
      3.3342050357456194e-003 3.9991405377923272e-003
      -1.3386380823605304e-003 9.2607705644261911e-004
      -2.4093521000327872e-003 -3.0071216758546337e-004
      -2.3702628421345327e-004 -2.6581435211411392e-004
      -2.1576163838851514e-004 -2.5817910664278246e-003
      -2.3309420450078979e-003 -1.0054975072634421e-003
      4.8278430666251751e-003 3.3916384278673399e-003
      -7.0768640657827508e-004 4.7081249332946587e-003
      4.4930166486924139e-003 -3.8751743812233627e-003
      3.5263266308409071e-003 4.1044882030785166e-003
      -2.4296362606537748e-003 2.7407218217761638e-003
      1.8286617436704742e-003 3.4134864401273459e-003
      -1.6361141159096726e-003 -4.3646721846362481e-003
      -1.8977456291292853e-003 2.8429671925708070e-003
      -2.4644484839508787e-003 3.5936981639492901e-003
      9.8746835829837667e-004 3.5418969312810381e-003
      -1.7773628033753920e-003 -3.8407289483803060e-003
      -3.0877454459673028e-003 -4.5616898387392186e-003
      -4.6875545453827676e-003 5.3209224059438964e-004
      -5.7278626318714400e-004 3.9245780587387107e-003
      4.5439439487753334e-003 -1.8848319855068276e-003
      -2.4805218024117671e-003 1.5554555068870450e-003
      -1.6981292767557366e-003 -2.4673428745266785e-003
      2.9613349598096015e-003 -8.6216581632468848e-005
      3.7425627644134163e-003 -2.3905863604121399e-003
      3.9621632718827510e-003 3.5873859894536607e-003
      -9.0240343236675554e-004 -2.8464935674232484e-003
      3.3779062861133097e-003 -4.2591812174551952e-003
      -2.8032617465259075e-003 -4.7416080137275595e-003
      2.8942625583741888e-003 -3.8493527340057536e-003
      4.0306099985372256e-004 -2.3890890985498584e-003
      2.8401316760132303e-003 -2.3043934960146509e-003
      -2.3126749485672103e-003 -4.0279833307027722e-003
      -2.0574407019897717e-003 1.3484791408244514e-003
      -2.8834617075532707e-003 4.4224603303089889e-003
      1.6014880662567890e-003 1.5855434954729524e-003
      1.5080223604761441e-003 8.7314669041207678e-004
      3.5704601091568278e-003 -2.0578547290918230e-003
      -4.6130028857043689e-003 3.4635367958793513e-003
      -2.6065637618154019e-004 1.0701625379749594e-003
      8.4473290218875388e-004 -2.1491281186268186e-003
      -2.4435903814171689e-003 4.8396512509930106e-003
      -3.2169394979653571e-003 5.1619529733347783e-003
      6.8285537649022312e-004 1.5258547810191648e-003
      -1.9573949128976129e-003 4.3167233204608763e-003
      4.2853341070208748e-003 3.5936558696162738e-003
      -2.7979386289166764e-003 5.0491108055112635e-003
      3.0477921394776150e-004 1.2961795683618064e-003
      4.7032219875550625e-003 4.4882112599707738e-003
      -2.2285441238296356e-003 -9.8300971548921515e-004
      9.5630059973688200e-004 -5.0258135920656108e-004
      3.8412279939672767e-004 2.3435258911095208e-003
      -8.7977757825764467e-004 4.0516431316928768e-003
      4.6100217065952855e-003 -1.5015662046686045e-003
      3.2364255386143543e-003 -4.4279295209453595e-003
      -3.0576121761382766e-004 3.3873181999466411e-003
      -4.2950899902523413e-003 1.6040736245267679e-003
      1.4961500229958094e-003 -5.0956957870746549e-004
      -4.5712289473428510e-003 -3.0988346955645183e-003
      6.7464910357217117e-005 -1.7109320765968012e-003
      7.1420371520698528e-005 1.8688772514382646e-003
      -1.1395012547844039e-003 4.6078990801377354e-003
      2.1324312852632477e-003 -4.7354712999357271e-003
      4.3042005080525398e-004 2.9424347197031372e-003
      -2.3032814594515952e-004 -1.7362039948996804e-003
      5.9721609964249957e-004 1.7074177167336157e-003
      4.6267750366163398e-003 2.7203129641212172e-003
      -1.9787431160939364e-003 4.6966174061115924e-003
      -4.5153799378030452e-003 2.4261248299017775e-003
      -3.1279825804813371e-003 6.4457716037098095e-004
      1.5347805190110270e-003 4.1012145667171478e-003
      -1.1942932108618682e-003 -4.7168571252570882e-003
      -3.9826374182953478e-003 1.6081560113274883e-003
      -4.7348201954982700e-005 6.7434797500688995e-004
      -2.5773998030595336e-003 1.2849586425357746e-004
      1.6646258385707841e-004 3.4771863785385804e-003
      -7.0815453172679975e-004 3.5066104188695860e-003
      2.0462953756550050e-004 -1.3837582977269715e-003
      -1.0986174593051521e-005 4.3401523393741858e-003
      4.6898127052449343e-003 2.5470356418627249e-003
      -3.0571936584756270e-003 2.5858899080707424e-003
      2.0472722522242941e-003 3.0388416120986318e-003
      -6.4257334455487781e-004 -4.1020953128887020e-003
      -3.6389870789516479e-003 3.3862912316147812e-003
      4.6832816358236091e-003 4.2044556233187284e-003
      3.2749864584341679e-003 -4.6664375593143542e-003
      3.0065920983694126e-003 4.6615041244590094e-003
      -5.2685023684934790e-004 3.2840624765676676e-003
      -3.9354965315139417e-004 -3.9032878612826820e-003
      1.4818657536588289e-003 2.2129683846624972e-003
      -3.9137366777333834e-003 -1.0815082662952254e-003
      1.5907191177359004e-003 -4.5498512325032351e-003
      2.4470970329042545e-003 -2.7411416114966501e-003
      -4.7378192378403705e-003 2.9201169663616447e-003
      -1.6718968823751920e-003 2.3320035694354472e-003
      2.6560474365059381e-003 -2.1459549804838224e-003
      3.6810930258131291e-004 -1.0918728851209251e-003
      -2.5897736558792863e-003 1.2662636529412665e-003
      -4.1016655148711145e-003 4.6861431381132728e-003
      -7.3639470038115490e-004 -1.7364607969628972e-003
      -2.6136032370175032e-003 6.7225242769337749e-004
      3.4734007095860607e-003 -4.9575868905279170e-003
      -2.8292946732124038e-003 2.0617692586471430e-003
      -5.0684181283601427e-004 1.6307093735353044e-003
      3.2540446446858999e-003 1.9555406290405089e-003
      -9.2840574203413139e-004 1.7448383994783758e-003
      -3.6714198014812897e-004 -1.6701089295383009e-003
      4.4756380724683522e-003 4.8388352995544946e-003
      -3.1730998450739799e-003 -8.2291570583766221e-004
      -3.4326616776510261e-003 -8.3727255543920062e-004
      4.2661511845251058e-004 -5.1314044922523240e-003
      -2.4903153421602904e-003 3.2612277774699333e-003
      -2.3221272378894683e-003 -4.9891340139843264e-004
      -1.8271867646407446e-003 -9.8889759958796248e-004
      5.9882747950629084e-006 -3.1209443941522070e-003
      4.9264133641204475e-004 2.9430808183473958e-003
      -2.4331389050270724e-003 -1.1996931982755049e-003
      3.7946857511109888e-003 -1.8504522073809441e-003
      -4.0860343117734245e-003 -4.0238585081462056e-003
      1.8695082089443876e-003 6.1799854958289008e-004
      -3.2037265069745115e-003 -2.6140450876223557e-003
      1.1556471896208833e-003 -3.5948268799641464e-003
      7.2645849015746781e-004 -3.3129657518928537e-003
      -4.6421292136478234e-003 7.5676569700772916e-004
      3.3219485422765599e-003 -2.6295631296605593e-003
      2.7890224024764137e-003 2.3088030338653075e-004
      -8.2615345098788358e-004 1.5413376903583353e-004
      -2.2159911162229866e-003 -8.5940809904821167e-004
      -2.2728536653892325e-003 -2.6295792859326947e-004
      -2.5704033437261656e-004 -2.3459478506514171e-003
      -2.5939110894525595e-003 4.4065455567517224e-003
      -2.8502259316247744e-003 3.1150062531443701e-003
      1.2460105906843043e-003 4.5709490054655745e-003
      -1.9187282660005707e-003 -2.7066031048125368e-003
      -3.8310744706149288e-003 1.6694684709550205e-003
      -2.4969315573338553e-003 -2.5956457852943020e-004
      3.6143513196660324e-003 -4.0449417833611874e-003
      3.1472977933630030e-005 1.4732349167335239e-003
      -7.7715963565945428e-005 -1.0751530896694122e-003
      2.0953081912117220e-003 -4.0504339568270455e-003
      4.3371705914425473e-003 3.6397261437061930e-003
      -4.8022760004250648e-003 -2.0798970233880903e-003
      -6.1573182623063751e-004 -3.7599146918981651e-003
      -4.0346363581717877e-003 2.7628967249706824e-003
      1.5133022535191115e-003 -4.0251695751829623e-003
      -1.1026374770916065e-003 -4.1012339189164053e-005
      2.9914963843896969e-003 -7.7133475314892879e-004
      -4.3126864069224181e-003 3.8332902331423453e-003
      -2.4082798703766858e-003 2.0117794757436632e-003
      -1.4760858728206110e-003 4.8658355336863301e-003
      -2.5760508947261312e-003 -1.4939390705217825e-003
      4.6289386422672064e-003 1.5138144698627124e-003
      2.9300316854352633e-003 3.6745625529746848e-003
      -1.4051763931695392e-003 -2.7783242717376502e-003
      1.7432875039738419e-003 -3.4737545385920012e-003
      2.2800883041274050e-004 4.1646297492304810e-003
      -4.6644746661571477e-003 -3.6289101593428423e-003
      3.2502380156689266e-003 3.0070628359797551e-003
      -9.7660066335177932e-004 -1.0364024717427714e-003
      4.7280837658071010e-003 4.3115538404592648e-003
      3.6768922875698830e-003 -1.3249967704896367e-003
      1.8643363520729397e-003 3.4599309545405104e-003
      8.2333020915407789e-004 1.9174690261145990e-003
      4.2423045892235776e-003 1.1575119945754740e-003
      -1.9441205086129280e-003 -9.5220368209893863e-004
      4.2324513329826579e-003 6.8803207891232436e-004
      1.9936502809399055e-003 1.5313349416103529e-004
      4.4471626398643440e-003 3.8901034668995942e-004
      1.1870435166826748e-003 3.4845724850691910e-003
      -4.6524788869505146e-003 -4.4444689224707552e-003
      1.2229822079533441e-003 -1.4982662338495489e-003
      1.0786112593368269e-003 -2.8019206731116921e-003
      -2.3640450307273724e-003 2.6301756514053591e-003
      -3.7223349398086470e-003 -2.1032321024913234e-004
      2.5588053504673751e-003 -3.2753831401402147e-003
      -4.4240174222727399e-003 -3.3473209221574488e-004
      -1.3899238095676771e-004 -6.1619802347339238e-004
      -4.2278231941955879e-003 -9.0295825450381097e-004
      4.8089652594817750e-004 1.8664975157177254e-003
      -4.1502334254598051e-003 -1.7577368866239030e-003
      1.5344180507460509e-003 7.4855675650853804e-004
      -3.0684840578158348e-003 4.9253025559326830e-003
      3.5713438097376097e-003 4.5473880233665859e-003
      3.7217682063956305e-003 -3.4278985812146749e-003
      -2.0760406347174565e-003 1.2455785907180801e-003
      -4.3285276459608876e-003 4.7324669415129833e-003
      3.3230104972150048e-003 -2.8213522613718509e-003
      -1.3274010863282854e-003 -2.8847170504403960e-003
      2.0196090268510881e-003 -2.3548048371413452e-003
      -3.0499132001309604e-003 -3.4226296353080291e-004
      3.9206668316373898e-003 3.9227627005271682e-003
      -4.4070745864588246e-003 -1.7269382830383184e-003
      -1.6430389378695696e-003 3.0915916013913407e-003
      -1.2948331088329266e-003 -1.3910142775834012e-003
      -1.0025340610577899e-003 -4.4160774584669927e-003
      -8.2783700962227595e-004 2.5756836217156269e-003
      -9.0916433784548515e-006 4.6692736270851146e-003
      -1.7557513247067565e-003 8.1572442145993887e-004
      -6.7718053846921355e-004 -3.2076201173423312e-003
      -1.5750331849956486e-003 -3.7097954574032864e-003
      3.6371947468125886e-003 2.1240459348663850e-003
      4.5771138454064400e-003 4.6512946804877393e-003
      -7.6552651139904593e-004 -4.4132979181611921e-003
      4.0995900545092445e-003 2.3403234978529733e-003
      -1.3745301017782994e-003 2.1645172021401119e-003
      -4.2769013328250770e-003 -4.4582697855003522e-003
      1.3992546603450813e-004 -6.0246953916726960e-005
      4.3838142883372289e-003 -2.2031123929905938e-003
      -2.3478297981410290e-003 1.3472225875310545e-003
      7.3494668397963594e-004 -3.6565043950433831e-003
      -3.6542312224672434e-003 3.5459343957911652e-003
      1.2769589795176646e-003 1.6813698596694056e-003
      5.7499471709463899e-004 1.6631260301051124e-003
      -3.1680769955756537e-003 -5.4999698516686895e-004
      -1.3213052931879531e-004 2.0096443335905051e-003
      3.7225986258980053e-005 -2.4432784346977597e-003
      -2.6120236501021867e-006 2.2680132849204437e-003
      -3.7189905765090394e-003 1.2490153679090596e-004
      3.8907705879788609e-003 4.5892937928784421e-003
      1.1153558925067579e-003 -3.5372005917979669e-003
      -1.3056118520453678e-003 2.7917719549241772e-003
      -4.8957903478149762e-003 -2.7266562030407813e-003
      1.5176714188057390e-003 -3.5086137322659916e-003
      1.8733651353236601e-003 4.9775590416218859e-003
      -2.7855156685532472e-003 3.4177600412352211e-003
      3.4289741499960872e-003 -4.4807223194995886e-003
      -3.1448554690451224e-003 -9.0313838201451231e-004
      4.2567933739408293e-004 4.3217719796049088e-003
      3.2686764120715001e-003 -1.0318933945912760e-003
      -4.8082751626960058e-003 2.8588103915278924e-003
      1.8754582236144718e-003 2.8819175121052821e-003
      2.8087390596225866e-003 3.7446296845933362e-003
      -3.2374424783051473e-003 -1.0092407298500055e-003
      -1.1594318304045861e-003 -3.7006792782393492e-003
      -4.8548869133926888e-003 -2.8638770576296302e-003
      1.5645507249782702e-003 3.5515686524584308e-003
      -1.7673190325954418e-003 -2.8754855272457125e-003
      -9.8206276017617387e-004 -3.2027357207178200e-003
      -2.0933723166414800e-003 3.6389906416246262e-003
      -1.7396568935210109e-003 -3.6687447401666023e-003
      3.6599821157312943e-003 -2.2825251733305340e-003
      -3.8950046222393894e-003 -4.2207101862792281e-003
      -1.1188263884665910e-003 1.8519480255265567e-003
      -1.6026181835985581e-003 -1.1923029500435494e-003
      -4.2266742018087439e-003 3.8375475964581309e-003
      -1.4542910807288532e-003 -1.8332755881539020e-003
      7.2978588911098432e-004 -1.2192299098968823e-003
      3.4457361031726575e-003 -2.4511778434498374e-003
      -4.2033808312813845e-003 -2.8202107756870091e-003
      3.8536978652563537e-003 -2.9610039521365053e-003
      1.9856267622819714e-003 -1.8777075003469030e-003
      4.2693661053350941e-003 3.2674934774664052e-003
      -1.5415989098477925e-003 1.1809385579844129e-003
      -1.8404073211460603e-004 -2.1183465252304565e-003
      1.7957709994791612e-003 -3.6447023072264948e-003
      3.8583195801601524e-003 -2.6197182628301262e-003
      -2.9352922929167468e-003 -7.7514968181387884e-004
      2.7022258620527872e-003 4.3978375064463527e-003
      1.9508226898159147e-003 -7.4169705178093906e-004
      3.6663337924105474e-004 3.2264323797381498e-003
      -2.0995514136097231e-003 -3.4923107949076827e-004
      -3.0389138825220523e-003 2.1243896285543535e-003
      2.3539918154033470e-003 4.8721425693837523e-003
      -1.5839862334468130e-003 -1.4177830106338698e-003
      3.1617381344998040e-003 -6.6232284846096448e-004
      -2.7307556368608293e-003 2.1705630662639231e-003
      1.4712663621642599e-003 1.0418898964502554e-003
      4.2637884764122379e-003 3.7579938271329455e-004
      -2.7268634664340168e-003 3.7670530067799046e-003
      4.9331330995699670e-003 2.2055657533985820e-004
      -1.2153775079367718e-003 4.8641320801089171e-003
      4.0690363215115447e-003 4.5652385490528612e-004
      2.9819231910571111e-003 -4.0664033087593398e-003
      4.2141917929488307e-003 4.3631403397140648e-003
      -4.0046069567249042e-004 -3.2311171202963384e-003
      -9.6659743050111319e-004 -1.0930811726143465e-003
      1.5341141373694249e-003 -1.3721731605861797e-003
      3.7396853008890914e-003 3.8723999062832211e-003
      3.7732197366287701e-003 4.5926277210098544e-003
      5.0521872157478246e-003 -4.0319046591121392e-003
      8.7375048013894451e-004 -7.0862125567542494e-004
      4.2385029433402088e-003 -3.5665585461373841e-003
      -6.9755546779678469e-004 -4.3386741899087301e-003
      2.3165813974989316e-003 3.1011833097876907e-003
      -2.6964629541900331e-003 2.9380234113818085e-003
      6.9747925014212336e-004 -1.3120572371039952e-003
      8.9735803451946965e-004 1.6813083580076104e-003
      -5.0491842759991005e-004 2.8056836894258651e-003
      -4.7575342966837497e-004 -3.0167989610360695e-003
      8.8084549550459710e-004 -3.9036480193153961e-003
      -3.3609778890720809e-003 4.7143988456940537e-003
      -4.5657699690021527e-003 -4.4500675917273722e-003
      1.2515716598975493e-003 2.9252664542367360e-003
      -3.4807923204515983e-003 -1.9814290017686450e-003
      6.0280668802095434e-004 -3.7603733048137303e-003
      5.8713630881621157e-004 8.7296144637413449e-004
      3.3138580530580222e-003 3.6264556259210123e-003
      -3.3404557103009968e-003 -2.1137735193197263e-003
      4.1834185777548686e-003 -4.2061124928995455e-003
      -8.9261540750573546e-004 -3.0187083524271276e-003
      -1.5141699540767691e-003 -3.0424331570659377e-003
      4.5586327237650938e-003 -2.1977635159672331e-003
      2.0064155004187456e-003 -4.8062167688743881e-003
      4.8417855726310939e-003 4.3948817091649675e-004
      -3.3789263406996039e-004 -1.6158935978322030e-003
      -4.8026048631158768e-003 3.4544099285683102e-003
      -5.1615784533290548e-003 4.2282209138255677e-003
      -4.4920314474323660e-003 1.3989283398626753e-003
      -1.0133057403962956e-003 -1.0553091167282952e-003
      8.6816838000349894e-004 3.3737332000804078e-003
      -4.7754562599558008e-003 2.7848699596124595e-003
      -2.0604497661390335e-003 -2.3057402987873956e-003
      -4.1812312259641403e-003 -2.3649581191526447e-003
      -3.3612790216893877e-003 3.7243447820258061e-004
      -3.7816253728278214e-003 3.2459545486010323e-003
      2.2386265882187082e-003 1.4131180070820896e-003
      4.0507558257736999e-003 9.2083796449038326e-004
      2.3933020876577235e-003 3.4166590399760674e-003
      2.4620480901285493e-003 2.1347394471491025e-003
      3.6886520299003857e-003 2.2760655867603468e-003
      -1.4707520082898580e-003 -4.1410981007418048e-003
      -3.2493607705877093e-003 -4.5684058959213321e-003
      3.5336001590784878e-003 -1.1726017602793084e-003
      -4.1701816934648977e-003 2.9851406422346997e-003
      -3.6592867754609536e-003 -2.4334430697872432e-003
      4.2784461029351404e-003 1.6092174813016843e-003
      2.2010747341775303e-003 -9.3657987029859588e-004
      8.8134531591816680e-004 2.4621950258795081e-003
      -1.2500062815278782e-003 -1.5576501765648693e-003
      -1.9013897555650461e-003 -3.6210768975372034e-003
      -6.1602581821065252e-004 8.1582161070377129e-004
      1.8143069755548588e-003 2.1485011162903521e-003
      1.2422201942492177e-003 2.6048830683187574e-003
      4.1971782999374423e-003 3.2479562444015873e-003
      -1.7701958334028973e-003 8.5679016893902766e-004
      -1.6954380761264928e-003 4.2114428017525837e-003
      -3.7810548118201214e-003 -3.8776105011889567e-003
      -1.5539291110835602e-003 -2.2949837096613184e-003
      -3.5856382456260117e-003 -3.1024705378622122e-003
      2.6222259670192244e-003 1.6069511524299974e-003
      1.7718380107540949e-003 -2.1873132756900287e-003
      1.2560315937435841e-003 -2.2190361440390174e-003
      -3.3835101626067910e-003 -1.9120094586419999e-004
      -2.8781202121626820e-003 2.0096406748251710e-003
      -2.1334061091600365e-003 -3.2653435895553759e-003
      -3.5060355132724911e-003 -1.7562727287359479e-004
      -3.4206917521062440e-003 1.8274113637523669e-003
      -1.1833191568893966e-004 1.6720961224374086e-003
      -2.0272018234758480e-003 1.0744912237818953e-003
      -1.5469307720483317e-003 3.5546425884917239e-003
      4.4329764802183303e-003 1.1195550531286479e-003
      -4.5919320368559401e-003 2.4670971812480644e-003
      7.7680048147292708e-004 3.9394027968645299e-003
      -4.4313615062590989e-003 -3.7044119198431568e-003
      -2.6404599228509865e-003 -2.5419352980309597e-003
      -3.9090120899019356e-003 5.1934564902344027e-005
      2.5783814865067930e-003 1.4935054853532176e-004
      2.3010730207590289e-003 2.5597252656305099e-003
      4.2200501508713592e-003 2.0143535488851014e-003
      1.1741156000303859e-003 2.1664615364160302e-004
      -5.0095233970643919e-003 1.0655550847853822e-003
      -1.9749650133699562e-003 -5.3608348231197196e-004
      -2.7497579909082858e-003 -5.2909409513776824e-004
      9.3990720080492762e-004 7.2633003624016491e-004
      -1.8088785890844846e-003 4.5594562554564805e-003
      -4.6578290267129078e-004 -3.4250145568218513e-003
      3.2168918263403325e-003 3.0402798916037729e-003
      -5.0451672572618452e-003 -2.8568682370131212e-003
      -3.1503695216996532e-003 3.5552598152417164e-003
      -2.6001430514731002e-003 -7.4868205857372736e-005
      -3.5041813263178771e-003 4.5264328426026781e-003
      9.7420094368280751e-004 3.0924757719915205e-003
      3.7931531252583797e-003 -6.5282265249348508e-004
      5.5224079416243185e-004 -3.5424317066425682e-003
      -1.1804801188050218e-003 1.3635383368507214e-003
      8.4010101950098514e-004 -4.7780122471998750e-003
      -1.5071276486873853e-004 3.2677144880491047e-003
      -2.9568243568345817e-003 -3.4956297337144491e-003
      -2.2884557403602978e-003 -4.7003177324228106e-003
      2.4442410727658443e-003 -1.3813087408187151e-003
      -4.9674765799387829e-003 -4.4369818425278318e-003
      -4.7546844783551440e-003 2.2700320988212415e-003
      3.3852415480821094e-003 -4.0126133612524021e-003
      -1.2490345998560895e-003 1.4936887896371328e-003
      -3.2740623538912534e-003 1.1279320621331347e-003
      -3.0907881965551928e-003 3.9462739925354472e-003
      3.8635781833451449e-003 -3.8739622724918423e-003
      8.2564877909904592e-004 -4.2216457465507808e-003
      -2.1941514993576165e-003 3.0163561240619538e-003
      -2.7267123623664919e-003 3.5782258104779213e-003
      -1.9219650359011666e-004 1.4583101155037548e-003
      -3.9946626236848776e-003 4.0011455214759221e-004
      2.2408308812427793e-003 -4.1783951030285238e-003
      4.5756095854565569e-003 4.7465086417493984e-003
      -2.0760488933930670e-003 2.3277778307272757e-003
      -3.1226393147649992e-003 4.0137629712296416e-003
      -4.8870210280194757e-003 1.1854613350503972e-003
      4.5892478164097326e-003 -1.8675520994880157e-003
      -4.8516916228133304e-003 3.8456689399414670e-004
      -3.7839748540587585e-003 3.7572726592869387e-003
      -2.7707961119524311e-003 -2.4649900780121950e-003
      3.3445973310662912e-004 -4.4764712875324450e-003
      2.0649106628964849e-004 4.7901780545260382e-003
      1.0675833001688733e-003 -3.6230892762888559e-003
      3.5402342709769238e-003 2.2069679542109540e-003
      3.0318175511530776e-003 3.4355413588313842e-003
      -6.6664299167475236e-004 4.5416816739315882e-003
      4.9196513347845305e-003 -1.9784572403296441e-003
      -1.2768254223518526e-003 1.8938228976321983e-003
      -3.1123444512596741e-003 8.5820376791858493e-004
      -5.9213131351599862e-004 4.7937878230331831e-003
      3.3231571395259232e-004 -3.4073961120802310e-003
      -7.4444217197775246e-004 3.8449658779335931e-003
      4.2362495124178357e-003 4.0052983539618477e-003
      -2.8823336356550160e-003 4.7972645791594520e-003
      -6.9708740887207724e-004 -2.9793995300497261e-003
      1.9934082162082400e-003 -1.9689816315658117e-003
      -2.4899341199124494e-003 -3.7885785012550465e-003
      -1.6006753237588903e-003 4.2173044689356627e-003
      -1.9071000352112722e-003 1.3687587961310917e-003
      -3.2259874851955938e-003 5.1364037392746132e-003
      -3.5107476132609085e-003 1.9444409347205106e-003
      -4.6307282883067671e-003 4.7594610986902682e-003
      -1.7801716693787342e-003 -5.0887293660090305e-003
      3.3850219679941564e-003 2.4132990212967949e-003
      -4.6563384817370360e-003 4.1398818259079564e-003
      -6.5009141226595325e-004 3.0601286833964883e-003
      -4.0674403850611664e-003 -3.5857650173955575e-003
      -4.3692843689782952e-003 8.6368634889721853e-004
      -2.1496474009054206e-003 1.0263399304293184e-004
      9.2948939446187465e-004 1.0237688039163089e-003
      -2.0265680246258659e-003 9.8045803066563867e-004
      -2.5236784904259641e-004 1.5727924967585093e-003
      -2.9737845426430717e-003 3.2459790776502014e-004
      1.5947003406249819e-003 3.1513907970896482e-003
      3.0038071613091803e-003 -3.6900325129719082e-003
      -7.2227873405410648e-004 -2.5631176026530656e-003
      -4.6680787670235523e-003 4.1578842253704772e-003
      3.6033495123886593e-003 2.1500293050439072e-003
      -2.6400245588015596e-003 3.8919443658380587e-003
      2.9069310568211487e-003 2.0724689206177510e-004
      1.9625163667489009e-003 1.1374292347504822e-003
      2.8533835833288285e-003 1.5595629791258360e-003
      3.1445780081430078e-003 -2.8032446784076090e-003
      -2.2168195920559820e-003 1.2862562500914755e-003
      -1.9439954429767549e-003 -2.7475814767080543e-003
      -1.9346443525880281e-003 1.0190554329080664e-003
      8.1448245794013140e-004 4.0755615785399999e-003
      2.9246044162376831e-003 8.7489632790645970e-004
      -4.4350263540091073e-004 -1.1414206736045744e-003
      3.1945453262938435e-003 9.3992453096310689e-004
      6.9491102831352838e-004 -2.7283564804901871e-003
      -3.6148059776564706e-004 -1.9454335087318419e-003
      -4.6183170041372750e-003 -4.6728032203652630e-003
      2.7322191013090021e-003 -3.3684376528685493e-003
      4.5941469641824285e-004 -2.4493912251429407e-003
      1.1863648874191478e-003 -1.8831772136510513e-003
      -3.3272544655017569e-003 1.3725106978263132e-003
      -3.0926782563436323e-003 4.1708985355932396e-004
      3.2208958009871933e-003 1.4372354868932337e-003
      4.4980797543295488e-003 -4.5345717326389905e-003
      -4.8509184354043437e-003 3.5560710521530302e-003
      -2.4381412857450106e-003 -4.6789493697921621e-003
      -4.4294990888884824e-003 2.7137525926839360e-003
      -7.8663643944641373e-005 -4.6836504848198068e-003
      -3.4498204770849906e-003 1.2180863294188823e-003
      -4.2906359919444295e-003 -1.9449909752313917e-003
      2.9909704882622547e-004 1.7768484712696012e-003
      3.9951902542655028e-003 1.1874384443957414e-003
      3.3425340597871046e-004 3.0630592397158430e-003
      1.1239385831826195e-003 -2.9405788540911868e-003
      -3.2177526068619768e-003 3.7767380277239546e-003
      -3.4675452741078131e-003 -8.9219784239875455e-004
      -5.7023583401520390e-004 -2.3245408346488127e-003
      7.8861987990807984e-004 -2.6117477508819918e-003
      4.4356991975370123e-003 -3.5855366667424528e-003
      2.4216811053808522e-003 2.4287684686802964e-003
      2.7077570236381881e-003 4.8927980192230418e-003
      -5.0627460253129214e-004 -8.2243414458874661e-004
      2.5728529540919236e-003 1.8187054090596007e-003
      2.3956193096730220e-004 -3.8636385632149460e-003
      -4.8682135780117337e-003 -4.1984235093635398e-003
      -1.6803219807217668e-003 -3.4061417460952799e-003
      4.9303575057924555e-003 1.0322625298978313e-004
      2.2275771015580078e-003 -2.5292348987189981e-003
      2.4335818592757185e-003 -4.8476726635895678e-003
      -1.4213231652305465e-004 -1.6844398816169908e-003
      -4.0788173174394958e-004 8.0061329825606268e-004
      4.2907483303621201e-003 -3.8245926103690848e-004
      -2.9161431362819887e-003 1.7391460107321741e-003
      -1.4994083285473103e-004 2.5491722647163068e-003
      -3.3439278421429734e-003 -1.5079500660636924e-003
      2.4652123616214494e-004 -3.3589499216226193e-003
      4.1785198447804881e-003 2.3784550632362369e-004
      -3.3128719365588854e-003 4.1467892886423519e-003
      4.0542044688994441e-003 -2.2050087471490033e-003
      -3.8082310452576267e-003 -1.3242387019078762e-003
      -8.5703240788172620e-005 4.1790232745207305e-004
      -4.3859117789445184e-003 -9.7886432217794654e-005
      3.8096315466101534e-003 1.3166832152260739e-003
      3.9001798040830911e-003 -8.7691322855022106e-004
      -2.2334106748155705e-003 2.1387270353332272e-003
      9.4741477303509898e-004 3.2776809843691524e-003
      2.5597349874420259e-003 4.7629358835966406e-003
      4.6522053134242366e-003 2.1436730477212740e-003
      1.3837672011595039e-003 3.9629123883329681e-003
      -3.4570566913050115e-003 -7.3036556521611780e-004
      1.8337400409721544e-003 3.0219425674972073e-003
      -1.5074255485661866e-003 1.7534316582259201e-003
      3.9830719100564715e-003 -4.5698646951901822e-003
      -6.9498440742623939e-004 9.0902932686618668e-004
      -2.9508905783461525e-003 9.8938735833807253e-004
      2.5705384226829189e-003 -1.8384329511515489e-003
      2.8037539685193034e-003 -2.3221290729142862e-003
      3.6590683656271641e-003 4.4210986381445945e-003
      -1.9563056610467072e-003 -8.4975820291929469e-004
      -2.1582372773941076e-003 1.6586959104027824e-003
      -2.9541098831063002e-003 3.1393123480079883e-003
      -1.4527274982215194e-003 4.2888376479896214e-003
      9.1682784693748233e-004 4.1888922583394831e-003
      1.1607947752610202e-003 3.6248578324600653e-003
      1.6688871508270067e-003 -1.1319837821455296e-003
      1.4170945042756451e-003 3.7609660191393344e-003
      -2.2091600413880314e-003 3.5484135709873761e-003
      -3.1486441220529905e-003 -2.4051165621599921e-004
      4.2556117191602134e-003 -4.5844282996170055e-003
      -3.5405616062984678e-003 -4.3628375376788212e-003
      1.7787263956908312e-003 -5.4224786577073769e-004
      4.5300476504795507e-004 -4.2118360442106508e-003
      2.5167502616150533e-003 2.0758930378779695e-003
      1.2061394735134031e-003 -3.5079331870883396e-003
      -3.3716951872839462e-003 -1.9705402696435304e-003
      -5.3261378864766153e-004 -7.7259033156645558e-004
      -2.3477188378344337e-003 8.1864415703008034e-004
      1.7550826729127267e-003 2.7065730009682623e-004
      9.5983929455469084e-004 4.9206683127956527e-003
      -1.0771208127319687e-003 1.5489726515548305e-003
      -2.4776723234183977e-003 1.3558066677711404e-003
      -4.8395762128876701e-003 -1.0596988103173982e-003
      -4.7400746877095477e-003 -2.8931447037253226e-003
      1.9603117961776535e-003 -3.6774066081173068e-003
      8.0604163625318834e-004 -3.7475625173943317e-003
      2.6570215173874135e-004 -4.9409868306375115e-003
      -4.0094595024552171e-003 -7.2054829566297902e-004
      -2.2892548412859408e-003 -9.4952925757915176e-004
      -2.5194131135957156e-003 -3.1990211975162063e-003
      -1.9308817884933444e-003 -3.4917861459082371e-003
      2.0108240996042194e-003 -3.1515815681077515e-003
      -9.0728250565697585e-004 -4.1185607761930320e-003
      1.4981655759868570e-003 4.5482674617808774e-003
      -3.2100695431460336e-003 -4.3801717534259557e-003
      4.5728643790558174e-003 -3.9518480691600388e-004
      4.6271508090839309e-003 -1.2263498348294044e-003
      -4.7296908942763647e-003 3.7033179937435343e-003
      -1.8855468979149005e-003 2.8113055761424399e-004
      -2.5962348198202301e-003 -3.7816819332884373e-003
      -1.8391346792818602e-003 2.1337368521828215e-003
      1.2092612298884985e-003 -1.6318622742031406e-003
      -2.9086673276188233e-003 -4.3062241134478258e-003
      3.9731320151490087e-003 -2.0752568602314661e-003
      -7.5574611017040960e-001 4.9873889839624863e-001
      1.5580404314079372e+000 8.2093108287209515e-001
      -7.7985149703118817e-001 3.7556795873134274e-001
      -6.8601560198729103e+000 1.0604056848715901e+000
      -1.0018949391258651e+000 -3.3022022402686146e-002
      2.0949738282064954e+000 9.6602923341662705e-001
      1.2482939813213292e+000 1.0464537272036961e-001
      -2.0431062342096091e-002 -7.0726737013320040e-001
      -8.3702549617479388e-002 2.9322315613663807e-001
      -3.5023814064117098e-001 1.0610509683472553e+000
      1.4645809068988953e+000 -1.3830409039217667e-001
      3.3107694443443730e-001 9.3416280296987775e-003
      5.9756917370543033e-002 -3.1532984083517018e-001
      -7.6350545731848773e-001 -1.2737688588182461e+000
      -9.4677897625908691e-001 6.0464191317979377e-001
      1.4363232795360645e-001 8.8439764866236914e-001
      3.2219629795520111e-001 -8.9940829500154945e-002
      -4.5110523096222082e+000 -1.4445940520706432e-001
      8.5099985596833461e-001 7.8443790352581222e-001
      3.2236883171916897e-001 -2.1040905538102708e-001
      8.9380589068910540e-002 4.5962763560768577e-001
      -4.1133003909056827e+000 3.3605515832016797e-001
      -9.3290239974044342e-002 -3.0434886376653381e-001
      1.0727194172137267e+000 5.7889774261945237e-001
      -1.4128138145838023e+000 -1.8166540732388686e-001
      3.4907528727178266e-001 -6.3313694437391221e-001
      -3.3398967541161323e-001 -1.2637898413584689e-001
      1.6868803337120958e+001 -7.6018100222898385e-002
      -1.0755621680551446e+000 -1.1670760690462805e+000
      4.5654921025262114e+000 -6.6921304306457841e-001
      1.7183939635942667e+000 1.2204345467223696e+000
      3.0635128445039697e+000 -1.5362821718973902e+000
      -9.0839930713928851e-001 -7.5749368578142617e-001
      6.4358985358708254e-001 1.5652362746664372e+000
      8.3062336733809528e-001 -7.7428347029013189e-001
      3.7590484723839390e-001 -3.1573864419200439e+000
      1.0670166728260677e+000 -1.0010275749822042e+000
      -3.8539909950833943e-002 2.0890621978085084e+000
      9.7353122215237198e-001 1.2454458013275465e+000
      4.6851614104212902e-001 -2.1297100786436530e-002
      -7.0596957975755215e-001 -1.0433358852428085e-001
      2.8761051620688444e-001 -3.4126486443329807e-001
      1.0622853782410784e+000 1.4640398229208582e+000
      4.7888249746425360e-001 2.8563426588406943e-001
      3.4482152359870830e-002 5.8300237374779892e-002
      -3.1360071429684450e-001 -7.6562554600653143e-001
      -4.8007237656356661e-001 -9.4648526003057143e-001
      6.0680107539167116e-001 1.1992708733100844e-001
      8.8866443919780036e-001 2.9436258055846559e-001
      -1.9046699757006380e-001 -4.5116593302525345e+000
      -1.4101143584541459e-001 8.5047970581158638e-001
      7.9139086684374671e-001 3.2420933715421035e-001
      -2.1144441713954523e-001 6.9768742062811372e-003
      6.3343991714408032e-001 -4.2335733000379605e+000
      4.0459660921712221e-001 -9.9711199191925920e-002
      -3.0899697127323866e-001 1.0804196697928334e+000
      5.0004620725951188e-001 -1.4049410745706112e+000
      -1.3065115426191012e-001 3.4807348074350580e-001
      -6.3735354729465443e-001 -3.2540647738798117e-001
      -8.2361235382150955e-002 1.6344415039794711e+001
      -7.0733119536572658e-002 -2.2398893180573061e+000
      -1.1673519040617348e+000 4.5690205860832309e+000
      -6.7288062576056284e-001 1.7205607218874068e+000
      1.2142958645662796e+000 3.0635973231642191e+000
      -1.5294602167584519e+000 -1.2125591752504872e+000
      -7.5580505535586184e-001 3.6041978251236195e-001
      1.5645688381614575e+000 8.2875389614818740e-001
      -7.7968373123125512e-001 3.7245565379692114e-001
      1.7814226249142296e-002 1.0924414587757723e+000
      -1.0015008900266058e+000 4.5382480604759731e-002
      2.0951791858402804e+000 1.0990841993288860e+000
      1.2484596215984982e+000 9.1040547067758868e-004
      -7.5919945159291392e-003 -8.9192147244813003e-001
      -9.1313385779236464e-002 8.7630847279212587e-001
      -3.4230749200319355e-001 1.0548698168137973e+000
      1.4658680597149170e+000 -1.5839774662389330e-001
      1.8427137854346517e-002 5.6890271829237338e-001
      -3.4323381688838181e-002 -1.3060373049093115e+000
      -1.1452647747198441e+000 -1.1352426844942659e-001
      -9.4564903131871725e-001 9.4528516988388156e-001
      1.2708423373501979e-001 8.8955005501479267e-001
      2.8910865024536292e-001 -4.4715670620024778e-001
      -4.5145775328609954e+000 -3.6795340821803198e-003
      2.7412786485193619e-001 2.2614111000353585e+000
      3.2015296290062700e-001 1.1628817396907486e-002
      -3.6760800325009425e-002 5.6437667607226472e-001
      -3.0357841004775194e-002 5.6775639211254814e-001
      -9.9553256841497906e-002 -9.5430370121547337e-001
      1.0754239200279805e+000 1.1633923954642105e+000
      -1.4133288816331044e+000 2.6256439085214972e-001
      1.3755151246308033e+000 -6.3110029103186871e-001
      -3.3373277615368518e-001 6.9187630575009929e-002
      1.9027512590650342e+000 -6.2412657830233065e-001
      -2.7436381997440368e-001 -1.1634149218510772e+000
      4.5638401494748022e+000 -1.0921207581805843e-001
      5.9488900038390757e-001 1.2214572902608107e+000
      3.0708446082445158e+000 -2.9993780772205181e-001
      -1.3686559571848251e+000 -7.5868324645516616e-001
      -1.4167612418385972e-001 1.5607332196054702e+000
      8.3025099851948803e-001 -7.7781708841289643e-001
      3.8026669766851340e-001 2.0805511974003260e-001
      1.0799350069690905e+000 -9.9985762702918546e-001
      1.8371182366133898e-001 2.0894065644224593e+000
      1.1038627469767754e+000 1.2506805427319267e+000
      5.2965124815351239e-001 1.2616976316708281e-001
      -8.2826144295341297e-001 -1.0548136210957679e-001
      8.8023897004011642e-001 -3.4248677740826750e-001
      1.0537526074975412e+000 1.4666768798167609e+000
      -1.4943819277710901e-001 1.6188716267572650e-002
      5.7076177158480690e-001 -1.2685535221567903e-001
      -1.2975246243796645e+000 4.9395241922194154e-002
      -1.6068332039287783e-001 -9.5058043616015719e-001
      1.0680965768933712e+000 1.1742841535167570e-001
      8.8453250829428953e-001 2.9383407646297660e-001
      -2.6270796134427514e+000 -4.5073759449507786e+000
      -5.1613850340429375e-002 3.9328431585077694e-001
      2.2636832836833221e+000 1.0965299042688630e+000
      1.3311872373421595e-002 6.6410342468982586e-002
      -3.3522600166386203e-002 -4.9065192543962938e-001
      5.7016700981055379e-001 -9.2641587294098909e-002
      -9.5950742228553088e-001 1.0730091603684915e+000
      6.5250680995393096e-001 -1.4118797298925616e+000
      -6.8770411372437723e-002 1.3745437006996910e+000
      -6.3822139153110213e-001 -3.3131556234024634e-001
      5.2686299611849974e-001 1.6232613346575515e+000
      -4.9713667666636946e-001 -3.2025741816498376e-001
      -1.1638703592159683e+000 4.5660330093786223e+000
      -1.0755871378693353e-001 5.9182865309268962e-001
      1.2195586434169938e+000 3.0698428894206580e+000
      -2.9542402433324111e-001 -1.3537152039400990e+000
      -7.5606528117747807e-001 -1.8929661113992469e-001
      -3.3073418349115813e-001 8.2530680829235348e-001
      -7.8144527508237638e-001 3.7782671857499739e-001
      6.2462692844714555e-002 1.0944900361290169e+000
      -9.9858209180587543e-001 -4.4027735119685260e-002
      2.0976006204519688e+000 1.0998614045419304e+000
      1.2486169583956934e+000 -6.4368363369326498e-002
      1.0103365681753228e-001 -4.5992967860555728e-001
      -1.0748897385225507e-001 8.8128998397838221e-001
      -3.4604277944285877e-001 1.0576837537762513e+000
      1.4647840885432895e+000 -7.4712184901373657e-002
      7.9705955039981691e-001 5.6832411848852571e-001
      -1.2259655168068613e-001 -1.2971220190237180e+000
      6.3640590468045821e-002 -2.2000010908040216e-001
      -9.4826061599457268e-001 1.8990406608646864e+000
      1.1787809450385689e-001 8.9071373878917071e-001
      2.8800062033889018e-001 -9.8539797913654159e-001
      -4.5159113513953741e+000 -1.1521822691049367e-001
      3.4761542376889742e-001 2.2640849635586804e+000
      1.0969293065255332e+000 1.2115991746833416e-002
      -9.1945229202028175e-002 1.7583419227896829e-001
      -2.5779372294235986e-001 3.9238424607941480e-001
      -9.7813764101087691e-002 -9.5283330505040520e-001
      1.0734310763977690e+000 6.4882818627287087e-001
      -1.4086230930582400e+000 -1.1019548395916530e-001
      1.3742587040638712e+000 -6.3339151235200020e-001
      -1.0877655535343098e+000 5.1932053101637288e-001
      1.5308006719758809e+000 -4.9642947591812969e-001
      -2.8188835242598403e-001 -1.1632644718783651e+000
      4.5616017671723119e+000 -6.7430398803708869e-001
      6.0032361327693506e-001 1.2170468172364781e+000
      3.0628839230870608e+000 -2.9739977450556754e-001
      -1.3163498261157025e+000 -7.5681243987446745e-001
      4.7638423067072522e-001 -2.9808675306714078e-001
      8.3036019902487557e-001 -7.7223334020326118e-001
      3.8058101234291253e-001 -2.1093079650106497e-001
      1.0782957545036869e+000 -1.0029520741133089e+000
      5.7808610764228309e-002 2.0935712745098636e+000
      1.5468058642619980e+000 1.2525576953350148e+000
      -5.9644876047051119e-002 8.8852719455182791e-002
      -3.6951129413335682e-001 -1.0411722381429067e-001
      8.7964463088316547e-001 -3.4346449796267653e-001
      1.0541098888330984e+000 1.4633281201927661e+000
      -7.1342282117487318e-002 4.9902382455134155e+000
      5.6739288904273355e-001 -1.0638039608442661e-001
      -1.3058419362789371e+000 1.5730118813500182e-001
      -2.1820567083392188e-003 -9.4398362520685108e-001
      1.9090781251275921e+000 1.0876020616221055e-001
      8.8991524086127038e-001 2.9440818886588033e-001
      -9.8189388315733850e-001 -4.5086632321146904e+000
      -2.7702118625162215e-002 1.0807406001576445e+000
      2.2647207871056816e+000 1.0978185442479367e+000
      1.1422411576317043e-002 -2.8147616212200538e-001
      1.4477939037642293e-001 -1.2796663889977189e+000
      5.3692132960911121e-001 -3.2337250555988239e-001
      -9.5456289710982234e-001 1.0774984710396549e+000
      6.4473587275686584e-001 -1.4132842774546901e+000
      1.5021989236659577e-002 1.3708466262916026e+000
      -6.3587434720778779e-001 -1.0850627679588016e+000
      5.1989903218592282e-001 1.8063234237444310e+000
      -2.3358945148241597e-001 -2.6457226675544498e-001
      -1.1620990131488846e+000 4.5669259451408841e+000
      -6.7224321959439215e-001 6.0065189026337695e-001
      1.2125256337231505e+000 3.0645772865939072e+000
      -2.9374727309362858e-001 -1.3210063169975139e+000
      -7.5751765158273321e-001 1.0734364348944292e-001
      -4.8050913305118675e-001 8.2671500883788862e-001
      -7.8148950224725122e-001 6.4437123295414100e-001
      -4.9299455635818175e-002 1.0923720933411283e+000
      -1.0010544249178133e+000 6.0992032806375029e-001
      2.0888541181190714e+000 2.9223570194862654e+000
      1.2524427265359481e+000 -1.5716090750800990e-001
      7.3125139737098110e-002 -3.5138725770382317e-001
      -1.0574643709030311e-001 8.7578125003600837e-001
      -3.4802352467272069e-001 1.0588124361989262e+000
      1.4711615980499650e+000 5.5373537048033250e-001
      -2.7056008010947194e-002 5.6768206554176215e-001
      -6.8255164911962832e-002 -1.3063589102530226e+000
      -7.9720065515301786e-001 2.8746109477036469e-001
      -9.4560238077175585e-001 1.5169286703825502e+000
      4.2575832938693485e-002 8.9022158863066292e-001
      2.8835698160467060e-001 -9.7830570436781428e-001
      -4.5090095529107748e+000 -1.0560283694357044e-001
      1.0776635480487178e+000 2.2633820481943117e+000
      1.0897133956968827e+000 1.0822949132248984e-002
      -2.3444036511628821e-001 1.4866041953867484e-001
      -8.6427186486130694e+000 4.9949462448640070e-001
      -1.0615272880906581e+000 -9.5289262087586679e-001
      1.0741819230875629e+000 6.5052743746684427e-001
      -1.4095252597754915e+000 2.4902391706531645e-002
      1.3774985113454183e+000 -6.3649238965303390e-001
      -1.0855959768110501e+000 5.2395885657867136e-001
      1.4952813429171059e+000 -2.3416411467841669e-001
      -2.8331056602598531e-001 -1.1626452984957298e+000
      4.5692213066375560e+000 -6.7168695088586916e-001
      5.9889798848203879e-001 1.2197515233435761e+000
      3.0641038783231598e+000 -2.9732711972560555e-001
      -1.3181953156147166e+000 -7.5596390739374331e-001
      5.9899461042102038e-002 -5.8349900679701458e-002
      8.2506863839584510e-001 -7.8050002562562704e-001
      6.4185207938357014e-001 -2.9095089654084326e-002
      1.0915254958581795e+000 -1.0032865870741401e+000
      9.8824505740449237e-002 2.0913871323102704e+000
      1.7023653581201583e+000 1.2520946722200428e+000
      -7.9027944142730566e-002 -1.3273012151058478e-001
      -1.6086893476763814e-001 -1.0475462731637437e-001
      8.7700271959035614e-001 -3.4614661758779963e-001
      1.0559407917235537e+000 1.4615635430110667e+000
      -1.2040780739562974e-001 -4.5920600134342071e-002
      5.4248369630802273e-001 -7.2736272273819250e-002
      -1.3044643135111578e+000 -1.0606901724959432e+000
      -9.3083315002388298e-002 -9.5070220689503582e-001
      1.2588899952191206e+000 4.5052562990300339e-002
      8.9284380240213368e-001 3.2252728533883951e-001
      -2.4314933548693949e+000 -4.5124702439479334e+000
      -1.0870010412119779e-001 1.0432790357302730e+000
      2.2609183763683980e+000 1.0893721894694230e+000
      1.5044737682903913e-002 -1.1845445718229310e-001
      1.4242169208536518e-001 -6.5284060967208148e+000
      5.0186408575732044e-001 -2.3488779086510463e+000
      -9.5283250814961717e-001 1.0814663871286052e+000
      6.4721931433900948e-001 -1.4042016040547456e+000
      6.6695497688057895e-002 1.3752120224770163e+000
      -6.3033681884948889e-001 -1.0812394093669560e+000
      5.2293334912080802e-001 1.4028840413725452e+000
      -2.3655697771804635e-001 -2.7916512463708243e-001
      -1.1625354505603509e+000 4.5703750073874136e+000
      -6.6919161825548179e-001 5.9498699198669247e-001
      1.2125214108173010e+000 3.0641493014047172e+000
      -2.9952789921671130e-001 -1.3226067283140848e+000
      -7.5726147665429233e-001 -1.2953034368447691e-002
      -2.9357478562600292e-002 8.2339128943887518e-001
      -7.7388415394386023e-001 6.4027886327656713e-001
      -3.4779006997719387e-002 1.0877325950922963e+000
      -9.9642421550762683e-001 3.3709338880127604e-001
      2.0900333331006475e+000 1.7068823545227898e+000
      1.2468770011611567e+000 -2.3598061202616821e-001
      4.6731672693784854e-003 -9.3191180711760177e-002
      -1.0201040782592220e-001 8.7760671180333405e-001
      -3.4879428041223592e-001 1.0628623945212683e+000
      1.4701552780811054e+000 -1.5379485032852419e-001
      -2.7268147371721146e-001 5.4610772170332889e-001
      -1.5063390317321787e-001 -1.3062096806772279e+000
      -1.0532562794306775e+000 -1.2716083306453985e-001
      -9.4546140482170971e-001 1.2579113859957107e+000
      1.0418898898434791e-001 8.8528903864811326e-001
      3.2171390702489533e-001 -2.4297219838812931e+000
      -4.5154766573504412e+000 -1.3637113636179585e-001
      1.0443976121117498e+000 2.2614165595656517e+000
      1.0938798732390682e+000 1.7434219852669634e-002
      -1.4817839196767166e-001 1.4437568159599182e-001
      -1.4015904185188365e+001 1.8918617460624121e+000
      -6.1911436444645940e+000 -9.6169825501544848e-001
      1.0754336605686168e+000 6.4954562895903190e-001
      -1.4103001140442919e+000 5.7385361969729848e-002
      1.3698016459358004e+000 -6.3445072174562722e-001
      -1.0823806179934428e+000 5.2032114116142025e-001
      1.3789987540134581e+000 -2.3892969110576698e-001
      -2.7480308555881727e-001 -1.1614833905964530e+000
      4.5681160427826413e+000 -6.7108226894009526e-001
      5.9117741148439140e-001 1.2194906309338680e+000
      3.0678836931254492e+000 -2.9943883750515154e-001
      -1.3148025890092285e+000 -7.6383489837411356e-001
      1.0175913596993547e-001 -5.1202594169304401e-004
      8.2522232369530168e-001 -7.7483842041134265e-001
      3.8159688112508861e-001 -3.1327561652962146e-002
      1.0940297367870271e+000 -1.0005022405392574e+000
      3.3593475756545793e-001 2.0892502067311440e+000
      1.7012945934027595e+000 1.2494512358995393e+000
      -5.4157764587078897e-002 4.9545185586797585e-003
      -2.6438032374187859e-001 -1.0861765221680100e-001
      8.7446328600838064e-001 -3.4964194879277499e-001
      1.0616939838146655e+000 1.4703574609242906e+000
      -2.2847699068424399e-001 -2.7516911298056995e-001
      5.4109461434401196e-001 -2.1076143189418101e-001
      -1.3053485235067990e+000 -1.0618485506322544e+000
      -1.4902445417854901e-001 -9.4624163736102551e-001
      1.1834755493713396e+000 6.6179182014052462e-003
      8.9230950693115263e-001 2.2608571382388451e-001
      -1.0547630424881684e+000 -4.5139418733316923e+000
      -1.5894081309904853e-001 1.0402231307786538e+000
      2.2641561840700057e+000 1.0918458109316425e+000
      1.1754362395396810e-002 -2.2367551799139113e-001
      4.3341998420991606e-001 -1.4517988844106803e+001
      5.6469997868657114e+000 -6.1812274012145867e+000
      -9.5864551231818496e-001 1.0772266752781874e+000
      6.5144096007184349e-001 -1.4117338150479111e+000
      5.2426570854425973e-002 1.3701823424315169e+000
      -6.3452352456515937e-001 -1.0827987897467912e+000
      5.2662534917258741e-001 1.5111197464113926e+000
      -2.3823753996537109e-001 -2.4639715799620529e-001
      -1.1630510748184824e+000 4.5659089652184095e+000
      -6.7539764590547469e-001 5.9256445556243420e-001
      1.2144683236135774e+000 3.0663954383067380e+000
      -2.9270046821851814e-001 -1.3184330464922069e+000
      -7.6273417201275528e-001 1.3184004904721847e-001
      -6.0764949366922213e-002 8.2410056684471267e-001
      -7.7999771251981820e-001 3.7570685774428692e-001
      -1.1657928228225130e-001 -1.0928514071916449e-001
      -9.9721704346453399e-001 1.2361437876877931e-001
      2.0908654538307134e+000 1.7070437492082200e+000
      1.2467602950590242e+000 -6.0040635055583012e-002
      -1.0140026058713824e-002 -2.8473369315331742e-001
      -1.0899739873588069e-001 8.7605561667200116e-001
      -3.4227851556665734e-001 1.0614349387072572e+000
      1.4663789168391741e+000 -1.1868525595380491e-001
      -2.8109324715853651e-001 5.4727928401514092e-001
      -2.1051783859230402e-001 -1.3016143631834436e+000
      -1.0030282472873118e+000 -1.3034941879744366e-001
      -9.4395300784754677e-001 1.0146932555635604e+000
      7.7382252794918772e-003 8.8877722008111848e-001
      2.2390668233208452e-001 -3.3782232286501129e-001
      -4.5075551244567036e+000 -9.2110038427728677e-002
      1.0249477048458859e+000 2.2648455615125136e+000
      1.0922279517337583e+000 7.7951586822834359e-002
      -2.2690573643977086e-001 7.4476900113679328e-002
      -5.9875276635564658e+000 5.8847712260306062e-001
      -1.0466094708951292e+000 -9.5264619260662964e-001
      1.0749134959527396e+000 6.5431151622539496e-001
      -1.4083476250505649e+000 1.2550425418111366e-001
      1.3700022435425947e+000 -6.3172989604248009e-001
      -1.0874216811933337e+000 5.2694716835233735e-001
      1.5714028523495827e+000 -2.3595431886405310e-001
      -3.2581017957026304e-001 -1.1606113812186543e+000
      4.5660366163763513e+000 -6.6957819483336967e-001
      5.9373464598086989e-001 1.2168508630284729e+000
      3.0644849617726950e+000 -3.0010223442141759e-001
      -1.3176587948889680e+000 -7.5656695104518412e-001
      8.4197544407947980e-002 -2.5663784620632341e-001
      8.2935130671258850e-001 -7.7311922467271244e-001
      3.7482229054975968e-001 -2.8398765226656211e-002
      4.3710255716716065e-002 -1.0036764438220005e+000
      1.2370532529617639e-001 2.0975145130089441e+000
      1.7045914677873450e+000 1.2513614115493699e+000
      -1.6785564155060989e-001 -1.9200090664607594e-001
      -1.0610008024529172e+000 -1.9788253356739255e-002
      8.7958871231370284e-001 -3.4897619311102390e-001
      1.0613257290612108e+000 1.4700602575220398e+000
      2.5022542029464717e-002 -2.7220434546458294e-001
      5.4037791422877623e-001 -8.4931818157977637e-002
      -1.3014895532384907e+000 -1.0582181452666213e+000
      -1.4616867158907026e-001 -9.5007807129657940e-001
      3.6579737648240862e-001 1.7829220190712286e-002
      8.8612161142325474e-001 2.2525869570891419e-001
      -9.8518523597137075e-001 -4.5075097453713706e+000
      -7.7647180467471349e-002 9.8865927414408938e-001
      2.2610238894038774e+000 1.0953345501730676e+000
      8.4321087848527959e-002 -2.1763944519240505e-001
      1.9041556588109659e-001 -1.4497846442371856e+001
      5.8676302334356933e-001 -4.0597761020072148e-001
      -9.5615123482008224e-001 1.0769859903570185e+000
      9.6845036501882642e-001 -1.4068675838191604e+000
      -1.0485292146891702e-002 1.3771205020720763e+000
      -6.3358489588802214e-001 -1.0807287153716267e+000
      5.2596148842595492e-001 1.8133284484476300e+000
      -2.3667710085140609e-001 -3.2679594345207347e-001
      -1.1672216246662317e+000 4.5640590035447346e+000
      -6.7365823220427523e-001 5.9693883174980744e-001
      1.2183644950918986e+000 3.0634717686605968e+000
      -2.9953241029193101e-001 -1.3201379326798979e+000
      -7.5990616429279079e-001 1.1897669166713917e-001
      -2.5601011590151190e-001 8.2627870588600827e-001
      -7.8041562926108343e-001 3.7681116656534541e-001
      -1.3277214684836636e-001 5.1771088764747272e-002
      -9.9862627332423937e-001 1.3056395088931855e-001
      2.0966901516092085e+000 1.7085726562648051e+000
      1.2519799731790640e+000 1.4235362966213586e-001
      -5.5659362623101991e-002 -1.9705680381018384e-001
      -1.3184344914423766e-002 8.7939125187660372e-001
      -3.4835895937087458e-001 1.0600069000076500e+000
      2.8105785501864233e-001 4.3318379364608771e-002
      -2.5482602473726318e-001 5.4034262012477641e-001
      -7.2512696958876216e-002 -1.3060222082106416e+000
      -1.0817976141742343e+000 -1.1908588407608732e-001
      -9.4391615558776187e-001 2.5119080140002398e-001
      1.7989379181168094e-002 8.9041392685265042e-001
      2.2209696828853562e-001 -3.4055617428283619e-001
      -4.5109309525279837e+000 -7.7520642305279316e-002
      1.0786208688438170e+000 2.2611742398766390e+000
      1.0897211437285701e+000 8.1670029763684537e-002
      -3.7600069729900826e-001 -6.9462773302948755e-002
      -3.0421073895595576e+000 1.6267363544309454e-001
      -4.0894674582847940e-001 -9.5460971177993881e-001
      1.0775965405734402e+000 7.3936221881772224e-001
      -1.4088690522579894e+000 -6.9182315544408339e-003
      1.3737571556151538e+000 -6.3634183219901286e-001
      -1.0808545823603457e+000 5.2595049064214683e-001
      1.8163974926672026e+000 -2.3141247249407371e-001
      -3.2824494165382839e-001 -1.1628207978932741e+000
      4.5657143294094897e+000 -6.7161100431981358e-001
      5.9751609582218368e-001 1.2192847202567696e+000
      3.0682547755587222e+000 -2.9347470259005604e-001
      -3.3518579753939876e-001 -7.6206265779167792e-001
      -5.7034128546004752e-002 -2.6275476989481539e-001
      8.2319214171062927e-001 -7.7246947152000278e-001
      4.1513001764954971e-001 8.3981211293942537e-003
      5.1449540278801040e-002 -9.9529604578312392e-001
      1.2807875312702130e-001 2.0968281188218136e+000
      1.7021594547476995e+000 1.2520455842376332e+000
      -1.6735506450741333e-001 -5.3085060786248882e-002
      -7.5734580573715493e-001 1.4502516977357945e-002
      8.8056830294272348e-001 -3.4275665100186536e-001
      1.0617580559333499e+000 2.8127671917107022e-001
      1.0370811406316806e-001 -1.7532966736038211e-001
      5.4072390287878880e-001 -1.6192989851824507e-001
      -1.3059413605680905e+000 -1.0850908278689881e+000
      8.4399844336301745e-003 -9.4267547058473256e-001
      2.4027530884893056e-001 -3.1032501159351994e-002
      8.8880042275486082e-001 3.1951410636618038e-001
      -3.4021162902151297e-001 -4.5093070927403023e+000
      -1.1027352727549118e-001 1.0414907211822377e+000
      7.8593363063600929e-001 1.0983261469962318e+000
      8.0455969803524735e-002 -2.3456585743571434e+000
      -2.1586059269948304e-001 -1.4465597918599880e+000
      1.6648005455129899e-001 -4.0334686097315420e-001
      -9.5601010222523808e-001 -2.1447356181901706e-002
      8.3266590352520187e-001 -1.2124019185639004e-001
      2.2948683422639538e-001 1.3692456171834217e+000
      -6.3626081140792357e-001 -1.0890653903567009e+000
      5.1932306420803231e-001 1.6587404678833506e+000
      -1.5534567760423330e+000 -3.4250568951627874e-001
      -1.1664085467801728e+000 4.5687215970485013e+000
      -6.7811657184608132e-001 5.9731090589487701e-001
      1.2199739999889112e+000 3.0667069078164775e+000
      1.0282681320541634e-001 -3.2864488772555039e-001
      -7.6373006447432978e-001 -2.5852394217039908e-002
      -2.6073555759866124e-001 8.2336090732659051e-001
      -4.7319682516731312e-002 4.1453829934410669e-001
      6.7942274816690115e-002 5.2596007374618274e-002
      -1.0039085302057038e+000 -1.2306754029538879e-001
      2.0951862006720749e+000 1.7085919297718057e+000
      1.2500288053402941e+000 1.3533550540694902e-001
      -1.0200687240023052e+000 -6.9908320001442192e-001
      1.6135252122715629e-002 8.7307344776460261e-001
      -3.4872838801423267e-001 1.0566949144355415e+000
      2.8773950166272355e-001 6.5943657825428747e-003
      2.2141109901524882e-002 5.4396828735297731e-001
      -2.6721075068725292e-001 -1.2975453047336920e+000
      -7.5698574561007648e-001 -1.6472519820995546e-001
      -9.4794671597201752e-001 2.4834564728571362e-001
      -2.8124176245182295e-002 8.8835769341800142e-001
      3.1704267993183155e-001 -4.6427608721196539e-001
      -4.5133403949423689e+000 -1.2691599543511406e-001
      1.0371992080756756e+000 7.9019121458712827e-001
      1.0891502025133697e+000 1.9084997765598008e-001
      -1.8340489868563351e-002 -5.2728539213398729e-001
      -1.3701527287295907e+000 1.6386001738181796e-001
      -4.1098606811330202e-001 -9.5230921585938844e-001
      -1.9965242738571306e-002 5.0486197827448609e-001
      -1.2296444906800383e-001 -1.0481269889059358e-001
      5.0445244624654506e-001 -6.3238637266096365e-001
      -3.3422447845117031e-001 -7.8150566231268717e-002
      1.6582807364959289e+000 -1.5607507027902761e+000
      2.6448695977571102e-001 -1.1622071531328260e+000
      4.5668613025503539e+000 -1.0729722773840757e-001
      5.9722528783967532e-001 1.2204865546115775e+000
      3.0642020359317681e+000 9.9169694316864121e-002
      -3.3280230733018851e-001 -7.6215235159064598e-001
      2.9990522765591554e-001 1.5568809151156311e+000
      8.2569395787039890e-001 -4.9262242956781992e-002
      2.9623803404195070e-001 -1.9980376795789589e+000
      -1.3272391327634953e-001 -1.0016853856471664e+000
      -7.6311136270456437e-001 2.0886614865202171e+000
      1.0994023637974075e+000 1.2447203882394848e+000
      9.7858184547770892e-003 -7.9941806894424694e-001
      -7.0593616247362079e-001 3.1081052551653127e-002
      8.7221442603743393e-001 -3.4270237408040860e-001
      1.0564954455161846e+000 1.4691495937507759e+000
      7.1628566232183055e-001 -1.5571759429993751e-001
      5.4777513470757266e-001 2.1498709678059238e-001
      -1.2996502616396481e+000 -7.6048257295980226e-001
      1.8087785998658659e-001 -9.4941491768112940e-001
      2.4168020036948451e-001 4.0083569897413684e-002
      8.8492299116249651e-001 3.2236991553361949e-001
      9.3476804476428130e-002 -4.5074474815255030e+000
      3.7569417337508476e-001 2.3984517518814244e-001
      2.2621554728366902e+000 3.2333629533884023e-001
      -3.6064416277728675e-002 1.0495510209016773e-001
      -2.4196089782597471e-001 -7.1912451395957855e-001
      -6.4851384265169204e-003 -4.1232747867897473e-001
      -9.5785058999558625e-001 1.0741602169458175e+000
      -5.3502639294507892e-001 3.8592276175707652e-002
      -2.4501398435386117e-002 -7.1316232166070441e-003
      -6.3777525686813308e-001 -3.3285391825840754e-001
      1.5642912221764063e-001 1.9123718096155251e+000
      -1.5546518052217542e+000 -9.6223107402252803e-002
      -1.1586940698052186e+000 4.5696201147039774e+000
      -1.0909450870617630e-001 1.7172966131139236e+000
      1.2192468293294554e+000 3.0644221725359615e+000
      -1.5280319402478231e+000 -3.3032795772429574e-001
      -7.6152816587352101e-001 2.9731566419670391e-001
      1.5631821403522346e+000 8.2797127997287989e-001
      -4.9554146725724273e-002 2.9644273060866838e-001
      -1.9983041338894214e+000 -1.3504048886400902e-001
      -9.9511151380029417e-001 -7.6399435463184628e-001
      2.0942320624119755e+000 1.0994384845565033e+000
      1.2496099807603309e+000 7.6513278053367533e-003
      -8.0293054316785728e-001 -7.0249013600196719e-001
      3.7607101265166178e-002 8.7232485055795339e-001
      -3.4355439750317662e-001 1.0612053408324347e+000
      1.4706655318423785e+000 7.1289265895712151e-001
      -1.5833277515030253e-001 5.3933808999782962e-001
      2.1625799208063121e-001 -1.3010565280373640e+000
      -7.6038437986253793e-001 1.8211120881467766e-001
      -9.4379853301117211e-001 2.4282977796811017e-001
      3.3527588832254193e-002 8.9268590020432326e-001
      3.2103466009812837e-001 9.3094008010773041e-002
      -4.5137215644062687e+000 3.7693024714052842e-001
      2.4302489351541551e-001 2.2632902004140063e+000
      3.2136009997328041e-001 -3.3262311835961143e-002
      9.7645608246837684e-002 -2.4060331650731534e-001
      -7.2029548470616056e-001 -5.7748520955100456e-003
      -4.0563498270913073e-001 -9.5474924640696734e-001
      1.0761091987252864e+000 -5.2965438833707501e-001
      3.2705651620396736e-002 -1.6856618259848046e-002
      -8.2290348627263778e-003 -6.3043328862144221e-001
      -3.3452490989474287e-001 1.6250517603492085e-001
      1.9176824300897901e+000 -1.5540895039541989e+000
      -9.4474809216447658e-002 -1.1669269144299750e+000
      4.5624825032400604e+000 -1.0039851993748179e-001
      1.7185323101293875e+000 1.2163907712167925e+000
      3.0647060136122000e+000 -1.5287342170493976e+000
      -3.2901219963171419e-001 -1.7539321922879505e-003
      -3.4635344423030786e-003 3.1350962297579115e-003
      -1.2685192622885204e-003 3.4127855102790931e-003
      3.7262906856386393e-003 3.8387974867066339e-003
      -6.8446600548566292e-004 -1.7017383343780807e-003
      1.0933893825237741e-003 -5.0769724157731882e-005
      -3.3830093635666449e-003 3.0559439401566125e-003
      1.9797527947827851e-003 1.1368185792216814e-003
      -2.5328976291776762e-003 3.0914463092867124e-003
      2.8963006874189868e-003 -2.3425318066443179e-003
      1.6666312855845408e-003 3.3702764647711623e-003
      1.0126568311895833e-003 4.0464834477974207e-003
      3.8949917857341691e-003 -3.0987817178481192e-003
      1.3927949201488447e-004 7.5974954433451235e-004
      2.3434780708560029e-003 2.0425997637354581e-003
      -9.0755468992997392e-004 -1.0364792342909708e-003
      -4.6615524069678962e-003 4.2341289121952995e-003
      1.7747823180023332e-003 -3.2449415867533238e-003
      2.6551059744635260e-003 -4.2696489977182370e-003
      -5.0586509045160940e-004 -3.1838892392222068e-003
      1.9116836203557140e-003 3.4653716641715386e-003
      -3.3207060835128968e-003 4.4087239206603420e-003
      1.8726169276144498e-003 4.0377183257365480e-003
      4.2826200504757841e-003 -3.3176367825905862e-003
      -4.2323428943688126e-003 3.5218008358850732e-003
      -1.1718600984471713e-003 2.9873823636395935e-003
      1.7715616191934516e-003 3.6557650127077060e-003
      -1.2959586310901253e-003 2.1391933513112459e-003
      -4.7019580740074911e-003 -4.1563581212314725e-003
      1.2161502965804957e-003 1.2295117136612620e-003
      -2.1406416644882578e-003 -4.2092738206626823e-003
      3.9768019922897689e-003 1.0426404909389965e-003
      -9.7610261795610400e-004 4.8545071682333015e-003
      1.3847801660120365e-001 3.9066417134149839e-001
      -2.6245520026859776e-002 2.2455972457455398e-001
      6.0478724109472727e-002 8.9316047265767778e-002
      -1.4083255466772027e+001 -6.2190717921061534e-001
      -5.4860913321605614e-003 3.3806472216759420e-002
      -9.2552866686170443e-001 -4.1696533572551808e-001
      7.0220987534052537e-001 -4.7031305461549305e-001
      7.3077097178783856e-002 1.5767435065077068e-001
      -1.6650012870261571e-001 2.8200187770253304e-001
      2.4347487799260045e-001 -6.6597537623971512e-002
      1.7175144352441843e-001 2.5430230344069189e-003
      -1.1926005578819938e-001 -3.3279953619319952e-001
      -4.2253311806119603e-001 1.0832241710309712e-001
      -7.3499913045611445e-002 2.5153292152227008e-001
      -1.0267330473335097e-001 5.2239784270876081e-003
      3.3868699342284689e-002 2.0275896721115755e-002
      1.8339211157147497e-001 1.0705035256047974e-002
      7.8203991684225216e-001 2.0758777715152676e-001
      1.1577958171289295e-001 5.8225667339432696e-001
      -4.7124730780498320e-001 6.0950968342064434e-002
      4.2375799597807289e+000 1.2762806419038222e-001
      2.3108525950308989e-002 4.1885202949762079e-001
      -1.9663384333541911e-001 -2.8722690825388020e-002
      -7.0984318041731151e-002 -5.4714983663476852e-002
      8.4677760085880779e-002 1.3643740970052151e-001
      -1.4540573174762061e-001 7.7294390161580462e-002
      1.1469715285297060e-002 -2.8657637727800771e-002
      -9.8522667659797614e-001 6.8370277749898922e-001
      1.2688620824832636e-001 -2.6799110428714318e-001
      -1.2537461886552461e-002 7.3044207539703282e-002
      -1.3525626079706437e-002 5.3743141966961696e-003
      -4.6014766422114312e-001 -4.4616475214895111e-002
      -9.8072515114761560e-002 2.6606980290006221e-001
      -1.0702567057842531e-001 -1.0919207836992009e-001
      -3.0109461743169913e-001 5.5241038239521714e-002
      -2.4226329705657007e-001 -3.7614626428411690e+001
      7.6581250143919188e-001 1.8757278983751582e-001
      -4.7467239814059488e-002 1.3977163022619185e-001
      6.0388088638437198e-001 -2.7734193726506423e-001
      2.8453586264381003e-002 1.5510933869871743e-001
      -1.0512686606485079e-001 1.5201171521608872e+000
      2.3685934498125900e+000 -1.3896692530285890e-001
      -1.0604505610514142e-001 -2.8423058339667118e-001
      2.4295141914142268e-002 -1.5364300788961310e-001
      1.8885701679669917e-001 4.9726374506826454e-001
      2.2387974211659659e-001 -7.3520096408840635e-002
      -3.2393386342592874e-002 3.6898827200794454e-001
      -1.3110707096320650e-002 -1.3688484213300364e-001
      -3.4420059832046007e-001 -1.7468691316328711e-001
      3.4286788386757600e-001 4.2481416400442773e-001
      1.0715077373969176e-001 -1.2262400506580035e-001
      2.5512069088214206e-001 1.2584530307398897e-001
      3.6848291122539339e-001 -7.0214047070346042e-001
      -3.2510374184825191e-001 -2.0307088097025877e-001
      -3.6032407904214095e-002 2.6024553168563697e-001
      1.9262492150992003e-001 -3.2040878242114490e-001
      -4.3152782313719253e-002 4.7010447866325639e-001
      -1.3666666438791583e-001 1.4042953518319351e-001
      2.9506435014537430e-001 2.9552675996161221e-001
      2.4085804764966735e-002 2.2828584145509434e-001
      1.5379436014829378e-001 -1.6940095310566219e-001
      2.0752610248800391e-001 2.4164146579939280e-003
      2.9372668156679832e-001 -3.7704389583028586e-001
      3.2669545246639364e-001 8.9942774471834674e-001
      2.3165512589960258e-001 2.8529086947862720e-001
      3.0833173271413911e-001 7.0074741961303980e-003
      -1.8099662549482845e-001 2.1013620326046172e-003
      -2.4555433496852425e-001 -3.3884208631270278e-002
      -2.1361922391458835e-001 -1.1463972520917198e+000
      3.0413217771398138e-001 -1.1134030961522988e-002
      1.3545542432772725e-001 -9.6712493604725266e-002
      -5.9596727384307928e-002 -2.3398808755163831e-002
      2.3363493519216583e-001 -2.2720658085633672e-002
      -3.6579904476761915e-001 1.1159501252279616e-001
      1.8615101653242627e-001 -1.9570279191703380e-001
      -4.4100158567043873e-001 2.7143106156459630e-002
      -1.0405742552080005e-001 1.3320491797533190e-001
      1.2405583185157385e-002 2.4773949289795438e-001
      1.8212641536475485e-001 -8.2367928760051466e-003
      9.9214969859074811e-002 1.2552035509265561e-001
      -1.0849298563019074e-002 -1.1911850200073032e-001
      -2.0071489332623613e-001 1.1623231526579740e-001
      9.6587192235316011e-001 6.9196182796236627e-002
      -1.1898403879343411e-002 3.5103621250417227e-001
      -6.7300511507947011e-002 3.7230070550421812e-001
      5.5898464029854922e-001 5.0519831506649737e-002
      1.9150111137022235e-002 -2.0324390816467258e-001
      5.8817234064927704e-001 1.5369748528053090e-001
      -1.4366026501167781e-001 -1.1188628156681253e-001
      2.7140582126145174e-001 -6.7313195389364339e-002
      -1.6999774958787264e-001 -9.0602846432654295e-004
      7.4421016842852433e-002 -4.5011776078333648e-001
