<?xml version="1.0"?>
<opencv_storage>
<my_nn type_id="opencv-ml-ann-mlp">
  <layer_sizes type_id="opencv-matrix">
    <rows>1</rows>
    <cols>3</cols>
    <dt>i</dt>
    <data>
      400 65 32</data></layer_sizes>
  <activation_function>SIGMOID_SYM</activation_function>
  <f_param1>6.6666666666666663e-001</f_param1>
  <f_param2>1.7159000000000000e+000</f_param2>
  <min_val>-9.4999999999999996e-001</min_val>
  <max_val>9.4999999999999996e-001</max_val>
  <min_val1>-9.7999999999999998e-001</min_val1>
  <max_val1>9.7999999999999998e-001</max_val1>
  <training_params>
    <train_method>RPROP</train_method>
    <dw0>1.0000000000000001e-001</dw0>
    <dw_plus>1.2000000000000000e+000</dw_plus>
    <dw_minus>5.0000000000000000e-001</dw_minus>
    <dw_min>1.1920928955078125e-007</dw_min>
    <dw_max>50.</dw_max>
    <term_criteria><epsilon>1.0000000116860974e-007</epsilon>
      <iterations>20000</iterations></term_criteria></training_params>
  <input_scale>
    1. 0. 1. 0. 1. 0. 1. 0. 1. 0. 1. 0. 1. 0. 1. 0. 1. 0. 1. 0. 1. 0. 1.
    0. 1. 0. 1. 0. 1. 0. 1. 0. 1. 0. 1. 0. 1. 0. 1. 0. 1. 0. 1. 0.
    2.4243693394143811e+001 -8.2501296182890208e-003
    3.7461693155411173e+000 -1.0517277663232584e-002
    1.5275798351547090e+000 -1.8844035626359026e-002
    9.2670640498592916e-001 -2.2337873812155511e-002
    7.3140903982621575e-001 -2.4578728758020182e-002
    6.2724014071353074e-001 -2.5738493140472420e-002
    5.8485229997136889e-001 -2.7249874623627005e-002
    5.6178274945186779e-001 -2.8023022893282915e-002
    5.6039369001885764e-001 -2.7858382400903423e-002
    5.8376715368092202e-001 -2.7265533338413594e-002
    6.4338462084179182e-001 -2.5890105123628236e-002
    8.1895932225583823e-001 -2.4339091107509810e-002
    1.1249708940093694e+000 -2.0257962104640832e-002
    1.9468522653358373e+000 -1.5900333278981400e-002
    4.5749603984222214e+000 -1.1287228955639998e-002
    5.2163087106776889e+000 -5.3253300508861066e-003
    1.4445162583415140e+001 -5.3253300508861075e-003 1. 0.
    4.9968605725003329e-001 -3.6261708320416162e-002
    2.3618952277973543e-001 -7.3911788102951542e-002
    1.2397895989810320e-001 -1.2841946202076163e-001
    7.5699188412626961e-002 -1.8667300076525578e-001
    5.5201103276628548e-002 -2.7014931222133381e-001
    4.0799538004911783e-002 -3.8554828715193684e-001
    3.1693216541310965e-002 -4.8612143578249467e-001
    2.7199506852306394e-002 -5.7273230940348518e-001
    2.4744650005603514e-002 -6.4655862495854144e-001
    2.3077126991481414e-002 -6.8661766042833616e-001
    2.2866921514111464e-002 -7.0061697743682594e-001
    2.4490221619832348e-002 -6.5490282061970750e-001
    2.8689706597225709e-002 -5.5346652739210278e-001
    3.7208100752268193e-002 -4.2523468348319321e-001
    5.5974047370121460e-002 -2.9136568678550845e-001
    9.8285750018606635e-002 -1.7640596104777337e-001
    1.9715636372625475e-001 -9.3543462595467433e-002
    4.8470825276791274e-001 -4.4535483054987869e-002
    1.4398558097228558e+000 -1.5148640371130631e-002
    5.0753273941728860e+000 -5.3253300508861066e-003
    4.1524014878783638e-001 -4.2486074832728739e-002
    1.4350004121035242e-001 -9.7076070756117086e-002
    6.3741064907927025e-002 -1.8285766574457094e-001
    3.4998349695316719e-002 -2.9824274981548032e-001
    2.3848872121723621e-002 -4.4937502579652594e-001
    1.8360466682547937e-002 -6.6905659304484999e-001
    1.5277076966632431e-002 -9.0973665478742805e-001
    1.4183267036545577e-002 -1.1144975781328994e+000
    1.4158276292583791e-002 -1.2475451750079083e+000
    1.3853627812150535e-002 -1.2762411536210509e+000
    1.3809764690385031e-002 -1.3147723874040909e+000
    1.3913155136753143e-002 -1.2568416714190149e+000
    1.4470006876313576e-002 -1.0257775277017493e+000
    1.7253902792674768e-002 -7.3021982762926052e-001
    2.5082349968759181e-002 -4.6941828153823045e-001
    4.4956474995836729e-002 -2.7248751458356257e-001
    8.9825870713355405e-002 -1.4371426066716061e-001
    2.3993490191002839e-001 -7.4709616963165693e-002
    9.1799848408275597e-001 -2.3846145008076580e-002
    4.3660637753700247e+000 -8.6670012272325580e-003
    5.4882248132531875e-001 -4.8496465184745853e-002
    1.4216423959383098e-001 -1.0740832235654496e-001
    5.2551732591202306e-002 -2.2476249206455892e-001
    2.5911033223857596e-002 -3.8041155977624602e-001
    1.7191324351546900e-002 -5.8712202109325484e-001
    1.3879449380297986e-002 -8.8437948010904754e-001
    1.2860462123165068e-002 -1.2479768665794286e+000
    1.2901854090921629e-002 -1.4914405028312889e+000
    1.3035918881077763e-002 -1.4520763386018833e+000
    1.2673174525479567e-002 -1.3130739270697069e+000
    1.2818959225122072e-002 -1.3766321862692028e+000
    1.3275141282422990e-002 -1.5627596606856378e+000
    1.3018950171616386e-002 -1.4263889358503365e+000
    1.3555824443636398e-002 -1.0043945994182728e+000
    1.7862973761536956e-002 -6.4462220754214650e-001
    2.9177172386764920e-002 -3.8147438075918833e-001
    5.5481740061193628e-002 -2.1007004526019704e-001
    1.4531504991024757e-001 -1.1376961398412258e-001
    5.6547605717247051e-001 -4.3168804296522999e-002
    3.3486285481582421e+000 -9.0213456618844952e-003
    4.0567707407083298e-001 -5.6520757306808903e-002
    1.1714629185028200e-001 -1.0707044171892886e-001
    4.8746190903667587e-002 -2.3283518624273153e-001
    2.4206021084268298e-002 -4.0371398208278630e-001
    1.5837614832569697e-002 -6.3219942616716562e-001
    1.2975054397056825e-002 -9.5631224949927762e-001
    1.2598930334074471e-002 -1.3313982066034313e+000
    1.2909202304617699e-002 -1.4695470112948006e+000
    1.2995571562989396e-002 -1.2566702591566601e+000
    1.2671697814422914e-002 -1.0266691285040555e+000
    1.2675661403069052e-002 -1.0408309344280280e+000
    1.2861534188066267e-002 -1.2929717133394716e+000
    1.2903018479859890e-002 -1.4301409590215803e+000
    1.2746721531007997e-002 -1.1324856427578909e+000
    1.4695564506111689e-002 -7.5262185702886897e-001
    2.1688482313581822e-002 -4.6866877179803118e-001
    3.9613795815800254e-002 -2.6699404053941089e-001
    9.8830100504985433e-002 -1.4395007861319403e-001
    3.7800746178225031e-001 -6.3085214320634742e-002
    3.3507181351563804e+000 -7.5066424489508557e-003
    5.8088390688430502e-001 -4.2318882590414303e-002
    1.3805281361156235e-001 -1.0261078878028101e-001
    5.0584635166592742e-002 -2.2033716294567898e-001
    2.4566403404056823e-002 -3.9535238351204460e-001
    1.5501258309332083e-002 -6.2481197006737299e-001
    1.2658105044140461e-002 -9.3762841001735664e-001
    1.2621580884383818e-002 -1.3044292707667635e+000
    1.3038882118027886e-002 -1.3895307754147657e+000
    1.3212538839694666e-002 -1.1344004159116525e+000
    1.3223136670821664e-002 -8.9949953156793649e-001
    1.3282393534132091e-002 -9.0399715013363247e-001
    1.3047228431944851e-002 -1.1221445246291151e+000
    1.2818908271137850e-002 -1.2828476194051281e+000
    1.2607359988811559e-002 -1.0833223460470813e+000
    1.3964801513496123e-002 -7.5730623980542311e-001
    1.8955100091300709e-002 -4.9232301910278214e-001
    3.3822992009712963e-002 -2.9865482296073292e-001
    8.8714912314634131e-002 -1.5810087725345412e-001
    4.0677805882948143e-001 -6.7667529509506788e-002
    3.9598359344147456e+000 -7.5237219636953168e-003
    1.2307324192379476e+000 -3.3749773116385315e-002
    2.0855302259374242e-001 -9.8294281130590105e-002
    5.8060126519258883e-002 -2.2096699882361506e-001
    2.4575858578504688e-002 -3.9409953586235574e-001
    1.5207801359760929e-002 -6.1413503411307824e-001
    1.2618384356733200e-002 -9.0633228367824992e-001
    1.2704747218845970e-002 -1.2503563801467878e+000
    1.3237032429856799e-002 -1.3737451791007074e+000
    1.3043755173858853e-002 -1.1428697626921434e+000
    1.2957635074756972e-002 -9.4965578899134839e-001
    1.3253569800501687e-002 -9.7777127817926257e-001
    1.3299259248785014e-002 -1.1455235848938521e+000
    1.2945137089567306e-002 -1.2023522476099091e+000
    1.2819297406905949e-002 -1.0090778861704777e+000
    1.3931458128271023e-002 -7.1653673371519278e-001
    1.8031005407638696e-002 -4.8399671169721170e-001
    3.2458796809496350e-002 -3.0941205614764855e-001
    9.8169635143548636e-002 -1.6946323428120388e-001
    5.6439386786075396e-001 -5.5922416535900923e-002
    5.1648472792706617e+000 -7.9091896061201754e-003
    1.8414654995199944e+000 -1.9582836466551283e-002
    2.6317501185034464e-001 -1.0106672746157068e-001
    6.1768879888151794e-002 -2.2617468085977255e-001
    2.4310376794972804e-002 -3.9275360238350671e-001
    1.4941435247028855e-002 -6.0170133858823072e-001
    1.2473534860211166e-002 -8.6002481320505142e-001
    1.2418090708391945e-002 -1.1772316888855097e+000
    1.2834521368159699e-002 -1.3594470765008420e+000
    1.2868047703315302e-002 -1.2812124262016120e+000
    1.2731610218128140e-002 -1.1621476484915092e+000
    1.3015622313793159e-002 -1.1844633390122417e+000
    1.2961528136693852e-002 -1.2280723531314193e+000
    1.2717643601227997e-002 -1.1796522379558927e+000
    1.2837030524870386e-002 -9.4401446741926354e-001
    1.4047117750755790e-002 -6.6548434458880734e-001
    1.8146372549017530e-002 -4.6462288651155448e-001
    3.3052333593973526e-002 -3.0331606238864006e-001
    1.0190228573341976e-001 -1.7029469127046554e-001
    7.2096589858403215e-001 -4.5163873464314629e-002
    7.6347685514968830e+000 -8.0108452600568484e-003
    3.1250994849553644e+000 -1.8965240897837618e-002
    3.5635505174147691e-001 -1.0656393445293576e-001
    6.4365986338230347e-002 -2.2702686336358438e-001
    2.3940544316635535e-002 -3.8959615566429212e-001
    1.4607709751433159e-002 -5.9587343105895718e-001
    1.2228240520927436e-002 -8.4139782481018810e-001
    1.1968406888546956e-002 -1.1357191009431742e+000
    1.2152375946173759e-002 -1.3384172587503373e+000
    1.2327332719239149e-002 -1.3400173882178417e+000
    1.2150811771928043e-002 -1.2800449308435184e+000
    1.2176431709216099e-002 -1.2983978820382911e+000
    1.2130651287604368e-002 -1.2537836345684672e+000
    1.2057880620704620e-002 -1.1450397735688449e+000
    1.2447982422723042e-002 -9.0355732957484103e-001
    1.3840590473811008e-002 -6.3632294270318335e-001
    1.8280110634487236e-002 -4.4397190799361874e-001
    3.3521641114720217e-002 -2.8339822616114313e-001
    1.0211548803454371e-001 -1.5203372479090205e-001
    1.0720059778904503e+000 -3.6145963409572220e-002
    1.3212838848699565e+001 -7.4938824539599949e-003 1. 0.
    8.3550363206121225e-001 -2.1679545794062022e-002
    6.8572510057574060e-002 -1.8908340230406415e-001
    2.3251269504233535e-002 -3.6237244956636272e-001
    1.3947805703661395e-002 -5.7466873896033754e-001
    1.1607007819815838e-002 -8.1218838270518723e-001
    1.1306994893524337e-002 -1.0845031541484000e+000
    1.1611721783032325e-002 -1.2275114203941848e+000
    1.1880108061867733e-002 -1.1298214217201710e+000
    1.1626029888453113e-002 -1.0405380822355126e+000
    1.1391921559762572e-002 -1.0935201226690674e+000
    1.1673488168255048e-002 -1.1350614243315473e+000
    1.1374598710360482e-002 -1.0700928803812153e+000
    1.1768420459037346e-002 -8.6602665793007239e-001
    1.3467601032774407e-002 -6.1264198446785445e-001
    1.8434208404661562e-002 -4.1213365428423726e-001
    3.4435586384774321e-002 -2.5373430638182504e-001
    1.0806413923932416e-001 -1.2604060864855976e-001
    1.8324042840367840e+000 -1.3406695552888020e-002 1. 0.
    9.3893556792198396e+001 -5.3253300508861066e-003
    8.8180723246982451e-001 -5.8190324985318370e-002
    7.4427545910700194e-002 -2.2243415990956417e-001
    2.4510813075651412e-002 -4.0157196036060716e-001
    1.4557686310825733e-002 -6.1788611907056956e-001
    1.2215952257603625e-002 -8.8137594955817644e-001
    1.2194769094919669e-002 -1.1639639606732932e+000
    1.2939561783401849e-002 -1.2985352780054167e+000
    1.3089492378652593e-002 -1.1278032543205598e+000
    1.2901478375101786e-002 -9.6731452792182282e-001
    1.2515750827836951e-002 -9.8822221944960409e-001
    1.2730076782837494e-002 -1.0941808389579295e+000
    1.2126778688249141e-002 -1.0834502821659369e+000
    1.2135259154148686e-002 -9.1892884586180079e-001
    1.3809213608253306e-002 -6.7346026691518934e-001
    1.9057053561462398e-002 -4.5384192284016389e-001
    3.6038520157194574e-002 -2.8259420140732050e-001
    1.1013338446300058e-001 -1.5576020616336572e-001
    9.2543258072179857e-001 -7.4637162452791742e-002
    5.4211007688511884e+001 -9.2240038037339784e-003
    1.6796380584372503e+001 -7.1447610460138831e-003
    7.1239545748059840e-001 -6.8102120839608010e-002
    8.3086887193693004e-002 -2.2556901167231957e-001
    2.6318997923760315e-002 -4.1019512539815894e-001
    1.4974430152337440e-002 -6.3626953747619674e-001
    1.2369150498535588e-002 -9.2861652551857887e-001
    1.2566138269815036e-002 -1.2653131596373390e+000
    1.3319100925215096e-002 -1.3935640494232113e+000
    1.3091371492978053e-002 -1.1350003388446301e+000
    1.3220057578520862e-002 -8.8453593371819017e-001
    1.3156506277897998e-002 -8.7191599219480931e-001
    1.2724184331175219e-002 -1.0086092829811317e+000
    1.2161273346459171e-002 -1.0928964548369533e+000
    1.2103116397783074e-002 -9.7195819296703068e-001
    1.3607485997133207e-002 -7.1951545403132533e-001
    1.8773106601887798e-002 -4.8004754919022341e-001
    3.4456609612423923e-002 -2.9191528661437793e-001
    1.0035289892553174e-001 -1.6246907522498388e-001
    6.4369325643179065e-001 -7.1227379593252052e-002
    2.8638985193262673e+001 -1.2182309443295809e-002
    5.5595496069976171e+000 -1.0247872400386953e-002
    5.0192325975334717e-001 -7.2606146612648498e-002
    8.4292110166686154e-002 -2.0339777256850874e-001
    2.8253853265833958e-002 -3.9705785867803112e-001
    1.5634588375745242e-002 -6.4281067199198083e-001
    1.2588187112664427e-002 -9.7216017020809076e-001
    1.2776572067799983e-002 -1.3666051630858285e+000
    1.3516641178893533e-002 -1.5081379354535300e+000
    1.3167308912654545e-002 -1.1711996977327228e+000
    1.3478644020717315e-002 -8.6241343397474923e-001
    1.3680676579934315e-002 -8.5066123414372219e-001
    1.2818785701076640e-002 -1.0455513162341639e+000
    1.2295841162486613e-002 -1.1933985049144524e+000
    1.2186341922487352e-002 -1.0551036645647316e+000
    1.3460975591666388e-002 -7.5808505635153434e-001
    1.8359753787730936e-002 -4.9718419435393330e-001
    3.2756438710587144e-002 -2.9888218315082504e-001
    8.4640173465996602e-002 -1.6155632803928477e-001
    4.2690604254247488e-001 -6.8606656923353229e-002
    5.7414689242058303e+000 -1.5956213441062059e-002
    3.9868249063963490e+000 -1.4584703880132973e-002
    4.2987374571516829e-001 -7.7056176351007533e-002
    8.4743477681231652e-002 -1.8771270288066821e-001
    3.1177404737925789e-002 -3.6619901132028665e-001
    1.7343967833469490e-002 -6.2310305854057102e-001
    1.3285166322768282e-002 -9.6691733368452604e-001
    1.2981693295563004e-002 -1.3970916510762346e+000
    1.3570003056920183e-002 -1.6030263121111936e+000
    1.3003619664532092e-002 -1.2654307105662321e+000
    1.3027123120112038e-002 -9.5752846023016736e-001
    1.3248687046023732e-002 -9.5348053849174075e-001
    1.2812345049623402e-002 -1.1816155519233007e+000
    1.2533574641812952e-002 -1.3384359929873195e+000
    1.2395397516068545e-002 -1.1170290881950553e+000
    1.3956969962099008e-002 -7.7062794380159350e-001
    1.9221807376254701e-002 -4.9804066492555960e-001
    3.3690230220335377e-002 -3.0115987521832793e-001
    8.0061300131272134e-002 -1.5985015163322308e-001
    3.2730154952643120e-001 -6.9408756695648485e-002
    2.2565368743854077e+000 -2.6236568598758392e-002
    2.2058484546383714e+000 -1.0759320936897028e-002
    3.9964985183196949e-001 -5.5329682007874408e-002
    1.0322218773197823e-001 -1.5409416120542205e-001
    4.0204539460221407e-002 -2.9561732140953934e-001
    2.1412991183714074e-002 -5.2808105183768284e-001
    1.4766618521064496e-002 -8.2713331543626012e-001
    1.3133667375523321e-002 -1.2198269282897074e+000
    1.3331569136357675e-002 -1.5238543431369738e+000
    1.3064662409530243e-002 -1.4083997284252772e+000
    1.2821576779577532e-002 -1.1943431665458011e+000
    1.2925948996563344e-002 -1.1925321531193731e+000
    1.2866697286410591e-002 -1.3360855378517296e+000
    1.2731606536585654e-002 -1.3112475201629585e+000
    1.3333217765725033e-002 -1.0323872364916964e+000
    1.6334873322955398e-002 -7.0402085727497710e-001
    2.3895578690075778e-002 -4.4811714894131499e-001
    4.1982799432403871e-002 -2.6867420094463262e-001
    9.2522481169703519e-002 -1.4013103463436252e-001
    2.7554434726033650e-001 -6.2027366603878031e-002
    1.3804238812788661e+000 -2.7285127336056762e-002
    2.9412532217779677e+000 -1.4096128930620665e-002
    4.1701949135592337e-001 -4.6618008533733657e-002
    1.3122485782250984e-001 -1.1105158968718880e-001
    5.5916413120595497e-002 -2.2444105803539707e-001
    2.8943860058750031e-002 -4.0045750652194584e-001
    1.8486686433527372e-002 -6.1900648270375203e-001
    1.5048379169364004e-002 -8.8919136931756526e-001
    1.4139952515491492e-002 -1.1163023959396314e+000
    1.4000658659961794e-002 -1.1896005865141028e+000
    1.3987387993687855e-002 -1.1473577146213816e+000
    1.3953852282380955e-002 -1.1154055725727208e+000
    1.4118256167846253e-002 -1.0723180496963192e+000
    1.4906960165868486e-002 -9.4177890315413604e-001
    1.7145767174339552e-002 -7.3557543779093548e-001
    2.2915751623376349e-002 -5.1552415473200575e-001
    3.6857772669315336e-002 -3.2679589858201102e-001
    6.4496146302642970e-002 -1.8399042433884447e-001
    1.2031305740901216e-001 -9.8988819289557592e-002
    2.8714849728054359e-001 -5.0959229106475386e-002
    1.1345164170527162e+000 -2.2875001347715203e-002
    3.9258059133479746e+000 -2.0595924736107968e-002
    5.6709403003705261e-001 -3.5589118579587596e-002
    2.2746388375114843e-001 -7.7412417233290759e-002
    1.1179768074602479e-001 -1.5153225615906193e-001
    6.2037123240014556e-002 -2.6836953752577092e-001
    3.9891317571247711e-002 -3.9613142855801775e-001
    3.1257056480379790e-002 -5.2308745624584085e-001
    2.7523178479731673e-002 -6.1216847051265366e-001
    2.4656413192794296e-002 -6.4089473615998949e-001
    2.3512203296392840e-002 -6.3108625929140938e-001
    2.3637420463199832e-002 -6.0102714771627097e-001
    2.5603539286893337e-002 -5.5687244152887905e-001
    2.9883726868082518e-002 -4.9676494676839233e-001
    3.6115056193489939e-002 -4.1108567224389148e-001
    4.8807994029223825e-002 -3.1176049091485220e-001
    7.7345171093332554e-002 -2.1252320173400646e-001
    1.4119088082811446e-001 -1.3016403439415741e-001
    2.4041093523418425e-001 -6.8012916935491080e-002
    4.3752628585767828e-001 -3.6391248516024453e-002
    1.1299691847384068e+000 -1.7431960879610166e-002 1. 0. 1. 0.
    3.1297852264066137e+001 -5.3253300508861075e-003
    7.4698815878817264e+000 -7.6260028121187115e-003
    2.5659008521242366e+000 -1.3752524205299625e-002
    1.3600176316042933e+000 -1.8165451166537790e-002
    9.5693579961043729e-001 -2.3772105619452203e-002
    6.9893714874544999e-001 -2.4022681685604893e-002
    6.4213591926639069e-001 -2.4292014754880898e-002
    6.0597952347378525e-001 -2.5570641491903481e-002
    5.7610150410346439e-001 -2.6548079975275207e-002
    5.7152796989435628e-001 -2.6466981675906297e-002
    5.8854051337047886e-001 -2.5769405684258836e-002
    6.1838492275538126e-001 -2.4866568938182534e-002
    6.9376222954546740e-001 -2.4159601221729120e-002
    1.0932551534001975e+000 -2.2787129221823021e-002
    2.2971497409082113e+000 -1.4852682441286113e-002
    3.7939664615804802e+000 -8.8224271857073808e-003
    6.1744306553645014e+000 -6.1283802551614312e-003
    2.0865234842710755e+001 -5.3253300508861066e-003 1. 0. 1. 0. 1. 0.
    1. 0. 1. 0. 1. 0. 1. 0. 1. 0. 1. 0. 1. 0. 1. 0. 1. 0. 1. 0. 1. 0. 1.
    0. 1. 0. 1. 0. 1. 0. 1. 0. 1. 0.</input_scale>
  <output_scale>
    5.2631578947368418e-001 4.9999999999999994e-001
    5.2631578947368418e-001 4.9999999999999994e-001
    5.2631578947368418e-001 4.9999999999999994e-001
    5.2631578947368418e-001 4.9999999999999994e-001
    5.2631578947368418e-001 4.9999999999999994e-001
    5.2631578947368418e-001 4.9999999999999994e-001
    5.2631578947368418e-001 4.9999999999999994e-001
    5.2631578947368418e-001 4.9999999999999994e-001
    5.2631578947368418e-001 4.9999999999999994e-001
    5.2631578947368418e-001 4.9999999999999994e-001
    5.2631578947368418e-001 4.9999999999999994e-001
    5.2631578947368418e-001 4.9999999999999994e-001
    5.2631578947368418e-001 4.9999999999999994e-001
    5.2631578947368418e-001 4.9999999999999994e-001
    5.2631578947368418e-001 4.9999999999999994e-001
    5.2631578947368418e-001 4.9999999999999994e-001
    5.2631578947368418e-001 4.9999999999999994e-001
    5.2631578947368418e-001 4.9999999999999994e-001
    5.2631578947368418e-001 4.9999999999999994e-001
    5.2631578947368418e-001 4.9999999999999994e-001
    5.2631578947368418e-001 4.9999999999999994e-001
    5.2631578947368418e-001 4.9999999999999994e-001
    5.2631578947368418e-001 4.9999999999999994e-001
    5.2631578947368418e-001 4.9999999999999994e-001
    5.2631578947368418e-001 4.9999999999999994e-001
    5.2631578947368418e-001 4.9999999999999994e-001
    5.2631578947368418e-001 4.9999999999999994e-001
    5.2631578947368418e-001 4.9999999999999994e-001
    5.2631578947368418e-001 4.9999999999999994e-001
    5.2631578947368418e-001 4.9999999999999994e-001
    5.2631578947368418e-001 4.9999999999999994e-001
    5.2631578947368418e-001 4.9999999999999994e-001</output_scale>
  <inv_output_scale>
    1.8999999999999999e+000 -9.4999999999999996e-001
    1.8999999999999999e+000 -9.4999999999999996e-001
    1.8999999999999999e+000 -9.4999999999999996e-001
    1.8999999999999999e+000 -9.4999999999999996e-001
    1.8999999999999999e+000 -9.4999999999999996e-001
    1.8999999999999999e+000 -9.4999999999999996e-001
    1.8999999999999999e+000 -9.4999999999999996e-001
    1.8999999999999999e+000 -9.4999999999999996e-001
    1.8999999999999999e+000 -9.4999999999999996e-001
    1.8999999999999999e+000 -9.4999999999999996e-001
    1.8999999999999999e+000 -9.4999999999999996e-001
    1.8999999999999999e+000 -9.4999999999999996e-001
    1.8999999999999999e+000 -9.4999999999999996e-001
    1.8999999999999999e+000 -9.4999999999999996e-001
    1.8999999999999999e+000 -9.4999999999999996e-001
    1.8999999999999999e+000 -9.4999999999999996e-001
    1.8999999999999999e+000 -9.4999999999999996e-001
    1.8999999999999999e+000 -9.4999999999999996e-001
    1.8999999999999999e+000 -9.4999999999999996e-001
    1.8999999999999999e+000 -9.4999999999999996e-001
    1.8999999999999999e+000 -9.4999999999999996e-001
    1.8999999999999999e+000 -9.4999999999999996e-001
    1.8999999999999999e+000 -9.4999999999999996e-001
    1.8999999999999999e+000 -9.4999999999999996e-001
    1.8999999999999999e+000 -9.4999999999999996e-001
    1.8999999999999999e+000 -9.4999999999999996e-001
    1.8999999999999999e+000 -9.4999999999999996e-001
    1.8999999999999999e+000 -9.4999999999999996e-001
    1.8999999999999999e+000 -9.4999999999999996e-001
    1.8999999999999999e+000 -9.4999999999999996e-001
    1.8999999999999999e+000 -9.4999999999999996e-001
    1.8999999999999999e+000 -9.4999999999999996e-001</inv_output_scale>
  <weights>
    <_>
      -4.6222180089869102e-003 -3.0386965129628293e-003
      4.1951311306622193e-003 1.2393182417243767e-003
      3.9910867379776820e-003 -3.6096718242828603e-003
      2.7212430466679316e-003 -4.3222094542688183e-003
      4.2447361673685078e-003 -2.9648579954383437e-003
      1.8223902578679845e-003 2.2345350336514091e-003
      -2.8510467270295809e-003 3.2893528653748744e-003
      6.6332868772747005e-004 2.3070695693070183e-003
      4.4132864887138209e-003 2.4871913685018442e-003
      6.6752844171497007e-004 4.5411576321843479e-003
      2.6542105002752810e-003 1.3940396294657149e-003
      3.9125175763899530e-003 3.0413716111723937e-003
      -1.3362404417424599e-003 -2.2059426488131306e-003
      1.5680867236652495e-003 2.6706976345374977e-003
      -3.8907308630967393e-003 -1.4327270612453627e-003
      -1.1536972816925295e-003 -4.6264017750555914e-003
      2.3060224160819263e-003 1.3092783029316777e-003
      -1.8383566451348704e-003 3.9834846521900739e-004
      -2.9908813254164806e-003 4.1617280994612621e-003
      -4.4932590840112627e-003 -4.6598758093927663e-003
      1.2861381847023793e-003 -4.9377651111871367e-004
      -2.9506613804476368e-003 -2.9307322729695330e-003
      2.0694142749792597e-003 3.6126918873206678e-003
      4.8341336313847258e-003 1.6555333764410316e-003
      -1.8915031729696118e-003 6.3986230241183998e-004
      -2.6937071349175212e-003 -2.0456329913700453e-004
      -3.8397497722587183e-003 -2.5998439387365066e-003
      1.2625594265404177e-003 -1.8229237608033452e-003
      -3.5485943055033461e-003 -3.1430571140462818e-003
      -2.4621547577512448e-003 -1.5562364787584315e-003
      1.4445438086689406e-004 1.2770301559855831e-003
      -2.6479797593721962e-003 4.6089118174772199e-003
      6.0508296790771606e-004 3.9465962783385364e-003
      1.9445897513581125e-003 -2.0512523005369746e-003
      1.3795432742528333e-003 1.5883914200944711e-003
      1.6319220725004501e-003 -2.3643416429982751e-003
      1.8106297601928724e-003 -4.7374210554400140e-003
      5.6880728248780491e-004 -3.6725714549732877e-003
      -2.5920662679817202e-003 2.8725399787440486e-004
      8.3635052721691306e-004 -2.8678647515879736e-003
      1.4719575907745769e-003 -3.0976136310436409e-003
      3.9642033701190382e-003 4.5363844566419630e-003
      4.2988454258555504e-003 -4.8108213563682499e-003
      -4.2817316452198684e-003 2.0251181385126668e-004
      1.4318919384391968e-003 -1.8672345114128803e-003
      -1.7333742334773134e-003 -3.9045569749589469e-003
      5.6491604324825887e-004 7.8036035827621177e-006
      4.1099302360720937e-003 -2.0927461498505182e-003
      -2.6279956628809118e-003 4.1391044263893858e-003
      -1.8829944215139963e-003 4.4589804284261535e-003
      6.0622435323023807e-004 1.4538455969069577e-003
      1.0063244392069025e-003 3.5520411701148004e-003
      -3.8485067180491070e-003 -7.7695574176499466e-004
      -3.4223608190397828e-003 -1.2787527935625004e-003
      4.6216685150028899e-003 2.7902824190821781e-003
      4.4540194340013210e-003 9.6362806363266252e-004
      3.2971025865644711e-003 2.1063584495908763e-003
      -2.0822562636899095e-003 2.8864432769716460e-003
      -2.2287280881655815e-004 -3.2487751328682231e-003
      -1.6637057910007122e-004 4.6998134805608990e-003
      3.8753132525677085e-003 5.0920072121160846e-004
      3.8765447843678944e-003 -4.1325140825440396e-003
      -3.5444265093086376e-003 5.0864509520890072e-004
      -2.3708028945360927e-003 -2.7786058485877512e-003
      5.0810875860270470e-004 -4.5629303838797429e-003
      4.3015752880493779e-003 -3.7110712366382535e-003
      -4.3361205254166327e-003 5.1566338849717034e-003
      -3.9791159955182053e-003 2.0340101534452593e-003
      1.5944370790950350e-003 -4.0883589033024002e-003
      -2.1511219261158832e-004 -3.6493688271758461e-003
      2.2506392641068844e-003 2.2313667931869938e-003
      -9.4943131670522068e-004 1.9068519598256805e-003
      4.1296695600824569e-003 4.3091136164203139e-003
      -2.1552803689897926e-003 -2.3400453506371706e-003
      -2.3162366264342653e-003 -4.3794371809704746e-003
      -4.6294544969943292e-003 2.8776311372734212e-003
      -3.8795869166235544e-003 2.2428074307504825e-003
      -3.8358615237973214e-003 1.1728225894667322e-003
      -3.1071943215289495e-003 3.9861142294205492e-003
      3.1846707833046422e-003 -4.4334292756442548e-003
      1.4212821494564206e-003 -3.0470132373285825e-003
      -2.0911385281922727e-003 -3.1734441344305102e-003
      3.2304997057587123e-003 1.8990682160172911e-003
      2.8157064717315799e-003 -1.0528168660828793e-003
      1.7279837822281633e-003 2.9349992969469099e-004
      -1.0539831750296408e-003 -1.0257491711496904e-003
      -1.9984161965575249e-003 2.7051444621732901e-003
      3.1410314236137351e-003 3.4695272033325717e-003
      -3.5859455570172579e-003 2.4631046261454153e-003
      4.8925653244496553e-003 3.0571286351795618e-003
      -3.1468230988576803e-003 -4.1537954032868267e-003
      3.1003209163921342e-003 4.2295527443812157e-003
      4.2672138835083712e-003 4.2401261281558500e-003
      -9.6750614773076179e-004 4.1641127102173799e-003
      -3.2627687891940227e-003 1.7403475588227237e-003
      3.1621626851383788e-003 2.2643494649390024e-003
      -3.8198714859965029e-003 3.3853432037235362e-003
      3.2510993168348152e-003 -2.2327431882718102e-003
      -3.2721434942178571e-003 2.5183947571933746e-003
      2.7535367690862504e-003 -1.8107315983045035e-003
      -1.8517084449777930e-003 1.8629958307694063e-003
      -4.4672396984591608e-003 1.8433448687276799e-003
      -9.7411543408456171e-004 -2.7587052741414879e-003
      1.1951269973259403e-003 4.2687073922807791e-003
      4.7258985234843363e-004 1.1557961134744446e-003
      1.0055675149410234e-003 -8.8513746702735270e-004
      -1.5317276963743851e-003 -1.0018757495817245e-003
      -4.1994242521559734e-003 -3.0192986562172209e-003
      -3.9629218922747128e-003 -3.3775284583646132e-005
      1.9858372839450336e-003 -2.0716159669029082e-003
      1.6076168303270075e-003 3.0563454327652527e-003
      -1.3989180154272492e-003 -2.5769457616751324e-003
      4.9711290945740590e-003 -1.8211122489984531e-003
      2.5210516523581977e-003 -5.9822848514318682e-004
      1.2966824364491472e-003 -2.1502752877916669e-003
      1.9353294818848345e-003 -3.8159975277577248e-004
      -2.0159822884408289e-004 -1.2562906298949396e-003
      -5.0796805918467997e-004 1.0184311573069163e-004
      3.7786697693535963e-004 -1.8218697339330077e-003
      1.3274566711086063e-003 -2.2109453702163990e-003
      3.1026795601207706e-003 7.0381326436841631e-005
      -1.0515704000539669e-003 4.9283035142787535e-003
      -4.2832448781853513e-004 3.2856835427117446e-003
      2.4915079106945788e-003 -4.8543456915862730e-003
      3.8979093276328663e-004 3.5824317441728189e-003
      -2.2195046958161904e-003 -2.7203000943790503e-003
      -4.2001728049903941e-003 4.0741229681363700e-003
      -1.4919471293616145e-003 9.5384835544098196e-004
      -5.7336572277325460e-004 2.6467394420884032e-003
      4.0641075655601135e-003 -2.4437785743808222e-003
      3.0288291998666109e-003 8.0309408815687022e-004
      -2.1525956360041484e-003 1.4109957079640318e-003
      -1.8819726344801800e-003 -4.4736827791917880e-003
      2.1872761428835706e-003 -4.0600594512353133e-004
      9.1758736652363846e-004 4.0097982241848852e-003
      -3.5376286347447517e-003 -4.0441639786810302e-003
      -3.5419809209699003e-003 -1.8773187598502699e-003
      -4.7654023041936782e-003 1.1358322822972828e-003
      7.2094832605908187e-004 3.2826683028150880e-003
      -7.3613935721177212e-004 -3.0013772181585120e-003
      3.0456624837697992e-003 1.8930545431341983e-003
      -4.8609685821415054e-003 -8.9576565022660897e-004
      3.0285697469817638e-003 1.4546726520641203e-003
      8.4989960043608550e-004 -3.0328695698650658e-003
      5.0189697537539662e-003 2.1144588119505819e-003
      -4.6562680012438027e-003 4.7059797672945074e-004
      2.4529230046671309e-003 1.6330575746910856e-003
      -4.5274870512645735e-003 -8.2229519086903316e-004
      -9.4740187010106613e-004 4.3318102775026521e-003
      1.1507583521921767e-003 -1.8223202103237917e-003
      3.7729266146134728e-003 4.5805032836796905e-003
      1.5662744885507757e-003 -1.5201459399774709e-003
      -3.1877665380743722e-003 -4.2797259256367764e-004
      -1.8841173846132521e-003 1.9635713360748120e-003
      2.3469385729701451e-003 3.2391363213827682e-003
      3.3342050357456194e-003 3.9991405377923272e-003
      -1.3386380823605304e-003 9.2607705644261911e-004
      -2.4093521000327872e-003 -3.0071216758546337e-004
      -2.3702628421345327e-004 -2.6581435211411392e-004
      -2.1576163838851514e-004 -2.5817910664278246e-003
      -2.3309420450078979e-003 -1.0054975072634421e-003
      4.8278430666251751e-003 3.3916384278673399e-003
      -7.0768640657827508e-004 4.7081249332946587e-003
      4.4930166486924139e-003 -3.8751743812233627e-003
      3.5263266308409071e-003 4.1044882030785166e-003
      -2.4296362606537748e-003 2.7407218217761638e-003
      1.8286617436704742e-003 3.4134864401273459e-003
      -1.6361141159096726e-003 -4.3646721846362481e-003
      -1.8977456291292853e-003 2.8429671925708070e-003
      -2.4644484839508787e-003 3.5936981639492901e-003
      9.8746835829837667e-004 3.5418969312810381e-003
      -1.7773628033753920e-003 -3.8407289483803060e-003
      -3.0877454459673028e-003 -4.5616898387392186e-003
      -4.6875545453827676e-003 5.3209224059438964e-004
      -5.7278626318714400e-004 3.9245780587387107e-003
      4.5439439487753334e-003 -1.8848319855068276e-003
      -2.4805218024117671e-003 1.5554555068870450e-003
      -1.6981292767557366e-003 -2.4673428745266785e-003
      2.9613349598096015e-003 -8.6216581632468848e-005
      3.7425627644134163e-003 -2.3905863604121399e-003
      3.9621632718827510e-003 3.5873859894536607e-003
      -9.0240343236675554e-004 -2.8464935674232484e-003
      3.3779062861133097e-003 -4.2591812174551952e-003
      -2.8032617465259075e-003 -4.7416080137275595e-003
      2.8942625583741888e-003 -3.8493527340057536e-003
      4.0306099985372256e-004 -2.3890890985498584e-003
      2.8401316760132303e-003 -2.3043934960146509e-003
      -2.3126749485672103e-003 -4.0279833307027722e-003
      -2.0574407019897717e-003 1.3484791408244514e-003
      -2.8834617075532707e-003 4.4224603303089889e-003
      1.6014880662567890e-003 1.5855434954729524e-003
      1.5080223604761441e-003 8.7314669041207678e-004
      3.5704601091568278e-003 -2.0578547290918230e-003
      -4.6130028857043689e-003 3.4635367958793513e-003
      -2.6065637618154019e-004 1.0701625379749594e-003
      8.4473290218875388e-004 -2.1491281186268186e-003
      -2.4435903814171689e-003 4.8396512509930106e-003
      -3.2169394979653571e-003 5.1619529733347783e-003
      6.8285537649022312e-004 1.5258547810191648e-003
      -1.9573949128976129e-003 4.3167233204608763e-003
      4.2853341070208748e-003 3.5936558696162738e-003
      -2.7979386289166764e-003 5.0491108055112635e-003
      3.0477921394776150e-004 1.2961795683618064e-003
      4.7032219875550625e-003 4.4882112599707738e-003
      -2.2285441238296356e-003 -9.8300971548921515e-004
      9.5630059973688200e-004 -5.0258135920656108e-004
      3.8412279939672767e-004 2.3435258911095208e-003
      -8.7977757825764467e-004 4.0516431316928768e-003
      4.6100217065952855e-003 -1.5015662046686045e-003
      3.2364255386143543e-003 -4.4279295209453595e-003
      -3.0576121761382766e-004 3.3873181999466411e-003
      -4.2950899902523413e-003 1.6040736245267679e-003
      1.4961500229958094e-003 -5.0956957870746549e-004
      -4.5712289473428510e-003 -3.0988346955645183e-003
      6.7464910357217117e-005 -1.7109320765968012e-003
      7.1420371520698528e-005 1.8688772514382646e-003
      -1.1395012547844039e-003 4.6078990801377354e-003
      2.1324312852632477e-003 -4.7354712999357271e-003
      4.3042005080525398e-004 2.9424347197031372e-003
      -2.3032814594515952e-004 -1.7362039948996804e-003
      5.9721609964249957e-004 1.7074177167336157e-003
      4.6267750366163398e-003 2.7203129641212172e-003
      -1.9787431160939364e-003 4.6966174061115924e-003
      -4.5153799378030452e-003 2.4261248299017775e-003
      -3.1279825804813371e-003 6.4457716037098095e-004
      1.5347805190110270e-003 4.1012145667171478e-003
      -1.1942932108618682e-003 -4.7168571252570882e-003
      -3.9826374182953478e-003 1.6081560113274883e-003
      -4.7348201954982700e-005 6.7434797500688995e-004
      -2.5773998030595336e-003 1.2849586425357746e-004
      1.6646258385707841e-004 3.4771863785385804e-003
      -7.0815453172679975e-004 3.5066104188695860e-003
      2.0462953756550050e-004 -1.3837582977269715e-003
      -1.0986174593051521e-005 4.3401523393741858e-003
      4.6898127052449343e-003 2.5470356418627249e-003
      -3.0571936584756270e-003 2.5858899080707424e-003
      2.0472722522242941e-003 3.0388416120986318e-003
      -6.4257334455487781e-004 -4.1020953128887020e-003
      -3.6389870789516479e-003 3.3862912316147812e-003
      4.6832816358236091e-003 4.2044556233187284e-003
      3.2749864584341679e-003 -4.6664375593143542e-003
      3.0065920983694126e-003 4.6615041244590094e-003
      -5.2685023684934790e-004 3.2840624765676676e-003
      -3.9354965315139417e-004 -3.9032878612826820e-003
      1.4818657536588289e-003 2.2129683846624972e-003
      -3.9137366777333834e-003 -1.0815082662952254e-003
      1.5907191177359004e-003 -4.5498512325032351e-003
      2.4470970329042545e-003 -2.7411416114966501e-003
      -4.7378192378403705e-003 2.9201169663616447e-003
      -1.6718968823751920e-003 2.3320035694354472e-003
      2.6560474365059381e-003 -2.1459549804838224e-003
      3.6810930258131291e-004 -1.0918728851209251e-003
      -2.5897736558792863e-003 1.2662636529412665e-003
      -4.1016655148711145e-003 4.6861431381132728e-003
      -7.3639470038115490e-004 -1.7364607969628972e-003
      -2.6136032370175032e-003 6.7225242769337749e-004
      3.4734007095860607e-003 -4.9575868905279170e-003
      -2.8292946732124038e-003 2.0617692586471430e-003
      -5.0684181283601427e-004 1.6307093735353044e-003
      3.2540446446858999e-003 1.9555406290405089e-003
      -9.2840574203413139e-004 1.7448383994783758e-003
      -3.6714198014812897e-004 -1.6701089295383009e-003
      4.4756380724683522e-003 4.8388352995544946e-003
      -3.1730998450739799e-003 -8.2291570583766221e-004
      -3.4326616776510261e-003 -8.3727255543920062e-004
      4.2661511845251058e-004 -5.1314044922523240e-003
      -2.4903153421602904e-003 3.2612277774699333e-003
      -2.3221272378894683e-003 -4.9891340139843264e-004
      -1.8271867646407446e-003 -9.8889759958796248e-004
      5.9882747950629084e-006 -3.1209443941522070e-003
      4.9264133641204475e-004 2.9430808183473958e-003
      -2.4331389050270724e-003 -1.1996931982755049e-003
      3.7946857511109888e-003 -1.8504522073809441e-003
      -4.0860343117734245e-003 -4.0238585081462056e-003
      1.8695082089443876e-003 6.1799854958289008e-004
      -3.2037265069745115e-003 -2.6140450876223557e-003
      1.1556471896208833e-003 -3.5948268799641464e-003
      7.2645849015746781e-004 -3.3129657518928537e-003
      -4.6421292136478234e-003 7.5676569700772916e-004
      3.3219485422765599e-003 -2.6295631296605593e-003
      2.7890224024764137e-003 2.3088030338653075e-004
      -8.2615345098788358e-004 1.5413376903583353e-004
      -2.2159911162229866e-003 -8.5940809904821167e-004
      -2.2728536653892325e-003 -2.6295792859326947e-004
      -2.5704033437261656e-004 -2.3459478506514171e-003
      -2.5939110894525595e-003 4.4065455567517224e-003
      -2.8502259316247744e-003 3.1150062531443701e-003
      1.2460105906843043e-003 4.5709490054655745e-003
      -1.9187282660005707e-003 -2.7066031048125368e-003
      -3.8310744706149288e-003 1.6694684709550205e-003
      -2.4969315573338553e-003 -2.5956457852943020e-004
      3.6143513196660324e-003 -4.0449417833611874e-003
      3.1472977933630030e-005 1.4732349167335239e-003
      -7.7715963565945428e-005 -1.0751530896694122e-003
      2.0953081912117220e-003 -4.0504339568270455e-003
      4.3371705914425473e-003 3.6397261437061930e-003
      -4.8022760004250648e-003 -2.0798970233880903e-003
      -6.1573182623063751e-004 -3.7599146918981651e-003
      -4.0346363581717877e-003 2.7628967249706824e-003
      1.5133022535191115e-003 -4.0251695751829623e-003
      -1.1026374770916065e-003 -4.1012339189164053e-005
      2.9914963843896969e-003 -7.7133475314892879e-004
      -4.3126864069224181e-003 3.8332902331423453e-003
      -2.4082798703766858e-003 2.0117794757436632e-003
      -1.4760858728206110e-003 4.8658355336863301e-003
      -2.5760508947261312e-003 -1.4939390705217825e-003
      4.6289386422672064e-003 1.5138144698627124e-003
      2.9300316854352633e-003 3.6745625529746848e-003
      -1.4051763931695392e-003 -2.7783242717376502e-003
      1.7432875039738419e-003 -3.4737545385920012e-003
      2.2800883041274050e-004 4.1646297492304810e-003
      -4.6644746661571477e-003 -3.6289101593428423e-003
      3.2502380156689266e-003 3.0070628359797551e-003
      -9.7660066335177932e-004 -1.0364024717427714e-003
      4.7280837658071010e-003 4.3115538404592648e-003
      3.6768922875698830e-003 -1.3249967704896367e-003
      1.8643363520729397e-003 3.4599309545405104e-003
      8.2333020915407789e-004 1.9174690261145990e-003
      4.2423045892235776e-003 1.1575119945754740e-003
      -1.9441205086129280e-003 -9.5220368209893863e-004
      4.2324513329826579e-003 6.8803207891232436e-004
      1.9936502809399055e-003 1.5313349416103529e-004
      4.4471626398643440e-003 3.8901034668995942e-004
      1.1870435166826748e-003 3.4845724850691910e-003
      -4.6524788869505146e-003 -4.4444689224707552e-003
      1.2229822079533441e-003 -1.4982662338495489e-003
      1.0786112593368269e-003 -2.8019206731116921e-003
      -2.3640450307273724e-003 2.6301756514053591e-003
      -3.7223349398086470e-003 -2.1032321024913234e-004
      2.5588053504673751e-003 -3.2753831401402147e-003
      -4.4240174222727399e-003 -3.3473209221574488e-004
      -1.3899238095676771e-004 -6.1619802347339238e-004
      -4.2278231941955879e-003 -9.0295825450381097e-004
      4.8089652594817750e-004 1.8664975157177254e-003
      -4.1502334254598051e-003 -1.7577368866239030e-003
      1.5344180507460509e-003 7.4855675650853804e-004
      -3.0684840578158348e-003 4.9253025559326830e-003
      3.5713438097376097e-003 4.5473880233665859e-003
      3.7217682063956305e-003 -3.4278985812146749e-003
      -2.0760406347174565e-003 1.2455785907180801e-003
      -4.3285276459608876e-003 4.7324669415129833e-003
      3.3230104972150048e-003 -2.8213522613718509e-003
      -1.3274010863282854e-003 -2.8847170504403960e-003
      2.0196090268510881e-003 -2.3548048371413452e-003
      -3.0499132001309604e-003 -3.4226296353080291e-004
      3.9206668316373898e-003 3.9227627005271682e-003
      -4.4070745864588246e-003 -1.7269382830383184e-003
      -1.6430389378695696e-003 3.0915916013913407e-003
      -1.2948331088329266e-003 -1.3910142775834012e-003
      -1.0025340610577899e-003 -4.4160774584669927e-003
      -8.2783700962227595e-004 2.5756836217156269e-003
      -9.0916433784548515e-006 4.6692736270851146e-003
      -1.7557513247067565e-003 8.1572442145993887e-004
      -6.7718053846921355e-004 -3.2076201173423312e-003
      -1.5750331849956486e-003 -3.7097954574032864e-003
      3.6371947468125886e-003 2.1240459348663850e-003
      4.5771138454064400e-003 4.6512946804877393e-003
      -7.6552651139904593e-004 -4.4132979181611921e-003
      4.0995900545092445e-003 2.3403234978529733e-003
      -1.3745301017782994e-003 2.1645172021401119e-003
      -4.2769013328250770e-003 -4.4582697855003522e-003
      1.3992546603450813e-004 -6.0246953916726960e-005
      4.3838142883372289e-003 -2.2031123929905938e-003
      -2.3478297981410290e-003 1.3472225875310545e-003
      7.3494668397963594e-004 -3.6565043950433831e-003
      -3.6542312224672434e-003 3.5459343957911652e-003
      1.2769589795176646e-003 1.6813698596694056e-003
      5.7499471709463899e-004 1.6631260301051124e-003
      -3.1680769955756537e-003 -5.4999698516686895e-004
      -1.3213052931879531e-004 2.0096443335905051e-003
      3.7225986258980053e-005 -2.4432784346977597e-003
      -2.6120236501021867e-006 2.2680132849204437e-003
      -3.7189905765090394e-003 1.2490153679090596e-004
      3.8907705879788609e-003 4.5892937928784421e-003
      1.1153558925067579e-003 -3.5372005917979669e-003
      -1.3056118520453678e-003 2.7917719549241772e-003
      -4.8957903478149762e-003 -2.7266562030407813e-003
      1.5176714188057390e-003 -3.5086137322659916e-003
      1.8733651353236601e-003 4.9775590416218859e-003
      -2.7855156685532472e-003 3.4177600412352211e-003
      3.4289741499960872e-003 -4.4807223194995886e-003
      -3.1448554690451224e-003 -9.0313838201451231e-004
      4.2567933739408293e-004 4.3217719796049088e-003
      3.2686764120715001e-003 -1.0318933945912760e-003
      -4.8082751626960058e-003 2.8588103915278924e-003
      1.8754582236144718e-003 2.8819175121052821e-003
      2.8087390596225866e-003 3.7446296845933362e-003
      -3.2374424783051473e-003 -1.0092407298500055e-003
      -1.1594318304045861e-003 -3.7006792782393492e-003
      -4.8548869133926888e-003 -2.8638770576296302e-003
      1.5645507249782702e-003 3.5515686524584308e-003
      -1.7673190325954418e-003 -2.8754855272457125e-003
      -9.8206276017617387e-004 -3.2027357207178200e-003
      -2.0933723166414800e-003 3.6389906416246262e-003
      -1.7396568935210109e-003 -3.6687447401666023e-003
      3.6599821157312943e-003 -2.2825251733305340e-003
      -3.8950046222393894e-003 -4.2207101862792281e-003
      -1.1188263884665910e-003 1.8519480255265567e-003
      -1.6026181835985581e-003 -1.1923029500435494e-003
      -4.2266742018087439e-003 3.8375475964581309e-003
      -1.4542910807288532e-003 -1.8332755881539020e-003
      7.2978588911098432e-004 -1.2192299098968823e-003
      3.4457361031726575e-003 -2.4511778434498374e-003
      -4.2033808312813845e-003 -2.8202107756870091e-003
      3.8536978652563537e-003 -2.9610039521365053e-003
      1.9856267622819714e-003 -1.8777075003469030e-003
      4.2693661053350941e-003 3.2674934774664052e-003
      -1.5415989098477925e-003 1.1809385579844129e-003
      -1.8404073211460603e-004 -2.1183465252304565e-003
      1.7957709994791612e-003 -3.6447023072264948e-003
      3.8583195801601524e-003 -2.6197182628301262e-003
      -2.9352922929167468e-003 -7.7514968181387884e-004
      2.7022258620527872e-003 4.3978375064463527e-003
      1.9508226898159147e-003 -7.4169705178093906e-004
      3.6663337924105474e-004 3.2264323797381498e-003
      -2.0995514136097231e-003 -3.4923107949076827e-004
      -3.0389138825220523e-003 2.1243896285543535e-003
      2.3539918154033470e-003 4.8721425693837523e-003
      -1.5839862334468130e-003 -1.4177830106338698e-003
      3.1617381344998040e-003 -6.6232284846096448e-004
      -2.7307556368608293e-003 2.1705630662639231e-003
      1.4712663621642599e-003 1.0418898964502554e-003
      4.2637884764122379e-003 3.7579938271329455e-004
      -2.7268634664340168e-003 3.7670530067799046e-003
      4.9331330995699670e-003 2.2055657533985820e-004
      -1.2153775079367718e-003 4.8641320801089171e-003
      4.0690363215115447e-003 4.5652385490528612e-004
      2.9819231910571111e-003 -4.0664033087593398e-003
      4.2141917929488307e-003 4.3631403397140648e-003
      -4.0046069567249042e-004 -3.2311171202963384e-003
      -9.6659743050111319e-004 -1.0930811726143465e-003
      1.5341141373694249e-003 -1.3721731605861797e-003
      3.7396853008890914e-003 3.8723999062832211e-003
      3.7732197366287701e-003 4.5926277210098544e-003
      5.0521872157478246e-003 -4.0319046591121392e-003
      8.7375048013894451e-004 -7.0862125567542494e-004
      4.2385029433402088e-003 -3.5665585461373841e-003
      -6.9755546779678469e-004 -4.3386741899087301e-003
      2.3165813974989316e-003 3.1011833097876907e-003
      -2.6964629541900331e-003 2.9380234113818085e-003
      6.9747925014212336e-004 -1.3120572371039952e-003
      8.9735803451946965e-004 1.6813083580076104e-003
      -5.0491842759991005e-004 2.8056836894258651e-003
      -4.7575342966837497e-004 -3.0167989610360695e-003
      8.8084549550459710e-004 -3.9036480193153961e-003
      -3.3609778890720809e-003 4.7143988456940537e-003
      -4.5657699690021527e-003 -4.4500675917273722e-003
      1.2515716598975493e-003 2.9252664542367360e-003
      -3.4807923204515983e-003 -1.9814290017686450e-003
      6.0280668802095434e-004 -3.7603733048137303e-003
      5.8713630881621157e-004 8.7296144637413449e-004
      3.3138580530580222e-003 3.6264556259210123e-003
      -3.3404557103009968e-003 -2.1137735193197263e-003
      4.1834185777548686e-003 -4.2061124928995455e-003
      -8.9261540750573546e-004 -3.0187083524271276e-003
      -1.5141699540767691e-003 -3.0424331570659377e-003
      4.5586327237650938e-003 -2.1977635159672331e-003
      2.0064155004187456e-003 -4.8062167688743881e-003
      4.8417855726310939e-003 4.3948817091649675e-004
      -3.3789263406996039e-004 -1.6158935978322030e-003
      -4.8026048631158768e-003 3.4544099285683102e-003
      -5.1615784533290548e-003 4.2282209138255677e-003
      -4.4920314474323660e-003 1.3989283398626753e-003
      -1.0133057403962956e-003 -1.0553091167282952e-003
      8.6816838000349894e-004 3.3737332000804078e-003
      -4.7754562599558008e-003 2.7848699596124595e-003
      -2.0604497661390335e-003 -2.3057402987873956e-003
      -4.1812312259641403e-003 -2.3649581191526447e-003
      -3.3612790216893877e-003 3.7243447820258061e-004
      -3.7816253728278214e-003 3.2459545486010323e-003
      2.2386265882187082e-003 1.4131180070820896e-003
      4.0507558257736999e-003 9.2083796449038326e-004
      2.3933020876577235e-003 3.4166590399760674e-003
      2.4620480901285493e-003 2.1347394471491025e-003
      3.6886520299003857e-003 2.2760655867603468e-003
      -1.4707520082898580e-003 -4.1410981007418048e-003
      -3.2493607705877093e-003 -4.5684058959213321e-003
      3.5336001590784878e-003 -1.1726017602793084e-003
      -4.1701816934648977e-003 2.9851406422346997e-003
      -3.6592867754609536e-003 -2.4334430697872432e-003
      4.2784461029351404e-003 1.6092174813016843e-003
      2.2010747341775303e-003 -9.3657987029859588e-004
      8.8134531591816680e-004 2.4621950258795081e-003
      -1.2500062815278782e-003 -1.5576501765648693e-003
      -1.9013897555650461e-003 -3.6210768975372034e-003
      -6.1602581821065252e-004 8.1582161070377129e-004
      1.8143069755548588e-003 2.1485011162903521e-003
      1.2422201942492177e-003 2.6048830683187574e-003
      4.1971782999374423e-003 3.2479562444015873e-003
      -1.7701958334028973e-003 8.5679016893902766e-004
      -1.6954380761264928e-003 4.2114428017525837e-003
      -3.7810548118201214e-003 -3.8776105011889567e-003
      -1.5539291110835602e-003 -2.2949837096613184e-003
      -3.5856382456260117e-003 -3.1024705378622122e-003
      2.6222259670192244e-003 1.6069511524299974e-003
      1.7718380107540949e-003 -2.1873132756900287e-003
      1.2560315937435841e-003 -2.2190361440390174e-003
      -3.3835101626067910e-003 -1.9120094586419999e-004
      -2.8781202121626820e-003 2.0096406748251710e-003
      -2.1334061091600365e-003 -3.2653435895553759e-003
      -3.5060355132724911e-003 -1.7562727287359479e-004
      -3.4206917521062440e-003 1.8274113637523669e-003
      -1.1833191568893966e-004 1.6720961224374086e-003
      -2.0272018234758480e-003 1.0744912237818953e-003
      -1.5469307720483317e-003 3.5546425884917239e-003
      4.4329764802183303e-003 1.1195550531286479e-003
      -4.5919320368559401e-003 2.4670971812480644e-003
      7.7680048147292708e-004 3.9394027968645299e-003
      -4.4313615062590989e-003 -3.7044119198431568e-003
      -2.6404599228509865e-003 -2.5419352980309597e-003
      -3.9090120899019356e-003 5.1934564902344027e-005
      2.5783814865067930e-003 1.4935054853532176e-004
      2.3010730207590289e-003 2.5597252656305099e-003
      4.2200501508713592e-003 2.0143535488851014e-003
      1.1741156000303859e-003 2.1664615364160302e-004
      -5.0095233970643919e-003 1.0655550847853822e-003
      -1.9749650133699562e-003 -5.3608348231197196e-004
      -2.7497579909082858e-003 -5.2909409513776824e-004
      9.3990720080492762e-004 7.2633003624016491e-004
      -1.8088785890844846e-003 4.5594562554564805e-003
      -4.6578290267129078e-004 -3.4250145568218513e-003
      3.2168918263403325e-003 3.0402798916037729e-003
      -5.0451672572618452e-003 -2.8568682370131212e-003
      -3.1503695216996532e-003 3.5552598152417164e-003
      -2.6001430514731002e-003 -7.4868205857372736e-005
      -3.5041813263178771e-003 4.5264328426026781e-003
      9.7420094368280751e-004 3.0924757719915205e-003
      3.7931531252583797e-003 -6.5282265249348508e-004
      5.5224079416243185e-004 -3.5424317066425682e-003
      -1.1804801188050218e-003 1.3635383368507214e-003
      8.4010101950098514e-004 -4.7780122471998750e-003
      -1.5071276486873853e-004 3.2677144880491047e-003
      -2.9568243568345817e-003 -3.4956297337144491e-003
      -2.2884557403602978e-003 -4.7003177324228106e-003
      2.4442410727658443e-003 -1.3813087408187151e-003
      -4.9674765799387829e-003 -4.4369818425278318e-003
      -4.7546844783551440e-003 2.2700320988212415e-003
      3.3852415480821094e-003 -4.0126133612524021e-003
      -1.2490345998560895e-003 1.4936887896371328e-003
      -3.2740623538912534e-003 1.1279320621331347e-003
      -3.0907881965551928e-003 3.9462739925354472e-003
      3.8635781833451449e-003 -3.8739622724918423e-003
      8.2564877909904592e-004 -4.2216457465507808e-003
      -2.1941514993576165e-003 3.0163561240619538e-003
      -2.7267123623664919e-003 3.5782258104779213e-003
      -1.9219650359011666e-004 1.4583101155037548e-003
      -3.9946626236848776e-003 4.0011455214759221e-004
      2.2408308812427793e-003 -4.1783951030285238e-003
      4.5756095854565569e-003 4.7465086417493984e-003
      -2.0760488933930670e-003 2.3277778307272757e-003
      -3.1226393147649992e-003 4.0137629712296416e-003
      -4.8870210280194757e-003 1.1854613350503972e-003
      4.5892478164097326e-003 -1.8675520994880157e-003
      -4.8516916228133304e-003 3.8456689399414670e-004
      -3.7839748540587585e-003 3.7572726592869387e-003
      -2.7707961119524311e-003 -2.4649900780121950e-003
      3.3445973310662912e-004 -4.4764712875324450e-003
      2.0649106628964849e-004 4.7901780545260382e-003
      1.0675833001688733e-003 -3.6230892762888559e-003
      3.5402342709769238e-003 2.2069679542109540e-003
      3.0318175511530776e-003 3.4355413588313842e-003
      -6.6664299167475236e-004 4.5416816739315882e-003
      4.9196513347845305e-003 -1.9784572403296441e-003
      -1.2768254223518526e-003 1.8938228976321983e-003
      -3.1123444512596741e-003 8.5820376791858493e-004
      -5.9213131351599862e-004 4.7937878230331831e-003
      3.3231571395259232e-004 -3.4073961120802310e-003
      -7.4444217197775246e-004 3.8449658779335931e-003
      4.2362495124178357e-003 4.0052983539618477e-003
      -2.8823336356550160e-003 4.7972645791594520e-003
      -6.9708740887207724e-004 -2.9793995300497261e-003
      1.9934082162082400e-003 -1.9689816315658117e-003
      -2.4899341199124494e-003 -3.7885785012550465e-003
      -1.6006753237588903e-003 4.2173044689356627e-003
      -1.9071000352112722e-003 1.3687587961310917e-003
      -3.2259874851955938e-003 5.1364037392746132e-003
      -3.5107476132609085e-003 1.9444409347205106e-003
      -4.6307282883067671e-003 4.7594610986902682e-003
      -1.7801716693787342e-003 -5.0887293660090305e-003
      3.3850219679941564e-003 2.4132990212967949e-003
      -4.6563384817370360e-003 4.1398818259079564e-003
      -6.5009141226595325e-004 3.0601286833964883e-003
      -4.0674403850611664e-003 -3.5857650173955575e-003
      -4.3692843689782952e-003 8.6368634889721853e-004
      -2.1496474009054206e-003 1.0263399304293184e-004
      9.2948939446187465e-004 1.0237688039163089e-003
      -2.0265680246258659e-003 9.8045803066563867e-004
      -2.5236784904259641e-004 1.5727924967585093e-003
      -2.9737845426430717e-003 3.2459790776502014e-004
      1.5947003406249819e-003 3.1513907970896482e-003
      3.0038071613091803e-003 -3.6900325129719082e-003
      -7.2227873405410648e-004 -2.5631176026530656e-003
      -4.6680787670235523e-003 4.1578842253704772e-003
      3.6033495123886593e-003 2.1500293050439072e-003
      -2.6400245588015596e-003 3.8919443658380587e-003
      2.9069310568211487e-003 2.0724689206177510e-004
      1.9625163667489009e-003 1.1374292347504822e-003
      2.8533835833288285e-003 1.5595629791258360e-003
      3.1445780081430078e-003 -2.8032446784076090e-003
      -2.2168195920559820e-003 1.2862562500914755e-003
      -1.9439954429767549e-003 -2.7475814767080543e-003
      -1.9346443525880281e-003 1.0190554329080664e-003
      8.1448245794013140e-004 4.0755615785399999e-003
      2.9246044162376831e-003 8.7489632790645970e-004
      -4.4350263540091073e-004 -1.1414206736045744e-003
      3.1945453262938435e-003 9.3992453096310689e-004
      6.9491102831352838e-004 -2.7283564804901871e-003
      -3.6148059776564706e-004 -1.9454335087318419e-003
      -4.6183170041372750e-003 -4.6728032203652630e-003
      2.7322191013090021e-003 -3.3684376528685493e-003
      4.5941469641824285e-004 -2.4493912251429407e-003
      1.1863648874191478e-003 -1.8831772136510513e-003
      -3.3272544655017569e-003 1.3725106978263132e-003
      -3.0926782563436323e-003 4.1708985355932396e-004
      3.2208958009871933e-003 1.4372354868932337e-003
      4.4980797543295488e-003 -4.5345717326389905e-003
      -4.8509184354043437e-003 3.5560710521530302e-003
      -2.4381412857450106e-003 -4.6789493697921621e-003
      -4.4294990888884824e-003 2.7137525926839360e-003
      -7.8663643944641373e-005 -4.6836504848198068e-003
      -3.4498204770849906e-003 1.2180863294188823e-003
      -4.2906359919444295e-003 -1.9449909752313917e-003
      2.9909704882622547e-004 1.7768484712696012e-003
      3.9951902542655028e-003 1.1874384443957414e-003
      3.3425340597871046e-004 3.0630592397158430e-003
      1.1239385831826195e-003 -2.9405788540911868e-003
      -3.2177526068619768e-003 3.7767380277239546e-003
      -3.4675452741078131e-003 -8.9219784239875455e-004
      -5.7023583401520390e-004 -2.3245408346488127e-003
      7.8861987990807984e-004 -2.6117477508819918e-003
      4.4356991975370123e-003 -3.5855366667424528e-003
      2.4216811053808522e-003 2.4287684686802964e-003
      2.7077570236381881e-003 4.8927980192230418e-003
      -5.0627460253129214e-004 -8.2243414458874661e-004
      2.5728529540919236e-003 1.8187054090596007e-003
      2.3956193096730220e-004 -3.8636385632149460e-003
      -4.8682135780117337e-003 -4.1984235093635398e-003
      -1.6803219807217668e-003 -3.4061417460952799e-003
      4.9303575057924555e-003 1.0322625298978313e-004
      2.2275771015580078e-003 -2.5292348987189981e-003
      2.4335818592757185e-003 -4.8476726635895678e-003
      -1.4213231652305465e-004 -1.6844398816169908e-003
      -4.0788173174394958e-004 8.0061329825606268e-004
      4.2907483303621201e-003 -3.8245926103690848e-004
      -2.9161431362819887e-003 1.7391460107321741e-003
      -1.4994083285473103e-004 2.5491722647163068e-003
      -3.3439278421429734e-003 -1.5079500660636924e-003
      2.4652123616214494e-004 -3.3589499216226193e-003
      4.1785198447804881e-003 2.3784550632362369e-004
      -3.3128719365588854e-003 4.1467892886423519e-003
      4.0542044688994441e-003 -2.2050087471490033e-003
      -3.8082310452576267e-003 -1.3242387019078762e-003
      -8.5703240788172620e-005 4.1790232745207305e-004
      -4.3859117789445184e-003 -9.7886432217794654e-005
      3.8096315466101534e-003 1.3166832152260739e-003
      3.9001798040830911e-003 -8.7691322855022106e-004
      -2.2334106748155705e-003 2.1387270353332272e-003
      9.4741477303509898e-004 3.2776809843691524e-003
      2.5597349874420259e-003 4.7629358835966406e-003
      4.6522053134242366e-003 2.1436730477212740e-003
      1.3837672011595039e-003 3.9629123883329681e-003
      -3.4570566913050115e-003 -7.3036556521611780e-004
      1.8337400409721544e-003 3.0219425674972073e-003
      -1.5074255485661866e-003 1.7534316582259201e-003
      3.9830719100564715e-003 -4.5698646951901822e-003
      -6.9498440742623939e-004 9.0902932686618668e-004
      -2.9508905783461525e-003 9.8938735833807253e-004
      2.5705384226829189e-003 -1.8384329511515489e-003
      2.8037539685193034e-003 -2.3221290729142862e-003
      3.6590683656271641e-003 4.4210986381445945e-003
      -1.9563056610467072e-003 -8.4975820291929469e-004
      -2.1582372773941076e-003 1.6586959104027824e-003
      -2.9541098831063002e-003 3.1393123480079883e-003
      -1.4527274982215194e-003 4.2888376479896214e-003
      9.1682784693748233e-004 4.1888922583394831e-003
      1.1607947752610202e-003 3.6248578324600653e-003
      1.6688871508270067e-003 -1.1319837821455296e-003
      1.4170945042756451e-003 3.7609660191393344e-003
      -2.2091600413880314e-003 3.5484135709873761e-003
      -3.1486441220529905e-003 -2.4051165621599921e-004
      4.2556117191602134e-003 -4.5844282996170055e-003
      -3.5405616062984678e-003 -4.3628375376788212e-003
      1.7787263956908312e-003 -5.4224786577073769e-004
      4.5300476504795507e-004 -4.2118360442106508e-003
      2.5167502616150533e-003 2.0758930378779695e-003
      1.2061394735134031e-003 -3.5079331870883396e-003
      -3.3716951872839462e-003 -1.9705402696435304e-003
      -5.3261378864766153e-004 -7.7259033156645558e-004
      -2.3477188378344337e-003 8.1864415703008034e-004
      1.7550826729127267e-003 2.7065730009682623e-004
      9.5983929455469084e-004 4.9206683127956527e-003
      -1.0771208127319687e-003 1.5489726515548305e-003
      -2.4776723234183977e-003 1.3558066677711404e-003
      -4.8395762128876701e-003 -1.0596988103173982e-003
      -4.7400746877095477e-003 -2.8931447037253226e-003
      1.9603117961776535e-003 -3.6774066081173068e-003
      8.0604163625318834e-004 -3.7475625173943317e-003
      2.6570215173874135e-004 -4.9409868306375115e-003
      -4.0094595024552171e-003 -7.2054829566297902e-004
      -2.2892548412859408e-003 -9.4952925757915176e-004
      -2.5194131135957156e-003 -3.1990211975162063e-003
      -1.9308817884933444e-003 -3.4917861459082371e-003
      2.0108240996042194e-003 -3.1515815681077515e-003
      -9.0728250565697585e-004 -4.1185607761930320e-003
      1.4981655759868570e-003 4.5482674617808774e-003
      -3.2100695431460336e-003 -4.3801717534259557e-003
      4.5728643790558174e-003 -3.9518480691600388e-004
      4.6271508090839309e-003 -1.2263498348294044e-003
      -4.7296908942763647e-003 3.7033179937435343e-003
      -1.8855468979149005e-003 2.8113055761424399e-004
      -2.5962348198202301e-003 -3.7816819332884373e-003
      -1.8391346792818602e-003 2.1337368521828215e-003
      1.2092612298884985e-003 -1.6318622742031406e-003
      -2.9086673276188233e-003 -4.3062241134478258e-003
      3.9731320151490087e-003 -2.0752568602314661e-003
      -7.3024779665278405e-001 6.6314433501735687e-002
      1.5386604405966740e+000 3.0806542572976152e+000
      -3.9646213328355934e-001 4.2927021286863648e-001
      -4.7458347747672736e-001 3.1105365280477799e+000
      -9.2932154463226246e-001 -1.9534616962049354e+000
      1.8092197936754391e+000 -4.6950915715136002e-002
      8.2124596379665293e-001 -3.7761019806217369e+001
      -1.1938599556186262e+000 -3.2255942041242887e+000
      -2.3759822675103276e-001 5.0618319802412159e-001
      -9.4843255640061830e-001 9.8846221487426666e-001
      1.3518367839705974e+000 -1.7392612137194570e+000
      1.9775432406420199e-001 1.1518365730144585e-001
      -1.2149338250955455e-001 -5.0872683780584335e-002
      -8.8593067946855353e-001 -4.6159842859266226e-001
      -1.2529538487270591e+000 5.1428174967904638e-001
      2.1081597324949675e-001 8.5538149482225923e-001
      1.6906390224884982e+000 3.0652728276504106e+000
      -2.7429527412644958e+000 -1.2454296618862080e-001
      7.5691325631680484e-001 8.5917758389562848e-001
      3.2893194885880948e+000 1.9814240426507537e-001
      3.4232597185723351e-001 -1.5567634775630845e+000
      1.0132378137544554e-001 -4.9515694706799165e+000
      -6.1054418072792355e-002 -2.5017200893191771e-001
      9.2994705206021810e-001 4.9901829126844049e-001
      -9.3889152866700598e-001 6.6357621593011740e-001
      4.8929665098139147e-001 -8.8222947710666511e-001
      -2.0331585863945575e-001 6.3704713241159905e-001
      1.7461362192709642e+000 -8.0513532486872208e-002
      -2.6718051188474350e+000 -1.2283146846279813e+000
      2.3811500842196009e+000 -8.6859246053329675e-001
      1.7857074611758417e+000 1.3234363173026407e+000
      1.2286325393306665e+000 -7.9838850012093454e-001
      -1.0759946206450040e+000 -7.3199537226380063e-001
      2.0993194148666679e-002 1.5458562838551737e+000
      3.0903465417636151e+000 -8.8695119690605484e-001
      4.2960710137568775e-001 -2.1298006100505115e-001
      3.1171475160022575e+000 -9.2845418048860151e-001
      -1.9555308997683980e+000 1.8033081632774521e+000
      -7.6951339881291519e-002 8.1839778380287032e-001
      -3.7767234239682814e+001 -1.1947259940629666e+000
      -3.2242964137486410e+000 -2.4446590871982299e-001
      5.0057055809436835e-001 -9.3945928019274560e-001
      9.8969662476808973e-001 1.3512956999925603e+000
      -1.7361902828214240e+000 1.4225172822754922e-001
      1.1608252884952164e-001 -1.2295006250531751e-001
      -4.9143557242258600e-002 -8.8805105425889219e-001
      -4.5794522830996193e-001 -1.2526601324985436e+000
      4.6673026614728580e-001 2.0979663458978509e-001
      8.5964828535769044e-001 1.6928333018740562e+000
      5.7260572078240761e+000 -2.7435597618948218e+000
      -1.2109499682697111e-001 7.5639310616005662e-001
      8.6613054721356286e-001 3.2911599940231362e+000
      -1.2390313087545010e-001 2.5732218784708139e-001
      -4.0602857649806845e-001 2.6190964493506064e-001
      -4.0816790255779295e-001 -8.7258031279038473e-002
      -2.5482011643862207e-001 9.3764730463932500e-001
      4.9773458717862379e-001 -9.3101878865381293e-001
      6.5789010040563356e-001 4.8829484445311450e-001
      -8.8644608002740732e-001 -1.9473266061582367e-001
      6.6741590475601464e-001 2.1228969651440281e+000
      -7.5228551800546481e-002 -2.6706002683068997e+000
      -1.2285905196434359e+000 2.3846785677766205e+000
      -8.7226004322928119e-001 1.7878742194689818e+000
      1.3172976351465504e+000 9.2902405902426977e-001
      -7.9156654498199641e-001 -1.0771934017001050e+000
      -7.3030674183823607e-001 -8.7596823986597475e-002
      1.5451888473501936e+000 3.0884770705737070e+000
      -5.5867431537570444e-001 4.2615790793421482e-001
      -8.3506589533366993e-001 3.1159385824098571e+000
      -9.2892749553300313e-001 -1.9597107521997725e+000
      1.8094251513092243e+000 -1.5536050416283895e-001
      8.2141160407382197e-001 -1.6901154872038084e+000
      -6.1468164359624944e-001 -3.2258967742258906e+000
      -2.4534346412123781e-001 1.0128559334782061e+000
      -9.4050190776264098e-001 9.8228106334080867e-001
      1.3531239367866190e+000 -1.7421442005843304e+000
      -1.2637506500740800e-001 6.4877771249276850e-001
      -1.3178162905537463e-001 -9.8223240004867496e-001
      -9.7463557803826106e-001 -4.6165871330649161e-001
      -1.2518239037866894e+000 1.4338479695152676e-001
      2.0940051258260811e-001 8.6053390117468276e-001
      1.6875793715609535e+000 1.3057596033338912e+001
      -2.7464779645032831e+000 -4.1137838563945456e-001
      2.9975435007572782e-001 1.9252233607473415e+000
      3.2871036197695527e+000 -5.7671793901900659e-001
      2.6341604786141798e-001 -4.6067750160430082e-001
      -3.0596537385442449e-002 3.1137619447115145e-001
      -9.3193437765356213e-002 -9.1464922356617995e-001
      9.3265155487447182e-001 8.1179195783565083e-001
      -9.3940659571630813e-001 6.5692894231365395e-001
      1.2860037239929585e+000 -8.8019282376462160e-001
      -2.0305895938152768e-001 6.6938175094788466e-001
      1.8319175409729105e+000 -5.7467924285703553e-001
      -1.4677386273214916e+000 -1.2246535374327783e+000
      2.3794981311681918e+000 -3.2774029239136160e-001
      7.4589782191342568e-001 1.3244590608410816e+000
      1.1720969024361583e+000 -1.5593614723769028e-001
      -1.0828867330576624e+000 -7.3318493293754061e-001
      -9.4807889674862270e-002 1.5430465158429851e+000
      3.0899741729450079e+000 -4.8282495782230500e-001
      4.7396895180580717e-001 -8.3330528097540724e-001
      3.1094096519800232e+000 -9.2728423253559289e-001
      -2.2978445899234110e+000 1.8036525298914030e+000
      -1.0294937972164857e+000 8.2363252520725061e-001
      -6.4195362172960402e-001 -3.1846492859847597e-001
      -3.2184512246649963e+000 -2.4177512152870523e-001
      1.0167864307261956e+000 -9.4068119316771492e-001
      9.8116385402455275e-001 1.3539327568884629e+000
      -1.7379628367641751e+000 -1.1600961855110171e-001
      6.4638539969511744e-001 -3.3250805687956009e-001
      -9.7371971951902780e-001 -4.0697358842486719e-001
      -4.5671449262267499e-001 -1.2567553086281291e+000
      1.8297728962949961e-001 2.0853043527475229e-001
      8.5551635445417962e-001 1.6923047977785672e+000
      5.6888539024412155e-002 -2.7392763765930668e+000
      -8.5651361221799072e-001 2.8314233198842342e-001
      1.9274955443953050e+000 4.5231491898848670e+000
      8.3884037101949929e-002 2.4554918472178855e-001
      -2.5100054575152531e-001 -3.0716007188485838e-002
      8.6798719536958557e-002 -3.5417279687854031e-001
      -9.1985294463623679e-001 9.3023679521498293e-001
      8.5134924494550757e-001 -9.3795744397576530e-001
      5.9352112320508721e-001 1.2850323000618462e+000
      -8.8731392426385491e-001 -2.0064174556808881e-001
      6.7224104795189632e-001 2.1295486816142133e+000
      -4.4768934122107318e-001 -4.4867801040667560e-001
      -1.2251089747976691e+000 2.3816909910720114e+000
      -3.2608693036023667e-001 7.4283747462220751e-001
      1.3225604139972647e+000 1.1789523814781904e+000
      -1.5142236384887961e-001 -1.0809157993138165e+000
      -7.3056696765985252e-001 -8.0123978249133559e-002
      4.2747980541513436e-001 3.0850299827178733e+000
      -1.6359434638204837e-001 4.3152897271229113e-001
      -8.3015720023553607e-001 3.1159484066301535e+000
      -9.2600869731228297e-001 -2.2974832140897439e+000
      1.8118465859209125e+000 -2.7755182678622656e+000
      8.2156894087101717e-001 -2.8484031708811036e-001
      -3.1262984953387629e-001 -2.0159541734644284e+000
      -2.4375738169218425e-001 1.0178374446644614e+000
      -9.4423719520230620e-001 9.8509500030326269e-001
      1.3520399656149915e+000 -1.7350054522929506e+000
      9.6782799137687614e-002 6.5041360749922450e-001
      -3.7561522846237611e-001 -9.7331711416308142e-001
      -4.0457559490577177e-001 -4.5371895850864019e-001
      -1.2544354884625448e+000 1.7415807837854520e+000
      2.0825485794609039e-001 8.6169758494906079e-001
      1.6864713416544808e+000 7.8678054312692480e-002
      -2.7478117830376618e+000 -5.5514924956185108e-001
      3.1485944054519671e-001 1.9278972242706633e+000
      4.5235482144865085e+000 3.1761432176955491e-002
      2.5736715626429640e-001 5.4742539598186912e-001
      -7.1314523295465226e-002 1.7741397075299450e-001
      -5.8253730557353256e-001 -9.1317882740111178e-001
      9.3065871124426047e-001 9.3123737112361038e-001
      -9.3470080714144388e-001 5.9424898032000650e-001
      1.2847473034260264e+000 -8.8248404508475298e-001
      -6.1494253910717078e-001 6.6469858284976946e-001
      2.9052287188767583e+000 -4.4698214047283336e-001
      -4.3994766247084155e-001 -1.2245030874600662e+000
      2.3772597488657019e+000 -8.7368340550580703e-001
      7.5133243480645340e-001 1.3200485878167489e+000
      1.1759926882810026e+000 -1.5339811402120607e-001
      -1.0770997187416276e+000 -7.3131412635684168e-001
      3.8020130518342332e-001 4.2577070708148140e-001
      3.0900833734503954e+000 4.3493088342596792e-001
      4.3428326648020638e-001 -8.3655130124352983e-001
      3.1096692158874637e+000 -9.3037867961970633e-001
      -2.2976611488779417e+000 1.8078172399788073e+000
      -6.4575884477275141e+000 8.2550967781033835e-001
      -1.7479767312388780e-001 -2.5501181365394332e-001
      -2.0213048587467641e+000 -2.4077340573894257e-001
      1.0161920915692448e+000 -9.4165891372212396e-001
      9.8152113536010976e-001 1.3505839972644682e+000
      -1.7356391393253301e+000 9.6626725648540579e-002
      6.4426588861224621e-001 -3.7665099283213027e-001
      -9.8203703141830057e-001 -8.0733041763439206e-001
      -4.6189082663170483e-001 -1.2501584976748235e+000
      1.8750573271970914e+000 2.1206985039221649e-001
      8.6089908702116047e-001 1.6928789101814710e+000
      1.2429518110052595e-001 -2.7405636637569790e+000
      -1.0884868768537130e+000 9.8102875442484339e-001
      1.9285330478176645e+000 4.5244371661066172e+000
      -1.5181711294690156e-001 3.2454145990124145e-001
      8.3380885577429031e-001 -3.5162090271236768e-001
      1.1125266541400389e-001 4.5333317004295090e-002
      -9.1490841946052870e-001 9.3472610588614635e-001
      7.7948778492718762e-001 -9.3936199153789379e-001
      5.9174155863288902e-001 1.2813352256537578e+000
      -8.8496687994054068e-001 -6.1223975353166216e-001
      7.0674093029626450e-001 2.9455451585924184e+000
      -1.8414211603711733e-001 -4.3602097473753509e-001
      -1.2233376287305853e+000 2.3825839268342737e+000
      -8.7162263706311049e-001 7.5166071179289518e-001
      1.3155274043034213e+000 1.1706696748762411e+000
      -1.4974561260926703e-001 -1.0817562096234390e+000
      -7.3201933806510744e-001 8.3889748990466691e-003
      4.2929658353533834e-001 3.0864381832634087e+000
      -1.1079075001001724e+000 4.3281301562689051e-001
      -8.3025434378122343e-001 3.1140953112254217e+000
      -9.2848103042421060e-001 -2.2956389478972232e+000
      1.8031000835880151e+000 -6.3252329666197173e+000
      8.2539470901127165e-001 -1.6949782375043596e-001
      -2.5417877509584574e-001 -2.0148127183236628e+000
      -2.4242201145028008e-001 1.0123287107220886e+000
      -9.4621794043216789e-001 9.8622368272593730e-001
      1.3584174751216671e+000 -1.7435738818814916e+000
      9.7358497433096741e-002 6.4732019636239368e-001
      -3.7144531253466867e-001 -9.8255400539238613e-001
      -2.0434346764335181e+000 -4.6134095535510650e-001
      -1.2517772532397280e+000 8.7086901304473596e-001
      2.1496731926809509e-001 8.6120543479055300e-001
      1.6868277029202612e+000 6.5655628787235756e-002
      -2.7409099845530638e+000 -1.8472985470738884e-001
      9.9598329612454617e-001 1.9271943089062946e+000
      4.5163320175555626e+000 -2.1815912849165939e-001
      3.2589396794633624e-001 1.4681498960693520e+000
      -3.0002822910750004e+000 1.0648083193751282e-001
      -6.1097258982077303e-002 -9.1323814322657315e-001
      9.3140955793405422e-001 7.6133988234939876e-001
      -9.3560297385869495e-001 1.1347858787061871e+000
      1.2879871107075735e+000 -8.8558492238578668e-001
      -6.1277296238391077e-001 7.1236781377016933e-001
      4.8685577483675351e+000 -1.8471677923311808e-001
      -4.4310144740885249e-001 -1.2238839140774307e+000
      2.3848792883309455e+000 -8.7106636835458751e-001
      7.4990681001155712e-001 1.3227532939238471e+000
      1.1713873533784915e+000 -1.5332545924124402e-001
      -1.0789452082406417e+000 -7.3046559387611776e-001
      -4.2356640324162538e-002 4.2790099307761109e-001
      3.0847918128213649e+000 -1.1569916628961225e+000
      4.7029386205631946e-001 -8.3442658774224243e-001
      3.1147319917980072e+000 -9.3071319258053742e-001
      -2.2935672449995801e+000 1.8056330977792141e+000
      -1.8196801500732256e+001 8.2504665469536631e-001
      -1.7254308280557115e-001 -2.5300927971979165e-001
      -2.0163496725582344e+000 -2.4147420852613100e-001
      1.0135501802764362e+000 -9.4434103334724717e-001
      9.8335203825056505e-001 1.3488194200827688e+000
      -1.7437757932157687e+000 8.9661227775359398e-002
      6.5113382370695772e-001 -3.7592605460657730e-001
      -9.8065940865052137e-001 -2.0459546787092342e+000
      -4.5476319246306163e-001 -1.2568770793630077e+000
      6.9286996484873919e-001 2.0889553825163465e-001
      8.6382764856202388e-001 1.6909700098721365e+000
      6.8377056353919080e-002 -2.7443706755902211e+000
      -2.4306068288418184e-001 9.8376124344730531e-001
      1.9247306370803809e+000 4.5159908113281029e+000
      6.6119403575554916e-002 3.2865972765405976e-001
      3.8902916932067033e-001 -3.0094283614204382e+000
      1.1268574643113434e-001 -1.7589554954614667e-001
      -9.1317803050032353e-001 9.3869402197509666e-001
      7.9721499352885539e-001 -9.3027931813794740e-001
      1.1358948465119802e+000 1.2857006218391716e+000
      -8.7942935158224167e-001 -6.0841639493981636e-001
      9.2318092441103639e-001 4.8659505358494881e+000
      -1.8710964227274773e-001 -4.3686396066063021e-001
      -1.2237740661420520e+000 2.3860329890808032e+000
      -8.6857103572420014e-001 7.4599581351621058e-001
      1.3155231813975719e+000 1.1726806896944273e+000
      -1.5552623873234983e-001 -1.0833566209400098e+000
      -7.3176316313666656e-001 -3.7807472778145702e-002
      4.2614278258591881e-001 3.0831144638643950e+000
      -1.1507294355946474e+000 4.6872064594931656e-001
      -8.3315052659441335e-001 3.1084131895554283e+000
      -9.2385082101403437e-001 -2.2906254241933182e+000
      1.8042792985695912e+000 -6.0440361135181790e+000
      8.1982898363648060e-001 -1.7085499699454601e-001
      -3.1383383842421025e-001 -2.0187758189458145e+000
      -2.3795928822761098e-001 1.0141541724894139e+000
      -9.4698869617168324e-001 9.9027364104827964e-001
      1.3574111551528074e+000 -1.7384114676707136e+000
      -1.1208786007346171e-001 6.5480387202053369e-001
      -3.7153978804352272e-001 -9.8240477581659136e-001
      -2.0445913106498925e+000 -4.5459551780177077e-001
      -1.2516362772896819e+000 6.8009975032663694e-001
      2.0864483126242594e-001 8.5627288480800356e-001
      1.6901566315581924e+000 6.9696274085346746e-002
      -2.7473770889927289e+000 -1.8498663055168255e-001
      9.9092071339050458e-001 1.9252288202776346e+000
      4.5204984950977485e+000 3.1279816593895858e-002
      3.0994453367728378e+000 2.0444838434638163e-001
      -1.1535783886869557e+000 -1.5734592087552110e-001
      -1.5129751695809954e-001 -9.2204377736615439e-001
      9.3266129541510812e-001 6.9323262896481563e-001
      -9.3637782812749581e-001 1.1433419225580388e+000
      1.2802902452979557e+000 -8.8354325447838000e-001
      -6.0955760356630317e-001 1.5679699269152483e+000
      1.7209166029926422e+000 -1.8948235566046834e-001
      -4.4378147225986414e-001 -1.2227220061781536e+000
      2.3837740244760313e+000 -8.7046168640881361e-001
      7.4218623301390929e-001 1.3224924015141388e+000
      1.1778265345527361e+000 -1.5543717702079007e-001
      -1.0755524816351536e+000 -7.3833658485648779e-001
      -3.6091081069106336e-002 4.2541924219211963e-001
      3.0849454981208213e+000 -1.1517249030773569e+000
      4.7529913526238249e-001 -8.2953810336532496e-001
      3.1145434131829814e+000 -9.2792884604565462e-001
      -2.2917930272553129e+000 1.8034961722000877e+000
      -2.1149579522964430e+000 8.2240321837486308e-001
      -1.7264751073007614e-001 -3.1355143162298638e-001
      -2.0175200384526422e+000 -2.4446470540583193e-001
      1.0110107466944609e+000 -9.4783636455222242e-001
      9.8910523034167686e-001 1.3576133379959927e+000
      -1.7367233555385522e+000 -1.1231247168361645e-001
      6.4967537316145929e-001 -3.7548897423080424e-001
      -9.8154361864616280e-001 -2.0953397885355374e+000
      -4.5412774691475166e-001 -1.2524165098289977e+000
      2.5299915636501519e-001 2.0881733245363260e-001
      8.6329335309104283e-001 1.6903443520889267e+000
      7.0362557291303335e-002 -2.7458423049739795e+000
      -2.8940402566776907e-001 5.4035371366752349e-001
      1.9279684447819887e+000 4.5184644327903225e+000
      4.1181848160114096e-002 3.0970016506573455e+000
      2.3702352980048618e-002 -1.6239205795755347e+000
      -1.4428171765577369e-001 -1.8842981993136221e-001
      -9.1899103466889109e-001 9.3445431012467883e-001
      7.0174821097360540e-001 -9.3781152913111476e-001
      1.1357484542388601e+000 1.2806709417936721e+000
      -8.8361605729791226e-001 -6.0997577531965164e-001
      1.5742704143133246e+000 1.6137107835228390e+000
      -1.8879020452007245e-001 -4.3787224183531787e-001
      -1.2242896904001830e+000 2.3815669469117990e+000
      -8.7477706337419303e-001 7.4357327709195198e-001
      1.3174700941938484e+000 1.1763850720538531e+000
      -1.4869880773415647e-001 -1.0791829391181320e+000
      -7.3723585849512974e-001 -3.9013757578974073e-002
      4.2482445534312396e-001 3.0838237412702325e+000
      -1.1568964903586603e+000 4.6940911188158058e-001
      -8.3431046157709698e-001 1.8604384236098184e+000
      -9.2464364897094153e-001 -2.2943934347469845e+000
      1.8051114192996571e+000 -2.1092087964909814e+000
      8.1971227753434805e-001 -1.7136085762217121e-001
      -2.1961978613117375e-001 -2.0189393400521256e+000
      -2.4553563232904746e-001 1.0126030773580814e+000
      -9.4047293132610477e-001 9.8884618523426859e-001
      1.3536347939108762e+000 -1.7405640157341706e+000
      3.7699088568247913e-001 6.5579031492133355e-001
      -3.2618334200193033e-001 -9.7780945832280686e-001
      -2.1021120189114968e+000 -4.5874860845485554e-001
      -1.2501278803155191e+000 2.1004023029223895e-001
      2.0945754556727691e-001 8.5976106624100856e-001
      1.6881653205971268e+000 3.3837914819601705e-001
      -2.7394555560989922e+000 -2.8181769614621477e-001
      9.4881498591148483e-001 1.9286578222244966e+000
      4.5188465735924384e+000 5.1209060923007296e-002
      3.0997947474940926e+000 -7.1673962838095743e-003
      -1.6050936086535412e+000 -2.2897176117978513e-001
      2.0028050773127606e-001 -9.1299171495733600e-001
      9.3214113079923089e-001 7.2643358962532489e-001
      -9.3442533913376846e-001 1.1395991547006386e+000
      1.2804908429047499e+000 -8.8082242877523298e-001
      -6.1459866676619479e-001 1.4080895195268568e+000
      1.5777492919088860e+000 -1.8650698341875455e-001
      -4.4458152563895242e-001 -1.2218499968003549e+000
      2.3816945980697404e+000 -8.6895761230208801e-001
      7.4474346751038778e-001 1.3198526336087437e+000
      1.1870371550495342e+000 -1.5610057393705606e-001
      -1.0784086875148930e+000 -7.3106863752755835e-001
      -4.1481053298591544e-002 4.2975341265661254e-001
      3.0890744811381081e+000 -1.1500168893136504e+000
      4.6852454468705335e-001 -8.3454060401709718e-001
      1.8529745127791384e+000 -9.3110304932839782e-001
      -2.2961012405726562e+000 1.8117604784778878e+000
      -6.9712433243467209e-001 8.2431339402469339e-001
      -1.7067869557618198e-001 -2.0796504359671675e-001
      -3.2243986050606215e+000 -2.4672270519818151e-001
      1.0161361729997822e+000 -9.4717060887047111e-001
      9.8873697558822216e-001 1.3573161345937419e+000
      -1.7358999711759242e+000 4.6097163032735180e+000
      6.4901994401466112e-001 -3.2982997096339306e-001
      -9.7768464837785396e-001 -1.0231140891215738e+000
      -4.5634739246828132e-001 -1.2562529437645513e+000
      2.0329086722036069e-001 2.0692443982579883e-001
      8.5710545758314505e-001 1.6895173339739564e+000
      7.4503123919410691e-002 -2.7394101770136587e+000
      -9.1454024472552589e-002 1.0827852043435064e+000
      1.9248361501158604e+000 4.5219531720317478e+000
      3.4753559048944410e-001 1.3437666165874165e+000
      2.9139915613245453e-002 -1.4296116163120216e+000
      -3.1049441201504874e-001 -5.7813255970298050e-001
      -9.1649675717078816e-001 9.3421362520350992e-001
      7.3422125672805127e-001 -9.3294529790236413e-001
      1.1431131934824430e+000 1.2876091014342315e+000
      -8.8267742862077492e-001 -6.0790570094448715e-001
      1.3452634147129479e+000 1.7015476109489616e+000
      -1.8722976540610747e-001 -4.3832876874576565e-001
      -1.2284602402479328e+000 2.3797169852381241e+000
      -8.7303764967299358e-001 7.4794765327932566e-001
      1.3213662656721694e+000 1.8152172082429274e+000
      -1.5553074980756953e-001 -1.0808878253058229e+000
      -7.3440785077516524e-001 -4.5461898580749956e-002
      4.3038759930167719e-001 3.0860018803115281e+000
      -1.1571670978161923e+000 4.7051342070263907e-001
      -8.3242905382600296e-001 1.8610353458271696e+000
      -9.2605287883064680e-001 -2.2898446009781797e+000
      1.8109361170781522e+000 7.4687773624756947e-003
      8.2493195565438748e-001 -7.3435782975921848e-001
      -4.1747982712356158e-001 -3.2176453701878738e+000
      -2.4273562011707062e-001 1.0159387125626831e+000
      -9.4655337513032201e-001 9.8741814653466131e-001
      3.7956664882089297e-001 -1.7433552912450534e+000
      -1.3633745279622028e-001 6.4857467117021406e-001
      -3.2418371739181373e-001 -9.8221730335000512e-001
      -1.0151018157182063e+000 -4.6253624951255318e-001
      -1.2500910280557342e+000 2.4378653978427128e-001
      2.0646324665034949e-001 8.6139777301254050e-001
      1.6863556065535779e+000 -1.8239034737167123e-001
      -2.7428313841702718e+000 -5.2862447077277760e-002
      7.6732748450685351e-001 1.9249865005886220e+000
      4.5163397655872499e+000 3.9376040072065709e-002
      1.6416069003417164e-002 -3.0099222283133770e-001
      -9.8158147023340477e-003 -4.9668887454216881e-001
      -5.8110169533073841e-001 -9.1495523413064495e-001
      9.3482417541993179e-001 7.5889677260027277e-001
      -9.3494676634119289e-001 1.1346431249275848e+000
      1.2842457549773090e+000 -8.8543436493176564e-001
      -6.0803156793320623e-001 1.0015486741725423e+000
      1.7877094088204093e+000 -1.8196513704877487e-001
      -4.4470095072617527e-001 -1.2240594134749747e+000
      2.3813723111028788e+000 -8.7099042178853192e-001
      7.4852491735170190e-001 1.3222864908370404e+000
      6.5538455011755952e+000 -1.4947304210569443e-001
      -2.5049873965116004e-001 -7.3656434427405215e-001
      -3.2541685812654375e-002 4.2365156063149356e-001
      3.0829153161361491e+000 -7.9685151750900751e-001
      4.6883227178684345e-001 -8.3258427758463494e-001
      1.8607137973412233e+000 -9.2272265128953157e-001
      -2.2960029382894902e+000 1.8110740842907573e+000
      1.0555758453695435e-003 8.2499756671295676e-001
      -3.3478417940915511e-001 -4.1490552528670854e-001
      -3.2201766752681267e+000 -2.3912859895891514e-001
      1.0171157636288026e+000 -9.4095106676131290e-001
      9.8916930246036150e-001 3.7978551297332086e-001
      -1.7408116682197574e+000 -1.7957969765799264e-001
      7.1100628056414553e-002 -3.2194584029613554e-001
      -9.8213645570745423e-001 -8.8757087165005610e-001
      -4.6256169418134735e-001 -1.2488503430527047e+000
      2.4526247936019560e-001 2.0863168326994924e-001
      8.5978426891475090e-001 1.6879568308994775e+000
      -3.3633178502644068e-001 -2.7412075243825900e+000
      -2.2008444704555766e-001 9.1921439301236796e-001
      8.6067331100582534e-001 4.5249447688549118e+000
      -2.1199877953090240e-001 1.4406781711948544e-001
      -5.4822175883489677e-001 1.3121717855099727e-001
      -2.0021941654702582e+000 -5.7550181047541316e-001
      -9.1635562457594444e-001 1.9701148553549691e-001
      7.5200467290830442e-001 -9.7581426266122456e-002
      1.1441844021936096e+000 1.2797342165455770e+000
      -8.8535334414067635e-001 -6.1624237592956199e-001
      7.4200243343724093e-001 2.0511563691337531e+000
      -1.3486554059041114e+000 -1.4693992976039658e+000
      -1.2276471623618739e+000 2.3843795787418913e+000
      -8.7749598931479966e-001 7.4831972742439523e-001
      1.3229757705691823e+000 6.5522976334333505e+000
      4.0615625457625204e-002 -2.4395782983731165e-001
      -7.3823175095670401e-001 -7.0641143442053546e-004
      4.2567638836801641e-001 3.0830840817521104e+000
      -1.8434089896150746e-001 4.6824055348140053e-001
      -8.3512277832873416e-001 1.8618602644370406e+000
      -9.3133513571210114e-001 -2.2890822286675254e+000
      1.8094321661410186e+000 1.4294450146208776e-001
      8.2298078781561801e-001 -7.2876626177857820e-003
      -1.5109138684467782e+000 -3.2174104308225284e+000
      -2.4188878527028002e-001 1.0096209084506829e+000
      -9.4692280377367999e-001 9.8410616096255288e-001
      3.8624829546497419e-001 -1.7410932589326460e+000
      -3.5690622932240131e-002 7.1408038552367104e-002
      1.2239392144465833e-001 -9.7374039987305527e-001
      -8.7941096776014160e-001 -4.5331587973631782e-001
      -1.2541215884399897e+000 8.3111375166585177e-001
      2.1032637438247498e-001 8.5934153957789150e-001
      1.6854854044651288e+000 -7.7700081387307662e-002
      -2.7452408265846562e+000 -6.5394684295144195e-002
      9.2990904702491395e-001 8.6493089495694442e-001
      4.5157688243720493e+000 2.2722936912644884e-001
      1.2548969536043525e-001 -7.1057623734285447e-001
      1.3601055715406246e-001 -3.2294275232413066e+000
      -5.8314101761556114e-001 -9.1265473821009480e-001
      1.9849359897882743e-001 7.5844329566651192e-001
      -9.9305683477736356e-002 1.1383086195746519e+000
      6.4467380995615486e-001 -8.8147890539371654e-001
      -2.0355066167901287e-001 6.9474032867978408e-001
      2.2929594461919440e+000 -1.3559493326520544e+000
      -1.4647516280147257e+000 -1.2234457687145268e+000
      2.3825192842437435e+000 -3.2582544431171068e-001
      7.4823410936919355e-001 1.3234883251918483e+000
      6.5497927615486393e+000 3.6958506569072985e-002
      -2.4811524944194988e-001 -7.3665403807302021e-001
      5.9580756046529168e-002 1.5375009243043682e+000
      3.0854171322959187e+000 -1.1016467383946631e+000
      4.6174619665420208e-001 -8.3660543655025743e-001
      1.8593167807055573e+000 -9.2911199115356369e-001
      -3.4975355009193647e+000 1.8029074519891608e+000
      -1.6154330804291245e-001 8.1767237071480869e-001
      -1.7027451004014610e-001 -1.2902632133887357e+000
      -3.2242633932817264e+000 -2.4457377127632701e-001
      1.0087618867235140e+000 -9.4089678983985603e-001
      9.8390669204319592e-001 1.3564054708224780e+000
      -1.7362912195743554e+000 -9.2939863296327654e-002
      5.3742990927394360e-002 -5.2255916893334683e-002
      -9.7584535677901163e-001 -8.8290779510986872e-001
      1.1816137128794776e-001 -1.2555897901491013e+000
      8.4250932202160023e-001 2.1431445441054192e-001
      8.5590683732238670e-001 1.6908126400669166e+000
      1.6889391140404493e+000 -2.7393479131677920e+000
      6.8608788362643147e-001 1.3110162543375828e-001
      1.9259677335486731e+000 3.2902862884504418e+000
      1.4736954474615208e-001 5.4493555161991702e-001
      -2.6487385027662951e+000 5.8713565798868528e-001
      -3.2319435933922920e+000 -5.8448242818123364e-001
      -9.1819611234629239e-001 9.3138785179230887e-001
      7.8745731908189354e-001 -9.7748958234025102e-002
      6.5613775124798868e-001 1.3308974049300043e-001
      -8.8686778960088597e-001 -2.0218010148624999e-001
      9.0204167752674846e-001 2.5470505193115409e+000
      -1.3498504350835325e+000 -1.4688693580156771e+000
      -1.2199326853869192e+000 2.3852780963973670e+000
      -3.2762272527947944e-001 1.7846101106954986e+000
      1.3222485999097264e+000 6.5500128981528327e+000
      -7.9013826847136759e-001 -2.4564089983605708e-001
      -7.3602985235589524e-001 5.6991192587317406e-002
      1.5438021495409706e+000 3.0876944543983997e+000
      -1.1019386421636055e+000 4.6195089322091981e-001
      -8.3687189086071989e-001 1.8570002051178978e+000
      -9.2253811930670182e-001 -3.4984184928466471e+000
      1.8084780278809194e+000 -1.6150718728381672e-001
      8.2256196323565478e-001 -1.7240900068958648e-001
      -1.2937756876123458e+000 -3.2208173668100737e+000
      -2.3804772256281370e-001 1.0088723112440332e+000
      -9.4174881326262405e-001 9.8861658735944602e-001
      1.3579214089140805e+000 -1.7396842229390643e+000
      -9.5555044146692608e-002 4.5305946217651417e-002
      -5.0985021593295834e-002 -9.7725162317672742e-001
      -8.8280960201260417e-001 1.1939472011603876e-001
      -1.2499734054791443e+000 8.4365889962022589e-001
      2.0775847334538244e-001 8.6366974636421345e-001
      1.6894773846314255e+000 1.6885563175747942e+000
      -2.7456219960485559e+000 6.8732395739187524e-001
      1.3428134376103149e-001 1.9271024611259893e+000
      3.2883100930848816e+000 1.5017164918791967e-001
      5.3762605777658712e-001 -2.6473809214476360e+000
      5.8596468724210315e-001 -3.2312333070612853e+000
      -5.7778993221138975e-001 -9.1509476875767370e-001
      9.3333683357177788e-001 7.9282932368989745e-001
      -1.0363558278933621e-001 6.6378253142352661e-001
      1.3199232884688109e-001 -8.7952582135419510e-001
      -2.0385109312258537e-001 9.0811773134402873e-001
      2.5523611397858055e+000 -1.3492881338159772e+000
      -1.4671210598298723e+000 -1.2281655300116761e+000
      2.3781404849334500e+000 -3.1892673651078496e-001
      1.7858458077109625e+000 1.3193925417970633e+000
      6.5502967392290712e+000 -7.9084054527294212e-001
      -2.4432514174347547e-001 -1.7539321922879505e-003
      -3.4635344423030786e-003 3.1350962297579115e-003
      -1.2685192622885204e-003 3.4127855102790931e-003
      3.7262906856386393e-003 3.8387974867066339e-003
      -6.8446600548566292e-004 -1.7017383343780807e-003
      1.0933893825237741e-003 -5.0769724157731882e-005
      -3.3830093635666449e-003 3.0559439401566125e-003
      1.9797527947827851e-003 1.1368185792216814e-003
      -2.5328976291776762e-003 3.0914463092867124e-003
      2.8963006874189868e-003 -2.3425318066443179e-003
      1.6666312855845408e-003 3.3702764647711623e-003
      1.0126568311895833e-003 4.0464834477974207e-003
      3.8949917857341691e-003 -3.0987817178481192e-003
      1.3927949201488447e-004 7.5974954433451235e-004
      2.3434780708560029e-003 2.0425997637354581e-003
      -9.0755468992997392e-004 -1.0364792342909708e-003
      -4.6615524069678962e-003 4.2341289121952995e-003
      1.7747823180023332e-003 -3.2449415867533238e-003
      2.6551059744635260e-003 -4.2696489977182370e-003
      -5.0586509045160940e-004 -3.1838892392222068e-003
      1.9116836203557140e-003 3.4653716641715386e-003
      -3.3207060835128968e-003 4.4087239206603420e-003
      1.8726169276144498e-003 4.0377183257365480e-003
      4.2826200504757841e-003 -3.3176367825905862e-003
      -4.2323428943688126e-003 3.5218008358850732e-003
      -1.1718600984471713e-003 2.9873823636395935e-003
      1.7715616191934516e-003 3.6557650127077060e-003
      -1.2959586310901253e-003 2.1391933513112459e-003
      -4.7019580740074911e-003 -4.1563581212314725e-003
      1.2161502965804957e-003 1.2295117136612620e-003
      -2.1406416644882578e-003 -4.2092738206626823e-003
      3.9768019922897689e-003 1.0426404909389965e-003
      -9.7610261795610400e-004 4.8545071682333015e-003
      7.0883958532631824e-002 -2.4433538075999932e+000
      -1.9158952030711468e-001 2.0970090724104612e-001
      -2.9685600657583708e-003 -9.0522374550828011e-002
      -1.1489981458697568e-003 -5.2788680606926253e-001
      8.2501805968366967e-002 -5.7386899835296090e-001
      6.1511865039594427e-001 1.7180967963310284e-002
      -7.8467151913447108e-002 -3.3810995055650073e-001
      1.6826057477619741e-001 -5.9156322259001937e-001
      -6.3510483082961519e-002 1.6775292305715212e+001
      -6.3702906282305278e+000 1.0655129651181131e-001
      -1.1879734067824127e-001 3.0494504445261561e-001
      -1.6630878810023841e-003 2.2833740051459717e-003
      1.1430542223378011e-002 4.3445632254487082e-002
      6.6013835422124167e-001 -3.3610874576415750e-001
      -3.0248711721198990e-001 -8.7818157212295449e-003
      -2.9448547813644151e-002 1.0630086638320343e-003
      -5.3745869202542611e+000 3.2710077020192035e-001
      7.7488034863854971e-002 1.6273650808884499e-001
      -1.6191993614163644e-001 3.5160423124039836e-001
      -4.9360392696239180e-001 -5.7273121491440385e-002
      -2.3157481149881514e-002 -4.7019309208791045e+000
      -3.4359797986558910e-001 1.6209145732128103e+000
      5.5569215634334750e-002 -1.7929199342277627e-001
      3.3788028204946433e-003 -1.4701453191203376e-001
      2.2164765039594309e-001 6.2137883865362745e-002
      -8.2558159157662125e-002 -7.4516053695920223e-002
      2.6220789930557306e-002 -4.8314537414232174e-002
      6.5507265552209704e-001 1.5898403120844995e-001
      -2.3726939147480622e-001 -4.8179493142337299e-001
      1.4263312269608129e-002 -2.0908422029707390e-003
      1.2272483410442712e-001 8.4363658644762252e-002
      6.3237802777480212e-001 -1.0522106931022401e-002
      -4.6767691927263294e-002 6.4404371288852236e-002
      8.4235702979162261e-002 2.2294267579689206e-001
      -5.8701049143587758e-001 -1.4336550092088859e-001
      5.8328967113515630e-002 1.4911608959343707e-002
      7.9720226329199861e-001 7.3316731435278074e-002
      -2.5240615546759743e-001 -6.8041851069068612e-002
      2.6395214718716302e-002 -1.3268284173212569e-001
      8.4577522875220842e-002 -5.4989710511316042e-003
      -2.5824723995636528e-001 -9.8451982573763044e-002
      -2.6018884833783890e-001 9.2831039538247440e-001
      7.7098060184477207e-002 -1.3287053930439705e-002
      -6.6877534886256840e-001 5.1284098222255894e-002
      1.0932658112892958e-001 2.9403837200368082e-002
      4.1341674163911976e-002 -4.1666733805658690e-001
      1.0357276604419295e-001 7.7854544730859260e-002
      -2.7421556470537279e-002 -1.0695480876530602e-002
      -4.9514663152513787e-002 -4.0451789195596927e-001
      -7.2873544038656712e-001 -6.3045232952639374e-001
      -1.9041572671846466e-001 2.3275972045150872e-001
      -5.3979749518963269e-002 3.6885208216243204e-001
      -2.4889829888205894e-001 -3.4843589634929957e-002
      7.6802850753912499e-001 2.2758970688216892e-001
      -7.7493321613330801e-001 3.1722784780061748e-002
      6.0602996723319945e-002 -1.6543105697542279e-001
      1.7565289604785261e-002 6.0862452957461781e-002
      1.8042281744327385e-002 -3.6076858249146221e-001
      -1.1145696063545832e-002 2.1875929328236652e-002
      2.7202133136596966e-002 -2.1329820019141801e-001
      1.2486433035206307e-001 1.5642575207850426e-001
      -1.1192883863783931e-001 -1.4801205426163261e-001
      -1.5546396017502825e-001 -2.0737648411977797e-001
      -7.6874098356858045e-002 9.7536287416014653e-002
      -5.5270111768545599e-002 6.4080515113261058e-002
      1.8324123426292485e-002 -1.3935357251266389e-001
      -1.1719864352659543e-001 -1.9925049582838974e+000
      -1.7017770969715060e-002 7.4191054060112047e-002
      8.1338144641678517e-002 -2.2856289789079021e-001
      1.9021613521902105e-002 1.2035397605917725e-002
      -7.1341979884320861e-001 7.3077444887579696e-003
      -2.7454775361698599e-002 -7.5125822763894928e-002
      2.1841663905203514e-002 -3.1431717730990731e-002
      -3.2826638799553703e-001 1.8042042290004340e-001
      -5.0625368474287147e-001 3.4901800263863309e-003
      -8.0793069727534313e-003 7.0702892285945584e-001
      -1.5957383942071114e-002 -1.8123092067012504e-002
      2.9649934997318734e-002 1.2550283971817910e-001
      3.5524339199135335e-001 -1.0355961291801790e-002
      6.0838108112767179e-002 1.5591398498718632e-002
      -3.3103002931789555e-002 5.7204729926495904e-002
      -5.5489614971835455e-001 9.5326770526410809e-002
      1.2146925251879404e+000 1.5965633427107423e-001
      -1.5370922682762117e-001 1.1197362955178525e-002
      4.2316019924827886e-001 1.1126767943485852e-001
      3.4124247376549857e-002 -4.7645252513465258e-001
      -5.6679864290820441e-002 -1.4575171460096450e+000
      1.4637910843297087e-002 -8.2314797404966278e-002
      7.3890419092984536e-002 -1.3841202947146905e-001
      9.7004720359345278e-002 -1.0371300464762363e-001
      3.1789965964681401e-002 4.0130789864079447e-002
      7.1646464190179161e-003 4.0680100336702649e-002
