<?xml version="1.0"?>
<opencv_storage>
<my_svm type_id="opencv-ml-svm">
  <svm_type>C_SVC</svm_type>
  <kernel><type>LINEAR</type></kernel>
  <C>1.0000000000000001e-001</C>
  <term_criteria><epsilon>9.9999997764825821e-003</epsilon>
    <iterations>2147483647</iterations></term_criteria>
  <var_all>400</var_all>
  <var_count>400</var_count>
  <class_count>32</class_count>
  <class_labels type_id="opencv-matrix">
    <rows>1</rows>
    <cols>32</cols>
    <dt>i</dt>
    <data>
      0 1 2 3 4 5 6 7 8 9 10 11 12 13 14 15 16 17 18 19 20 21 22 23 24
      25 26 27 28 29 30 31</data></class_labels>
  <sv_total>496</sv_total>
  <support_vectors>
    <_>
      0. 0. 0. 0. 0. 0. 0. 0. 0. 0. 0. 0. 0. 0. 0. 0. 0. 0. 0. 0. 0. 0.
      0. 0. 0. 0. 0. 0. 0. 0. 0. 0. 0. 0. 0. 0. 0. 0. 0. 0. 0. 0. 0. 0.
      2.85290997e-004 4.08616703e-004 -2.89456832e-004 -3.10867821e-004
      5.28115743e-005 4.70439671e-004 6.35969482e-005 -1.88448612e-004
      -8.27601529e-004 -5.51366189e-004 -8.00401995e-006 0. 0. 0. 0. 0.
      0. 0. 5.63502635e-006 -1.28312022e-004 -7.32722401e-005
      -3.93635964e-005 -1.05912659e-004 6.75951422e-004 6.32368028e-004
      -1.34397851e-004 1.33286614e-003 1.29035302e-003 -1.43021593e-004
      -4.69586172e-004 6.68237190e-005 0. 0. 0. 0. 0. 0. 0.
      -7.34969217e-005 -6.22701191e-004 -2.14356958e-004 2.06216195e-004
      1.20667228e-003 -1.09962304e-003 -8.87260772e-004 -9.03334410e-004
      4.92291234e-004 8.53673730e-004 3.36531957e-004 9.87354200e-004
      -3.94693896e-004 6.96708448e-005 2.90066964e-006 0. 0. 0. 0. 0.
      -1.59173811e-004 -5.34861116e-004 1.23026417e-004 1.37221394e-003
      1.20600057e-003 8.91241289e-005 -9.45750100e-004 3.78550612e-004
      -3.72619776e-004 6.86838350e-004 8.63768975e-004 2.06179058e-004
      -1.09736773e-003 4.30260952e-005 9.61976111e-005 0. 0. 0. 0. 0.
      -2.76662497e-004 -6.00768253e-004 -4.68118087e-004 1.09775527e-003
      1.85693105e-004 3.40963859e-004 9.37030884e-004 1.20704900e-003
      -9.27729590e-004 -1.35042658e-003 2.87278206e-004 1.74941975e-004
      -9.02992964e-004 -8.31104535e-006 1.90246108e-004 3.24122993e-005
      0. 0. 0. 0. -4.16302209e-004 -6.40139857e-004 -2.45938048e-004
      1.94958190e-003 1.85578398e-003 1.30759948e-003 9.59413373e-005
      -1.20322208e-003 1.13853521e-003 -8.23870185e-004 1.92366773e-004
      4.28706662e-005 5.85355912e-004 3.23342683e-004 1.97292262e-004
      6.62338280e-005 0. 0. 0. 0. -1.40721881e-004 -1.75902343e-004
      -2.69346172e-004 -1.01646707e-004 1.29410895e-004 3.60048492e-004
      -7.75847526e-004 -2.83538387e-003 -2.21432722e-003 1.21347967e-003
      1.80371309e-004 6.38836471e-004 9.82786180e-004 3.21636413e-004
      2.48523749e-004 1.09919973e-004 0. 0. 0. 0. 0. 0. -1.38904579e-004
      -4.94130363e-004 -5.81392494e-004 -4.55140515e-004
      -5.92668657e-004 -1.47520375e-004 -1.20246632e-003
      -1.54563261e-003 -1.43142557e-003 -1.93829983e-004 1.04802009e-003
      3.53182331e-005 8.30415502e-006 8.46041221e-005 0. 0. 0. 0. 0. 0.
      -7.74154687e-005 -4.98207170e-004 -2.26041215e-004 6.61306200e-004
      1.36264705e-003 1.17187470e-003 2.58810469e-004 9.20508610e-005
      -1.99012249e-003 -1.43930200e-003 9.19122904e-005 -1.06500338e-004
      -3.07013179e-005 8.45538307e-006 0. 0. 0. 0. 0. 6.76203199e-005
      -9.98455725e-005 -2.01001778e-004 1.64573349e-003 2.46347999e-003
      3.62900598e-003 3.63166095e-003 3.41412466e-004 -1.31875521e-003
      -2.16020504e-003 -2.39537656e-003 -2.06727162e-003
      -6.08129485e-004 1.13018345e-004 3.52307616e-005 0. 0. 0. 0. 0.
      8.48430573e-005 3.14014324e-004 -6.53724943e-004 -4.85821394e-004
      1.42278871e-003 5.50618512e-004 2.73842015e-003 1.68562587e-003
      -2.23871600e-003 -3.99884908e-003 -2.30804575e-003
      -1.13223121e-003 -5.69311436e-004 -7.43427299e-005 2.39690635e-005
      0. 0. 0. 0. 0. 3.67800996e-004 4.93016501e-004 -7.99437403e-004
      -1.88683101e-004 1.08850309e-005 2.16448866e-003 2.68528936e-003
      2.45299283e-003 -7.29027670e-004 -1.79936364e-003 -1.79700030e-003
      -1.38135941e-003 -5.01416798e-004 -5.59134719e-007 3.17987747e-006
      0. 0. 0. -2.63853522e-004 -7.27063045e-004 -8.00726179e-004
      -6.29659335e-004 -9.04651068e-004 1.00395456e-003 6.96919102e-004
      1.81079539e-003 2.56042555e-003 1.03102892e-003 -2.28231482e-004
      2.55602587e-004 -2.68570962e-004 -8.42118694e-004 -4.55562113e-004
      2.25401054e-005 0. 0. 0. 0. -1.28995060e-004 -5.81041386e-004
      -7.52527209e-004 -2.55228253e-004 -6.16485253e-004 7.30557367e-004
      -3.46771471e-004 3.56315926e-004 5.51899255e-004 -8.74701247e-004
      1.43194431e-003 -1.99404531e-004 7.65508506e-004 9.11411305e-004
      2.46954180e-004 2.22047001e-005 0. 0. 0. 0. 0. -4.03573271e-004
      -7.80965027e-004 -7.25189748e-004 -2.43416274e-004 1.57055818e-003
      9.60364530e-004 -1.71005755e-004 -5.13675986e-005 -7.38063653e-004
      1.14988339e-004 4.64325189e-004 1.11379835e-003 1.13710458e-003
      4.78201400e-004 9.61023034e-005 8.45538307e-006 0. 0. 0.
      -5.86341139e-006 -2.40540830e-004 -5.33654180e-004
      -8.81503045e-004 -1.27647759e-003 3.17881568e-005 4.32212226e-004
      -3.46430257e-004 -7.40898249e-004 -2.15769018e-004
      -2.00442548e-004 3.83094564e-004 1.62409939e-004 3.99399374e-004
      2.97577237e-004 1.39605356e-004 3.52307616e-005 0. 0. 0. 0. 0. 0.
      0. 0. 0. 0. 0. 0. 0. 0. 0. 0. 0. 0. 0. 0. 0. 0. 0. 0. 0. 0. 0. 0.
      0. 0. 0. 0. 0. 0. 0. 0. 0. 0. 0. 0. 0. 0.</_>
    <_>
      0. 0. 0. 0. 0. 0. 0. 0. 0. 0. 0. 0. 0. 0. 0. 0. 0. 0. 0. 0. 0. 0.
      0. 0. 0. 0. 0. 0. 0. 0. 0. 0. 0. 0. 0. 0. 0. 0. 0. 0. 0. 0. 0.
      6.33367426e-006 1.62865908e-005 2.12630493e-005 1.11960522e-004
      4.53649816e-004 5.37750893e-004 5.82874811e-004 1.42335091e-004
      -2.06239085e-004 -9.14308985e-005 -1.12071124e-004
      -5.19755813e-005 -1.69145352e-007 0. 0. 0. 0. 0. 0. 0.
      2.08106449e-005 1.07687723e-004 2.99365900e-004 4.50124149e-004
      8.05798569e-004 8.27041513e-004 4.37563343e-004 1.59255986e-004
      -3.72412207e-004 2.42107039e-004 -5.14857238e-005 -7.28106461e-005
      2.94266101e-006 0. 0. 0. 0. 0. 0. 0. 1.44769701e-005
      1.22767306e-004 3.99168115e-004 1.12259132e-003 1.62309920e-003
      8.63951864e-004 -4.47844504e-005 5.95307306e-008 -1.66846759e-004
      3.10914533e-004 3.75688469e-005 -7.65706136e-005 5.19714786e-006
      0. 0. 0. 0. 0. 0. 1.35721587e-006 2.64514456e-005 1.64861383e-004
      8.09912919e-004 1.14176667e-003 1.45799189e-003 6.68523833e-004
      -2.07576486e-005 -1.41644428e-004 3.05600435e-004 6.44145068e-004
      -9.49589521e-005 -1.23881182e-004 -2.02191368e-005 0. 0. 0. 0. 0.
      0. 0. 1.17625377e-005 9.50068279e-005 6.82305836e-004
      4.71290405e-004 6.42698666e-004 1.67226972e-004 -8.46693642e-004
      -5.23546827e-004 1.79571245e-004 7.07893283e-004 2.24001124e-004
      8.10223501e-005 2.23239258e-005 5.27159591e-006 0. 0. 0. 0. 0.
      -1.62237666e-005 -4.22256926e-005 -7.06862993e-005 2.28783058e-004
      3.53241106e-004 6.56931603e-004 -1.12451424e-004 -9.39083402e-004
      -4.05124709e-004 -2.71979079e-005 8.52083671e-004 5.61528141e-004
      3.56776407e-004 1.63893943e-004 2.10863836e-005 0. 0. 0. 0. 0. 0.
      -1.50027801e-004 -2.85465387e-004 -1.94231834e-004
      -2.39275483e-004 2.51014135e-004 -3.22996668e-004 -5.07476507e-004
      -4.10080713e-004 1.88979146e-004 4.56169771e-004 7.77956506e-004
      5.09918260e-004 2.69040902e-004 4.08548694e-005 1.31789898e-006 0.
      0. 0. -7.56482814e-006 -2.77377039e-005 -5.80965971e-005
      -3.10613745e-004 -6.30484603e-004 -7.21650547e-004
      -3.07696988e-004 -2.87206902e-004 -4.87438199e-004
      -2.06909666e-004 2.44242954e-004 3.82469734e-004 4.28870902e-004
      4.43768658e-004 2.31315411e-004 4.21727673e-005 0. 0. 0. 0. 0.
      -1.66426224e-004 -3.42938874e-004 -5.65849186e-004
      -8.73948797e-004 -1.13817584e-003 -1.05702714e-003
      -7.30887230e-004 -3.93858034e-004 -6.13690761e-004 4.11423040e-004
      -1.98047856e-004 2.65713898e-004 2.74604798e-004 6.42663872e-005
      -6.82707707e-007 0. 0. 0. 0. 0. -3.02593126e-005 -1.80566814e-004
      -6.21997810e-004 -1.30995002e-003 -8.01334740e-004
      -9.57977245e-005 1.88799386e-005 -2.69758475e-005 -2.75189290e-004
      -9.51157592e-004 -7.81815499e-004 -4.81121591e-004
      -1.76982154e-004 -5.36305233e-005 -2.71023764e-005
      -5.08169569e-006 0. 0. 0. 0. -1.51809377e-006 -5.64815273e-005
      -2.30845370e-004 -3.33508011e-004 -1.05505424e-004 3.71626113e-004
      -6.71050148e-005 -3.39697552e-004 -1.12809753e-003
      -1.26818893e-003 -1.35073706e-003 -1.09250646e-003
      -5.82727313e-004 -2.05088334e-004 -8.81853266e-005
      -2.18363839e-005 0. 0. 0. 0. -1.06528921e-006 -7.56819427e-005
      -2.34348277e-004 -2.24316347e-004 9.70930734e-004 6.94217451e-004
      7.85452197e-004 1.91584804e-005 -6.42155588e-004 -7.20184995e-004
      -8.86327296e-004 -8.67994328e-004 -4.15399118e-004
      -3.69596564e-005 -4.22399680e-005 -2.67378891e-005
      -9.85449219e-007 0. 0. 0. 9.04810634e-007 -5.95390020e-007
      -3.77848628e-005 -6.73841278e-005 8.58456246e-004 7.55035609e-004
      1.11232663e-003 6.54719130e-004 -5.39386710e-005 -1.22856960e-004
      7.84591430e-006 4.46198654e-004 3.60182894e-004 2.54077950e-005
      -1.22949379e-004 -6.42796585e-005 -6.89814397e-006 0. 0. 0. 0.
      7.69089002e-006 -4.59129387e-006 -4.83345102e-005 3.32688942e-004
      4.64405515e-004 8.22432048e-004 3.78737277e-005 -5.44482376e-004
      -8.08253593e-004 -2.13686508e-004 2.01934818e-004 9.47045464e-006
      -1.43159006e-004 -1.56800728e-004 -8.71758893e-005
      -5.25572887e-006 0. 0. 0. 0. 0. -2.50668309e-005 -2.59289460e-004
      8.00480921e-005 3.16529069e-004 4.92185180e-004 1.29394466e-004
      -1.92505497e-004 -2.60300236e-004 -3.73984483e-004
      -2.33750005e-004 -2.14675543e-004 -1.54603986e-004
      -1.04371757e-004 -5.26443582e-005 -5.75797640e-006 0. 0. 0. 0. 0.
      2.32134866e-007 2.57085976e-005 1.87377605e-004 8.15830208e-006
      3.81415775e-005 3.58697616e-005 -1.11320493e-004 -1.80892486e-004
      -3.61478538e-004 -4.02195961e-004 -1.94277469e-004
      -4.36031296e-005 -1.04281426e-005 0. 0. 0. 0. 0. 0. 0. 0. 0. 0. 0.
      0. 0. 0. 0. 0. 0. 0. 0. 0. 0. 0. 0. 0. 0. 0. 0. 0. 0. 0. 0. 0. 0.
      0. 0. 0. 0. 0. 0. 0. 0. 0. 0.</_>
    <_>
      0. 0. 0. 0. 0. 0. 0. 0. 0. 0. 0. 0. 0. 0. 0. 0. 0. 0. 0. 0. 0. 0.
      0. 0. 0. 0. 0. 0. 0. 0. 0. 0. 0. 0. 0. 0. 0. 0. 0. 0. 0. 0.
      -2.08053990e-007 -5.40940391e-006 -1.87936839e-005
      -2.36529795e-005 -1.26131403e-004 1.88263322e-004 3.63885629e-004
      7.27598308e-005 -5.24181887e-005 -3.79637379e-004 -1.10311325e-004
      -2.99142084e-005 -2.94825822e-005 0. 0. 0. 0. 0. 0. 0. 0.
      -8.32215960e-007 4.83773438e-005 1.26744271e-004 -5.93418081e-004
      -4.97828762e-004 7.87056779e-005 -3.29066475e-004 3.23238928e-004
      4.27786290e-005 9.78137687e-005 -9.56375516e-005 5.44416107e-005
      -5.42870657e-006 0. 0. 0. 0. 0. -1.87248588e-006 -6.03356557e-006
      2.03674904e-006 8.09581834e-005 2.35413288e-004 4.14260518e-004
      1.98340844e-004 2.99476960e-004 -3.37288355e-007 -3.07738257e-004
      5.67594368e-004 4.71502892e-004 -3.48730013e-004 5.97167455e-005
      2.29817379e-005 0. 0. 0. 0. 0. -8.32215960e-007 -9.77853779e-006
      -1.29072464e-006 1.16643772e-004 6.84047758e-004 6.53049035e-004
      1.19934950e-004 -7.87349534e-004 -1.06267619e-003 8.85676272e-005
      9.62418213e-004 1.55226176e-003 1.96175781e-004 -7.82373536e-005
      7.70285042e-005 -3.59575461e-006 0. 0. 0. 0. 0. 0.
      -7.83612813e-006 6.81521124e-005 7.18605181e-004 5.12411898e-005
      4.67867721e-005 3.33443197e-004 4.31527587e-004 1.22814707e-003
      1.11237168e-003 1.27847027e-003 1.42830703e-003 5.07385586e-004
      1.46881968e-004 -4.40479926e-005 0. 0. 0. 0. 0. -2.69681595e-006
      -4.32236629e-005 -2.09613136e-004 -7.06324499e-005 1.75478432e-004
      -4.77503461e-004 -1.30824151e-003 -3.16322432e-003
      -4.70223429e-004 1.10624940e-003 1.31179695e-003 5.04684169e-004
      2.46404496e-004 2.03026400e-004 1.21571420e-005 0. 0. 0. 0. 0. 0.
      -1.59964984e-005 -1.43075944e-004 -4.33905545e-004
      -1.36574870e-003 -1.49888708e-003 -1.55899371e-003
      -1.07936712e-003 -9.38654644e-004 6.22002000e-004 1.39244040e-003
      1.13746233e-003 3.10748146e-004 -1.57585659e-004 -3.93096125e-005
      0. 0. 0. 0. 0. 0. -1.48737345e-005 -9.26742578e-005
      -4.25792066e-004 -1.02381234e-003 -1.37445610e-003
      -1.30344275e-003 -2.47333548e-004 -1.17312232e-003
      -3.44681233e-004 1.59158917e-005 -2.99907173e-004 1.87407262e-004
      -4.17165167e-004 -9.76297451e-006 0. 0. 0. 0. 0. -5.59822593e-006
      -1.11964519e-005 -1.13732218e-004 -4.93650208e-004
      -5.64680377e-004 -9.66431631e-004 -5.25849173e-004
      -8.88796330e-006 -9.22471867e-004 -2.24084055e-004
      -6.40543934e-004 -9.67897358e-004 -4.42184304e-004
      -7.43640179e-004 -9.97996176e-005 0. 0. 0. 0. 0. -4.47858074e-005
      -1.63387886e-004 -2.59670051e-004 -6.75485353e-004 4.77343652e-004
      1.14765356e-003 1.53275309e-004 1.16277032e-003 1.89094702e-004
      -2.38447232e-004 -1.15858985e-003 -1.55722327e-003
      -9.52262373e-004 -7.10941909e-004 -2.27653698e-004
      -2.30306796e-005 0. 0. 0. 0. -4.16107980e-007 -5.03803676e-005
      -4.26924729e-004 -9.35223477e-004 -7.68887519e-004 9.54404415e-004
      5.35463914e-004 -4.34067944e-004 -6.68793509e-004 -5.44778071e-004
      -1.19958376e-003 -8.78841151e-004 -7.97067827e-004
      -6.27745700e-004 -3.45460197e-004 -4.60613592e-005 0. 0. 0. 0. 0.
      -1.79262770e-005 -1.94019827e-004 -7.49037543e-004
      -7.56326626e-005 7.25287595e-004 1.21499726e-003 4.40681615e-004
      5.52482903e-004 5.61140769e-004 -4.38504678e-004 -4.75040142e-004
      -6.16544741e-004 -5.43512462e-004 -1.76568545e-004
      -2.30306796e-005 0. 0. 0. 0. 0. -5.86627248e-005 -2.99697509e-004
      -6.84982107e-004 2.16029352e-004 4.80332295e-004 1.70864142e-003
      1.49926741e-003 5.27877768e-004 1.21655794e-004 -1.38432835e-004
      3.72392387e-004 -1.81642041e-004 -2.19369293e-004 5.38372806e-005
      5.76385901e-006 0. 0. 0. 0. 0. -2.69681586e-005 -1.24257858e-004
      -8.77591228e-005 4.41233075e-004 -4.51748696e-004 -3.20759224e-004
      9.46118380e-004 -1.91611820e-004 3.01969441e-004 3.87611479e-004
      5.89302217e-004 5.82643261e-004 2.65868526e-004 1.80351562e-004
      5.37960186e-005 0. 0. 0. 0. 0. 0. -2.53982271e-005 1.41265540e-004
      7.58614333e-004 3.11009440e-004 -1.65010642e-004 1.71897802e-004
      6.12640462e-004 5.54051716e-004 6.47692767e-004 1.07255799e-003
      4.64252284e-004 1.98525697e-004 1.47939048e-004 5.57173043e-005 0.
      0. 0. 0. 0. 0. -1.65346028e-005 1.31621840e-004 6.10135263e-004
      1.49322892e-004 -2.49397504e-004 -4.13260423e-004 1.47205326e-004
      4.19666729e-004 2.89104355e-004 3.16096557e-004 7.18263254e-005 0.
      0. 0. 0. 0. 0. 0. 0. 0. 0. 0. 0. 0. 0. 0. 0. 0. 0. 0. 0. 0. 0. 0.
      0. 0. 0. 0. 0. 0. 0. 0. 0. 0. 0. 0. 0. 0. 0. 0. 0. 0. 0. 0. 0. 0.</_>
    <_>
      0. 0. 0. 0. 0. 0. 0. 0. 0. 0. 0. 0. 0. 0. 0. 0. 0. 0. 0. 0. 0. 0.
      0. 0. 0. 0. 0. 0. 0. 0. 0. 0. 0. 0. 0. 0. 0. 0. 0. 0. 0.
      -1.34886131e-005 -1.75507768e-004 -4.59167873e-004
      -4.52456938e-004 -1.01510389e-003 -1.32833235e-003
      -4.03858110e-004 1.90592092e-003 1.94007810e-003 1.62138033e-003
      1.07818958e-003 1.21063480e-004 -8.27893498e-004 -1.21661136e-003
      -7.97460612e-004 -2.64731207e-004 0. 0. 0. 0. -2.64098380e-005
      -7.76974601e-004 -2.09759641e-003 -2.32917140e-003
      -2.45937053e-003 -1.00058597e-003 -6.00208819e-004 8.84582812e-004
      1.82665524e-003 1.22837513e-003 -1.33503796e-004 -6.13471086e-004
      -2.38251640e-003 -3.18471668e-003 -1.60275155e-003
      -3.56811594e-004 0. 0. 0. -1.39738540e-005 -1.14978924e-004
      -7.73291802e-004 -2.60654162e-003 -2.33378680e-003
      -6.53450144e-004 -1.58217634e-004 3.43140069e-004 -3.53572570e-004
      -6.37995370e-004 1.69209263e-003 1.41712220e-003 -1.99707880e-004
      -2.74955621e-003 -3.04577476e-003 -1.42539863e-003
      -2.63512775e-004 0. 0. 0. -1.58859057e-005 -2.57189444e-004
      -7.98699504e-004 -1.31207448e-003 -6.95593248e-004
      -2.91752716e-004 -5.80046326e-004 -1.19159857e-004
      -3.68544366e-004 -4.65669233e-004 -9.34045471e-004 1.17661606e-003
      4.28037747e-004 -1.31863600e-003 -5.27035038e-004 -2.33621904e-004
      -5.20673857e-005 0. 0. 0. -1.98573816e-005 -1.31058725e-004
      -4.97190631e-004 -1.78800430e-004 -1.00878227e-004 2.40907131e-004
      5.10706450e-004 2.47807679e-004 -2.09319405e-004 -2.03670887e-003
      -1.89445636e-004 -3.59490114e-005 -1.03866972e-003 1.07688822e-004
      1.75704074e-004 -1.82398668e-004 -7.94843527e-006 0. 0. 0. 0.
      -9.92869082e-006 -1.31135486e-004 -1.91023428e-004 3.78392753e-004
      9.67739834e-005 5.23162307e-004 9.23080253e-004 -9.90333967e-004
      -3.39729059e-003 -2.15799804e-003 1.02752732e-004 7.19349133e-004
      -1.14554969e-004 2.24187344e-004 1.50722626e-004 -1.86442812e-005
      0. 0. 0. 0. 0. 0. 0. 1.65547273e-004 7.40750984e-004
      1.03640545e-003 3.25951754e-004 -9.07118199e-004 4.03372796e-005
      -7.43085402e-004 4.80099028e-004 2.10909615e-003 2.28215940e-004
      8.68802541e-004 2.75326340e-004 0. 0. 0. 0. 0. 0. 0. 0.
      7.35462163e-006 1.39657684e-004 2.10664275e-005 -1.22483191e-003
      -2.18077781e-004 -5.47101081e-004 -8.14636296e-004
      -1.20464982e-004 6.38145546e-004 8.09992838e-004 1.14103794e-004
      -1.03044922e-005 -3.72885620e-006 0. 0. 0. 0. 0. 0. 0. 0.
      9.64198043e-005 -5.87365881e-004 5.44241375e-005 -1.43217563e-003
      -2.44226627e-004 -6.36689831e-004 -6.09896262e-004 8.35817074e-004
      9.96803632e-004 8.06482509e-004 0. 0. 0. 0. 0. 0. 0. 0.
      3.01956479e-005 2.84324651e-005 6.79158693e-005 3.81159334e-004
      -4.20414668e-004 -7.33438937e-004 -2.67553783e-004 1.05489907e-003
      3.67486755e-005 5.07380813e-004 1.13120850e-003 8.26987147e-004
      1.27284684e-005 0. 0. 0. 0. 0. 0. 0. 0. -2.74082151e-004
      -1.79336799e-004 1.37874216e-003 3.26166657e-004 6.55809068e-004
      -6.89783890e-004 -7.74809450e-005 -1.16618921e-003
      -2.28736651e-004 5.69888740e-004 6.59653742e-004 1.90927021e-005
      0. 0. 0. 0. 0. 0. 0. 7.20492244e-005 5.53367543e-004
      1.71082234e-003 3.23732151e-003 1.98021764e-003 1.47590961e-003
      1.11082627e-003 -1.33161840e-003 9.21539206e-004 1.97654357e-003
      1.67838810e-003 1.03279459e-003 0. 0. 0. 0. 0. 0. 0. 0.
      1.90830222e-004 7.35482550e-004 1.55649381e-003 2.48126173e-003
      2.79860455e-003 3.04884161e-004 1.97201312e-004 -1.31561153e-003
      2.73538928e-004 2.72133015e-003 2.35715485e-003 1.30520621e-003
      7.00065793e-005 0. 0. 0. 0. 0. 0. 0. 1.87616097e-004
      6.38282625e-004 1.40397344e-003 2.02753954e-003 9.89254797e-004
      -1.40395551e-003 -7.85800978e-004 -2.26790580e-004 4.75771551e-004
      2.17810110e-003 3.15046404e-003 1.28302828e-003 1.95755871e-004
      1.34656339e-005 0. 0. 0. 0. 0. 0. 1.37223660e-005 4.95027984e-004
      1.27759983e-003 1.45181059e-003 1.05422549e-003 -1.25964390e-004
      -6.70480484e-004 3.43546242e-004 -3.11095733e-004 1.32782152e-003
      2.10915902e-003 7.95241387e-004 1.51673521e-004 6.73281684e-005 0.
      0. 0. 0. 0. 0. 0. 1.97386125e-005 2.38446330e-004 1.36000701e-004
      -4.16301191e-004 -9.27491987e-004 -8.14673374e-004
      -8.24348303e-004 -5.89528418e-006 2.02177762e-004 3.78286320e-004
      1.49488522e-004 4.50887164e-005 3.46836259e-006 0. 0. 0. 0. 0. 0.
      0. 0. 0. 0. 0. 0. 0. 0. 0. 0. 0. 0. 0. 0. 0. 0. 0. 0. 0. 0. 0. 0.
      0. 0. 0. 0. 0. 0. 0. 0. 0. 0. 0. 0. 0. 0. 0.</_>
    <_>
      0. 0. 0. 0. 0. 0. 0. 0. 0. 0. 0. 0. 0. 0. 0. 0. 0. 0. 0. 0. 0. 0.
      0. 0. 0. 0. 0. 0. 0. 0. 0. 0. 0. 0. 0. 0. 0. 0. 0. 0. 0. 0. 0. 0.
      1.28945452e-004 6.51566952e-005 2.40566063e-004 4.97921836e-004
      7.04045815e-004 5.20620611e-004 4.89024678e-004 -4.88244928e-004
      3.30433227e-006 -6.69185465e-005 -3.28518872e-005 -6.00667909e-006
      0. 0. 0. 0. 0. 0. 3.63537015e-006 6.88583023e-005 3.31438321e-004
      4.86053177e-004 6.50626258e-004 -8.89941366e-005 9.50680289e-004
      9.06291825e-005 9.87793552e-004 -1.29957814e-004 2.28086064e-004
      -3.44009954e-004 -1.61620686e-004 -9.51316833e-005
      -2.40267163e-005 -2.00222621e-006 0. 0. 0. 0. 0. -2.55489995e-005
      3.80680023e-004 1.80625939e-004 7.65446690e-004 4.20391560e-004
      -4.50683699e-004 2.01954826e-004 5.63694863e-004 6.18912978e-004
      9.21812243e-005 -1.68472456e-004 -4.78305374e-005 -4.10824519e-004
      -9.85727092e-005 0. 0. 0. 0. 0. -6.00667909e-006 -7.48541715e-005
      -3.44236556e-004 3.24844528e-004 -9.60729158e-005 6.18131133e-004
      -3.38483398e-004 -3.92884540e-004 2.74627033e-004 1.24039222e-003
      8.07009113e-004 -3.17952887e-004 3.18440958e-004 -2.44083363e-004
      -9.42099214e-005 0. 0. 0. 0. 0. 0. -2.32095772e-005
      -2.83670961e-004 -9.25982313e-005 -2.33925603e-004
      -1.81013573e-004 1.19836150e-004 3.18629202e-004 6.21829240e-004
      -8.85810005e-005 1.10472040e-003 3.62760620e-004 -8.32688238e-005
      -6.32416049e-005 -4.47965431e-005 0. 0. 0. 0. 0. 0.
      -1.07310661e-005 -3.32335039e-004 -5.43456990e-004
      -4.00210323e-004 -5.82759618e-004 -2.45744537e-004
      -7.94513617e-004 6.16805337e-004 1.13828210e-004 3.77956749e-004
      3.57470562e-004 4.69434133e-004 2.93102144e-004 5.73605794e-005 0.
      0. 0. 0. 0. 0. -2.68276654e-006 -1.16344330e-004 -5.12939529e-004
      -6.93454291e-004 -2.11489317e-003 -2.63407407e-003
      -2.76250904e-003 -2.52554339e-004 1.24500366e-003 4.08918771e-004
      5.84792229e-004 8.59541033e-005 7.45608195e-005 4.72260945e-005
      3.35598702e-006 0. 0. 0. 0. -2.68276654e-006 -8.01168790e-005
      -3.43684107e-004 -1.03884365e-003 -2.86199991e-003
      -2.77935830e-003 -1.28671352e-003 -1.03249319e-003
      -1.04546605e-003 -4.02217178e-004 2.37371132e-004 -1.35550668e-004
      7.91379280e-005 -3.03574870e-005 2.76313276e-005 0. 0. 0. 0. 0.
      -6.55399901e-007 -1.01021746e-004 -8.22303758e-004
      -8.39740853e-004 -1.25804322e-003 -1.04058650e-003
      -1.43431616e-003 -2.49781355e-004 -6.43578649e-004
      -5.43436909e-004 -1.32883317e-003 -1.42490317e-003
      -1.56644252e-004 1.44957164e-006 7.90288050e-006 0. 0. 0. 0.
      -1.45644421e-007 -3.50638475e-005 6.07000002e-005 -3.71736911e-004
      -5.66401810e-004 -4.32755332e-004 -2.96029408e-004 7.77147288e-005
      1.06751651e-003 7.28409155e-004 -8.34013976e-004 -1.78387866e-003
      -1.63756148e-003 -9.49735288e-004 -4.41776065e-004
      -5.45768089e-005 -1.34138327e-006 0. 0. 0. 0. -1.10173249e-004
      -3.37619676e-005 -1.88461578e-004 2.98983970e-004 -3.38076206e-004
      3.07595590e-004 -7.62006530e-005 1.35993562e-003 1.32563058e-003
      -1.26486202e-003 -1.74368708e-003 -1.51361269e-003
      -1.02175225e-003 -4.21062170e-004 -7.20891985e-005
      -1.07310661e-005 0. 0. 0. 0. -1.00136225e-004 -5.17546432e-005
      1.32555710e-004 2.04773271e-004 5.96754078e-004 4.30766697e-004
      1.25377753e-003 1.92573259e-003 1.99926691e-003 7.73536958e-005
      -7.41886382e-004 -6.61463768e-004 -6.74296694e-004
      -3.69830843e-004 -1.49500731e-004 -1.36322988e-005 0. 0. 0. 0.
      -1.66791760e-005 -7.36264119e-005 8.28925622e-005 -6.43286330e-004
      -8.67909694e-005 -2.01736053e-004 6.91042864e-004 2.38272035e-003
      8.17476888e-004 5.15841355e-004 5.67264913e-004 2.50377314e-004
      -7.63860240e-004 -2.42447612e-004 2.31552913e-005 9.79406423e-007
      0. 0. 0. 0. 0. -6.80886733e-005 1.28080370e-004 1.66330210e-004
      2.84321577e-004 -3.33482312e-004 3.68084060e-004 1.01379189e-003
      -2.98058643e-004 2.43180082e-004 1.31214131e-003 7.82925112e-004
      -2.23349445e-004 -8.60481523e-005 9.11019815e-005 2.49979166e-005
      0. 0. 0. 0. 0. -2.57775700e-005 -5.00451315e-005 4.09076601e-004
      1.13672146e-003 6.83552877e-004 -1.25498103e-004 2.99505500e-005
      1.66736339e-004 2.18118832e-004 8.40632769e-004 4.75518493e-004
      -2.35927990e-004 1.29824784e-005 5.12116603e-005 6.39411292e-006
      0. 0. 0. 0. 0. 0. 4.85265844e-007 2.41055328e-004 5.96832018e-004
      3.42660089e-004 -8.34626553e-005 -9.09122246e-005 1.51146349e-004
      3.85737483e-004 4.97490866e-004 2.02161682e-004 9.18060050e-006
      6.61423019e-006 1.21582775e-006 0. 0. 0. 0. 0. 0. 0. 0. 0. 0. 0.
      0. 0. 0. 0. 0. 0. 0. 0. 0. 0. 0. 0. 0. 0. 0. 0. 0. 0. 0. 0. 0. 0.
      0. 0. 0. 0. 0. 0. 0. 0. 0. 0.</_>
    <_>
      0. 0. 0. 0. 0. 0. 0. 0. 0. 0. 0. 0. 0. 0. 0. 0. 0. 0. 0. 0. 0. 0.
      0. 0. 0. 0. 0. 0. 0. 0. 0. 0. 0. 0. 0. 0. 0. 0. 0. 0. 0. 0.
      5.02973535e-006 2.31580052e-005 6.64254039e-005 2.07247125e-004
      2.52591388e-004 2.38172172e-004 3.29238334e-004 3.84311221e-004
      3.80666985e-004 1.28147571e-004 2.91444652e-004 1.46769016e-004
      4.97967903e-006 0. 0. 0. 0. 0. 0. 0. 3.65798951e-006
      6.30983996e-005 2.32971332e-004 3.73978517e-004 3.73384595e-004
      2.46614742e-004 6.45053922e-004 5.73429221e-004 -9.12890537e-005
      -4.03263082e-004 3.75794043e-004 2.09881313e-004 1.61279764e-004
      2.26650718e-005 0. 0. 0. 0. 0. 0. 6.70631380e-006 3.83659462e-005
      2.21207956e-004 5.79469430e-004 1.22663449e-003 1.21776958e-003
      5.63503709e-004 1.63249730e-004 1.90008170e-004 3.19273066e-004
      4.00281919e-004 -1.03740262e-004 2.51186226e-004 1.34576549e-004
      0. 0. 0. 0. 0. 0. 1.00792604e-005 4.86721510e-005 2.52846075e-004
      1.16325729e-003 1.53901801e-003 1.69048063e-003 4.63844248e-004
      -1.77557682e-004 1.83152531e-006 9.73586575e-004 1.13877573e-003
      1.14713352e-004 1.83315176e-004 1.90591978e-004 0. 0. 0. 0. 0. 0.
      2.74349213e-006 2.32371622e-005 5.95146994e-005 1.07861543e-003
      1.23204698e-003 1.22499361e-003 -2.40026027e-004 -1.02655985e-003
      -3.99156153e-004 1.35474562e-004 6.80857862e-004 8.61937064e-004
      3.76101059e-004 4.23360994e-004 8.95298308e-006 0. 0. 0. 0. 0. 0.
      -3.15471289e-006 6.18088816e-005 7.35357637e-004 8.59411550e-004
      1.06115849e-003 -4.12294467e-004 -1.40114827e-003 -9.07566689e-004
      1.99673275e-004 8.20033369e-004 8.09256569e-004 7.59836868e-004
      6.19432190e-004 9.26136418e-005 0. 0. 0. 0. 0. 0. -3.15471298e-005
      -2.00418377e-004 -1.22502111e-004 -3.70822585e-004
      -2.03123069e-004 -9.77430027e-004 -9.87639767e-004
      -7.72057509e-004 -3.00212378e-005 2.83232977e-004 5.62155619e-004
      4.85302968e-004 5.24458766e-004 6.95680428e-005 2.08909319e-006 0.
      0. 0. 0. 0. -7.09810411e-005 -2.85307673e-004 -4.46160906e-004
      -1.10602728e-003 -1.27820880e-003 -1.21787947e-003
      -4.91795072e-004 4.99124690e-005 5.99258579e-004 3.69750866e-004
      1.83887154e-004 1.73996203e-004 2.76463397e-004 1.09173316e-005
      2.33863830e-006 0. 0. 0. 0. 0. -1.05682884e-004 -3.71279515e-004
      -3.83392529e-004 -1.20390474e-003 -4.27757594e-004
      -9.66271618e-004 -6.91664754e-004 -6.68494613e-004
      -1.99690723e-004 -9.64051229e-004 -1.53870453e-004
      -1.64802535e-004 -2.76286213e-004 -1.18860553e-004 0. 0. 0. 0.
      -3.15471289e-006 3.76539683e-005 -1.64305602e-005 -1.54733993e-004
      -3.79873207e-004 -3.81406688e-004 -3.55608616e-004
      -4.89412632e-004 -7.19344011e-004 -7.32886547e-004
      -6.90943154e-004 -1.49010657e-003 -9.08360351e-004
      -8.98599683e-004 -6.12906355e-004 -2.11743012e-004
      -1.35414448e-005 0. 0. 0. -4.10112661e-005 -2.01592367e-004
      -2.66271498e-004 -2.37749424e-004 -2.97104736e-004
      -2.35046100e-004 -3.68551060e-004 -6.50314149e-004
      -7.57260481e-004 -4.77681751e-004 -3.78119526e-004
      -7.08941836e-004 -1.06601987e-003 -1.15523196e-003
      -1.00999523e-003 -2.02631942e-004 -9.50290996e-006 0. 0. 0.
      -5.83621877e-005 -2.68462871e-004 -2.37358647e-004
      -7.54125940e-005 -1.98736379e-004 1.00291811e-003 7.99005560e-004
      8.87832546e-004 8.63516296e-004 4.32063447e-004 2.74557620e-004
      -2.14010419e-004 -7.52518186e-004 -7.27621897e-004
      -8.04983021e-004 -4.16768715e-004 -7.91909188e-005 0. 0.
      -4.73206956e-006 -8.51772493e-005 -3.13956640e-004
      -2.56771280e-004 -6.47649285e-005 -8.00572379e-005 3.75286792e-004
      7.48033111e-004 9.79915494e-004 8.92914075e-004 5.07184945e-004
      2.12902567e-004 4.09962318e-004 2.04791882e-004 -8.82361783e-005
      -5.92535362e-004 -4.98387788e-004 -2.04456766e-004
      -1.90058199e-005 0. -2.83924164e-005 -1.70354499e-004
      -2.95800943e-004 -2.11464081e-004 -1.79714087e-004
      -4.55549365e-004 1.36942457e-004 1.23386184e-004 5.43278351e-004
      4.72395448e-004 -2.50384415e-004 2.13475389e-004 4.89554019e-004
      -4.12743801e-004 -7.56149646e-004 -6.35057106e-004
      -4.25491657e-004 -1.22491401e-004 -2.21734572e-005 0.
      -5.20527647e-005 -2.36603475e-004 -2.41531525e-004
      -1.58542869e-004 -7.30588683e-004 -5.85993286e-004
      -4.85440250e-004 -3.75842887e-006 4.28208994e-004 3.39891849e-004
      5.76972205e-004 6.62519305e-004 1.87091457e-004 -4.75071902e-005
      -1.06562904e-004 -1.35034134e-004 -6.87029620e-004
      -6.01469015e-004 -1.96393477e-004 -2.21734572e-005
      -1.89282782e-005 -7.57131129e-005 -5.29548124e-005
      -8.15691310e-005 -3.97775177e-004 -3.37534177e-004
      -1.39095966e-004 -6.09846711e-006 -1.19936398e-004
      -1.14804410e-004 1.05146282e-004 2.06406068e-004 -1.23030550e-004
      -1.04727835e-004 -3.79350422e-005 1.32769972e-004 -8.74372272e-005
      -1.25013612e-004 -6.01850952e-005 -1.26705463e-005 0. 0. 0. 0. 0.
      0. 0. 0. 0. 0. 0. 0. 0. 0. 0. 0. 0. 0. 0. 0. 0. 0. 0. 0. 0. 0. 0.
      0. 0. 0. 0. 0. 0. 0. 0. 0. 0. 0. 0. 0.</_>
    <_>
      0. 0. 0. 0. 0. 0. 0. 0. 0. 0. 0. 0. 0. 0. 0. 0. 0. 0. 0. 0. 0. 0.
      0. 0. 0. 0. 0. 0. 0. 0. 0. 0. 0. 0. 0. 0. 0. 0. 0. 0. 0. 0. 0.
      -1.81345331e-005 3.07658338e-005 -5.52875979e-004 -2.45463161e-004
      1.32920628e-004 4.18476819e-004 6.05493493e-004 4.56557493e-004
      -2.54600338e-004 1.16583469e-004 -1.44159538e-004 -9.84688450e-005
      -2.62872782e-005 -2.92080881e-006 0. 0. 0. 0. 0. 2.54536735e-006
      -5.58306283e-006 2.62057205e-004 -6.31439034e-005 -5.67385054e-004
      -5.94525656e-004 5.40784444e-004 9.09950933e-004 1.00913504e-003
      2.42628317e-004 4.16758441e-004 -5.54804981e-004 -7.20984128e-004
      -2.21981463e-004 -2.04456610e-005 0. 0. 0. 0. 0. -2.92080881e-006
      -4.06197905e-005 4.37260343e-004 6.25394110e-004 9.95275841e-005
      -4.01207333e-004 -6.97687443e-004 2.02021431e-004 7.06458173e-004
      5.07535704e-004 5.28192089e-004 2.53103877e-004 -3.53491283e-004
      -4.03226353e-004 -1.63565288e-004 -1.46040438e-005 0. 0. 0. 0.
      -1.05119543e-005 -4.64609766e-005 2.63217982e-004 1.91830870e-004
      4.94362379e-004 1.13166473e-003 2.60996865e-004 -8.82593740e-005
      4.47504659e-004 4.11294634e-004 7.82702060e-004 3.26136578e-005
      -3.58311554e-005 -3.00682674e-004 -2.94464611e-004
      -4.08913220e-005 0. 0. 0. 0. 1.38704308e-006 1.61858607e-005
      2.88003124e-004 4.60073061e-004 1.98556736e-004 1.21926336e-004
      -3.99898796e-004 -1.23739548e-004 7.60006660e-004 9.13594558e-004
      6.12248667e-004 7.94246989e-006 3.70652851e-004 1.68411279e-004
      1.87056867e-005 7.08933101e-007 0. 0. 0. 0. 0. 1.54115901e-006
      5.90769414e-005 4.34979920e-005 3.69542511e-004 -7.62242198e-005
      -1.53687724e-003 -1.69377995e-003 -2.40077439e-004 8.97558755e-004
      6.17349287e-004 1.40670294e-004 4.94751264e-004 8.87179573e-004
      1.59490868e-004 1.44868943e-006 0. 0. 0. 0. 0. -1.40964839e-005
      -1.55950940e-004 -2.94157478e-004 -9.33497970e-004
      -1.50231645e-003 -1.69286865e-003 -1.30035751e-003
      -5.76354039e-004 5.13068459e-004 -3.36187775e-004 2.97897874e-004
      4.44805919e-004 8.51730510e-005 -3.12928532e-005 -2.79712685e-006
      0. 0. 0. 0. 0. -3.20374638e-005 -2.45555595e-004 -8.39993532e-004
      -2.13730894e-003 -2.59228679e-003 -1.88775477e-003
      -2.93162357e-005 2.86484465e-005 -9.05360957e-006 4.44663820e-005
      2.26802695e-005 -1.83484881e-004 -2.45081930e-004 -8.94869954e-005
      -1.19840734e-005 0. 0. 0. 0. 0. -3.97264557e-005 -3.43694614e-004
      -9.98596428e-004 -1.49112788e-003 -1.96160609e-003
      -1.31505588e-003 -7.68939266e-004 -2.19506677e-004
      -4.35474154e-004 -1.39012630e-003 -1.26687973e-003
      -6.99444325e-004 -6.52266666e-004 -3.49472481e-004
      -3.48647663e-005 0. 0. 0. 0. -1.28149850e-006 5.10665996e-005
      1.21753292e-004 -6.27373229e-004 5.78530671e-005 -5.90234587e-004
      6.95366762e-005 1.28463015e-003 1.16020325e-003 6.12250078e-005
      -1.15770590e-003 -2.24867789e-003 -1.71068625e-003
      -9.30023729e-004 -5.24748000e-004 -6.05664027e-005 0. 0. 0. 0.
      9.10583276e-006 7.24778365e-005 3.11544864e-004 -4.01617785e-004
      -5.25906682e-004 -4.59432398e-004 -8.84889334e-004 8.83815170e-004
      1.29271823e-003 1.58188690e-004 -1.41748053e-003 -1.74011977e-003
      -1.33584160e-003 -8.06571858e-004 -2.49096425e-004
      -4.92222243e-005 0. 0. 0. 0. -2.56299700e-006 2.22122690e-004
      8.09035148e-004 2.01953415e-004 6.74095936e-004 2.95605307e-004
      6.25672750e-004 8.58335639e-004 9.10073053e-004 2.97266699e-004
      -1.34428017e-004 -9.45504464e-004 -1.30663614e-003
      -3.75157630e-004 -2.06646891e-005 -1.16832352e-005 0. 0. 0. 0.
      -3.84449550e-006 -5.99463601e-005 -8.83549001e-005
      -3.67977773e-004 2.48514436e-004 5.23274881e-004 2.95971753e-004
      1.45754276e-003 1.08694960e-003 1.17381031e-004 1.07119419e-003
      5.71653538e-004 -3.90401328e-005 -2.97416973e-005 -8.64677020e-007
      0. 0. 0. 0. 0. -6.40749295e-006 -7.30454194e-005 -2.00546740e-004
      -4.16260271e-004 -5.69323951e-004 -4.07189102e-004 2.22685994e-004
      1.85812503e-004 6.72947717e-005 -9.95146183e-005 2.03744683e-004
      9.09685565e-004 3.37301200e-004 9.63038765e-005 7.63932348e-006 0.
      0. 0. 0. 0. -1.28149850e-006 -1.82977838e-005 -2.18035100e-004
      -3.51337396e-004 1.72743719e-004 -6.35056873e-004 -6.94791233e-005
      3.49201262e-004 5.87907620e-004 4.94055741e-004 5.54002065e-004
      8.60818953e-004 4.05799161e-004 9.52576665e-005 1.07221904e-005
      1.84939069e-007 0. 0. 0. 0. 0. 2.59660396e-007 -2.86023601e-006
      2.27633514e-004 2.62434274e-004 -4.07486979e-004 -2.13468084e-004
      -2.74559658e-004 5.73382495e-005 3.37926729e-004 4.39368945e-004
      3.38272657e-004 1.69163541e-004 1.14287985e-004 1.53311412e-005
      7.70579504e-007 0. 0. 0. 0. 0. 0. 0. 0. 0. 0. 0. 0. 0. 0. 0. 0. 0.
      0. 0. 0. 0. 0. 0. 0. 0. 0. 0. 0. 0. 0. 0. 0. 0. 0. 0. 0. 0. 0. 0.
      0. 0. 0.</_>
    <_>
      0. 0. 0. 0. 0. 0. 0. 0. 0. 0. 0. 0. 0. 0. 0. 0. 0. 0. 0. 0. 0. 0.
      0. 0. 0. 0. 0. 0. 0. 0. 0. 0. 0. 0. 0. 0. 0. 0. 0. 0. 0. 0. 0. 0.
      4.41808788e-006 2.32927268e-005 1.07556598e-005 1.61591743e-004
      3.12009215e-004 2.66807445e-004 3.19068029e-004 1.52267268e-004
      1.62534183e-004 5.83749897e-006 1.04471576e-006 0. 0. 0. 0. 0. 0.
      0. 0. 1.67976765e-007 3.12985612e-005 1.63104633e-005
      1.05549479e-004 -3.11170079e-005 -7.25837235e-005 -8.78049468e-006
      3.69738962e-004 -4.96218236e-005 -7.61751580e-005 -2.16484768e-004
      3.70298676e-006 1.10502760e-005 0. 0. 0. 0. 0. 0. -8.64839603e-006
      -4.18558629e-005 -9.96033705e-005 -2.29231853e-004 8.43901944e-005
      3.13211989e-004 1.28035608e-004 2.01398914e-004 2.05332995e-004
      1.96932247e-004 3.34263532e-005 -4.07736457e-004 -1.54197915e-004
      7.69491598e-005 0. 0. 0. 0. 0. 0. -1.54435656e-005
      -1.71251260e-004 -3.31731688e-004 -5.45540497e-005 3.37455333e-007
      6.93453592e-004 5.65270602e-004 -3.71127069e-004 -3.34363489e-004
      -1.80744086e-004 1.65057310e-004 -1.14590352e-004 -5.43941096e-005
      9.29411690e-005 0. 0. 0. 0. 0. -4.32419802e-006 -3.89182314e-005
      -2.25521086e-004 -6.20414095e-004 1.79154085e-004 8.00616908e-005
      -2.49672041e-004 -5.73810132e-004 -8.52478261e-005
      -1.95747434e-005 3.07338254e-004 3.02371482e-004 4.14827460e-004
      1.25845545e-004 1.12488960e-004 0. 0. 0. 0. 0. -9.26613939e-006
      -1.28734042e-004 -4.03236831e-004 -6.86993473e-004
      -3.41823528e-004 8.28297289e-006 -4.77641966e-004 -9.94785732e-005
      2.12256171e-004 3.59820551e-004 9.83206672e-004 9.05438035e-004
      4.61845804e-004 1.36927541e-004 8.29813143e-006 1.05793042e-005 0.
      0. 0. 0. -9.26613939e-006 -1.34881280e-004 -5.10259008e-004
      -7.56689231e-004 -1.02772319e-003 -1.14044803e-003
      -7.72852625e-004 -5.62996684e-005 5.46122610e-004 1.14709476e-003
      1.59367709e-003 1.14663586e-003 6.12855016e-004 4.38846037e-004
      -8.78146602e-005 -5.66612398e-005 0. 0. 0. 0. -3.08871313e-006
      -1.76263216e-004 -3.85080260e-004 -5.87384915e-004
      -1.38608972e-003 -1.27601647e-003 -1.04115542e-003 5.26703137e-004
      1.09498575e-003 1.41801324e-003 1.50460866e-003 9.26404609e-004
      5.95242484e-004 2.59485736e-004 1.57844067e-006 0. 0. 0. 0. 0. 0.
      -1.02545542e-004 -4.44157980e-004 -8.70106451e-004
      -1.31358113e-003 -1.33912603e-003 -9.14579781e-004 5.13066538e-004
      1.17785321e-003 1.07650564e-003 8.83929839e-004 7.38593109e-004
      1.66316604e-004 9.31348040e-006 0. 0. 0. 0. 0. 0. 0.
      -1.72165077e-004 -3.16740945e-004 -6.72894297e-004
      -1.15496910e-003 -1.10080885e-003 -6.40636717e-004 3.13638244e-004
      9.81685938e-004 1.03633397e-003 6.32779964e-004 -4.16034345e-006
      -2.76483799e-004 -7.78799440e-005 -7.25976361e-006 0. 0. 0. 0. 0.
      0. -8.83371904e-005 -3.11432785e-004 -6.77031407e-004
      -7.86883524e-004 -2.62773770e-004 -2.75294326e-004 2.08007405e-005
      1.12349738e-003 5.82481269e-004 2.37672444e-004 1.55040078e-004
      -1.78439252e-004 -3.01054271e-004 -9.98217547e-006 0. 0. 0. 0. 0.
      0. -8.03065413e-005 -1.92278705e-004 -4.30531771e-004
      -6.49000169e-004 2.46180542e-004 -1.68518745e-004 3.11407464e-004
      8.57562409e-004 1.93671251e-004 2.91152974e-004 -2.45734962e-004
      -1.16997515e-004 -2.09855789e-004 -3.36988069e-006 0. 0. 0. 0. 0.
      0. -5.93032892e-005 -1.12429152e-004 -9.68470995e-005
      -5.74400998e-004 3.04783753e-004 2.45497562e-004 -2.72356381e-004
      3.29217379e-004 7.17207033e-004 -2.20581132e-004 -9.48467932e-005
      5.63106150e-005 -4.04617866e-004 -5.13653094e-006 6.95958952e-005
      4.73583259e-006 0. 0. 0. 0. -2.59451899e-005 -7.72178246e-005
      -7.81472481e-005 -6.08668634e-005 6.44743151e-004 3.17545782e-004
      9.09125665e-005 -3.44001128e-005 2.08421756e-004 3.99561104e-004
      2.15842927e-004 9.45734355e-005 -5.58505963e-005 9.13528493e-005
      1.41527431e-004 4.42011042e-005 0. 0. 0. 0. 0. -2.71806748e-005
      -2.62097219e-005 1.93718122e-004 1.01265288e-003 6.34709315e-004
      8.41089513e-006 -2.80226872e-004 -2.51904334e-004 -8.54815589e-005
      2.21013805e-004 5.50336321e-004 2.29097481e-004 1.61762830e-004
      1.29111984e-004 4.57797141e-005 0. 0. 0. 0. 0. 0. 0.
      1.83247739e-005 3.12636141e-004 8.13969600e-005 1.77751572e-005
      -5.67197676e-005 -1.43987229e-004 -2.18784353e-005 2.00114126e-004
      1.06746142e-004 3.20524032e-006 0. 0. 0. 0. 0. 0. 0. 0. 0. 0. 0.
      0. 0. 0. 0. 0. 0. 0. 0. 0. 0. 0. 0. 0. 0. 0. 0. 0. 0. 0. 0. 0. 0.
      0. 0. 0. 0. 0. 0. 0. 0. 0. 0. 0. 0.</_>
    <_>
      0. 0. 0. 0. 0. 0. 0. 0. 0. 0. 0. 0. 0. 0. 0. 0. 0. 0. 0. 0. 0. 0.
      0. 0. 0. 0. 0. 0. 0. 0. 0. 0. 0. 0. 0. 0. 0. 0. 0. 0. 0. 0. 0.
      3.52344723e-005 5.52294841e-005 6.36613186e-005 -6.93550333e-004
      -7.48902035e-004 -2.05196426e-004 3.73839837e-004 4.29188687e-004
      4.78722388e-004 4.04458144e-004 5.74123696e-005 -5.92061551e-005
      0. 0. 0. 0. 0. 0. 0. -2.14019910e-005 -6.21569779e-005
      -3.81014684e-006 3.06113943e-004 -8.78801337e-004 -1.19321432e-003
      -8.12708400e-004 1.21583005e-004 2.73298851e-004 4.55695408e-004
      3.51093680e-004 -2.79246480e-004 -2.47478107e-004 -1.00369907e-004
      -1.35661481e-004 -6.43817184e-005 0. 0. 0. -4.24953078e-006
      -1.66477752e-004 -4.65907506e-004 -6.77645090e-004
      -2.35214466e-004 -9.73595743e-005 -9.03059670e-004
      -5.93508361e-004 -7.70119426e-004 -5.12010127e-004 1.25607394e-003
      1.31994998e-003 2.89485797e-005 -4.85657278e-004 -2.73219426e-004
      -1.44858874e-004 -5.51843332e-005 0. 0. 0. -2.12476539e-006
      1.09424967e-004 4.06100153e-005 1.78604780e-004 7.90144986e-005
      6.70842070e-004 1.40979991e-003 4.02009668e-004 -5.64261281e-004
      -6.06125395e-005 6.66724110e-004 9.07177222e-004 2.87414150e-004
      2.87974515e-004 -1.37950065e-005 -7.22790492e-006 -5.97830258e-005
      0. 0. 0. -3.54127565e-007 1.52879904e-004 4.49100480e-004
      4.70518920e-004 3.97259573e-004 -2.87829665e-004 1.37577241e-004
      1.31008230e-004 1.61874617e-004 1.32672852e-004 5.86795155e-004
      8.48631491e-004 3.40496736e-005 7.91596714e-004 3.05325550e-004
      -2.59154986e-005 -7.50327454e-005 0. 0. 0. 0. -1.59357405e-005
      1.34375106e-004 4.12610352e-005 -9.43788502e-004 7.17110408e-004
      2.70779856e-004 -7.38610455e-004 -1.08320091e-003 -1.72838394e-004
      8.18525383e-004 6.33951102e-004 -1.23049540e-004 6.36726618e-004
      2.85713235e-004 5.00456808e-005 -2.21650280e-005 0. 0. 0.
      -5.66604103e-006 -3.08090966e-005 -1.12700596e-004
      -5.30596590e-004 -1.71991554e-003 -1.35651964e-003
      -2.07912060e-003 -1.82991999e-003 -7.65005068e-004 3.69521702e-004
      1.25643564e-003 -1.86964622e-004 -6.61427912e-005 8.55643157e-006
      -2.74512975e-004 1.45223828e-006 3.03853685e-005 0. 0. 0.
      -3.54127565e-007 -7.43667852e-006 -1.39903059e-004
      -6.10003772e-004 -1.47311646e-003 -1.87397900e-003
      -3.30268359e-003 -8.65879818e-004 2.25463940e-004 1.93358795e-003
      2.14722008e-003 -6.82267826e-004 -1.05645764e-003 -5.85446949e-004
      -6.28295238e-004 5.03331921e-006 1.98835414e-006 0. 0. 0. 0.
      -7.08255129e-007 -2.37265467e-005 -6.61679253e-004
      -1.19385065e-003 -2.03159894e-003 -1.80208671e-003
      -9.81371035e-004 9.87725914e-004 5.33080660e-004 -1.70967382e-004
      -8.48059950e-004 -1.09270460e-003 -1.48157694e-003
      -1.23564200e-003 -4.91173123e-004 -3.22534877e-004 0. 0. 0. 0.
      -7.08255129e-006 -2.10606122e-005 -5.40983106e-004
      -1.83658977e-003 -7.01566634e-004 -6.64038016e-005
      -7.06361257e-004 1.09702756e-003 1.25673285e-003 6.52731222e-004
      -7.88098492e-004 -1.05189392e-003 -1.57098984e-003
      -1.00191648e-003 -3.82058817e-004 -2.35954867e-004
      -2.75921666e-005 0. 0. 0. 5.23252584e-006 6.07848197e-005
      -2.41619302e-004 -6.04445871e-004 -1.63432022e-004 8.58841668e-005
      3.71575094e-004 1.30441401e-003 1.18118781e-003 -2.18160640e-004
      -3.56322591e-004 -1.38928054e-003 -1.36768550e-003
      -8.10622820e-004 -2.50892801e-004 -2.28427642e-004
      -4.59869443e-005 0. 0. 0. -3.18714797e-006 4.02678343e-005
      1.69117164e-004 9.67762433e-004 1.13210350e-003 6.77677512e-004
      1.26536284e-003 1.51279639e-003 5.79983229e-004 -3.92027869e-004
      3.41868639e-004 -1.69019651e-004 -6.06143964e-004 -3.61090177e-004
      -2.52479600e-004 -1.49542393e-004 -2.06941240e-005 0. 0. 0.
      -8.50758443e-005 -8.65798502e-005 -2.28657766e-004
      -1.19215343e-004 2.38582536e-004 1.41132821e-003 1.41704935e-004
      -2.38989072e-004 5.92283090e-004 7.32305867e-004 7.94670836e-004
      7.26787897e-004 -5.27109602e-004 -6.44702464e-004 -1.37095980e-004
      -8.41768924e-005 0. 0. 0. 0. -7.35791109e-005 -1.65700112e-004
      -5.63288741e-005 -6.03084860e-004 -5.72835677e-004 7.48196253e-005
      -2.22125644e-004 2.60839792e-004 4.73040680e-004 -1.22249447e-004
      1.27263321e-003 7.96804030e-004 -2.75144208e-004 -2.12852246e-005
      1.57489121e-004 5.59006148e-005 0. 0. 0. 0. 0. -3.37419697e-005
      5.78307163e-006 6.41399063e-004 3.21813743e-004 -1.71782784e-004
      -6.28522306e-004 3.65500484e-004 1.30354357e-003 1.09296956e-003
      1.46370870e-003 1.08298671e-003 5.60937973e-004 3.87408247e-004
      3.67722037e-004 1.41975368e-004 0. 0. 0. 0. 0. 1.56779846e-004
      2.66992982e-004 3.80497979e-004 3.02038126e-004 7.68448081e-005
      6.82761747e-005 4.84167162e-004 5.91887161e-004 7.56252848e-004
      1.15253578e-003 7.46270642e-004 4.39575902e-004 4.03056620e-004
      3.28158960e-004 9.30348178e-005 0. 0. 0. 0. 0. 0. 0. 0. 0. 0. 0.
      0. 0. 0. 0. 0. 0. 0. 0. 0. 0. 0. 0. 0. 0. 0. 0. 0. 0. 0. 0. 0. 0.
      0. 0. 0. 0. 0. 0. 0. 0. 0.</_>
    <_>
      0. 0. 0. 0. 0. 0. 0. 0. 0. 0. 0. 0. 0. 0. 0. 0. 0. 0. 0. 0. 0. 0.
      0. 0. 0. 0. 0. 0. 0. 0. 0. 0. 0. 0. 0. 0. 0. 0. 0. 0. 0. 0. 0. 0.
      6.86486010e-006 1.85281184e-004 5.29811310e-004 6.94914372e-004
      1.05111138e-003 6.03605295e-004 -8.54023892e-005 -6.24416920e-004
      -1.07437772e-005 3.10345968e-006 0. 0. 0. 0. 0. 0. 0. 0. 0.
      6.86485976e-007 1.57891773e-005 2.00768685e-004 1.14542793e-003
      1.35490065e-003 1.58456422e-003 2.81153072e-004 -3.81415419e-004
      -3.61925137e-004 3.94936913e-004 8.45693576e-005 6.47195156e-006
      0. 0. 0. 0. 0. 0. 0. 0. 0. 1.74592904e-004 7.56052556e-004
      1.26918801e-003 1.82401377e-003 1.42170780e-003 4.60138661e-004
      -2.23837764e-004 -3.12143500e-004 3.46855988e-004 1.17095879e-004
      6.85162695e-006 4.80540211e-006 0. 0. 0. 0. -8.41203873e-005
      -2.44220482e-005 0. 0. 2.39172223e-005 1.08538137e-003
      1.27720716e-003 1.92488951e-003 1.78160961e-003 2.66973017e-004
      2.52872851e-004 9.82017023e-004 1.04278082e-003 -9.04343906e-005
      -7.04790318e-006 8.27538315e-006 0. 0. 0. 0. -1.76381451e-004
      -1.57386530e-004 -5.42712187e-005 -2.71704721e-005
      -1.78008704e-004 4.11751535e-004 4.44727455e-004 9.93418624e-004
      6.25874847e-004 -2.72524427e-004 -1.06672058e-003 1.18815624e-004
      6.82162237e-004 3.92465998e-004 5.92576689e-005 8.84208130e-005
      2.54590759e-006 0. 0. 0. 0. -1.03115315e-004 -2.00808485e-004
      -2.11742416e-004 -3.97598837e-004 -3.37371224e-004 2.67709052e-004
      1.04642520e-003 4.69212246e-005 -1.57373794e-003 -8.04002455e-004
      -1.33196023e-004 3.91661626e-004 6.21845829e-004 4.47984901e-004
      1.77634429e-004 2.68717922e-005 0. 0. 0. 0. -2.71356089e-006
      -6.24118984e-005 -3.82741593e-004 -8.57094186e-004
      -9.47600580e-004 -1.05094363e-003 9.72409680e-007 -6.57036318e-004
      -7.03066995e-004 -6.46610744e-004 3.23129760e-004 6.60295307e-004
      1.01805408e-003 4.34414600e-004 1.40654534e-004 1.38363393e-005
      3.76347714e-007 0. 0. 0. -1.08542436e-005 -2.08944184e-004
      -3.52837611e-004 -6.38980069e-004 -1.17404503e-003
      -1.22824335e-003 -5.54694969e-004 -7.60047638e-004
      -7.68315804e-004 -1.77780094e-004 -1.61901553e-004 2.91035802e-004
      -1.19414590e-005 2.33942803e-004 2.06010212e-004 9.78504067e-006
      6.27246209e-007 0. 0. 0. 0. -3.88039218e-004 -5.64485439e-004
      -9.62132239e-004 -1.25634240e-003 -1.05034106e-003
      -4.93129737e-005 -2.62458401e-004 8.89106828e-004 -6.05596288e-004
      -3.39740742e-004 -9.04346118e-004 -1.16141149e-004 9.67492888e-005
      6.98158692e-005 1.25449242e-006 0. 0. 0. 0. 0. -1.79095019e-004
      -4.04906983e-004 -7.42219971e-004 -8.88460199e-004
      -2.80194916e-004 -2.70909950e-004 2.59721099e-004 5.38188790e-004
      -2.89345626e-004 -5.13682840e-004 -1.05636392e-003
      -1.02674216e-003 -2.64727074e-004 -5.65204646e-005
      -9.09797473e-006 4.01437546e-006 0. 0. 0. 0. 1.25449233e-007
      -4.48390521e-004 -6.21021725e-004 -1.15954794e-003
      -8.75039899e-004 -1.03234554e-004 -3.28339520e-004 6.18482183e-004
      -1.48604129e-004 -3.52587405e-004 -5.65785449e-004
      -1.06621068e-003 -4.07609739e-004 -1.35326613e-004
      -4.03739105e-005 0. 0. 0. 0. 0. 0. -1.16397096e-004
      -1.84168937e-004 -1.57061077e-004 2.22294781e-004 4.51463391e-004
      -1.06987529e-004 5.10985148e-004 -8.64487811e-005 -1.50685846e-008
      -4.15257469e-004 -1.03259808e-003 -3.68733745e-004
      -1.42601202e-004 -4.86405370e-005 0. 0. 0. 0. 0. 0.
      1.39840301e-006 -2.96319835e-004 -2.70906166e-004 5.66279341e-004
      4.36378672e-004 4.61113232e-004 1.09262136e-003 2.49050237e-004
      -4.87388170e-004 4.78861533e-004 -2.68299278e-004 -7.22811848e-004
      -3.86790751e-004 -2.13881940e-005 -2.12494274e-006 0. 0. 0. 0. 0.
      0. -3.23279201e-005 -7.48524471e-005 5.85578207e-004
      6.28867710e-004 2.04300395e-005 4.03247221e-004 2.98242405e-004
      -2.64112547e-004 -1.32241912e-004 -3.83659877e-004
      -5.55504346e-004 -2.91914446e-004 -1.78371974e-005 8.78144647e-007
      0. 0. 0. 0. 0. 0. 4.91080164e-006 4.37273338e-005 8.00447073e-004
      8.54207028e-004 3.70528986e-004 -1.56053065e-004 1.05214916e-004
      3.78290977e-004 -5.49473800e-004 -2.79709609e-004 -4.83894109e-004
      -1.22843572e-004 5.13645182e-006 0. 0. 0. 0. 0. 0. 0.
      8.83414600e-007 9.07903177e-006 3.45390901e-004 5.05210657e-004
      5.01343049e-004 -1.70814266e-004 -2.81879271e-004 9.25692293e-005
      -1.23747828e-004 -4.78553906e-004 -1.71526044e-004
      -5.90156342e-005 -2.48870128e-005 0. 0. 0. 0. 0. 0. 0. 0. 0. 0. 0.
      0. 0. 0. 0. 0. 0. 0. 0. 0. 0. 0. 0. 0. 0. 0. 0. 0. 0. 0. 0. 0. 0.
      0. 0. 0. 0. 0. 0. 0. 0. 0. 0.</_>
    <_>
      0. 0. 0. 0. 0. 0. 0. 0. 0. 0. 0. 0. 0. 0. 0. 0. 0. 0. 0. 0. 0. 0.
      0. 0. 0. 0. 0. 0. 0. 0. 0. 0. 0. 0. 0. 0. 0. 0. 0. 0. 0. 0. 0.
      5.72235740e-006 9.50834001e-005 1.94125765e-004 5.49779506e-004
      8.99982755e-004 9.77576827e-004 1.27654907e-003 6.19076483e-004
      9.28459995e-005 -3.68454653e-006 -2.53953564e-004 -1.06782485e-004
      -8.15815565e-006 -1.35969265e-006 0. 0. 0. 0. 0. 0.
      -9.57602024e-005 -2.87337141e-004 -6.04309724e-004
      -6.85458072e-005 -3.16735561e-004 1.36230758e-003 1.56278431e-003
      1.34414557e-004 -2.40440262e-004 -3.70218841e-005 -8.36587511e-004
      -3.73957912e-004 -7.49896863e-005 -9.51784841e-006 0. 0. 0. 0. 0.
      4.17429965e-006 -4.81835996e-005 7.50058025e-005 2.82028686e-005
      -1.12582653e-004 -1.78120798e-004 -2.84414447e-004 8.32934806e-004
      5.08289086e-004 -8.09051489e-005 -1.54154812e-004 -1.13145099e-003
      -4.48370236e-004 -1.09179928e-004 -2.65590393e-006 0. 0. 0. 0. 0.
      9.74003342e-006 6.66209962e-005 -1.08187356e-004 7.63295509e-004
      -2.89466698e-004 8.54492944e-004 4.20101947e-004 -5.27429918e-004
      -4.29526845e-005 1.41326990e-003 1.08087820e-003 -4.85374330e-004
      2.38714478e-004 7.85857264e-005 1.11632071e-005 0. 0. 0. 0. 0. 0.
      -2.98913073e-005 2.76611448e-004 9.55028518e-004 -1.31960638e-004
      2.00489943e-004 -1.12057687e-003 -9.67537577e-004 -3.83217091e-004
      8.51892168e-004 1.80886209e-003 3.78735916e-004 5.04186843e-004
      3.55933880e-005 -1.56716778e-005 0. 0. 0. 0. 0. 0.
      -1.44257647e-005 3.82761173e-005 1.62917218e-004 4.67795733e-004
      -1.20820233e-003 -1.39773614e-003 -1.08964241e-003
      -1.39542230e-004 -2.56049243e-004 1.44654373e-003 8.38500273e-004
      6.42592262e-004 3.59917089e-004 6.51246519e-005 0. 0. 0. 0. 0. 0.
      -2.06061031e-005 -3.56747973e-004 -2.85076938e-004
      -2.52849335e-004 -2.30595400e-003 -2.80885631e-003
      -2.08574999e-003 -5.12005761e-004 8.67292925e-004 7.47248589e-004
      9.56080388e-004 3.10940610e-004 5.67290190e-005 1.66036061e-005
      1.84484509e-006 0. 0. 0. 0. 0. -1.13591877e-005 -3.85434338e-004
      -1.22452260e-003 -1.69107167e-003 -3.06025846e-003
      -2.75241653e-003 -5.11647610e-004 -4.16382391e-004 5.39434732e-005
      6.63568208e-004 1.17238334e-004 -3.73153482e-004 -2.25174153e-005
      0. 0. 0. 0. 0. 0. 0. 0. -3.78602563e-004 -1.09065138e-003
      -2.35028216e-003 -2.39482638e-003 -9.52902832e-004
      -4.68266109e-004 -2.95946549e-004 -4.23273159e-004
      -5.20315771e-005 -9.01988897e-005 -5.02662209e-004
      -2.39123721e-004 -7.88319994e-006 0. 0. 0. 0. 0. 1.10831366e-004
      2.36550521e-004 -1.63708566e-004 -6.35430508e-004 -6.99297932e-004
      -1.30855560e-003 -3.90845613e-004 9.84371523e-004 9.02410713e-004
      -1.37429728e-004 -3.52278003e-004 -1.05787127e-004
      -3.20436811e-004 -3.69518064e-004 -1.87072888e-004
      -3.41605337e-005 0. 0. 0. 0. 5.50659797e-006 3.04024416e-005
      1.03999140e-004 1.92177758e-004 -3.38187441e-004 -6.29184477e-004
      -6.24033390e-004 1.11870922e-003 2.63808004e-004 -1.67298727e-004
      5.55638326e-005 -4.77582798e-004 -1.22153942e-004 1.13020156e-004
      6.82592654e-005 0. 0. 0. 0. 0. 0. -8.70066870e-005 1.66709913e-004
      4.95351502e-004 1.65618875e-003 4.37293260e-004 3.41056118e-004
      1.48426916e-003 7.89497106e-004 1.13743765e-003 1.95579050e-004
      -2.54579172e-005 6.07026195e-005 2.13332296e-005 -4.94309788e-005
      -1.98416114e-006 0. 0. 0. 0. 0. -1.43137178e-004 -2.50583544e-004
      -2.25287033e-004 6.51511946e-004 3.61173355e-004 1.04066394e-005
      1.56628701e-003 1.06843375e-003 7.76388741e-004 1.05800616e-004
      3.74625000e-004 2.99246167e-004 -5.04608557e-004 -2.32417777e-004
      -1.28273459e-004 0. 0. 0. 0. 0. -1.04569990e-004 1.22480214e-005
      -1.45190759e-004 2.64730579e-006 -4.99701884e-004 -1.14889757e-004
      3.23984452e-004 7.11155648e-004 8.88775161e-004 2.28423552e-004
      2.49901641e-004 -3.61026148e-004 -5.98223764e-004 -2.27486191e-004
      -3.67882676e-005 0. 0. 0. 0. -1.04569990e-005 -1.04569990e-004
      9.15657729e-005 -1.44351972e-004 4.05348401e-004 -1.10306719e-004
      -1.88112550e-004 -1.41302618e-004 7.02746736e-004 9.74043447e-004
      -9.04328044e-005 1.55174741e-004 -5.60212880e-004 -3.80277226e-004
      -5.88855655e-005 0. 0. 0. 0. 0. -5.43763963e-005 -2.17505585e-004
      -8.97570353e-005 2.15636130e-004 4.51143424e-004 2.71579513e-004
      2.67135707e-004 3.34621494e-004 7.41888536e-004 6.83032209e-004
      1.64580764e-004 -3.03791076e-005 -7.49770552e-005 -5.86824754e-005
      0. 0. 0. 0. 0. 0. 0. 0. 0. 0. 0. 0. 0. 0. 0. 0. 0. 0. 0. 0. 0. 0.
      0. 0. 0. 0. 0. 0. 0. 0. 0. 0. 0. 0. 0. 0. 0. 0. 0. 0. 0. 0. 0. 0.</_>
    <_>
      0. 0. 0. 0. 0. 0. 0. 0. 0. 0. 0. 0. 0. 0. 0. 0. 0. 0. 0. 0. 0. 0.
      0. 0. 0. 0. 0. 0. 0. 0. 0. 0. 0. 0. 0. 0. 0. 0. 0. 0. 0. 0.
      -4.77447998e-007 -1.02822960e-005 -6.22767111e-005
      -2.61518508e-005 8.63206660e-005 7.86295059e-005 3.38550308e-005
      -1.55311660e-004 -3.03741836e-004 -2.54954619e-004
      -1.10112771e-004 -1.18616153e-005 1.82896179e-006 0. 0. 0. 0. 0.
      0. 0. -8.62037268e-006 -5.38467430e-005 -7.63870703e-005
      5.11028447e-005 3.47062625e-004 -7.09528649e-006 2.11790066e-005
      -3.57337733e-004 -2.93775694e-004 5.50913937e-005 1.86885562e-004
      1.19688666e-004 9.46486216e-006 3.65792357e-006 0. 0. 0. 0. 0.
      -5.74691512e-007 -1.22772626e-005 -8.12819926e-005 1.35994196e-004
      3.75838368e-004 3.36748286e-004 -2.41016955e-004 -3.22357955e-004
      -1.05284475e-004 1.88201288e-004 7.78016052e-004 5.50380326e-004
      5.89421034e-005 1.27626277e-004 4.63857577e-005 -2.07145217e-006
      0. 0. 0. 0. -4.02284059e-006 -4.61550117e-005 -1.24522936e-004
      1.83089971e-004 4.98276786e-004 3.03706067e-004 2.99329113e-005
      -5.30304242e-005 -1.82487347e-004 -1.63792138e-004 4.68515413e-004
      6.14668825e-004 1.64228099e-004 2.95252248e-004 1.23118021e-004
      -2.96083590e-006 0. 0. 0. 0. -2.00703539e-006 -2.27425335e-005
      -2.15554421e-004 -2.86546943e-004 -1.38568566e-005
      -6.74234543e-005 -2.68971606e-004 -9.05227864e-007
      -5.30345169e-005 -3.74905416e-004 3.27954564e-004 2.99683597e-004
      -5.45409202e-005 -1.20987883e-004 -1.20433200e-004
      -3.99611854e-005 3.65792357e-006 0. 0. 0. -2.17944289e-005
      -1.36399656e-004 -3.88124405e-004 -3.88923683e-004
      -7.49701983e-004 -9.91535955e-004 -9.76111565e-004
      -4.17138363e-004 -2.55210063e-004 1.11832505e-005 5.02147421e-004
      -7.37981281e-007 -5.80448250e-004 -5.56406623e-004
      -1.66234677e-004 -8.84719557e-005 -1.50288643e-005 0. 0. 0.
      -3.35769764e-005 -2.11393402e-004 -4.60432697e-004
      -5.45200193e-004 -1.08340138e-003 -1.32255140e-003
      -1.22496567e-003 -1.15784141e-003 -7.06417952e-004
      -1.88139646e-004 4.77823603e-004 -4.67547070e-004 -5.67425741e-004
      -5.66243834e-004 -3.98854609e-004 -1.77590875e-004
      -7.29493740e-006 0. 0. 0. -4.16507683e-005 -2.77411862e-004
      -6.23554341e-004 -7.30324246e-004 -1.25586381e-003
      -1.33301050e-003 -1.38209981e-003 -9.22181003e-004
      -3.45679378e-004 1.82192452e-005 2.94710160e-004 -2.34797481e-004
      -4.69731400e-004 -2.07310848e-004 -2.12516068e-004
      -2.44155293e-004 -6.09879971e-005 0. 0. 0. 0. -2.88643321e-004
      -7.16977112e-004 -1.03721919e-003 -1.43019040e-003
      -1.14876789e-003 -1.92759064e-004 1.76887188e-004 2.54055485e-004
      6.91930705e-004 7.56905763e-004 6.64302206e-006 -5.14918429e-005
      8.21042340e-005 8.95425455e-006 -5.92259021e-005 -1.46072844e-005
      0. 0. 0. 0. -1.75391920e-004 -5.12348255e-004 -7.89709506e-004
      -8.18135275e-004 -3.37599166e-004 1.65404505e-004 3.95748619e-004
      5.82993904e-004 9.10264673e-004 5.09766862e-004 2.60375324e-004
      -4.05872524e-005 -2.61532143e-004 -2.72311969e-004
      -1.34996095e-004 -2.26984830e-005 0. 0. 0. 0. -8.69320429e-005
      -3.52391682e-004 -5.28393721e-004 -3.36246565e-004
      -2.50601646e-004 -4.83281503e-004 -5.08661651e-006 7.18434458e-004
      9.73596470e-004 5.57044637e-004 2.13038278e-004 -2.43224713e-004
      -4.88250196e-004 -3.00016341e-004 -1.24366168e-004
      -4.77321846e-005 0. 0. 0. 0. -3.89717679e-005 -2.04699492e-004
      -4.15540038e-004 -4.06674371e-004 -8.44043752e-005 9.50931189e-006
      3.57924349e-004 3.59242724e-004 4.60878276e-004 3.73854535e-004
      4.49022889e-004 -2.61114801e-005 -3.78226134e-004 -3.84827028e-004
      -1.80397619e-004 -1.69979267e-005 0. 0. 0. 0. -1.77226430e-005
      -1.53418267e-004 -3.65210522e-004 -2.15388500e-004
      -3.11400145e-005 2.84366870e-005 4.24394442e-004 3.24089080e-004
      2.50440689e-006 9.39355596e-006 2.95731035e-004 3.86882894e-004
      2.70230589e-006 -3.07801267e-004 -1.34706250e-004 -1.36697245e-005
      0. 0. 0. 0. 0. -9.55107171e-005 -1.46346516e-004 5.05248181e-006
      2.67149269e-004 3.06182541e-004 2.52588012e-004 -7.82028510e-005
      -1.02057129e-004 1.20563047e-004 3.84050334e-004 5.45911025e-004
      2.24048461e-004 2.03371717e-004 -8.22213678e-006 -2.08619804e-006
      0. 0. 0. 0. 0. -1.45546783e-005 6.95230556e-005 2.95891456e-004
      5.28329052e-004 3.41542473e-004 -1.43808356e-005 -1.94445922e-004
      -3.15703131e-004 -1.29254913e-004 4.18959185e-004 3.30033334e-004
      9.82477068e-005 1.76638190e-004 8.49962016e-005 1.31730885e-005 0.
      0. 0. 0. 0. 1.82896179e-006 1.30132457e-005 8.66486298e-005
      1.15058741e-004 4.36787486e-005 -2.74642643e-005 -3.17512604e-004
      -3.74675292e-004 -3.03794310e-004 -6.01121465e-005
      -4.79378723e-005 -5.06844044e-005 -5.84185591e-006 1.56565584e-005
      1.82896179e-006 0. 0. 0. 0. 0. 0. 0. 0. 0. 0. 0. 0. 0. 0. 0. 0. 0.
      0. 0. 0. 0. 0. 0. 0. 0. 0. 0. 0. 0. 0. 0. 0. 0. 0. 0. 0. 0. 0. 0.
      0. 0. 0.</_>
    <_>
      0. 0. 0. 0. 0. 0. 0. 0. 0. 0. 0. 0. 0. 0. 0. 0. 0. 0. 0. 0. 0. 0.
      0. 0. 0. 0. 0. 0. 0. 0. 0. 0. 0. 0. 0. 0. 0. 0. 0. 0. 0.
      -2.01975945e-005 -6.27568152e-005 -1.03706348e-004
      -1.04609913e-004 2.47872740e-005 1.40979639e-004 1.51520668e-004
      5.17803594e-004 3.64986859e-004 2.83825852e-004 1.93128726e-004
      -7.38968665e-005 -1.49429397e-004 -6.44942484e-005
      -6.26441442e-006 0. 0. 0. 0. 0. -4.36673399e-005 -1.66174010e-004
      -3.05380818e-004 -4.27837338e-004 -1.79114431e-004
      -3.76636490e-005 -2.52714199e-005 9.32134571e-004 9.91105568e-004
      5.54803119e-004 -5.76198408e-006 -6.23396656e-004 -5.73262689e-004
      -2.78947904e-004 -2.29695197e-005 0. 0. 0. 0. 0. -2.00303130e-005
      -1.47772691e-004 -4.00846271e-004 -6.72648661e-004
      -5.23554452e-004 -3.71069531e-004 -5.63610112e-004
      -5.51353558e-004 -1.38019255e-004 6.14965626e-004 4.10023233e-004
      -1.78672301e-004 -4.31398599e-004 -2.33995845e-004
      -4.40615486e-006 1.19553954e-006 0. 0. 0. 0. 0. 4.18438822e-006
      5.52218989e-005 7.58939495e-005 -3.55363474e-004 -1.84663586e-004
      7.74362881e-004 4.40847623e-004 -1.26474682e-004 3.21809966e-005
      3.80224315e-004 8.16499523e-005 -7.05724407e-004 -1.82634554e-004
      6.16288307e-005 5.37992764e-006 0. 0. 0. 0. 0. -6.97811856e-006
      -1.08007625e-004 5.84807049e-006 4.95640154e-004 -3.09629686e-004
      -2.04111202e-005 -6.89827139e-004 -8.05987511e-004 2.97373015e-004
      4.94697248e-004 7.89440412e-004 7.59246701e-004 2.69066601e-004
      3.11714284e-005 9.17543218e-007 0. 0. 0. 0. 0. 0. -6.51704249e-005
      -3.36817640e-004 -6.45009059e-005 -5.44614923e-005
      -4.74232336e-004 -7.84572796e-004 -1.14559871e-003 7.17069852e-005
      5.66836447e-004 5.43037138e-004 2.93705107e-005 1.90137769e-004
      1.59451010e-005 -1.41943510e-005 0. 0. 0. 0. 0. 0.
      -2.45823794e-005 -3.20179737e-004 -3.45687702e-004
      -6.35908858e-004 -1.56895816e-003 -1.84279238e-003
      -1.09141169e-003 -4.43819968e-004 1.11585727e-003 1.85440746e-004
      4.45544836e-004 7.48218503e-004 1.10437846e-004 -1.02763643e-005
      0. 0. 0. 0. 0. 0. -2.70150922e-005 -3.35946446e-004
      -7.43905781e-004 -1.22990168e-003 -1.91214122e-003
      -1.78253662e-003 -5.89837902e-004 -1.73624110e-004 1.66594444e-004
      -2.45008880e-004 9.12358955e-005 5.47300850e-004 7.84300209e-006
      0. 0. 0. 0. 0. 0. 0. 0. -9.13201657e-005 -7.70119543e-004
      -1.40071521e-003 -1.56752905e-003 -1.30346615e-003
      -5.27954719e-004 -4.21796547e-004 4.37741364e-005 -5.31908299e-004
      -5.67229989e-004 -1.82147378e-005 -2.63611491e-006 0. 0. 0. 0. 0.
      0. -1.97708619e-006 2.86914451e-006 -1.16320101e-004
      -4.10607288e-004 -3.15039913e-004 -4.36978240e-004
      -5.82247274e-004 8.88835275e-005 -1.94792854e-004 -1.06118183e-004
      -2.38225912e-004 -3.14015284e-004 -1.49849031e-004
      -1.17658041e-004 -3.74829324e-005 0. 0. 0. 0. 0. -6.59028728e-007
      -1.92969736e-007 1.16098898e-004 2.25914817e-004 1.93224681e-004
      -8.60129294e-005 2.23602547e-004 -4.74308836e-005 -4.19757362e-006
      3.00280954e-004 2.10730796e-004 2.01987423e-005 -1.83323456e-004
      -2.06864919e-004 -7.75127482e-005 -2.36949336e-006 0. 0. 0. 0. 0.
      4.29090469e-005 2.98598083e-004 7.34906644e-004 1.22353726e-003
      7.07216444e-004 1.07202528e-003 4.81576892e-004 4.28292959e-004
      1.03747379e-003 1.22571306e-003 1.06518297e-003 3.14958306e-004
      -6.06545582e-005 -3.62906612e-005 0. 0. 0. 0. 0. 0.
      -6.59028728e-007 1.10910158e-004 2.75423867e-004 9.91070410e-004
      1.40948675e-003 5.61213703e-004 -5.83913679e-005 -9.58820237e-005
      1.40664284e-003 1.14185771e-003 9.92523739e-004 4.00307996e-004
      6.48995556e-005 0. 0. 0. 0. 0. 0. 0. 0. 4.52087261e-005
      3.29554430e-004 6.61910919e-004 2.90456082e-004 -2.58088490e-004
      -5.73704252e-004 -4.46027232e-004 1.40033313e-003 2.09523435e-003
      1.15267280e-003 2.78830994e-004 -1.16018564e-005 0. 0. 0. 0. 0. 0.
      0. 0. 3.95632051e-005 4.56737762e-004 9.36287572e-004
      3.30927025e-004 -2.85473034e-005 -5.63239300e-005 2.38784691e-004
      8.16587883e-004 1.50096603e-003 9.85527411e-004 2.24303512e-004
      1.84900910e-005 0. 0. 0. 0. 0. 0. 0. 0. 0. 6.00514140e-005
      2.24662668e-004 6.72233145e-005 1.01839738e-004 -3.67279608e-005
      -1.86986308e-005 1.38077972e-004 3.37304926e-004 2.50744051e-004
      1.37526629e-004 3.73176117e-005 2.84915245e-006 0. 0. 0. 0. 0. 0.
      0. 0. 0. 0. 0. 0. 0. 0. 0. 0. 0. 0. 0. 0. 0. 0. 0. 0. 0. 0. 0. 0.
      0. 0. 0. 0. 0. 0. 0. 0. 0. 0. 0. 0. 0. 0. 0.</_>
    <_>
      0. 0. 0. 0. 0. 0. 0. 0. 0. 0. 0. 0. 0. 0. 0. 0. 0. 0. 0. 0. 0. 0.
      0. 0. 0. 0. 0. 0. 0. 0. 0. 0. 0. 0. 0. 0. 0. 0. 0. 0. 0. 0. 0. 0.
      -5.11110238e-006 -2.59379041e-004 -5.18769433e-004 1.85571364e-004
      4.36787435e-004 3.89277935e-004 1.43123456e-004 -2.59968729e-005
      -8.14273444e-005 -2.14961183e-004 -2.89568634e-005 0. 0. 0. 0. 0.
      0. 0. 0. -2.67724408e-006 2.30191345e-005 -5.90070958e-005
      -7.34280096e-004 -1.10341374e-004 7.54562265e-004 7.04992446e-004
      4.07258922e-004 -3.47144494e-004 -6.78289682e-004 -8.83133034e-004
      -1.64088880e-004 0. 0. 0. 0. 0. 0. 0. 0. -1.18604703e-005
      6.79898367e-005 -7.94942171e-005 2.66831121e-005 8.97997961e-005
      -2.67791784e-005 -6.69811052e-005 3.78398865e-004 1.21121389e-004
      -1.49291358e-004 -3.65029555e-004 -1.48689040e-004
      -1.21692904e-006 0. 0. 0. 0. 0. -4.30941373e-006 -5.60194931e-005
      -1.30342174e-004 7.63427961e-005 6.23580883e-004 1.08985021e-003
      8.91796779e-004 3.61317478e-004 -2.41698290e-004 -1.42353107e-004
      9.75340081e-004 3.66903376e-004 -4.07647109e-004 -2.99162406e-004
      -1.02432568e-004 0. 0. 0. 0. -3.89417301e-006 -1.50899205e-005
      -1.01234713e-004 -4.66221827e-004 -5.11121470e-004 7.83964861e-005
      7.62649288e-005 4.74131579e-004 -3.74148309e-004 -1.16402446e-003
      -1.46762759e-004 5.07656776e-004 4.64599812e-004 1.38385149e-004
      -5.92538127e-005 -2.87887015e-005 0. 0. 0. 0. 0. -2.79893684e-005
      -7.33528723e-005 -3.51410737e-004 -5.57714899e-004
      -2.30149468e-004 -2.86337134e-004 -8.57347331e-004
      -1.70923956e-003 -2.64207600e-003 -1.30219106e-003 4.09334636e-004
      1.31633889e-003 5.83100831e-004 1.30841509e-004 -2.17988108e-005
      0. 0. 0. 0. 0. 0. -1.97093505e-005 -1.45237616e-004
      -4.35728172e-004 -7.03526195e-004 -1.24241610e-003
      -1.42598152e-003 -2.51079677e-003 -1.90474733e-003
      -6.37918769e-004 2.50186858e-004 9.06758651e-004 6.70761568e-004
      4.11362533e-004 0. 0. 0. 0. 0. 0. 0. 0. -1.86313973e-005
      -7.62482377e-005 -1.97956848e-004 -1.01396453e-003
      -2.12020054e-003 -9.67376342e-004 1.33460664e-004 -9.12536751e-004
      -1.89150975e-004 4.44406556e-004 3.57208279e-004 1.31168446e-004
      0. 0. 0. 0. 0. 0. 0. 0. -2.67826344e-005 -4.19206444e-005
      -9.38841476e-005 -7.18008552e-004 -1.28938607e-003
      -7.94283871e-004 1.71036474e-004 -8.97125938e-005 5.05889824e-004
      8.01641145e-004 -2.94921283e-005 -1.41187070e-006 0. 0. 0. 0. 0.
      0. 0. -5.25896485e-006 -6.31075818e-005 -1.92567750e-004
      -1.75032750e-004 -3.22839895e-007 3.01895168e-004 -1.56966940e-004
      -7.65522782e-005 1.75428868e-004 5.05460252e-004 3.00152897e-004
      2.72736543e-005 5.66131021e-005 2.24500236e-005 0. 0. 0. 0. 0. 0.
      0. -1.69946925e-005 -1.03968006e-004 2.08992624e-005
      7.15048809e-004 8.17859662e-004 2.71533172e-005 -4.06955194e-004
      -7.03176192e-004 -2.90191965e-004 6.35278469e-004 2.81018351e-004
      1.19669501e-004 7.80870323e-006 0. 0. 0. 0. 0. 0. 0. 0.
      7.23304038e-005 4.44182195e-004 1.46956905e-003 7.38925359e-004
      4.99886868e-004 -2.77103227e-005 -8.66857372e-005 9.26554378e-004
      1.45638164e-003 7.49021943e-004 3.20800988e-004 0. 0. 0. 0. 0. 0.
      0. 0. 0. 1.25559582e-005 2.58502085e-004 5.82490640e-004
      8.79082829e-004 7.99991831e-005 -2.98106403e-004 -2.22825125e-004
      6.73138129e-004 1.14696298e-003 1.00331102e-003 3.77749297e-004
      6.63652963e-006 0. 0. 0. 0. 0. 0. 0. -7.05818866e-006
      -1.30204484e-004 -2.46667420e-004 -1.09980312e-004 4.90210310e-004
      -1.93297819e-004 2.33545125e-005 -4.14635520e-004 3.45780310e-004
      1.32172345e-003 8.96720914e-004 1.97554575e-004 1.55095750e-005 0.
      0. 0. 0. 0. 0. 0. -2.43385807e-006 -4.72314168e-005
      1.57223272e-004 6.30598050e-004 9.70588357e-004 6.73048373e-004
      3.54477233e-004 3.79863995e-005 2.71329714e-004 5.23784896e-004
      7.40078860e-004 1.29587352e-004 0. 0. 0. 0. 0. 0. 0. 0. 0. 0.
      1.85522411e-004 3.75299773e-004 1.58174764e-004 2.52881175e-004
      2.26749296e-004 -7.02397592e-005 -2.12275918e-004 -2.60585133e-004
      -5.85892813e-005 -8.57162286e-006 0. 0. 0. 0. 0. 0. 0. 0. 0. 0. 0.
      0. 0. 0. 0. 0. 0. 0. 0. 0. 0. 0. 0. 0. 0. 0. 0. 0. 0. 0. 0. 0. 0.
      0. 0. 0. 0. 0. 0. 0. 0. 0. 0. 0. 0.</_>
    <_>
      0. 0. 0. 0. 0. 0. 0. 0. 0. 0. 0. 0. 0. 0. 0. 0. 0. 0. 0. 0. 0. 0.
      0. 0. 0. 0. 0. 0. 0. 0. 0. 0. 0. 0. 0. 0. 0. 0. 0. 0. 0. 0. 0.
      -5.10127302e-006 6.75224292e-005 2.05898032e-004 3.76327807e-004
      2.16504981e-004 2.00030947e-004 2.53371516e-004 8.23639311e-007
      1.10465095e-004 2.39547924e-004 4.47420753e-005 -2.37038830e-006
      0. 0. 0. 0. 0. 0. 0. 1.99362353e-006 4.08797532e-005
      1.27700056e-004 2.48600292e-004 2.20235626e-004 2.28599529e-004
      1.60897791e-004 1.33838708e-004 6.75384435e-005 -2.72924692e-004
      7.68228201e-005 -5.90665240e-006 -1.73057924e-006 -8.35872106e-006
      0. 0. 0. 0. 0. 0. -6.34466915e-006 -6.55820986e-005
      8.81042506e-005 1.16956144e-004 3.65237880e-004 1.15299525e-004
      6.05403147e-005 4.90978244e-004 3.50091315e-004 -9.22824911e-005
      -1.40216274e-004 -2.25292344e-004 -1.67665494e-005 1.49130838e-005
      -1.89037439e-006 0. 0. 0. 0. 0. -2.66272673e-005 -1.27976513e-004
      -9.25092536e-005 2.86308903e-004 4.17820323e-004 5.22605085e-004
      1.06619213e-004 1.63839519e-004 -1.80467089e-006 -7.44404795e-004
      1.42134508e-004 2.18224945e-004 5.30723219e-006 -1.79230537e-005
      -1.25510978e-005 0. 0. 0. 0. 0. -8.56634651e-005 -2.89242162e-004
      -3.96809803e-004 3.02287255e-004 1.71387685e-004 -2.02952418e-004
      -3.05039430e-004 3.78185323e-005 -5.77811661e-005 -2.38779699e-004
      5.29130746e-004 3.92485585e-004 1.43205994e-004 2.17614597e-005
      -2.34768213e-005 0. 0. 0. 0. -4.14465433e-007 -8.75223632e-005
      -3.34850396e-004 -6.11426483e-004 -3.24835710e-004
      -2.42625756e-005 -2.24067771e-004 -2.84575381e-005 2.99716939e-005
      7.99095433e-004 1.13209756e-003 9.47246153e-004 5.37069573e-004
      4.34902118e-004 2.48334109e-004 2.13020667e-005 0. 0. 0. 0.
      -1.89037439e-006 -1.47078026e-004 -3.85846593e-004
      -7.05272716e-004 -6.87903550e-004 -8.88588780e-004
      -6.55031763e-004 -1.53292218e-004 3.01841967e-004 1.00900140e-003
      1.82359561e-003 1.21348584e-003 9.05844267e-004 4.72479849e-004
      3.35584155e-005 -1.29469745e-005 0. 0. 0. 0. -2.71930526e-006
      -2.08643891e-004 -5.82879700e-004 -8.50124983e-004
      -1.12455303e-003 -1.64806144e-003 -1.19195622e-003
      -6.95239505e-005 5.00369992e-004 7.93889805e-004 9.97952884e-004
      4.65705787e-004 -8.59713691e-005 7.23482372e-005 -5.09294722e-008
      5.16485416e-005 0. 0. 0. 0. 0. -1.65861915e-004 -4.51324071e-004
      -9.18665493e-004 -8.44397233e-004 -1.59181759e-003
      -9.11314972e-004 -2.25306649e-005 4.49450134e-004 1.97888694e-005
      -2.73213227e-004 -1.42283141e-004 -2.42885988e-004
      -4.25636856e-004 -2.00353883e-004 -2.99376024e-005 0. 0. 0. 0.
      -1.09771208e-005 -1.66888814e-004 -5.16402419e-004
      -8.77325947e-004 -1.05928397e-003 -5.24761679e-004 8.24038143e-005
      3.91335314e-004 3.34457727e-004 1.06394407e-006 -3.45414592e-004
      -4.52046195e-004 -8.03832430e-004 -7.34603964e-004
      -3.09995899e-004 -6.55589029e-005 0. 0. 0. 0. -1.69646410e-005
      -1.24299913e-004 -3.98273551e-004 -7.17855932e-004
      -7.21786870e-004 -5.73329569e-004 -2.98118626e-004 3.11180687e-004
      6.50077185e-004 3.92346119e-004 -4.60059353e-004 -9.11675044e-004
      -1.01640960e-003 -9.09084047e-004 -3.56852368e-004
      -6.17371916e-005 0. 0. 0. 0. -2.59459230e-005 -1.04046019e-004
      -1.20228047e-004 -2.62616435e-004 -3.27146699e-004
      -7.98492110e-005 -5.43146125e-005 7.34567526e-004 1.25908956e-003
      2.87058734e-004 -6.17013779e-004 -6.18813501e-004 -4.75770124e-004
      -2.98407685e-004 -1.86564248e-005 -3.76415228e-005 0. 0. 0. 0.
      -5.98752058e-006 -4.98960035e-005 -1.77660753e-004
      -4.95057611e-004 -6.69694971e-004 3.52041505e-004 2.74114456e-004
      -9.95794180e-005 6.63089973e-004 1.62594923e-004 -1.63077653e-004
      3.51359078e-004 3.84864579e-005 -1.97270187e-004 2.51611273e-005
      2.44143284e-005 3.64702987e-006 0. 0. 0. 0. -1.49688012e-005
      -7.61768970e-005 -1.19290213e-004 -6.87047213e-005 4.44150734e-004
      5.02719660e-004 3.50065529e-004 1.05984742e-004 7.02403850e-005
      3.12978023e-004 2.47209100e-004 3.30062949e-006 1.27725070e-004
      7.90281338e-005 1.02080805e-004 3.40389452e-005 0. 0. 0. 0. 0.
      -1.79625622e-005 -1.99384267e-005 1.78095637e-004 7.31762615e-004
      4.21550561e-004 1.46193299e-004 -3.94619798e-004 -3.89760855e-004
      9.82532129e-006 3.17343598e-004 6.25965244e-004 3.20904597e-004
      1.20234217e-004 9.36071010e-005 3.52546231e-005 0. 0. 0. 0. 0. 0.
      6.01311831e-006 4.91804458e-005 2.91248929e-004 9.11165043e-005
      -7.23288904e-005 -7.52480046e-005 -2.38861656e-004
      -7.78558169e-005 2.34439303e-005 1.51716536e-004 2.71371409e-005
      -4.42436749e-006 0. 0. 0. 0. 0. 0. 0. 0. 0. 0. 0. 0. 0. 0. 0. 0.
      0. 0. 0. 0. 0. 0. 0. 0. 0. 0. 0. 0. 0. 0. 0. 0. 0. 0. 0. 0. 0. 0.
      0. 0. 0. 0. 0. 0.</_>
    <_>
      0. 0. 0. 0. 0. 0. 0. 0. 0. 0. 0. 0. 0. 0. 0. 0. 0. 0. 0. 0. 0. 0.
      0. 0. 0. 0. 0. 0. 0. 0. 0. 0. 0. 0. 0. 0. 0. 0. 0. 0. 0. 0.
      -8.20997666e-005 -2.79264146e-004 -3.01391323e-004
      -1.48322928e-004 -6.88996879e-005 3.92967515e-004 7.59742747e-004
      1.15254486e-003 8.92051146e-004 2.58480177e-005 -1.11886809e-004
      -1.67442649e-005 4.58665227e-006 0. 0. 0. 0. 0. 0. 0.
      -8.39425775e-006 -8.53479942e-005 -2.08150508e-004
      -2.11220919e-004 -2.51055695e-004 -2.23041250e-004 6.25055633e-004
      1.49144896e-003 1.18758588e-003 -1.30140266e-004 -3.77914344e-004
      -3.77086952e-004 -4.79483861e-004 -4.56858870e-005
      -2.75813454e-006 0. 0. 0. 0. 0. 3.36501034e-006 -2.01675663e-004
      -2.75758648e-004 -3.21739964e-004 -3.10679898e-004 9.75811636e-005
      4.55925707e-004 1.06382859e-003 7.21080229e-004 1.03748425e-004
      2.11455827e-005 -3.51975526e-004 -8.26564792e-004 -3.32242373e-004
      -2.23454936e-005 0. 0. 0. 0. 0. 5.35909066e-006 -1.85464538e-004
      -2.78831547e-004 -9.91851193e-005 3.48628266e-004 8.01260921e-006
      -1.36683113e-004 6.75823947e-004 8.63183988e-004 4.10515146e-004
      8.43502698e-004 -1.52778841e-004 -4.16695511e-005 -8.40786015e-005
      -8.29688724e-005 0. 0. 0. 0. 0. -3.06627844e-005 -1.26384126e-004
      -7.88241450e-005 2.97638297e-004 4.11222980e-004 3.08213144e-004
      -2.69413373e-004 1.40536926e-004 7.08780499e-005 -5.04892960e-004
      3.95094306e-004 3.65698070e-004 2.36576947e-004 1.24054990e-004
      3.78845289e-005 9.37581888e-007 0. 0. 0. 0. 4.61702439e-006
      -2.80705339e-004 -5.78133797e-004 -5.41755639e-004
      -9.43570340e-005 -6.32025127e-004 -1.72532687e-004
      -1.21783705e-005 1.81841548e-004 -1.32343746e-004 1.58215349e-004
      8.79522180e-004 5.36799780e-004 5.86089620e-004 1.12447720e-004
      1.17197737e-006 0. 0. 0. 0. -2.77402705e-005 -2.26749369e-004
      -5.26091724e-004 -8.42176611e-004 -5.86127571e-004
      -1.34681200e-003 -9.11557698e-004 -3.07193804e-005 2.10281287e-004
      8.44872673e-004 -1.02033104e-004 4.16089897e-004 2.84940354e-004
      -6.43372696e-005 3.10004179e-005 1.97285908e-006 0. 0. 0. 0.
      -1.01921520e-004 -3.79521196e-004 -6.87013322e-004
      -1.28620979e-003 -1.89884903e-003 -1.95955415e-003
      -1.60848943e-003 -8.44660157e-004 -4.43690165e-004
      -2.25794181e-004 -7.91242055e-004 -4.99855145e-004
      -1.79488692e-004 1.04914274e-004 2.37525455e-005 0. 0. 0. 0. 0. 0.
      -4.03657177e-004 -4.47886618e-004 -4.14183334e-004
      -1.57539616e-003 -1.58448867e-003 -1.61651114e-003 2.28525823e-004
      -2.20389891e-004 -4.07176645e-004 -1.05063594e-003
      -9.11277428e-004 -6.82329759e-004 2.35985062e-005 0. 0. 0. 0. 0.
      0. -1.72691114e-004 -3.33401462e-004 -2.32896462e-004
      -1.61548378e-004 -1.21011915e-004 -5.66348841e-004 3.75422751e-005
      3.92468239e-004 3.85029707e-005 -7.43209093e-004 -1.66337774e-003
      -1.27135299e-003 -4.94541076e-004 2.50923749e-005 1.52000130e-005
      8.72410112e-007 0. 0. 0. 0. -1.59551841e-004 -2.79927073e-004
      9.25265194e-005 4.15516202e-004 -4.42522869e-005 9.86255982e-005
      4.00530669e-004 8.27474520e-004 8.41930858e-004 -2.67983880e-004
      -8.72936682e-004 -1.24228338e-003 -4.84916207e-004 7.13373229e-005
      7.39928219e-005 2.49260040e-007 0. 0. 0. 0. -3.42082353e-006
      -1.21071746e-004 2.94949452e-004 7.14861788e-004 6.68066670e-004
      2.72790669e-004 8.31341138e-004 9.37977864e-004 4.60648327e-004
      -1.14501010e-004 -1.67200051e-004 -4.10408829e-004 2.51030753e-004
      3.04458808e-004 5.60472108e-005 0. 0. 0. 0. 0. 7.47780120e-007
      -6.80987723e-005 1.19881361e-005 -2.44855415e-004 -1.89873957e-004
      3.80943180e-004 7.85084208e-004 1.38110411e-003 7.19961128e-004
      2.11806415e-004 8.56679631e-004 5.59237553e-004 2.28992576e-005
      -1.44674763e-004 -6.45705150e-005 0. 0. 0. 0. 0. 3.98816064e-006
      -1.00071793e-005 -1.72692875e-004 -3.90286761e-004
      -9.53493509e-005 -2.04850818e-004 1.98917973e-004 5.30245248e-004
      5.41581656e-004 2.86458089e-004 3.19836836e-004 2.32981329e-004
      -2.92047509e-004 -1.27008476e-004 -8.16995889e-005 0. 0. 0. 0. 0.
      2.86649038e-006 1.12067137e-005 -3.05916765e-005 -2.05599383e-004
      4.99677495e-004 -5.96549144e-005 2.85610258e-005 4.30318265e-004
      8.05653282e-004 5.34179504e-004 6.36169920e-004 2.43976610e-004
      -6.85110572e-005 9.05695488e-005 3.91359645e-005 2.34395475e-006
      0. 0. 0. 0. 6.23150072e-007 5.08010135e-006 5.64791844e-006
      -1.24394617e-004 -1.61516036e-005 -1.70156505e-004 1.30602086e-004
      1.76415764e-004 -1.14555754e-004 1.84404533e-004 4.57897491e-004
      3.23148270e-004 -2.30621699e-005 -1.83029406e-005 1.69866183e-007
      4.68790944e-007 0. 0. 0. 0. 0. 0. 0. 0. 0. 0. 0. 0. 0. 0. 0. 0. 0.
      0. 0. 0. 0. 0. 0. 0. 0. 0. 0. 0. 0. 0. 0. 0. 0. 0. 0. 0. 0. 0. 0.
      0. 0. 0.</_>
    <_>
      0. 0. 0. 0. 0. 0. 0. 0. 0. 0. 0. 0. 0. 0. 0. 0. 0. 0. 0. 0. 0. 0.
      0. 0. 0. 0. 0. 0. 0. 0. 0. 0. 0. 0. 0. 0. 0. 0. 0. 0. 0. 0. 0. 0.
      0. 7.74699947e-005 1.45747836e-004 1.40310513e-004 2.79501546e-004
      4.41633223e-004 6.20969106e-004 1.50972162e-004 1.04305902e-004
      -3.39139588e-005 -5.98526412e-006 0. 0. 0. 0. 0. 0. 0. 0. 0. 0.
      -1.10135406e-004 -2.14780463e-004 -1.70995190e-004 4.16397641e-004
      5.98074403e-004 7.55399058e-004 5.29403973e-004 4.09610919e-004
      -5.00216047e-005 -2.68804069e-006 1.48833544e-006 0. 0. 0. 0. 0.
      0. 0. 0. 1.55512782e-004 3.91682523e-004 3.94088333e-004
      8.66804738e-004 4.49466133e-005 -3.94757604e-004 3.59976286e-004
      8.60824890e-004 4.37457813e-004 -4.48000173e-005 -2.53008639e-005
      1.02057293e-005 0. 0. 0. 0. 0. 0. 0. 2.06401205e-006
      1.02180762e-004 8.21036927e-004 6.97553623e-004 1.01047615e-003
      4.04864404e-004 -3.76269978e-004 6.58679392e-006 1.26350240e-003
      1.24215044e-003 2.49190052e-004 1.01758669e-004 2.45061619e-005 0.
      0. 0. 0. 0. 0. 0. 2.40801410e-006 9.04450426e-005 8.61052424e-004
      9.04000248e-004 8.30457313e-004 3.78411904e-004 -3.75398056e-004
      -4.90365899e-004 1.15615367e-004 9.56589181e-004 1.15589576e-003
      6.55992248e-004 2.45731382e-004 4.22575113e-006 0. 0. 0. 0. 0. 0.
      0. 1.60575946e-004 7.27079110e-004 6.97716489e-004 1.00999612e-004
      -3.75347212e-004 -9.26668814e-004 -7.78624613e-004 6.73259055e-005
      1.46816776e-004 3.05699999e-004 6.30755327e-004 5.06795826e-004
      4.56946000e-005 0. 0. 0. 0. 0. 0. 0. 1.10080646e-005
      -1.48407620e-004 -6.77478267e-004 -8.32527236e-004
      -1.15433463e-003 -1.06868590e-003 -7.58467708e-004 3.43194901e-004
      2.96119106e-006 9.20104649e-005 3.71186354e-004 4.28887288e-004
      -1.36096314e-005 1.06464199e-007 0. 0. 0. 0. 0. 0. 2.75201614e-006
      -5.45336865e-004 -1.04354916e-003 -1.24026078e-003
      -1.26372220e-003 -9.76013078e-004 -9.89565087e-005 1.06500978e-004
      -1.16983789e-003 -1.06668565e-003 -5.12675499e-004 1.43087818e-004
      -1.33578680e-004 -2.12558666e-006 0. 0. 0. 0. 0. 0. 0.
      -7.31602078e-004 -7.20518234e-004 -6.24614360e-004
      -3.97458964e-004 -2.40631471e-005 1.86476289e-004 -2.04594093e-004
      -9.71026660e-004 -3.92574089e-004 -6.09284150e-004
      -6.04862347e-004 -4.24835394e-004 -2.72951365e-006 0. 0. 0. 0. 0.
      0. -1.01939942e-004 -5.89186908e-004 -4.56905720e-004
      1.86649078e-004 2.66501411e-005 4.29739070e-004 5.26895572e-004
      -2.06342389e-004 -5.15656429e-004 -8.36230698e-004
      -6.32202777e-004 -8.51980003e-004 -4.21313132e-004
      -5.84400805e-005 0. 0. 0. 0. 3.54880676e-008 1.24208236e-006
      -2.20139962e-004 -3.90258239e-004 -2.62455898e-004 3.93810478e-004
      -8.34890525e-005 7.90157064e-005 -2.28945544e-004 -2.14063723e-004
      -9.20838560e-004 -1.19073247e-003 -8.81732150e-004
      -7.38746428e-004 -3.28105729e-004 -9.67641245e-005 0. 0. 0. 0.
      -3.41189207e-007 5.57866333e-005 1.33905443e-004 3.18216305e-004
      7.68281869e-004 4.65108198e-004 7.85427052e-004 8.92089971e-004
      1.23353594e-003 -1.47330094e-004 -5.49432996e-004 -9.83344507e-004
      -7.58438138e-004 -5.06614975e-004 -8.64376634e-005
      -2.66718325e-006 0. 0. 0. 0. -1.70594603e-007 -1.16824422e-005
      -8.51468940e-005 -1.92938605e-004 4.46298276e-004 -8.34000966e-005
      6.06527901e-004 1.28705765e-003 6.47813256e-004 -4.25208636e-005
      6.68142049e-004 2.64949136e-004 -3.66648834e-004 -2.95011967e-004
      -4.32585284e-006 6.37858079e-007 0. 0. 0. 0. 0. -7.02017951e-006
      -3.21196334e-004 -7.73652224e-004 -6.77772914e-004
      -4.40720090e-004 1.60721451e-004 5.19155583e-004 2.76239705e-004
      1.88090518e-004 2.44728901e-004 -1.85467492e-004 -2.72879843e-004
      9.58937162e-005 1.43307750e-006 3.57393856e-006 0. 0. 0. 0. 0.
      -2.70006922e-006 -3.01619119e-004 -7.57054484e-004
      -7.23373305e-005 5.16800734e-004 5.71517856e-004 8.39934335e-004
      9.66055843e-004 6.56112446e-004 4.77226538e-004 -8.54070749e-005
      -2.60222616e-004 -1.75172841e-004 -1.46925886e-004
      -5.22125811e-006 0. 0. 0. 0. 0. 0. -2.14471191e-004
      -9.63775601e-005 3.07212686e-005 1.48199557e-004 5.49663237e-005
      -1.79593262e-004 1.95894216e-004 5.29651996e-004 3.66474793e-004
      8.07086617e-005 1.04663792e-004 3.93809423e-005 -1.19406170e-004
      -1.22631591e-005 0. 0. 0. 0. 0. 0. 0. 0. 0. 0. 0. 0. 0. 0. 0. 0.
      0. 0. 0. 0. 0. 0. 0. 0. 0. 0. 0. 0. 0. 0. 0. 0. 0. 0. 0. 0. 0. 0.
      0. 0. 0. 0.</_>
    <_>
      0. 0. 0. 0. 0. 0. 0. 0. 0. 0. 0. 0. 0. 0. 0. 0. 0. 0. 0. 0. 0. 0.
      0. 0. 0. 0. 0. 0. 0. 0. 0. 0. 0. 0. 0. 0. 0. 0. 0. 0. 0. 0. 0.
      -7.05051425e-005 -2.23278781e-004 -1.89875995e-004
      -2.27328273e-004 -7.15698552e-005 1.37447915e-003 7.32194574e-004
      -4.10445755e-005 -2.98188261e-005 6.47896144e-004 2.36835171e-004
      3.18114189e-007 0. 0. 0. 0. 0. 0. 0. 0. 3.38598220e-005
      -6.96299481e-004 -1.68417278e-003 -1.35150121e-003
      -8.77028564e-004 2.83815374e-004 5.73309197e-004 -4.52046428e-004
      -1.04771100e-003 1.88586288e-004 1.46951439e-004 1.65813181e-004
      4.10441535e-005 0. 0. 0. 0. 0. 0. 0. 0. 5.17580134e-004
      1.76177989e-003 1.79679552e-003 1.23340951e-003 3.79214704e-004
      -3.60887294e-004 -9.82645666e-004 1.92103500e-003 1.40824623e-003
      4.34053160e-004 3.83284612e-004 2.48354918e-004 0. 0. 0. 0. 0. 0.
      0. 0. 2.21033784e-004 1.97019288e-003 2.46517989e-003
      1.04349013e-003 -2.61013425e-004 -1.43998966e-003 -1.39425194e-003
      7.66741519e-004 1.07985351e-003 5.74101578e-004 4.88509366e-004
      5.07879013e-004 0. 0. 0. 0. 0. 0. 0. 0. 1.66029604e-005
      1.71978609e-003 3.12471506e-003 2.37203110e-003 -2.43298913e-004
      -9.75962728e-004 8.97992984e-004 -9.92859947e-004 1.37270859e-003
      1.59649388e-003 7.22605502e-004 6.62081176e-004 0. 0. 0. 0. 0. 0.
      0. 0. 1.32823689e-005 5.06584125e-004 1.51665218e-003
      2.57292995e-003 -1.64990185e-003 -2.09855754e-003 -2.63918017e-004
      3.34336190e-004 2.82310555e-003 2.05364521e-003 6.30131282e-004
      6.47616747e-004 1.20780540e-004 0. 0. 0. 0. 0. 0. 0. 0.
      3.28794675e-004 4.91919927e-004 5.23232506e-004 -1.39197160e-003
      -1.52711163e-003 2.49906821e-004 4.27408959e-004 1.49543595e-003
      1.47734245e-003 8.65030452e-004 1.76756803e-004 -2.27917844e-005
      0. 0. 0. 0. 0. 0. -1.40705288e-005 -9.88900865e-005
      -2.51191086e-004 -1.01687772e-004 -2.92425742e-004
      -8.43011541e-004 -2.20409202e-004 -3.72197363e-004
      -3.72284849e-004 6.99645956e-004 7.21942517e-004 6.59788144e-004
      -3.79620353e-004 -8.14094747e-005 0. 0. 0. 0. 0. -7.01897152e-005
      -1.58850409e-004 -3.41097155e-004 -6.57770375e-004 3.13041346e-005
      2.40415553e-004 -1.48906431e-004 -3.63851490e-004 -4.03745595e-004
      2.02881842e-004 2.60514818e-004 -2.55941297e-004 -2.46066716e-004
      -8.34665145e-004 -1.38842530e-004 0. 0. 0. 0. 0. 4.06312538e-005
      -6.81176098e-005 -2.86032446e-004 -4.79563081e-004
      -6.83823382e-005 8.53453297e-004 1.37453247e-003 3.83159320e-004
      7.84049334e-004 -6.68557186e-004 -1.48712320e-003 -1.61613198e-003
      -1.26035605e-003 -8.09715828e-004 -4.05181141e-004
      -4.98357913e-005 0. 0. 0. 0. -1.27563703e-006 -3.71691567e-005
      -5.79476706e-004 -1.16562587e-003 -7.64651457e-004 1.51312514e-003
      1.77444075e-003 -9.30720591e-004 -7.88752688e-004 -7.32104585e-004
      -1.69490604e-003 -2.82113021e-003 -1.91004947e-003
      -1.00438239e-003 -6.84203755e-004 -8.49337011e-005 0. 0. 0. 0. 0.
      9.43237901e-005 1.21056037e-005 -1.45173864e-003 9.01325780e-004
      9.32833063e-004 -6.36023295e-004 -5.42718568e-004 4.48684623e-005
      -7.40118907e-004 -5.06961311e-004 -1.17832795e-003
      -1.75534887e-003 -1.02785265e-003 -6.91694673e-004
      -1.98995534e-004 -1.84709788e-005 0. 0. 0. 0. -1.52805478e-006
      7.08314747e-006 -7.72362517e-004 -7.98088673e-004 6.94330316e-004
      9.98476520e-004 1.08597311e-003 6.78132637e-004 -3.27573478e-004
      4.45971527e-004 -9.79490796e-005 -1.88197405e-003 -5.79344283e-004
      -2.05390112e-004 -2.49011326e-004 -3.75685668e-005 0. 0. 0. 0. 0.
      1.14936985e-004 -2.10773851e-005 -1.27734558e-004 1.00051833e-003
      6.38052472e-004 -5.48628101e-004 -4.81120980e-004 -2.20297079e-004
      -2.81763845e-004 -1.07010745e-003 -1.34056539e-003
      -1.26451661e-004 4.20821336e-004 1.13524802e-004 -1.95153298e-005
      0. 0. 0. 0. 0. 1.05374434e-004 3.20217398e-004 1.54552562e-003
      1.60669116e-003 -7.71964143e-004 6.12004427e-004 -2.31543017e-004
      2.54814106e-004 -2.32191582e-004 5.25468262e-004 -2.66096436e-007
      2.90936063e-004 4.09563188e-004 1.63857156e-004 0. 0. 0. 0. 0. 0.
      0. 1.74087807e-004 8.46696203e-004 6.40520942e-004
      -2.70260585e-004 1.42147197e-004 2.70399905e-004 2.21957707e-005
      -7.05277926e-005 2.20857313e-004 -5.21226611e-005 -9.45269785e-005
      -1.64101548e-005 -1.33738081e-006 0. 0. 0. 0. 0. 0. 0. 0. 0. 0. 0.
      0. 0. 0. 0. 0. 0. 0. 0. 0. 0. 0. 0. 0. 0. 0. 0. 0. 0. 0. 0. 0. 0.
      0. 0. 0. 0. 0. 0. 0. 0. 0.</_>
    <_>
      0. 0. 0. 0. 0. 0. 0. 0. 0. 0. 0. 0. 0. 0. 0. 0. 0. 0. 0. 0. 0. 0.
      0. 0. 0. 0. 0. 0. 0. 0. 0. 0. 0. 0. 0. 0. 0. 0. 0. 0. 0. 0. 0. 0.
      2.74115719e-005 2.82632216e-004 4.15309449e-004 2.80278007e-004
      1.99876187e-004 8.60378030e-004 1.46579623e-004 2.15252352e-004
      -7.83069572e-006 -1.52690060e-004 -7.24300262e-005
      -1.63675340e-005 0. 0. 0. 0. 0. 0. 0. 3.98136945e-005
      2.14066429e-004 8.02405848e-005 -3.15196849e-005 2.11797873e-004
      6.27272530e-004 1.37449452e-003 1.05569512e-003 -2.85956397e-004
      1.05731793e-004 -3.16050428e-004 -1.58404378e-004 -2.78633688e-005
      0. 0. 0. 0. 0. 0. 0. -1.56014084e-005 1.04280618e-004
      5.14307641e-004 4.37017326e-004 4.88080659e-005 1.44279147e-005
      5.59815904e-004 5.11790393e-004 2.81195331e-004 3.41324427e-004
      -2.35646556e-004 -1.89206388e-004 -2.85424867e-005 0. 0. 0. 0. 0.
      0. 0. 5.83252177e-006 8.23138616e-005 6.21597690e-004
      9.43978375e-004 5.32074133e-004 1.77710448e-004 2.62041489e-004
      4.65948804e-004 7.72826490e-004 8.98117898e-004 -4.89659666e-004
      -3.44757806e-004 -3.25926594e-005 -9.75542321e-007 0. 0. 0. 0. 0.
      0. -6.59986836e-006 6.42866216e-005 8.46653944e-004
      3.23077838e-004 -1.54251502e-005 -3.93645081e-004 -3.50731687e-004
      -1.85757672e-004 1.15243229e-003 1.17069646e-003 8.07312026e-004
      2.34123523e-004 -9.11891129e-006 1.76611811e-005 0. 0. 0. 0. 0. 0.
      2.97926144e-005 1.43186568e-004 4.19699703e-004 -2.98805171e-005
      -2.90732656e-004 -1.04720925e-003 -1.31584157e-003
      -8.21417663e-004 3.39500373e-004 9.97663359e-004 9.51592956e-005
      7.02630132e-006 1.79633673e-004 6.00486746e-005 0. 0. 0. 0. 0. 0.
      2.10569087e-005 -6.03328663e-005 -1.61298929e-004 -7.18064781e-004
      -6.15088094e-004 -2.01192941e-003 -1.28478615e-003
      -2.40739406e-004 7.85977871e-004 4.08746651e-004 5.41088171e-004
      4.94671054e-004 3.49875081e-005 2.02004121e-005 1.59213073e-006 0.
      0. 0. 0. 0. -4.97159235e-005 -3.97137046e-004 -1.04441331e-003
      -1.26005185e-003 -1.24609773e-003 -1.38943002e-003
      -1.53903617e-003 -6.96955074e-004 1.06229458e-003 7.18707044e-004
      1.01190794e-003 5.43178758e-004 2.17997076e-004 4.13077396e-005 0.
      0. 0. 0. 0. 0. 0. -4.00141202e-004 -5.97636041e-004
      -1.07404485e-003 -1.22647360e-003 -1.04487757e-003
      -9.72084643e-004 -1.30437070e-003 6.09403243e-004 -9.55500946e-005
      3.43234307e-004 1.39555079e-004 2.66130792e-005 4.67527070e-006 0.
      0. 0. 0. 0. 1.73473964e-004 1.70656822e-005 -3.06798145e-004
      -5.11891150e-004 -6.14089542e-004 -7.41277239e-004
      -4.89423619e-005 -5.56404004e-004 -7.05986458e-004
      -1.27827152e-004 -7.66926270e-004 -2.21785202e-004 6.57434612e-006
      9.26057601e-006 4.92997833e-006 0. 0. 0. 0. 0. 5.30882426e-006
      -2.10502520e-004 -5.01954128e-005 1.04282015e-004 -1.89545011e-004
      -4.99219532e-005 -8.46901530e-005 -1.85162906e-004
      -3.83735693e-004 -5.55809784e-005 -7.45138677e-004
      -8.58501764e-004 -5.40017354e-005 6.17259284e-005 4.56022972e-005
      0. 0. 0. 0. 0. 0. 5.17042208e-005 2.69209821e-004 2.94477504e-004
      7.76389672e-004 1.52432680e-004 4.97246103e-004 7.05081271e-004
      1.50906577e-004 1.51090126e-005 -2.45534502e-005 -5.67317591e-004
      3.77282886e-005 7.34438363e-005 1.50596816e-006 0. 0. 0. 0. 0. 0.
      -2.34148883e-005 -1.90961291e-004 -3.54969932e-004 6.55904354e-004
      3.65339220e-004 4.28110856e-004 1.01638969e-003 5.02815761e-004
      2.58183456e-004 8.86759590e-005 -3.67409084e-005 1.36683855e-004
      -1.46646009e-004 -4.20999131e-005 0. 0. 0. 0. 0. 0.
      -2.42550368e-006 -3.00467855e-005 -3.78337980e-004
      -6.16299454e-004 -5.02867275e-004 2.98898958e-004 4.34544490e-004
      3.58505436e-004 3.05195601e-004 -3.49062611e-004 -7.75659923e-004
      -3.25862697e-004 -1.20088538e-004 -2.54525658e-005 3.95599818e-006
      0. 0. 0. 0. 0. 8.40304529e-006 -2.58255786e-005 -2.24917458e-004
      8.62688466e-005 -1.98497291e-004 1.18212141e-004 4.05344850e-004
      6.90347399e-004 3.74322408e-004 -3.66719469e-004 -4.68781131e-004
      -4.65774501e-004 -6.61669401e-005 -1.29017662e-005 2.15781733e-006
      0. 0. 0. 0. 0. 1.52782638e-006 -9.50383910e-005 -2.19125694e-004
      -7.83183641e-005 -4.08636879e-005 8.46585390e-005 -1.67964114e-004
      7.51661082e-006 4.11049492e-004 -2.24461051e-004 -5.34835563e-004
      -4.14561509e-004 2.36566439e-006 7.19272407e-007 0. 0. 0. 0. 0. 0.
      0. 0. 0. 0. 0. 0. 0. 0. 0. 0. 0. 0. 0. 0. 0. 0. 0. 0. 0. 0. 0. 0.
      0. 0. 0. 0. 0. 0. 0. 0. 0. 0. 0. 0. 0. 0. 0.</_>
    <_>
      0. 0. 0. 0. 0. 0. 0. 0. 0. 0. 0. 0. 0. 0. 0. 0. 0. 0. 0. 0. 0. 0.
      0. 0. 0. 0. 0. 0. 0. 0. 0. 0. 0. 0. 0. 0. 0. 0. 0. 0. 0. 0. 0.
      3.57430290e-005 1.59173171e-004 3.98764299e-004 4.37081093e-004
      3.19371058e-004 7.54454057e-004 6.93599519e-004 2.34718333e-004
      2.45483709e-004 3.84880055e-004 9.88828106e-005 -6.90785600e-005
      0. 0. 0. 0. 0. 0. 0. 0. 6.19338753e-005 3.02286440e-004
      4.89592727e-004 5.98855200e-004 1.19373493e-003 9.30703362e-004
      3.42752406e-004 -2.17121837e-004 -9.09295195e-005 5.85340138e-004
      1.14342518e-004 -2.04531152e-005 1.92414541e-006 0. 0. 0. 0. 0. 0.
      0. 4.76573732e-005 4.10531939e-004 8.70244403e-004 9.81110381e-004
      1.21697329e-003 6.48520247e-004 4.37737413e-004 6.28269976e-004
      5.36287844e-004 1.70030762e-004 7.85985612e-005 2.92550772e-004
      1.60056239e-004 0. 0. 0. 0. 0. 0. 0. 4.67131322e-005
      4.34479211e-004 1.93377282e-003 1.93330226e-003 1.41464546e-003
      6.74324750e-004 -6.69716828e-005 2.84574664e-004 4.66271274e-004
      1.12727238e-003 1.59240182e-004 4.66496072e-004 4.14735259e-004 0.
      0. 0. 0. 0. 0. 0. 2.65494200e-005 2.70078803e-004 1.54805975e-003
      1.52304978e-003 9.11350362e-004 -3.34852550e-004 -6.07546710e-004
      1.57417700e-004 2.77569139e-004 1.71423692e-003 1.12722965e-003
      8.61925888e-004 5.67188894e-004 2.22717290e-006 0. 0. 0. 0. 0. 0.
      2.61854370e-006 7.54446592e-005 6.80596335e-004 3.60238191e-004
      2.62290763e-004 -1.33315125e-003 -1.52769650e-003 -9.26637265e-004
      7.40183576e-004 2.10552872e-003 1.37476914e-003 9.73002403e-004
      6.14954508e-004 7.66191952e-005 0. 0. 0. 0. 0. 0. -8.26016549e-006
      -1.56705879e-004 8.19746056e-005 -4.53774701e-005 -5.77268482e-004
      -1.58083474e-003 -3.52096977e-004 -7.51232947e-005 1.13038451e-003
      1.24453788e-003 8.72499426e-004 8.24175309e-004 3.85471212e-004
      2.22717290e-006 0. 0. 0. 0. 0. 0. -5.66411327e-005
      -1.83628246e-004 -5.27067750e-004 -1.12397224e-003
      -1.47643837e-003 -6.59989251e-004 3.40496743e-004 5.52571553e-004
      8.27201759e-004 8.66905088e-004 8.46779381e-004 6.18356629e-004
      1.84735531e-004 0. 0. 0. 0. 0. 0. 0. -9.08618167e-005
      -2.44264869e-004 -5.35771600e-004 -1.42561528e-003
      -1.10400375e-003 -1.12644273e-004 -5.86216687e-004
      -9.98528558e-004 1.09306315e-003 9.04799555e-004 4.17024625e-004
      2.30338788e-004 1.36668110e-004 0. 0. 0. 0. 0. 0. 3.46680281e-005
      3.74834008e-006 -2.72122445e-004 -9.13627737e-004 -1.26434606e-003
      -2.65734649e-004 -4.28308267e-004 -8.17102147e-004 8.71409313e-004
      9.77459131e-004 7.69917824e-005 2.16549495e-004 7.24152778e-005
      4.42927703e-005 4.10118264e-006 0. 0. 0. 0. 0. -7.65781297e-005
      -2.63151655e-004 -5.25742827e-004 -1.13905396e-003
      -9.49370442e-004 2.88924115e-004 -6.99584780e-004 -1.28072186e-003
      -7.69515522e-004 2.17436609e-004 -1.93085449e-004 -2.41273738e-004
      -3.14404548e-004 -9.43335472e-005 -4.93418265e-005
      -1.77630573e-005 0. 0. 0. 0. -7.31614637e-005 -2.39604837e-004
      -5.12712868e-004 -1.11649476e-003 3.58562334e-004 -3.55814729e-004
      -1.30427346e-004 -7.17319665e-004 2.72600097e-004 6.04128349e-004
      5.20912698e-004 1.88871287e-004 -7.31595734e-004 -7.69703882e-004
      -4.53944813e-004 -2.09209349e-004 0. 0. 0. 0. -1.28622574e-004
      -3.38315789e-004 -5.49568562e-004 -7.87256809e-004 2.49796372e-004
      5.70027041e-004 -4.28148342e-004 -4.49270505e-004 4.32538131e-004
      -1.49056039e-004 1.84635443e-004 -1.74418863e-004 -1.27213902e-003
      -8.84015521e-004 -1.34461414e-004 -6.34522148e-005
      -9.86836494e-006 0. 0. -5.19210371e-005 -2.86296825e-004
      -7.18508672e-004 -6.47530309e-004 -1.18704862e-003
      -6.14818477e-004 -3.21363012e-004 -2.61188718e-004 1.03755010e-005
      -9.58559467e-005 2.60720000e-004 4.55772853e-004 -3.16034129e-005
      -1.03884330e-003 -6.27374684e-004 -3.22803651e-004
      -1.75496520e-004 -5.92498691e-005 0. 0. -6.01812026e-005
      -2.66341434e-004 -6.00903120e-004 -1.15407794e-003
      -9.61781479e-004 -2.88558454e-004 -1.19485689e-004
      -5.15172607e-004 -6.10358024e-004 1.11390938e-004 5.71973505e-004
      -6.33061381e-006 -2.05390621e-004 -7.49892613e-004
      -7.68551428e-004 -6.71179499e-004 -3.71952687e-004
      -1.53511020e-004 0. 0. -2.83205663e-005 -9.17640573e-005
      -1.98186550e-004 -3.77871504e-004 -5.76041464e-004
      -5.83396351e-004 -1.83787939e-004 1.93182728e-004 -3.43760883e-004
      -1.58224386e-004 -4.89989616e-005 -4.93212079e-004
      -1.12255057e-003 -9.14858712e-004 -9.25113854e-004
      -6.43428415e-004 -2.20655580e-004 0. 0. 0. 0. 0. 0. 0. 0. 0. 0. 0.
      0. 0. 0. 0. 0. 0. 0. 0. 0. 0. 0. 0. 0. 0. 0. 0. 0. 0. 0. 0. 0. 0.
      0. 0. 0. 0. 0. 0. 0. 0. 0.</_>
    <_>
      0. 0. 0. 0. 0. 0. 0. 0. 0. 0. 0. 0. 0. 0. 0. 0. 0. 0. 0. 0. 0. 0.
      0. 0. 0. 0. 0. 0. 0. 0. 0. 0. 0. 0. 0. 0. 0. 0. 0. 0. 0. 0. 0. 0.
      1.03910228e-004 2.56659288e-004 2.95677310e-004 4.81000374e-004
      7.46606092e-004 1.17425155e-003 1.20686239e-003 4.69790917e-004
      -7.36470756e-005 -2.99491134e-004 -1.03019869e-004
      -1.19074939e-005 0. 0. 0. 0. 0. 0. 2.85232891e-005 2.66133939e-005
      -2.63821130e-005 1.53573230e-004 1.19370852e-004 4.16291994e-004
      1.08018972e-003 1.31519511e-003 9.71037778e-004 6.25193235e-004
      2.62411078e-004 -5.92955505e-004 -4.84930148e-004 -1.05577412e-004
      -2.14478987e-005 0. 0. 0. 0. -3.27676462e-005 -4.23296260e-005
      -2.34311046e-005 -1.60969430e-004 -7.85822282e-004
      -3.58384714e-004 6.68099092e-004 7.93435145e-004 9.33063100e-004
      1.25360535e-003 1.85955199e-004 -2.85676593e-004 -3.47805442e-004
      -5.94933867e-004 -4.54469438e-004 -1.41836063e-004
      -9.87013300e-006 -1.24009366e-005 -3.54312488e-006
      -1.10275723e-005 -4.19047756e-005 -4.27536033e-005
      -1.57873201e-005 -2.63426227e-005 -3.35745135e-004
      -3.85193242e-004 4.23503108e-004 9.04605142e-004 1.07110641e-003
      1.51591445e-003 1.17879012e-003 1.99902624e-005 -5.19016990e-004
      -4.80778370e-004 -3.89016845e-004 -8.47539050e-005
      -1.92341067e-005 -4.55544614e-006 -2.53080344e-007
      -4.41102884e-006 -3.30827170e-005 -6.28904454e-005
      -7.11188331e-005 4.79241498e-006 3.18779668e-004 -5.24989446e-005
      3.48925860e-005 1.13017297e-004 -6.07710426e-005 -1.86302204e-004
      2.50535493e-004 7.89729005e-004 1.03185512e-003 5.30903693e-004
      -1.76813744e-004 -2.29451234e-005 -2.35364714e-005 0. 0. 0.
      -2.20551447e-005 -4.48669743e-005 -9.93913636e-005
      -6.95848939e-005 -1.53500398e-004 -1.69415143e-004
      -5.79959189e-004 -4.97376430e-004 -6.72092836e-004
      -7.60856492e-004 -1.12059970e-004 2.98336556e-004 -3.02922708e-004
      6.96927891e-004 3.36934230e-004 5.60795052e-005 -1.69563828e-005
      0. 0. 0. -1.22878664e-005 -4.58631257e-005 -2.14635307e-004
      -4.88579855e-004 -9.81846824e-004 -1.07981823e-003
      -1.51577522e-003 -8.90732452e-004 -5.90521318e-004
      -5.31128035e-006 9.16690915e-005 -1.27132618e-004 4.32227942e-004
      5.33078797e-004 -3.16182559e-004 -2.59444438e-004 -4.12030943e-007
      0. 0. 0. -6.30146997e-006 -3.51965027e-005 -1.22136888e-004
      -3.40326311e-004 -1.20431813e-003 -1.82764546e-003
      -2.76088971e-003 -6.19586499e-004 -6.57072640e-004 6.99918834e-004
      6.78888522e-004 -2.71393044e-004 4.77546331e-004 2.27921642e-004
      -2.74034450e-004 -3.04612360e-004 -4.80852668e-006 0. 0. 0. 0.
      -2.86716895e-005 -3.33727425e-004 -5.41937363e-004
      -8.03959440e-004 -1.81398750e-003 -1.57458219e-003
      -5.92999742e-004 -1.29310216e-003 -1.67564231e-005 3.15993500e-004
      -1.27583661e-003 -4.05916449e-004 -5.57281601e-004
      -6.48627407e-004 -3.37096310e-004 0. 0. 0. 0. 0. -2.37698223e-005
      -1.53735280e-004 -3.28180991e-004 -2.81181245e-004
      -2.87829665e-004 -7.47588056e-004 -8.61773908e-004
