<?xml version="1.0"?>
<opencv_storage>
<my_nn type_id="opencv-ml-ann-mlp">
  <layer_sizes type_id="opencv-matrix">
    <rows>1</rows>
    <cols>3</cols>
    <dt>i</dt>
    <data>
      400 60 32</data></layer_sizes>
  <activation_function>SIGMOID_SYM</activation_function>
  <f_param1>6.6666666666666663e-001</f_param1>
  <f_param2>1.7159000000000000e+000</f_param2>
  <min_val>-9.4999999999999996e-001</min_val>
  <max_val>9.4999999999999996e-001</max_val>
  <min_val1>-9.7999999999999998e-001</min_val1>
  <max_val1>9.7999999999999998e-001</max_val1>
  <training_params>
    <train_method>RPROP</train_method>
    <dw0>1.0000000000000001e-001</dw0>
    <dw_plus>1.2000000000000000e+000</dw_plus>
    <dw_minus>5.0000000000000000e-001</dw_minus>
    <dw_min>1.1920928955078125e-007</dw_min>
    <dw_max>50.</dw_max>
    <term_criteria><epsilon>9.9999999747524271e-007</epsilon>
      <iterations>20000</iterations></term_criteria></training_params>
  <input_scale>
    1. 0. 1. 0. 1. 0. 1. 0. 1. 0. 1. 0. 1. 0. 1. 0. 1. 0. 1. 0. 1. 0. 1.
    0. 1. 0. 1. 0. 1. 0. 1. 0. 1. 0. 1. 0. 1. 0. 1. 0. 1. 0.
    1.0964554408948615e+001 -5.3650354014370223e-003
    4.0521179337418793e+000 -5.3650354014370223e-003
    3.3780658348126900e+000 -1.1375923284491399e-002
    1.7302017237847211e+000 -1.0308601929120607e-002
    1.5144181549899201e+000 -1.4733135779483434e-002
    1.1584101234470285e+000 -1.6871183330863668e-002
    9.1478721723362522e-001 -2.3986735598533013e-002
    6.8840786041628266e-001 -2.5560433466799200e-002
    6.0715116109672929e-001 -2.7576332850088901e-002
    5.5257233726642851e-001 -2.7801181404648906e-002
    5.3187762285487983e-001 -2.7831606894919019e-002
    5.5978175004188557e-001 -2.7519420575987698e-002
    6.0239132221785285e-001 -2.6129111550018829e-002
    7.6760804619864753e-001 -2.4988190434063560e-002
    8.8805488707598457e-001 -1.8914907072970919e-002
    1.4273809841560401e+000 -1.7994786606232781e-002
    2.0719369026345418e+000 -1.0615225186913865e-002
    5.5949562846103875e+000 -1.0628532791764832e-002 1. 0. 1. 0.
    4.0521179337418793e+000 -5.3650354014370223e-003
    2.6949096662469474e-001 -5.7895995592974744e-002
    1.3308556974605693e-001 -1.0771185953111058e-001
    7.8544224610592989e-002 -1.7799785639452662e-001
    5.0204595944258294e-002 -2.7168398518457920e-001
    3.6061466639347221e-002 -3.7612785409723071e-001
    2.8625303751183186e-002 -4.8025223220583046e-001
    2.5920867653504601e-002 -5.4432255315831080e-001
    2.3972840453228589e-002 -5.9189724854580017e-001
    2.2780398891858667e-002 -6.3075667753463338e-001
    2.3054749401634819e-002 -6.3352219073592853e-001
    2.4003721884187958e-002 -6.0922389902944429e-001
    2.6320260090916085e-002 -5.3756269514414312e-001
    3.1293192698450024e-002 -4.3315082045505604e-001
    4.2920125782709116e-002 -3.0055329827380667e-001
    7.2578300835095463e-002 -1.8927847634819950e-001
    1.5730117179341246e-001 -9.3756804694412832e-002
    2.0719369026345418e+000 -1.0615225186913865e-002 1. 0. 1. 0.
    2.8809050760471964e+000 -1.4676919047300284e-002
    1.4322996534913832e-001 -1.0750801705019224e-001
    5.4305718374426049e-002 -1.9574630064951565e-001
    3.1812301688822944e-002 -3.1740057190557158e-001
    2.0992270353851525e-002 -4.6669871889003056e-001
    1.5997292889728398e-002 -6.5160961867035228e-001
    1.3822913372417806e-002 -8.4697063940026074e-001
    1.3365832161720530e-002 -1.0099403285337842e+000
    1.3131053780847876e-002 -1.1151489691799845e+000
    1.2928354461141248e-002 -1.1445350188288896e+000
    1.3189199257464260e-002 -1.1721213250135112e+000
    1.3274714010030801e-002 -1.1431266094605654e+000
    1.3518086652470404e-002 -9.6028841045801827e-001
    1.5658948454078517e-002 -7.1072236522848686e-001
    2.1037811703854797e-002 -4.7405166041088342e-001
    3.4053716036470921e-002 -3.0462604019246670e-001
    8.3550496182519265e-002 -1.7369740059198066e-001
    1.5135695703922998e+000 -1.8689271096286923e-002 1. 0. 1. 0.
    1.4048997090215933e+000 -1.3910298474611522e-002
    9.7478030762450443e-002 -1.4666174774905943e-001
    3.3513892986400368e-002 -2.6408963107249689e-001
    1.9841938700644820e-002 -4.2980701496422830e-001
    1.4286887778464119e-002 -6.3952851842733038e-001
    1.2099250880639702e-002 -8.7579520134050692e-001
    1.1745668424246306e-002 -1.1081750627234315e+000
    1.1751553264698225e-002 -1.2357013799910357e+000
    1.1869477086037061e-002 -1.2462530727438017e+000
    1.1732048464492746e-002 -1.1823326996008074e+000
    1.1927384305647194e-002 -1.2497329470904925e+000
    1.2084152533318543e-002 -1.3583369336604545e+000
    1.1916833941359534e-002 -1.2307201748073440e+000
    1.2693399912598697e-002 -9.2141851404234820e-001
    1.5127526364316107e-002 -6.1818867473954442e-001
    2.2591629191319493e-002 -4.0787049458922758e-001
    5.9047429483402115e-002 -2.4318676099791398e-001
    9.3671963889543719e-001 -1.9654854697486509e-002 1. 0. 1. 0.
    2.1155439363254218e+000 -1.6501522802987344e-002
    8.6138124697303184e-002 -1.6860937300433174e-001
    2.8904934801418758e-002 -2.9059180977977572e-001
    1.7138239523062621e-002 -4.7636985508154833e-001
    1.2701465100160401e-002 -7.1583246255920829e-001
    1.1373274254174996e-002 -9.7377461527240816e-001
    1.1603802918905530e-002 -1.1736009387760251e+000
    1.1759672098700335e-002 -1.1780945316079470e+000
    1.1739809709570738e-002 -1.0247840501406495e+000
    1.1916967815835105e-002 -9.3589443515542481e-001
    1.1943073038957213e-002 -1.0065202438874425e+000
    1.1690130364772974e-002 -1.1803579440992369e+000
    1.1477040217957974e-002 -1.1776510926002466e+000
    1.1852770276885322e-002 -9.6045409865107045e-001
    1.3418695565698384e-002 -6.8326160923431412e-001
    1.9068121479061610e-002 -4.5923805808275736e-001
    5.0576627308743259e-002 -2.8064401737662459e-001
    8.0562416854212204e-001 -2.4208376707767765e-002 1. 0. 1. 0.
    1.8760262089828930e+000 -1.1717401702480722e-002
    9.0513129264194594e-002 -1.5947588563965137e-001
    2.8204824356252305e-002 -2.9638405202198420e-001
    1.6342760788823626e-002 -4.8598769230694611e-001
    1.2412737282042337e-002 -7.3423682948067681e-001
    1.1308188866846350e-002 -9.9804474222876283e-001
    1.1664791580250333e-002 -1.1674454323872920e+000
    1.1899340087164579e-002 -1.1051775399788601e+000
    1.1932854123452267e-002 -8.9516910528003790e-001
    1.2457172962496399e-002 -8.1206332410998772e-001
    1.2390832505048346e-002 -9.0406178790050296e-001
    1.1803289609612503e-002 -1.0747794968285485e+000
    1.1418468961844870e-002 -1.0722045224262078e+000
    1.1800153166251276e-002 -8.8586330752298492e-001
    1.3436873733936323e-002 -6.4469341259854984e-001
    1.9462729113002404e-002 -4.2991551338108441e-001
    5.4078080315996535e-002 -2.5354110188160711e-001
    6.7411386657709793e-001 -2.5029700598234356e-002 1. 0. 1. 0.
    1.2590728550328316e+000 -1.8844598469247686e-002
    9.4997431716934796e-002 -1.5508071653827796e-001
    2.8189522816432742e-002 -3.0845794865376053e-001
    1.5781457889884581e-002 -4.9586110162707259e-001
    1.2364272513088500e-002 -7.4121541434354987e-001
    1.1432249097401051e-002 -1.0080793583688423e+000
    1.1794613832894369e-002 -1.1865066476843957e+000
    1.1869479592258711e-002 -1.1050774866573518e+000
    1.1889931508472342e-002 -9.1147004151050348e-001
    1.2270241833192292e-002 -8.6559505061640662e-001
    1.2373871148961059e-002 -9.7929700410936249e-001
    1.1959550626858918e-002 -1.0910557281616104e+000
    1.1672283145921246e-002 -1.0104146190057763e+000
    1.2183989560834201e-002 -7.9526351365530468e-001
    1.4144087945284352e-002 -5.7333039927351037e-001
    2.1646729030238475e-002 -3.8250965835063888e-001
    6.3398061725609425e-002 -2.1448920270020747e-001
    7.5179095152357378e-001 -2.5057534521034409e-002 1. 0. 1. 0.
    9.8140112778697419e-001 -2.1496308846267950e-002
    8.7538422885002201e-002 -1.6180611862107350e-001
    2.6801075390197448e-002 -3.1931024774313732e-001
    1.5194275274117340e-002 -5.1067861670954029e-001
    1.2150067718757684e-002 -7.4463901772265229e-001
    1.1419359376686887e-002 -1.0063185962826784e+000
    1.1728501653044338e-002 -1.2241614738920465e+000
    1.1822237973414617e-002 -1.1972065265302889e+000
    1.1793339131720978e-002 -1.0755838935349338e+000
    1.2054468378801499e-002 -1.0746196158866212e+000
    1.2137947782469403e-002 -1.1424050731044550e+000
    1.1850553556066710e-002 -1.1400909247132969e+000
    1.1835061126311148e-002 -9.6540041011825284e-001
    1.2667146602212416e-002 -7.1250010744540049e-001
    1.5377348962699357e-002 -5.0169558119354329e-001
    2.5551467777812389e-002 -3.2696215045310001e-001
    7.4742221327423211e-002 -1.7699727311152591e-001
    8.2825837703399274e-001 -2.2266163663176731e-002 1. 0. 1. 0.
    9.3057708585765764e-001 -2.2793687939005460e-002
    7.6971762384293083e-002 -1.7437229087817849e-001
    2.4817802746811134e-002 -3.3654220595554124e-001
    1.4509967029379041e-002 -5.3680613451656689e-001
    1.1794784553033674e-002 -7.6927470363719264e-001
    1.1280721800251232e-002 -1.0407155016303273e+000
    1.1423765281743301e-002 -1.2519704301045611e+000
    1.1566738375136611e-002 -1.2534981212076242e+000
    1.1411417962508564e-002 -1.1896693085062400e+000
    1.1469970823859638e-002 -1.2216005880378455e+000
    1.1550447406459097e-002 -1.2163419340923052e+000
    1.1407772438688674e-002 -1.1339656778198619e+000
    1.1728074015908202e-002 -9.1171589240185447e-001
    1.2970316387409857e-002 -6.4640244513484457e-001
    1.6753623972050487e-002 -4.4850651608336350e-001
    2.9930416882126484e-002 -2.8338314776958307e-001
    8.9330048887638500e-002 -1.4627625165548863e-001
    1.2618275631338076e+000 -1.8377363697599708e-002 1. 0. 1. 0.
    8.2932336143174279e-001 -2.1841259410817854e-002
    6.8128694199982145e-002 -1.9043012264768919e-001
    2.3120551692130727e-002 -3.6461169245646724e-001
    1.3898961696541898e-002 -5.7716635596629484e-001
    1.1590951615971401e-002 -8.1610201211166866e-001
    1.1295466048810857e-002 -1.0869110403748237e+000
    1.1601080534985620e-002 -1.2268702801964586e+000
    1.1869878692365486e-002 -1.1282308935179375e+000
    1.1616268359473452e-002 -1.0377467213226661e+000
    1.1389087987772575e-002 -1.0927932036949712e+000
    1.1671655239456260e-002 -1.1401839546449850e+000
    1.1374833459846703e-002 -1.0743948128016227e+000
    1.1763653261883075e-002 -8.6845712797290431e-001
    1.3447325797254958e-002 -6.1436702890678951e-001
    1.8356163513877550e-002 -4.1381438037776974e-001
    3.4201273789181988e-002 -2.5530906833162698e-001
    1.0733730239032566e-001 -1.2695849824217950e-001
    1.8188459284075085e+000 -1.3506670394874857e-002 1. 0. 1. 0.
    7.8547355553849585e-001 -2.1726393428100465e-002
    6.1736440592404213e-002 -2.1441520893654706e-001
    2.1552482979596273e-002 -4.0516471996985443e-001
    1.3345739649438151e-002 -6.2623259406235743e-001
    1.1537329436456205e-002 -8.9002943525149636e-001
    1.1481425458242543e-002 -1.1423134330919646e+000
    1.1975459455040544e-002 -1.2134780667063363e+000
    1.2194819681441383e-002 -1.0110201550437783e+000
    1.2174884971453101e-002 -8.8837237255045198e-001
    1.1760585864479173e-002 -9.3564747362892053e-001
    1.1911296077538205e-002 -1.0293457307162088e+000
    1.1439731613046161e-002 -1.0170027757315570e+000
    1.1672986923535744e-002 -8.4656285659154151e-001
    1.3575290763740276e-002 -6.1499743971938325e-001
    1.9122231780649774e-002 -4.0750668621691244e-001
    3.7551925099493365e-002 -2.4418208740472158e-001
    1.2379538875259512e-001 -1.1711443564229618e-001
    2.2866168605253749e+000 -1.3557927446341054e-002 1. 0. 1. 0.
    7.8092042498212155e-001 -2.3331186170780938e-002
    5.6557873166914449e-002 -2.4228414175665250e-001
    2.0021988375652132e-002 -4.4316924827466664e-001
    1.2857807257925942e-002 -6.9075028720362519e-001
    1.1445954931395153e-002 -9.8704501865742555e-001
    1.1628988480205806e-002 -1.2369792166241285e+000
    1.1958139068289193e-002 -1.2179421260051384e+000
    1.2144047089183159e-002 -9.3538034540472714e-001
    1.2487745703443688e-002 -7.7461332402136562e-001
    1.2069058135218989e-002 -8.1854531741458614e-001
    1.1758324662975436e-002 -9.5183609379621648e-001
    1.1310388996834252e-002 -9.9989366475881636e-001
    1.1513316113527199e-002 -8.6328927306614023e-001
    1.3516404047315319e-002 -6.2536565207084827e-001
    1.9276336204382193e-002 -4.0777360123662676e-001
    3.8061733095472318e-002 -2.3916019822333345e-001
    1.2376693804666196e-001 -1.1561270492952154e-001
    1.7924834049707050e+000 -1.5890535898770316e-002 1. 0. 1. 0.
    7.3988540581317530e-001 -2.3617215411645836e-002
    5.0334799631676724e-002 -2.7760997326146269e-001
    1.8566399711892754e-002 -4.8692564901947416e-001
    1.2510955246958196e-002 -7.5328892581667917e-001
    1.1411547202341683e-002 -1.0744364360166263e+000
    1.1702419443905763e-002 -1.3212345812807467e+000
    1.1959809717230107e-002 -1.2262607052620542e+000
    1.2304746172844692e-002 -9.0019154346633012e-001
    1.2792988015247990e-002 -7.3749847125740442e-001
    1.2168575284820647e-002 -8.0667360426602530e-001
    1.1671578012152281e-002 -9.9926384968924065e-001
    1.1361517284969116e-002 -1.0580553997282416e+000
    1.1445520017383439e-002 -8.8774514354097800e-001
    1.3464386177665443e-002 -6.3279669712661912e-001
    1.9204361850638684e-002 -4.0654953596578303e-001
    3.7488596404688400e-002 -2.3627106147843896e-001
    1.1409157663730290e-001 -1.1543796429586130e-001
    1.1536131476779776e+000 -1.5904806658542766e-002 1. 0. 1. 0.
    9.2506208714824600e-001 -2.4336031651080701e-002
    4.6450447764660785e-002 -3.2011274670409851e-001
    1.8043189235327120e-002 -5.2257320015445774e-001
    1.2791321270663864e-002 -7.8400052514464058e-001
    1.1731444866212274e-002 -1.1178240535335218e+000
    1.1813325038999272e-002 -1.3620325483808511e+000
    1.1950972640134163e-002 -1.2467544428770581e+000
    1.2123018660270440e-002 -9.6201210869536080e-001
    1.2303669446475764e-002 -8.3282346114802930e-001
    1.1938468558777128e-002 -9.2671455883767884e-001
    1.1656187706390004e-002 -1.1110145485988423e+000
    1.1506236367125800e-002 -1.1099515766714105e+000
    1.1677838825726854e-002 -8.8679174693200691e-001
    1.3877561461811728e-002 -6.2181245522861106e-001
    2.0331415025224620e-002 -4.0119710967902794e-001
    3.9079506071282348e-002 -2.3236013142737305e-001
    1.1919392484360704e-001 -1.1844259451690094e-001
    1.2492866920303090e+000 -1.7835137991740298e-002 1. 0. 1. 0.
    8.9002426618384833e-001 -1.7547898061075210e-002
    5.3374481159315222e-002 -2.8626315216830212e-001
    2.0985979923096556e-002 -4.7062583655244739e-001
    1.4163744128374279e-002 -7.1541930557069733e-001
    1.2357601037040138e-002 -1.0434822623717663e+000
    1.1933707430856012e-002 -1.2928042221148710e+000
    1.2050279214720735e-002 -1.2878291521352365e+000
    1.1966141549295088e-002 -1.1093962993381350e+000
    1.2018659636837238e-002 -1.0327139580065583e+000
    1.1949587383049952e-002 -1.1003446823961485e+000
    1.1782500467718841e-002 -1.1601233838469907e+000
    1.1851210667552525e-002 -1.0347925374163238e+000
    1.2872279374794965e-002 -7.8469997494653942e-001
    1.6531460490283607e-002 -5.4976491705939778e-001
    2.5550619133832452e-002 -3.4966099135805323e-001
    4.8962040753776248e-002 -1.9928958440993913e-001
    1.4689290980170946e-001 -1.0188600122043562e-001
    1.1496754632955946e+000 -1.5685063742397368e-002 1. 0. 1. 0.
    1.4801368061815152e+000 -1.6742761558568214e-002
    7.5625372507225591e-002 -2.0788433859856872e-001
    2.9460249548543593e-002 -3.6151235851903912e-001
    1.7958482055520357e-002 -5.6850021669105555e-001
    1.4131773138308448e-002 -8.1410532483843057e-001
    1.3348747026794304e-002 -1.0180495324069512e+000
    1.3219388537767891e-002 -1.0834172215870703e+000
    1.3154358511786644e-002 -1.0270629923480732e+000
    1.3358942176039845e-002 -9.7893634614588454e-001
    1.3510321223531588e-002 -9.4909394133635772e-001
    1.3808870479462738e-002 -8.8293265220254380e-001
    1.4603838354462965e-002 -7.4873643433144910e-001
    1.7876690041307375e-002 -5.7118913828411799e-001
    2.5419798556701238e-002 -3.9517788725929831e-001
    4.2180976763052214e-002 -2.4193205596955292e-001
    8.5525199069107535e-002 -1.3582907158953503e-001
    2.4308485086259182e-001 -6.6510220542261689e-002
    2.1302528554582931e+000 -1.5941793812254444e-002 1. 0. 1. 0.
    2.1503804922296599e+000 -8.9127246029724258e-003
    1.3708525418857051e-001 -1.1130803386752940e-001
    6.2715628331607279e-002 -2.3295742978668835e-001
    3.7438901070458101e-002 -3.8143864058118743e-001
    2.8157485960467635e-002 -5.1145755763635825e-001
    2.5752138652515445e-002 -5.7853921715898504e-001
    2.3858507172822410e-002 -6.0136719125759208e-001
    2.3243925898222859e-002 -5.8784659982109466e-001
    2.3884378228682435e-002 -5.5008521705095359e-001
    2.5145333294380567e-002 -5.0590444876489093e-001
    2.8023503755822438e-002 -4.6297057631104033e-001
    3.1149589900971105e-002 -4.1473612803704957e-001
    4.0498837562192969e-002 -3.3500510674125211e-001
    6.1305979863763876e-002 -2.4006788591846057e-001
    1.0094977517701985e-001 -1.4811371469500581e-001
    1.9516837444227256e-001 -8.1054729724766156e-002
    4.4513338956845172e-001 -3.3055411020539542e-002
    3.3365625613721446e+000 -7.5868071942088895e-003 1. 0. 1. 0.
    5.7634859713280422e+000 -8.9580129076854108e-003
    2.1503804922296599e+000 -8.9127246029724258e-003
    1.5894075663883120e+000 -1.4822210272855340e-002
    1.0119905220157575e+000 -1.5758192223196753e-002
    8.7470753006194712e-001 -2.2029447336275040e-002
    6.8800901636087597e-001 -2.3307906981456725e-002
    6.5712513482617529e-001 -2.4077376640869272e-002
    6.2941307859570295e-001 -2.4529410483221995e-002
    6.0809529264639928e-001 -2.5081327299378009e-002
    6.0314797213301163e-001 -2.5363359159725124e-002
    6.1086719960763114e-001 -2.5564888127953708e-002
    6.6067140988967221e-001 -2.5082047884306988e-002
    7.0326942681104332e-001 -2.2205525176631682e-002
    9.2243813592376267e-001 -2.0842009518468572e-002
    1.1690019620758714e+000 -1.5881441617010945e-002
    1.9965201374419614e+000 -1.4941002093512647e-002
    3.3365625613721446e+000 -7.5868071942088895e-003
    9.7566271646712668e+000 -7.5822160851430264e-003 1. 0. 1. 0. 1. 0.
    1. 0. 1. 0. 1. 0. 1. 0. 1. 0. 1. 0. 1. 0. 1. 0. 1. 0. 1. 0. 1. 0. 1.
    0. 1. 0. 1. 0. 1. 0. 1. 0. 1. 0. 1. 0.</input_scale>
  <output_scale>
    5.2631578947368418e-001 4.9999999999999994e-001
    5.2631578947368418e-001 4.9999999999999994e-001
    5.2631578947368418e-001 4.9999999999999994e-001
    5.2631578947368418e-001 4.9999999999999994e-001
    5.2631578947368418e-001 4.9999999999999994e-001
    5.2631578947368418e-001 4.9999999999999994e-001
    5.2631578947368418e-001 4.9999999999999994e-001
    5.2631578947368418e-001 4.9999999999999994e-001
    5.2631578947368418e-001 4.9999999999999994e-001
    5.2631578947368418e-001 4.9999999999999994e-001
    5.2631578947368418e-001 4.9999999999999994e-001
    5.2631578947368418e-001 4.9999999999999994e-001
    5.2631578947368418e-001 4.9999999999999994e-001
    5.2631578947368418e-001 4.9999999999999994e-001
    5.2631578947368418e-001 4.9999999999999994e-001
    5.2631578947368418e-001 4.9999999999999994e-001
    5.2631578947368418e-001 4.9999999999999994e-001
    5.2631578947368418e-001 4.9999999999999994e-001
    5.2631578947368418e-001 4.9999999999999994e-001
    5.2631578947368418e-001 4.9999999999999994e-001
    5.2631578947368418e-001 4.9999999999999994e-001
    5.2631578947368418e-001 4.9999999999999994e-001
    5.2631578947368418e-001 4.9999999999999994e-001
    5.2631578947368418e-001 4.9999999999999994e-001
    5.2631578947368418e-001 4.9999999999999994e-001
    5.2631578947368418e-001 4.9999999999999994e-001
    5.2631578947368418e-001 4.9999999999999994e-001
    5.2631578947368418e-001 4.9999999999999994e-001
    5.2631578947368418e-001 4.9999999999999994e-001
    5.2631578947368418e-001 4.9999999999999994e-001
    5.2631578947368418e-001 4.9999999999999994e-001
    5.2631578947368418e-001 4.9999999999999994e-001</output_scale>
  <inv_output_scale>
    1.8999999999999999e+000 -9.4999999999999996e-001
    1.8999999999999999e+000 -9.4999999999999996e-001
    1.8999999999999999e+000 -9.4999999999999996e-001
    1.8999999999999999e+000 -9.4999999999999996e-001
    1.8999999999999999e+000 -9.4999999999999996e-001
    1.8999999999999999e+000 -9.4999999999999996e-001
    1.8999999999999999e+000 -9.4999999999999996e-001
    1.8999999999999999e+000 -9.4999999999999996e-001
    1.8999999999999999e+000 -9.4999999999999996e-001
    1.8999999999999999e+000 -9.4999999999999996e-001
    1.8999999999999999e+000 -9.4999999999999996e-001
    1.8999999999999999e+000 -9.4999999999999996e-001
    1.8999999999999999e+000 -9.4999999999999996e-001
    1.8999999999999999e+000 -9.4999999999999996e-001
    1.8999999999999999e+000 -9.4999999999999996e-001
    1.8999999999999999e+000 -9.4999999999999996e-001
    1.8999999999999999e+000 -9.4999999999999996e-001
    1.8999999999999999e+000 -9.4999999999999996e-001
    1.8999999999999999e+000 -9.4999999999999996e-001
    1.8999999999999999e+000 -9.4999999999999996e-001
    1.8999999999999999e+000 -9.4999999999999996e-001
    1.8999999999999999e+000 -9.4999999999999996e-001
    1.8999999999999999e+000 -9.4999999999999996e-001
    1.8999999999999999e+000 -9.4999999999999996e-001
    1.8999999999999999e+000 -9.4999999999999996e-001
    1.8999999999999999e+000 -9.4999999999999996e-001
    1.8999999999999999e+000 -9.4999999999999996e-001
    1.8999999999999999e+000 -9.4999999999999996e-001
    1.8999999999999999e+000 -9.4999999999999996e-001
    1.8999999999999999e+000 -9.4999999999999996e-001
    1.8999999999999999e+000 -9.4999999999999996e-001
    1.8999999999999999e+000 -9.4999999999999996e-001</inv_output_scale>
  <weights>
    <_>
      -4.6222180089869102e-003 -3.0386965129628293e-003
      4.1951311306622193e-003 1.2393182417243767e-003
      3.9910867379776820e-003 -3.6096718242828603e-003
      2.7212430466679316e-003 -4.3222094542688183e-003
      4.2447361673685078e-003 -2.9648579954383437e-003
      1.8223902578679845e-003 2.2345350336514091e-003
      -2.8510467270295809e-003 3.2893528653748744e-003
      6.6332868772747005e-004 2.3070695693070183e-003
      4.4132864887138209e-003 2.4871913685018442e-003
      6.6752844171497007e-004 4.5411576321843479e-003
      2.6542105002752810e-003 1.3940396294657149e-003
      3.9125175763899530e-003 3.0413716111723937e-003
      -1.3362404417424599e-003 -2.2059426488131306e-003
      1.5680867236652495e-003 2.6706976345374977e-003
      -3.8907308630967393e-003 -1.4327270612453627e-003
      -1.1536972816925295e-003 -4.6264017750555914e-003
      2.3060224160819263e-003 1.3092783029316777e-003
      -1.8383566451348704e-003 3.9834846521900739e-004
      -2.9908813254164806e-003 4.1617280994612621e-003
      -4.4932590840112627e-003 -4.6598758093927663e-003
      1.2861381847023793e-003 -4.9377651111871367e-004
      -2.9506613804476368e-003 -2.9307322729695330e-003
      2.0694142749792597e-003 3.6126918873206678e-003
      4.8341336313847258e-003 1.6555333764410316e-003
      -1.8915031729696118e-003 6.3986230241183998e-004
      -2.6937071349175212e-003 -2.0456329913700453e-004
      -3.8397497722587183e-003 -2.5998439387365066e-003
      1.2625594265404177e-003 -1.8229237608033452e-003
      -3.5485943055033461e-003 -3.1430571140462818e-003
      -2.4621547577512448e-003 -1.5562364787584315e-003
      3.9465962783385364e-003 1.9445897513581125e-003
      -2.0512523005369746e-003 1.3795432742528333e-003
      1.5883914200944711e-003 1.6319220725004501e-003
      -2.3643416429982751e-003 1.8106297601928724e-003
      -4.7374210554400140e-003 5.6880728248780491e-004
      -3.6725714549732877e-003 -2.5920662679817202e-003
      2.8725399787440486e-004 8.3635052721691306e-004
      -2.8678647515879736e-003 1.4719575907745769e-003
      -3.0976136310436409e-003 3.9642033701190382e-003
      4.5363844566419630e-003 4.2988454258555504e-003
      -4.8108213563682499e-003 -4.2817316452198684e-003
      2.0251181385126668e-004 1.4318919384391968e-003
      -1.8672345114128803e-003 -1.7333742334773134e-003
      -3.9045569749589469e-003 5.6491604324825887e-004
      7.8036035827621177e-006 4.1099302360720937e-003
      -2.0927461498505182e-003 -2.6279956628809118e-003
      4.1391044263893858e-003 -1.8829944215139963e-003
      4.4589804284261535e-003 6.0622435323023807e-004
      1.4538455969069577e-003 1.0063244392069025e-003
      3.5520411701148004e-003 -3.8485067180491070e-003
      -7.7695574176499466e-004 -3.4223608190397828e-003
      -1.2787527935625004e-003 4.6216685150028899e-003
      2.7902824190821781e-003 4.4540194340013210e-003
      9.6362806363266252e-004 3.2971025865644711e-003
      2.1063584495908763e-003 -2.0822562636899095e-003
      2.8864432769716460e-003 -2.2287280881655815e-004
      -3.2487751328682231e-003 -1.6637057910007122e-004
      4.6998134805608990e-003 3.8753132525677085e-003
      5.0920072121160846e-004 3.8765447843678944e-003
      -4.1325140825440396e-003 -3.5444265093086376e-003
      4.3015752880493779e-003 -3.7110712366382535e-003
      -4.3361205254166327e-003 5.1566338849717034e-003
      -3.9791159955182053e-003 2.0340101534452593e-003
      1.5944370790950350e-003 -4.0883589033024002e-003
      -2.1511219261158832e-004 -3.6493688271758461e-003
      2.2506392641068844e-003 2.2313667931869938e-003
      -9.4943131670522068e-004 1.9068519598256805e-003
      4.1296695600824569e-003 4.3091136164203139e-003
      -2.1552803689897926e-003 -2.3400453506371706e-003
      -2.3162366264342653e-003 -4.3794371809704746e-003
      -4.6294544969943292e-003 2.8776311372734212e-003
      -3.8795869166235544e-003 2.2428074307504825e-003
      -3.8358615237973214e-003 1.1728225894667322e-003
      -3.1071943215289495e-003 3.9861142294205492e-003
      3.1846707833046422e-003 -4.4334292756442548e-003
      1.4212821494564206e-003 -3.0470132373285825e-003
      -2.0911385281922727e-003 -3.1734441344305102e-003
      3.2304997057587123e-003 1.8990682160172911e-003
      2.8157064717315799e-003 -1.0528168660828793e-003
      1.7279837822281633e-003 2.9349992969469099e-004
      -1.0539831750296408e-003 -1.0257491711496904e-003
      -1.9984161965575249e-003 2.7051444621732901e-003
      3.1410314236137351e-003 3.4695272033325717e-003
      -3.5859455570172579e-003 2.4631046261454153e-003
      4.8925653244496553e-003 3.0571286351795618e-003
      -3.1468230988576803e-003 -4.1537954032868267e-003
      3.1003209163921342e-003 4.2295527443812157e-003
      4.2672138835083712e-003 4.2401261281558500e-003
      -9.6750614773076179e-004 4.1641127102173799e-003
      -3.2627687891940227e-003 1.7403475588227237e-003
      -2.2327431882718102e-003 -3.2721434942178571e-003
      2.5183947571933746e-003 2.7535367690862504e-003
      -1.8107315983045035e-003 -1.8517084449777930e-003
      1.8629958307694063e-003 -4.4672396984591608e-003
      1.8433448687276799e-003 -9.7411543408456171e-004
      -2.7587052741414879e-003 1.1951269973259403e-003
      4.2687073922807791e-003 4.7258985234843363e-004
      1.1557961134744446e-003 1.0055675149410234e-003
      -8.8513746702735270e-004 -1.5317276963743851e-003
      -1.0018757495817245e-003 -4.1994242521559734e-003
      -3.0192986562172209e-003 -3.9629218922747128e-003
      -3.3775284583646132e-005 1.9858372839450336e-003
      -2.0716159669029082e-003 1.6076168303270075e-003
      3.0563454327652527e-003 -1.3989180154272492e-003
      -2.5769457616751324e-003 4.9711290945740590e-003
      -1.8211122489984531e-003 2.5210516523581977e-003
      -5.9822848514318682e-004 1.2966824364491472e-003
      -2.1502752877916669e-003 1.9353294818848345e-003
      -3.8159975277577248e-004 -2.0159822884408289e-004
      -1.2562906298949396e-003 -5.0796805918467997e-004
      1.0184311573069163e-004 3.7786697693535963e-004
      -1.8218697339330077e-003 1.3274566711086063e-003
      -2.2109453702163990e-003 3.1026795601207706e-003
      7.0381326436841631e-005 -1.0515704000539669e-003
      4.9283035142787535e-003 -4.2832448781853513e-004
      3.2856835427117446e-003 2.4915079106945788e-003
      -4.8543456915862730e-003 3.8979093276328663e-004
      3.5824317441728189e-003 -2.2195046958161904e-003
      -2.7203000943790503e-003 -4.2001728049903941e-003
      4.0741229681363700e-003 -1.4919471293616145e-003
      3.0288291998666109e-003 8.0309408815687022e-004
      -2.1525956360041484e-003 1.4109957079640318e-003
      -1.8819726344801800e-003 -4.4736827791917880e-003
      2.1872761428835706e-003 -4.0600594512353133e-004
      9.1758736652363846e-004 4.0097982241848852e-003
      -3.5376286347447517e-003 -4.0441639786810302e-003
      -3.5419809209699003e-003 -1.8773187598502699e-003
      -4.7654023041936782e-003 1.1358322822972828e-003
      7.2094832605908187e-004 3.2826683028150880e-003
      -7.3613935721177212e-004 -3.0013772181585120e-003
      3.0456624837697992e-003 1.8930545431341983e-003
      -4.8609685821415054e-003 -8.9576565022660897e-004
      3.0285697469817638e-003 1.4546726520641203e-003
      8.4989960043608550e-004 -3.0328695698650658e-003
      5.0189697537539662e-003 2.1144588119505819e-003
      -4.6562680012438027e-003 4.7059797672945074e-004
      2.4529230046671309e-003 1.6330575746910856e-003
      -4.5274870512645735e-003 -8.2229519086903316e-004
      -9.4740187010106613e-004 4.3318102775026521e-003
      1.1507583521921767e-003 -1.8223202103237917e-003
      3.7729266146134728e-003 4.5805032836796905e-003
      1.5662744885507757e-003 -1.5201459399774709e-003
      -3.1877665380743722e-003 -4.2797259256367764e-004
      -1.8841173846132521e-003 1.9635713360748120e-003
      2.3469385729701451e-003 3.2391363213827682e-003
      3.3342050357456194e-003 3.9991405377923272e-003
      -1.3386380823605304e-003 9.2607705644261911e-004
      -2.4093521000327872e-003 -3.0071216758546337e-004
      -2.3702628421345327e-004 -2.6581435211411392e-004
      -2.1576163838851514e-004 -2.5817910664278246e-003
      4.7081249332946587e-003 4.4930166486924139e-003
      -3.8751743812233627e-003 3.5263266308409071e-003
      4.1044882030785166e-003 -2.4296362606537748e-003
      2.7407218217761638e-003 1.8286617436704742e-003
      3.4134864401273459e-003 -1.6361141159096726e-003
      -4.3646721846362481e-003 -1.8977456291292853e-003
      2.8429671925708070e-003 -2.4644484839508787e-003
      3.5936981639492901e-003 9.8746835829837667e-004
      3.5418969312810381e-003 -1.7773628033753920e-003
      -3.8407289483803060e-003 -3.0877454459673028e-003
      -4.5616898387392186e-003 -4.6875545453827676e-003
      5.3209224059438964e-004 -5.7278626318714400e-004
      3.9245780587387107e-003 4.5439439487753334e-003
      -1.8848319855068276e-003 -2.4805218024117671e-003
      1.5554555068870450e-003 -1.6981292767557366e-003
      -2.4673428745266785e-003 2.9613349598096015e-003
      -8.6216581632468848e-005 3.7425627644134163e-003
      -2.3905863604121399e-003 3.9621632718827510e-003
      3.5873859894536607e-003 -9.0240343236675554e-004
      -2.8464935674232484e-003 3.3779062861133097e-003
      -4.2591812174551952e-003 -2.8032617465259075e-003
      -4.7416080137275595e-003 2.8942625583741888e-003
      -3.8493527340057536e-003 4.0306099985372256e-004
      -2.3890890985498584e-003 2.8401316760132303e-003
      -2.3043934960146509e-003 -2.3126749485672103e-003
      -4.0279833307027722e-003 -2.0574407019897717e-003
      1.3484791408244514e-003 -2.8834617075532707e-003
      4.4224603303089889e-003 1.6014880662567890e-003
      1.5855434954729524e-003 1.5080223604761441e-003
      8.7314669041207678e-004 3.5704601091568278e-003
      8.4473290218875388e-004 -2.1491281186268186e-003
      -2.4435903814171689e-003 4.8396512509930106e-003
      -3.2169394979653571e-003 5.1619529733347783e-003
      6.8285537649022312e-004 1.5258547810191648e-003
      -1.9573949128976129e-003 4.3167233204608763e-003
      4.2853341070208748e-003 3.5936558696162738e-003
      -2.7979386289166764e-003 5.0491108055112635e-003
      3.0477921394776150e-004 1.2961795683618064e-003
      4.7032219875550625e-003 4.4882112599707738e-003
      -2.2285441238296356e-003 -9.8300971548921515e-004
      9.5630059973688200e-004 -5.0258135920656108e-004
      3.8412279939672767e-004 2.3435258911095208e-003
      -8.7977757825764467e-004 4.0516431316928768e-003
      4.6100217065952855e-003 -1.5015662046686045e-003
      3.2364255386143543e-003 -4.4279295209453595e-003
      -3.0576121761382766e-004 3.3873181999466411e-003
      -4.2950899902523413e-003 1.6040736245267679e-003
      1.4961500229958094e-003 -5.0956957870746549e-004
      -4.5712289473428510e-003 -3.0988346955645183e-003
      6.7464910357217117e-005 -1.7109320765968012e-003
      7.1420371520698528e-005 1.8688772514382646e-003
      -1.1395012547844039e-003 4.6078990801377354e-003
      2.1324312852632477e-003 -4.7354712999357271e-003
      4.3042005080525398e-004 2.9424347197031372e-003
      -2.3032814594515952e-004 -1.7362039948996804e-003
      5.9721609964249957e-004 1.7074177167336157e-003
      4.6267750366163398e-003 2.7203129641212172e-003
      -1.9787431160939364e-003 4.6966174061115924e-003
      -4.5153799378030452e-003 2.4261248299017775e-003
      -3.1279825804813371e-003 6.4457716037098095e-004
      1.6081560113274883e-003 -4.7348201954982700e-005
      6.7434797500688995e-004 -2.5773998030595336e-003
      1.2849586425357746e-004 1.6646258385707841e-004
      3.4771863785385804e-003 -7.0815453172679975e-004
      3.5066104188695860e-003 2.0462953756550050e-004
      -1.3837582977269715e-003 -1.0986174593051521e-005
      4.3401523393741858e-003 4.6898127052449343e-003
      2.5470356418627249e-003 -3.0571936584756270e-003
      2.5858899080707424e-003 2.0472722522242941e-003
      3.0388416120986318e-003 -6.4257334455487781e-004
      -4.1020953128887020e-003 -3.6389870789516479e-003
      3.3862912316147812e-003 4.6832816358236091e-003
      4.2044556233187284e-003 3.2749864584341679e-003
      -4.6664375593143542e-003 3.0065920983694126e-003
      4.6615041244590094e-003 -5.2685023684934790e-004
      3.2840624765676676e-003 -3.9354965315139417e-004
      -3.9032878612826820e-003 1.4818657536588289e-003
      2.2129683846624972e-003 -3.9137366777333834e-003
      -1.0815082662952254e-003 1.5907191177359004e-003
      -4.5498512325032351e-003 2.4470970329042545e-003
      -2.7411416114966501e-003 -4.7378192378403705e-003
      2.9201169663616447e-003 -1.6718968823751920e-003
      2.3320035694354472e-003 2.6560474365059381e-003
      -2.1459549804838224e-003 3.6810930258131291e-004
      -1.0918728851209251e-003 -2.5897736558792863e-003
      1.2662636529412665e-003 -4.1016655148711145e-003
      4.6861431381132728e-003 -7.3639470038115490e-004
      -1.7364607969628972e-003 -2.6136032370175032e-003
      6.7225242769337749e-004 3.4734007095860607e-003
      -4.9575868905279170e-003 -2.8292946732124038e-003
      -9.2840574203413139e-004 1.7448383994783758e-003
      -3.6714198014812897e-004 -1.6701089295383009e-003
      4.4756380724683522e-003 4.8388352995544946e-003
      -3.1730998450739799e-003 -8.2291570583766221e-004
      -3.4326616776510261e-003 -8.3727255543920062e-004
      4.2661511845251058e-004 -5.1314044922523240e-003
      -2.4903153421602904e-003 3.2612277774699333e-003
      -2.3221272378894683e-003 -4.9891340139843264e-004
      -1.8271867646407446e-003 -9.8889759958796248e-004
      5.9882747950629084e-006 -3.1209443941522070e-003
      4.9264133641204475e-004 2.9430808183473958e-003
      -2.4331389050270724e-003 -1.1996931982755049e-003
      3.7946857511109888e-003 -1.8504522073809441e-003
      -4.0860343117734245e-003 -4.0238585081462056e-003
      1.8695082089443876e-003 6.1799854958289008e-004
      -3.2037265069745115e-003 -2.6140450876223557e-003
      1.1556471896208833e-003 -3.5948268799641464e-003
      7.2645849015746781e-004 -3.3129657518928537e-003
      -4.6421292136478234e-003 7.5676569700772916e-004
      3.3219485422765599e-003 -2.6295631296605593e-003
      2.7890224024764137e-003 2.3088030338653075e-004
      -8.2615345098788358e-004 1.5413376903583353e-004
      -2.2159911162229866e-003 -8.5940809904821167e-004
      -2.2728536653892325e-003 -2.6295792859326947e-004
      -2.5704033437261656e-004 -2.3459478506514171e-003
      -2.5939110894525595e-003 4.4065455567517224e-003
      -2.8502259316247744e-003 3.1150062531443701e-003
      1.2460105906843043e-003 4.5709490054655745e-003
      -1.9187282660005707e-003 -2.7066031048125368e-003
      -3.8310744706149288e-003 1.6694684709550205e-003
      1.4732349167335239e-003 -7.7715963565945428e-005
      -1.0751530896694122e-003 2.0953081912117220e-003
      -4.0504339568270455e-003 4.3371705914425473e-003
      3.6397261437061930e-003 -4.8022760004250648e-003
      -2.0798970233880903e-003 -6.1573182623063751e-004
      -3.7599146918981651e-003 -4.0346363581717877e-003
      2.7628967249706824e-003 1.5133022535191115e-003
      -4.0251695751829623e-003 -1.1026374770916065e-003
      -4.1012339189164053e-005 2.9914963843896969e-003
      -7.7133475314892879e-004 -4.3126864069224181e-003
      3.8332902331423453e-003 -2.4082798703766858e-003
      2.0117794757436632e-003 -1.4760858728206110e-003
      4.8658355336863301e-003 -2.5760508947261312e-003
      -1.4939390705217825e-003 4.6289386422672064e-003
      1.5138144698627124e-003 2.9300316854352633e-003
      3.6745625529746848e-003 -1.4051763931695392e-003
      -2.7783242717376502e-003 1.7432875039738419e-003
      -3.4737545385920012e-003 2.2800883041274050e-004
      4.1646297492304810e-003 -4.6644746661571477e-003
      -3.6289101593428423e-003 3.2502380156689266e-003
      3.0070628359797551e-003 -9.7660066335177932e-004
      -1.0364024717427714e-003 4.7280837658071010e-003
      4.3115538404592648e-003 3.6768922875698830e-003
      -1.3249967704896367e-003 1.8643363520729397e-003
      3.4599309545405104e-003 8.2333020915407789e-004
      1.9174690261145990e-003 4.2423045892235776e-003
      1.1575119945754740e-003 -1.9441205086129280e-003
      -9.5220368209893863e-004 4.2324513329826579e-003
      6.8803207891232436e-004 1.9936502809399055e-003
      1.5313349416103529e-004 4.4471626398643440e-003
      1.2229822079533441e-003 -1.4982662338495489e-003
      1.0786112593368269e-003 -2.8019206731116921e-003
      -2.3640450307273724e-003 2.6301756514053591e-003
      -3.7223349398086470e-003 -2.1032321024913234e-004
      2.5588053504673751e-003 -3.2753831401402147e-003
      -4.4240174222727399e-003 -3.3473209221574488e-004
      -1.3899238095676771e-004 -6.1619802347339238e-004
      -4.2278231941955879e-003 -9.0295825450381097e-004
      4.8089652594817750e-004 1.8664975157177254e-003
      -4.1502334254598051e-003 -1.7577368866239030e-003
      1.5344180507460509e-003 7.4855675650853804e-004
      -3.0684840578158348e-003 4.9253025559326830e-003
      3.5713438097376097e-003 4.5473880233665859e-003
      3.7217682063956305e-003 -3.4278985812146749e-003
      -2.0760406347174565e-003 1.2455785907180801e-003
      -4.3285276459608876e-003 4.7324669415129833e-003
      3.3230104972150048e-003 -2.8213522613718509e-003
      -1.3274010863282854e-003 -2.8847170504403960e-003
      2.0196090268510881e-003 -2.3548048371413452e-003
      -3.0499132001309604e-003 -3.4226296353080291e-004
      3.9206668316373898e-003 3.9227627005271682e-003
      -4.4070745864588246e-003 -1.7269382830383184e-003
      -1.6430389378695696e-003 3.0915916013913407e-003
      -1.2948331088329266e-003 -1.3910142775834012e-003
      -1.0025340610577899e-003 -4.4160774584669927e-003
      -8.2783700962227595e-004 2.5756836217156269e-003
      -9.0916433784548515e-006 4.6692736270851146e-003
      -1.7557513247067565e-003 8.1572442145993887e-004
      -6.7718053846921355e-004 -3.2076201173423312e-003
      -1.5750331849956486e-003 -3.7097954574032864e-003
      -4.4132979181611921e-003 4.0995900545092445e-003
      2.3403234978529733e-003 -1.3745301017782994e-003
      2.1645172021401119e-003 -4.2769013328250770e-003
      -4.4582697855003522e-003 1.3992546603450813e-004
      -6.0246953916726960e-005 4.3838142883372289e-003
      -2.2031123929905938e-003 -2.3478297981410290e-003
      1.3472225875310545e-003 7.3494668397963594e-004
      -3.6565043950433831e-003 -3.6542312224672434e-003
      3.5459343957911652e-003 1.2769589795176646e-003
      1.6813698596694056e-003 5.7499471709463899e-004
      1.6631260301051124e-003 -3.1680769955756537e-003
      -5.4999698516686895e-004 -1.3213052931879531e-004
      2.0096443335905051e-003 3.7225986258980053e-005
      -2.4432784346977597e-003 -2.6120236501021867e-006
      2.2680132849204437e-003 -3.7189905765090394e-003
      1.2490153679090596e-004 3.8907705879788609e-003
      4.5892937928784421e-003 1.1153558925067579e-003
      -3.5372005917979669e-003 -1.3056118520453678e-003
      2.7917719549241772e-003 -4.8957903478149762e-003
      -2.7266562030407813e-003 1.5176714188057390e-003
      -3.5086137322659916e-003 1.8733651353236601e-003
      4.9775590416218859e-003 -2.7855156685532472e-003
      3.4177600412352211e-003 3.4289741499960872e-003
      -4.4807223194995886e-003 -3.1448554690451224e-003
      -9.0313838201451231e-004 4.2567933739408293e-004
      4.3217719796049088e-003 3.2686764120715001e-003
      -1.0318933945912760e-003 -4.8082751626960058e-003
      2.8588103915278924e-003 1.8754582236144718e-003
      2.8819175121052821e-003 2.8087390596225866e-003
      3.7446296845933362e-003 -3.2374424783051473e-003
      1.5645507249782702e-003 3.5515686524584308e-003
      -1.7673190325954418e-003 -2.8754855272457125e-003
      -9.8206276017617387e-004 -3.2027357207178200e-003
      -2.0933723166414800e-003 3.6389906416246262e-003
      -1.7396568935210109e-003 -3.6687447401666023e-003
      3.6599821157312943e-003 -2.2825251733305340e-003
      -3.8950046222393894e-003 -4.2207101862792281e-003
      -1.1188263884665910e-003 1.8519480255265567e-003
      -1.6026181835985581e-003 -1.1923029500435494e-003
      -4.2266742018087439e-003 3.8375475964581309e-003
      -1.4542910807288532e-003 -1.8332755881539020e-003
      7.2978588911098432e-004 -1.2192299098968823e-003
      3.4457361031726575e-003 -2.4511778434498374e-003
      -4.2033808312813845e-003 -2.8202107756870091e-003
      3.8536978652563537e-003 -2.9610039521365053e-003
      1.9856267622819714e-003 -1.8777075003469030e-003
      4.2693661053350941e-003 3.2674934774664052e-003
      -1.5415989098477925e-003 1.1809385579844129e-003
      -1.8404073211460603e-004 -2.1183465252304565e-003
      1.7957709994791612e-003 -3.6447023072264948e-003
      3.8583195801601524e-003 -2.6197182628301262e-003
      -2.9352922929167468e-003 -7.7514968181387884e-004
      2.7022258620527872e-003 4.3978375064463527e-003
      1.9508226898159147e-003 -7.4169705178093906e-004
      3.6663337924105474e-004 3.2264323797381498e-003
      -2.0995514136097231e-003 -3.4923107949076827e-004
      -3.0389138825220523e-003 2.1243896285543535e-003
      2.3539918154033470e-003 4.8721425693837523e-003
      -1.5839862334468130e-003 -1.4177830106338698e-003
      3.1617381344998040e-003 -6.6232284846096448e-004
      3.7579938271329455e-004 -2.7268634664340168e-003
      3.7670530067799046e-003 4.9331330995699670e-003
      2.2055657533985820e-004 -1.2153775079367718e-003
      4.8641320801089171e-003 4.0690363215115447e-003
      4.5652385490528612e-004 2.9819231910571111e-003
      -4.0664033087593398e-003 4.2141917929488307e-003
      4.3631403397140648e-003 -4.0046069567249042e-004
      -3.2311171202963384e-003 -9.6659743050111319e-004
      -1.0930811726143465e-003 1.5341141373694249e-003
      -1.3721731605861797e-003 3.7396853008890914e-003
      3.8723999062832211e-003 3.7732197366287701e-003
      4.5926277210098544e-003 5.0521872157478246e-003
      -4.0319046591121392e-003 8.7375048013894451e-004
      -7.0862125567542494e-004 4.2385029433402088e-003
      -3.5665585461373841e-003 -6.9755546779678469e-004
      -4.3386741899087301e-003 2.3165813974989316e-003
      3.1011833097876907e-003 -2.6964629541900331e-003
      2.9380234113818085e-003 6.9747925014212336e-004
      -1.3120572371039952e-003 8.9735803451946965e-004
      1.6813083580076104e-003 -5.0491842759991005e-004
      2.8056836894258651e-003 -4.7575342966837497e-004
      -3.0167989610360695e-003 8.8084549550459710e-004
      -3.9036480193153961e-003 -3.3609778890720809e-003
      4.7143988456940537e-003 -4.5657699690021527e-003
      -4.4500675917273722e-003 1.2515716598975493e-003
      2.9252664542367360e-003 -3.4807923204515983e-003
      -1.9814290017686450e-003 6.0280668802095434e-004
      -3.7603733048137303e-003 5.8713630881621157e-004
      8.7296144637413449e-004 3.3138580530580222e-003
      3.6264556259210123e-003 -3.3404557103009968e-003
      -1.5141699540767691e-003 -3.0424331570659377e-003
      4.5586327237650938e-003 -2.1977635159672331e-003
      2.0064155004187456e-003 -4.8062167688743881e-003
      4.8417855726310939e-003 4.3948817091649675e-004
      -3.3789263406996039e-004 -1.6158935978322030e-003
      -4.8026048631158768e-003 3.4544099285683102e-003
      -5.1615784533290548e-003 4.2282209138255677e-003
      -4.4920314474323660e-003 1.3989283398626753e-003
      -1.0133057403962956e-003 -1.0553091167282952e-003
      8.6816838000349894e-004 3.3737332000804078e-003
      -4.7754562599558008e-003 2.7848699596124595e-003
      -2.0604497661390335e-003 -2.3057402987873956e-003
      -4.1812312259641403e-003 -2.3649581191526447e-003
      -3.3612790216893877e-003 3.7243447820258061e-004
      -3.7816253728278214e-003 3.2459545486010323e-003
      2.2386265882187082e-003 1.4131180070820896e-003
      4.0507558257736999e-003 9.2083796449038326e-004
      2.3933020876577235e-003 3.4166590399760674e-003
      2.4620480901285493e-003 2.1347394471491025e-003
      3.6886520299003857e-003 2.2760655867603468e-003
      -1.4707520082898580e-003 -4.1410981007418048e-003
      -3.2493607705877093e-003 -4.5684058959213321e-003
      3.5336001590784878e-003 -1.1726017602793084e-003
      -4.1701816934648977e-003 2.9851406422346997e-003
      -3.6592867754609536e-003 -2.4334430697872432e-003
      4.2784461029351404e-003 1.6092174813016843e-003
      2.2010747341775303e-003 -9.3657987029859588e-004
      8.8134531591816680e-004 2.4621950258795081e-003
      -1.2500062815278782e-003 -1.5576501765648693e-003
      -1.9013897555650461e-003 -3.6210768975372034e-003
      2.6048830683187574e-003 4.1971782999374423e-003
      3.2479562444015873e-003 -1.7701958334028973e-003
      8.5679016893902766e-004 -1.6954380761264928e-003
      4.2114428017525837e-003 -3.7810548118201214e-003
      -3.8776105011889567e-003 -1.5539291110835602e-003
      -2.2949837096613184e-003 -3.5856382456260117e-003
      -3.1024705378622122e-003 2.6222259670192244e-003
      1.6069511524299974e-003 1.7718380107540949e-003
      -2.1873132756900287e-003 1.2560315937435841e-003
      -2.2190361440390174e-003 -3.3835101626067910e-003
      -1.9120094586419999e-004 -2.8781202121626820e-003
      2.0096406748251710e-003 -2.1334061091600365e-003
      -3.2653435895553759e-003 -3.5060355132724911e-003
      -1.7562727287359479e-004 -3.4206917521062440e-003
      1.8274113637523669e-003 -1.1833191568893966e-004
      1.6720961224374086e-003 -2.0272018234758480e-003
      1.0744912237818953e-003 -1.5469307720483317e-003
      3.5546425884917239e-003 4.4329764802183303e-003
      1.1195550531286479e-003 -4.5919320368559401e-003
      2.4670971812480644e-003 7.7680048147292708e-004
      3.9394027968645299e-003 -4.4313615062590989e-003
      -3.7044119198431568e-003 -2.6404599228509865e-003
      -2.5419352980309597e-003 -3.9090120899019356e-003
      5.1934564902344027e-005 2.5783814865067930e-003
      1.4935054853532176e-004 2.3010730207590289e-003
      2.5597252656305099e-003 4.2200501508713592e-003
      2.0143535488851014e-003 1.1741156000303859e-003
      2.1664615364160302e-004 -5.0095233970643919e-003
      1.0655550847853822e-003 -1.9749650133699562e-003
      -5.3608348231197196e-004 -2.7497579909082858e-003
      -4.6578290267129078e-004 -3.4250145568218513e-003
      3.2168918263403325e-003 3.0402798916037729e-003
      -5.0451672572618452e-003 -2.8568682370131212e-003
      -3.1503695216996532e-003 3.5552598152417164e-003
      -2.6001430514731002e-003 -7.4868205857372736e-005
      -3.5041813263178771e-003 4.5264328426026781e-003
      9.7420094368280751e-004 3.0924757719915205e-003
      3.7931531252583797e-003 -6.5282265249348508e-004
      5.5224079416243185e-004 -3.5424317066425682e-003
      -1.1804801188050218e-003 1.3635383368507214e-003
      8.4010101950098514e-004 -4.7780122471998750e-003
      -1.5071276486873853e-004 3.2677144880491047e-003
      -2.9568243568345817e-003 -3.4956297337144491e-003
      -2.2884557403602978e-003 -4.7003177324228106e-003
      2.4442410727658443e-003 -1.3813087408187151e-003
      -4.9674765799387829e-003 -4.4369818425278318e-003
      -4.7546844783551440e-003 2.2700320988212415e-003
      3.3852415480821094e-003 -4.0126133612524021e-003
      -1.2490345998560895e-003 1.4936887896371328e-003
      -3.2740623538912534e-003 1.1279320621331347e-003
      -3.0907881965551928e-003 3.9462739925354472e-003
      3.8635781833451449e-003 -3.8739622724918423e-003
      8.2564877909904592e-004 -4.2216457465507808e-003
      -2.1941514993576165e-003 3.0163561240619538e-003
      -2.7267123623664919e-003 3.5782258104779213e-003
      -1.9219650359011666e-004 1.4583101155037548e-003
      -3.9946626236848776e-003 4.0011455214759221e-004
      2.2408308812427793e-003 -4.1783951030285238e-003
      4.5756095854565569e-003 4.7465086417493984e-003
      -2.0760488933930670e-003 2.3277778307272757e-003
      -1.8675520994880157e-003 -4.8516916228133304e-003
      3.8456689399414670e-004 -3.7839748540587585e-003
      3.7572726592869387e-003 -2.7707961119524311e-003
      -2.4649900780121950e-003 3.3445973310662912e-004
      -4.4764712875324450e-003 2.0649106628964849e-004
      4.7901780545260382e-003 1.0675833001688733e-003
      -3.6230892762888559e-003 3.5402342709769238e-003
      2.2069679542109540e-003 3.0318175511530776e-003
      3.4355413588313842e-003 -6.6664299167475236e-004
      4.5416816739315882e-003 4.9196513347845305e-003
      -1.9784572403296441e-003 -1.2768254223518526e-003
      1.8938228976321983e-003 -3.1123444512596741e-003
      8.5820376791858493e-004 -5.9213131351599862e-004
      4.7937878230331831e-003 3.3231571395259232e-004
      -3.4073961120802310e-003 -7.4444217197775246e-004
      3.8449658779335931e-003 4.2362495124178357e-003
      4.0052983539618477e-003 -2.8823336356550160e-003
      4.7972645791594520e-003 -6.9708740887207724e-004
      -2.9793995300497261e-003 1.9934082162082400e-003
      -1.9689816315658117e-003 -2.4899341199124494e-003
      -3.7885785012550465e-003 -1.6006753237588903e-003
      4.2173044689356627e-003 -1.9071000352112722e-003
      1.3687587961310917e-003 -3.2259874851955938e-003
      5.1364037392746132e-003 -3.5107476132609085e-003
      1.9444409347205106e-003 -4.6307282883067671e-003
      4.7594610986902682e-003 -1.7801716693787342e-003
      -5.0887293660090305e-003 3.3850219679941564e-003
      2.4132990212967949e-003 -4.6563384817370360e-003
      4.1398818259079564e-003 -6.5009141226595325e-004
      3.0601286833964883e-003 -4.0674403850611664e-003
      9.2948939446187465e-004 1.0237688039163089e-003
      -2.0265680246258659e-003 9.8045803066563867e-004
      -2.5236784904259641e-004 1.5727924967585093e-003
      -2.9737845426430717e-003 3.2459790776502014e-004
      1.5947003406249819e-003 3.1513907970896482e-003
      3.0038071613091803e-003 -3.6900325129719082e-003
      -7.2227873405410648e-004 -2.5631176026530656e-003
      -4.6680787670235523e-003 4.1578842253704772e-003
      3.6033495123886593e-003 2.1500293050439072e-003
      -2.6400245588015596e-003 3.8919443658380587e-003
      2.9069310568211487e-003 2.0724689206177510e-004
      1.9625163667489009e-003 1.1374292347504822e-003
      2.8533835833288285e-003 1.5595629791258360e-003
      3.1445780081430078e-003 -2.8032446784076090e-003
      -2.2168195920559820e-003 1.2862562500914755e-003
      -1.9439954429767549e-003 -2.7475814767080543e-003
      -1.9346443525880281e-003 1.0190554329080664e-003
      8.1448245794013140e-004 4.0755615785399999e-003
      2.9246044162376831e-003 8.7489632790645970e-004
      -4.4350263540091073e-004 -1.1414206736045744e-003
      3.1945453262938435e-003 9.3992453096310689e-004
      6.9491102831352838e-004 -2.7283564804901871e-003
      -3.6148059776564706e-004 -1.9454335087318419e-003
      -4.6183170041372750e-003 -4.6728032203652630e-003
      2.7322191013090021e-003 -3.3684376528685493e-003
      4.5941469641824285e-004 -2.4493912251429407e-003
      1.1863648874191478e-003 -1.8831772136510513e-003
      -3.3272544655017569e-003 1.3725106978263132e-003
      -3.0926782563436323e-003 4.1708985355932396e-004
      3.2208958009871933e-003 1.4372354868932337e-003
      -4.6789493697921621e-003 -4.4294990888884824e-003
      2.7137525926839360e-003 -7.8663643944641373e-005
      -4.6836504848198068e-003 -3.4498204770849906e-003
      1.2180863294188823e-003 -4.2906359919444295e-003
      -1.9449909752313917e-003 2.9909704882622547e-004
      1.7768484712696012e-003 3.9951902542655028e-003
      1.1874384443957414e-003 3.3425340597871046e-004
      3.0630592397158430e-003 1.1239385831826195e-003
      -2.9405788540911868e-003 -3.2177526068619768e-003
      3.7767380277239546e-003 -3.4675452741078131e-003
      -8.9219784239875455e-004 -5.7023583401520390e-004
      -2.3245408346488127e-003 7.8861987990807984e-004
      -2.6117477508819918e-003 4.4356991975370123e-003
      -3.5855366667424528e-003 2.4216811053808522e-003
      2.4287684686802964e-003 2.7077570236381881e-003
      4.8927980192230418e-003 -5.0627460253129214e-004
      -8.2243414458874661e-004 2.5728529540919236e-003
      1.8187054090596007e-003 2.3956193096730220e-004
      -3.8636385632149460e-003 -4.8682135780117337e-003
      -4.1984235093635398e-003 -1.6803219807217668e-003
      -3.4061417460952799e-003 4.9303575057924555e-003
      1.0322625298978313e-004 2.2275771015580078e-003
      -2.5292348987189981e-003 2.4335818592757185e-003
      -4.8476726635895678e-003 -1.4213231652305465e-004
      -1.6844398816169908e-003 -4.0788173174394958e-004
      8.0061329825606268e-004 4.2907483303621201e-003
      -3.8245926103690848e-004 -2.9161431362819887e-003
      1.7391460107321741e-003 -1.4994083285473103e-004
      2.5491722647163068e-003 -3.3439278421429734e-003
      -1.5079500660636924e-003 2.4652123616214494e-004
      4.0542044688994441e-003 -2.2050087471490033e-003
      -3.8082310452576267e-003 -1.3242387019078762e-003
      -8.5703240788172620e-005 4.1790232745207305e-004
      -4.3859117789445184e-003 -9.7886432217794654e-005
      3.8096315466101534e-003 1.3166832152260739e-003
      3.9001798040830911e-003 -8.7691322855022106e-004
      -2.2334106748155705e-003 2.1387270353332272e-003
      9.4741477303509898e-004 3.2776809843691524e-003
      2.5597349874420259e-003 4.7629358835966406e-003
      4.6522053134242366e-003 2.1436730477212740e-003
      1.3837672011595039e-003 3.9629123883329681e-003
      -3.4570566913050115e-003 -7.3036556521611780e-004
      1.8337400409721544e-003 3.0219425674972073e-003
      -1.5074255485661866e-003 1.7534316582259201e-003
      3.9830719100564715e-003 -4.5698646951901822e-003
      -6.9498440742623939e-004 9.0902932686618668e-004
      -2.9508905783461525e-003 9.8938735833807253e-004
      2.5705384226829189e-003 -1.8384329511515489e-003
      2.8037539685193034e-003 -2.3221290729142862e-003
      3.6590683656271641e-003 4.4210986381445945e-003
      -1.9563056610467072e-003 -8.4975820291929469e-004
      -2.1582372773941076e-003 1.6586959104027824e-003
      -2.9541098831063002e-003 3.1393123480079883e-003
      -1.4527274982215194e-003 4.2888376479896214e-003
      9.1682784693748233e-004 4.1888922583394831e-003
      1.1607947752610202e-003 3.6248578324600653e-003
      1.6688871508270067e-003 -1.1319837821455296e-003
      1.4170945042756451e-003 3.7609660191393344e-003
      -2.2091600413880314e-003 3.5484135709873761e-003
      -3.1486441220529905e-003 -2.4051165621599921e-004
      -1.2550532755640795e+000 7.7538301566530288e-001
      2.0671564123267380e-001 2.8610797817026412e-002
      8.3695037095735603e-001 -2.8791118952893644e+000
      3.8363835495484966e+000 7.7374442120863840e+000
      -7.4448413286499528e+000 8.6056709816326171e-001
      -5.7223053943377722e-001 4.8246848726443564e-001
      -6.6284803188942171e-002 -2.9493859186230276e-001
      -3.0820774241118474e+000 1.3278331042066023e+000
      1.8621339625322647e-001 -1.0480411457886150e+000
      1.7878434772202259e-001 8.6360327343417687e-001
      2.3847376583193070e+000 1.5367932111645628e+001
      -3.3166256683704425e+001 9.6027623373882021e-001
      -4.1377883130254487e+000 -2.7326507704029881e+000
      2.7470188943172733e+000 -3.0105099962329063e-001
      1.6896299427131523e-001 -9.5563496021281325e-003
      4.2359295201466629e-001 4.5574885337579328e-002
      3.4000278774297477e-001 1.0444745867663314e+000
      -1.4276669106745605e+000 -1.8652350408024310e+000
      6.8110641421330509e-001 1.1064350029585037e+000
      1.5155002384953928e+000 2.6650115444029865e+000
      -3.3697106496485842e+000 -7.8764462905814170e-001
      -1.3197819563407681e-001 -4.9770546327158127e-001
      -3.6256585652332882e+000 -1.2623566842709739e+001
      -6.0082072649009417e+000 4.4841489072622343e-001
      1.6497469610005233e+000 -2.1501722793790581e+000
      -7.2926958283798948e-001 8.5661868020098968e+000
      -1.0431097694041906e+000 -6.9397355628304824e-001
      4.2611112247525087e+000 1.4760616514701889e-002
      -1.4766587117268761e+000 -4.9930861072992949e-001
      -1.9046354220028361e-001 5.5521021117675708e+000
      -1.2500051790600315e+000 7.7396826488110049e-001
      2.0720364026522967e-001 2.1244827719847263e-002
      8.3162904172308805e-001 -2.8812794060124536e+000
      3.8410551654042391e+000 7.7384424286119504e+000
      -7.4453048471308447e+000 8.6268792191493293e-001
      -5.6971993515086028e-001 4.8235897143297796e-001
      -6.6257507560516210e-002 -2.9454282705875540e-001
      -3.0851821969296558e+000 1.3225353256842973e+000
      1.8624493493285327e-001 -1.0431618443628270e+000
      1.7303302917068478e-001 8.6856997957435877e-001
      2.3814911073987046e+000 1.5373330351987809e+001
      -3.3169343190557278e+001 9.6290134234044367e-001
      -4.1326608114474359e+000 -2.7383184359466499e+000
      2.7486714940033492e+000 -3.0544425121027152e-001
      1.7264816632916935e-001 -1.4341688772405018e-002
      4.2791767725573338e-001 4.5488567158795339e-002
      3.4268086520353941e-001 1.0460371694134991e+000
      -1.4264201602216151e+000 -1.8637994360158960e+000
      6.8582865060982001e-001 1.1055931924781461e+000
      1.5205391347451103e+000 2.6671505637276107e+000
      -3.3664938522972512e+000 -7.8818936593962141e-001
      -1.3244611980687798e-001 -5.0205293536032103e-001
      -3.6284016329218964e+000 -1.2619387997102365e+001
      -6.0081742128165994e+000 4.4095898421951385e-001
      1.6458189866327704e+000 -2.1514891407499341e+000
      -7.2593042172126598e-001 8.5721911850585624e+000
      -1.0511855773341019e+000 -6.8735569905866800e-001
      4.2649653221230972e+000 1.3976225493404345e-002
      -1.4775496164886213e+000 -5.0178879056438130e-001
      -1.9262354230750467e-001 5.5556861069995538e+000
      -1.2517527546710479e+000 6.7743959313550273e-001
      2.2490316525359899e-001 -2.5906288781415210e-001
      8.3719706846414410e-001 -1.6719774202248401e+000
      3.8426585818759142e+000 8.9311550393241514e+000
      -6.2627761685348728e+000 8.6061871835147008e-001
      -1.5347508791482183e+000 5.8854382379172950e-003
      5.1444891146719907e-001 -3.0075726052420015e-001
      -2.6833199725431602e+000 4.9388047570298056e-002
      1.7937725296406293e-001 -1.0487744842925806e+000
      -5.6628337416180688e-002 1.0206394192307262e-001
      3.4618299645412924e+000 1.5376401282885842e+001
      -3.3165241120858461e+001 9.6246870756975877e-001
      -2.7740226165949555e+000 -2.7365893094083242e+000
      2.7465514053153059e+000 -3.0179105092757130e-001
      1.1536375527877937e-001 3.5940918349435635e-002
      1.3846167159422402e+000 9.5842660033910565e-002
      6.5127122294200201e-001 1.0483906474979789e+000
      -1.4270271808519412e+000 -2.9845097266855634e+000
      6.8530850045307179e-001 1.1125461557960812e+000
      4.0864773067525106e-001 2.6661152019690926e+000
      -3.3681017806277560e+000 -7.8664737718556577e-001
      1.9534830919570725e-001 -9.4057796172272532e-003
      -3.0467076319514383e+000 -1.2624036104609068e+001
      -2.4412119220015516e+000 5.1859645682796562e-001
      1.6536917266459612e+000 -2.1571752562744182e+000
      -7.2693222824954284e-001 8.5679745821378184e+000
      -1.9527361499094453e+000 -6.9336092809884020e-001
      4.2563521836100282e+000 -5.5332550968940811e-002
      -1.4763447659480859e+000 -5.0206462557983578e-001
      1.0135340450780896e-001 5.5520185243035689e+000
      -1.2500641242454837e+000 5.9231064624613583e-001
      2.3575067893104382e-001 -3.0998970091348260e-001
      8.3179680752302065e-001 -1.6754266136663127e+000
      3.8374853148956860e+000 8.9299461057317497e+000
      -5.9335054360214761e+000 8.5643886592009555e-001
      -1.5286338911164461e+000 -5.5434728643169406e-005
      2.9624163779704809e+001 -2.9467651637800518e-001
      -2.6787475500581972e+000 5.4317234240273349e-002
      1.7849969756264822e-001 -1.0471316084853139e+000
      -5.2799111596900331e-002 2.4854664212696498e-002
      3.4636582013353512e+000 1.5370447365122937e+001
      -3.3162390839535185e+001 9.6220813426011420e-001
      -2.3502577839590084e+000 -2.7388022798755935e+000
      2.7491931050287821e+000 -1.1766859822659772e+000
      1.6556415687681562e-002 6.0388610020298472e-001
      1.3842205939350634e+000 -1.0191264728564584e-001
      6.4601729262889940e-001 1.0473618483720133e+000
      -1.4299453834604028e+000 -2.9826238250373933e+000
      6.8742392052722845e-001 1.1059021019663555e+000
      4.0459135642166755e-001 1.5106002862412884e+000
      -3.3715079267396111e+000 -7.9119262160296588e-001
      2.0010608894118995e-001 -1.7685692558586007e-002
      -3.0465496896010098e+000 -1.2617632163342680e+001
      -5.0895813265150947e-001 5.2322729960445769e-001
      1.6453039195834680e+000 -2.1581364143663975e+000
      -7.2671130931827010e-001 8.5742278384006045e+000
      -1.9610624486751493e+000 -6.9139508190697074e-001
      4.2582060278410889e+000 -4.3963796790012655e-001
      -1.4746328896011498e+000 -4.9812764336917809e-001
      2.4301994924588080e-001 4.3405325471847611e+000
      -1.2529423153447883e+000 2.0005809682665673e-002
      2.2483346007122074e-001 1.7137623517047278e-002
      8.3366345034137979e-001 -1.6676155697947208e+000
      3.8392459292539489e+000 8.9234171753019176e+000
      -6.2616062205818634e+000 8.5645895423725393e-001
      -1.5344065125342674e+000 4.7231129192462831e-003
      5.1648074830658003e-002 -2.9949711386065098e-001
      -3.0863790978912609e+000 1.7434217105541425e-001
      1.8206804015518080e-001 -1.0432011112373234e+000
      -5.3664473706140838e-002 6.2898482541740652e-001
      3.4644670214371946e+000 1.5374628728943092e+001
      -3.3165179408766598e+001 9.6406341625801484e-001
      5.1039651859389926e-002 -2.7302895993459462e+000
      2.7542013026546384e+000 -1.1717417615821601e+000
      -4.9874308650859478e-001 -1.4341294231139872e+000
      1.3833505166272075e+000 -4.3498617121712158e-002
      6.5074271884651302e-001 1.0468637762878672e+000
      -1.4227437955501852e+000 -2.9834987365360215e+000
      6.8499368946561867e-001 1.1081742856143193e+000
      1.5214797887716813e+000 2.6609437613372977e+000
      -3.3705696537530487e+000 -7.8469158044682852e-001
      1.9876561300788800e-001 4.1005873530388245e-002
      -3.0396380200536104e+000 -1.2622835884412737e+001
      -3.7422136037730303e-001 6.7620947354368632e-001
      1.6467530713240108e+000 -2.1531803063796349e+000
      -7.2768273324938215e-001 8.5671067379013710e+000
      -1.9586452348617105e+000 -7.0846650539913347e-002
      4.2653000644424468e+000 -4.3886256692383351e-002
      -1.4752371304702847e+000 -4.0498308073406902e-001
      3.8554244200863641e-001 4.3421859092158863e+000
      -1.2503243500671002e+000 7.6389088753846457e-003
      2.3142140379149825e-001 1.2193433289912492e-002
      8.3003526367189950e-001 -1.6700555488882367e+000
      3.8423940099938205e+000 8.9299559299520475e+000
      -6.2603306853585527e+000 8.5682033007092084e-001
      -5.6709314290538682e-001 4.8469729241520648e-001
      -1.6719917870286402e-001 -2.9971661630737806e-001
      -3.0805440188266604e+000 1.7301813496657281e-001
      1.8569922359404983e-001 -1.0421500972990578e+000
      2.5086293732282011e-001 3.8005887702236990e-001
      3.4625742301637232e+000 1.5377586113414315e+001
      -3.3165052183536929e+001 9.6304358864505180e-001
      1.0144691580975952e-001 -2.7298869939899997e+000
      2.7532388706985009e+000 -1.1687462274681253e+000
      -5.2324373407402680e-001 -1.3903022285353892e+000
      1.3830749392985457e+000 -3.7314696757450853e-002
      6.4490926272242688e-001 1.0422949537043393e+000
      -1.4312792019947813e+000 -2.0208474951283533e+000
      6.8732707145894512e-001 1.1085759654896779e+000
      1.5218788133733223e+000 2.6597478807107091e+000
      -3.3700823982534684e+000 -7.9026610780208106e-001
      2.0669958043606601e-001 -4.0166800712060351e-002
      -3.6329251570489394e+000 -1.2616161767177612e+001
      -3.7379944434802553e-001 6.6204335761221778e-001
      1.6500097081583325e+000 -2.1524524492647159e+000
      -7.2796772988520220e-001 8.5719366170804729e+000
      -1.9602665278590330e+000 -7.8389115642040222e-002
      4.2605920181227859e+000 -1.1617815663013563e-002
      -1.4721280870437088e+000 -1.7893719339646311e-001
      3.8111119980232699e-001 5.5505951620270428e+000
      -1.2510715087640893e+000 1.8286256662028443e-002
      9.2372510525504964e-002 -1.1842041004737250e-001
      2.0327346468150140e+000 -1.6673012551203217e+000
      3.8359999089858259e+000 8.9236767392093590e+000
      -6.2647006676659780e+000 8.5664239528272279e-001
      -5.7112248884749206e-001 4.8539333417239550e-001
      -3.4602281577624371e-002 -1.0940819292116790e+000
      -3.0860178097681756e+000 -5.8524253923454242e-002
      1.4452596602359383e-001 -1.0437954503942743e+000
      2.3800528444700134e-001 4.2608101396294812e-002
      2.3802383206925759e+000 1.5376952426381935e+001
      -3.3168100664170076e+001 9.6076470523324842e-001
      4.8975454212018002e-002 -2.7386069112452192e+000
      2.7473110932397415e+000 -4.7047419993393447e-001
      -8.2720656002433024e-001 -2.8867005107074597e+000
      1.3868899317446717e+000 -1.7429032358018421e-002
      6.5131683124941697e-001 1.0457990496835425e+000
      -3.5274001264647108e+000 -1.8659789663858060e+000
      6.8279767596502416e-001 1.1092117890366788e+000
      1.5227677649934310e+000 2.6590660760444154e+000
      -2.2261359749976277e+000 -7.8893802501561827e-001
      2.0579260298244753e-001 -1.8897162629165198e-002
      -3.6342006955629875e+000 -1.2617891359237031e+001
      -4.4451584221588653e-001 1.2261721062217907e+000
      5.0677216924897839e-001 -2.1549598709518332e+000
      -7.3137980765747057e-001 8.5694537822246861e+000
      -1.9575637422835241e+000 -7.7810614472490255e-002
      4.2577084578384445e+000 5.9012657945027337e-002
      -1.4685973829325705e+000 -2.7137173466698189e-001
      3.8643537777089854e-001 5.5526559304697400e+000
      -1.2517767204723549e+000 1.3141955378333790e-002
      1.5177224471500630e-001 -1.2206560023435936e-001
      2.0234784847710237e+000 -1.6687715059736374e+000
      3.8422968664481334e+000 7.7420012117895922e+000
      -6.2628030184704828e+000 8.5866459626344227e-001
      -5.7583964523828390e-001 4.8774881528019209e-001
      -2.2683298874058422e-001 -1.0887820798382282e+000
      -3.0851847712100775e+000 6.4608430331735620e-002
      1.5173644465162744e-001 -1.0476588312414314e+000
      2.3098135319200805e-001 2.7345851003797278e-003
      2.3880717985497739e+000 1.5369017683825776e+001
      -3.3167368892385518e+001 9.6130735712466198e-001
      1.7012653027604499e-001 -2.7391238852193047e+000
      2.7543901998084541e+000 -4.6992432865733613e-001
      -3.0539143887842464e+000 -1.0252339287968153e+000
      1.3897874006205506e+000 -7.7312125460771057e-003
      6.4526562398820708e-001 1.0493872284730668e+000
      -3.5277464472607960e+000 -1.8590104247597135e+000
      6.7972062385609744e-001 1.1078730501253089e+000
      1.5146626164423769e+000 2.6585347172793110e+000
      -2.2264376959302177e+000 -7.8477538255781132e-001
      2.0466844340589874e-001 -4.9314943516477289e-001
      -3.6310251812691785e+000 -1.2616221083003076e+001
      -4.4783239016797866e-001 3.6143570818497917e-001
      5.1053118692817678e-001 -2.1595077008384247e+000
      -7.2472792260365504e-001 8.5688357397794395e+000
      -1.9580969511357729e+000 -6.9143992444278712e-001
      4.2615111671535617e+000 2.5599816316662416e-004
      -1.4755686889125372e+000 -2.7191802001382742e-001
      1.2507918084728878e-001 5.5532121991782635e+000
      -1.2502229762833652e+000 -2.3846565642239519e-002
      2.3327269853607768e-001 -1.2371197067640305e-001
      8.3098051312864896e-001 -1.6712906595442081e+000
      3.8381246224871135e+000 7.7426378923621773e+000
      -6.2650351806268096e+000 8.6073629916108485e-001
      -5.7330663104708524e-001 4.8095282803055428e-001
      1.4269417276730614e-002 -1.0918273388933630e+000
      -3.0840152758340236e+000 -6.5758478712057000e-001
      2.1267726648479984e-001 -1.0464373616870837e+000
      2.3747092736485320e-001 -7.7977825603624670e-003
      3.4593536846315005e+000 1.5368815772491496e+001
      -3.3170052477285878e+001 9.6424256099276673e-001
      -8.0693529911941800e-002 -2.7372292884774398e+000
      2.7517736908372155e+000 -4.6334656576529121e-001
      -9.1819482627358184e-001 -9.9319336055630614e-001
      1.3837156196040898e+000 -3.3450021661911092e-003
      6.4940793094008231e-001 1.0480294180694683e+000
      -3.5312071382979546e+000 -1.8662788926579410e+000
      6.8382737330047705e-001 1.1054093782993950e+000
      1.5143214102149172e+000 2.6627576387950542e+000
      -2.2236719362224941e+000 -7.9080457115572278e-001
      1.9310204795714303e-001 7.5382542009621009e-002
      -3.6336033606947851e+000 -1.2616160970276827e+001
      -3.6611402424718459e-001 8.9333444956111974e-001
      5.1585484264892256e-001 -2.1583987330326315e+000
      -7.2701441147205703e-001 8.5749913105829840e+000
      -1.9537403836916785e+000 -6.9246543190065024e-001
      4.2589039546355165e+000 5.0182831571365653e-002
      -1.4690268188588886e+000 -2.7180817207844860e-001
      1.7941450010439597e-001 5.5557075318086504e+000
      -1.2515205455439140e+000 -1.5058667338685378e-002
      1.5240500938032986e-001 -1.2538931963337285e-001
      8.3759638481041598e-001 -1.6728638756512111e+000
      3.8394006836349428e+000 7.7363190901195988e+000
      -6.2581728090603059e+000 8.6367811996734634e-001
      -5.7466043025670777e-001 4.8546982443318587e-001
      -2.7375001193802352e-002 -1.0901392530823379e+000
      -3.0839725043569941e+000 -4.5679209848589647e-001
      2.7158796460204510e-001 -1.0458333694741058e+000
      2.2610477134829540e-001 3.5845100303416401e-002
      3.4679454197015391e+000 1.5374180098036552e+001
      -3.3160825012821732e+001 9.6786658638807332e-001
      -9.4288306061182978e-002 -2.7389746556435099e+000
      2.7530371373849238e+000 -4.6317889110400023e-001
      -3.4127249157232331e-001 2.1686589989095652e-002
      1.3834649126148812e+000 -2.0539609002568782e-002
      6.4859455262613830e-001 1.0498007890575696e+000
      -3.5342135517004625e+000 -1.8593840474677794e+000
      6.8494594968195377e-001 1.1059075614966485e+000
      1.5188290939845623e+000 2.6651003077026676e+000
      -2.2265863854006338e+000 -7.8864877882990947e-001
      1.8077798739782322e-001 1.2909997500805107e-001
      -3.6281762694834461e+000 -1.2625026717142656e+001
      -7.9088890309411108e-001 5.2254910114390851e+000
      5.0975633265937614e-001 -2.1509516569865732e+000
      -7.3242478801327271e-001 8.5708774076868455e+000
      -1.9548815923181653e+000 -6.9507763986003801e-001
      4.2654558674672165e+000 3.5660669504356889e-002
      -1.4759231513932782e+000 -2.7075611211455025e-001
      1.7715553549962398e-001 5.5538168811240372e+000
      -1.2580939672637359e+000 9.1050255891816145e-002
      1.0552709913547974e-001 -1.2355828537694641e-001
      8.3664211834293334e-001 -1.6662853863381457e+000
      3.8430131068640314e+000 7.7424493137471515e+000
      -6.2622508340919270e+000 8.6251051690535208e-001
      -5.7544355662621127e-001 4.7988206331315519e-001
      -2.5521216249599101e-002 -1.0919317668178681e+000
      -3.0836900975557708e+000 1.8709455673700029e-001
      2.5820534078267199e-001 -1.0489767952690594e+000
      2.2408856891137202e-001 3.4847410902557337e-002
      3.4681476025447249e+000 1.5375868210168713e+001
      -3.3163497057634160e+001 9.6285347902875629e-001
      -9.6899478453203874e-002 -2.7381134984730813e+000
      2.7521492690930196e+000 -4.6271112021698124e-001
      -3.4205272411163912e-001 2.0131567634643261e-002
      1.3836374138060878e+000 -1.4289101174336299e-002
      6.4878227315687265e-001 1.0501948322407431e+000
      -3.5326787676817135e+000 -1.8586455482258157e+000
      6.8077146834885782e-001 1.1086471860010030e+000
      1.5167950316771364e+000 2.6594149512959309e+000
      -2.2290300715161266e+000 -7.8620672544696057e-001
      1.8363679067092900e-001 1.3490558635836611e-001
      -3.6311188803815382e+000 -1.2621973974445392e+001
      -7.8909588838454026e-001 5.2266269318556988e+000
      5.0832263165575731e-001 -2.1585451253057513e+000
      -7.3204409151755623e-001 8.5708046048673143e+000
      -1.9552997640715140e+000 -7.1084297485825662e-002
      4.2591308910130357e+000 5.4107844207642322e-002
      -1.4700351000335763e+000 -2.7232379633657977e-001
      1.7494845793539182e-001 5.5495015041586564e+000
      -1.2569932409023776e+000 -1.6527946930218172e-002
      1.0517437556994254e-001 -1.2468004222753545e-001
      8.3148282623445802e-001 -1.6721754097189472e+000
      3.8382407486522592e+000 8.9304678528555730e+000
      -6.2589656370172113e+000 8.5991010941368085e-001
      -5.7382830952664199e-001 4.8563121911861629e-001
      -3.1021227221296466e-002 -1.0906451137099633e+000
      -3.0858041480639584e+000 1.8362907502248879e-001
      1.8940495449288203e-001 -1.0473844646054387e+000
      2.3145200213748970e-001 3.4463117755868349e-002
      3.4641690584596083e+000 1.5372027549973096e+001
      -3.3169117962603551e+001 9.6903814869988492e-001
      -9.7600319631709398e-002 -2.7343793381497257e+000
      2.7548127495491976e+000 -4.6733198175708524e-001
      -6.9081398781393510e-001 1.6454663319647556e-002
      1.3842776269197321e+000 -1.7934923966741047e-002
      6.4660324166507266e-001 1.0506589934471953e+000
      -3.5262920188067239e+000 -1.8663303528679986e+000
      6.8608681886071643e-001 1.1093365634435108e+000
      1.5171771724792522e+000 2.6610617560782535e+000
      -2.2262369746793791e+000 -7.8852796893994603e-001
      1.8284916298861864e-001 1.3507383040985796e-001
      -3.6272458456586003e+000 -1.2615974654733837e+001
      -7.9140906770998798e-001 2.1222020312893184e+000
      5.1170882165310361e-001 -2.1546944248439730e+000
      -7.3222419040647846e-001 8.5735982333899940e+000
      -1.9599226555180571e+000 -7.0762478306075724e-002
      4.2582226641306198e+000 5.3749298693251131e-002
      -1.4770531203110084e+000 -2.6988410273675167e-001
      1.7507610909333310e-001 5.5553209552307621e+000
      -1.2508260199348060e+000 5.7122464178673985e-003
      8.7768673702218733e-002 -1.1942930235965957e-001
      8.3836131408156356e-001 -1.6730599769134742e+000
      3.8380106062122588e+000 8.9230039420248932e+000
      -6.2654250373746700e+000 8.5820230358800942e-001
      -5.6717925034841143e-001 4.8317893769774095e-001
      -4.0333954162953267e-002 -1.0899629516639739e+000
      -3.0855755404393199e+000 1.8194131851447543e-001
      1.8271390134158699e-001 -1.0438513689637374e+000
      2.2475432459312311e-001 -3.5056587416892877e-003
      3.4678503991424736e+000 1.5376691594531342e+001
      -3.3169318631358102e+001 9.6213677891352056e-001
      -9.0558125556893854e-002 -2.7342545282047728e+000
      2.7509051524927535e+000 -4.6493076577051085e-001
      -6.9693905126296773e-001 2.0619648977170325e-002
      1.3817445211782540e+000 -2.1027920180320261e-002
      6.4795525504190254e-001 1.0425076968695104e+000
      -3.5262466397213910e+000 -1.8621957166183485e+000
      6.8895649813129267e-001 1.1055148913348745e+000
      1.5202837709185617e+000 2.6674147234614347e+000
      -2.2328591859210039e+000 -7.8960268066985817e-001
      1.7938120946808384e-001 1.4600204935295294e-001
      -3.6285204111783882e+000 -1.2619479696947291e+001
      -1.6510054525487368e+000 2.1180098216763255e+000
      5.1318886288450782e-001 -2.1511803860621690e+000
      -7.2510593187699712e-001 8.5717432335444510e+000
      -1.9532296896963495e+000 -7.1748158232458004e-002
      4.2604465651116765e+000 5.4740661956843496e-002
      -1.4704428969277501e+000 -2.7649434618432955e-001
      1.7309849626171681e-001 5.5512409178598565e+000
      -1.2541652331824131e+000 -1.2240491394198026e-002
      4.8959663820598950e-002 -1.2250190318623982e-001
      2.0245523577571909e+000 -1.6710711008978885e+000
      3.8401221564033530e+000 8.9310647750729242e+000
      -6.2603748668769184e+000 8.6445894318248506e-001
      -5.6800361174814729e-001 4.8716012617520166e-001
      -1.8052883194069154e+000 -1.0954338545242532e+000
      -3.0802739964163464e+000 2.1479478032677068e-001
      1.8110754156681552e-001 -1.0440488294008365e+000
      2.2420737748786793e-001 -4.2495776763608970e-003
      3.4601294333735138e+000 1.5369236274462212e+001
      -3.3163714745636064e+001 9.6210148480952029e-001
      -8.8670231993628112e-002 -2.7387871831769237e+000
      2.7516124321386419e+000 -4.7111962281478292e-001
      -3.2775175077772245e-001 -2.1116069846845515e-002
      1.3812833280028045e+000 -5.6958371558726850e-003
      6.4479352762152387e-001 1.0479251420293705e+000
      -3.5296678468780049e+000 -1.8630079856305219e+000
      6.8566651045422711e-001 1.1056652418076360e+000
      1.5146703644740642e+000 2.6647636653765918e+000
      -2.2262755046543110e+000 -7.8580346899572406e-001
      1.6718401771465471e-001 1.3682862395174594e-001
      -3.6314895468061454e+000 -1.2617938173907145e+001
      -8.2599779634378756e-001 5.1029162314209631e-001
      5.1118739444567884e-001 -2.1596504546170272e+000
      -7.2846927833391939e-001 8.5689862972334598e+000
      -1.9533555566850687e+000 -7.1759156016266201e-002
      4.2623824389831242e+000 5.0447646031197904e-002
      -1.4708458940627698e+000 -2.7209351941137144e-001
      2.4075840747202015e-001 5.5532881457443182e+000
      -5.8013443440952062e-001 -3.1286331022654615e-002
      -9.9784030026505016e-002 -1.8537951351040340e-002
      2.0324985154982724e+000 -1.6727522498136842e+000
      3.8399669326447210e+000 8.9307432265869782e+000
      -6.2570446393358035e+000 8.5830060587117452e-001
      -5.6786564453554211e-001 4.8074692465809499e-001
      -2.6382003232998134e+001 -1.0940684354969461e+000
      -3.0776996945794939e+000 -2.3968792598438659e-002
      1.8471456272497089e-001 -1.0428717783347163e+000
      1.8051451880999039e-001 4.2287319869085085e+000
      3.4603482975259419e+000 1.5371779897487508e+001
      -3.3169836801161942e+001 9.6248276756353290e-001
      -7.3806202115317604e-002 -2.7387063355343728e+000
      2.7470313018218473e+000 -4.7114506748357698e-001
      -5.4663623024425623e-002 -6.6643260568833851e-002
      1.3834517646224045e+000 -6.9353869475631113e-003
      6.4639475196742335e-001 1.0482696872906934e+000
      -3.5280439870903226e+000 -1.8651418920231222e+000
      6.8758648203286088e-001 1.1070889195883433e+000
      1.5232753677417261e+000 2.6635496054164323e+000
      -2.2301704143083527e+000 -7.8307139291757366e-001
      -1.9973327074744576e-001 -1.2536902796752572e-001
      -3.6258896619508212e+000 -1.1465414595933730e+001
      -8.2426888824912170e-001 3.3493001849189002e-001
      5.1517719041217902e-001 -2.1501091773510024e+000
      -7.3298081676565185e-001 8.5690673180245494e+000
      -1.0514325940824487e+000 -7.8386582450380785e-002
      4.2595836582638258e+000 1.7614227323870768e-001
      -1.4762935598836240e+000 -7.8832744190007997e-001
      5.4673200980402556e-002 5.5467825782180498e+000
      -1.2579891333639521e+000 -4.9634343309669052e-002
      -1.0151761488532153e-001 -1.8369185735079070e-002
      2.0272758736998711e+000 -1.6733439681191271e+000
      3.8374284319006220e+000 7.7457880709250730e+000
      -6.2656571237583725e+000 8.6522131549313952e-001
      -5.6950756268528080e-001 4.8717939968220225e-001
      -4.0442103153114203e+001 -1.0898386486322136e+000
      -3.0838361097578182e+000 -4.7963243084862883e-001
      1.8195437641360596e-001 -1.0503666335128377e+000
      1.7454278179762309e-001 1.0716710456292658e-001
      3.4668110800175946e+000 1.5371498306774621e+001
      -3.3163426204150291e+001 9.6572715203772153e-001
      6.3892316756827452e-002 -2.7303102796999736e+000
      2.7551912057117605e+000 -4.6189925303854729e-001
      -7.9276601606348168e-002 -4.0984409993973250e-002
      1.3851464557349302e+000 -6.9903697246065273e-003
      1.6143443505029085e+000 1.0434465950210703e+000
      -3.5320772892923902e+000 -1.5536743479115642e+000
      6.8155528353084283e-001 1.1113465035394625e+000
      4.0036751375396307e-001 2.6624818666198546e+000
      -2.2311219270713956e+000 -1.7117882256835093e+000
      -1.7511840119562699e-001 -1.2092017544756938e-001
      -3.6335288690909682e+000 -1.1461713709567878e+001
      -8.2278677480579132e-001 3.0093892096163671e-001
      5.1345293320056506e-001 -2.1559849599699596e+000
      -7.3055326274650356e-001 8.5729417567715096e+000
      -1.0514203803736590e+000 -7.1461124584912661e-002
      4.2651416157024897e+000 1.7005428976134765e-001
      -1.4716458902943841e+000 -7.8412604825273302e-001
      5.2812906482254833e-002 5.5481389295556998e+000
      -1.2564114204802683e+000 4.2894966715253585e-002
      -2.7737411402478879e-001 -3.1304963919127099e-001
      2.0253333132598210e+000 -2.8770298021663891e+000
      3.8359457736790987e+000 7.7432445871935887e+000
      -6.2634339791998359e+000 8.6265173618733926e-001
      -5.7603227683713831e-001 4.8423825167068385e-001
      -2.8756588145892642e-001 -1.0895587661279382e+000
      -2.6788571918689397e+000 -4.5001239570200813e-001
      1.7926939040755907e-001 -1.0512256552400066e+000
      1.8056879573144716e-001 -1.4247497012661220e-001
      3.4669397353712097e+000 1.6574172587813365e+001
      -3.3161217408212124e+001 9.6953399939231688e-001
      -1.1364458462809987e-001 -2.7324152366059304e+000
      2.2094052345696995e+000 -4.6469328781049513e-001
      -4.7998107203940682e-001 6.0786805625942308e-001
      1.3891345357629972e+000 -1.0138229527578937e-002
      1.6196715861046962e+000 1.0515274867094642e+000
      -1.4228153321249100e+000 -1.5542665351017482e+000
      6.8193394901053994e-001 1.1066464747676872e+000
      4.0777402510255667e-001 2.6615674726861469e+000
      -2.2250143833981832e+000 -1.7115249142503905e+000
      1.1377780623747299e-001 -1.4690616544512156e-001
      -3.6348702796566403e+000 -1.1467255083704078e+001
      -3.3996928088582640e-001 2.7122876703617688e-001
      5.1500965844427626e-001 -2.1589276054320630e+000
      -1.1861306327421610e-001 8.5675528725643399e+000
      -1.9601835907798717e+000 -6.9454759270518052e-001
      4.2592326888220873e+000 -1.7522934547797969e-001
      -1.4757636202953353e+000 -2.6796679132331591e-001
      -5.7083298170053511e-002 5.5463416485879300e+000
      -1.2557872347631434e+000 4.0060954867589996e-002
      -2.7112861579621050e-001 -3.1077231708879000e-001
      2.0250414094908784e+000 -2.8768251055996714e+000
      3.8356793193686363e+000 7.7409280116059307e+000
      -6.2568601073529733e+000 8.6176874426005756e-001
      -5.7046170094537996e-001 4.8427437242977961e-001
      -5.8106673417884580e-001 -1.0916932567773785e+000
      -2.6823696660925500e+000 -4.4656636923035481e-001
      1.8579543912107238e-001 -1.0511152307194871e+000
      1.7971677230867913e-001 -1.3747460441397286e-001
      3.4684556734628127e+000 1.6570779584448658e+001
      -3.3163832589062487e+001 9.6109695468257339e-001
      -1.1237599374468142e-001 -2.7338215030036461e+000
      2.2095034276669638e+000 -4.6345993898240412e-001
      -4.7436468736944987e-001 6.0901763385804863e-001
      1.3825785546978375e+000 -2.3784882534371096e-003
      1.6183363306692051e+000 1.0511446902438093e+000
      -1.4290894150056757e+000 -1.5530304613363042e+000
      6.8511366733781320e-001 1.1077812023450033e+000
      4.0579782973699685e-001 2.6643695771279150e+000
      -2.2323238772415128e+000 -1.7101673329317311e+000
      -1.4739316450910867e-001 -1.2245800106977807e-001
      -3.6281777836867972e+000 -1.1464153740115457e+001
      -3.3802029910635772e-001 2.7660077164418084e-001
      5.0912303388896563e-001 -2.1512828252565250e+000
      -1.1971047492033536e-001 8.5748948408110319e+000
      -1.9618545824162068e+000 -6.8847153888790058e-001
      4.2645433092963509e+000 -1.8091722535661167e-001
      -1.4740153221095302e+000 -2.7619963594807290e-001
      -6.4220909633970827e-002 5.5550376373566257e+000
      -1.7539321922879505e-003 -3.4635344423030786e-003
      3.1350962297579115e-003 -1.2685192622885204e-003
      3.4127855102790931e-003 3.7262906856386393e-003
      3.8387974867066339e-003 -6.8446600548566292e-004
      -1.7017383343780807e-003 1.0933893825237741e-003
      -5.0769724157731882e-005 -3.3830093635666449e-003
      3.0559439401566125e-003 1.9797527947827851e-003
      1.1368185792216814e-003 -2.5328976291776762e-003
      3.0914463092867124e-003 2.8963006874189868e-003
      -2.3425318066443179e-003 1.6666312855845408e-003
      3.3702764647711623e-003 1.0126568311895833e-003
      4.0464834477974207e-003 3.8949917857341691e-003
      -3.0987817178481192e-003 1.3927949201488447e-004
      7.5974954433451235e-004 2.3434780708560029e-003
      2.0425997637354581e-003 -9.0755468992997392e-004
      -1.0364792342909708e-003 -4.6615524069678962e-003
      4.2341289121952995e-003 1.7747823180023332e-003
      -3.2449415867533238e-003 2.6551059744635260e-003
      -4.2696489977182370e-003 -5.0586509045160940e-004
      -3.1838892392222068e-003 1.9116836203557140e-003
      3.4653716641715386e-003 -3.3207060835128968e-003
      4.4087239206603420e-003 1.8726169276144498e-003
      4.0377183257365480e-003 4.2826200504757841e-003
      -3.3176367825905862e-003 -4.2323428943688126e-003
      3.5218008358850732e-003 -1.1718600984471713e-003
      2.9873823636395935e-003 1.7715616191934516e-003
      3.6557650127077060e-003 -1.2959586310901253e-003
      2.1391933513112459e-003 -4.7019580740074911e-003
      -4.1563581212314725e-003 1.2161502965804957e-003
      1.2295117136612620e-003 -2.1406416644882578e-003
      -2.5302752373876055e-003 1.4590412678682015e-003
      3.2122333286868604e-003 1.1061994906542731e-003
      5.0613038257430638e-003 -2.1174209150231606e-003
      1.8501080251932041e-004 -4.3034012895009780e-003
      1.3195441196353042e-003 -3.8716296954018278e-003
      -2.2033281888973288e-003 -3.5936353197301494e-003
      -4.7392112259839374e-003 -9.2562346769048680e-004
      3.7904233817787609e-005 3.9862224803989439e-003
      2.2869263167429148e-003 -3.1639375516332854e-003
      3.4399829872048780e-003 -3.9803858927475507e-003
      -4.9205556326454812e-003 -2.7354363632136162e-003
      2.0518547072424778e-004 2.2983664101444007e-003
      -9.4663643104329919e-004 -1.7833889805240692e-003
      -2.9704271654344468e-003 2.3080269615436831e-003
      -1.5325043802801195e-003 -5.0474648594055968e-003
      2.6001866743163198e-003 -1.9280658201928811e-003
      3.0971159810741253e-003 2.0099201755330929e-003
      4.2458693805161561e-003 4.4602490853842503e-003
      5.8128649399249207e-004 -4.1144057517679350e-003
      -1.7559921455509078e-003 4.6685755449669850e-004
      -4.3073867436637147e-003 1.0472842950241612e-003
      5.2200910404656762e-004 -1.6759295392929545e-003
      -3.0685341340016474e-003 1.0600005865705187e-003
      -1.0376465485155667e-003 1.5655894796534409e-003
      9.9087861599806370e-004 -3.3691902270892482e-003
      -4.6746722921180983e-003 -2.1824219889521792e-003
      -3.1296659033813300e-003 3.7892996471744315e-003
      -4.8201205450014465e-003 4.9226964392976172e-003
      -4.1469651045706836e-003 2.5370333440457773e-003
      -1.2399749887851432e-003 -1.5532862054849197e-003
      -1.2520194545418291e+000 7.7106029118769293e-001
      2.1236228118169062e-001 2.4546968244794284e-002
      8.3039157666928065e-001 -2.8852348867228970e+000
      3.8404488314651717e+000 7.7457123882067958e+000
      -7.4454108649371937e+000 8.5803540230086328e-001
      -5.7294055666174626e-001 4.8885899435226748e-001
      -7.0783107927068864e-002 -3.0125613425434866e-001
      -3.0828460244712619e+000 1.3240999004788729e+000
      1.8458704336188658e-001 -1.0421533352080903e+000
      1.7915590395288952e-001 8.6191502216044669e-001
      2.3862473108506159e+000 1.5370203860635504e+001
      -3.3168795854090142e+001 9.6072008431173428e-001
      -4.1372422080201714e+000 -2.7376526833824992e+000
      2.7540956375027332e+000 -3.0299123195450450e-001
      1.7182895420673205e-001 -9.9310499842098932e-003
      4.3133220335903211e-001 5.3120527582728415e-002
      3.4028126444520052e-001 1.0423204938391863e+000
      -1.4228139769796140e+000 -1.8603685615159709e+000
      6.8600284706998405e-001 1.1048150221606257e+000
      1.5238721678551086e+000 2.6589958699823795e+000
      -3.3638311574659974e+000 -7.8712960068285553e-001
      -1.2850236541567020e-001 -5.0139860968311945e-001
      -3.6283282443259806e+000 -1.2621652328509956e+001
      -6.0056435426971770e+000 4.4233770442354803e-001
      1.6499224974358504e+000 -2.1538333942447290e+000
      -7.2409437988702330e-001 8.5708875528268607e+000
      -1.0475918166335512e+000 -6.9199280822006770e-001
      4.2655924199702522e+000 2.0570397183196365e-002
      -1.4714513842399195e+000 -4.9594999069445217e-001
      -1.8790181198884781e-001 5.5550329631155462e+000
      -2.0431265972653495e-001 5.6760088606918419e-002
      6.1524156726609795e-003 3.9807796250042561e-003
      9.5537369231976615e-002 1.0342659923625599e-001
      5.8995570178916434e+000 7.9549035528678891e-001
      -6.5937500744023603e-002 1.0680339322867614e-003
      5.4182818270803491e-003 2.8047504514151549e-002
      -1.7962823166463169e-002 4.5660054956677288e-003
      -1.4969402638796939e-001 2.0970619888792064e-001
      2.5473604715861006e-002 1.6239253048117330e-001
      -5.7513664523897300e-004 1.1826657934592555e+000
      1.6683645648726925e-001 7.9695092722091909e-001
      -9.8847722384290226e-001 3.8292587941166517e-003
      5.2387788484665139e-002 1.1290216259213642e-001
      1.6066854612181439e-002 1.5061114114624008e-001
      -1.4310451412665398e-002 -1.3184704571050496e+000
      1.5686164316813545e+000 4.5405020065339467e-002
      9.1315767114613067e-001 1.0551014011048555e-001
      -1.9474122189062712e-001 -4.3832239538072831e-002
      -2.4089497254656530e-002 -1.5564883095367524e-001
      1.1777215753344825e+000 5.8367988981537694e-002
      -2.9919789576990778e+000 1.7771044403594272e-002
      4.7136533143646402e-002 1.4229103129546961e-001
      6.3203786102369666e-002 2.0333715702577548e-001
      1.6599525293198050e-002 7.5553564995202327e-002
      1.8352701452666875e-002 4.7228884352984002e-002
      7.8410428515583840e-003 1.0049548977298207e-001
      -1.3582942327456740e+000 1.7164837630822719e-002
      6.5931706842236426e-002 1.7566237457819706e-001
      -2.5462375971834461e-001 -1.0594734841066310e-002
      1.8189003891418976e-002 1.1399085184851506e+001
      9.7163960387231893e-002 -4.3496201011770888e-002
      1.7368346177663082e-002 -3.7741407776423520e-002
      8.5211672387965634e-002 -4.9285158200070955e-002
      7.7717237562531416e-001 -1.1183137303879813e-001
      2.8559734691161148e-001 1.3555861401755543e-002
      -4.8969685975366078e-002 -2.8523054266837572e-003
      8.5652339044742509e-002 -2.7676591834934500e-002
      3.4461063917763246e-001 4.3586660882960211e-002
      1.3596792283863851e-001 2.6281012167144475e-002
      5.6904261417557132e-003 2.7545077461146095e-001
      -3.5342885067167246e-001 -3.9456548561581400e-001
      5.4540169777201963e-001 -6.9267657728190411e-003
      -7.5953782506713629e-003 -4.4551883731942639e-002
      3.9068881988175617e-002 3.8703593160692107e-002
      -8.6685755738533488e-002 7.3064873235101657e-001
      1.0380182476732153e-001 6.5729324402847317e-002
      7.6390191100217636e-002 -3.2031767868704313e-002
      3.7011619852092320e-001 7.5881064687698660e-002
      -7.3816189092249490e-002 -4.8474342651774284e-002
      9.8332239184440701e-002 -9.3286629980495264e-002
      -2.4583037033281058e-001 2.0279322776142281e-002
      3.2425263551778168e-002 3.1644483783676564e-001
      4.1687412997281660e-002 1.6470770322370087e-001
      -2.1470140141950627e-002 -1.5548600392081449e-001
      6.4045097933503090e-002 -1.4174286125867527e-001
      -1.3786477238107333e-002 1.5859412168009825e-002
      -1.4656305122819752e-001 -2.1901295602665485e-002
      -3.4108225925730057e-001 -1.0298724039560037e-001
      1.2589382833139032e-001 -3.2416524797050594e-002
      5.5079688416426936e-002 -1.9585156114073182e-001
      -2.5953234378353139e-002 1.5294022422231668e-001
      3.8138337016476329e-002 3.7489257313787494e-002
      1.9550501564711315e-001 1.9827931953440719e-001
      -7.3434176949159036e-001 1.6127327619001616e-001
      -1.3487905580840009e-001 -1.5522436427212561e-002
      1.9361936978668181e-002 3.5454424246922373e-003
      2.6715262034232943e-002 5.8925714471434994e-003
      -4.4494083672154579e-002 -2.5508220353131100e-001
      -7.2877432523883665e-002 5.8911315127005759e-002
      5.3891186426474127e-002 -1.7363847953875408e-001
      2.1323613452704008e-002 5.3283892636813612e-001
      3.4351040838647212e-001 8.2214240480029642e-003
      -1.3782771948392530e-001 1.4164154177652499e-001
      2.0229418766733320e-001 6.6702296442760059e-002
      1.1387903226437145e-002 8.9162459963518781e-001
      -4.9694300773740846e-002 -1.7957575674864629e-002
      -2.7323030137204232e-002 2.5239579409937717e-002
      -6.2422415454508738e-002 -1.8315838415604443e-004
      4.3520769052087266e-002 -2.1455988895031586e-002
      -5.9205346933567923e-002 5.7901888873297336e-002
      -6.0724307930387626e-002 -8.7423634761047871e-003
      -1.5284845222601580e-002 -4.2145330682200405e-001
      2.8869000837699127e-001 -6.7729600499718579e-001
      3.3809919659470181e-002 -1.1303867485465961e-001
      -1.0762159894142190e-001 -1.3306128115085974e-001
      1.5525423556930117e-002 -3.9861252627352857e-002
      1.1223331076960880e-001 1.9011057963459185e-002
      -1.8999865171835612e-001 -9.5546360382347095e-002
      -2.9753701704664545e-003 1.0783025894251707e-002
      1.2635633919373036e-002 -4.6993339571126497e-001
      3.0354885234601107e-002 -1.6095681560960184e-001
      -4.0577644623535220e-002 1.1243832304038748e-002
      1.5165284238887189e-001 2.1457519734362208e-002
      5.0940081151820060e-001 -2.0865260729367696e-001
      5.9744811047389240e-002 3.4121244837824636e-003
      -2.1126541334737969e-002 -2.7660774599745700e-002
      -1.8255932464694550e-003 2.3029911177226570e-003
      2.4005467013502796e-001 8.2010688719773517e-002
      7.1316808454224667e-002 3.1190296384227847e-002
      -5.4089490990191599e-002 6.4453807993108944e-002
      -2.2304163575862102e-001 -6.1018571370576125e-001
      9.9041509396876126e-001 -1.6056905558038355e-002
      4.4000029940235585e-001 1.0204715990230344e-001
      -9.0896043900813628e-002 -3.7659667328725784e-002
      -3.1801602464223287e-003 -2.6329991019245813e-001
      8.7730442945182285e-002 -1.0675573630567334e-001
      5.7957013660247310e-002 -8.3580576145142693e-002
      -1.4538482019944424e-001 7.0971984313616551e-002
      9.0979251148014167e-002 -1.4548240288460456e-002
      7.5395638358425110e-002 -1.5937493701761654e-001
      -3.9936872215209746e-001 -5.2712605855735291e-002
      -1.2408883132268192e-001 5.9777187712926128e-001
      4.6968239062508288e-001 9.7329873976085857e-001
      -9.1308986554782447e-003 -1.0502137993804192e-001
      2.0414063358246252e-002 -9.7873360868529040e-003
      -1.1973895941345718e-002 -3.7564694386358349e-001
      -7.7582310353476527e-002 2.0898924613729365e-002
      1.6079174559982584e-001 1.0213356712525835e-001
      2.0232520819020813e-002 -1.5281401789436667e-002
      -7.4873361380681430e-002 1.2709544456669133e+000
      9.3650432394361077e-002 1.5382532878051630e-001
      -2.2744786654468482e-002 -7.8021917381333142e-002
      -3.0393067577992657e-002 -7.4478304925293101e-002
      2.7964385276959886e-001 3.6452026737893030e-002
      -1.3509425056862076e-001 6.0459748437705393e-002
      -9.6188825004336898e-002 5.5730634259109527e-002
      1.4566905356950025e-001 -8.1487168806454499e-002
      -1.2458323384203418e-001 7.1600287348516645e-002
      1.6510042021938332e-002 -2.4721315740339627e-002
      -1.1169399153200640e-002 -1.0488306690210940e-001
      6.4753280629808910e-002 1.2944844778696224e-001
      2.0060358360780972e+000 1.0577207587341983e-001
      -3.0652051396756452e-001 -1.3689055543839462e-001
      7.4374169364654699e-002 5.8617357172023613e-002
      -3.1587068396558185e-002 9.6831188394135626e-001
      -5.0556872786626010e-002 3.3007512104462997e-002
      -4.8640081405525164e-002 1.3874963906036206e-001
      -8.9748787867797483e-002 -1.2754132740852522e-001
      9.0125288572732113e-003 -3.6772622726901794e-002
      -3.6707994986770694e-002 1.5647431561337247e-001
      -1.5954901624840157e-001 1.1147389785847531e-001
      -8.5992284559162774e-003 -1.9921155167570601e-001
      1.0797016785058861e-001 1.7493258145482964e-002
      -5.9524547216921520e-002 4.5683471811906275e-002
      1.1970845714512580e-001 -1.4602082755892357e-001
      -6.5075911955651530e-002 -4.7013961515345948e-001
      1.8602499824101845e-001 -8.7102260894812350e-002
      -2.1852503749107410e-001 3.7946139049167049e-001
      1.4997994599195286e-001 -6.2814793354211396e-004
      1.0448317163768214e-001 -1.0049099836355777e+000
      9.6895040130269866e-002 2.5873309283431706e-002
      1.0030903107502064e-001 1.4528503080960209e-002
      4.3689257124490394e-001 1.2997543104063161e-001
      -1.8654165497063441e-001 2.6414554917180200e-001
      1.7297557219971305e-001 -4.0848483321645111e-002
      7.5529049052200883e-002 -2.5831135159851373e-002
      -2.7217748211724402e-001 4.9595841320945799e-002
