<?xml version="1.0"?>
<opencv_storage>
<my_svm type_id="opencv-ml-svm">
  <svm_type>C_SVC</svm_type>
  <kernel><type>LINEAR</type></kernel>
  <C>10.</C>
  <term_criteria><epsilon>9.9999997764825821e-003</epsilon>
    <iterations>2147483647</iterations></term_criteria>
  <var_all>400</var_all>
  <var_count>400</var_count>
  <class_count>32</class_count>
  <class_labels type_id="opencv-matrix">
    <rows>1</rows>
    <cols>32</cols>
    <dt>i</dt>
    <data>
      0 1 2 3 4 5 6 7 8 9 10 11 12 13 14 15 16 17 18 19 20 21 22 23 24
      25 26 27 28 29 30 31</data></class_labels>
  <sv_total>496</sv_total>
  <support_vectors>
    <_>
      0. 0. 0. 0. 0. 0. 0. 0. 0. 0. 0. 0. 0. 0. 0. 0. 0. 0. 0. 0. 0. 0.
      0. 0. 0. 0. 0. 0. 0. 0. 0. 0. 0. 0. 0. 0. 0. 0. 0. 0. 0. 0. 0. 0.
      -3.75271018e-004 -7.99811736e-004 -3.05588299e-004
      -8.22652437e-005 4.79754002e-004 -3.77207733e-004 9.48298009e-007
      1.32569199e-004 -6.26077468e-004 -4.46663995e-004 -2.37078028e-004
      2.62832065e-004 3.84002087e-005 3.06657021e-005 0. 0. 0. 0.
      -3.93133814e-005 -7.68794998e-005 -5.53706253e-004
      -6.24971231e-004 3.91373440e-004 -6.76566706e-005 1.25792599e-003
      4.51957836e-004 -4.95960339e-005 1.00564095e-003 1.35835167e-003
      -4.44380508e-004 3.54517979e-004 1.62850134e-004 1.20196368e-004
      5.47974705e-005 0. 0. 0. 0. -9.52257396e-005 -1.97084679e-004
      -3.56635865e-004 4.06573439e-004 -1.62976459e-004 -3.50201299e-004
      -3.69195652e-004 6.28792404e-005 4.89516999e-004 1.85519733e-004
      3.95812909e-004 -7.18347670e-004 3.29452945e-004 -2.53889593e-004
      3.25388741e-004 5.58388747e-005 0. 0. 0. 0. -1.23181919e-004
      -1.97176836e-004 -9.65885120e-005 9.70761175e-004 -1.20113160e-004
      1.00016652e-003 -2.98870465e-004 -7.78601971e-004 4.24969388e-004
      5.40209003e-004 3.21588101e-004 3.33559467e-004 -1.28956119e-004
      1.21547761e-004 1.86239486e-004 -5.05085845e-005 0. 0. 0. 0.
      -1.24929182e-004 -4.66757119e-005 6.61469967e-005 2.89278862e-004
      3.06368282e-004 -2.96965678e-004 5.20407521e-005 5.54776401e-004
      5.27519442e-004 -1.49510487e-003 -9.00710700e-004 -4.30739630e-004
      5.01506263e-004 -2.65669281e-004 1.11987029e-004 7.42416596e-005
      0. 0. 0. 0. -1.10951092e-004 -9.26048524e-005 7.20732060e-005
      2.94699392e-004 2.22083926e-003 8.41691581e-005 5.31355210e-004
      1.71733045e-005 3.52552132e-004 -1.05679431e-003 -6.27054833e-004
      -6.29663991e-004 6.39609862e-005 3.54101183e-004 4.18167940e-004
      2.18617104e-004 0. 0. 0. 0. -2.97034421e-005 -2.53352900e-005
      -4.10606408e-005 -1.77368347e-004 -2.03956108e-004 2.62605579e-004
      -3.31938172e-005 -1.30647863e-003 -3.34188947e-003
      -1.78412156e-004 5.87937306e-004 1.08517939e-003 3.02255212e-004
      1.93442858e-004 1.87782527e-004 1.39583921e-004 0. 0. 0. 0. 0. 0.
      -2.96332873e-005 -2.40814174e-004 -7.40458956e-004
      -3.67949542e-004 -8.76841077e-004 -6.51480281e-004
      -9.03847511e-004 -1.14641746e-003 -1.26646378e-003
      -4.65103949e-004 3.22680513e-004 3.09937692e-004 2.05368880e-004
      1.15262483e-004 0. 0. 0. 0. 0. -4.37239032e-005 -1.40266347e-004
      -5.08686644e-004 -1.50815031e-004 1.12236198e-003 2.25410424e-003
      1.36484473e-003 -3.24214707e-005 -8.01679489e-005 -2.05717282e-003
      -1.07844721e-003 -1.46208704e-003 -4.48425824e-004 1.03903403e-004
      6.34472372e-006 0. 0. 0. 0. -1.76503439e-004 -3.44430620e-004
      -4.62097349e-004 3.27897753e-004 1.63752236e-003 2.57442449e-003
      3.03395744e-003 2.98394985e-003 -4.02454403e-004 -1.12070376e-003
      -2.65523815e-003 -2.47204304e-003 -1.87941419e-003
      -5.66296862e-004 1.40641379e-004 0. 0. 0. 0. 0. -3.02568165e-004
      -4.88099118e-004 -1.85333934e-004 2.53487000e-004 7.22269644e-004
      1.49874960e-003 1.44922093e-003 3.24086659e-003 4.70326981e-004
      -3.30461538e-003 -2.77858507e-003 -1.40797975e-003
      -1.56631332e-003 -8.72781035e-004 -3.57757090e-004 0. 0. 0. 0. 0.
      -3.05627676e-004 -3.08151357e-004 -8.94891855e-004
      -8.30478501e-004 -2.95513764e-005 1.62842136e-003 2.21090508e-003
      2.79421359e-003 -2.09065489e-004 -6.67586341e-004 -1.39607838e-003
      -2.43360968e-003 -1.13910681e-003 -6.82711310e-004
      -1.82200893e-004 0. 0. 0. 0. 0. -3.12762422e-004 -6.59833022e-004
      -1.17817114e-003 -2.75590312e-004 1.53172144e-003 8.57621606e-004
      1.79979869e-003 8.96001118e-004 3.40080063e-004 7.54819892e-004
      -7.90520280e-004 -5.48009470e-004 -5.03497955e-004
      -4.58200870e-004 0. 0. 0. 0. 0. 0. 2.54741317e-004 6.42005121e-004
      -4.61181509e-004 6.26138586e-004 5.34659775e-004 6.93527691e-004
      9.22193169e-004 4.93295141e-004 9.32348834e-004 -1.55886009e-004
      8.24848772e-004 9.50999442e-004 1.19938624e-004 -2.38499197e-004
      0. 0. 0. 0. 0. 0. 2.17714944e-004 1.14410206e-004 2.15347289e-004
      1.40692852e-003 9.09577415e-004 -3.07876944e-005 3.62523388e-005
      -4.74529486e-004 2.12054336e-004 1.73029926e-004 5.11960767e-004
      3.50115472e-004 2.05877004e-004 2.96087110e-005 0. 0. 0. 0. 0. 0.
      8.88261347e-005 -3.61297512e-004 -3.07982089e-004 6.01884269e-004
      4.49689629e-004 -1.75914960e-004 -2.51836522e-004 -4.26290877e-004
      -6.40530270e-005 3.90126486e-004 3.81503574e-004 -2.39240544e-004
      -1.22093246e-004 6.45046894e-005 0. 0. 0. 0. 0. 0. 0. 0. 0. 0. 0.
      0. 0. 0. 0. 0. 0. 0. 0. 0. 0. 0. 0. 0. 0. 0. 0. 0. 0. 0. 0. 0. 0.
      0. 0. 0. 0. 0. 0. 0. 0. 0. 0. 0.</_>
    <_>
      0. 0. 0. 0. 0. 0. 0. 0. 0. 0. 0. 0. 0. 0. 0. 0. 0. 0. 0. 0. 0. 0.
      0. 0. 0. 0. 0. 0. 0. 0. 0. 0. 0. 0. 0. 0. 0. 0. 0. 0. 0. 0. 0. 0.
      0. 0. 2.87264584e-006 3.77423567e-004 6.50069327e-004
      6.55976590e-004 5.61637105e-004 9.78684635e-004 1.14640250e-004
      -3.23807850e-004 -3.51331313e-004 -1.99088347e-004
      -9.27559668e-005 0. 0. 0. 0. 0. 0. 0. 0. 1.64984900e-004
      4.97620087e-004 5.91684715e-004 1.22728047e-003 3.26868118e-004
      4.31521155e-004 6.03483641e-004 6.52198098e-004 -5.50035969e-004
      -7.92958541e-004 -1.86177887e-004 -2.75124621e-005 0. 0. 0. 0. 0.
      0. 0. 4.71317435e-006 2.21775364e-004 7.34331552e-004
      1.14828802e-003 1.10930006e-003 -1.47090264e-004 2.78995838e-004
      5.08260448e-004 1.89061553e-004 -2.82801484e-004 -1.54622525e-004
      -1.06600106e-004 8.91052041e-005 1.51596510e-006 0. 0. 0. 0. 0. 0.
      7.74307227e-006 2.78336141e-004 8.19458161e-004 1.47215312e-003
      1.15505978e-003 5.49454940e-004 9.64318097e-005 -6.93348920e-005
      -4.11487708e-004 -1.61799908e-004 3.90598987e-004 3.91088950e-004
      3.03165987e-004 1.20406585e-005 0. 0. 0. 0. 0. 0. 6.19445746e-006
      1.38660485e-004 5.57975727e-004 5.70302422e-004 1.05173443e-004
      -3.58463847e-004 -7.67018413e-004 -6.14912773e-004
      -1.62767523e-004 4.36660630e-004 9.97146359e-004 5.18439047e-004
      4.28162282e-004 3.36016201e-005 0. 0. 0. 0. 0. 0. -1.62780611e-006
      3.49628463e-005 2.28051940e-004 5.74119098e-004 -3.11924639e-004
      -9.75010626e-004 -7.17643125e-004 -1.88131147e-004 1.42067569e-004
      8.48376309e-004 9.22323263e-004 6.36788609e-004 3.50484042e-004
      3.65887754e-005 0. 0. 0. 0. 0. -2.90866274e-006 -3.72476643e-005
      -9.82777055e-005 -6.81718084e-005 -3.98359058e-004
      -6.66640757e-004 -4.83962445e-004 -5.23008639e-004
      -3.43570806e-004 4.09398548e-004 1.05868804e-003 9.44225292e-004
      4.92229301e-004 1.80290052e-004 1.58644416e-005 0. 0. 0. 0.
      -1.79441145e-006 -1.81267715e-005 -7.23504563e-005
      -4.01832687e-004 -1.16987911e-003 -8.55679915e-004
      -5.71833341e-004 -2.09059610e-004 -3.92014364e-004 2.06718323e-004
      3.40493629e-004 7.69576349e-004 7.16800045e-004 2.72892124e-004
      6.03527296e-005 0. 0. 0. 0. 0. -1.64339599e-005 -1.47530314e-004
      -2.86754570e-004 -1.27773068e-003 -1.50728680e-003
      -2.01349409e-004 5.12408042e-005 -2.79978063e-004 -8.89187097e-004
      1.15352152e-004 -1.94461303e-004 1.50465028e-004 3.17173224e-004
      1.26603787e-004 6.84780389e-006 0. 0. 0. 0. 0. -1.09842760e-004
      -2.60442728e-004 -6.07377617e-004 -1.37578952e-003
      -5.99011779e-004 -1.56517155e-004 2.16412795e-004 9.64646533e-005
      -7.09437358e-004 -8.59871856e-004 -1.06652593e-003
      -4.33005334e-004 -2.52063095e-004 -2.49444547e-005 9.23821062e-006
      0. 0. 0. 0. 0. -3.04223722e-005 -7.53329296e-005 -3.88812012e-004
      -4.21462260e-004 -4.46973310e-004 -4.61811724e-005
      -2.62995833e-004 -3.13104480e-004 -9.02718166e-004
      -1.48614706e-003 -1.10953860e-003 -1.11836602e-003
      -5.36544540e-004 -1.10635163e-004 -7.23785388e-006 0. 0. 0. 0. 0.
      1.65960828e-005 3.81644786e-005 1.88697741e-004 -3.42472194e-005
      3.56594479e-004 6.20639301e-004 6.24778622e-004 -2.72537727e-004
      -1.01287966e-003 -1.01659785e-003 -2.83605186e-004
      -2.38397552e-004 -3.85246181e-004 -1.07276341e-004
      -4.31487433e-006 0. 0. 0. 0. 0. 6.29737906e-006 9.86200612e-005
      9.80375044e-005 2.09509584e-004 5.59283362e-004 1.24868448e-003
      6.48603775e-004 3.92712100e-004 -7.64000797e-005 3.25688889e-004
      5.14783023e-004 3.31755931e-004 -1.28138330e-004 -7.50859690e-005
      -2.56536332e-005 0. 0. 0. 0. 0. 1.89355324e-005 1.46116523e-004
      2.17414665e-004 1.57457049e-004 4.77933325e-004 8.41565547e-004
      3.89722642e-004 3.29704199e-004 -5.90123469e-004 -4.52906592e-004
      3.50648683e-004 8.56453044e-005 -1.16923467e-004 -7.82435818e-005
      -4.27560553e-005 0. 0. 0. 0. 0. 1.54616591e-005 1.25858453e-004
      -3.46427851e-006 -2.12939689e-004 4.74685919e-004 7.38348463e-004
      4.17570875e-004 -3.86726839e-004 -1.53368368e-004 9.17821671e-005
      -7.08224252e-005 -3.57486511e-004 -2.23201030e-004
      -8.45696704e-005 -2.47985136e-005 0. 0. 0. 0. 0. 9.40198788e-007
      1.22882248e-005 -2.52986647e-005 4.20905781e-005 1.86915917e-004
      -2.79756750e-005 -3.96094460e-004 -5.20814676e-004
      -2.23319192e-004 -2.72568781e-004 -2.66683375e-004
      -3.92075599e-004 -1.98335969e-004 -4.42931669e-005 0. 0. 0. 0. 0.
      0. 0. 0. 0. 0. 0. 0. 0. 0. 0. 0. 0. 0. 0. 0. 0. 0. 0. 0. 0. 0. 0.
      0. 0. 0. 0. 0. 0. 0. 0. 0. 0. 0. 0. 0. 0. 0. 0. 0.</_>
    <_>
      0. 0. 0. 0. 0. 0. 0. 0. 0. 0. 0. 0. 0. 0. 0. 0. 0. 0. 0. 0. 0. 0.
      0. 0. 0. 0. 0. 0. 0. 0. 0. 0. 0. 0. 0. 0. 0. 0. 0. 0. 0. 0. 0. 0.
      0. 0. -6.05453934e-005 -2.63421389e-004 2.60599656e-004
      5.65577902e-005 -4.33745436e-006 -6.13361408e-005 1.23511463e-005
      -1.71112100e-004 7.38484450e-005 5.09292568e-006 8.57895975e-006
      0. 0. 0. 0. 0. 0. 0. 1.63764400e-006 -6.42522355e-005
      5.69493495e-005 -2.59596243e-004 5.58263564e-004 -4.33602807e-004
      -1.94891749e-004 -3.11952928e-004 -7.04327078e-007
      -6.36454672e-004 2.55405233e-004 1.71854103e-004 7.26304715e-005
      -5.96128448e-005 0. 0. 0. 0. 0. 0. 3.54961867e-006 1.03142520e-004
      8.17617343e-004 -2.69218523e-004 -3.13030789e-004 4.41150449e-004
      3.82132021e-005 1.80453426e-004 1.92637526e-005 4.84928023e-005
      8.42694310e-004 5.61989204e-004 1.30814558e-004 2.53635608e-006 0.
      0. 0. 0. 0. 0. -1.64585927e-005 9.75608637e-005 3.87220382e-004
      2.34449690e-004 -5.86596143e-005 -6.60062127e-004 -3.16753052e-004
      3.57923418e-004 7.47557206e-004 5.03946620e-004 8.62434215e-004
      5.17969427e-004 1.79521492e-004 1.78052083e-004 0. 0. 0. 0. 0. 0.
      6.59772559e-005 7.21707300e-004 -2.41672897e-005 5.35226627e-006
      5.48398704e-004 8.23835799e-005 6.25985733e-004 7.51361309e-004
      8.40158726e-004 6.39545382e-004 8.84991256e-004 1.00640382e-003
      4.35333379e-004 3.68739461e-006 0. 0. 0. 0. 0. 0. 7.33613479e-006
      1.38609985e-005 -3.48659407e-004 -1.13578331e-004 -1.30714080e-003
      -2.02191458e-003 -1.27179828e-003 2.62954796e-004 1.33857329e-003
      9.52585135e-004 6.55303185e-004 5.44060080e-004 4.75063454e-004
      -6.74059265e-006 0. 0. 0. 0. 0. 0. -8.97115387e-005
      -3.33067699e-004 -1.45225821e-003 -1.59232295e-003
      -2.07551708e-003 -1.38719589e-003 -1.27278513e-003 1.52716355e-004
      1.62373856e-003 1.72373292e-003 7.85781885e-004 1.86546371e-004
      1.20964170e-004 0. 0. 0. 0. 0. 0. 0. -1.11635607e-004
      -4.29387961e-004 -7.92206964e-004 -1.56097661e-003
      -1.16612867e-003 -6.45696418e-005 -4.36991919e-004 2.89902906e-004
      -4.77728492e-004 -1.60357711e-004 4.40022413e-004 -2.41299276e-004
      5.33452403e-005 0. 0. 0. 0. 0. -1.28549323e-006 -2.57098645e-006
      -1.87295358e-004 -7.39080890e-004 -9.11663519e-004
      -9.87226260e-004 -7.67768186e-004 -3.53146868e-004
      -9.50258167e-004 -2.15265216e-004 -6.67876797e-004
      -6.83416845e-004 -6.73028699e-004 -5.63613605e-004
      -8.11863574e-005 0. 0. 0. 0. 0. -1.79969047e-005 -5.76648308e-005
      -2.37911692e-004 -6.99130411e-004 7.16037175e-004 1.34079892e-003
      1.04774255e-003 1.14652060e-003 3.46239191e-004 -3.68087902e-004
      -1.56371889e-003 -1.73617341e-003 -9.46363027e-004
      -4.83995595e-004 -6.86961503e-005 0. 0. 0. 0. 0. -2.56326275e-005
      -1.08996763e-004 -4.80886520e-004 -6.11402094e-004
      -3.01385648e-004 1.89180509e-003 1.07287173e-003 3.36336088e-004
      -3.28237133e-004 -1.04042236e-003 -9.89194959e-004
      -1.08361302e-003 -7.40461343e-004 -4.21086326e-004
      -6.24510430e-005 0. 0. 0. 0. 0. -1.97773043e-004 -3.05198861e-004
      -6.03302382e-004 -5.59881271e-004 -3.71082308e-004 1.37098937e-003
      9.04202112e-004 3.45906228e-005 3.78587691e-004 -2.13394538e-004
      -5.23692986e-004 -8.74007121e-004 -4.95453831e-004
      -1.44183839e-004 -2.18578662e-005 0. 0. 0. 0. 0. -2.17515568e-004
      -4.44531295e-004 -3.28105700e-004 -4.98650188e-005 6.52186864e-004
      3.26258189e-004 1.90369564e-003 1.18691195e-003 -3.99861980e-004
      1.93566681e-004 -3.51831433e-004 5.00988623e-004 -2.60007830e-004
      1.50663254e-005 0. 0. 0. 0. 0. 0. -3.99807686e-005 1.97069283e-004
      6.94070877e-006 -3.67214743e-005 -6.12081203e-005 5.29359750e-005
      -3.63191910e-004 1.01031491e-003 7.56350055e-005 2.74166756e-004
      9.12018353e-004 6.21869054e-004 -8.11600548e-005 3.27528801e-006
      0. 0. 0. 0. 0. 0. 4.88436854e-005 1.05440609e-004 -1.40963195e-004
      5.40427973e-005 6.15879253e-004 1.83754455e-004 -1.14936149e-004
      8.34471022e-004 7.82784482e-004 2.49283883e-004 2.77642190e-004
      2.98458704e-004 9.99200711e-006 0. 0. 0. 0. 0. 0. 0. 0.
      -1.13102302e-004 -1.90452221e-004 8.00657872e-005 4.79481969e-004
      -1.31202425e-004 -1.25381688e-004 -3.70115362e-004
      -7.17453586e-005 2.01650866e-004 8.80875814e-005 -3.39953767e-005
      0. 0. 0. 0. 0. 0. 0. 0. 0. 0. 0. 0. 0. 0. 0. 0. 0. 0. 0. 0. 0. 0.
      0. 0. 0. 0. 0. 0. 0. 0. 0. 0. 0. 0. 0. 0. 0. 0. 0. 0. 0. 0. 0. 0.
      0. 0.</_>
    <_>
      0. 0. 0. 0. 0. 0. 0. 0. 0. 0. 0. 0. 0. 0. 0. 0. 0. 0. 0. 0. 0. 0.
      0. 0. 0. 0. 0. 0. 0. 0. 0. 0. 0. 0. 0. 0. 0. 0. 0. 0. 0. 0. 0. 0.
      -3.77212331e-004 -1.35268026e-003 -3.35264229e-003
      -7.06366147e-004 -7.93473271e-004 1.52229529e-003 1.03482453e-003
      3.08652665e-003 -3.24184238e-003 -3.42725252e-004 -1.91045960e-003
      -1.06339948e-003 7.56031077e-004 2.41305548e-004 0. 0. 0. 0. 0. 0.
      -1.99774560e-003 -2.20590108e-003 -1.05302827e-003 4.62243479e-004
      -3.31917731e-003 -3.18551040e-003 2.70312792e-003 3.96186346e-003
      -7.79718743e-004 -2.93172384e-003 -4.37759887e-003
      -2.44667684e-003 1.35998405e-003 6.93561858e-004 0. 0. 0. 0. 0.
      4.50900661e-005 -1.78635377e-003 -1.77907699e-003 -1.39462602e-004
      -3.92105989e-003 -9.81469406e-004 -8.89676041e-004 2.45466563e-005
      -2.63048103e-003 -6.85925421e-004 -2.81958515e-003
      -9.58326098e-004 -3.21971229e-003 -4.46761725e-004 1.49552343e-005
      0. 0. 0. 0. 0. 4.83197975e-004 -9.99263604e-004 -7.10105523e-004
      8.18389526e-004 5.23056311e-004 -2.94672139e-003 -1.07564370e-003
      -4.70027281e-003 -4.34439443e-003 8.59251828e-004 -3.96786164e-003
      3.89612833e-004 2.76252074e-004 1.06576830e-003 2.61189474e-004 0.
      0. 0. 0. 0. 6.58753794e-004 -6.79143879e-004 -2.04106516e-004
      -1.51166960e-003 1.17866893e-003 1.68172363e-003 -1.26446667e-003
      -6.90842629e-004 -2.73543061e-003 -1.67917437e-003
      -1.59412157e-003 -2.83159828e-003 -8.82361433e-004
      -1.63261619e-004 -9.77968448e-004 0. 0. 0. 0. 0. 6.97259267e-004
      1.06466271e-003 1.78355933e-003 6.27352041e-004 7.67250094e-005
      1.49376399e-004 -5.72503777e-003 -6.40996639e-003 3.43142689e-004
      1.20606343e-003 1.01712381e-003 7.71433231e-004 -1.09537120e-003
      2.03847216e-004 -2.56688916e-004 0. 0. 0. 0. 0. 1.04588893e-004
      2.89672433e-004 1.34250219e-003 2.17409269e-003 1.09603396e-003
      1.63789093e-003 1.42313121e-003 -4.11340175e-003 -7.19229793e-005
      -1.56270235e-003 6.74418057e-004 3.74784856e-003 -7.54348177e-004
      5.69887052e-004 1.64399768e-004 0. 0. 0. 0. 0. 0. -4.67935170e-004
      -7.79708149e-004 3.45380657e-004 -2.38776222e-004 -3.61101585e-003
      -1.84468098e-003 -1.47654919e-003 -1.74848898e-003 1.99461542e-003
      3.81821161e-003 8.32073158e-004 -1.04620110e-003 7.50710780e-004
      0. 0. 0. 0. 0. 0. 0. -4.67935170e-004 2.69446955e-005
      -1.25821785e-003 8.83141882e-004 1.04667735e-004 -4.30357672e-004
      -1.24658656e-003 -3.33620701e-003 -3.48607427e-004
      -4.96271416e-004 -3.32913740e-004 -5.26243646e-004
      -2.00178256e-004 0. 0. 0. 0. 0. 2.47313757e-004 8.16093641e-004
      2.50159297e-004 -8.00291309e-004 3.97867616e-003 1.38703967e-003
      -1.01802743e-003 1.56893395e-003 2.43746064e-004 -2.92162620e-003
      -3.99600016e-003 -2.52900063e-003 -1.80801388e-003 8.25472700e-004
      6.20115083e-004 0. 0. 0. 0. 0. 7.29778258e-005 7.43790239e-004
      1.11728255e-003 1.40239717e-003 1.69198355e-003 7.71392486e-004
      9.84285958e-004 6.81107631e-004 6.80955069e-004 -1.15784758e-003
      6.23592234e-004 2.88645457e-003 1.20491408e-004 6.20115083e-004 0.
      0. 0. 0. 0. 0. -2.96774320e-004 2.64707860e-003 5.38952695e-003
      2.28455593e-003 2.47554691e-003 4.69351327e-003 2.07231799e-003
      1.85429677e-003 1.34277856e-003 2.12341687e-003 4.69596731e-003
      3.59458919e-003 8.78720311e-005 -2.28613535e-005 0. 0. 0. 0. 0. 0.
      9.13812430e-004 4.13075701e-004 1.43912993e-003 3.20712948e-004
      5.35058789e-003 1.12929975e-003 3.76682903e-004 4.25273878e-003
      1.41746574e-003 9.52566508e-004 5.76793123e-003 4.58008982e-003
      3.61806102e-004 -6.58239122e-004 1.62160504e-005 0. 0. 0. 0. 0.
      9.85452556e-004 1.05333235e-003 2.82766297e-003 2.09130207e-003
      1.74843764e-003 1.85508063e-004 2.67126341e-003 3.54256295e-003
      2.11923453e-003 1.60198309e-003 5.76397078e-003 5.26287593e-003
      5.64524147e-004 1.23720514e-004 1.62160504e-005 0. 0. 0. 0. 0.
      1.10351038e-003 3.04926827e-004 -1.35844841e-003 1.36022782e-005
      8.55776831e-004 3.05381720e-003 1.78514095e-003 5.98441903e-003
      -3.49771472e-005 -1.29031585e-004 6.44912710e-004 9.21134662e-004
      2.78205524e-004 -3.62525141e-004 1.31108491e-005 0. 0. 0. 0. 0.
      -6.83344901e-004 -9.23072046e-004 -2.67467299e-003
      -1.64358097e-003 6.48638117e-004 1.30410260e-003 -8.08738638e-004
      2.29745382e-003 4.12154128e-004 -1.93271390e-003 -4.76984482e-004
      4.62629163e-004 5.72630903e-004 -2.40384616e-004 2.82918318e-005
      0. 0. 0. 0. 0. 0. 0. 0. 0. 0. 0. 0. 0. 0. 0. 0. 0. 0. 0. 0. 0. 0.
      0. 0. 0. 0. 0. 0. 0. 0. 0. 0. 0. 0. 0. 0. 0. 0. 0. 0. 0. 0. 0.</_>
    <_>
      0. 0. 0. 0. 0. 0. 0. 0. 0. 0. 0. 0. 0. 0. 0. 0. 0. 0. 0. 0. 0. 0.
      0. 0. 0. 0. 0. 0. 0. 0. 0. 0. 0. 0. 0. 0. 0. 0. 0. 0. 0. 0. 0. 0.
      0. 9.75131206e-006 5.74453297e-005 1.42261502e-004 2.74846680e-004
      -9.39291931e-006 4.69882652e-004 5.66936273e-004 -7.44287099e-005
      -4.26245417e-004 -1.71324617e-004 -2.98930104e-006
      -8.54342361e-005 0. 0. 0. 0. 0. 0. 0. 8.36868003e-006
      6.25998873e-005 1.01680555e-004 1.77498223e-004 8.06157885e-004
      -6.90484070e-004 1.11917628e-003 3.33829230e-004 7.40733929e-004
      -4.00746678e-004 6.82240643e-004 1.23571910e-004 -1.30930319e-004
      0. 0. 0. 0. 0. -2.10002236e-005 -1.62751734e-004 -1.09982473e-004
      1.89153681e-004 -1.16040785e-004 3.14357865e-004 3.01499938e-004
      -1.24851140e-004 4.46862134e-004 1.37641886e-003 7.52061605e-004
      -1.71817708e-004 -7.04381382e-004 3.22680193e-004 1.11577654e-004
      1.23848831e-005 0. 0. 0. 0. -6.30006689e-005 -5.17424021e-004
      -4.64701705e-004 -3.37113706e-005 -3.17426457e-004
      -1.28193031e-004 3.48341739e-004 -1.86673715e-004 4.92869411e-004
      3.31357616e-004 2.36526292e-004 2.32941675e-004 -1.94189677e-004
      8.30695790e-004 3.10618605e-004 3.89288543e-005 0. 0. 0. 0. 0.
      2.39510409e-005 -8.46585681e-005 -2.74465565e-004 -3.93406313e-004
      -3.80131736e-004 4.98607755e-004 6.15303288e-004 5.09443809e-004
      -2.83324247e-004 1.90797664e-006 -1.58392984e-004 5.24413714e-004
      2.75478495e-004 1.20487399e-004 3.85003841e-005 0. 0. 0. 0. 0.
      2.79782071e-005 -4.66429447e-005 -4.99070506e-004 -3.23955581e-004
      -3.36449273e-004 -8.01137008e-004 -7.00724369e-004 2.81480199e-004
      6.79243472e-004 -2.81273678e-004 1.99996910e-004 2.43146424e-004
      1.39737022e-004 -1.40566714e-004 -2.26426928e-004 0. 0. 0. 0. 0.
      8.47824504e-006 -3.97153490e-005 -4.34330927e-004 -7.53272558e-004
      -1.22745812e-003 -2.87365285e-003 -1.85410166e-003
      -1.14769174e-003 4.39409923e-004 6.23401313e-004 4.72015003e-004
      2.50932062e-004 -2.23310213e-004 -2.84534413e-004 -7.56987502e-005
      0. 0. 0. 0. 0. 0. -1.78493894e-004 -7.41693773e-004
      -1.78438576e-003 -2.15542340e-003 -2.16127443e-003
      -1.14640198e-003 -1.01864396e-003 -4.11444693e-004
      -4.76908695e-004 1.00244273e-004 -3.10795876e-004 -8.65716283e-005
      2.66532134e-005 0. 0. 0. 0. 0. 0. -1.14706236e-004
      -5.59326552e-004 -1.13019266e-003 -1.26045197e-003
      -1.16654322e-003 -1.22003059e-003 -5.04571712e-004
      -1.58061943e-004 -5.23787516e-004 -1.43736415e-003
      -1.74315332e-003 -7.02589925e-004 9.13572585e-005 3.87241198e-006
      0. 0. 0. 0. 0. -7.84832155e-005 -3.18113220e-004 -1.08581968e-003
      -3.64263047e-004 -2.59381573e-004 2.10256825e-004 6.98395888e-004
      3.07286246e-005 2.89399381e-004 -1.13813253e-003 -1.99759612e-003
      -1.33382576e-003 -4.77757072e-004 -5.17863373e-004
      -6.79151635e-005 0. 0. 0. 0. 0. -2.59161054e-004 -6.62146718e-004
      -1.48452120e-004 2.66018324e-004 -7.69323728e-004 1.69197283e-005
      1.10637955e-003 1.11524388e-003 6.97179581e-004 -1.98724191e-003
      -1.37779454e-003 -1.09707331e-003 -1.72370219e-005
      -9.02700995e-004 -2.25752403e-004 0. 0. 0. 0. 0. -2.83410598e-004
      -4.43107638e-005 7.12930108e-004 -1.35893701e-004 3.53504583e-004
      1.03361683e-003 1.24901324e-003 1.53922173e-003 2.71943572e-004
      5.64491675e-005 -6.73930335e-004 -1.17557717e-003 -1.18314558e-004
      -9.23815765e-004 -2.15252294e-004 0. 0. 0. 0. 0. -6.80591620e-005
      -1.67801147e-004 2.08643833e-004 6.09818147e-004 2.02484676e-004
      9.55609081e-004 2.09439057e-003 1.07687782e-003 8.76359874e-004
      -3.51817871e-005 3.87529464e-004 1.02342994e-004 1.11466317e-004
      -9.81049612e-004 -2.25752403e-004 0. 0. 0. 0. 0. 1.68494458e-004
      -4.24853424e-005 -2.61832465e-004 7.19287782e-004 8.39370405e-005
      3.07764043e-004 -1.75531270e-004 1.34571956e-003 1.16353986e-004
      1.21101178e-003 1.40270253e-003 3.44625150e-004 -4.00066056e-004
      -1.15434267e-003 -2.03121948e-004 0. 0. 0. 0. 0. 1.28097789e-004
      1.21185411e-004 -2.77626299e-004 9.39738995e-004 1.09475874e-003
      2.19270354e-004 -2.81065062e-004 5.11739228e-004 -3.09178795e-005
      -2.65589159e-004 -5.76120947e-005 -6.72870607e-004
      -1.40151809e-004 -1.89028098e-004 -3.67503926e-005 0. 0. 0. 0. 0.
      -2.65940998e-005 -1.45513786e-005 -5.63557587e-005 5.04548545e-004
      1.03727693e-003 2.71614816e-004 -1.99304108e-004 1.09545210e-004
      1.78510003e-004 -1.95926084e-004 1.69850711e-004 6.48831556e-005
      1.15737261e-004 1.71677748e-005 0. 0. 0. 0. 0. 0. 0. 0. 0. 0. 0.
      0. 0. 0. 0. 0. 0. 0. 0. 0. 0. 0. 0. 0. 0. 0. 0. 0. 0. 0. 0. 0. 0.
      0. 0. 0. 0. 0. 0. 0. 0. 0. 0. 0.</_>
    <_>
      0. 0. 0. 0. 0. 0. 0. 0. 0. 0. 0. 0. 0. 0. 0. 0. 0. 0. 0. 0. 0. 0.
      0. 0. 0. 0. 0. 0. 0. 0. 0. 0. 0. 0. 0. 0. 0. 0. 0. 0. 0. 0. 0. 0.
      -4.29890642e-005 -3.22053420e-005 -1.60362233e-005 3.79287027e-004
      5.95125544e-004 1.04074040e-003 3.74802650e-004 9.06865229e-004
      -9.53619747e-005 -7.97182511e-005 -1.46290622e-004
      -1.97174406e-004 -1.20141929e-004 4.32663146e-005 0. 0. 0. 0. 0.
      0. -8.60480432e-005 1.01032310e-004 6.09317911e-004
      3.50182003e-004 1.11417181e-003 1.48089393e-003 7.87425146e-004
      3.53060052e-004 8.11477832e-004 6.85385719e-004 -2.12449086e-004
      -3.40725674e-004 -3.11708398e-004 -2.80552683e-007 0. 0. 0. 0. 0.
      0. 4.68586695e-005 2.57480686e-004 9.34707292e-004 6.26935624e-004
      6.80884230e-004 9.49469861e-004 5.49702265e-004 6.78999582e-004
      9.32727999e-004 8.74704201e-005 1.17650656e-004 -3.39447142e-004
      -2.23782554e-004 1.47081746e-005 0. 0. 0. 0. 0. 0. 7.13750924e-005
      4.76228102e-004 1.02345878e-003 9.70703899e-004 9.70436959e-004
      1.23590289e-003 6.95451803e-004 6.65940577e-004 8.32899066e-004
      2.64009956e-004 6.43400417e-004 4.45296901e-004 3.99693294e-004
      1.47792642e-004 0. 0. 0. 0. 0. 0. 1.01685466e-004 6.12624630e-004
      8.69666925e-004 4.88620542e-004 1.13269620e-004 1.70573665e-004
      -1.16801856e-003 -2.51280086e-004 3.92711285e-004 4.49193438e-004
      7.63894583e-004 6.35795819e-004 4.66235942e-004 2.30405465e-004 0.
      0. 0. 0. 0. 0. 9.83114951e-005 5.16512664e-004 5.62242931e-004
      7.87273224e-004 -8.87048009e-005 -9.54504183e-004 -7.54740788e-004
      -4.79524242e-005 3.15439684e-004 2.43508348e-005 1.07073341e-003
      1.26980059e-003 3.69536079e-004 9.92186106e-005 0. 0. 0. 0. 0. 0.
      -1.20033146e-004 -1.07270513e-004 -3.80757177e-004 1.18383359e-004
      -5.18593879e-004 -3.80656886e-004 -4.13092523e-004 5.18901834e-005
      -2.74267164e-004 2.71980069e-004 9.35742981e-004 8.68381641e-004
      4.02113568e-004 1.57523449e-004 0. 0. 0. 0. 0. 0. -2.06713630e-005
      -1.41233133e-004 -1.22583774e-003 -1.50163437e-003
      -9.03448497e-004 -7.36553106e-004 -8.43801681e-005 6.78022683e-004
      1.50135456e-004 5.90336567e-005 6.69395085e-004 3.43537424e-004
      -2.12676405e-005 6.58443023e-005 0. 0. 0. 0. 0. 0.
      -1.76908507e-005 -3.85948224e-004 -1.86628697e-003
      -1.05005549e-003 -9.74719063e-004 -8.19406006e-004
      -8.50748736e-004 4.86440316e-004 -4.69799445e-004 -6.19183353e-004
      -1.56054128e-004 -2.42121678e-004 -3.20878462e-004
      -3.86195497e-005 0. 0. 0. 0. 0. -3.08783751e-006 -8.73925310e-005
      -8.42365029e-004 -5.62215791e-005 -2.33062994e-004
      -9.56519565e-004 -2.50645040e-004 -1.04999880e-003
      -9.47724562e-004 -2.06449977e-003 -1.47895853e-003
      -1.03023904e-003 -5.13295643e-004 -1.52511770e-004
      -6.57576093e-005 0. 0. 0. 0. -4.91130049e-006 -8.40228749e-005
      -3.74908384e-004 -7.48963910e-004 8.31792713e-005 -3.86551023e-004
      -9.01794119e-005 1.32127423e-006 -7.61901727e-004 -1.97758898e-003
      -1.14165258e-003 -1.15833874e-003 -1.22192700e-003
      -6.43366773e-004 -1.35206516e-004 -1.36784929e-005 0. 0. 0. 0.
      -1.27256018e-004 -2.62803107e-004 -6.34480239e-005 2.93764693e-004
      9.27476853e-004 4.35682537e-004 1.87932630e-003 5.15065447e-004
      -5.39002940e-004 -8.65453912e-004 -6.86639280e-004
      -4.00593533e-004 -8.57825100e-004 -6.71896734e-004
      -1.48139850e-004 -2.55331852e-005 0. 0. 0. 0. 7.78677859e-005
      1.19667136e-004 3.33457720e-004 4.67005069e-004 4.13617643e-004
      9.80510260e-004 1.18764350e-003 1.39359874e-003 5.78175532e-004
      -5.93382982e-004 1.73101536e-004 2.64359434e-004 -8.88805022e-004
      -6.84276456e-004 -1.34980655e-004 -1.33137328e-005 0. 0. 0. 0.
      1.05529951e-004 8.87020069e-005 1.24365659e-004 8.92850221e-005
      3.54858406e-004 4.55328089e-004 4.87824989e-004 1.68233144e-003
      2.63285358e-004 -5.83970395e-004 -6.41500053e-004 -1.16994500e-003
      -1.01510494e-003 -3.82653525e-004 -2.05971286e-004
      -6.05387540e-005 0. 0. 0. 0. -8.23078517e-006 -5.84684603e-005
      -1.24491635e-004 -4.36693314e-004 1.41800672e-004 5.32209699e-004
      4.37778886e-004 8.28120334e-004 1.21342577e-003 5.00944094e-004
      -1.98628826e-004 -3.07799666e-004 -2.69005686e-004
      -3.83762788e-004 -2.14311134e-004 -4.59913026e-005 0. 0. 0. 0.
      -1.03078091e-004 -2.01379095e-004 -1.60657294e-006 3.88958915e-006
      3.55516495e-005 -1.80343050e-004 -1.52043358e-004 -5.19508962e-004
      1.36153263e-004 -3.84593550e-005 5.59540276e-005 3.95210782e-006
      1.49761458e-004 -9.36410579e-005 -6.37354242e-005 -6.81955817e-006
      0. 0. 0. 0. 0. 0. 0. 0. 0. 0. 0. 0. 0. 0. 0. 0. 0. 0. 0. 0. 0. 0.
      0. 0. 0. 0. 0. 0. 0. 0. 0. 0. 0. 0. 0. 0. 0. 0. 0. 0. 0. 0.</_>
    <_>
      0. 0. 0. 0. 0. 0. 0. 0. 0. 0. 0. 0. 0. 0. 0. 0. 0. 0. 0. 0. 0. 0.
      0. 0. 0. 0. 0. 0. 0. 0. 0. 0. 0. 0. 0. 0. 0. 0. 0. 0. 0. 0. 0.
      -9.53707058e-007 4.88254445e-005 -1.28070760e-005 -2.70262884e-004
      -3.42359825e-004 3.87534063e-004 6.65564730e-004 -2.70417477e-005
      7.10024498e-004 1.57363800e-004 7.16896975e-005 2.28704266e-005
      5.94333760e-005 2.57918764e-005 0. 0. 0. 0. 0. 0. -1.62003344e-005
      -6.84022307e-005 1.79771581e-004 -2.26213131e-004 -1.01472042e-003
      4.98471200e-005 5.35712345e-004 2.23402894e-004 1.30626824e-004
      7.37368362e-004 3.02983390e-004 -1.20488941e-004 -1.16830357e-004
      2.17691595e-005 0. 0. 0. 0. 0. -9.20648199e-006 -1.08176166e-004
      -8.76467748e-005 4.23277488e-005 -4.73044696e-004 -8.18036031e-004
      2.95946869e-004 3.58285324e-005 5.51865436e-004 3.56628298e-004
      -2.47146178e-004 -4.54748806e-004 3.12576885e-004 -7.78727626e-005
      2.68840900e-004 8.88650029e-005 0. 0. 0. 0. -3.22226879e-005
      -2.08395009e-004 2.07716774e-004 5.69391355e-004 3.85156949e-004
      3.47681780e-004 6.92141417e-004 2.16074608e-004 3.97470198e-004
      -1.55971225e-004 7.92632345e-005 -2.67733616e-004 4.50829888e-004
      -4.01775207e-004 4.93580650e-004 2.25596159e-004 0. 0. 0. 0. 0.
      4.85459623e-006 2.33575047e-004 5.69681637e-004 7.41689582e-005
      -1.92962514e-004 2.80838431e-004 -8.74808757e-005 -2.29002966e-004
      -5.07633842e-004 9.96450894e-004 -8.25123207e-005 6.14315155e-004
      3.30277762e-005 5.49323391e-004 1.49911226e-004 0. 0. 0. 0. 0.
      -4.07958105e-005 9.52939299e-005 1.42479257e-004 -1.17943178e-004
      1.66884911e-005 -6.09618786e-004 -1.22111232e-003 -2.15173670e-004
      1.02233712e-003 7.92303821e-004 6.55110853e-005 5.66587260e-004
      2.88254931e-004 1.09643777e-004 1.13789822e-004 0. 0. 0. 0. 0.
      -1.42882607e-004 -1.27649473e-004 -2.48605327e-004
      -9.73061251e-004 -1.27610995e-003 -1.97134027e-003
      -1.38387969e-003 -1.06390426e-003 1.27092411e-004 -4.26933373e-004
      1.30173226e-004 6.24740147e-004 -1.38095376e-004 -6.36194600e-004
      -8.99097176e-006 0. 0. 0. 0. 0. -8.26546147e-006 -1.81322714e-004
      -9.78363911e-004 -1.69087364e-003 -2.88194534e-003
      -2.90592248e-003 -3.56584816e-004 3.47398542e-004 2.82507128e-004
      4.35209251e-004 -5.67249481e-005 -4.08691849e-004 -1.07721818e-004
      -2.25588024e-004 -1.02348014e-004 0. 0. 0. 0. 0. -9.85497263e-006
      -1.35429029e-004 -1.03420368e-003 -1.64187897e-003
      -1.51338812e-003 -1.57238985e-003 -3.14198231e-004
      -1.95296088e-004 -3.04996734e-004 -9.92403366e-004
      -1.20157469e-003 -1.79470563e-003 -1.05138705e-003
      -2.38798340e-004 -2.70898545e-005 0. 0. 0. 0. 0. 5.79256521e-005
      1.04987339e-004 -4.07274609e-004 -5.10366299e-005 -4.86351404e-004
      3.66323453e-004 1.65502343e-003 8.73055134e-004 -3.23488493e-004
      -1.74391735e-003 -2.40730820e-003 -2.05164193e-003
      -7.97806599e-004 -2.89640680e-004 -5.52388956e-005 0. 0. 0. 0.
      2.14932315e-005 1.35004404e-004 -5.56501727e-005 -1.65883263e-004
      5.20441199e-006 -3.62055405e-004 -1.20142802e-004 1.73517654e-003
      7.09958724e-004 -6.28499489e-004 -7.09741435e-004 -1.52421929e-003
      -1.23382045e-003 -4.57916380e-004 -4.34306887e-004
      -5.29372737e-005 0. 0. 0. 0. -1.11287067e-004 -1.74125773e-004
      2.72145931e-004 -1.46823892e-004 1.06110983e-003 7.96344684e-005
      1.36011560e-003 1.34672958e-003 2.85783230e-004 2.51490565e-004
      -7.78311922e-004 -7.53646542e-004 -5.84757770e-004
      -6.92436646e-004 -1.86431265e-004 -1.61113439e-005 0. 0. 0. 0.
      -1.15066206e-004 -5.82620924e-005 1.57780814e-004 7.62295269e-004
      1.27759483e-003 1.01969286e-003 1.03780010e-003 1.54664507e-003
      3.49814334e-004 4.05946659e-004 5.70070697e-004 -3.19938612e-004
      -4.33646230e-004 -3.94443545e-004 -1.84129640e-005 0. 0. 0. 0. 0.
      1.16478339e-004 2.40431924e-004 -5.64241091e-005 3.29687900e-004
      2.56028754e-004 4.49511892e-004 -3.24378459e-004 7.75044144e-004
      3.43059277e-004 3.63436615e-004 1.33410643e-003 3.62002684e-005
      -1.93470434e-004 -1.27411811e-004 0. 0. 0. 0. 0. 0.
      6.52080198e-005 2.25508717e-004 -1.72471904e-004 -1.52972352e-004
      2.74814869e-004 3.45793844e-004 1.84551463e-004 4.59212402e-004
      4.47695726e-004 4.55737289e-004 1.59522780e-004 2.11534757e-006
      1.42238932e-005 5.19498008e-006 0. 0. 0. 0. 0. 0. 1.02477188e-005
      -2.87368421e-005 1.21242367e-004 7.06993160e-004 7.09851156e-004
      1.68835249e-004 -1.51958538e-005 5.13888117e-005 1.78109913e-004
      1.27655527e-004 1.17717733e-004 4.43146419e-005 2.45798547e-005
      6.86976091e-006 0. 0. 0. 0. 0. 0. 0. 0. 0. 0. 0. 0. 0. 0. 0. 0. 0.
      0. 0. 0. 0. 0. 0. 0. 0. 0. 0. 0. 0. 0. 0. 0. 0. 0. 0. 0. 0. 0. 0.
      0. 0. 0. 0. 0.</_>
    <_>
      0. 0. 0. 0. 0. 0. 0. 0. 0. 0. 0. 0. 0. 0. 0. 0. 0. 0. 0. 0. 0. 0.
      0. 0. 0. 0. 0. 0. 0. 0. 0. 0. 0. 0. 0. 0. 0. 0. 0. 0. 0. 0. 0.
      -3.27740804e-006 -9.99609438e-006 1.79792059e-005 4.57086280e-005
      2.56419225e-005 2.66544579e-004 3.05083173e-004 4.32633242e-005
      5.78598192e-005 1.78482747e-004 7.80184055e-005 5.63224205e-007
      6.24618915e-005 0. 0. 0. 0. 0. 0. 0. -6.55481608e-006
      -2.45734154e-005 5.93112782e-005 4.68910002e-005 -1.70621410e-004
      3.53908195e-004 2.36380714e-004 -1.32473971e-004 -9.70966867e-005
      1.76284564e-004 1.97748202e-004 -9.75997027e-005 2.42661245e-005
      -4.83558833e-005 -2.51427700e-005 0. 0. 0. 0. 0. -4.17228948e-005
      -1.22767684e-004 6.47925044e-005 3.55599150e-005 8.05991149e-005
      4.93911561e-004 8.66412665e-005 8.56499712e-004 2.43319402e-004
      1.12296060e-004 -5.71742130e-004 -1.24967293e-004 -3.13649834e-005
      -1.57671224e-004 -9.98522009e-005 0. 0. 0. 0. 0. -7.86717719e-005
      -1.59930234e-004 -1.19600394e-004 1.85370027e-005 3.08437826e-004
      6.35406468e-004 -4.50537191e-005 -1.94405700e-004 -4.32145083e-004
      -1.16442592e-004 -3.88778077e-004 -3.04799760e-004 1.17918418e-004
      1.21429759e-004 9.89154360e-005 0. 0. 0. 0. -2.10199105e-005
      -1.17765630e-004 -1.91459476e-004 5.53067766e-005 -1.91338084e-004
      -1.68604078e-004 -2.16950852e-004 -5.85788221e-005 1.37949231e-004
      -3.90243986e-005 -4.32893168e-004 9.62180056e-005 2.00078794e-004
      3.53734649e-004 1.52547233e-004 3.43572901e-005 0. 0. 0. 0.
      -7.71965788e-005 -1.87835380e-004 -3.71138332e-004
      -9.45998996e-004 -3.90351051e-004 -5.53024583e-004
      -4.43817611e-004 8.14173982e-005 4.49767394e-004 9.19974584e-004
      5.81295579e-004 4.64454875e-004 5.81172877e-004 -3.74267729e-005
      5.01305512e-005 2.92553204e-006 0. 0. 0. 0. -1.08117565e-004
      -1.83019030e-004 -6.84937055e-004 -1.24786631e-003
      -9.58662247e-004 -9.30872397e-004 -4.78163893e-005 4.05606930e-004
      1.22645206e-003 1.44360797e-003 1.35797495e-003 9.07925831e-004
      4.39950032e-004 1.03701816e-004 -9.92365385e-005 -1.08465747e-005
      0. 0. 0. 0. -1.18219032e-004 -4.65801655e-004 -6.55169948e-004
      -1.38898322e-003 -1.36969646e-003 -1.09820510e-003 3.91569309e-004
      1.13305310e-003 1.35457050e-003 1.93335698e-003 1.16414542e-003
      4.14953829e-004 3.77249176e-004 6.13769153e-005 2.76631727e-005 0.
      0. 0. 0. 0. -1.29648324e-004 -6.42051105e-004 -1.11160113e-003
      -1.16293202e-003 -1.43475516e-003 -1.02596334e-003 4.51614702e-004
      1.29694794e-003 1.56950799e-003 1.07794651e-003 6.05417474e-004
      1.83191602e-004 2.86772138e-006 0. 0. 0. 0. 0. 0. 0.
      -2.89603428e-004 -6.23941130e-004 -6.96321309e-004
      -1.04952464e-003 -1.03182683e-003 -4.11862769e-004 3.04687244e-004
      1.18057826e-003 1.23066606e-003 7.13060843e-004 1.27624022e-004
      -2.86186318e-004 -4.83679469e-005 0. 0. 0. 0. 0. 0. 0.
      -3.82379134e-004 -7.28884886e-004 -4.43885976e-004
      -2.52544560e-004 -5.74880803e-004 -6.48086076e-004 4.51457192e-004
      9.62530612e-004 5.34612802e-004 1.00489990e-004 3.10641684e-004
      -3.39360675e-004 -3.25605914e-004 -1.62231700e-005
      -5.40772317e-006 0. 0. 0. 0. 0. -2.95308797e-004 -6.16179372e-004
      -1.74362227e-004 -6.52033414e-005 4.16226714e-004 1.04075531e-004
      7.52464635e-004 7.80895469e-004 -5.23827439e-005 -2.66323274e-004
      1.17817734e-004 -1.58127892e-004 -1.48772408e-004 3.08473609e-005
      -1.06515763e-005 0. 0. 0. 0. 0. 7.70646657e-005 -1.21828205e-004
      -1.49596322e-004 -1.15658577e-005 6.14062956e-005 8.56688348e-006
      -2.01422881e-004 1.24413986e-004 3.99238081e-004 1.03221406e-004
      3.40067956e-004 -2.96390790e-004 -1.69965482e-004 4.01424586e-005
      -9.17674242e-006 0. 0. 0. 0. 0. -8.40128632e-005 -1.42652993e-004
      -1.77321577e-004 -2.14772845e-005 1.65829828e-004 4.53866902e-004
      -6.03311601e-005 6.91473324e-005 -7.25761583e-006 4.62878204e-004
      3.82387487e-004 2.26475786e-005 2.72293779e-004 7.47888480e-005
      -9.83222435e-007 0. 0. 0. 0. 0. 1.67631479e-005 4.82146534e-005
      9.96048839e-005 2.67316878e-004 4.61737451e-004 2.72959820e-004
      6.83427561e-006 -4.71722014e-005 4.09092972e-005 -7.00152523e-005
      1.32639063e-004 2.36342501e-004 7.90516860e-005 2.50011435e-005 0.
      0. 0. 0. 0. 0. 0. 0. 5.05085118e-005 1.82406256e-005
      2.51531281e-004 1.35918352e-004 -9.01484891e-005 -2.45216535e-004
      2.66141305e-005 6.99699594e-005 6.31375879e-005 -4.52067470e-005
      0. 0. 0. 0. 0. 0. 0. 0. 0. 0. 0. 0. 0. 0. 0. 0. 0. 0. 0. 0. 0. 0.
      0. 0. 0. 0. 0. 0. 0. 0. 0. 0. 0. 0. 0. 0. 0. 0. 0. 0. 0. 0. 0. 0.
      0. 0.</_>
    <_>
      0. 0. 0. 0. 0. 0. 0. 0. 0. 0. 0. 0. 0. 0. 0. 0. 0. 0. 0. 0. 0. 0.
      0. 0. 0. 0. 0. 0. 0. 0. 0. 0. 0. 0. 0. 0. 0. 0. 0. 0. 0. 0. 0. 0.
      1.33400084e-004 1.78113434e-004 9.26655994e-005 9.94289439e-005
      2.23321156e-004 7.30733795e-004 -4.07964166e-004 2.52369995e-004
      1.95048211e-004 -9.05315828e-005 -2.22970702e-005 2.76304218e-005
      2.31636113e-006 0. 0. 0. 0. 0. 0. -7.39530878e-005
      -1.53770652e-005 3.74839874e-004 4.42992779e-004 -4.19384975e-004
      -6.89747219e-004 3.84970073e-004 -5.59998618e-004 -5.37619126e-005
      4.10261826e-004 1.39135416e-004 1.62345066e-004 -1.15900708e-004
      4.43592435e-005 -1.54875932e-004 0. 0. 0. 0. 0. -1.44207690e-004
      -5.97740465e-004 -2.19155103e-004 -8.19739536e-004
      -4.85065801e-004 -7.69616527e-005 -1.86670368e-004 5.61807392e-005
      9.47773442e-005 -4.26011480e-004 -1.50350606e-004 9.43131803e-004
      4.43884201e-004 -1.38123214e-004 -9.12780379e-005 0. 0. 0. 0. 0.
      1.52260773e-005 3.18498322e-004 2.04419426e-004 -3.91418202e-004
      1.56369730e-004 1.20123196e-003 6.49647613e-004 4.73621127e-004
      6.94702961e-004 2.88206647e-004 4.60786483e-004 4.24595550e-004
      7.64463155e-004 6.02891305e-005 2.99973763e-004 0. 0. 0. 0. 0.
      2.48880067e-004 8.92317737e-004 7.18135736e-004 3.49954760e-004
      -6.46817280e-005 2.26912962e-004 -1.79150928e-004 8.34130769e-005
      -3.44289991e-004 -7.79271722e-005 2.16717803e-004 3.56932258e-004
      6.06269576e-004 2.43196351e-004 2.87676725e-004 0. 0. 0. 0. 0. 0.
      4.27890627e-004 3.17481725e-004 2.86426599e-004 2.05888573e-004
      -7.39422876e-006 -1.95756811e-003 -8.93832184e-005 7.89992278e-004
      4.97255649e-004 -7.21711694e-005 5.85213711e-004 2.08302838e-004
      -2.39113942e-004 1.25028440e-004 0. 0. 0. 0. 0. -3.12246375e-005
      -3.90554284e-004 -1.20223616e-003 -1.64965633e-003
      -1.84605934e-003 -1.43430871e-003 -1.11186178e-003
      -3.43951833e-004 8.37797124e-004 -4.94548411e-004 3.10715950e-005
      3.24604548e-006 -2.84721027e-004 -3.95886600e-004 1.49170606e-004
      0. 0. 0. 0. 0. -6.40926737e-005 -9.61354875e-004 -1.76325801e-003
      -2.30294350e-003 -3.03696282e-003 -1.59786886e-003 5.68391348e-004
      1.74516567e-003 1.82150677e-003 2.86137452e-004 -9.50471964e-004
      -5.48949349e-004 -1.29012752e-003 -1.80114395e-004 7.63099088e-005
      0. 0. 0. 0. 0. 0. -1.04559364e-003 -1.84973318e-003
      -1.79230317e-003 -1.86865462e-003 -1.27815269e-003 9.51273367e-004
      1.33584824e-003 2.39920246e-005 -9.94351809e-004 -9.37793520e-004
      -1.60123501e-003 -1.43275992e-003 -5.46188676e-004
      -2.92022771e-004 0. 0. 0. 0. 0. 1.54424072e-006 -1.16635324e-003
      -2.07904377e-003 -3.33413773e-004 -4.26655097e-005
      -9.52526054e-004 1.35729788e-003 1.00529799e-003 -3.25498295e-005
      -1.44125870e-003 -1.63541734e-003 -2.25174194e-003
      -6.67161949e-004 -2.28756442e-004 -2.74172256e-004 0. 0. 0. 0.
      1.93030087e-006 7.88019024e-005 -8.28463817e-004 -1.60766754e-003
      6.81114907e-004 -2.70829332e-004 4.16148949e-004 1.89766497e-003
      -6.43604872e-005 -1.15671603e-004 -8.80700303e-004
      -1.86342467e-003 -1.68149592e-003 -4.40500298e-004
      -4.69145161e-004 -2.21849317e-004 0. 0. 0. 0. 7.08390799e-005
      5.06094111e-005 3.72539420e-004 -1.45573198e-004 9.09933820e-004
      3.89503170e-004 1.24367757e-003 7.90096412e-004 3.92431684e-004
      6.40965649e-004 -2.33451719e-004 -7.48227176e-004 -8.31366633e-005
      -5.67390001e-004 -4.49750369e-004 -7.11592147e-005 0. 0. 0. 0.
      1.40742286e-005 2.26220422e-004 1.53868619e-004 3.76927783e-004
      5.51076490e-004 8.67488270e-004 -9.32937473e-005 9.92654706e-004
      5.51369856e-004 1.32871431e-003 4.86711826e-004 1.89684579e-004
      -8.53121528e-005 -6.53447409e-004 -3.83521343e-004 0. 0. 0. 0. 0.
      -6.70480367e-005 7.59633040e-005 -5.31313068e-004 2.49751465e-004
      -9.28586232e-005 6.60319492e-005 2.39267654e-004 1.34801783e-004
      5.23894443e-004 4.53416404e-004 1.14350521e-003 2.31713566e-004
      -3.76772921e-004 -4.61859367e-004 -2.07295670e-004 0. 0. 0. 0. 0.
      6.80405856e-006 -2.30983089e-004 -4.48280072e-004 -4.16946103e-004
      -3.51790688e-004 -1.11233785e-004 1.06453174e-003 1.31908129e-003
      7.20231212e-004 9.17783531e-004 1.17101753e-003 1.65394493e-004
      -1.35827911e-004 -2.23734719e-006 0. 0. 0. 0. 0. 0.
      2.02693540e-004 1.55917169e-005 4.53453307e-004 1.23309248e-004
      5.30203048e-004 3.51148454e-004 2.70993187e-004 4.47225029e-004
      9.24860651e-004 1.02412305e-003 8.53433274e-004 3.70518275e-004
      3.83331382e-004 2.79675995e-004 0. 0. 0. 0. 0. 0. 0. 0. 0. 0. 0.
      0. 0. 0. 0. 0. 0. 0. 0. 0. 0. 0. 0. 0. 0. 0. 0. 0. 0. 0. 0. 0. 0.
      0. 0. 0. 0. 0. 0. 0. 0. 0. 0. 0.</_>
    <_>
      0. 0. 0. 0. 0. 0. 0. 0. 0. 0. 0. 0. 0. 0. 0. 0. 0. 0. 0. 0. 0. 0.
      0. 0. 0. 0. 0. 0. 0. 0. 0. 0. 0. 0. 0. 0. 0. 0. 0. 0. 0. 0. 0. 0.
      0. 0. 2.69231568e-005 2.86812574e-004 4.57821734e-004
      4.26271290e-004 7.38731702e-004 7.84742006e-004 5.86075766e-005
      -2.42679831e-004 -4.80112125e-004 -5.59017120e-004
      -3.79806326e-004 -1.80065090e-005 0. 0. 0. 0. 0. 0. 0.
      1.29121021e-004 3.34850571e-004 8.60302185e-004 8.23043112e-004
      3.47211375e-004 8.83703993e-004 1.28750503e-003 9.39094345e-004
      -4.60886717e-004 -8.84424255e-004 -2.75074708e-004
      -1.40624776e-004 -1.62360811e-005 0. 0. 0. 0. 0. 0.
      1.10804547e-004 4.02936043e-004 7.58682552e-004 7.81087787e-004
      1.39114598e-003 3.12874967e-004 5.72909019e-004 1.03319855e-003
      1.99311937e-004 -9.62610939e-004 -5.09269536e-004 5.08307072e-004
      3.27158807e-004 1.47284982e-005 0. 0. 0. 0. -7.67156671e-005
      -3.58006437e-005 1.99710106e-004 3.58466699e-004 6.79124671e-004
      1.11944159e-003 1.89019821e-003 9.14671284e-004 7.07773026e-004
      6.65584113e-004 4.79971903e-004 -5.71488810e-004 4.09096188e-004
      5.99922612e-004 4.36441769e-004 4.90503480e-005 0. 0. 0. 0.
      -1.10811518e-004 -1.05697138e-004 1.47301078e-004 4.62444499e-004
      9.37949284e-004 7.71796156e-004 1.12728088e-003 3.66674969e-004
      -6.07652415e-004 -4.17571107e-004 2.33724480e-004 3.57099561e-005
      1.06467505e-003 7.02640915e-004 3.49204056e-004 7.51099142e-005 0.
      0. 0. 0. 0. -1.15925890e-004 -5.81735258e-005 9.75600269e-005
      5.15495660e-004 -1.38624688e-004 7.91791681e-005 -8.89295887e-004
      -9.83313541e-004 -6.23042055e-004 9.14988868e-006 6.10301387e-004
      7.44494959e-004 9.67028434e-004 4.06223553e-004 6.59950310e-005 0.
      0. 0. 0. 0. -7.22362529e-005 -4.99004556e-004 -8.06213124e-004
      -1.19839702e-003 -5.24727919e-004 -7.31446955e-004
      -9.26821376e-004 -8.53409583e-004 -1.82326869e-004 5.75354614e-004
      3.69177287e-004 9.45686304e-004 7.56589056e-004 1.44230449e-004
      2.55777904e-005 0. 0. 0. 0. -1.19335473e-005 -5.04695112e-004
      -6.01067266e-004 -1.00049272e-003 -1.06279529e-003
      -1.00645155e-003 -6.19574159e-004 -9.21625935e-004
      -5.16176515e-004 -3.75314092e-004 -2.86427039e-005 2.40687499e-004
      3.71217262e-004 2.79608619e-004 5.99598316e-005 1.97824556e-005 0.
      0. 0. 0. -2.43785325e-004 -7.02738471e-004 -1.16141792e-003
      -1.18838844e-003 -1.14129984e-003 -5.73552272e-004 3.12875229e-004
      9.50792164e-004 -2.45411909e-004 -5.48912154e-004 -7.65674980e-004
      -8.23469658e-004 -1.45534155e-004 4.36586779e-005 5.76236835e-006
      0. 0. 0. 0. 0. -2.08980709e-004 -5.42373920e-004 -8.60257598e-004
      -8.89338728e-004 -3.71606147e-004 -6.48093526e-004 9.54142655e-004
      1.00261904e-003 -4.54605703e-004 -9.12130054e-004 -1.49220589e-003
      -9.77151911e-004 -3.20148596e-004 -4.70316627e-005
      -1.51320637e-006 0. 0. 0. 0. 0. -2.63130729e-004 -7.41600699e-004
      -1.01199956e-003 -6.30174123e-004 -4.29763895e-004
      -4.98471141e-004 3.22604261e-004 4.88371588e-004 -3.73820541e-004
      -1.35466654e-003 -9.80294775e-004 -7.80730334e-004
      -3.87732347e-004 -7.10713284e-005 0. 0. 0. 0. 0. 0.
      -2.01916861e-004 -5.45188144e-004 -2.72877369e-004 8.96644560e-005
      3.34225100e-004 -3.08195275e-004 3.16757621e-004 7.89913523e-004
      -7.33452733e-004 -4.90681268e-004 -3.07426468e-004
      -3.94357019e-004 -2.64465692e-004 -7.52668275e-005 0. 0. 0. 0. 0.
      0. -2.25532451e-004 -2.68472766e-004 2.87604689e-005
      -1.99948336e-005 -3.20482301e-004 2.46613083e-004 1.05276541e-003
      1.23975659e-003 -4.92476218e-004 -2.98988161e-004 2.84902235e-005
      1.14495224e-005 -1.57512302e-004 -7.29924723e-005 0. 0. 0. 0. 0.
      0. -1.33124689e-004 -5.94731937e-005 1.19677534e-004
      -1.08926506e-004 -2.58640852e-004 -1.35700597e-004
      -4.74730652e-004 6.82376674e-004 1.82789343e-004 8.88328304e-006
      1.32882371e-004 -9.72534355e-004 -2.04113836e-004 -3.10688520e-005
      0. 0. 0. 0. 0. 0. -8.63516198e-006 9.91829347e-006
      -4.13296912e-005 1.46770108e-004 2.73500045e-004 -2.39160028e-004
      -4.81052819e-004 -2.05819946e-004 8.23261798e-004 7.15281640e-004
      1.32683432e-004 -6.09549752e-004 -3.19642917e-004 1.34098700e-005
      0. 0. 0. 0. 0. 0. -9.07923823e-006 -1.04045621e-005
      3.77859542e-005 3.52764095e-004 5.38894325e-004 2.10551123e-004
      -4.90039878e-004 -3.92845861e-004 -1.18632779e-004
      -2.68548465e-004 -1.80370858e-004 -4.89799131e-004
      -2.29639583e-004 7.31447426e-006 0. 0. 0. 0. 0. 0. 0. 0. 0. 0. 0.
      0. 0. 0. 0. 0. 0. 0. 0. 0. 0. 0. 0. 0. 0. 0. 0. 0. 0. 0. 0. 0. 0.
      0. 0. 0. 0. 0. 0. 0. 0. 0. 0. 0.</_>
    <_>
      0. 0. 0. 0. 0. 0. 0. 0. 0. 0. 0. 0. 0. 0. 0. 0. 0. 0. 0. 0. 0. 0.
      0. 0. 0. 0. 0. 0. 0. 0. 0. 0. 0. 0. 0. 0. 0. 0. 0. 0. 0. 0.
      -1.00419743e-006 -2.69547718e-006 2.89528456e-004 4.49617102e-004
      3.80111713e-004 4.40620875e-004 7.04437902e-004 5.12934464e-004
      4.92847466e-004 3.83174658e-004 4.87271813e-004 3.79236357e-004
      2.46436131e-004 8.07424076e-005 1.03121274e-005 2.24664788e-007 0.
      0. 0. 0. -1.26845987e-006 -1.40363336e-004 9.71686604e-005
      4.04741440e-004 3.00322601e-004 5.58195577e-004 5.31886995e-004
      2.10976032e-005 -3.44929867e-004 9.44476706e-005 3.93839524e-004
      1.65228237e-004 -3.17291473e-004 7.51839616e-005 -9.33879346e-005
      -4.82638643e-005 0. 0. 0. 0. 0. -1.38245567e-004 1.13032183e-004
      1.63287084e-004 -1.73974731e-005 4.15680348e-004 5.83971450e-005
      1.36588031e-004 1.06287899e-003 -4.60460578e-004 -2.77450396e-004
      -9.44582222e-004 -7.28992338e-004 -8.55277875e-004
      -9.42145940e-004 -2.60675093e-004 0. 0. 0. 0. -2.16695230e-006
      -4.85853270e-005 3.34941433e-004 5.77192986e-004 7.23340665e-004
      3.55615630e-004 6.42941915e-004 -2.25352502e-004 3.71828792e-004
      -6.46258006e-004 1.08490954e-003 -8.68942516e-005 1.11327693e-003
      8.38437118e-004 -6.49170397e-005 -1.24645812e-004 0. 0. 0. 0.
      -5.28524922e-008 -3.07243645e-005 2.46688607e-004 1.03328296e-003
      -3.79088422e-004 -2.94349768e-004 -2.13876090e-004
      -5.65292314e-004 -7.46961043e-004 -1.81289695e-004 6.51210314e-004
      7.39752722e-004 1.24511810e-003 7.09058426e-004 -1.16411429e-004
      -1.93001702e-004 0. 0. 0. 0. -2.27265718e-006 -7.92787432e-006
      -1.30802990e-004 -4.44282559e-005 -7.18383089e-005
      -1.13823370e-003 -1.20917533e-003 -1.61339180e-003 7.70667539e-005
      9.05434659e-004 1.77691877e-003 1.67331472e-003 1.92906614e-003
      6.14745251e-004 3.46422661e-004 8.37791595e-005 0. 0. 0. 0. 0.
      -5.17954459e-006 -2.98585946e-004 -8.71016120e-004
      -5.91501128e-004 -1.85619015e-003 -2.99743959e-003
      -2.54198303e-003 -6.55269716e-004 6.36287732e-004 7.59577611e-004
      7.21635879e-004 3.33580683e-004 3.02328321e-004 1.31355759e-004
      4.36973687e-006 0. 0. 0. 0. 0. -5.07383947e-006 -4.15770715e-004
      -9.98283853e-004 -2.05097627e-003 -3.17762420e-003
      -3.22515704e-003 -1.18062005e-003 -6.66045991e-004
      -4.58185998e-004 7.44679477e-004 1.10278961e-004 1.26115177e-004
      1.26308907e-004 8.30446588e-005 0. 0. 0. 0. 0. 0. -5.49665947e-006
      -2.81257700e-004 -1.18488143e-003 -2.06700852e-003
      -2.78331852e-003 -1.66339509e-003 2.22682705e-004 -4.67659993e-004
      -5.18447836e-004 4.39229159e-004 -3.47607973e-004 -8.88264214e-004
      -4.25953069e-004 -1.22504018e-004 0. 0. 0. 0. 0. -2.11409974e-006
      -8.65513448e-006 -2.63601512e-004 -7.35820329e-004
      -3.97244468e-004 -1.34051614e-003 -1.11978455e-003 1.67848205e-003
      4.49034356e-004 -3.12598218e-004 -8.65983253e-004 -8.68155214e-004
      -7.17707560e-004 1.24221246e-004 1.73575609e-004 0. 0. 0. 0. 0.
      4.55515556e-006 3.93326736e-005 4.42842565e-006 2.35711836e-004
      2.58510918e-005 -3.80736048e-004 -8.81433953e-004 1.40176422e-003
      2.95796373e-004 -3.84820625e-004 3.08318820e-004 -8.18029454e-004
      -3.89211928e-004 2.68546020e-004 0. 0. 0. 0. 0. 0.
      -7.34322384e-005 2.08334255e-004 5.83592569e-004 3.01414519e-004
      9.87311010e-004 4.22836543e-004 3.60413600e-004 2.28355429e-003
      3.22099484e-004 4.83526266e-004 -2.12606228e-005 -1.13502938e-004
      -1.63237797e-004 -1.06735417e-004 0. 0. 0. 0. 0. 0.
      -1.15145733e-004 1.47366678e-004 -8.95421763e-005 -1.18627708e-004
      1.08679163e-003 2.69699376e-004 6.43288775e-004 1.36998831e-003
      3.02574645e-005 4.24220809e-004 5.53125865e-004 8.16598418e-004
      -9.24400112e-004 -3.96535557e-004 0. 0. 0. 0. 0. 0.
      -6.04875131e-005 6.20872306e-004 -1.71806576e-004 2.59842520e-004
      -1.89847869e-005 1.00185873e-003 1.75858950e-004 8.14454339e-004
      5.07293560e-004 6.50142727e-004 -2.12480852e-004 5.67882817e-005
      -1.64125790e-003 -3.80687590e-004 0. 0. 0. 0. 0. 0.
      9.84319413e-005 2.54993967e-004 5.60455490e-004 -7.33429188e-005
      7.09519896e-004 3.26809008e-004 -3.42133688e-004 -1.71574196e-004
      6.97604672e-004 7.91674538e-005 -6.18771766e-004 -4.23942838e-004
      -4.71024890e-004 -4.80574417e-005 0. 0. 0. 0. 0. 0. 0.
      1.52175795e-004 4.48486157e-004 9.62371196e-005 6.96035859e-004
      5.49006159e-004 -3.34876997e-004 -1.55277099e-004 6.06671034e-004
      9.28954032e-005 -1.81842450e-004 -5.54963117e-005 -1.55450452e-005
      0. 0. 0. 0. 0. 0. 0. 0. 0. 0. 0. 0. 0. 0. 0. 0. 0. 0. 0. 0. 0. 0.
      0. 0. 0. 0. 0. 0. 0. 0. 0. 0. 0. 0. 0. 0. 0. 0. 0. 0. 0. 0. 0. 0.
      0.</_>
    <_>
      0. 0. 0. 0. 0. 0. 0. 0. 0. 0. 0. 0. 0. 0. 0. 0. 0. 0. 0. 0. 0. 0.
      0. 0. 0. 0. 0. 0. 0. 0. 0. 0. 0. 0. 0. 0. 0. 0. 0. 0. 0. 0. 0. 0.
      0. 2.79227856e-006 1.06976004e-005 1.10060551e-004 3.90262539e-005
      -9.11139614e-006 -1.12619877e-004 -1.38761519e-004
      -1.64276382e-004 -5.98074303e-006 8.89191651e-005 3.57898061e-005
      -3.92107358e-005 -1.61318767e-005 0. 0. 0. 0. 0. 0.
      1.05397612e-006 4.23464153e-005 1.26042563e-004 3.92906455e-004
      1.91688596e-004 -7.29684871e-006 -7.40307078e-005 -8.51961231e-005
      3.12137563e-005 1.69931387e-004 5.58903383e-004 2.39477478e-004
      -1.10811663e-004 -5.22287883e-005 0. 0. 0. 0. 0. 0.
      4.31956414e-006 6.11367723e-005 -6.91178211e-005 -4.73412714e-004
      -1.60093434e-004 1.74252520e-004 5.62360045e-004 3.87889042e-004
      2.73882935e-004 4.06598963e-004 5.29808807e-004 5.96460188e-004
      5.46764750e-005 -2.11794504e-005 0. 0. 0. 0. 0. 0. 1.78072987e-005
      -1.78330214e-004 -2.05957855e-004 -8.50445213e-006 1.84533565e-004
      1.96278066e-004 4.15820250e-004 3.62447317e-005 1.82203279e-004
      6.05049063e-005 2.50567828e-004 2.96899205e-004 2.80873472e-004
      6.18760459e-005 0. 0. 0. 0. -6.41085649e-007 -3.23082941e-006
      2.16708868e-005 -1.46449005e-004 -4.80998890e-004 -5.83291869e-004
      5.21167312e-005 1.36304501e-004 1.40312593e-004 -9.24493997e-006
      1.08860302e-004 1.55609450e-004 1.68354760e-004 -2.34077743e-004
      -2.59511173e-004 -1.94107095e-004 0. 0. 0. 0. -8.61165699e-006
      -6.11618234e-005 -3.20251507e-004 -5.32865233e-004
      -4.87226003e-004 -1.31193770e-003 -8.60482221e-004
      -6.50159374e-004 -3.40554019e-004 2.92600249e-004 -1.15758157e-004
      -1.73983324e-004 -2.23626135e-004 -6.12294360e-004
      -3.81328893e-004 -2.40654961e-004 0. 0. 0. 0. -5.50934456e-005
      -2.31635757e-004 -4.97999077e-004 -1.04397454e-003
      -9.06649337e-004 -1.21453637e-003 -1.05801912e-003
      -1.03976496e-003 -1.83704498e-004 5.22846880e-004 -2.31068276e-004
      -4.45594633e-004 -3.69259564e-004 -6.43595180e-004
      -4.65257443e-004 -1.81444324e-004 0. 0. 0. 0. -1.62238925e-004
      -5.38905966e-004 -7.18849129e-004 -1.34524354e-003
      -1.42252166e-003 -1.47189805e-003 -9.99203767e-004
      -6.73965318e-004 1.36822680e-004 4.84746452e-005 -2.41577829e-004
      -4.94040956e-004 -3.37232050e-004 -2.75880739e-004
      -3.48245143e-004 -1.57406888e-004 0. 0. 0. 0. -3.42092448e-004
      -9.21970175e-004 -1.01562229e-003 -1.45553960e-003
      -9.78270778e-004 -3.92712944e-004 -1.72119137e-004 2.72597797e-004
      4.47824481e-004 5.27412572e-004 2.07883822e-005 -2.83023974e-006
      7.29244639e-005 -4.60423653e-005 -5.70760531e-005 -1.82599724e-005
      0. 0. 0. 0. -2.38162960e-004 -8.27162294e-004 -7.25162972e-004
      -5.26045740e-004 -3.34598793e-004 3.47318070e-004 5.50823926e-004
      4.76172660e-004 8.86035617e-004 4.44379635e-004 2.77620798e-004
      4.10063285e-006 -2.16930945e-004 -2.70576682e-004 -8.71823140e-005
      0. 0. 0. 0. 0. -2.91811361e-004 -5.81234810e-004 -7.33275228e-005
      -3.17849161e-004 -6.35075441e-004 1.83295793e-004 3.44940141e-004
      9.53457667e-004 6.75796415e-004 2.93132354e-004 1.02106809e-004
      -2.41881571e-004 -4.30316868e-004 -2.14787564e-004
      -8.35086903e-005 0. 0. 0. 0. 0. -2.25769763e-004 -3.46249464e-004
      5.08330595e-005 -2.23323397e-004 -2.71387631e-004 -1.49128668e-004
      3.16871447e-004 8.42963753e-004 4.57054120e-004 4.03667305e-004
      -1.30250017e-004 -3.38296668e-004 -5.96150989e-004
      -2.90905155e-004 -3.66903296e-005 0. 0. 0. 0. 0. 2.51174788e-006
      6.01088277e-006 7.35768626e-005 2.69349286e-004 1.19460849e-004
      1.49286803e-004 3.99220793e-004 3.21409352e-005 -9.01305611e-005
      1.75480105e-004 3.70901136e-004 1.96397406e-004 -1.90536739e-004
      -3.64483072e-004 -5.34759711e-005 0. 0. 0. 0. 0. 5.02840994e-005
      -5.61938432e-005 -2.68589520e-005 5.07572782e-004 2.64847215e-004
      5.55898223e-005 2.07043529e-004 2.69091455e-004 1.36219911e-004
      3.41317238e-004 4.70339437e-004 3.06219648e-004 7.93099316e-005
      -2.53979757e-004 -4.20143479e-005 0. 0. 0. 0. 0. 9.54873612e-005
      2.19026799e-004 1.24926184e-004 2.15744469e-004 5.24475356e-004
      -9.40396494e-005 5.08293015e-005 1.39075157e-004 2.94785510e-004
      1.75563218e-006 -3.85466032e-004 -1.85525816e-004 -8.74336820e-006
      1.24497383e-005 -6.46374565e-006 0. 0. 0. 0. 0. 2.81329676e-006
      2.99070580e-005 -1.24834733e-005 -1.36100192e-004 9.37876102e-005
      4.25631333e-005 -2.57741747e-004 -3.90509958e-004 6.02459331e-005
      -9.23515181e-005 -3.46449844e-004 -2.13894658e-004
      -6.07871807e-005 8.57087616e-006 0. 0. 0. 0. 0. 0. 0. 0. 0. 0. 0.
      0. 0. 0. 0. 0. 0. 0. 0. 0. 0. 0. 0. 0. 0. 0. 0. 0. 0. 0. 0. 0. 0.
      0. 0. 0. 0. 0. 0. 0. 0. 0. 0. 0.</_>
    <_>
      0. 0. 0. 0. 0. 0. 0. 0. 0. 0. 0. 0. 0. 0. 0. 0. 0. 0. 0. 0. 0. 0.
      0. 0. 0. 0. 0. 0. 0. 0. 0. 0. 0. 0. 0. 0. 0. 0. 0. 0. 0. 0. 0. 0.
      -8.91101081e-006 -2.43027557e-006 -5.49621691e-005 2.47643329e-004
      3.72075679e-004 4.29602573e-004 5.88402967e-004 4.66066180e-004
      -1.49256171e-004 -3.46466113e-004 -1.52818902e-004 3.18238854e-005
      3.00001066e-005 0. 0. 0. 0. 0. 0. -4.46248850e-006
      -6.19221901e-005 -1.51039611e-004 -7.31127584e-005 8.22960938e-005
      -5.08532830e-005 -2.71994417e-004 1.27980800e-003 8.71636323e-004
      7.84532458e-005 -6.11120893e-004 -2.53929524e-004 1.01980258e-004
      5.65012342e-005 1.52616140e-005 0. 0. 0. 0. 0. -1.33874655e-005
      -1.01043843e-004 -5.56021405e-004 -6.76847587e-004
      -7.24674901e-004 -5.87679388e-004 -3.04482994e-004 4.05148894e-004
      1.67082442e-004 4.04983264e-004 -5.55537059e-004 -4.07732558e-004
      -4.59373550e-005 -4.05820319e-004 1.56362312e-005 0. 0. 0. 0. 0.
      -9.23177595e-006 -1.09727189e-004 -4.41518525e-004
      -2.86980561e-004 -1.54636280e-006 -1.04279410e-004 6.12579170e-004
      8.27454205e-004 -1.18957360e-004 -3.48414615e-004 -6.47259876e-004
      -2.08331912e-004 -1.04286046e-004 -8.14004627e-004 1.62242490e-004
      0. 0. 0. 0. 0. -2.01529238e-005 -1.04117295e-004 1.58071038e-004
      3.88447719e-004 -1.91232888e-004 -7.87761601e-005 -6.98751130e-004
      -3.92511836e-004 -4.20483120e-004 2.62908841e-004 -1.00861616e-004
      1.42305170e-003 1.13158859e-003 7.51190164e-005 3.06119473e-005 0.
      0. 0. 0. 0. 0. 1.08830582e-005 1.52965149e-005 2.35988977e-004
      -3.46098415e-004 -8.31011392e-004 -1.73368433e-003
      -6.82040933e-004 2.07167934e-004 1.50340929e-004 1.00739871e-003
      1.46921282e-003 6.33989053e-004 1.08815555e-004 -2.00316990e-005
      0. 0. 0. 0. 0. 0. -3.89129636e-005 -1.77127906e-004
      -2.86468130e-004 -1.48552761e-003 -2.16445862e-003
      -1.68310641e-003 -7.30584725e-004 -6.44813626e-005 1.96249370e-004
      4.40457428e-004 4.65243851e-004 1.44059479e-004 -1.81726442e-004
      -5.89666979e-006 0. 0. 0. 0. 0. 0. -4.81956267e-005
      -4.24565689e-004 -1.17283256e-003 -2.18099356e-003
      -2.51560123e-003 -1.31536089e-003 -3.02812085e-004
      -6.80505764e-004 -4.88777332e-005 -5.19752211e-004 9.88459069e-005
      -3.50663868e-005 1.33817593e-004 0. 0. 0. 0. 0. 0. 0.
      -1.44463120e-004 -6.50013913e-004 -1.39058370e-003
      -1.44748297e-003 -1.20750465e-003 -4.34078793e-005
      -5.65760536e-004 8.38385968e-005 -1.29428809e-003 -1.57913333e-003
      -7.76510860e-004 -2.47743592e-004 1.16118044e-005 0. 0. 0. 0. 0.
      -5.89666979e-006 2.13017538e-005 -2.12258063e-004 -4.54297115e-004
      1.43638332e-004 5.38358545e-005 -6.37944031e-004 -1.05196428e-004
      -5.84784313e-004 1.49654676e-004 -3.91256704e-004 -1.25149300e-003
      -5.32997947e-004 1.56999653e-004 1.74177054e-004 0. 0. 0. 0. 0.
      1.81846881e-005 -2.70229139e-005 -3.03267257e-006 1.29836597e-004
      3.14774603e-004 3.67850822e-004 -4.09594184e-004 1.95371671e-004
      -1.66000464e-004 9.30252776e-004 7.93227460e-004 2.05452932e-004
      -1.10717279e-004 9.70577457e-005 0. 0. 0. 0. 0. 0.
      -7.96672703e-006 1.51089582e-004 6.81032834e-004 5.16666390e-004
      5.61009219e-004 8.65359267e-004 9.57589655e-004 8.02600756e-004
      7.82029645e-004 1.54991692e-003 1.23444875e-003 1.02766568e-003
      3.60846956e-004 0. 0. 0. 0. 0. 0. 0. 3.32875672e-004
      1.93517073e-004 5.52489480e-004 5.69253112e-004 1.59767282e-003
      9.93258203e-004 -1.16958625e-004 6.63620885e-004 8.37430009e-004
      1.65669865e-003 1.80368009e-003 1.01266021e-003 2.87500443e-004 0.
      0. 0. 0. 0. 0. 0. 3.87730950e-004 3.68108827e-004 4.83322656e-004
      -3.05868074e-004 2.90980533e-004 3.25141504e-004 2.92362296e-004
      1.33369653e-003 1.11925881e-003 1.69060775e-003 1.67736004e-003
      9.13089723e-004 5.59261134e-005 0. 0. 0. 0. 0. 0. 0.
      1.28772765e-004 -3.40292172e-004 -4.79521317e-004 1.49612228e-004
      9.15425539e-004 2.09995735e-004 -1.75692272e-004 4.84851160e-004
      9.81277786e-004 7.85677868e-004 1.01339584e-003 4.56041627e-004
      3.49203328e-005 0. 0. 0. 0. 0. 0. 0. -1.31556408e-005
      -2.30391124e-005 -1.38150557e-004 5.03340707e-005 8.36962543e-004
      1.48849707e-004 1.46070030e-004 -1.13526316e-004 1.29730004e-004
      7.77888417e-005 3.69811343e-004 1.34751404e-004 2.97909282e-005 0.
      0. 0. 0. 0. 0. 0. 0. 0. 0. 0. 0. 0. 0. 0. 0. 0. 0. 0. 0. 0. 0. 0.
      0. 0. 0. 0. 0. 0. 0. 0. 0. 0. 0. 0. 0. 0. 0. 0. 0. 0. 0. 0. 0. 0.</_>
    <_>
      0. 0. 0. 0. 0. 0. 0. 0. 0. 0. 0. 0. 0. 0. 0. 0. 0. 0. 0. 0. 0. 0.
      0. 0. 0. 0. 0. 0. 0. 0. 0. 0. 0. 0. 0. 0. 0. 0. 0. 0. 0. 0. 0. 0.
      0. 0. -9.40350390e-007 -1.05229527e-004 8.43498856e-005
      3.02949455e-004 3.51417897e-004 5.20858215e-004 -1.16791001e-004
      -3.01661261e-004 -3.63831001e-004 -3.88639222e-004
      -3.29305825e-004 0. 0. 0. 0. 0. 0. 0. 0. 1.96226305e-004
      4.51011554e-004 1.32671557e-005 9.70004330e-005 -3.14284880e-005
      6.22850086e-004 3.27089132e-004 -1.64851590e-004 -4.71865758e-004
      -2.27704118e-006 -4.57638438e-004 -3.20764841e-004
      -1.33238107e-004 0. 0. 0. 0. 0. 0. 0. 4.20639262e-004
      8.23241833e-004 1.45201004e-004 7.48059596e-004 5.56840387e-004
      1.76143309e-004 8.78615014e-004 4.54264780e-004 -4.26096027e-004
      -1.57000279e-004 -4.50377644e-004 -7.08657550e-004
      -1.97563073e-004 0. 0. 0. 0. -1.00828483e-005 -4.39978830e-005
      -5.86078495e-005 4.22180601e-004 5.58725849e-004 7.21910154e-004
      6.15977697e-005 2.53200124e-004 3.13768658e-004 -1.15504605e-004
      3.32813506e-004 2.78604304e-004 1.26701896e-004 -1.40312377e-005
      -3.81509482e-004 -9.63154089e-005 0. 0. 0. 0. -2.94503934e-005
      -7.42007687e-005 -9.69001194e-005 -2.74699763e-004 5.33593993e-004
      -4.50636217e-005 -2.27448938e-004 -4.68178914e-004
      -7.47259357e-004 -8.70193646e-004 2.66802177e-004 3.23050830e-004
      1.69043674e-003 5.63535083e-004 -3.80094280e-004 -8.60647924e-005
      0. 0. 0. 0. -4.89473241e-005 -8.36509280e-005 -6.76360287e-005
      -1.16143776e-004 -4.25315258e-004 -8.86622758e-004
      -1.68741867e-003 -2.83386861e-003 -2.41396506e-003
      -1.32708752e-004 7.58105714e-004 4.74335480e-004 1.15623837e-003
      7.96801003e-004 3.29715520e-004 2.17163961e-005 0. 0. 0. 0. 0.
      -6.11139039e-005 -1.81439565e-004 -4.32734931e-004
      -4.78409900e-004 -1.14962819e-003 -1.76150049e-003
      -2.71801045e-003 -1.64148689e-003 6.84094812e-006 4.82066360e-004
      8.51662553e-005 5.17970533e-004 4.47559840e-004 1.09352724e-004
      6.22822972e-006 0. 0. 0. 0. 0. -9.49147070e-005 -3.49623209e-004
      -4.34946181e-004 -6.20407227e-004 -1.94813532e-003
      -1.21533603e-003 -6.84993865e-004 -8.65218899e-005 6.01035659e-004
      5.25892654e-004 1.19225566e-004 4.04754886e-004 2.26283650e-004
      9.01204912e-005 0. 0. 0. 0. 0. 0. -1.86422567e-005
      -7.53955319e-005 -1.19716773e-004 -7.01014942e-004
      -1.23979768e-003 -1.01092469e-003 -7.66518409e-004 3.68545734e-004
      5.21619630e-004 7.89253681e-004 3.39262129e-004 4.76661589e-005
      6.26970723e-005 2.05528249e-005 0. 0. 0. 0. 0. 2.11080951e-005
      -3.43511347e-004 -3.10436240e-004 2.14301253e-004 5.52750367e-004
      2.33103041e-004 -6.27600239e-004 -3.76305747e-004 4.90048493e-004
      2.25754527e-004 -2.57087377e-004 -1.36236777e-004 3.65312699e-005
      3.28011345e-004 1.86841906e-004 0. 0. 0. 0. 0. -7.32764602e-006
      -2.02255702e-004 7.73361262e-006 5.44640243e-005 4.52158740e-004
      8.01558432e-004 2.24094940e-004 1.19404220e-004 2.32018065e-004
      -1.98922207e-004 4.34179645e-004 2.99147941e-004 3.07251117e-004
      1.86841906e-004 0. 0. 0. 0. 0. 0. 2.17585493e-005 6.25211687e-005
      -4.34782887e-005 5.69479947e-004 9.51522030e-004 7.11774919e-004
      9.57515149e-004 6.89214678e-004 1.93846892e-004 5.68804040e-004
      1.06065837e-003 1.13522622e-003 5.35910076e-004 0. 0. 0. 0. 0. 0.
      0. -2.78817752e-005 8.92848402e-005 -3.12423828e-004
      5.76449791e-004 9.48606292e-004 3.73296847e-004 -5.66916169e-005
      1.00143754e-003 1.02052196e-004 2.82626628e-004 9.48700414e-004
      1.17336516e-003 3.65953922e-004 -1.57493594e-006 0. 0. 0. 0. 0. 0.
      4.32910601e-005 -7.67310994e-005 1.17235038e-004 2.44914088e-004
      8.72986042e-004 4.44599456e-004 -1.15203271e-004 8.60552769e-004
      2.78378546e-004 8.23826820e-004 9.53669194e-004 6.48648129e-004
      -1.38108458e-004 -1.88992308e-005 0. 0. 0. 0. 0. 0.
      4.89689119e-005 3.04503104e-004 2.72738253e-004 3.85421212e-004
      5.07457415e-004 5.53732156e-004 -4.42500241e-005 2.87106464e-004
      -3.03930319e-005 5.06820797e-004 3.31730989e-004 -1.02262937e-004
      -6.39503196e-005 -6.29974375e-006 0. 0. 0. 0. 0. 0.
      1.24564599e-006 3.67265675e-005 4.54191249e-005 -8.76877893e-005
      1.45338008e-005 -3.29897157e-004 -3.06492118e-004 -1.39263255e-004
      5.89171577e-007 3.48681642e-005 1.30191387e-004 -2.68484204e-004
      -1.17103618e-005 0. 0. 0. 0. 0. 0. 0. 0. 0. 0. 0. 0. 0. 0. 0. 0.
      0. 0. 0. 0. 0. 0. 0. 0. 0. 0. 0. 0. 0. 0. 0. 0. 0. 0. 0. 0. 0. 0.
      0. 0. 0. 0. 0. 0. 0.</_>
    <_>
      0. 0. 0. 0. 0. 0. 0. 0. 0. 0. 0. 0. 0. 0. 0. 0. 0. 0. 0. 0. 0. 0.
      0. 0. 0. 0. 0. 0. 0. 0. 0. 0. 0. 0. 0. 0. 0. 0. 0. 0. 0. 0.
      -1.65661404e-005 -1.40655902e-005 0. 0. -1.14768263e-005
      1.51422937e-004 2.85520538e-004 2.55757623e-004 -8.68031634e-007
      -1.57271079e-005 -1.95038607e-004 -1.62768738e-005 2.69182492e-005
      -6.10675270e-005 1.49354100e-005 8.11062000e-006 0. 0. 0. 0.
      -1.40655902e-005 -2.15672389e-005 -5.03120900e-005
      -4.07253283e-005 -1.04582374e-004 -2.08578538e-004 3.05146968e-004
      1.67672246e-004 -3.71656206e-004 8.38602937e-005 9.04613917e-005
      -6.96463248e-005 -1.45137847e-005 -4.80029812e-005
      -6.73252289e-005 6.91364676e-006 0. 0. 0. 0. 0. -5.03120900e-005
      -5.64641305e-005 -1.26474813e-004 -1.70639280e-004 8.12525032e-005
      2.62126472e-004 1.78832808e-004 5.99053863e-004 4.27160179e-004
      1.65996607e-005 -3.11978802e-004 9.59220561e-005 -3.00936590e-005
      7.30192114e-005 3.05542271e-005 0. 0. 0. 0. -2.26250686e-005
      -1.30008630e-004 -1.28954940e-004 -7.50642284e-005 1.78953618e-004
      3.10169475e-004 2.30654477e-004 1.77193826e-004 4.98032954e-004
      -1.03704893e-004 -4.38627554e-004 -9.84450890e-005 3.04743025e-005
      4.66833852e-004 2.55674968e-004 7.53977656e-005 0. 0. 0. 0.
      -1.30426866e-004 -2.40048976e-004 -2.89481861e-004
      -4.22836229e-006 3.48185014e-004 -2.57509993e-004 8.82322129e-005
      2.19344933e-004 -2.39299243e-005 -1.57264469e-004 3.41374289e-005
      3.62248938e-005 2.22288378e-004 4.99678485e-004 4.85907571e-004
      1.07784130e-004 0. 0. 0. 0. -1.22441546e-004 -2.72721489e-004
      -4.59034054e-004 -3.10111325e-004 -2.37637578e-004
      -2.48333468e-004 -3.76440323e-004 -4.72557731e-005 2.09742691e-004
      6.86732004e-004 1.15941535e-003 5.81307162e-004 2.87622999e-004
      4.47262253e-004 2.84473412e-004 4.40501717e-005 0. 0. 0. 0.
      -1.40001823e-004 -3.98695265e-004 -6.06852758e-004
      -6.78706332e-004 -9.54217685e-004 -1.23936671e-003
      -1.88785561e-004 4.37390445e-005 5.72370074e-004 1.20388204e-003
      1.46944425e-003 9.53792827e-004 6.39402482e-004 3.05445545e-004
      2.75289367e-005 2.26424017e-005 0. 0. 0. 0. -1.57519549e-004
      -4.65442165e-004 -7.16896437e-004 -1.23148866e-003
      -1.40763202e-003 -1.28683716e-003 -1.55687085e-004 7.11854489e-004
      6.00731641e-004 8.58925574e-004 4.99470159e-004 8.97741338e-005
      4.10156572e-005 1.99954975e-005 7.00292585e-005 1.86971356e-005 0.
      0. 0. 0. -3.12619028e-004 -5.94364363e-004 -9.69747605e-004
      -1.05198880e-003 -1.53438398e-003 -8.71103664e-004 3.46640096e-004
      3.22041422e-004 2.70568289e-005 -1.03574923e-004 -5.16328255e-005
      -1.49262851e-004 -3.29722243e-004 -1.87215774e-004
      -4.41414959e-005 -1.36615272e-005 0. 0. 0. 0. -2.78969208e-004
      -6.53701834e-004 -9.91150504e-004 -8.16986256e-004
      -5.45316783e-004 2.23482100e-004 7.36629998e-004 4.51882312e-004
      -1.13917107e-004 -4.15213319e-004 -5.54591126e-004
      -7.70348066e-004 -5.97084174e-004 -2.86184862e-004
      -1.09257970e-004 -2.50054945e-005 0. 0. 0. 0. -3.17551487e-004
      -7.15984672e-004 -6.03636377e-004 -4.81312833e-004
      -8.88007111e-004 1.82785982e-007 9.67161846e-004 7.50130450e-004
      -3.59219499e-004 -5.11769555e-004 -1.23252464e-003
      -1.16941461e-003 -7.24517915e-004 -2.80987617e-004
      -8.48194832e-005 0. 0. 0. 0. 0. -7.97174725e-005 -3.56345583e-004
      -3.28473223e-004 -2.94312282e-004 -2.87693139e-004 2.10384969e-004
      1.21997413e-003 4.86884703e-004 -4.13677801e-004 -3.87745589e-004
      -4.09944099e-004 -8.32705759e-004 -2.87160685e-004
      -2.84193200e-004 -1.30074783e-004 0. 0. 0. 0. 0. 1.07045104e-004
      -1.38115123e-004 -2.31340979e-004 -1.29683816e-004
      -3.64432526e-005 -2.16792279e-004 2.77535233e-004 5.57227395e-005
      2.86851660e-004 1.37914656e-004 -1.52192719e-004 3.47962523e-005
      4.53058274e-005 -1.66459155e-004 -1.16997879e-004 0. 0. 0. 0. 0.
      4.10075445e-005 -1.22893674e-004 3.01693981e-005 1.89727158e-004
      4.28345666e-004 1.81212512e-004 -7.47102022e-005 5.27415192e-004
      4.35812195e-004 5.35891159e-004 8.60685614e-005 1.68432642e-004
      2.98817700e-004 -5.67041498e-005 -5.24095813e-005 0. 0. 0. 0. 0.
      5.39822395e-006 -9.83258069e-005 1.35331225e-004 3.31791147e-004
      4.70525410e-004 1.65961115e-004 -3.52983421e-004 -1.59625008e-004
      3.92102047e-005 -8.91391537e-005 3.62326718e-005 2.48958269e-004
      7.72951080e-006 -7.01676399e-005 -1.09399034e-005 0. 0. 0. 0. 0.
      5.18739034e-006 4.68138342e-006 -1.46592965e-005 1.93436772e-005
      9.17274083e-005 2.44511204e-004 -5.19958667e-006 -7.03712576e-005
      9.21997562e-005 6.95127383e-005 3.45302506e-005 -3.94162817e-005
      -9.91153138e-005 -3.39097533e-005 0. 0. 0. 0. 0. 0. 0. 0. 0. 0. 0.
      0. 0. 0. 0. 0. 0. 0. 0. 0. 0. 0. 0. 0. 0. 0. 0. 0. 0. 0. 0. 0. 0.
      0. 0. 0. 0. 0. 0. 0. 0. 0. 0. 0.</_>
    <_>
      0. 0. 0. 0. 0. 0. 0. 0. 0. 0. 0. 0. 0. 0. 0. 0. 0. 0. 0. 0. 0. 0.
      0. 0. 0. 0. 0. 0. 0. 0. 0. 0. 0. 0. 0. 0. 0. 0. 0. 0. 0. 0. 0.
      -7.36265647e-005 -1.07746191e-005 -2.65215902e-004
      -9.08156624e-004 -3.39626946e-004 -4.26725201e-005
      -3.81716563e-005 1.43933023e-004 1.33388443e-004 1.30336717e-004
      1.09056782e-004 6.39578575e-005 -6.64097388e-005 -2.82546516e-005
      0. 0. 0. 0. 0. 0. -4.39963624e-005 -1.26305589e-004
      -9.87215899e-005 -7.30146130e-004 -1.03172075e-004 5.72361110e-004
      4.45543956e-005 8.85948190e-004 6.00490370e-004 1.08836673e-003
      -1.40881049e-004 -2.49627425e-004 -3.94910719e-004
      -4.30809043e-004 -6.06027024e-005 0. 0. 0. 0. 0. 0.
      -8.55658436e-005 8.74960388e-005 -5.86258306e-004 -5.22331975e-004
      5.52867423e-004 -3.50176328e-004 7.90847349e-004 6.94420305e-004
      2.00397717e-005 -5.57042367e-004 -5.01829025e-004 -1.42385077e-004
      4.84863631e-005 -3.02293425e-004 0. 0. 0. 0. 0. -7.45244542e-005
      -3.54798656e-004 -1.15247378e-004 -5.19550464e-004 3.15249112e-004
      8.26362229e-004 1.56342227e-004 5.07831282e-004 1.54300869e-004
      8.11068574e-004 2.89110816e-004 -2.63186841e-004 4.49653104e-004
      1.43362966e-004 -1.74671615e-004 0. 0. 0. 0. 0. 0.
      -2.48468685e-004 -6.87322972e-005 3.08528863e-004 -5.66135568e-004
      -4.28768923e-004 2.66689662e-004 3.03668610e-004 -3.37384758e-004
      2.70697201e-004 -1.41460783e-004 4.43862838e-004 6.89716195e-004
      7.21578661e-004 1.29963344e-004 0. 0. 0. 0. 0. 0. -2.10410726e-004
      -3.39363964e-004 3.77273250e-006 -5.66262752e-004 -4.31038992e-004
      8.77072889e-005 8.50407057e-004 4.80849994e-004 -4.70754021e-005
      7.41075317e-004 4.57543152e-004 7.61951960e-004 4.84751334e-004
      8.22561851e-005 0. 0. 0. 0. 0. -5.60121625e-005 -3.80532991e-004
      -4.72671993e-004 -6.09043345e-004 -1.51036528e-003
      -1.71545625e-003 -6.03442022e-004 1.26930245e-004 2.90662079e-004
      3.33557284e-004 4.85941593e-004 4.48762439e-004 2.04918673e-004
      5.47041600e-005 1.01137548e-005 0. 0. 0. 0. 0. -3.88084271e-004
      -5.88127703e-004 -1.03417295e-003 -2.06569140e-003
      -2.49294541e-003 -2.22229701e-003 -9.77864722e-004
      -4.78106202e-004 5.66599738e-005 -4.99315618e-004 -6.18906284e-004
      -3.80418845e-004 -2.30669193e-005 1.73940259e-006 0. 0. 0. 0. 0.
      0. -4.72102518e-004 -3.58979189e-004 -1.18607735e-004
      -1.44709006e-003 -1.46008970e-003 -7.70845450e-004 9.13073454e-005
      -3.04931455e-004 -5.48324140e-004 -1.75772863e-003
      -1.05743797e-003 -6.01640088e-004 0. 0. 0. 0. 0. 0. 0.
      -3.68079927e-004 -5.62725007e-004 -4.66414349e-004
      -1.76029018e-004 8.37108164e-005 -5.21985348e-004 4.06766398e-004
      8.01060174e-004 -2.05638007e-005 -8.21481342e-004 -1.36010407e-003
      -6.95593306e-004 -2.62851390e-004 1.51706327e-005 0. 0. 0. 0. 0.
      0. -4.76074900e-004 -2.81592715e-004 4.75585875e-005
      -3.50226692e-005 1.54990921e-005 -7.41302574e-005 4.93647240e-004
      1.12322858e-003 3.57444835e-004 -9.38107085e-004 -7.69479375e-004
      -8.90132796e-004 -1.94240769e-004 7.41675394e-005 0. 0. 0. 0. 0.
      0. -4.52313951e-004 -3.16377729e-004 3.99665412e-004
      -5.14078383e-005 2.97697028e-004 5.64648886e-004 4.04876453e-004
      8.64031608e-004 -6.74242028e-006 1.73113622e-005 -8.50113109e-004
      -7.68064812e-004 -8.49004209e-005 0. 0. 0. 0. 0. 0. 0.
      -6.04869047e-006 -1.58163297e-004 9.49622699e-005 2.87971430e-004
      1.58748298e-004 7.97376677e-004 1.48456299e-003 1.07969414e-003
      4.81738971e-004 4.35463473e-004 4.74120432e-004 -3.73702605e-005
      -1.57212315e-004 -1.56231981e-004 0. 0. 0. 0. 0. 0.
      5.45047515e-005 7.04090780e-005 1.07396758e-004 1.90377294e-004
      4.15937888e-004 5.86006172e-005 6.07994327e-004 8.48394469e-004
      1.14532049e-004 4.04822786e-004 1.10153889e-003 -4.89086669e-004
      -5.12326020e-004 -2.47150660e-004 -1.05950428e-004 0. 0. 0. 0. 0.
      2.83486224e-005 -1.57411589e-004 -7.46851263e-004 1.19200078e-004
      7.24822981e-004 5.62563713e-004 2.30716061e-004 7.41161406e-004
      9.71287023e-004 2.79972359e-004 4.10258916e-004 -2.98985415e-005
      -3.11790442e-004 -1.00563113e-004 0. 0. 0. 0. 0. 0. 0.
      -1.96187466e-004 -2.16672954e-004 1.42879027e-004 6.26959081e-004
      1.58651368e-004 1.20389981e-004 -3.98936136e-005 8.85676054e-005
      -3.75617994e-004 1.42945442e-004 -1.28724569e-004 -2.63316288e-005
      0. 0. 0. 0. 0. 0. 0. 0. 0. 0. 0. 0. 0. 0. 0. 0. 0. 0. 0. 0. 0. 0.
      0. 0. 0. 0. 0. 0. 0. 0. 0. 0. 0. 0. 0. 0. 0. 0. 0. 0. 0. 0. 0. 0.
      0.</_>
    <_>
      0. 0. 0. 0. 0. 0. 0. 0. 0. 0. 0. 0. 0. 0. 0. 0. 0. 0. 0. 0. 0. 0.
      0. 0. 0. 0. 0. 0. 0. 0. 0. 0. 0. 0. 0. 0. 0. 0. 0. 0. 0. 0.
      -6.84258794e-006 -2.62299200e-005 -2.39490564e-005
      -8.50473734e-005 -1.04486913e-004 2.93238554e-004 6.14206889e-004
      5.75020094e-004 4.57650924e-004 6.99497177e-004 3.06286180e-004
      -1.12054193e-004 -1.21252087e-004 2.97870847e-005 6.26140754e-005
      3.13070377e-005 0. 0. 0. 0. -1.82469012e-005 -6.78556607e-005
      -7.57608941e-005 -2.34268577e-004 -1.76367263e-004 4.93441068e-004
      6.83971739e-004 5.74899954e-004 1.20770570e-003 6.32966985e-004
      9.31471353e-004 2.93200894e-004 7.25426726e-005 2.20538408e-004
      1.61949865e-004 6.43861713e-005 0. 0. 0. 0. 0. 0. 5.78291074e-005
      2.07186560e-004 4.13826172e-004 6.21938787e-004 5.69138560e-004
      4.00439283e-004 8.22162547e-004 9.10105242e-004 6.13924814e-004
      -1.90243718e-005 2.80067761e-004 4.94616805e-004 2.76293402e-004
      8.50664292e-005 0. 0. 0. 0. 0. 0. 1.92127583e-004 4.38792864e-004
      4.56475420e-004 3.86374595e-004 6.42274972e-004 6.18853781e-004
      9.55095689e-004 5.83921326e-004 9.14213422e-004 3.18581762e-004
      9.87649430e-004 6.49474736e-004 3.23696207e-004 1.00764177e-004 0.
      0. 0. 0. 0. 0. 2.08349025e-004 7.22371915e-004 7.98515219e-004
      5.09782636e-004 1.02326980e-004 1.86658726e-004 -3.76852811e-004
      3.51539056e-005 6.63514424e-004 9.25618922e-004 1.32180494e-003
      7.85206095e-004 2.21228678e-004 7.85868324e-005 0. 0. 0. 0. 0. 0.
      1.87064856e-004 6.83335587e-004 4.96470602e-004 8.40773573e-005
      -3.19138082e-004 -6.25092827e-004 -1.34331931e-003
      -5.26977146e-006 1.08309221e-004 2.85023179e-006 8.19182489e-004
      8.20404850e-004 7.19718955e-005 3.22827327e-005 0. 0. 0. 0. 0. 0.
      2.31525737e-005 1.57578092e-004 -3.81103193e-004 -6.21345825e-004
      -8.37130938e-004 -8.24129325e-004 -1.44640566e-004 2.40649260e-005
      -8.79106574e-006 -1.60021547e-004 2.26667311e-004 4.29149659e-004
      -1.86475183e-004 0. 0. 0. 0. 0. 0. 0. 0. -1.02707789e-004
      -4.98895184e-004 -9.90734436e-004 -1.84837775e-003
      -1.59289711e-003 -2.17783490e-005 -2.37748486e-006
      -4.29278502e-004 -9.07938811e-004 -7.69822218e-004
      -2.45171395e-004 -2.66123534e-004 0. 0. 0. 0. 0. 0. 0. 0.
      -1.68694154e-004 -5.33524901e-004 -7.85997312e-004
      -4.86025878e-004 -3.90589004e-004 -3.36018653e-004 3.71376635e-004
      -5.41568093e-004 -9.11857176e-004 -1.11623772e-003
      -6.52209565e-004 -4.64120443e-004 0. 0. 0. 0. 0. 0. 0.
      -2.82056244e-005 -2.24132717e-004 -1.69983439e-004
      -1.53120287e-004 -7.44114186e-006 1.50688909e-004 2.87936855e-004
      -3.72421520e-004 -1.16115063e-003 -1.23996101e-003
      -8.30911333e-004 -4.00377932e-004 -1.42010569e-004 0. 0. 0. 0. 0.
      0. 0. -1.15418770e-004 -3.75794654e-004 2.37528229e-006
      1.81772251e-004 -1.02323727e-004 4.86984325e-004 1.96136883e-004
      -8.67437513e-004 -1.09805935e-003 -1.40717288e-003
      -1.05435250e-003 -4.83063137e-004 -2.70484714e-004 0. 0. 0. 0. 0.
      0. 0. 3.60568156e-005 1.63375298e-004 8.41000117e-004
      3.60070320e-004 2.23110954e-004 1.22893741e-003 -2.03432734e-004
      -4.84152726e-004 -6.02650456e-004 -8.37915577e-004
      -6.99170399e-004 -2.75599479e-004 -2.35780699e-005 0. 0. 0. 0. 0.
      1.66911323e-005 1.21975267e-004 1.12729220e-004 6.03095941e-005
      1.10398059e-005 6.17696438e-004 7.87361350e-004 1.98635156e-003
      3.74730327e-004 -2.42487920e-004 1.97419049e-005 -3.28079441e-005
      -2.09313876e-005 -1.68306302e-004 -4.90385464e-005
      -1.19745282e-005 0. 0. 0. 0. 7.10354216e-005 1.89723985e-004
      3.62618593e-004 -1.51973640e-004 -2.23066731e-004 4.50983847e-004
      1.21459118e-004 8.52492580e-004 4.24683560e-004 -1.17569274e-004
      -5.54136132e-005 -5.50467696e-004 -1.15120427e-004
      -1.34181028e-004 -6.50045840e-005 -1.19745282e-005 0. 0. 0. 0.
      2.06744589e-005 -3.35092773e-005 -1.35650378e-004 5.44661416e-005
      1.98222100e-004 1.82188902e-004 4.17743955e-004 7.24660873e-004
      7.32553774e-004 5.85296191e-004 4.70991072e-005 -8.02617506e-005
      8.90900174e-006 -6.29710557e-005 -1.02638814e-005 0. 0. 0. 0. 0.
      0. -8.61526860e-005 -1.28727348e-004 1.46948165e-004
      3.85886757e-004 -4.83910662e-005 -1.21967976e-004 1.29871129e-004
      2.68492382e-004 3.32348223e-004 1.77077251e-004 -5.52793535e-005
      3.38363534e-005 -2.12182058e-005 0. 0. 0. 0. 0. 0. 0. 0. 0. 0. 0.
      0. 0. 0. 0. 0. 0. 0. 0. 0. 0. 0. 0. 0. 0. 0. 0. 0. 0. 0. 0. 0. 0.
      0. 0. 0. 0. 0. 0. 0. 0. 0. 0. 0.</_>
    <_>
      0. 0. 0. 0. 0. 0. 0. 0. 0. 0. 0. 0. 0. 0. 0. 0. 0. 0. 0. 0. 0. 0.
      0. 0. 0. 0. 0. 0. 0. 0. 0. 0. 0. 0. 0. 0. 0. 0. 0. 0. 0. 0. 0. 0.
      0. 3.48751746e-005 1.71133448e-004 1.13169153e-004 5.03615942e-004
      8.57948267e-004 6.84386119e-004 9.20199440e-004 -8.94041790e-004
      -3.30589188e-004 -1.61534088e-004 -1.21710524e-004
      -3.21345906e-005 0. 0. 0. 0. 0. 0. 0. 0. 2.74341059e-004
      1.01220957e-003 6.37200064e-005 4.93863598e-004 1.18939334e-003
      1.30594650e-003 1.37664692e-003 -5.61458583e-005 -2.22080889e-005
      -9.60652425e-004 -5.84918482e-004 1.43244732e-004 5.68142023e-005
      0. 0. 0. 0. 0. 0. 1.59229658e-005 6.82891055e-004 1.65450177e-003
      1.38123904e-003 8.07493809e-004 8.84159119e-004 1.35624420e-003
      6.23446889e-004 1.18224684e-003 -6.00132917e-004 -5.76216053e-006
      -6.65277068e-004 3.41538020e-004 1.12381400e-004 0. 0. 0. 0. 0. 0.
      7.76244560e-005 1.66399288e-003 1.95774226e-003 3.40367132e-003
      2.72364472e-003 1.17819954e-003 -2.78396328e-004 -7.52608932e-004
      1.56955139e-005 -5.98750194e-004 5.54713071e-004 9.09720373e-004
      8.01118673e-004 3.20299121e-004 0. 0. 0. 0. 0. 0. 9.15570563e-005
      2.19015800e-003 2.92553497e-003 2.68828589e-003 1.94735092e-003
      7.21153920e-004 -7.21585471e-004 -6.47565408e-004 2.58804590e-004
      -2.14738568e-004 1.36170071e-003 1.38149341e-003 1.12249015e-003
      3.58665595e-004 0. 0. 0. 0. 0. 0. 5.97111211e-005 1.36539550e-003
      1.22618990e-003 1.74619688e-003 1.89697451e-003 -2.66374438e-003
      -2.42708600e-003 -6.34283409e-004 4.87686222e-004 5.46512310e-004
      2.13905354e-003 1.89956615e-003 1.05548056e-003 2.15464723e-004 0.
      0. 0. 0. 0. 0. 0. 3.89250345e-004 3.05449968e-004 1.00023486e-003
      8.72995646e-004 -2.53376900e-003 -1.95221836e-003 1.06376356e-005
      1.66335865e-003 5.97507635e-004 9.27391346e-004 6.95667753e-004
      3.66970780e-004 1.80580595e-004 0. 0. 0. 0. 0. 0. 0.
      -1.81294497e-004 -2.57304840e-004 -3.15833531e-005 6.52215269e-004
      -6.19654777e-004 -5.53406833e-004 -1.28059962e-003 4.92413237e-004
      5.43346221e-004 7.22832570e-004 -3.26499634e-004 2.59842811e-004
      1.74755423e-005 0. 0. 0. 0. -1.07623579e-004 -2.36736407e-004
      -2.17949579e-004 -4.74182423e-004 -7.76133558e-004 1.04054564e-003
      1.83073326e-003 -3.57454614e-004 -1.06718531e-003 -6.22948282e-005
      1.26023093e-004 -2.67458439e-004 -5.22268412e-004 -8.13638559e-004
      -1.35843075e-004 0. 0. 0. 0. 0. -2.47200980e-004 -6.92032743e-004
      -3.92090325e-004 -4.09059925e-004 9.73068119e-004 3.61440470e-004
      1.86350557e-003 9.17005644e-004 -7.48289109e-004 -5.31782862e-004
      -2.03476660e-003 -2.05129664e-003 -1.07949856e-003
      -1.08390965e-003 -7.31571845e-006 0. 0. 0. 0. 0. 3.44417749e-005
      -3.50628718e-004 -7.92371691e-004 -1.52972434e-003 2.61345092e-004
      1.89900445e-003 2.32529151e-003 -3.27153160e-004 -1.62938260e-003
      -1.82343379e-003 -2.71458225e-003 -2.55538896e-003
      -1.21758098e-003 -1.23279914e-003 -1.34531627e-004 0. 0. 0. 0. 0.
      7.78059184e-005 -5.90996933e-004 -1.09985773e-003 2.98823405e-004
      -2.12762228e-004 2.97752878e-004 -8.09118908e-004 -2.21812807e-004
      -2.70237075e-003 -2.23986965e-004 -6.11072814e-004
      -7.25980324e-004 -9.24803549e-004 -1.05800352e-003
      -1.08660162e-004 0. 0. 0. 0. 0. -4.71455896e-005 -1.26993912e-003
      -7.12390000e-004 6.19683124e-004 4.78576287e-004 1.58524781e-003
      -7.21550241e-005 1.38597330e-003 8.01543589e-004 -5.34613035e-004
      -1.00747260e-004 -3.30599898e-004 8.33518279e-005 -6.52153394e-004
      -7.18156807e-005 0. 0. 0. 0. 0. -1.97903020e-004 1.45772632e-004
      -3.37426871e-004 -1.08156225e-003 6.35292847e-004 1.40433287e-004
      -5.40634559e-004 -9.70386463e-005 -1.35083988e-004 5.18296089e-004
      2.16694098e-004 4.25278762e-004 3.72649927e-004 -4.68237158e-005
      -1.48984545e-005 0. 0. 0. 0. 0. -1.90461011e-004 -2.81704677e-004
      -6.19171944e-004 3.81660589e-004 5.93916222e-004 5.65878872e-004
      -1.17207645e-003 -5.14100648e-005 5.11950057e-004 1.11571222e-003
      1.30326266e-003 2.17451336e-004 2.00570197e-004 0. 0. 0. 0. 0. 0.
      0. 0. 2.56766616e-005 -7.36835864e-005 4.88869497e-004
      -1.11805974e-004 2.27226745e-004 -3.19391169e-004 -2.14410698e-004
      -2.71275669e-004 5.69326920e-004 1.21200271e-003 2.46033072e-004
      0. 0. 0. 0. 0. 0. 0. 0. 0. 0. 0. 0. 0. 0. 0. 0. 0. 0. 0. 0. 0. 0.
      0. 0. 0. 0. 0. 0. 0. 0. 0. 0. 0. 0. 0. 0. 0. 0. 0. 0. 0. 0. 0. 0.
      0. 0.</_>
    <_>
      0. 0. 0. 0. 0. 0. 0. 0. 0. 0. 0. 0. 0. 0. 0. 0. 0. 0. 0. 0. 0. 0.
      0. 0. 0. 0. 0. 0. 0. 0. 0. 0. 0. 0. 0. 0. 0. 0. 0. 0. 0. 0. 0. 0.
      4.70060622e-005 8.78037754e-005 2.37822023e-005 3.43297317e-004
      2.45350646e-004 3.84933446e-005 4.47980856e-004 9.55538824e-004
      -2.25304611e-004 2.98845436e-004 7.68925092e-005 4.41985903e-005
      0. 0. 0. 0. 0. 0. 0. 0. 3.01116888e-005 2.53135047e-004
      3.26378678e-004 7.57009315e-004 6.81151345e-004 -1.66598853e-004
      7.04319100e-004 5.52989601e-004 1.14801328e-003 -2.34709496e-005
      1.19126664e-004 6.41980296e-005 4.34703870e-005 -2.62836184e-005
      0. 0. 0. 0. 0. 0. -5.80434680e-005 4.27162158e-004 7.31242471e-004
      5.66131668e-004 5.16564527e-004 7.51843094e-004 9.41763108e-004
      4.48852661e-004 -5.39558241e-005 -2.62330635e-004 2.16924760e-004
      -2.32412771e-004 -2.74204765e-004 -3.18536258e-005 0. 0. 0. 0. 0.
      -1.11070085e-005 9.56488657e-005 7.13890768e-004 5.09640377e-004
      5.20088244e-004 6.32763491e-004 4.93328029e-004 6.06354675e-004
      4.10164910e-004 3.80661484e-004 2.13751453e-004 6.37964113e-004
      2.05035627e-004 -1.41475204e-004 1.16315441e-005 0. 0. 0. 0. 0.
      -5.55718507e-005 1.48076128e-004 3.96574964e-004 1.72945496e-004
      3.02147437e-005 -4.06908599e-004 -3.59419821e-004 -1.52508175e-004
      2.65496928e-004 8.99068662e-004 2.68447679e-004 1.24881917e-003
      1.12642965e-003 4.82350617e-004 7.02566977e-005 0. 0. 0. 0.
      -4.28912199e-006 -4.77930735e-005 5.62802416e-005 2.26066855e-004
      -1.52332621e-004 -4.98674635e-004 -4.35423339e-004
      -9.17925616e-004 -4.31006134e-004 2.07138975e-004 6.40455110e-004
      5.46483672e-004 2.66964664e-004 4.18263051e-004 2.35404121e-004
      1.91619674e-005 0. 0. 0. 0. -6.74004878e-006 -5.82095126e-005
      -1.12803013e-004 -5.18357381e-004 -7.23700039e-004
      -8.71775206e-004 -1.90371543e-003 -9.80252516e-004
      -1.97933419e-004 7.33253604e-004 9.99966753e-004 3.39045830e-004
      5.85943693e-004 2.85955204e-004 2.01008261e-005 0. 0. 0. 0. 0. 0.
      0. -3.91093519e-004 -7.64221826e-004 -1.41396001e-003
      -2.08633603e-003 -2.00251909e-003 -1.98044069e-003
      -1.72227086e-003 1.10121083e-003 7.45591125e-004 9.17631260e-004
      2.86834227e-004 1.09169632e-004 5.40962137e-005 0. 0. 0. 0. 0. 0.
      0. -3.95309791e-004 -5.54054859e-004 -1.53461704e-003
      -1.84514828e-003 -1.06818625e-003 -9.14612843e-004
      -1.36747898e-003 1.84634904e-004 -2.93143356e-004 1.69512365e-004
      7.24854999e-006 1.88718896e-005 1.41539176e-005 0. 0. 0. 0. 0. 0.
      -2.61182373e-004 -5.51118399e-004 -2.21713271e-004
      -4.20340511e-004 -6.54396310e-004 -1.51201675e-004
      -4.53310611e-004 -5.77627798e-004 -4.22619371e-004
      -2.26385100e-003 -3.12478282e-004 8.14913619e-006 3.72719835e-004
      2.12308762e-004 0. 0. 0. 0. 0. 1.04298393e-004 -2.53782346e-004
      -3.75303571e-005 -1.44173828e-004 -1.34331451e-004 2.65677721e-004
      2.44225666e-004 -7.79080074e-005 -2.63672177e-004 -6.99142925e-004
      -1.03256025e-003 -6.04028057e-004 7.37394148e-005 1.86185032e-004
      0. 0. 0. 0. 0. 0. 6.88646696e-006 5.20321373e-005 8.17398322e-005
      -2.79808184e-004 7.01350218e-004 -1.21190300e-004 1.05562678e-003
      8.23327224e-004 3.61493476e-005 -3.89575696e-004 -5.36056235e-004
      4.74454209e-005 1.17007658e-005 -1.82386910e-004 -3.48578360e-005
      0. 0. 0. 0. 0. 2.43437898e-005 -1.99289207e-004 -6.86988002e-004
      4.14263661e-004 5.49552438e-004 4.39563271e-004 1.27930590e-003
      2.81657092e-004 4.77365160e-004 -1.97474175e-004 5.40979781e-005
      6.12432661e-004 -5.99040766e-004 -3.18468694e-004 -2.21361788e-005
      0. 0. 0. 0. 0. 1.79166600e-004 -1.93194410e-005 -5.08494908e-004
      -1.67075021e-004 -2.55729683e-004 4.16988973e-004 -2.91889628e-005
      5.39108645e-004 5.47262083e-004 1.74038621e-004 -2.77274958e-004
      -1.71881155e-004 -9.69307206e-004 -3.20605701e-004
      -1.89946823e-005 0. 0. 0. 0. 0. 1.13285991e-004 3.89701047e-004
      2.36890977e-004 -2.22983581e-004 3.53000032e-005 3.77477932e-004
      -1.68208338e-004 3.88133834e-004 6.53017370e-004 2.16026849e-004
      -1.02563249e-003 -2.59813038e-004 -3.38818558e-004
      -1.23535690e-004 -3.06365860e-006 0. 0. 0. 0. 0. 0.
      8.02055365e-005 -1.03180973e-004 4.65035664e-005 5.53182792e-004
      2.56335741e-004 -3.06770060e-004 -4.72754793e-004 1.18282936e-004
      -2.93624616e-004 -5.55940846e-004 -2.16297121e-004 5.22875871e-006
      0. 0. 0. 0. 0. 0. 0. 0. 0. 0. 0. 0. 0. 0. 0. 0. 0. 0. 0. 0. 0. 0.
      0. 0. 0. 0. 0. 0. 0. 0. 0. 0. 0. 0. 0. 0. 0. 0. 0. 0. 0. 0. 0. 0.
      0.</_>
    <_>
      0. 0. 0. 0. 0. 0. 0. 0. 0. 0. 0. 0. 0. 0. 0. 0. 0. 0. 0. 0. 0. 0.
      0. 0. 0. 0. 0. 0. 0. 0. 0. 0. 0. 0. 0. 0. 0. 0. 0. 0. 0. 0. 0. 0.
      1.55663438e-004 2.72661564e-004 -7.69741891e-005 5.42531023e-004
      1.99821847e-003 1.45789213e-003 2.28447425e-005 1.02890865e-003
      7.92107254e-004 1.75301204e-004 -2.36074746e-004 -9.13576223e-005
      -2.50587891e-005 0. 0. 0. 0. 0. 0. -1.58427556e-005
      9.75736766e-005 2.68364092e-004 2.84242589e-004 3.75392905e-004
      1.03696890e-003 5.79463958e-004 7.91813247e-004 2.05946853e-003
      6.38095371e-004 4.97076508e-005 -8.34292034e-004 -3.72393726e-004
      -1.69300401e-004 1.02792055e-005 0. 0. 0. 0. 0. -6.56342745e-005
      2.04593744e-004 1.75863504e-004 1.56502577e-003 1.02442165e-003
      7.66598620e-004 9.93421767e-004 1.29636261e-003 1.21681963e-003
      8.30443692e-004 -8.97602644e-004 -3.89871973e-004 4.90541512e-004
      3.65662621e-004 1.03891769e-004 0. 0. 0. 0. 0. -1.35795053e-005
      8.19523993e-004 1.57326774e-003 1.36535766e-003 1.44582789e-003
      8.72372824e-004 6.41371938e-004 2.33538286e-003 5.05569333e-004
      9.71588815e-005 2.45810224e-005 5.92896424e-004 1.16419233e-003
      8.93583987e-004 1.99204107e-004 0. 0. 0. 0. 0. -3.39487633e-005
      6.58908917e-004 2.11824267e-003 1.04954990e-003 4.79903858e-004
      1.13377442e-004 -9.63440689e-004 2.64928003e-005 1.72933665e-004
      1.28736847e-005 1.19381992e-003 1.67907111e-003 9.57917131e-004
      9.19185055e-004 2.14920496e-004 0. 0. 0. 0. 0. 0. 4.29147534e-004
      1.05406647e-003 -6.86167477e-005 8.34058392e-006 -2.77506828e-004
      -1.74814952e-003 -1.61319657e-003 1.24950148e-003 1.94434437e-003
      2.23929249e-003 1.65176368e-003 1.07742846e-003 7.55338813e-004
      7.27808292e-005 0. 0. 0. 0. 0. 0. -1.76626825e-004
      -3.01420368e-004 -2.80806737e-004 -6.49892259e-004
      -1.58721046e-003 -1.09664514e-003 -5.42344002e-004 1.82578689e-003
      1.54725800e-003 1.35197828e-003 1.30663835e-003 1.07220991e-003
      2.55927735e-004 1.60837171e-005 0. 0. 0. 0. 0. 0. -2.31829414e-004
      -9.18247562e-004 -1.04009244e-003 -1.69531582e-003
      -1.54046784e-003 -6.74962532e-004 -1.71161257e-004 1.68001233e-003
      1.67083007e-003 1.07065216e-003 1.12704618e-003 5.43514499e-004
      1.83816897e-004 0. 0. 0. 0. 0. 0. 0. -1.93191168e-004
      -9.03035223e-004 -1.60724786e-003 -1.48923008e-003
      -7.39422278e-004 -1.25790201e-003 5.00920520e-004 1.90512475e-003
      9.35578078e-004 9.79970093e-004 1.33450550e-004 1.29800697e-004
      2.82235796e-005 0. 0. 0. 0. 0. 0. 0. -2.23528245e-004
      -1.29679113e-003 -1.87184673e-003 -6.68438384e-004
      -5.43629983e-004 -1.96155882e-003 4.21604229e-004 2.02264683e-003
      4.07824664e-005 -8.71864759e-005 1.14157165e-005 1.92621694e-004
      1.09721223e-004 0. 0. 0. 0. 0. 0. -3.18206844e-006
      -1.84228571e-004 -9.65905201e-004 -1.16787164e-003
      -4.42543067e-004 -1.53698667e-003 -1.88024936e-003
      -8.35494604e-004 -6.70283800e-004 -1.06567626e-004
      -4.82432311e-004 -1.28863176e-004 9.73907008e-005 -5.96637847e-006
      0. 0. 0. 0. 0. 0. -5.34504798e-005 -2.64824688e-004
      -9.48746456e-004 3.03987297e-004 1.86833204e-004 -2.30688835e-004
      3.40883009e-004 -3.85354535e-004 1.70026848e-004 7.26359081e-004
      -3.27869988e-004 -1.57155562e-004 -9.62575723e-005
      -4.65377525e-005 0. 0. 0. 0. 0. 6.01209140e-005 1.70525280e-004
      -8.66382106e-005 -8.33046448e-004 8.89293806e-005 -6.33728341e-004
      -9.61183570e-004 5.15794207e-004 3.24061722e-004 -1.89569342e-004
      -5.97081729e-004 -9.71700472e-004 -7.47952086e-004
      -1.96738780e-004 -8.35292940e-006 0. 0. 0. 0. 0. 2.51704245e-004
      8.99551262e-004 -3.22327047e-004 -1.32866320e-003 -2.06973891e-005
      -1.75274152e-004 -4.23039572e-004 4.24033875e-004 1.72288099e-004
      -1.22397090e-004 -1.01302913e-003 -8.61255859e-004
      -8.79319734e-004 -6.08556846e-004 -2.17952111e-004 0. 0. 0. 0. 0.
      1.26379338e-004 4.56144306e-004 -2.54654587e-005 7.75640656e-005
      -1.90785955e-004 2.36843756e-004 -2.04596319e-003 -1.08952794e-004
      -2.89139367e-004 1.86476915e-004 -2.56392232e-004 -7.61146890e-004
      -8.82527267e-004 -7.78153248e-004 -3.14819714e-004 0. 0. 0. 0. 0.
      3.21674338e-006 2.20123729e-005 1.22848855e-004 1.24694634e-004
      -3.53541778e-004 -4.59346804e-004 -6.18544873e-004
      -1.29025127e-003 -4.41230775e-004 -3.62119550e-004
      -5.27925207e-004 -9.59784084e-004 -7.25710473e-004
      -3.11360141e-004 0. 0. 0. 0. 0. 0. 0. 0. 0. 0. 0. 0. 0. 0. 0. 0.
      0. 0. 0. 0. 0. 0. 0. 0. 0. 0. 0. 0. 0. 0. 0. 0. 0. 0. 0. 0. 0. 0.
      0. 0. 0. 0. 0. 0.</_>
    <_>
      0. 0. 0. 0. 0. 0. 0. 0. 0. 0. 0. 0. 0. 0. 0. 0. 0. 0. 0. 0. 0. 0.
      0. 0. 0. 0. 0. 0. 0. 0. 0. 0. 0. 0. 0. 0. 0. 0. 0. 0. 0. 0. 0. 0.
      0. -2.39897090e-005 -4.14253482e-005 -4.89236227e-005
      5.56103594e-004 3.65948275e-004 4.65530582e-004 1.10755756e-003
      -6.83960607e-005 -1.61216987e-004 -1.35340713e-004 3.25700967e-005
      3.27400157e-005 2.88921501e-006 0. 0. 0. 0. -6.67675122e-005
      -4.61769414e-005 -1.44419355e-005 -3.47748573e-005
      -2.46264040e-004 3.86027503e-004 7.92653474e-004 6.66906533e-004
      1.29061146e-003 1.04246568e-003 8.56555183e-004 6.67291693e-004
      -4.65610385e-004 -1.44634498e-004 1.24269878e-004 1.66317623e-005
      0. 0. 0. 0. -1.21881239e-004 -2.39050438e-004 -2.73904094e-004
      -3.47658526e-004 -5.70229429e-004 2.17847148e-004 3.27913382e-004
      3.06761824e-004 1.36228406e-003 1.22423167e-003 8.98685190e-004
      -9.89779292e-005 -6.70501540e-005 -2.73159996e-004
      -1.12004076e-004 8.03106104e-006 0. 0. 0. 0. -1.23509715e-004
      -1.54808484e-004 -4.22843616e-004 -5.10271580e-004
      -1.52247446e-003 3.82481056e-004 6.13893615e-004 3.06978036e-004
      7.68025813e-004 1.32945343e-003 1.05438707e-003 8.09700214e-005
      5.14582673e-004 -4.41915006e-004 -2.03110758e-004 2.40460780e-004
      0. 0. 0. 0. -1.05036692e-004 -1.49259751e-004 -1.97284418e-004
      -1.85607467e-004 -2.37657514e-004 -3.34014301e-004
      -1.49408579e-005 -5.68508631e-006 1.52429609e-004 2.09547026e-004
      3.05564114e-004 8.14636238e-004 3.52820061e-004 6.83317659e-004
      2.36747321e-004 -1.33327281e-004 0. 0. 0. 0. -1.03408216e-004
      -5.13739651e-005 -1.79917086e-004 -4.72651591e-004
      -8.22769434e-005 -9.12574003e-004 -8.31863319e-004
      -8.79190397e-004 -2.31975064e-004 4.01719910e-004 4.79124545e-004
      -2.05806602e-004 1.93151427e-004 6.85800391e-004 7.98132038e-004
      1.48031570e-004 0. 0. 0. 0. -1.06665168e-004 -1.88514648e-004
      -5.73015655e-004 -1.00353756e-003 -1.37990317e-003
      -1.78710406e-003 -6.57394354e-004 -8.45483621e-004
      -2.73453275e-004 -1.93030530e-004 -2.38269364e-004 1.36722228e-004
      -2.42138885e-005 4.63133561e-004 -1.68648097e-004 1.47157125e-005
      0. 0. 0. 0. -8.14237937e-005 -1.65538411e-004 -4.24541067e-004
      -1.07527641e-003 -2.23648804e-003 -2.41251942e-003
      -1.38558948e-003 -1.26356422e-003 9.82568483e-004 8.97310674e-004
      -1.26319064e-004 -1.03126993e-004 -1.14959461e-004 3.49264388e-004
      -2.22715811e-004 0. 0. 0. 0. 0. -4.07118978e-006 -4.00275894e-004
      -5.25422860e-004 -1.05198158e-003 -2.36626109e-003
      -1.36106100e-003 -6.54284668e-004 -9.85004823e-004
      -3.45212815e-004 7.23298115e-004 -1.18322065e-003 -1.19647535e-003
      -6.26316527e-004 -3.09869734e-004 -2.90385855e-004 0. 0. 0. 0. 0.
      -8.06095559e-005 -3.07114940e-004 -3.50188988e-004
      -7.74508284e-004 -5.68977441e-004 -3.30244191e-004
      -7.51697342e-004 -2.22902032e-004 -2.09291946e-004
      -1.01738679e-003 -1.30183413e-003 -1.20206305e-003
      -8.59356718e-004 -1.48520148e-005 1.08473541e-004 0. 0. 0. 0. 0.
      -4.29950996e-005 -2.66414077e-004 5.81448141e-004 6.39916689e-005
      4.42929682e-004 1.62843789e-004 -5.00635302e-004 1.54890367e-005
      -2.53522187e-004 -1.22777419e-003 -8.67354451e-004
      -9.49630106e-004 -7.73499429e-004 6.39419450e-005 -6.70341178e-005
      0. 0. 0. 0. 0. 1.77882263e-004 4.85584431e-004 4.98298206e-004
      1.21441961e-004 6.55848416e-004 9.94345290e-004 8.70176766e-004
      -2.25077543e-004 4.80298622e-004 -2.64875853e-004 -5.06952172e-004
      -1.11774680e-004 -3.45793029e-004 -1.43305879e-004
      -8.87519345e-005 0. 0. 0. 0. 0. -1.21770747e-004 1.46288789e-004
      -3.05446942e-004 4.54394263e-004 7.60469353e-004 9.62822116e-004
      4.25280479e-004 3.24413850e-004 6.62232924e-004 -3.55248740e-005
      4.47277707e-004 1.72481683e-004 3.54708827e-005 -1.79852330e-004
      -1.12364840e-004 -4.80400377e-005 0. 0. 0. 0. -4.08398191e-004
      -9.57911136e-004 -3.06052505e-004 -3.53092310e-006 8.39875778e-004
      3.06075992e-004 5.47716394e-004 7.03879283e-004 -2.38435576e-004
      4.86168108e-004 8.96346348e-004 1.93132946e-004 -1.99251983e-004
      -1.14224393e-004 -7.08387015e-005 -4.80400377e-005 0. 0. 0. 0.
      1.08580207e-004 2.61415320e-004 1.99375965e-004 1.12007729e-004
      4.41657961e-004 1.20692432e-003 1.24536024e-003 6.49870199e-004
