<?xml version="1.0"?>
<opencv_storage>
<my_svm type_id="opencv-ml-svm">
  <svm_type>C_SVC</svm_type>
  <kernel><type>LINEAR</type></kernel>
  <C>1.0000000000000001e-001</C>
  <term_criteria><epsilon>9.9999997764825821e-003</epsilon>
    <iterations>2147483647</iterations></term_criteria>
  <var_all>400</var_all>
  <var_count>400</var_count>
  <class_count>32</class_count>
  <class_labels type_id="opencv-matrix">
    <rows>1</rows>
    <cols>32</cols>
    <dt>i</dt>
    <data>
      0 1 2 3 4 5 6 7 8 9 10 11 12 13 14 15 16 17 18 19 20 21 22 23 24
      25 26 27 28 29 30 31</data></class_labels>
  <sv_total>496</sv_total>
  <support_vectors>
    <_>
      0. 0. 0. 0. 0. 0. 0. 0. 0. 0. 0. 0. 0. 0. 0. 0. 0. 0. 0. 0. 0. 0.
      0. 0. 0. 0. 0. 0. 0. 0. 0. 0. 0. 0. 0. 0. 0. 0. 0. 0. 0. 0. 0. 0.
      -3.73249408e-004 -7.94454420e-004 -3.03216977e-004
      -7.89695769e-005 4.90904087e-004 -3.90212022e-004 -1.74745328e-005
      1.23659222e-004 -6.23643573e-004 -4.44352947e-004 -2.42132417e-004
      2.57498730e-004 3.74675183e-005 3.01269611e-005 0. 0. 0. 0.
      -3.88003318e-005 -7.58762035e-005 -5.49535907e-004
      -6.24707434e-004 4.02527454e-004 -7.26951475e-005 1.26890361e-003
      4.48912615e-004 -4.68330982e-005 1.00807392e-003 1.36844802e-003
      -4.44399309e-004 3.49231064e-004 1.66054087e-004 1.17725307e-004
      5.62718742e-005 0. 0. 0. 0. -9.39830206e-005 -1.94292428e-004
      -3.51549097e-004 3.91025038e-004 -1.66762780e-004 -3.56239616e-004
      -3.68100504e-004 6.29199203e-005 4.73901338e-004 1.91619270e-004
      3.84647865e-004 -7.19482603e-004 3.36946192e-004 -2.49732548e-004
      3.25681904e-004 5.87607283e-005 0. 0. 0. 0. -1.21574369e-004
      -1.94015753e-004 -8.79286454e-005 9.61873564e-004 -1.15613097e-004
      1.00768323e-003 -2.84813461e-004 -7.79752852e-004 4.37104929e-004
      5.37079759e-004 3.30097333e-004 3.27039190e-004 -1.21744684e-004
      1.24428596e-004 1.89310027e-004 -4.77358881e-005 0. 0. 0. 0.
      -1.23298829e-004 -4.65115372e-005 6.62014354e-005 2.89737683e-004
      3.25182540e-004 -2.98059225e-004 5.82577559e-005 5.48698939e-004
      5.27506811e-004 -1.49237993e-003 -9.09697264e-004 -4.15178569e-004
      4.90539474e-004 -2.64291884e-004 1.19294229e-004 7.67843740e-005
      0. 0. 0. 0. -1.09503155e-004 -9.13963377e-005 7.03944752e-005
      2.92107667e-004 2.22515897e-003 7.27043225e-005 5.45813178e-004
      9.99262102e-006 3.52041272e-004 -1.05158694e-003 -6.33163261e-004
      -6.20749546e-004 5.83478868e-005 3.56795092e-004 4.17110685e-004
      2.16417218e-004 0. 0. 0. 0. -2.93158064e-005 -2.50046578e-005
      -4.05247883e-005 -1.78561633e-004 -2.02172683e-004 2.64561124e-004
      -2.02652791e-005 -1.30545429e-003 -3.34060960e-003
      -1.73034103e-004 5.94775076e-004 1.08407007e-003 3.07732174e-004
      1.90407969e-004 1.85927202e-004 1.36694434e-004 0. 0. 0. 0. 0. 0.
      -2.92638852e-005 -2.37677887e-004 -7.34834350e-004
      -3.67695349e-004 -8.71412398e-004 -6.38282101e-004
      -9.16838297e-004 -1.13632740e-003 -1.27438002e-003
      -4.64562007e-004 3.40831350e-004 3.09362862e-004 2.04375814e-004
      1.12876463e-004 0. 0. 0. 0. 0. -4.24268910e-005 -1.37496958e-004
      -5.07255085e-004 -1.35862851e-004 1.12966541e-003 2.25381856e-003
      1.35481427e-003 -2.13701478e-005 -9.14226403e-005 -2.06215121e-003
      -1.08414085e-003 -1.46063115e-003 -4.49124112e-004 1.01511912e-004
      6.21338313e-006 0. 0. 0. 0. -1.73917084e-004 -3.41646461e-004
      -4.56552487e-004 3.23711633e-004 1.63092965e-003 2.56280089e-003
      3.03930626e-003 2.98423367e-003 -4.16380994e-004 -1.11780583e-003
      -2.65588798e-003 -2.46899924e-003 -1.87876611e-003
      -5.61611087e-004 1.37729992e-004 0. 0. 0. 0. 0. -2.99609324e-004
      -4.84034041e-004 -1.85240249e-004 2.49645847e-004 7.10760884e-004
      1.51726569e-003 1.45827641e-003 3.23929777e-003 4.65663295e-004
      -3.30920564e-003 -2.77584395e-003 -1.41901942e-003
      -1.57429918e-003 -8.63250752e-004 -3.55767057e-004 0. 0. 0. 0. 0.
      -3.02585802e-004 -3.01107357e-004 -8.95295234e-004
      -8.36202467e-004 -1.88790327e-005 1.63098518e-003 2.21099937e-003
      2.78230710e-003 -2.28522433e-004 -6.66203501e-004 -1.41027337e-003
      -2.43210862e-003 -1.15160213e-003 -6.79850578e-004
      -1.80865449e-004 0. 0. 0. 0. 0. -3.09841213e-004 -6.61504397e-004
      -1.17778371e-003 -2.59020919e-004 1.52172719e-003 8.72832316e-004
      1.80778559e-003 8.93598190e-004 3.42580432e-004 7.63070362e-004
      -8.09610414e-004 -5.49100223e-004 -5.07751130e-004
      -4.59791394e-004 0. 0. 0. 0. 0. 0. 2.53678794e-004 6.48884336e-004
      -4.65384685e-004 6.22716616e-004 5.35739411e-004 6.93279377e-004
      9.30965471e-004 4.86186618e-004 9.23745509e-004 -1.46033650e-004
      8.27965210e-004 9.47110006e-004 1.24779574e-004 -2.38230641e-004
      0. 0. 0. 0. 0. 0. 2.14407279e-004 1.10543624e-004 2.09325095e-004
      1.40977115e-003 9.10415605e-004 -4.33445784e-005 4.66834936e-005
      -4.80534189e-004 2.15671651e-004 1.64371668e-004 5.06255543e-004
      3.69343383e-004 2.02518218e-004 2.89957879e-005 0. 0. 0. 0. 0. 0.
      8.69873620e-005 -3.58701742e-004 -3.09761381e-004 5.79510175e-004
      4.56578971e-004 -1.68777056e-004 -2.43909875e-004 -4.30974324e-004
      -7.37810551e-005 3.91297915e-004 3.80985759e-004 -2.36501277e-004
      -1.26317143e-004 6.31693983e-005 0. 0. 0. 0. 0. 0. 0. 0. 0. 0. 0.
      0. 0. 0. 0. 0. 0. 0. 0. 0. 0. 0. 0. 0. 0. 0. 0. 0. 0. 0. 0. 0. 0.
      0. 0. 0. 0. 0. 0. 0. 0. 0. 0. 0.</_>
    <_>
      0. 0. 0. 0. 0. 0. 0. 0. 0. 0. 0. 0. 0. 0. 0. 0. 0. 0. 0. 0. 0. 0.
      0. 0. 0. 0. 0. 0. 0. 0. 0. 0. 0. 0. 0. 0. 0. 0. 0. 0. 0. 0. 0. 0.
      0. 0. 2.38715825e-006 3.68815177e-004 6.44733664e-004
      6.33012911e-004 5.56205807e-004 9.76298470e-004 1.20070261e-004
      -3.27809743e-004 -3.54474294e-004 -1.97781614e-004
      -9.16517092e-005 0. 0. 0. 0. 0. 0. 0. 0. 1.61612887e-004
      4.87748621e-004 5.83171495e-004 1.21980603e-003 3.31091520e-004
      4.42330842e-004 5.98453626e-004 6.51936280e-004 -5.62712434e-004
      -7.93971762e-004 -1.87959682e-004 -2.57300744e-005 0. 0. 0. 0. 0.
      0. 0. 4.14791975e-006 2.17064007e-004 7.23246194e-004
      1.14387157e-003 1.11627125e-003 -1.48354826e-004 2.84400507e-004
      5.27476193e-004 1.86462246e-004 -2.93887366e-004 -1.56514274e-004
      -1.06776126e-004 9.27593937e-005 3.12033421e-006 0. 0. 0. 0. 0. 0.
      6.81443998e-006 2.71715457e-004 8.23040144e-004 1.48332538e-003
      1.15782430e-003 5.31680067e-004 9.48053275e-005 -5.86851420e-005
      -4.22565994e-004 -1.57345494e-004 3.91012727e-004 3.84586019e-004
      3.05465772e-004 1.47623150e-005 0. 0. 0. 0. 0. 0. 5.45155171e-006
      1.34000133e-004 5.62796777e-004 5.66704781e-004 9.60565594e-005
      -3.57184996e-004 -7.78559595e-004 -6.12512638e-004
      -1.69682855e-004 4.41428769e-004 9.93914902e-004 5.16415224e-004
      4.25342587e-004 3.52262505e-005 0. 0. 0. 0. 0. 0. -9.06168339e-007
      3.37789716e-005 2.25477983e-004 5.64977992e-004 -3.29058996e-004
      -9.62007849e-004 -7.26720493e-004 -1.94578242e-004 1.42878562e-004
      8.50189826e-004 9.30081471e-004 6.35048258e-004 3.51921568e-004
      3.72969844e-005 0. 0. 0. 0. 0. -2.22712970e-006 -3.13200835e-005
      -9.51588081e-005 -6.74898256e-005 -4.14395792e-004
      -6.50259957e-004 -4.89623810e-004 -5.24349569e-004
      -3.43064312e-004 4.12012974e-004 1.05215097e-003 9.49161942e-004
      4.89640690e-004 1.77409034e-004 1.53755682e-005 0. 0. 0. 0.
      -1.84953365e-006 -1.61488842e-005 -6.64271793e-005
      -3.94192000e-004 -1.17083616e-003 -8.60686530e-004
      -5.72346151e-004 -2.10607919e-004 -3.88974382e-004 2.05196004e-004
      3.38249811e-004 7.63481075e-004 7.23268022e-004 2.70669785e-004
      6.02050386e-005 0. 0. 0. 0. 0. -1.70672720e-005 -1.46958671e-004
      -2.83379050e-004 -1.28726091e-003 -1.50590658e-003
      -2.17333072e-004 2.88865449e-005 -2.68855336e-004 -8.96554266e-004
      1.12906942e-004 -2.03612959e-004 1.61698394e-004 3.17506434e-004
      1.20959572e-004 6.01363308e-006 0. 0. 0. 0. 0. -1.09106353e-004
      -2.58380343e-004 -6.05497335e-004 -1.37119147e-003
      -5.96241967e-004 -1.67866558e-004 2.13632040e-004 1.01602869e-004
      -7.12097622e-004 -8.51451478e-004 -1.07477198e-003
      -4.26299724e-004 -2.30765159e-004 -2.99508665e-005 6.90004390e-006
      0. 0. 0. 0. 0. -2.99468065e-005 -7.54889988e-005 -3.79799254e-004
      -4.26182582e-004 -4.44282516e-004 -4.96236680e-005
      -2.78383872e-004 -2.99387990e-004 -8.87965783e-004
      -1.49520987e-003 -1.10104820e-003 -1.11709954e-003
      -5.28015022e-004 -1.16216470e-004 -8.80036623e-006 0. 0. 0. 0. 0.
      1.87102305e-005 4.26685328e-005 1.84872726e-004 -5.88332405e-005
      3.65156215e-004 6.30629598e-004 6.15874538e-004 -2.76847742e-004
      -1.00936298e-003 -1.02551642e-003 -2.65953306e-004
      -2.31912578e-004 -3.80096841e-004 -1.11936948e-004
      -5.24637198e-006 0. 0. 0. 0. 0. 6.50158336e-006 1.00745303e-004
      9.89381660e-005 2.13647392e-004 5.65824681e-004 1.25383330e-003
      6.56671997e-004 4.02635749e-004 -6.81108359e-005 3.32738564e-004
      5.23539376e-004 3.30192066e-004 -1.33508584e-004 -7.82380084e-005
      -2.65546969e-005 0. 0. 0. 0. 0. 2.02736501e-005 1.44958045e-004
      2.16323358e-004 1.60806492e-004 4.80824470e-004 8.45218136e-004
      3.89669585e-004 3.24110413e-004 -5.86035778e-004 -4.53367422e-004
      3.42403247e-004 8.02998620e-005 -1.19666263e-004 -8.09918201e-005
      -4.42578275e-005 0. 0. 0. 0. 0. 1.66424306e-005 1.21407138e-004
      -1.01277756e-005 -2.20409478e-004 4.76987305e-004 7.47621991e-004
      4.02527628e-004 -3.95714393e-004 -1.42993216e-004 9.79055330e-005
      -8.56024926e-005 -3.48548085e-004 -2.28361096e-004
      -9.05698471e-005 -2.56695403e-005 0. 0. 0. 0. 0. 8.31839600e-007
      9.67758024e-006 -2.75918228e-005 4.04689927e-005 1.91363491e-004
      -2.46605141e-005 -4.00188903e-004 -5.25107025e-004
      -2.25740703e-004 -2.78380263e-004 -2.78705877e-004
      -4.02096630e-004 -2.10277998e-004 -4.93836160e-005 0. 0. 0. 0. 0.
      0. 0. 0. 0. 0. 0. 0. 0. 0. 0. 0. 0. 0. 0. 0. 0. 0. 0. 0. 0. 0. 0.
      0. 0. 0. 0. 0. 0. 0. 0. 0. 0. 0. 0. 0. 0. 0. 0. 0.</_>
    <_>
      0. 0. 0. 0. 0. 0. 0. 0. 0. 0. 0. 0. 0. 0. 0. 0. 0. 0. 0. 0. 0. 0.
      0. 0. 0. 0. 0. 0. 0. 0. 0. 0. 0. 0. 0. 0. 0. 0. 0. 0. 0. 0. 0. 0.
      0. 0. -5.88315525e-005 -2.56764062e-004 2.68092786e-004
      5.65427399e-005 2.26453994e-006 -6.18275735e-005 1.22230813e-005
      -1.71691223e-004 7.08108273e-005 3.88683748e-006 8.00838097e-006
      0. 0. 0. 0. 0. 0. 0. 1.54587963e-006 -6.32370866e-005
      5.93608747e-005 -2.60840257e-004 5.59676148e-004 -4.31380933e-004
      -1.96594032e-004 -3.17043741e-004 5.08204039e-007 -6.39732578e-004
      2.49977456e-004 1.67484686e-004 7.04426930e-005 -6.12407748e-005
      0. 0. 0. 0. 0. 0. 2.99958288e-006 1.03642589e-004 8.16805463e-004
      -2.69144715e-004 -3.10525909e-004 4.35996597e-004 3.48225221e-005
      1.88625054e-004 1.21042576e-005 4.60703559e-005 8.44291062e-004
      5.60622080e-004 1.34146845e-004 2.73734713e-006 0. 0. 0. 0. 0. 0.
      -1.67683247e-005 9.71485861e-005 3.93919938e-004 2.32157763e-004
      -5.51325938e-005 -6.62867911e-004 -3.22488166e-004 3.56103061e-004
      7.51085172e-004 4.96574852e-004 8.55234568e-004 5.25142881e-004
      1.86922553e-004 1.82539603e-004 0. 0. 0. 0. 0. 0. 6.61115628e-005
      7.16204057e-004 -2.59990320e-005 1.71765555e-006 5.57634805e-004
      8.36461186e-005 6.28308160e-004 7.52918422e-004 8.47138581e-004
      6.45335240e-004 8.81345186e-004 1.01660611e-003 4.39984608e-004
      3.19708965e-006 0. 0. 0. 0. 0. 0. 7.13621603e-006 1.45541881e-005
      -3.47530935e-004 -1.05590778e-004 -1.31993101e-003
      -2.02304614e-003 -1.26101996e-003 2.60422268e-004 1.32343813e-003
      9.63640108e-004 6.47095498e-004 5.44886512e-004 4.80460410e-004
      -6.94141363e-006 0. 0. 0. 0. 0. 0. -8.99029692e-005
      -3.33422096e-004 -1.45610818e-003 -1.59460236e-003
      -2.08026450e-003 -1.38295733e-003 -1.27667841e-003 1.42542835e-004
      1.62484962e-003 1.72591000e-003 7.87163386e-004 1.90311664e-004
      1.21312711e-004 0. 0. 0. 0. 0. 0. 0. -1.12642883e-004
      -4.30214248e-004 -7.92909937e-004 -1.56439154e-003
      -1.16665126e-003 -6.77237185e-005 -4.36805218e-004 2.91635719e-004
      -4.72668005e-004 -1.60749812e-004 4.45577112e-004 -2.38202134e-004
      5.30908510e-005 0. 0. 0. 0. 0. -1.24398844e-006 -2.48797687e-006
      -1.88189617e-004 -7.39464420e-004 -9.10579634e-004
      -9.83722974e-004 -7.60367780e-004 -3.58061981e-004
      -9.48973873e-004 -2.11273611e-004 -6.71616581e-004
      -6.86018902e-004 -6.70792826e-004 -5.62213245e-004
      -8.10015554e-005 0. 0. 0. 0. 0. -1.74158376e-005 -5.59904256e-005
      -2.36871958e-004 -6.95368391e-004 7.15678791e-004 1.33958983e-003
      1.04748108e-003 1.14568183e-003 3.45331093e-004 -3.69376212e-004
      -1.57266285e-003 -1.73953769e-003 -9.43656603e-004
      -4.82893898e-004 -6.85397827e-005 0. 0. 0. 0. 0. -2.55659033e-005
      -1.08897730e-004 -4.81927098e-004 -6.06211601e-004
      -3.08404473e-004 1.89303583e-003 1.07500888e-003 3.34236305e-004
      -3.29514296e-004 -1.03652128e-003 -9.88186803e-004
      -1.07873278e-003 -7.38709175e-004 -4.20656055e-004
      -6.23088927e-005 0. 0. 0. 0. 0. -1.97959758e-004 -3.10431613e-004
      -6.07242400e-004 -5.72451856e-004 -3.53680254e-004 1.37181801e-003
      8.98322498e-004 3.79219891e-005 3.83068429e-004 -2.05226534e-004
      -5.28772594e-004 -8.64625676e-004 -4.94619657e-004
      -1.44665581e-004 -2.18081113e-005 0. 0. 0. 0. 0. -2.16446846e-004
      -4.43335070e-004 -3.36368568e-004 -5.39695175e-005 6.43250532e-004
      3.36127472e-004 1.89870025e-003 1.18598249e-003 -4.01442376e-004
      1.89219281e-004 -3.62374412e-004 5.05053147e-004 -2.59008782e-004
      1.42220924e-005 0. 0. 0. 0. 0. 0. -4.01851939e-005 1.92527383e-004
      2.40553709e-006 -3.82123217e-005 -5.75888516e-005 5.57602616e-005
      -3.70989466e-004 1.00356829e-003 7.54581706e-005 2.77837418e-004
      9.17327183e-004 6.23652770e-004 -7.97643370e-005 3.09175925e-006
      0. 0. 0. 0. 0. 0. 5.00120223e-005 1.00811449e-004 -1.45148166e-004
      4.72921893e-005 6.12059725e-004 1.80438277e-004 -1.09016546e-004
      8.41705769e-004 7.73920445e-004 2.40923153e-004 2.79433356e-004
      2.95346603e-004 1.02658096e-005 0. 0. 0. 0. 0. 0. 0. 0.
      -1.14992115e-004 -1.94085864e-004 7.98571200e-005 4.79291222e-004
      -1.33075620e-004 -1.24703627e-004 -3.71345668e-004
      -6.90345187e-005 2.03881951e-004 9.26937428e-005 -3.41376435e-005
      0. 0. 0. 0. 0. 0. 0. 0. 0. 0. 0. 0. 0. 0. 0. 0. 0. 0. 0. 0. 0. 0.
      0. 0. 0. 0. 0. 0. 0. 0. 0. 0. 0. 0. 0. 0. 0. 0. 0. 0. 0. 0. 0. 0.
      0. 0.</_>
    <_>
      0. 0. 0. 0. 0. 0. 0. 0. 0. 0. 0. 0. 0. 0. 0. 0. 0. 0. 0. 0. 0. 0.
      0. 0. 0. 0. 0. 0. 0. 0. 0. 0. 0. 0. 0. 0. 0. 0. 0. 0. 0. 0. 0. 0.
      0. -1.22097845e-003 -3.25989071e-003 -6.63792947e-004
      -7.97256362e-004 1.65795675e-003 1.69468531e-003 3.65441851e-003
      -2.96428637e-003 -7.32342131e-004 -2.77376082e-003
      -1.58471579e-003 7.91458995e-004 2.57733540e-004 0. 0. 0. 0. 0. 0.
      -1.92760187e-003 -2.56050937e-003 -4.21433157e-004
      -3.41805397e-004 -2.19669659e-003 -3.18827736e-003 2.25097290e-003
      4.28171549e-003 -5.18382469e-004 -2.85617798e-003 -4.06876951e-003
      -2.74282973e-003 8.31565179e-004 7.26975326e-004 0. 0. 0. 0. 0.
      2.19037270e-006 -1.80872704e-003 -1.88798096e-003 1.28112559e-004
      -4.28522471e-003 -8.23040318e-004 -2.82835372e-005
      -1.03784354e-004 -2.96203932e-003 -3.17787373e-004
      -3.10588535e-003 -8.88409966e-004 -2.81423796e-003
      -7.46793448e-005 1.95434695e-004 0. 0. 0. 0. 0. 2.33657105e-004
      -1.16428465e-003 -6.22870401e-004 9.85160470e-004 2.24517251e-004
      -3.13972426e-003 -6.27303729e-004 -4.40502167e-003
      -3.89011367e-003 9.78858559e-004 -3.26388725e-003 -8.01536837e-004
      3.92336748e-004 1.11554842e-003 -8.40405846e-005 0. 0. 0. 0. 0.
      6.13015203e-004 -4.71819163e-004 9.87507592e-005 -1.54050335e-003
      5.96146157e-004 1.78345433e-003 -1.59076217e-003 -1.56131585e-003
      -2.36032344e-003 -1.61829300e-003 -1.71508628e-003
      -3.54955322e-003 -1.22974263e-004 1.36174262e-004 -8.11038830e-004
      0. 0. 0. 0. 0. 7.07687286e-004 1.05413783e-003 1.72566285e-003
      7.05753861e-004 4.56072215e-004 2.64009432e-004 -5.62371500e-003
      -6.37452491e-003 7.65412522e-004 8.44922790e-004 5.17035427e-004
      8.45370814e-004 -3.89851863e-004 3.59606376e-004 -4.84853896e-004
      0. 0. 0. 0. 0. 1.06153093e-004 2.16604982e-004 1.49985263e-003
      2.72908900e-003 1.55257469e-003 1.46705005e-003 8.57122301e-004
      -3.97722237e-003 3.12378164e-004 -8.52048222e-004 1.19523704e-003
      3.67321982e-003 -1.80246396e-004 8.93373392e-004 0. 0. 0. 0. 0. 0.
      0. -4.35169903e-004 -7.53931119e-004 1.28101106e-004
      -4.58812312e-004 -3.47847305e-003 -1.35323557e-003
      -2.00739899e-003 -2.20815185e-003 2.39373837e-003 3.58004472e-003
      9.53374372e-004 -6.60400779e-004 8.61069304e-004 0. 0. 0. 0. 0. 0.
      0. -4.35169903e-004 1.23708698e-004 -8.34732433e-004
      9.42960847e-004 3.41366278e-004 -1.88113845e-004 -1.04391156e-003
      -2.26637162e-003 -1.57354481e-003 4.46363265e-004 9.35255899e-004
      -3.75280761e-005 5.26759904e-005 0. 0. 0. 0. 0. 3.99509066e-004
      9.14223841e-004 -1.26817162e-004 -5.96684578e-004 4.41978639e-003
      5.31054451e-004 -1.94483926e-003 1.42952835e-003 -3.15518519e-005
      -3.64174345e-003 -3.70804360e-003 -1.21809065e-003 2.55736639e-004
      9.92261688e-004 5.65212336e-004 0. 0. 0. 0. 0. 1.17887917e-004
      5.40573150e-004 6.85868028e-004 1.30979577e-003 1.03722967e-003
      7.43066194e-004 3.75054282e-004 -2.55965657e-004 9.85135557e-004
      -1.11563259e-003 1.05015736e-003 3.53741692e-003 1.23751408e-003
      5.65212336e-004 0. 0. 0. 0. 0. 0. -2.97807826e-004 2.55085854e-003
      5.17294183e-003 2.09724368e-003 2.99594156e-003 3.02203791e-003
      3.46600125e-003 6.92961970e-004 1.40637683e-003 2.32867175e-003
      4.69713518e-003 5.00554405e-003 1.58573384e-003 0. 0. 0. 0. 0. 0.
      0. 9.79244825e-004 6.23532920e-004 1.21660344e-003 4.97518398e-004
      5.03915548e-003 1.42125506e-003 -9.58157907e-005 3.73918982e-003
      9.82438913e-004 1.82249743e-004 5.44123631e-003 4.82683862e-003
      1.49829686e-003 0. 0. 0. 0. 0. 0. 0. 6.35434117e-004
      7.05154263e-004 2.83098477e-003 2.98650376e-003 1.12334522e-003
      1.19330524e-003 1.83846883e-003 4.50866576e-003 1.95149647e-003
      1.29673281e-003 5.00223180e-003 5.20527083e-003 1.08038669e-003 0.
      0. 0. 0. 0. 0. 0. 8.32357851e-004 5.36699139e-004 -1.31405017e-003
      -3.58869176e-004 1.19903381e-003 2.07296340e-003 1.29041891e-003
      5.96851390e-003 -3.76838812e-004 -3.71957372e-004 7.37590075e-004
      1.22973823e-003 1.23340182e-003 4.48201958e-004 0. 0. 0. 0. 0. 0.
      -3.40228813e-004 -4.91136219e-004 -2.94668414e-003
      -2.00775592e-003 1.18105044e-003 1.44792686e-003 -2.09852718e-004
      2.61426275e-003 -2.23222756e-004 -2.13705702e-003 -2.09117978e-004
      1.24604645e-004 8.21214519e-004 1.76921822e-004 0. 0. 0. 0. 0. 0.
      0. 0. 0. 0. 0. 0. 0. 0. 0. 0. 0. 0. 0. 0. 0. 0. 0. 0. 0. 0. 0. 0.
      0. 0. 0. 0. 0. 0. 0. 0. 0. 0. 0. 0. 0. 0. 0. 0.</_>
    <_>
      0. 0. 0. 0. 0. 0. 0. 0. 0. 0. 0. 0. 0. 0. 0. 0. 0. 0. 0. 0. 0. 0.
      0. 0. 0. 0. 0. 0. 0. 0. 0. 0. 0. 0. 0. 0. 0. 0. 0. 0. 0. 0. 0. 0.
      0. 1.31340457e-005 5.45278090e-005 1.50264517e-004 3.21093452e-004
      5.98067381e-005 5.26108895e-004 5.89404546e-004 -1.16371746e-004
      -4.18533193e-004 -1.78687871e-004 2.47154389e-006 -7.89148471e-005
      0. 0. 0. 0. 0. 0. 0. 7.50673780e-006 6.79788718e-005
      1.09140070e-004 2.06099197e-004 7.42746925e-004 -6.45988563e-004
      1.06685283e-003 3.52892821e-004 7.60420458e-004 -4.45815967e-004
      6.13598677e-004 1.39961005e-004 -1.36514645e-004 0. 0. 0. 0. 0.
      -2.09241698e-005 -1.62162323e-004 -1.15913674e-004 1.72932138e-004
      -6.71703965e-005 2.56241794e-004 3.02494300e-004 -1.11961315e-004
      4.92168940e-004 1.32866693e-003 7.39785202e-004 -1.72193439e-004
      -6.97155367e-004 2.94322672e-004 9.76453739e-005 1.49588259e-005
      0. 0. 0. 0. -6.27725094e-005 -5.15367603e-004 -4.67915932e-004
      -4.20621363e-005 -2.70323508e-004 -2.20508562e-004 4.06662497e-004
      -2.05051067e-004 5.11424791e-004 3.19016719e-004 2.41011992e-004
      1.98582624e-004 -2.04673153e-004 8.05406133e-004 3.12663324e-004
      4.32719353e-005 0. 0. 0. 0. 0. 2.57391039e-005 -8.12446597e-005
      -2.62129266e-004 -4.17518226e-004 -3.69314686e-004 4.81191732e-004
      6.14077842e-004 5.10907848e-004 -3.45585722e-004 -5.14413805e-005
      -1.17533949e-004 5.31920989e-004 3.07007344e-004 1.43823505e-004
      4.57633760e-005 0. 0. 0. 0. 0. 3.00669180e-005 -3.78426375e-005
      -4.62637050e-004 -3.31260409e-004 -3.96271527e-004
      -8.04159383e-004 -6.87994354e-004 2.30300939e-004 7.43249839e-004
      -2.06294178e-004 1.81070951e-004 2.63039343e-004 1.89199389e-004
      -1.22173427e-004 -2.27070923e-004 0. 0. 0. 0. 0. 9.11118786e-006
      -3.89454108e-005 -4.27138730e-004 -7.21918594e-004
      -1.18858588e-003 -2.90748826e-003 -1.96094927e-003
      -1.17306260e-003 4.97117231e-004 6.86930667e-004 5.06652752e-004
      2.72308855e-004 -2.00625655e-004 -2.66760966e-004 -7.71902342e-005
      0. 0. 0. 0. 0. 0. -1.81857089e-004 -7.53342290e-004
      -1.83288078e-003 -2.29625101e-003 -2.10229238e-003
      -1.15380913e-003 -1.01211050e-003 -3.92573304e-004
      -4.39896132e-004 8.98254220e-005 -3.13550263e-004 -7.15847200e-005
      3.12175107e-005 0. 0. 0. 0. 0. 0. -1.17465344e-004
      -5.60308690e-004 -1.13057042e-003 -1.31806172e-003
      -1.09810499e-003 -1.18251273e-003 -5.42171765e-004
      -1.67196224e-004 -5.77901665e-004 -1.38296129e-003
      -1.69268518e-003 -6.85963721e-004 8.98593789e-005 3.56976398e-006
      0. 0. 0. 0. 0. -8.03710282e-005 -3.37246427e-004 -1.05634111e-003
      -3.70339840e-004 -3.09995521e-004 1.79750670e-004 6.54759991e-004
      5.23617855e-005 2.73930607e-004 -1.16252794e-003 -1.93420530e-003
      -1.32215454e-003 -4.55531350e-004 -5.22310089e-004
      -7.19985619e-005 0. 0. 0. 0. 0. -2.75701866e-004 -6.67478482e-004
      -1.37793206e-004 2.56612053e-004 -7.95435626e-004 6.40723156e-005
      1.07461587e-003 1.14405062e-003 6.93694921e-004 -1.97195308e-003
      -1.34562235e-003 -1.07692834e-003 1.57084301e-007 -8.97860737e-004
      -2.24934833e-004 0. 0. 0. 0. 0. -2.89256161e-004 -3.91559115e-005
      7.21153920e-004 -1.24960367e-004 3.29350296e-004 9.83421807e-004
      1.26475724e-003 1.48932147e-003 3.03967332e-004 2.42028927e-005
      -6.75282150e-004 -1.17148471e-003 -9.91686611e-005
      -9.14002652e-004 -2.14472748e-004 0. 0. 0. 0. 0. -7.53347558e-005
      -1.70128100e-004 2.30562204e-004 6.22569351e-004 1.55646456e-004
      8.26302159e-004 2.17635813e-003 1.11709989e-003 8.33438768e-004
      -6.71766102e-005 4.11251822e-004 1.07824286e-004 1.08643428e-004
      -9.75142117e-004 -2.24934833e-004 0. 0. 0. 0. 0. 1.46630831e-004
      -6.33037489e-005 -2.63249589e-004 7.28246174e-004 9.96265808e-005
      3.66954278e-004 -2.12847837e-004 1.33888505e-003 7.83946016e-005
      1.22919155e-003 1.41575874e-003 3.19054700e-004 -4.16020193e-004
      -1.14854984e-003 -2.01025847e-004 0. 0. 0. 0. 0. 1.16308714e-004
      9.77073432e-005 -2.31782440e-004 9.13624652e-004 1.17544737e-003
      1.90126200e-004 -2.66892690e-004 5.15780936e-004 -2.52635728e-005
      -2.92559271e-004 -7.30182874e-005 -7.15063245e-004
      -1.49241780e-004 -1.88449092e-004 -3.66172972e-005 0. 0. 0. 0. 0.
      -2.63886286e-005 -1.56372389e-005 -3.68918882e-005 4.73789027e-004
      1.05303759e-003 2.35689979e-004 -2.53502891e-004 7.89553742e-005
      1.87501108e-004 -1.84211574e-004 1.75459354e-004 6.81100355e-005
      1.14680915e-004 1.70480162e-005 0. 0. 0. 0. 0. 0. 0. 0. 0. 0. 0.
      0. 0. 0. 0. 0. 0. 0. 0. 0. 0. 0. 0. 0. 0. 0. 0. 0. 0. 0. 0. 0. 0.
      0. 0. 0. 0. 0. 0. 0. 0. 0. 0. 0.</_>
    <_>
      0. 0. 0. 0. 0. 0. 0. 0. 0. 0. 0. 0. 0. 0. 0. 0. 0. 0. 0. 0. 0. 0.
      0. 0. 0. 0. 0. 0. 0. 0. 0. 0. 0. 0. 0. 0. 0. 0. 0. 0. 0. 0. 0. 0.
      -4.28916501e-005 -3.13782402e-005 -1.76767153e-005 3.69491754e-004
      5.99709805e-004 1.03412266e-003 3.74615658e-004 8.98260158e-004
      -1.00733610e-004 -7.69348917e-005 -1.52076871e-004
      -1.95970220e-004 -1.15760879e-004 4.32890156e-005 0. 0. 0. 0. 0.
      0. -8.64942413e-005 9.97581956e-005 6.02705695e-004
      3.45911685e-004 1.11769955e-003 1.48349069e-003 7.93573330e-004
      3.44368775e-004 8.19385750e-004 6.88079395e-004 -2.13912892e-004
      -3.30556359e-004 -3.02790140e-004 -4.70866212e-007 0. 0. 0. 0. 0.
      0. 4.61038653e-005 2.55506398e-004 9.41278005e-004 6.18477527e-004
      6.84735074e-004 9.42106766e-004 5.54074126e-004 7.00988283e-004
      9.17629630e-004 9.92105997e-005 1.11664958e-004 -3.28349095e-004
      -2.18242247e-004 1.62362649e-005 0. 0. 0. 0. 0. 0. 7.07852596e-005
      4.65914840e-004 1.02647278e-003 9.67511209e-004 9.79336444e-004
      1.22586323e-003 6.85673556e-004 6.54838397e-004 8.37972388e-004
      2.59657420e-004 6.42817060e-004 4.46387043e-004 3.98285018e-004
      1.50978158e-004 0. 0. 0. 0. 0. 0. 1.03266029e-004 6.09041657e-004
      8.69438867e-004 4.87389363e-004 1.15248724e-004 1.60838725e-004
      -1.14871946e-003 -2.52423109e-004 3.92248359e-004 4.42607037e-004
      7.66173238e-004 6.32850104e-004 4.68473590e-004 2.32894396e-004 0.
      0. 0. 0. 0. 0. 1.00719932e-004 5.22136514e-004 5.67022478e-004
      7.83554511e-004 -8.56698243e-005 -9.48990055e-004 -7.61791132e-004
      -4.41498596e-005 3.14110424e-004 2.94595848e-005 1.07067276e-003
      1.26815843e-003 3.68246256e-004 9.77964883e-005 0. 0. 0. 0. 0. 0.
      -1.18855896e-004 -1.05459112e-004 -3.80368816e-004 1.29350854e-004
      -5.32023143e-004 -3.82858620e-004 -4.03099926e-004 4.86192112e-005
      -2.68272939e-004 2.76954612e-004 9.27548099e-004 8.68960808e-004
      4.01661644e-004 1.57340837e-004 0. 0. 0. 0. 0. 0. -2.05137731e-005
      -1.40721721e-004 -1.22018636e-003 -1.50178140e-003
      -9.03017470e-004 -7.30621454e-004 -9.24767155e-005 6.85131818e-004
      1.58085575e-004 4.69875340e-005 6.64579566e-004 3.41492327e-004
      -2.35216776e-005 6.58166246e-005 0. 0. 0. 0. 0. 0.
      -1.74884881e-005 -3.85890307e-004 -1.86580338e-003
      -1.04664429e-003 -9.73508577e-004 -8.20285582e-004
      -8.32296209e-004 4.68727027e-004 -4.72012471e-004 -6.27284695e-004
      -1.61747783e-004 -2.44202558e-004 -3.22950946e-004
      -3.88888220e-005 0. 0. 0. 0. 0. -5.19173852e-007 -8.52979865e-005
      -8.42600828e-004 -6.37418125e-005 -2.27161887e-004
      -9.54918796e-004 -2.46457348e-004 -1.04111200e-003
      -9.47443594e-004 -2.05477932e-003 -1.47154205e-003
      -1.03180239e-003 -5.14645420e-004 -1.52775741e-004
      -6.62161037e-005 0. 0. 0. 0. -2.27973260e-006 -7.92429782e-005
      -3.67962988e-004 -7.43989076e-004 8.28252087e-005 -3.81594145e-004
      -9.18112419e-005 1.65446988e-006 -7.59265560e-004 -1.99035602e-003
      -1.14990352e-003 -1.15528912e-003 -1.22734997e-003
      -6.46298984e-004 -1.34897738e-004 -1.35220271e-005 0. 0. 0. 0.
      -1.27914594e-004 -2.59004155e-004 -5.94723606e-005 2.92324868e-004
      9.33815085e-004 4.37078648e-004 1.88375020e-003 5.24739618e-004
      -5.45487681e-004 -8.68103059e-004 -6.76534430e-004
      -3.97959142e-004 -8.62167217e-004 -6.74672716e-004
      -1.47461964e-004 -2.52411173e-005 0. 0. 0. 0. 7.84875228e-005
      1.25470659e-004 3.33385629e-004 4.66322992e-004 4.15185059e-004
      9.73137328e-004 1.18569133e-003 1.38677447e-003 5.69393742e-004
      -5.78431063e-004 1.66687081e-004 2.69391137e-004 -9.03036853e-004
      -6.79459539e-004 -1.34416900e-004 -1.31614397e-005 0. 0. 0. 0.
      1.09084758e-004 8.43144953e-005 1.19283955e-004 1.00380770e-004
      3.60289356e-004 4.68312850e-004 4.86381177e-004 1.70290365e-003
      2.59603636e-004 -5.87949937e-004 -6.36053272e-004 -1.16666930e-003
      -1.01939274e-003 -3.86351516e-004 -2.06293960e-004
      -6.09608542e-005 0. 0. 0. 0. -4.62329535e-006 -5.42624402e-005
      -1.22524041e-004 -4.52451874e-004 1.37458730e-004 5.38379070e-004
      4.31716559e-004 8.30995792e-004 1.21164788e-003 4.89209080e-004
      -2.01923787e-004 -3.15059151e-004 -2.57876352e-004
      -3.85586987e-004 -2.15013541e-004 -4.58805662e-005 0. 0. 0. 0.
      -1.03551676e-004 -1.98902431e-004 4.80736844e-007 6.37947551e-006
      4.96311150e-005 -1.86471472e-004 -1.58245704e-004 -5.05235046e-004
      1.45441401e-004 -2.87418534e-005 5.64545444e-005 2.72531179e-006
      1.56494891e-004 -9.44494968e-005 -6.37484045e-005 -5.94676885e-006
      0. 0. 0. 0. 0. 0. 0. 0. 0. 0. 0. 0. 0. 0. 0. 0. 0. 0. 0. 0. 0. 0.
      0. 0. 0. 0. 0. 0. 0. 0. 0. 0. 0. 0. 0. 0. 0. 0. 0. 0. 0. 0.</_>
    <_>
      0. 0. 0. 0. 0. 0. 0. 0. 0. 0. 0. 0. 0. 0. 0. 0. 0. 0. 0. 0. 0. 0.
      0. 0. 0. 0. 0. 0. 0. 0. 0. 0. 0. 0. 0. 0. 0. 0. 0. 0. 0. 0. 0.
      -9.42619977e-007 5.06423348e-005 -9.76850333e-006 -2.69766926e-004
      -3.41950159e-004 3.88199202e-004 6.71896094e-004 -2.37484055e-005
      7.06767605e-004 1.57888455e-004 7.36579532e-005 2.69335469e-005
      5.81080421e-005 2.56429557e-005 0. 0. 0. 0. 0. 0. -1.61249918e-005
      -6.53243114e-005 1.82373216e-004 -2.22592644e-004 -1.01413706e-003
      5.50811674e-005 5.36101696e-004 2.20976552e-004 1.30982749e-004
      7.50626030e-004 3.08094895e-004 -1.16760326e-004 -1.15049283e-004
      2.18703663e-005 0. 0. 0. 0. 0. -9.21244555e-006 -1.08246240e-004
      -8.50960132e-005 4.41741722e-005 -4.75913694e-004 -8.07469129e-004
      2.92868761e-004 3.37804086e-005 5.48971933e-004 3.62884166e-004
      -2.40409863e-004 -4.64022072e-004 3.05086258e-004 -7.37791415e-005
      2.67843221e-004 8.71616212e-005 0. 0. 0. 0. -3.22435590e-005
      -2.08291371e-004 2.09402075e-004 5.73200581e-004 3.86270724e-004
      3.44675034e-004 6.85748062e-004 2.21147013e-004 4.05459432e-004
      -1.56350463e-004 7.76381203e-005 -2.68841861e-004 4.54430410e-004
      -4.02833393e-004 4.92136402e-004 2.22593459e-004 0. 0. 0. 0. 0.
      5.20311642e-006 2.34519975e-004 5.68976684e-004 7.79140828e-005
      -1.94413617e-004 2.84198322e-004 -7.78776957e-005 -2.32358696e-004
      -5.02817275e-004 9.97102819e-004 -8.12280705e-005 6.15172845e-004
      2.85689875e-005 5.58106054e-004 1.52700013e-004 0. 0. 0. 0. 0.
      -4.10386165e-005 9.33513365e-005 1.37354771e-004 -1.24183542e-004
      1.30044591e-005 -6.13208860e-004 -1.22456357e-003 -2.07109188e-004
      1.01259234e-003 7.96669396e-004 6.33192612e-005 5.68747346e-004
      2.91241333e-004 1.10547793e-004 1.14448296e-004 0. 0. 0. 0. 0.
      -1.43671554e-004 -1.28370957e-004 -2.52135214e-004
      -9.77504998e-004 -1.27738831e-003 -1.97194936e-003
      -1.38436782e-003 -1.06848753e-003 1.28222557e-004 -4.23912919e-004
      1.28786996e-004 6.31010858e-004 -1.33132402e-004 -6.33939810e-004
      -8.41646033e-006 0. 0. 0. 0. 0. -8.16937336e-006 -1.81485520e-004
      -9.75845265e-004 -1.69157446e-003 -2.87029846e-003
      -2.89971754e-003 -3.63658794e-004 3.41721257e-004 2.75286991e-004
      4.32687724e-004 -5.62530695e-005 -4.08537278e-004 -1.10473942e-004
      -2.24702890e-004 -1.00939462e-004 0. 0. 0. 0. 0. -9.74040631e-006
      -1.35160459e-004 -1.03338819e-003 -1.65432913e-003
      -1.51882845e-003 -1.57431851e-003 -3.20644409e-004
      -1.83907745e-004 -3.08375282e-004 -9.88422544e-004
      -1.19865069e-003 -1.79016299e-003 -1.05237251e-003
      -2.38162393e-004 -2.70697255e-005 0. 0. 0. 0. 0. 5.86676688e-005
      1.04023144e-004 -4.05930652e-004 -4.57453643e-005 -4.87067387e-004
      3.68890731e-004 1.65468967e-003 8.75855447e-004 -3.20987077e-004
      -1.74222572e-003 -2.41506030e-003 -2.05056556e-003
      -7.98303052e-004 -2.89005489e-004 -5.52746751e-005 0. 0. 0. 0.
      2.13691292e-005 1.35667666e-004 -5.10331010e-005 -1.71938082e-004
      -2.03343598e-006 -3.61573300e-004 -1.17535579e-004 1.73174043e-003
      7.02503836e-004 -6.28324982e-004 -6.96503441e-004 -1.52788660e-003
      -1.23586599e-003 -4.59227071e-004 -4.34374699e-004
      -5.29715653e-005 0. 0. 0. 0. -1.09219247e-004 -1.69277162e-004
      2.72962090e-004 -1.47751300e-004 1.06553000e-003 8.02046343e-005
      1.34972192e-003 1.34739245e-003 2.85875314e-004 2.44207535e-004
      -7.88365491e-004 -7.53479428e-004 -5.81184053e-004
      -6.93768670e-004 -1.86552032e-004 -1.61217795e-005 0. 0. 0. 0.
      -1.17173127e-004 -5.65064875e-005 1.59357180e-004 7.63597258e-004
      1.27824198e-003 1.01823208e-003 1.04209129e-003 1.54960109e-003
      3.43021267e-004 4.05176310e-004 5.67698386e-004 -3.19499755e-004
      -4.32381406e-004 -3.95824638e-004 -1.84248911e-005 0. 0. 0. 0. 0.
      1.13737464e-004 2.38646491e-004 -5.88176299e-005 3.28599621e-004
      2.66698305e-004 4.43921890e-004 -3.23324493e-004 7.67726218e-004
      3.49436741e-004 3.56955075e-004 1.33368385e-003 3.71027600e-005
      -1.90262959e-004 -1.28193584e-004 0. 0. 0. 0. 0. 0.
      6.53055249e-005 2.25012947e-004 -1.76823974e-004 -1.55538655e-004
      2.81774526e-004 3.39239079e-004 1.81045514e-004 4.52928391e-004
      4.54059918e-004 4.54394059e-004 1.56057853e-004 5.75803324e-006
      1.67506041e-005 5.24365441e-006 0. 0. 0. 0. 0. 0. 1.07799424e-005
      -2.80003860e-005 1.22173064e-004 7.02054531e-004 7.09990389e-004
      1.68837534e-004 -1.18718999e-005 5.02279545e-005 1.82835371e-004
      1.30756584e-004 1.18869568e-004 4.51761443e-005 2.47525550e-005
      7.18607225e-006 0. 0. 0. 0. 0. 0. 0. 0. 0. 0. 0. 0. 0. 0. 0. 0. 0.
      0. 0. 0. 0. 0. 0. 0. 0. 0. 0. 0. 0. 0. 0. 0. 0. 0. 0. 0. 0. 0. 0.
      0. 0. 0. 0. 0.</_>
    <_>
      0. 0. 0. 0. 0. 0. 0. 0. 0. 0. 0. 0. 0. 0. 0. 0. 0. 0. 0. 0. 0. 0.
      0. 0. 0. 0. 0. 0. 0. 0. 0. 0. 0. 0. 0. 0. 0. 0. 0. 0. 0. 0. 0.
      -4.48743549e-006 -1.36866793e-005 1.95468892e-005 3.98507655e-005
      3.24597931e-005 2.80981360e-004 2.90989468e-004 2.24423638e-005
      6.47251145e-005 1.69689389e-004 7.01210447e-005 -5.69467693e-006
      6.17702608e-005 0. 0. 0. 0. 0. 0. 0. -8.97487098e-006
      -3.03083762e-005 5.54769067e-005 1.17888903e-005 -1.91759100e-004
      3.11265030e-004 2.30259102e-004 -1.68035840e-004 -5.07161931e-005
      1.84525066e-004 1.98813155e-004 -8.75863407e-005 3.18610546e-005
      -3.65322485e-005 -2.24732321e-005 0. 0. 0. 0. 0. -4.06874315e-005
      -1.25822218e-004 4.28927015e-005 4.55361296e-005 7.03089099e-005
      4.64469253e-004 7.14561538e-005 8.47023970e-004 2.22689152e-004
      9.15895143e-005 -5.52021957e-004 -9.25685090e-005 -3.10425748e-005
      -1.45646685e-004 -1.01367441e-004 0. 0. 0. 0. 0. -7.21374454e-005
      -1.55191272e-004 -1.35250739e-004 -9.54248208e-006 3.12926277e-004
      6.39374426e-004 -2.21600239e-005 -1.84448189e-004 -4.02997131e-004
      -4.14233618e-005 -3.47297522e-004 -2.57844687e-004 1.29374515e-004
      1.25031525e-004 1.04255720e-004 0. 0. 0. 0. -2.07375288e-005
      -1.10044952e-004 -2.20425849e-004 4.45852493e-005 -1.64403158e-004
      -1.91322702e-004 -2.01458184e-004 -5.21833499e-005 1.50515465e-004
      2.47263270e-005 -4.30852349e-004 1.25193139e-004 1.58875308e-004
      3.74641764e-004 1.31334920e-004 2.81799148e-005 0. 0. 0. 0.
      -7.38663948e-005 -1.78198286e-004 -3.88089684e-004
      -9.60390375e-004 -3.70125606e-004 -5.52759622e-004
      -4.71012638e-004 7.10884415e-005 4.35181981e-004 9.59280995e-004
      5.82255365e-004 4.61252523e-004 5.93274075e-004 -4.44519210e-005
      4.66888669e-005 2.95096054e-008 0. 0. 0. 0. -1.09404289e-004
      -1.80910603e-004 -7.23148172e-004 -1.23113231e-003
      -9.33921838e-004 -9.69988178e-004 -5.91710268e-005 3.92640592e-004
      1.25067960e-003 1.47236080e-003 1.36379548e-003 9.23306507e-004
      4.45857644e-004 9.73371571e-005 -9.75123985e-005 -1.05166919e-005
      0. 0. 0. 0. -1.19339828e-004 -4.49480372e-004 -6.82957529e-004
      -1.40904542e-003 -1.31986220e-003 -1.11101975e-003 3.82892671e-004
      1.11132092e-003 1.36507896e-003 1.91559631e-003 1.16941787e-003
      4.23127203e-004 3.68982699e-004 5.70361190e-005 2.86324157e-005 0.
      0. 0. 0. 0. -1.30261062e-004 -6.32042007e-004 -1.08288962e-003
      -1.17758766e-003 -1.40687299e-003 -1.05278112e-003 4.71688458e-004
      1.28720840e-003 1.55471521e-003 1.10669993e-003 6.19075494e-004
      1.91074214e-004 1.05037600e-006 0. 0. 0. 0. 0. 0. 0.
      -2.97056802e-004 -6.06906251e-004 -7.02448073e-004
      -1.09209132e-003 -1.01793406e-003 -4.47924307e-004 3.24983906e-004
      1.15698727e-003 1.25310430e-003 7.13359390e-004 1.38038042e-004
      -2.69615819e-004 -4.43577155e-005 0. 0. 0. 0. 0. 0. 0.
      -3.89480003e-004 -7.10319728e-004 -4.30704822e-004
      -2.83615780e-004 -5.16325759e-004 -7.09466927e-004 4.52517008e-004
      9.32710769e-004 5.55196544e-004 1.35629103e-004 2.85945076e-004
      -3.53737007e-004 -2.95475940e-004 -2.22128074e-005
      -7.40426867e-006 0. 0. 0. 0. 0. -3.07676732e-004 -6.11455995e-004
      -1.31488297e-004 -1.02871396e-004 4.52340784e-004 1.05598061e-004
      7.56057736e-004 8.30890960e-004 -4.02426704e-005 -2.54111423e-004
      8.39104177e-005 -1.34793401e-004 -1.10294772e-004 2.64592600e-005
      -1.45841659e-005 0. 0. 0. 0. 0. 8.48873315e-005 -1.12748829e-004
      -1.09606000e-004 -3.03669617e-006 -1.80563366e-005 1.89756247e-005
      -1.89444720e-004 1.09386601e-004 4.06319217e-004 1.09573186e-004
      3.66005552e-004 -2.85114715e-004 -1.64210243e-004 4.26426413e-005
      -1.25648203e-005 0. 0. 0. 0. 0. -9.21308892e-005 -1.66272075e-004
      -1.68905579e-004 1.70548265e-005 1.84638950e-004 3.77526390e-004
      -3.28069800e-005 1.17339383e-004 -9.00427131e-006 5.21800655e-004
      4.20694705e-004 -4.48404608e-005 2.48175085e-004 8.82663371e-005
      -1.34623076e-006 0. 0. 0. 0. 0. 1.58940020e-005 4.71153216e-005
      9.37820441e-005 2.48852099e-004 5.12231956e-004 2.31838407e-004
      -7.80062328e-005 -2.15908021e-005 7.98687252e-005 -1.04331280e-004
      1.54201072e-004 2.36015112e-004 6.79855511e-005 2.89234067e-005 0.
      0. 0. 0. 0. 0. 0. 0. 4.99215093e-005 2.65766084e-005
      2.65215029e-004 1.61674339e-004 -7.95271553e-005 -2.25567710e-004
      4.56915805e-005 8.42061490e-005 6.36163386e-005 -4.01579018e-005
      0. 0. 0. 0. 0. 0. 0. 0. 0. 0. 0. 0. 0. 0. 0. 0. 0. 0. 0. 0. 0. 0.
      0. 0. 0. 0. 0. 0. 0. 0. 0. 0. 0. 0. 0. 0. 0. 0. 0. 0. 0. 0. 0. 0.
      0. 0.</_>
    <_>
      0. 0. 0. 0. 0. 0. 0. 0. 0. 0. 0. 0. 0. 0. 0. 0. 0. 0. 0. 0. 0. 0.
      0. 0. 0. 0. 0. 0. 0. 0. 0. 0. 0. 0. 0. 0. 0. 0. 0. 0. 0. 0. 0. 0.
      1.30195811e-004 1.71987223e-004 9.11320822e-005 9.49843161e-005
      2.20609116e-004 7.26297323e-004 -4.05854837e-004 2.56920437e-004
      1.95743443e-004 -9.06994246e-005 -2.24072392e-005 2.80371023e-005
      2.43657996e-006 0. 0. 0. 0. 0. 0. -7.41413169e-005
      -2.08407564e-005 3.69021931e-004 4.53196291e-004 -4.11345973e-004
      -7.04405596e-004 3.70541762e-004 -5.57528459e-004 -4.64665427e-005
      4.21786477e-004 1.34766218e-004 1.59302639e-004 -1.15867813e-004
      4.25219914e-005 -1.54896581e-004 0. 0. 0. 0. 0. -1.44308942e-004
      -5.98696235e-004 -2.11340142e-004 -8.17428634e-004
      -4.86340083e-004 -8.06381504e-005 -1.86462814e-004 6.14349337e-005
      9.32021139e-005 -4.25926060e-004 -1.52343448e-004 9.36247699e-004
      4.49693936e-004 -1.34316084e-004 -9.06080750e-005 0. 0. 0. 0. 0.
      1.53359615e-005 3.23875225e-004 2.21807262e-004 -3.87660606e-004
      1.52944034e-004 1.20833737e-003 6.53211435e-004 4.75388719e-004
      6.88294240e-004 2.88143783e-004 4.67947277e-004 4.19922115e-004
      7.64330267e-004 6.37740814e-005 3.00297572e-004 0. 0. 0. 0. 0.
      2.49231758e-004 8.96332203e-004 7.14288675e-004 3.45583743e-004
      -5.93075056e-005 2.28022371e-004 -1.80527495e-004 8.60867949e-005
      -3.41847946e-004 -7.85628654e-005 2.08032157e-004 3.53047188e-004
      6.03547378e-004 2.31908401e-004 2.82217457e-004 0. 0. 0. 0. 0. 0.
      4.31823719e-004 3.13721190e-004 2.84003763e-004 2.01962495e-004
      -5.47756690e-006 -1.95924519e-003 -9.07629146e-005 7.97262415e-004
      4.96389228e-004 -7.23813864e-005 5.90469106e-004 2.08465717e-004
      -2.42193972e-004 1.25078572e-004 0. 0. 0. 0. 0. -3.13041091e-005
      -3.90602509e-004 -1.19646185e-003 -1.64068560e-003
      -1.82874512e-003 -1.44054822e-003 -1.11059227e-003
      -3.40544910e-004 8.27447861e-004 -5.02336130e-004 3.29608520e-005
      4.31858689e-006 -2.89484567e-004 -3.92501679e-004 1.49273415e-004
      0. 0. 0. 0. 0. -6.42558080e-005 -9.61576938e-004 -1.77019031e-003
      -2.30725505e-003 -3.02571477e-003 -1.60723680e-003 5.66711940e-004
      1.74571958e-003 1.81084999e-003 2.93945690e-004 -9.52755392e-004
      -5.47254982e-004 -1.29361183e-003 -1.78163522e-004 7.64564902e-005
      0. 0. 0. 0. 0. 0. -1.04542507e-003 -1.85586093e-003
      -1.79611379e-003 -1.87402416e-003 -1.28106563e-003 9.43566149e-004
      1.34936254e-003 2.97939714e-005 -9.95464739e-004 -9.32387426e-004
      -1.59628387e-003 -1.42937212e-003 -5.44900307e-004
      -2.92052689e-004 0. 0. 0. 0. 0. 1.62438664e-006 -1.16496254e-003
      -2.07456970e-003 -3.30330833e-004 -3.57645331e-005
      -9.48935514e-004 1.35333219e-003 1.00294524e-003 -4.26588922e-005
      -1.44887727e-003 -1.64528820e-003 -2.25311285e-003
      -6.62432401e-004 -2.27906436e-004 -2.74208811e-004 0. 0. 0. 0.
      2.03048330e-006 7.92004430e-005 -8.24710645e-004 -1.60151394e-003
      6.87394291e-004 -2.70845136e-004 4.11663175e-004 1.89955218e-003
      -5.93946861e-005 -1.18315722e-004 -8.80585983e-004
      -1.86578289e-003 -1.67397270e-003 -4.37520037e-004
      -4.68832674e-004 -2.21878887e-004 0. 0. 0. 0. 7.08213629e-005
      5.13518789e-005 3.72127543e-004 -1.46042687e-004 9.05667141e-004
      3.87273205e-004 1.24401844e-003 7.82988325e-004 3.92559363e-004
      6.39157719e-004 -2.31124664e-004 -7.44476914e-004 -8.50525321e-005
      -5.67852578e-004 -4.50107589e-004 -7.11687026e-005 0. 0. 0. 0.
      1.46566499e-005 2.31901926e-004 1.48942592e-004 3.74803989e-004
      5.48789918e-004 8.62964953e-004 -8.93461838e-005 9.94432019e-004
      5.45562361e-004 1.33885373e-003 4.98305075e-004 1.82239703e-004
      -9.25857894e-005 -6.54945616e-004 -3.83881648e-004 0. 0. 0. 0. 0.
      -6.60240185e-005 8.43374655e-005 -5.28171484e-004 2.49874021e-004
      -9.50816320e-005 6.32441152e-005 2.34660343e-004 1.29082342e-004
      5.24491887e-004 4.46816441e-004 1.13591610e-003 2.36590859e-004
      -3.81629943e-004 -4.64810029e-004 -2.07525445e-004 0. 0. 0. 0. 0.
      7.46512478e-006 -2.28124991e-004 -4.47165512e-004 -4.18524432e-004
      -3.55624739e-004 -1.13558417e-004 1.06048421e-003 1.32231973e-003
      7.22278608e-004 9.17458616e-004 1.17069797e-003 1.70700063e-004
      -1.35105991e-004 -2.62133449e-006 0. 0. 0. 0. 0. 0.
      2.03275646e-004 1.61820535e-005 4.52246488e-004 1.21292840e-004
      5.30571910e-004 3.51648952e-004 2.74703722e-004 4.57123766e-004
      9.23044863e-004 1.02053455e-003 8.55861348e-004 3.72021314e-004
      3.83896957e-004 2.80075328e-004 0. 0. 0. 0. 0. 0. 0. 0. 0. 0. 0.
      0. 0. 0. 0. 0. 0. 0. 0. 0. 0. 0. 0. 0. 0. 0. 0. 0. 0. 0. 0. 0. 0.
      0. 0. 0. 0. 0. 0. 0. 0. 0. 0. 0.</_>
    <_>
      0. 0. 0. 0. 0. 0. 0. 0. 0. 0. 0. 0. 0. 0. 0. 0. 0. 0. 0. 0. 0. 0.
      0. 0. 0. 0. 0. 0. 0. 0. 0. 0. 0. 0. 0. 0. 0. 0. 0. 0. 0. 0. 0. 0.
      0. 0. 2.63304682e-005 2.85452988e-004 4.65653371e-004
      4.33288689e-004 7.43999903e-004 7.91785598e-004 5.85755297e-005
      -2.49390112e-004 -4.83020820e-004 -5.58912347e-004
      -3.81201942e-004 -2.13339081e-005 0. 0. 0. 0. 0. 0. 0.
      1.29506094e-004 3.33611795e-004 8.49991222e-004 8.34703038e-004
      3.40804429e-004 8.83014989e-004 1.27727690e-003 9.34080861e-004
      -4.51390108e-004 -8.78898834e-004 -2.70071905e-004
      -1.36000934e-004 -1.69007217e-005 0. 0. 0. 0. 0. 0.
      1.11954585e-004 3.99485085e-004 7.55956920e-004 7.72487954e-004
      1.38259586e-003 3.09894793e-004 5.69272379e-004 1.04073016e-003
      1.92886451e-004 -9.47743072e-004 -5.11352962e-004 5.10643760e-004
      3.26657319e-004 1.70911171e-005 0. 0. 0. 0. -7.48903913e-005
      -3.49488510e-005 2.00755050e-004 3.57133424e-004 6.82548503e-004
      1.13474252e-003 1.88698666e-003 9.25151631e-004 7.09180313e-004
      6.86160172e-004 4.97581204e-004 -5.70334203e-004 4.11195069e-004
      6.01623149e-004 4.44540259e-004 5.44079812e-005 0. 0. 0. 0.
      -1.08175016e-004 -1.03182319e-004 1.47016748e-004 4.55393631e-004
      9.36368946e-004 7.74093845e-004 1.14455225e-003 3.58048565e-004
      -5.88293769e-004 -4.18502983e-004 2.37506320e-004 2.04854823e-005
      1.07304670e-003 7.02946389e-004 3.59352824e-004 7.70479237e-005 0.
      0. 0. 0. 0. -1.13167705e-004 -6.02277978e-005 8.46625553e-005
      5.24189032e-004 -1.47098443e-004 7.37623996e-005 -8.99579318e-004
      -9.79862292e-004 -6.12574513e-004 9.74574505e-006 6.20395585e-004
      7.24421348e-004 9.64903971e-004 4.07774030e-004 6.40865474e-005 0.
      0. 0. 0. 0. -7.23582198e-005 -5.01088274e-004 -7.99434609e-004
      -1.20070670e-003 -5.32189908e-004 -7.24496145e-004
      -9.10871197e-004 -8.47049465e-004 -1.80819930e-004 5.84613532e-004
      3.79934907e-004 9.48251109e-004 7.59459508e-004 1.43576603e-004
      2.07942030e-005 0. 0. 0. 0. -1.16496167e-005 -5.05127304e-004
      -6.05091453e-004 -1.01169839e-003 -1.06593769e-003
      -1.01252424e-003 -6.29519287e-004 -9.18903854e-004
      -5.00373542e-004 -3.66726686e-004 -2.32814145e-005 2.41394897e-004
      3.65860353e-004 2.76592531e-004 5.79653970e-005 1.85672252e-005 0.
      0. 0. 0. -2.37985034e-004 -6.92644680e-004 -1.16318651e-003
      -1.19875988e-003 -1.13183784e-003 -5.91034244e-004 2.98544706e-004
      9.49994428e-004 -2.41096423e-004 -5.44228125e-004 -7.69151666e-004
      -8.39403539e-004 -1.42775927e-004 4.14423048e-005 2.74213562e-006
      0. 0. 0. 0. 0. -2.11800725e-004 -5.38751541e-004 -8.61353008e-004
      -8.90383846e-004 -3.59569356e-004 -6.36655372e-004 9.29959002e-004
      9.91867040e-004 -4.58383816e-004 -9.05264984e-004 -1.49047154e-003
      -9.78309312e-004 -3.21120955e-004 -4.37582748e-005
      -1.83785642e-006 0. 0. 0. 0. 0. -2.58043146e-004 -7.38414354e-004
      -1.00655062e-003 -6.24935026e-004 -4.33038134e-004
      -5.05548611e-004 3.20737745e-004 4.90639883e-004 -3.87213688e-004
      -1.35062169e-003 -9.71627946e-004 -7.75923778e-004
      -3.86440544e-004 -6.63183673e-005 0. 0. 0. 0. 0. 0.
      -1.98406837e-004 -5.49741671e-004 -2.61690584e-004 9.23945772e-005
      3.27089743e-004 -3.15092970e-004 3.16057616e-004 7.94233405e-004
      -7.42333883e-004 -4.93635540e-004 -3.20702005e-004
      -3.95791139e-004 -2.61974143e-004 -7.02186881e-005 0. 0. 0. 0. 0.
      0. -2.22734539e-004 -2.72426259e-004 2.47419903e-005
      -8.59653483e-006 -3.17376107e-004 2.36083710e-004 1.05474854e-003
      1.24790438e-003 -5.00430586e-004 -2.90368800e-004 3.04172136e-005
      1.36672325e-005 -1.55200338e-004 -6.79836085e-005 0. 0. 0. 0. 0.
      0. -1.28529296e-004 -6.14484889e-005 1.20341989e-004
      -1.20544806e-004 -2.62936228e-004 -1.27897700e-004
      -4.70669474e-004 6.75470976e-004 1.86776640e-004 1.67734688e-005
      1.21683108e-004 -9.71466361e-004 -2.00380484e-004 -2.87316034e-005
      0. 0. 0. 0. 0. 0. -8.92119169e-006 1.19997458e-005
      -3.29232789e-005 1.47504819e-004 2.74044840e-004 -2.30457343e-004
      -4.90146340e-004 -2.11598061e-004 8.10325902e-004 7.23328209e-004
      1.33291614e-004 -6.04567584e-004 -3.21618165e-004 1.27612821e-005
      0. 0. 0. 0. 0. 0. -1.10271385e-005 -1.11029558e-005
      3.85356725e-005 3.57345329e-004 5.41107380e-004 2.13025647e-004
      -4.87550307e-004 -3.83731851e-004 -1.22446392e-004
      -2.66793824e-004 -1.81964584e-004 -4.93336876e-004
      -2.32883220e-004 6.96069947e-006 0. 0. 0. 0. 0. 0. 0. 0. 0. 0. 0.
      0. 0. 0. 0. 0. 0. 0. 0. 0. 0. 0. 0. 0. 0. 0. 0. 0. 0. 0. 0. 0. 0.
      0. 0. 0. 0. 0. 0. 0. 0. 0. 0. 0.</_>
    <_>
      0. 0. 0. 0. 0. 0. 0. 0. 0. 0. 0. 0. 0. 0. 0. 0. 0. 0. 0. 0. 0. 0.
      0. 0. 0. 0. 0. 0. 0. 0. 0. 0. 0. 0. 0. 0. 0. 0. 0. 0. 0. 0.
      -6.04041986e-007 -1.62137587e-006 2.89882533e-004 4.48970153e-004
      3.78518860e-004 4.43538040e-004 7.05055543e-004 5.07485587e-004
      5.00252412e-004 3.87266453e-004 4.95938293e-004 3.91739421e-004
      2.47956923e-004 7.92432620e-005 1.04279225e-005 1.54532799e-007 0.
      0. 0. 0. -7.63000401e-007 -1.40177071e-004 9.64247811e-005
      4.02851991e-004 2.98572297e-004 5.52921905e-004 5.28248493e-004
      1.72111249e-005 -3.47380963e-004 8.46910916e-005 3.93575843e-004
      1.66725877e-004 -3.17923463e-004 6.46757690e-005 -1.00898949e-004
      -4.74437402e-005 0. 0. 0. 0. 0. -1.40719814e-004 1.13044720e-004
      1.73319611e-004 -2.53383951e-006 4.12337889e-004 5.55592924e-005
      1.37395473e-004 1.06794061e-003 -4.63560456e-004 -2.78187712e-004
      -9.44662374e-004 -7.13664282e-004 -8.36701423e-004
      -9.40429047e-004 -2.65630340e-004 0. 0. 0. 0. -1.30345904e-006
      -4.92189720e-005 3.27197195e-004 5.69587108e-004 7.11800123e-004
      3.65234882e-004 6.38435653e-004 -2.37000073e-004 3.85425956e-004
      -6.54032745e-004 1.07581890e-003 -8.15867097e-005 1.11697929e-003
      8.42628244e-004 -6.68150678e-005 -1.28427724e-004 0. 0. 0. 0.
      -3.17916857e-008 -2.97059723e-005 2.43030765e-004 1.03344920e-003
      -3.79066769e-004 -3.02378670e-004 -2.25541997e-004
      -5.48490614e-004 -7.38917675e-004 -1.87464204e-004 6.62685721e-004
      7.42185686e-004 1.25107961e-003 7.03318859e-004 -1.14785165e-004
      -1.93903688e-004 0. 0. 0. 0. -1.36704239e-006 -4.76875266e-006
      -1.28162879e-004 -4.52478998e-005 -7.48236926e-005
      -1.12345594e-003 -1.21424871e-003 -1.60688336e-003 6.32135125e-005
      9.15229088e-004 1.77499221e-003 1.67840079e-003 1.93351484e-003
      6.01882406e-004 3.55023891e-004 8.62233501e-005 0. 0. 0. 0. 0.
      -3.11558506e-006 -2.96522281e-004 -8.72079399e-004
      -5.94496902e-004 -1.84259354e-003 -2.99892551e-003
      -2.55659665e-003 -6.48143934e-004 6.40327868e-004 7.59090006e-004
      7.21075339e-004 3.25115601e-004 3.02704750e-004 1.29641718e-004
      4.67309610e-006 0. 0. 0. 0. 0. -3.05200160e-006 -4.13316651e-004
      -9.99255921e-004 -2.05857609e-003 -3.18175042e-003
      -3.21712671e-003 -1.17882737e-003 -6.61203230e-004
      -4.59640549e-004 7.48308958e-004 9.98533360e-005 1.22057427e-004
      1.19567972e-004 8.20970890e-005 0. 0. 0. 0. 0. 0. -3.30633520e-006
      -2.77728890e-004 -1.19424937e-003 -2.07431521e-003
      -2.78060627e-003 -1.67856459e-003 2.25992961e-004 -4.44442907e-004
      -5.23069059e-004 4.30746295e-004 -3.37190140e-004 -8.86360242e-004
      -4.28474566e-004 -1.24131111e-004 0. 0. 0. 0. 0. -1.27166732e-006
      -5.47382615e-006 -2.57916283e-004 -7.38946605e-004
      -4.01438563e-004 -1.36063294e-003 -1.12841430e-003 1.67393335e-003
      4.57565737e-004 -3.14068515e-004 -8.67956958e-004 -8.69199866e-004
      -7.16450450e-004 1.23782942e-004 1.73162960e-004 0. 0. 0. 0. 0.
      5.43177521e-006 4.25437611e-005 5.18913794e-006 2.35114087e-004
      2.79140586e-005 -3.66803986e-004 -8.79595289e-004 1.39314914e-003
      3.02230997e-004 -3.88438668e-004 2.90372642e-004 -8.26645526e-004
      -3.92831396e-004 2.69185461e-004 0. 0. 0. 0. 0. 0.
      -7.08247389e-005 2.15068023e-004 5.85119182e-004 3.00512009e-004
      9.95503622e-004 4.34472808e-004 3.61564540e-004 2.27400707e-003
      3.26694630e-004 4.82920848e-004 -2.31406120e-005 -1.07470252e-004
      -1.62962548e-004 -1.09851731e-004 0. 0. 0. 0. 0. 0.
      -1.10966816e-004 1.59096016e-004 -8.41959627e-005 -1.23052348e-004
      1.07578188e-003 2.65173323e-004 6.42347266e-004 1.37127622e-003
      4.75096058e-005 4.10516281e-004 5.61928318e-004 8.16921471e-004
      -9.22219595e-004 -3.97719414e-004 0. 0. 0. 0. 0. 0.
      -5.85032976e-005 6.11761934e-004 -1.60651805e-004 2.65712413e-004
      -2.85300348e-006 1.00258528e-003 1.67277467e-004 8.10906116e-004
      5.10955928e-004 6.43578649e-004 -1.95366927e-004 7.02968682e-005
      -1.62754999e-003 -3.85523308e-004 0. 0. 0. 0. 0. 0.
      9.44180138e-005 2.56081141e-004 5.55917039e-004 -7.70377519e-005
      7.06718361e-004 3.23727436e-004 -3.43175518e-004 -1.78140443e-004
      7.00667326e-004 7.59760878e-005 -6.29905844e-004 -4.27489140e-004
      -4.70396568e-004 -5.06762772e-005 0. 0. 0. 0. 0. 0. 0.
      1.51862827e-004 4.38617659e-004 9.29222006e-005 7.01403245e-004
      5.53002697e-004 -3.27278394e-004 -1.54676862e-004 6.06022950e-004
      9.37108198e-005 -1.82608157e-004 -5.70935263e-005 -1.54438658e-005
      0. 0. 0. 0. 0. 0. 0. 0. 0. 0. 0. 0. 0. 0. 0. 0. 0. 0. 0. 0. 0. 0.
      0. 0. 0. 0. 0. 0. 0. 0. 0. 0. 0. 0. 0. 0. 0. 0. 0. 0. 0. 0. 0. 0.
      0.</_>
    <_>
      0. 0. 0. 0. 0. 0. 0. 0. 0. 0. 0. 0. 0. 0. 0. 0. 0. 0. 0. 0. 0. 0.
      0. 0. 0. 0. 0. 0. 0. 0. 0. 0. 0. 0. 0. 0. 0. 0. 0. 0. 0. 0. 0. 0.
      0. 2.93043558e-006 1.13778360e-005 1.08080560e-004 3.79753765e-005
      -1.78379742e-005 -1.13600734e-004 -1.37661860e-004
      -1.57867486e-004 -5.44136492e-006 8.62195811e-005 3.69431473e-005
      -3.80713500e-005 -1.63154564e-005 0. 0. 0. 0. 0. 0.
      6.70883878e-007 4.23263409e-005 1.32224901e-004 3.99873912e-004
      1.91551255e-004 -1.22190568e-005 -7.29146268e-005 -9.06140704e-005
      3.19445717e-005 1.60294338e-004 5.54577855e-004 2.43065064e-004
      -1.10151137e-004 -5.18137531e-005 0. 0. 0. 0. 0. 0.
      3.22302549e-006 6.40454527e-005 -7.39405223e-005 -4.70718544e-004
      -1.60982774e-004 1.65492980e-004 5.60407934e-004 3.65615240e-004
      2.67243886e-004 3.96085990e-004 5.33440674e-004 5.99276624e-004
      5.73687030e-005 -1.88265985e-005 0. 0. 0. 0. 0. 0. 1.99690057e-005
      -1.72249653e-004 -2.08074416e-004 -1.09968778e-005 1.87698199e-004
      2.02420837e-004 4.19154268e-004 3.64162443e-005 1.84229575e-004
      7.97902758e-005 2.56454601e-004 2.95953185e-004 2.81199900e-004
      6.41357110e-005 0. 0. 0. 0. -6.14933072e-007 -3.14570821e-006
      2.35258940e-005 -1.40923337e-004 -4.77600785e-004 -5.73810248e-004
      4.75894522e-005 1.37382696e-004 1.43583427e-004 -4.85312376e-006
      1.17328491e-004 1.57606017e-004 1.61758377e-004 -2.36689419e-004
      -2.62342277e-004 -1.94389737e-004 0. 0. 0. 0. -8.25399547e-006
      -6.06703834e-005 -3.20442923e-004 -5.32678328e-004
      -4.94566630e-004 -1.30947318e-003 -8.67773721e-004
      -6.59213751e-004 -3.34953511e-004 2.90366734e-004 -1.17382129e-004
      -1.58668190e-004 -2.18392117e-004 -6.18713384e-004
      -3.82809638e-004 -2.40204259e-004 0. 0. 0. 0. -5.38852582e-005
      -2.28993362e-004 -5.01480827e-004 -1.04327966e-003
      -9.07015579e-004 -1.21924328e-003 -1.08161161e-003
      -1.05213444e-003 -1.79788854e-004 5.14388666e-004 -2.35494241e-004
      -4.35719063e-004 -3.68840207e-004 -6.51256298e-004
      -4.67782666e-004 -1.82005635e-004 0. 0. 0. 0. -1.60703392e-004
      -5.32118895e-004 -7.14410678e-004 -1.34404982e-003
      -1.42710365e-003 -1.46883086e-003 -1.00823666e-003
      -6.80982543e-004 1.35949318e-004 5.08108242e-005 -2.35389132e-004
      -4.86865611e-004 -3.34800105e-004 -2.77718558e-004
      -3.49173119e-004 -1.57561750e-004 0. 0. 0. 0. -3.42664571e-004
      -9.17821249e-004 -1.00995321e-003 -1.44838530e-003
      -9.70249414e-004 -3.91491340e-004 -1.69943320e-004 2.64039933e-004
      4.45483194e-004 5.17282402e-004 9.04871558e-006 -1.34911461e-005
      7.00714154e-005 -4.33034875e-005 -5.74483092e-005 -1.82503263e-005
      0. 0. 0. 0. -2.37814922e-004 -8.24349409e-004 -7.25817867e-004
      -5.28542267e-004 -3.31513700e-004 3.42981250e-004 5.52008627e-004
      4.87534853e-004 8.77099403e-004 4.43110359e-004 2.70862482e-004
      -7.48874598e-008 -2.19901136e-004 -2.74747872e-004
      -8.86594498e-005 0. 0. 0. 0. 0. -2.91022850e-004 -5.75957820e-004
      -7.95668311e-005 -3.20148858e-004 -6.38398982e-004 1.88407706e-004
      3.37590784e-004 9.52256494e-004 6.92325295e-004 2.88429059e-004
      9.93649955e-005 -2.36279404e-004 -4.33930865e-004 -2.18683534e-004
      -8.47590709e-005 0. 0. 0. 0. 0. -2.26938879e-004 -3.45283042e-004
      4.65739213e-005 -2.25439580e-004 -2.73854268e-004 -1.48405088e-004
      3.18034261e-004 8.39932414e-004 4.53374203e-004 4.08420368e-004
      -1.20922443e-004 -3.32711643e-004 -5.97523060e-004
      -2.92987272e-004 -3.65844935e-005 0. 0. 0. 0. 0. 3.47814876e-007
      9.48582328e-006 8.46858165e-005 2.73929443e-004 1.18661002e-004
      1.54972440e-004 4.03698272e-004 3.40377665e-005 -8.85771442e-005
      1.76232526e-004 3.65132175e-004 1.94734399e-004 -1.88714766e-004
      -3.67670204e-004 -5.34803257e-005 0. 0. 0. 0. 0. 4.94124361e-005
      -4.92716754e-005 -1.56230817e-005 5.08208293e-004 2.65887036e-004
      5.97479957e-005 2.07409757e-004 2.58065411e-004 1.41197786e-004
      3.40785016e-004 4.70009225e-004 3.11271520e-004 8.99948209e-005
      -2.57921201e-004 -4.22958146e-005 0. 0. 0. 0. 0. 9.44902204e-005
      2.13202409e-004 1.23635997e-004 2.26427946e-004 5.35845698e-004
      -8.21648646e-005 4.91175160e-005 1.29852298e-004 2.89527903e-004
      3.41205305e-006 -3.90283240e-004 -1.85718367e-004 -5.89878664e-006
      1.13065880e-005 -6.50704806e-006 0. 0. 0. 0. 0. 2.69522457e-006
      3.01788368e-005 -7.85599423e-006 -1.27165651e-004 1.00393743e-004
      3.86474785e-005 -2.65019393e-004 -3.93083174e-004 5.73553916e-005
      -1.00459991e-004 -3.39982595e-004 -2.06514305e-004
      -5.66114795e-005 8.69011637e-006 0. 0. 0. 0. 0. 0. 0. 0. 0. 0. 0.
      0. 0. 0. 0. 0. 0. 0. 0. 0. 0. 0. 0. 0. 0. 0. 0. 0. 0. 0. 0. 0. 0.
      0. 0. 0. 0. 0. 0. 0. 0. 0. 0. 0.</_>
    <_>
      0. 0. 0. 0. 0. 0. 0. 0. 0. 0. 0. 0. 0. 0. 0. 0. 0. 0. 0. 0. 0. 0.
      0. 0. 0. 0. 0. 0. 0. 0. 0. 0. 0. 0. 0. 0. 0. 0. 0. 0. 0. 0. 0.
      -1.31399484e-005 -3.63965810e-005 -3.48810427e-005
      -6.73644608e-005 2.89139280e-004 4.94679087e-004 4.10018169e-004
      4.46625170e-004 2.54408660e-004 -2.95097270e-004 -1.98386726e-004
      -7.80042465e-005 -1.51862275e-006 -8.90151284e-007 0. 0. 0. 0. 0.
      0. -2.38884422e-005 -9.48983579e-005 -1.37610710e-004
      -3.05120775e-004 -5.28627133e-005 -6.10535935e-005
      -3.38246959e-004 1.22007821e-003 9.19333368e-004 2.95124570e-004
      -6.20007748e-004 -2.33777784e-004 1.00210178e-004 -4.82737414e-006
      -8.20045989e-006 0. 0. 0. 0. 0. -2.42383212e-005 -1.22670564e-004
      -4.94616164e-004 -5.53704973e-004 -7.81605835e-004
      -5.68561954e-004 -3.85062012e-004 4.33264504e-004 2.65534036e-004
      3.57900688e-004 -4.38834133e-004 -3.25187983e-004 6.97062860e-005
      -3.17071303e-004 -3.89906272e-005 0. 0. 0. 0. 0. -1.76392205e-005
      -1.16501906e-004 -4.18487965e-004 -3.04565940e-004
      -7.66411977e-005 -1.89576545e-004 5.22591290e-004 6.57051045e-004
      2.16394201e-005 -3.21838772e-004 -7.32483168e-004 -1.84210774e-004
      -1.99984264e-004 -9.54735558e-004 7.72791027e-005 0. 0. 0. 0. 0.
      -3.62185347e-005 -1.10803594e-004 2.68195872e-004 5.03127754e-004
      -5.42165595e-004 -9.58781748e-005 -7.79530907e-004
      -4.40727017e-004 -4.96179739e-004 3.16065678e-004 -2.72115896e-004
      1.37068192e-003 1.07904559e-003 -1.33428075e-005 -1.12105988e-006
      0. 0. 0. 0. 0. -2.03258587e-005 -1.03115490e-005 -3.40139268e-005
      3.14949604e-004 -2.73580052e-004 -8.85056099e-004 -1.75733177e-003
      -6.01842243e-004 7.51158368e-005 2.67062132e-004 1.17870979e-003
      1.49582268e-003 5.80918393e-004 1.13755021e-004 -3.71496717e-005
      0. 0. 0. 0. 0. -2.25842869e-005 -7.55872970e-005 -2.30414895e-004
      -2.69612821e-004 -1.38596364e-003 -2.20709993e-003
      -1.64036802e-003 -6.71369780e-004 -1.73543085e-004 2.10503713e-004
      5.38589375e-004 4.26485611e-004 1.99060072e-004 1.99412643e-005
      -5.90844684e-006 0. 0. 0. 0. 0. -2.66905208e-005 -9.40228929e-005
      -4.21160512e-004 -1.18904212e-003 -2.22523976e-003
      -2.38278159e-003 -1.14729092e-003 -3.15454992e-004
      -7.46958889e-004 -1.76528396e-004 -6.05656765e-004 2.76350038e-004
      1.86323581e-004 1.23309350e-004 0. 0. 0. 0. 0. 0. -2.64852097e-005
      -1.88150385e-004 -6.38406957e-004 -1.46493048e-003
      -1.43020134e-003 -1.21535070e-003 -2.64220434e-005
      -5.09723090e-004 1.92974461e-004 -1.02793216e-003 -1.36450783e-003
      -3.76257260e-004 1.10747051e-005 1.17365644e-005 0. 0. 0. 0. 0.
      -2.58236814e-005 -3.25845867e-005 -2.46423180e-004
      -4.64348297e-004 5.24952302e-005 -1.15124567e-004 -6.11658266e-004
      -8.66621631e-005 -5.75331156e-004 1.49111889e-004 -4.02365811e-004
      -9.24509019e-004 -2.62548507e-004 1.79369890e-004 1.61266013e-004
      0. 0. 0. 0. 0. -2.03071995e-005 -8.48173222e-005 -4.93427251e-005
      1.38312796e-004 2.97694030e-004 4.78995411e-004 -2.75847910e-004
      3.82686776e-005 -1.93006461e-004 8.74439720e-004 9.11415846e-004
      4.04123595e-004 4.43228164e-005 8.32325022e-005 -4.31154558e-006
      0. 0. 0. 0. 0. -2.73947826e-005 9.30627211e-005 6.34444645e-004
      5.17003937e-004 5.77930768e-004 8.77142651e-004 8.67689378e-004
      7.45412137e-004 8.91665346e-004 1.48753461e-003 1.22555054e-003
      9.95588256e-004 3.85423453e-004 -5.74872774e-006 0. 0. 0. 0. 0. 0.
      2.90692056e-004 3.25307628e-004 6.93493930e-004 6.26743538e-004
      1.68693846e-003 9.28401714e-004 -2.99785926e-004 7.90904392e-004
      9.44338273e-004 1.45779806e-003 1.86331721e-003 1.05455797e-003
      2.83930363e-004 0. 0. 0. 0. 0. 0. 0. 2.95085978e-004
      3.98314558e-004 6.15436991e-004 -3.17362515e-004 2.85324699e-004
      3.35815974e-004 3.64419684e-004 1.26950396e-003 9.32960014e-004
      1.75511069e-003 1.75067910e-003 9.89356311e-004 6.50470902e-005 0.
      0. 0. 0. 0. 0. 0. 2.99824151e-005 -6.17130543e-004
      -6.68866327e-004 3.48440837e-004 9.88701941e-004 2.54952261e-004
      -2.37352840e-004 4.61814954e-004 8.96862184e-004 7.10572815e-004
      9.28405090e-004 4.65725025e-004 5.93886980e-005 0. 0. 0. 0. 0. 0.
      0. -1.64148041e-005 -7.62737691e-005 -2.21611030e-004
      1.75652713e-005 9.51174181e-004 3.07695096e-004 2.74057616e-004
      1.03494836e-004 -1.72901600e-005 6.60002479e-006 2.99425592e-004
      1.06973726e-004 3.37537494e-005 0. 0. 0. 0. 0. 0. 0. 0. 0. 0. 0.
      0. 0. 0. 0. 0. 0. 0. 0. 0. 0. 0. 0. 0. 0. 0. 0. 0. 0. 0. 0. 0. 0.
      0. 0. 0. 0. 0. 0. 0. 0. 0. 0. 0. 0.</_>
    <_>
      0. 0. 0. 0. 0. 0. 0. 0. 0. 0. 0. 0. 0. 0. 0. 0. 0. 0. 0. 0. 0. 0.
      0. 0. 0. 0. 0. 0. 0. 0. 0. 0. 0. 0. 0. 0. 0. 0. 0. 0. 0. 0. 0. 0.
      0. 0. -1.78420078e-006 -1.17421827e-004 9.00756713e-005
      3.22988228e-004 3.16954975e-004 5.02205163e-004 -1.10814282e-004
      -2.72368430e-004 -3.58822843e-004 -4.01557016e-004
      -3.39860067e-004 0. 0. 0. 0. 0. 0. 0. 0. 1.94721273e-004
      4.28673316e-004 1.17307472e-005 8.02013528e-005 -1.77269012e-005
      6.34600117e-004 3.57794866e-004 -1.59995208e-004 -4.68343205e-004
      7.31462160e-006 -4.42489982e-004 -3.13379162e-004 -1.34555041e-004
      0. 0. 0. 0. 0. 0. 0. 4.16249037e-004 7.98992638e-004
      2.12339888e-004 6.86460640e-004 5.36492036e-004 2.07217832e-004
      8.62304762e-004 4.55514994e-004 -4.29981767e-004 -1.82752745e-004
      -4.22992045e-004 -6.78973855e-004 -1.92616222e-004 0. 0. 0. 0.
      -1.05703493e-005 -4.61251584e-005 -5.91607168e-005 4.17819276e-004
      5.33008773e-004 8.08632758e-004 1.97443005e-005 2.63533992e-004
      3.11124924e-004 -1.21607976e-004 3.27504735e-004 3.00601008e-004
      7.76339948e-005 -1.23071568e-005 -3.57990415e-004 -7.85232260e-005
      0. 0. 0. 0. -3.75482196e-005 -8.72033270e-005 -9.79878241e-005
      -2.86249124e-004 4.62717289e-004 -1.24049593e-005 -2.69458134e-004
      -4.38320596e-004 -7.52761262e-004 -8.69760872e-004 2.76846840e-004
      3.74496420e-004 1.65429770e-003 5.89233881e-004 -3.86495027e-004
      -8.34522361e-005 0. 0. 0. 0. -6.54959731e-005 -1.10339046e-004
      -8.20217901e-005 -8.44049573e-005 -3.85475054e-004
      -8.75554455e-004 -1.70572440e-003 -2.84667313e-003
      -2.44876160e-003 -1.56841474e-004 7.64529046e-004 4.93485422e-004
      1.20738440e-003 8.31481011e-004 3.33368516e-004 2.26346147e-005 0.
      0. 0. 0. 0. -7.20133394e-005 -2.00746639e-004 -4.49806626e-004
      -4.50941821e-004 -1.16651203e-003 -1.76293752e-003
      -2.69186776e-003 -1.56885153e-003 4.98354384e-005 4.55011090e-004
      3.01917062e-005 5.05633478e-004 4.56443900e-004 1.09848675e-004
      6.21073968e-006 0. 0. 0. 0. 0. -9.72764828e-005 -3.53842741e-004
      -4.65017947e-004 -6.40059239e-004 -1.98188354e-003
      -1.19375740e-003 -6.64238876e-004 -1.07574786e-004 5.99939318e-004
      4.99153975e-004 1.10856279e-004 3.71806527e-004 2.18488058e-004
      8.56657934e-005 0. 0. 0. 0. 0. 0. -1.35173632e-005
      -6.73623435e-005 -1.33220019e-004 -6.85635663e-004
      -1.27144065e-003 -1.00131845e-003 -7.67555437e-004 3.75017116e-004
      5.44012815e-004 7.89609854e-004 3.35657853e-004 5.12803745e-005
      6.26578185e-005 2.05977194e-005 0. 0. 0. 0. 0. 2.01963976e-005
      -3.46811605e-004 -3.07067559e-004 2.22596733e-004 6.11213269e-004
      1.97345842e-004 -6.01529202e-004 -3.80868878e-004 4.95788467e-004
      2.24599396e-004 -2.60004716e-004 -1.32407658e-004 3.73314433e-005
      3.29792267e-004 1.87856363e-004 0. 0. 0. 0. 0. 1.69658927e-006
      -1.98266600e-004 -2.27532587e-006 6.54543692e-005 5.21237438e-004
      7.57555070e-004 2.58920918e-004 8.29836936e-005 1.96756548e-004
      -2.07534540e-004 4.37815994e-004 2.94550089e-004 3.08919349e-004
      1.87856363e-004 0. 0. 0. 0. 0. 0. 2.73784626e-005 7.99827176e-005
      -3.17563790e-005 5.67529816e-004 9.29560047e-004 7.26165657e-004
      9.50616493e-004 6.71254646e-004 1.95771485e-004 5.53141057e-004
      1.05075189e-003 1.12702034e-003 5.35196159e-004 0. 0. 0. 0. 0. 0.
      0. -2.07536814e-005 1.22206140e-004 -3.20885592e-004
      5.81048662e-004 9.25115426e-004 4.02390491e-004 -3.23641470e-005
      1.02365715e-003 1.01641112e-004 3.23381653e-004 9.69550863e-004
      1.17043068e-003 3.57587443e-004 -1.61927608e-006 0. 0. 0. 0. 0. 0.
      3.28452588e-005 -7.19174350e-005 1.42669654e-004 1.88865044e-004
      8.63416120e-004 4.05088853e-004 -1.47223647e-004 8.02919269e-004
      2.93635327e-004 8.52162426e-004 9.53095267e-004 6.46048167e-004
      -1.44064194e-004 -1.94313143e-005 0. 0. 0. 0. 0. 0.
      3.55912925e-005 2.97925115e-004 2.82629044e-004 3.89844616e-004
      5.53053338e-004 5.80405816e-004 -1.73421740e-005 3.04056739e-004
      3.41535906e-006 5.29940007e-004 3.35988356e-004 -9.07347712e-005
      -6.62082748e-005 -6.47710431e-006 0. 0. 0. 0. 0. 0.
      1.24214796e-006 2.29025154e-005 3.15479774e-005 -9.00311716e-005
      3.19129977e-005 -3.25925968e-004 -2.85349932e-004 -1.22408514e-004
      1.42101098e-005 3.37438032e-005 1.33010617e-004 -2.67281954e-004
      -1.24163389e-005 0. 0. 0. 0. 0. 0. 0. 0. 0. 0. 0. 0. 0. 0. 0. 0.
      0. 0. 0. 0. 0. 0. 0. 0. 0. 0. 0. 0. 0. 0. 0. 0. 0. 0. 0. 0. 0. 0.
      0. 0. 0. 0. 0. 0. 0.</_>
    <_>
      0. 0. 0. 0. 0. 0. 0. 0. 0. 0. 0. 0. 0. 0. 0. 0. 0. 0. 0. 0. 0. 0.
      0. 0. 0. 0. 0. 0. 0. 0. 0. 0. 0. 0. 0. 0. 0. 0. 0. 0. 0. 0.
      -7.16717523e-006 -6.08533719e-006 0. -4.80307222e-007
      -1.16323254e-005 8.40687426e-005 2.69431184e-004 2.69648561e-004
      -2.59060489e-005 -2.86583472e-005 -1.48499326e-004
      -1.24429993e-004 5.54085236e-005 -1.32430832e-005 0. 0. 0. 0. 0.
      0. -6.08533719e-006 -9.33085084e-006 -4.21572113e-005
      -4.38912539e-005 -9.23560801e-005 -2.31802769e-004 8.44199458e-005
      3.98065240e-005 -3.39945836e-004 6.93141646e-006 -8.03901276e-006
      -1.70093714e-004 1.34167512e-005 -1.39386422e-004 2.41034959e-005
      0. 0. 0. 0. 0. 0. -4.21572113e-005 -4.86251338e-005
      -1.51887318e-004 -1.93409505e-004 1.83099008e-004 1.69922598e-004
      2.86179013e-004 5.11955761e-004 4.28774772e-004 -9.70658293e-005
      -2.88726820e-004 -1.80709903e-005 -1.51079109e-006 1.56040929e-004
      2.81611065e-005 0. 0. 0. 0. -2.26267766e-005 -1.26040715e-004
      -1.23797668e-004 -1.38723481e-005 2.28386329e-004 2.04465454e-004
      3.43137712e-004 7.30278625e-005 4.83831100e-004 -1.12920017e-004
      -3.63899133e-004 -1.20607685e-004 -9.48721499e-005 4.23332385e-004
      3.15213198e-004 7.42522607e-005 0. 0. 0. 0. -1.30436718e-004
      -2.28823279e-004 -2.77849293e-004 3.04355417e-005 3.08193121e-004
      -2.85151240e-004 1.26617466e-004 7.81459530e-005 -5.66077833e-005
      -1.97191272e-004 1.15329836e-004 -3.36329394e-005 2.86906376e-004
      4.83289710e-004 4.68004931e-004 1.04024759e-004 0. 0. 0. 0.
      -1.22450787e-004 -2.67091382e-004 -4.67624923e-004
      -2.72149831e-004 -3.40514205e-004 -5.09215570e-005
      -4.19242366e-004 -1.41199183e-004 2.32844977e-004 7.41294993e-004
      1.20333722e-003 5.78851264e-004 2.81018758e-004 4.76721267e-004
      2.77482846e-004 4.68981198e-005 0. 0. 0. 0. -1.41316879e-004
      -3.73989635e-004 -5.76935476e-004 -7.43987912e-004
      -1.07819238e-003 -1.13963755e-003 -3.80351936e-004 3.52235475e-005
      6.29337039e-004 1.22572365e-003 1.55927264e-003 9.48914676e-004
      6.35381439e-004 3.11270385e-004 4.07099033e-005 2.96843664e-005 0.
      0. 0. 0. -1.59128962e-004 -6.04935572e-004 -7.46263599e-004
      -1.17148622e-003 -1.47764187e-003 -1.31704169e-003
      -3.96802527e-004 6.58111356e-004 6.72943948e-004 8.97371036e-004
      6.31855684e-004 1.29257605e-004 4.38173483e-005 2.58574746e-005
      7.61476767e-005 2.45120900e-005 0. 0. 0. 0. -2.83856702e-004
      -5.47915814e-004 -9.72744776e-004 -9.79516190e-004
      -1.60589942e-003 -8.59612366e-004 1.71520063e-004 3.88419052e-004
      -1.30552717e-005 -1.30163928e-004 -1.43256082e-004
      -1.41014898e-004 -2.93657387e-004 -1.58271505e-004
      -2.16926837e-005 -5.00650731e-006 0. 0. 0. 0. -2.07158984e-004
      -6.49222347e-004 -1.06413278e-003 -8.55962629e-004
      -4.91367769e-004 2.37420987e-004 6.67429937e-004 4.98819863e-004
      8.24931703e-006 -5.30968187e-004 -5.96477126e-004 -7.90207821e-004
      -6.40526996e-004 -2.40917216e-004 -7.85834127e-005
      -1.08183776e-005 0. 0. 0. 0. -2.60664703e-004 -7.61651550e-004
      -7.00687233e-004 -5.68818068e-004 -9.10102332e-004 5.49845136e-005
      8.66606832e-004 7.41985335e-004 -2.71682016e-004 -7.63453136e-004
      -1.05252233e-003 -1.13652973e-003 -7.19547272e-004
      -2.47589953e-004 -8.14162267e-005 0. 0. 0. 0. 0. -5.43103342e-005
      -4.00607125e-004 -2.91858421e-004 -2.58269050e-004
      -3.38691636e-004 3.02497472e-004 1.15939265e-003 5.27379627e-004
      -3.80896206e-004 -4.01617435e-004 -4.18499403e-004
      -8.47585092e-004 -1.57259652e-004 -2.69878219e-004
      -1.18201315e-004 0. 0. 0. 0. 0. 1.09748791e-004 -2.46076641e-004
      -6.84817860e-005 -9.09929877e-005 -1.42914869e-005
      -1.83152108e-004 2.72073317e-004 5.70952034e-005 2.84630252e-004
      1.27881402e-004 -2.51056568e-004 -4.64645054e-005 1.07640262e-004
      -1.71729014e-004 -1.04236606e-004 0. 0. 0. 0. 0. 4.96501816e-005
      -2.11421371e-004 7.55129149e-005 2.49890756e-004 3.93721915e-004
      2.39109213e-004 -3.16986261e-004 6.21249317e-004 3.84114421e-004
      4.79417737e-004 1.58951207e-005 9.08307047e-005 3.02506436e-004
      -4.77178728e-005 -3.92887086e-005 0. 0. 0. 0. 0. 2.12378345e-005
      -2.21648406e-005 4.14978385e-005 3.87671083e-004 4.62005584e-004
      1.89587561e-004 -4.44325502e-004 -1.58555631e-004 6.01416323e-005
      -1.26101484e-004 1.23397840e-004 3.10669537e-004 4.07871412e-005
      -5.44128634e-005 -4.73303999e-006 0. 0. 0. 0. 0. 1.63218647e-005
      2.38895973e-005 -6.32151205e-006 3.78956138e-005 2.10079146e-004
      1.42351579e-004 -1.40108750e-004 -3.90560235e-005 1.12359878e-004
      1.26334649e-004 1.01600912e-004 1.79017752e-005 -7.58544993e-005
      -2.58700711e-005 0. 0. 0. 0. 0. 0. 0. 0. 0. 0. 0. 0. 0. 0. 0. 0.
      0. 0. 0. 0. 0. 0. 0. 0. 0. 0. 0. 0. 0. 0. 0. 0. 0. 0. 0. 0. 0. 0.
      0. 0. 0. 0. 0. 0.</_>
    <_>
      0. 0. 0. 0. 0. 0. 0. 0. 0. 0. 0. 0. 0. 0. 0. 0. 0. 0. 0. 0. 0. 0.
      0. 0. 0. 0. 0. 0. 0. 0. 0. 0. 0. 0. 0. 0. 0. 0. 0. 0. 0. 0. 0.
      -7.48591119e-005 -1.09549919e-005 -2.64540024e-004
      -9.07049805e-004 -3.38856917e-004 -4.49616236e-005
      -4.14545502e-005 1.50491760e-004 1.42380741e-004 1.28529151e-004
      1.07299449e-004 5.81715358e-005 -6.49370631e-005 -2.85476362e-005
      0. 0. 0. 0. 0. 0. -4.47328821e-005 -1.29003238e-004
      -1.00069206e-004 -7.32253597e-004 -1.09192391e-004 5.62276575e-004
      4.48556093e-005 8.94857338e-004 6.02375483e-004 1.08401908e-003
      -1.35322436e-004 -2.50431563e-004 -3.97602329e-004
      -4.33542824e-004 -6.10685674e-005 0. 0. 0. 0. 0. 0.
      -9.02644242e-005 8.60206201e-005 -5.91375574e-004 -5.16810804e-004
      5.60804736e-004 -3.56720266e-004 7.94600230e-004 6.89816021e-004
      1.72530490e-005 -5.51575271e-004 -4.98990528e-004 -1.32661153e-004
      5.19017158e-005 -2.98921921e-004 0. 0. 0. 0. 0. -7.57720263e-005
      -3.53512762e-004 -1.09348621e-004 -5.03427174e-004 3.15736863e-004
      8.35865270e-004 1.55866597e-004 5.09866339e-004 1.59094983e-004
      8.16876360e-004 2.96935497e-004 -2.65408948e-004 4.51285596e-004
      1.41274388e-004 -1.74526402e-004 0. 0. 0. 0. 0. 0.
      -2.47900171e-004 -7.28362356e-005 3.15431505e-004 -5.72347490e-004
      -4.28734027e-004 2.75989121e-004 2.98215280e-004 -3.40385101e-004
      2.75559549e-004 -1.39275362e-004 4.45389276e-004 6.90765970e-004
      7.20995769e-004 1.27941676e-004 0. 0. 0. 0. 0. 0. -2.10022612e-004
      -3.31674615e-004 9.09200753e-006 -5.75137383e-004 -4.26609069e-004
      8.88909271e-005 8.57510953e-004 4.85390017e-004 -5.19424539e-005
      7.34279107e-004 4.58720257e-004 7.60756840e-004 4.84508753e-004
      8.21559588e-005 0. 0. 0. 0. 0. -5.58957399e-005 -3.80507496e-004
      -4.70461993e-004 -6.13130047e-004 -1.51856791e-003
      -1.72651827e-003 -6.09005918e-004 1.27262741e-004 2.79143977e-004
      3.34641692e-004 4.80059040e-004 4.47857426e-004 2.09220103e-004
      5.47267991e-005 1.01536079e-005 0. 0. 0. 0. 0. -3.87277629e-004
      -5.86905284e-004 -1.02785695e-003 -2.06659595e-003
      -2.49143597e-003 -2.22324976e-003 -9.81731573e-004
      -4.77393594e-004 5.75813283e-005 -4.85072233e-004 -6.21761370e-004
      -3.78404016e-004 -2.14387874e-005 2.12202372e-006 0. 0. 0. 0. 0.
      0. -4.71121253e-004 -3.54863208e-004 -1.09673689e-004
      -1.44050666e-003 -1.47036486e-003 -7.70535145e-004 9.98918913e-005
      -3.00597952e-004 -5.48403710e-004 -1.75714341e-003
      -1.04942010e-003 -5.99527615e-004 0. 0. 0. 0. 0. 0. 0.
      -3.67314875e-004 -5.61817375e-004 -4.64389275e-004
      -1.81350988e-004 8.55123944e-005 -5.18414017e-004 3.98358563e-004
      7.96766602e-004 -2.29487487e-005 -8.18189990e-004 -1.35605212e-003
      -6.88452332e-004 -2.64066883e-004 1.52304119e-005 0. 0. 0. 0. 0.
      0. -4.75655252e-004 -2.77345767e-004 4.74592925e-005
      -3.29595168e-005 1.90181399e-005 -6.56120246e-005 4.86956473e-004
      1.12275989e-003 3.61583079e-004 -9.46650689e-004 -7.77307083e-004
      -8.91596428e-004 -1.96556735e-004 7.44597928e-005 0. 0. 0. 0. 0.
      0. -4.52031585e-004 -3.14595003e-004 4.10486507e-004
      -6.47049237e-005 3.01664404e-004 5.69455442e-004 4.04982624e-004
      8.63325957e-004 -7.91460479e-006 1.59272495e-005 -8.53419828e-004
      -7.65740755e-004 -8.46293042e-005 0. 0. 0. 0. 0. 0. 0.
      -6.33914806e-006 -1.63002187e-004 9.97093011e-005 2.85226270e-004
      1.52972061e-004 7.97883200e-004 1.48213794e-003 1.07941986e-003
      4.79764916e-004 4.29007167e-004 4.76151181e-004 -4.51825363e-005
      -1.60544761e-004 -1.58847382e-004 0. 0. 0. 0. 0. 0.
      5.55971455e-005 7.14620619e-005 1.03618542e-004 1.92231746e-004
      4.05469327e-004 6.23281376e-005 6.06913411e-004 8.43834598e-004
      1.18446900e-004 4.03439830e-004 1.09131762e-003 -4.92368359e-004
      -5.12981380e-004 -2.48998957e-004 -1.07724089e-004 0. 0. 0. 0. 0.
      2.86066788e-005 -1.62225391e-004 -7.46970647e-004 1.21838151e-004
      7.27275503e-004 5.70165110e-004 2.39567351e-004 7.33640860e-004
      9.70568915e-004 2.79046828e-004 4.07639833e-004 -3.40437000e-005
      -3.08738498e-004 -1.02246588e-004 0. 0. 0. 0. 0. 0. 0.
      -1.94538661e-004 -2.15029155e-004 1.43966885e-004 6.26502326e-004
      1.53672416e-004 1.13288530e-004 -4.50021107e-005 8.43237358e-005
      -3.82453843e-004 1.42602890e-004 -1.28892512e-004 -2.62344183e-005
      0. 0. 0. 0. 0. 0. 0. 0. 0. 0. 0. 0. 0. 0. 0. 0. 0. 0. 0. 0. 0. 0.
      0. 0. 0. 0. 0. 0. 0. 0. 0. 0. 0. 0. 0. 0. 0. 0. 0. 0. 0. 0. 0. 0.
      0.</_>
    <_>
      0. 0. 0. 0. 0. 0. 0. 0. 0. 0. 0. 0. 0. 0. 0. 0. 0. 0. 0. 0. 0. 0.
      0. 0. 0. 0. 0. 0. 0. 0. 0. 0. 0. 0. 0. 0. 0. 0. 0. 0. 0. 0.
      -6.85956729e-006 -2.62950070e-005 -2.40084846e-005
      -8.78888459e-005 -1.06352534e-004 2.96398095e-004 6.15939207e-004
      5.72200923e-004 4.58265771e-004 6.92808186e-004 2.99712148e-004
      -1.15424162e-004 -1.19952259e-004 3.02291228e-005 6.19748898e-005
      3.09874449e-005 0. 0. 0. 0. -1.82921794e-005 -6.80240410e-005
      -7.57845701e-005 -2.37065746e-004 -1.78936549e-004 4.86806210e-004
      6.89872715e-004 5.71019773e-004 1.20499881e-003 6.29128423e-004
      9.30099457e-004 2.89310556e-004 6.63965111e-005 2.16141765e-004
      1.60248062e-004 6.37288977e-005 0. 0. 0. 0. 0. 0. 5.83897454e-005
      2.02095325e-004 4.01578814e-004 6.23250497e-004 5.73166879e-004
      4.01584897e-004 8.21754802e-004 9.05582041e-004 6.13859913e-004
      -1.57581817e-005 2.81169923e-004 4.97652683e-004 2.74413556e-004
      8.35772007e-005 0. 0. 0. 0. 0. 0. 1.92828214e-004 4.33620298e-004
      4.57250571e-004 3.92520480e-004 6.44696469e-004 6.13074459e-004
      9.67906264e-004 5.87088056e-004 9.15887824e-004 3.14954261e-004
      9.93810943e-004 6.53940311e-004 3.27353366e-004 9.90094559e-005 0.
      0. 0. 0. 0. 0. 2.10115410e-004 7.21755787e-004 7.99405214e-004
      5.12941333e-004 1.00479963e-004 1.85812780e-004 -3.76935757e-004
      3.74398915e-005 6.62957726e-004 9.14532517e-004 1.33375521e-003
      7.88985169e-004 2.26480261e-004 7.69509570e-005 0. 0. 0. 0. 0. 0.
      1.89182276e-004 6.86318497e-004 5.00589784e-004 8.35547617e-005
      -3.22888925e-004 -6.19715080e-004 -1.34570175e-003
      -5.35682011e-006 1.09792272e-004 4.01457874e-006 8.13724939e-004
      8.20723246e-004 7.54509019e-005 3.22591222e-005 0. 0. 0. 0. 0. 0.
      2.32564507e-005 1.57041824e-004 -3.74949945e-004 -6.17863319e-004
      -8.39788234e-004 -8.33409198e-004 -1.43620389e-004 1.79405088e-005
      -4.10771372e-006 -1.65329344e-004 2.28806632e-004 4.28361120e-004
      -1.89122788e-004 0. 0. 0. 0. 0. 0. 0. 0. -1.03455182e-004
      -4.96391789e-004 -9.87556879e-004 -1.84864167e-003
      -1.59037148e-003 -2.74087142e-005 -1.43499437e-006
      -4.36991570e-004 -9.08401445e-004 -7.66168407e-004
      -2.42043126e-004 -2.64100294e-004 0. 0. 0. 0. 0. 0. 0. 0.
      -1.68084938e-004 -5.34944353e-004 -7.80378294e-004
      -4.82567644e-004 -3.89947090e-004 -3.39369610e-004 3.72618262e-004
      -5.53059916e-004 -9.05139255e-004 -1.10553333e-003
      -6.47191831e-004 -4.62318101e-004 0. 0. 0. 0. 0. 0. 0.
      -2.80488148e-005 -2.22727846e-004 -1.70079642e-004
      -1.53588480e-004 -1.25279494e-005 1.66967176e-004 2.78544379e-004
      -3.79512901e-004 -1.16658316e-003 -1.23517087e-003
      -8.34923470e-004 -4.00467543e-004 -1.41815282e-004 0. 0. 0. 0. 0.
      0. 0. -1.11803114e-004 -3.83887207e-004 -3.85872499e-006
      1.80300573e-004 -1.02428952e-004 4.89074213e-004 2.00102251e-004
      -8.70104996e-004 -1.08991307e-003 -1.41241308e-003
      -1.06219552e-003 -4.80910647e-004 -2.67866271e-004 0. 0. 0. 0. 0.
      0. 0. 4.46209706e-005 1.63752760e-004 8.47738411e-004
      3.66965367e-004 2.28150457e-004 1.21555000e-003 -1.96346664e-004
      -4.81820724e-004 -6.02631189e-004 -8.39468848e-004
      -6.97346928e-004 -2.73425365e-004 -2.35668704e-005 0. 0. 0. 0. 0.
      1.59013271e-005 1.21654935e-004 1.08703913e-004 6.32936208e-005
      1.13293554e-005 6.15091762e-004 7.84370350e-004 1.98897137e-003
      3.79383127e-004 -2.49901204e-004 2.17735342e-005 -2.39649107e-005
      -1.62844481e-005 -1.66891041e-004 -4.91602332e-005
      -1.20042423e-005 0. 0. 0. 0. 7.06116116e-005 1.89559578e-004
      3.61537212e-004 -1.39734489e-004 -2.30403806e-004 4.40154254e-004
      1.18620679e-004 8.53150035e-004 4.28661820e-004 -1.20455239e-004
      -5.95148667e-005 -5.48224954e-004 -1.12201356e-004
      -1.32863526e-004 -6.51658920e-005 -1.20042423e-005 0. 0. 0. 0.
      2.06758905e-005 -3.03439738e-005 -1.35770271e-004 5.60741028e-005
      2.00292605e-004 1.83470591e-004 4.20363853e-004 7.28890358e-004
      7.33573048e-004 5.71121578e-004 4.37696872e-005 -7.83581127e-005
      1.20185832e-005 -6.15137542e-005 -1.02893509e-005 0. 0. 0. 0. 0.
      0. -8.53631936e-005 -1.28027663e-004 1.48646664e-004
      3.85308347e-004 -4.48944120e-005 -1.17864583e-004 1.32475398e-004
      2.68179545e-004 3.26926529e-004 1.74259170e-004 -5.85221387e-005
      3.35406876e-005 -2.03051859e-005 0. 0. 0. 0. 0. 0. 0. 0. 0. 0. 0.
      0. 0. 0. 0. 0. 0. 0. 0. 0. 0. 0. 0. 0. 0. 0. 0. 0. 0. 0. 0. 0. 0.
      0. 0. 0. 0. 0. 0. 0. 0. 0. 0. 0.</_>
    <_>
      0. 0. 0. 0. 0. 0. 0. 0. 0. 0. 0. 0. 0. 0. 0. 0. 0. 0. 0. 0. 0. 0.
      0. 0. 0. 0. 0. 0. 0. 0. 0. 0. 0. 0. 0. 0. 0. 0. 0. 0. 0. 0. 0. 0.
      0. 3.49250040e-005 1.69983425e-004 1.05898376e-004 5.05490170e-004
      8.61906214e-004 6.84865692e-004 9.33335163e-004 -8.98859522e-004
      -3.34221724e-004 -1.52233522e-004 -1.11966860e-004
      -3.13462187e-005 0. 0. 0. 0. 0. 0. 0. 0. 2.72819598e-004
      1.01218105e-003 5.64237707e-005 4.90525272e-004 1.18861918e-003
      1.30871835e-003 1.38026651e-003 -5.85951057e-005 -3.23787390e-005
      -9.55781492e-004 -5.82945882e-004 1.38035670e-004 5.69672120e-005
      0. 0. 0. 0. 0. 0. 1.51032946e-005 6.82498096e-004 1.65458408e-003
      1.37890980e-003 8.03117291e-004 8.87830101e-004 1.35341554e-003
      6.24888693e-004 1.18615606e-003 -5.99555729e-004 -8.17854652e-006
      -6.60134829e-004 3.34203593e-004 1.12522044e-004 0. 0. 0. 0. 0. 0.
      7.36285583e-005 1.67227094e-003 1.96401356e-003 3.40172695e-003
      2.73061404e-003 1.15463894e-003 -2.59780092e-004 -7.55513960e-004
      8.16516967e-006 -6.05188136e-004 5.57116757e-004 9.24696913e-004
      8.00841604e-004 3.21278669e-004 0. 0. 0. 0. 0. 0. 8.68439456e-005
      2.19472684e-003 2.93570827e-003 2.69076112e-003 1.95541349e-003
      7.37879775e-004 -7.31849868e-004 -6.45182037e-004 2.62765883e-004
      -2.20031405e-004 1.34867732e-003 1.37974776e-003 1.13220757e-003
      3.62301711e-004 0. 0. 0. 0. 0. 0. 5.66373565e-005 1.36430131e-003
      1.23161636e-003 1.73849729e-003 1.90181646e-003 -2.65775388e-003
      -2.42297631e-003 -6.37020567e-004 4.89263970e-004 5.62911620e-004
      2.13572686e-003 1.90599251e-003 1.04181923e-003 2.13120511e-004 0.
      0. 0. 0. 0. 0. 0. 3.91982350e-004 3.07355775e-004 9.97205498e-004
      8.64157279e-004 -2.53422419e-003 -1.94823381e-003 1.24346698e-005
      1.66987441e-003 5.95677760e-004 9.21960862e-004 6.92895206e-004
      3.67970206e-004 1.81077077e-004 0. 0. 0. 0. 0. 0. 0.
      -1.74667730e-004 -2.52808328e-004 -3.53106225e-005 6.49022055e-004
      -6.23715459e-004 -5.34357328e-004 -1.28522504e-003 4.95409069e-004
      5.34390798e-004 7.22727505e-004 -3.25933652e-004 2.61366862e-004
      1.75235873e-005 0. 0. 0. 0. -1.08191947e-004 -2.38343666e-004
      -2.22202740e-004 -4.73240070e-004 -7.74581858e-004 1.04002352e-003
      1.83397741e-003 -3.54743126e-004 -1.07807887e-003 -5.47283635e-005
      1.26501385e-004 -2.65367009e-004 -5.08509635e-004 -8.12074519e-004
      -1.33387890e-004 0. 0. 0. 0. 0. -2.52841972e-004 -6.96459552e-004
      -3.98453762e-004 -4.10118519e-004 9.77899297e-004 3.57573066e-004
      1.86828873e-003 9.25330562e-004 -7.43540062e-004 -5.34645224e-004
      -2.04157154e-003 -2.05091946e-003 -1.09028781e-003
      -1.08293479e-003 -4.77801041e-006 0. 0. 0. 0. 0. 3.23486602e-005
      -3.51712137e-004 -7.90463877e-004 -1.51574938e-003 2.52381782e-004
      1.88989658e-003 2.32526101e-003 -3.19738669e-004 -1.62905909e-003
      -1.82962872e-003 -2.70110858e-003 -2.56221066e-003
      -1.22077763e-003 -1.23462942e-003 -1.34800590e-004 0. 0. 0. 0. 0.
      7.56686204e-005 -6.04794128e-004 -1.10346882e-003 2.90430355e-004
      -2.13979962e-004 3.00585263e-004 -8.06133554e-004 -2.22198578e-004
      -2.69611762e-003 -2.14595391e-004 -6.01867156e-004
      -7.33898545e-004 -8.97551945e-004 -1.05906825e-003
      -1.08877401e-004 0. 0. 0. 0. 0. -5.02985531e-005 -1.27059477e-003
      -7.02399644e-004 6.19897037e-004 4.80260001e-004 1.58541929e-003
      -7.40244868e-005 1.39153365e-003 7.95467407e-004 -5.25603478e-004
      -1.13688337e-004 -3.51533788e-004 8.83624380e-005 -6.50692673e-004
      -7.08399457e-005 0. 0. 0. 0. 0. -1.95725588e-004 1.56071677e-004
      -3.26847250e-004 -1.07947434e-003 6.24547480e-004 1.33665861e-004
      -5.42860129e-004 -9.02158063e-005 -1.25326187e-004 5.30966383e-004
      2.17696754e-004 4.27893741e-004 3.76129785e-004 -4.33994755e-005
      -1.38089245e-005 0. 0. 0. 0. 0. -1.91740546e-004 -2.80238281e-004
      -6.16378500e-004 3.75603704e-004 6.02133106e-004 5.74023288e-004
      -1.18478434e-003 -6.10082425e-005 5.15627500e-004 1.12513860e-003
      1.30398059e-003 2.27961660e-004 2.05148084e-004 0. 0. 0. 0. 0. 0.
      0. 0. 2.62211015e-005 -6.99451921e-005 4.92522027e-004
      -1.05408806e-004 2.39125962e-004 -3.05004942e-004 -2.04611264e-004
      -2.76813720e-004 5.69831580e-004 1.21164706e-003 2.44910218e-004
      0. 0. 0. 0. 0. 0. 0. 0. 0. 0. 0. 0. 0. 0. 0. 0. 0. 0. 0. 0. 0. 0.
      0. 0. 0. 0. 0. 0. 0. 0. 0. 0. 0. 0. 0. 0. 0. 0. 0. 0. 0. 0. 0. 0.
      0. 0.</_>
    <_>
      0. 0. 0. 0. 0. 0. 0. 0. 0. 0. 0. 0. 0. 0. 0. 0. 0. 0. 0. 0. 0. 0.
      0. 0. 0. 0. 0. 0. 0. 0. 0. 0. 0. 0. 0. 0. 0. 0. 0. 0. 0. 0. 0. 0.
      4.61025083e-005 8.61160079e-005 1.88603699e-005 3.38241545e-004
      2.48814642e-004 3.96722025e-005 4.51171421e-004 9.50384419e-004
      -2.25128781e-004 2.98801664e-004 7.82289862e-005 4.39317701e-005
      0. 0. 0. 0. 0. 0. 0. 0. 2.88159808e-005 2.50971178e-004
      3.13681841e-004 7.56595691e-004 6.91844034e-004 -1.64907338e-004
      7.07851199e-004 5.49844233e-004 1.14903320e-003 -3.86198953e-005
      1.11630929e-004 6.23771339e-005 4.23741330e-005 -2.63142229e-005
      0. 0. 0. 0. 0. 0. -5.94249213e-005 4.27012274e-004 7.36284244e-004
      5.62365865e-004 5.11319493e-004 7.51587562e-004 9.34163050e-004
      4.49045823e-004 -4.50080843e-005 -2.58446875e-004 2.10401136e-004
      -2.33921470e-004 -2.74208258e-004 -3.23895620e-005 0. 0. 0. 0. 0.
      -1.11309382e-005 9.58624296e-005 7.04678881e-004 5.15505497e-004
      5.21019858e-004 6.28956535e-004 4.94778797e-004 6.09318959e-004
      4.02973907e-004 3.71441594e-004 2.18997055e-004 6.37960853e-004
      2.10245664e-004 -1.39927171e-004 1.27546818e-005 0. 0. 0. 0. 0.
      -5.57893873e-005 1.41768309e-004 4.02355770e-004 1.74510758e-004
      2.70497094e-005 -4.06935113e-004 -3.60305945e-004 -1.46560604e-004
      2.73744867e-004 8.99729319e-004 2.73620506e-004 1.24520436e-003
      1.13306509e-003 4.84246964e-004 7.00051460e-005 0. 0. 0. 0.
      -4.28134126e-006 -4.77063768e-005 5.94076955e-005 2.25116499e-004
      -1.50562439e-004 -4.90781444e-004 -4.34219284e-004
      -9.11872368e-004 -4.32739791e-004 2.11617531e-004 6.34172873e-004
      5.55140665e-004 2.64728034e-004 4.16780735e-004 2.38090710e-004
      1.90458031e-005 0. 0. 0. 0. -6.72782198e-006 -5.81039203e-005
      -1.12210560e-004 -5.13486972e-004 -7.13972317e-004
      -8.77470884e-004 -1.90095371e-003 -9.86001221e-004
      -2.04915617e-004 7.33102381e-004 1.00032426e-003 3.47723690e-004
      5.86106209e-004 2.87816132e-004 2.05416363e-005 0. 0. 0. 0. 0. 0.
      0. -3.90862726e-004 -7.63855584e-004 -1.41413952e-003
      -2.08763755e-003 -2.00162549e-003 -1.98257947e-003
      -1.72481698e-003 1.10296975e-003 7.48129678e-004 9.13722615e-004
      2.89901276e-004 1.12197136e-004 5.61685738e-005 0. 0. 0. 0. 0. 0.
      0. -3.95064853e-004 -5.53011312e-004 -1.53651391e-003
      -1.83714530e-003 -1.06353778e-003 -9.15540964e-004
      -1.36354729e-003 1.83789161e-004 -3.00490850e-004 1.72097585e-004
      6.83059216e-006 1.87235146e-005 1.40426355e-005 0. 0. 0. 0. 0. 0.
      -2.61423993e-004 -5.51331614e-004 -2.24435134e-004
      -4.22775978e-004 -6.54847012e-004 -1.53302215e-004
      -4.62181779e-004 -5.85576869e-004 -4.20879980e-004
      -2.25678366e-003 -3.11444135e-004 7.96742825e-006 3.69789399e-004
      2.10639526e-004 0. 0. 0. 0. 0. 1.03850391e-004 -2.54304410e-004
      -3.89125998e-005 -1.38364965e-004 -1.31211156e-004 2.58142594e-004
      2.43214687e-004 -7.35439171e-005 -2.72394740e-004 -7.02127640e-004
      -1.03844085e-003 -5.95129968e-004 7.64818978e-005 1.84549208e-004
      0. 0. 0. 0. 0. 0. 6.56984139e-006 4.95258537e-005 8.22975926e-005
      -2.79420696e-004 6.99328142e-004 -1.24188475e-004 1.06682500e-003
      8.19352979e-004 3.35813347e-005 -3.86497966e-004 -5.35064319e-004
      5.13161722e-005 1.21992216e-005 -1.82788659e-004 -3.51031522e-005
      0. 0. 0. 0. 0. 2.55618434e-005 -1.96857683e-004 -6.83169870e-004
      4.17906820e-004 5.53926453e-004 4.48664272e-004 1.27057487e-003
      2.82964698e-004 4.74214554e-004 -1.97742076e-004 5.13789419e-005
      6.13486569e-004 -5.96075377e-004 -3.17233731e-004 -2.21401024e-005
      0. 0. 0. 0. 0. 1.79415845e-004 -1.45279510e-005 -5.04444179e-004
      -1.70893079e-004 -2.47858145e-004 4.08559252e-004 -3.22970882e-005
      5.38673426e-004 5.52874466e-004 1.78941889e-004 -2.85072543e-004
      -1.65880483e-004 -9.75414412e-004 -3.19212646e-004
      -1.89602270e-005 0. 0. 0. 0. 0. 1.13591203e-004 3.90582369e-004
      2.39713321e-004 -2.20541697e-004 2.88333940e-005 3.80232465e-004
      -1.79579205e-004 3.96587595e-004 6.57213095e-004 2.17283392e-004
      -1.02018134e-003 -2.57908541e-004 -3.37604200e-004
      -1.22930316e-004 -3.05810090e-006 0. 0. 0. 0. 0. 0.
      7.95749365e-005 -1.00593861e-004 4.94861451e-005 5.44298498e-004
      2.58716202e-004 -3.05177295e-004 -4.62650001e-004 1.07859880e-004
      -2.95506208e-004 -5.54772909e-004 -2.18766989e-004 4.55521240e-006
      0. 0. 0. 0. 0. 0. 0. 0. 0. 0. 0. 0. 0. 0. 0. 0. 0. 0. 0. 0. 0. 0.
      0. 0. 0. 0. 0. 0. 0. 0. 0. 0. 0. 0. 0. 0. 0. 0. 0. 0. 0. 0. 0. 0.
      0.</_>
    <_>
      0. 0. 0. 0. 0. 0. 0. 0. 0. 0. 0. 0. 0. 0. 0. 0. 0. 0. 0. 0. 0. 0.
      0. 0. 0. 0. 0. 0. 0. 0. 0. 0. 0. 0. 0. 0. 0. 0. 0. 0. 0. 0. 0. 0.
      1.36055853e-004 2.38600449e-004 -3.46381967e-005 6.73013332e-004
      1.94576825e-003 1.39899203e-003 5.83279507e-005 1.01797481e-003
      7.92000850e-004 1.59013493e-004 -2.26642544e-004 -7.48186576e-005
      -1.64434259e-005 0. 0. 0. 0. 0. 0. -1.35989121e-005
      6.74326802e-005 2.55605613e-004 3.99025186e-004 5.61708526e-004
      1.24080491e-003 6.32756448e-004 7.11439410e-004 2.10192264e-003
      7.13543152e-004 6.67056374e-005 -8.86175781e-004 -3.52878211e-004
      -1.55180576e-004 1.07308142e-005 0. 0. 0. 0. 0. -5.63383510e-005
      1.67530903e-004 4.93782427e-005 1.66384282e-003 9.83054633e-004
      5.44648210e-004 9.96089075e-004 1.23331649e-003 1.25651888e-003
      8.11536796e-004 -7.84042757e-004 -4.61579766e-004 4.65633755e-004
      4.06075123e-004 1.18061980e-004 0. 0. 0. 0. 0. -1.16562105e-005
      7.16537295e-004 1.45211525e-003 1.46608078e-003 1.51281303e-003
      9.74349212e-004 6.76863594e-004 2.38921307e-003 5.39134897e-004
      7.90397462e-005 4.29418906e-005 6.76304684e-004 1.12896261e-003
      9.18637146e-004 2.24786083e-004 0. 0. 0. 0. 0. -2.91405267e-005
      5.98977029e-004 2.06719036e-003 1.12876424e-003 5.18087880e-004
      1.36807372e-004 -9.91645502e-004 -4.41815500e-005 2.11090824e-004
      5.74944170e-005 1.21232064e-003 1.73434895e-003 9.41893726e-004
      9.10135801e-004 2.32888822e-004 0. 0. 0. 0. 0. 0. 3.92252812e-004
      1.03461009e-003 -5.79426633e-005 -1.16732372e-004 -3.46079527e-004
      -1.78086059e-003 -1.53843360e-003 1.24121096e-003 1.82291027e-003
      2.25045718e-003 1.69870141e-003 1.06836832e-003 7.31137407e-004
      7.26093640e-005 0. 0. 0. 0. 0. 0. -1.66361555e-004
      -2.78681895e-004 -2.87650677e-004 -6.81937323e-004
      -1.66065805e-003 -1.05237111e-003 -5.02144219e-004 1.69517531e-003
      1.64745271e-003 1.27987156e-003 1.29038875e-003 1.03488460e-003
      2.49928707e-004 1.47792716e-005 0. 0. 0. 0. 0. 0. -2.20956877e-004
      -9.12373420e-004 -1.00919453e-003 -1.68499199e-003
      -1.52861897e-003 -6.66480919e-004 -1.69391904e-004 1.72897277e-003
      1.70511520e-003 1.05034758e-003 1.08368776e-003 4.97494591e-004
      1.59455740e-004 0. 0. 0. 0. 0. 0. 0. -1.84130724e-004
      -8.99214589e-004 -1.59634254e-003 -1.57673226e-003
      -7.26365135e-004 -1.21686968e-003 5.04561875e-004 1.90748670e-003
      1.08149252e-003 9.88547923e-004 1.26155166e-004 1.21247846e-004
      2.69552620e-005 0. 0. 0. 0. 0. 0. 0. -2.14367989e-004
      -1.28253328e-003 -1.74044864e-003 -6.28906477e-004
      -6.91478432e-004 -1.80149882e-003 4.55498870e-004 2.03772914e-003
      3.25282963e-005 1.92784628e-005 1.01330643e-005 2.03878182e-004
      1.16133138e-004 0. 0. 0. 0. 0. 0. -2.08805409e-006
      -1.83251337e-004 -9.57657641e-004 -1.10124645e-003
      -3.85789637e-004 -1.41946785e-003 -2.02395534e-003
      -8.77614075e-004 -6.45671971e-004 2.29535635e-005 -5.03438350e-004
      -1.14415539e-004 1.08041924e-004 -3.91510139e-006 0. 0. 0. 0. 0.
      0. -3.89108791e-005 -2.72201083e-004 -9.45609529e-004
      2.77179119e-004 1.75479086e-004 -1.21733989e-004 2.94780039e-004
      -3.55596683e-004 1.09517190e-004 6.12017815e-004 -3.57090059e-004
      -1.59522097e-004 -6.31636358e-005 -3.05377907e-005 0. 0. 0. 0. 0.
      6.35086908e-005 1.98140449e-004 -4.78653710e-005 -8.70591204e-004
      1.64740821e-004 -7.56857509e-004 -9.51136637e-004 4.76180139e-004
      2.83886853e-004 -2.33469298e-004 -6.67905086e-004 -1.03874982e-003
      -6.87754538e-004 -1.66828075e-004 -5.48114213e-006 0. 0. 0. 0. 0.
      2.41371934e-004 8.38714011e-004 -3.34099226e-004 -1.34650269e-003
      -2.48457538e-004 -1.61280739e-004 -3.85261490e-004 4.82577278e-004
      2.10332146e-004 -1.19812881e-004 -1.15271914e-003 -8.89979128e-004
      -8.48519849e-004 -6.08411385e-004 -2.26054559e-004 0. 0. 0. 0. 0.
      1.23600592e-004 4.32441680e-004 -7.15556671e-005 1.04671919e-004
      -1.39701238e-004 2.44722673e-004 -2.15653726e-003 3.46148045e-005
      -1.08813932e-004 2.80220469e-004 -2.73826183e-004 -7.91458529e-004
      -8.83587694e-004 -8.00192764e-004 -3.26523237e-004 0. 0. 0. 0. 0.
      2.95585437e-006 3.51776689e-005 1.34026093e-004 1.97535497e-004
      -2.00864510e-004 -3.88387823e-004 -6.99526980e-004
      -1.38746877e-003 -4.77145921e-004 -3.97533586e-004
      -5.40378620e-004 -9.52230650e-004 -7.41911761e-004
      -3.22935084e-004 0. 0. 0. 0. 0. 0. 0. 0. 0. 0. 0. 0. 0. 0. 0. 0.
      0. 0. 0. 0. 0. 0. 0. 0. 0. 0. 0. 0. 0. 0. 0. 0. 0. 0. 0. 0. 0. 0.
      0. 0. 0. 0. 0. 0.</_>
    <_>
      0. 0. 0. 0. 0. 0. 0. 0. 0. 0. 0. 0. 0. 0. 0. 0. 0. 0. 0. 0. 0. 0.
      0. 0. 0. 0. 0. 0. 0. 0. 0. 0. 0. 0. 0. 0. 0. 0. 0. 0. 0. 0. 0. 0.
      0. -2.32751627e-005 -3.84987434e-005 -5.14741478e-005
      5.52466081e-004 3.65409447e-004 4.62892058e-004 1.10617036e-003
      -7.69148755e-005 -1.65069330e-004 -1.31888664e-004 3.55064258e-005
      3.31984993e-005 3.19586275e-006 0. 0. 0. 0. -6.65295956e-005
      -4.64842269e-005 -1.54910886e-005 -3.54267249e-005
      -2.45639763e-004 3.93480819e-004 7.91269296e-004 6.71554706e-004
      1.29318819e-003 1.04668329e-003 8.58808053e-004 6.67746819e-004
      -4.64033830e-004 -1.46605118e-004 1.24116283e-004 1.73853168e-005
      0. 0. 0. 0. -1.21287390e-004 -2.41550195e-004 -2.82727065e-004
      -3.49451846e-004 -5.67814044e-004 2.18527639e-004 3.34090873e-004
      3.07136594e-004 1.35777052e-003 1.22705079e-003 8.96992162e-004
      -9.02582397e-005 -6.37201010e-005 -2.83507368e-004
      -1.09737222e-004 8.41355995e-006 0. 0. 0. 0. -1.22910060e-004
      -1.54099762e-004 -4.27092949e-004 -5.11087594e-004
      -1.51693122e-003 3.83665465e-004 6.10258256e-004 3.04931833e-004
      7.64967117e-004 1.33373518e-003 1.05951936e-003 7.95772576e-005
      5.03620424e-004 -4.46412421e-004 -2.06311364e-004 2.40742447e-004
      0. 0. 0. 0. -1.04662409e-004 -1.48349049e-004 -2.00602415e-004
      -1.87849713e-004 -2.34062274e-004 -3.40496859e-004
      -1.33171361e-005 7.53373752e-006 1.48759224e-004 2.08113779e-004
      2.96648417e-004 8.19344306e-004 3.56947450e-004 6.82751823e-004
      2.36203428e-004 -1.34118804e-004 0. 0. 0. 0. -1.03039740e-004
      -5.05913922e-005 -1.81468538e-004 -4.74473927e-004
      -7.83794094e-005 -9.11176961e-004 -8.28960445e-004
      -8.74433899e-004 -2.26163931e-004 3.98628297e-004 4.66677389e-004
      -2.09034217e-004 1.87917380e-004 6.78403943e-004 7.95792730e-004
      1.47892410e-004 0. 0. 0. 0. -1.06285086e-004 -1.88740378e-004
      -5.72452962e-004 -1.00059621e-003 -1.37886545e-003
      -1.77728874e-003 -6.58146164e-004 -8.43980873e-004
      -2.71279598e-004 -1.93195854e-004 -2.46195472e-004 1.37090581e-004
      -2.09489244e-005 4.60968091e-004 -1.63242308e-004 1.51585773e-005
      0. 0. 0. 0. -8.11336504e-005 -1.65376041e-004 -4.22989920e-004
      -1.08118588e-003 -2.23758142e-003 -2.41229893e-003
      -1.38532626e-003 -1.26071752e-003 9.81706893e-004 8.96528247e-004
      -1.28444110e-004 -1.01595760e-004 -1.19620301e-004 3.51625815e-004
      -2.24851072e-004 0. 0. 0. 0. 0. -4.05668243e-006 -4.00054210e-004
      -5.23456954e-004 -1.04151480e-003 -2.36304570e-003
      -1.36114832e-003 -6.44252403e-004 -9.85859428e-004
      -3.45124019e-004 7.24238169e-004 -1.18544896e-003 -1.19662366e-003
      -6.22184190e-004 -3.04337183e-004 -2.88113457e-004 0. 0. 0. 0. 0.
      -8.03223156e-005 -3.07297887e-004 -3.50281363e-004
      -7.61879666e-004 -5.72705059e-004 -3.22876702e-004
      -7.52240245e-004 -2.10502811e-004 -2.04491778e-004
      -1.01609889e-003 -1.30410888e-003 -1.20750431e-003
      -8.63307796e-004 -1.56026672e-005 1.07576845e-004 0. 0. 0. 0. 0.
      -4.29889551e-005 -2.67977215e-004 5.85395494e-004 6.60143633e-005
      4.38982999e-004 1.55127811e-004 -5.02202602e-004 1.51050972e-005
      -2.54486862e-004 -1.23552512e-003 -8.67119816e-004
      -9.47242603e-004 -7.76490197e-004 6.27884656e-005 -6.67561035e-005
      0. 0. 0. 0. 0. 1.78093047e-004 4.86483012e-004 5.04179974e-004
      1.21998790e-004 6.60919060e-004 9.99106793e-004 8.66140937e-004
      -2.25495081e-004 4.82345815e-004 -2.70302146e-004 -5.13640000e-004
      -1.12059082e-004 -3.43065476e-004 -1.42795223e-004
      -8.84356778e-005 0. 0. 0. 0. 0. -1.23119258e-004 1.51509012e-004
      -3.05554277e-004 4.51040862e-004 7.61179370e-004 9.66655090e-004
      4.34367656e-004 3.20388383e-004 6.62566745e-004 -3.38800455e-005
      4.42632532e-004 1.70833518e-004 3.74717965e-005 -1.79670446e-004
      -1.11964437e-004 -4.78688526e-005 0. 0. 0. 0. -4.10662789e-004
      -9.57554090e-004 -3.13435274e-004 -4.94525466e-006 8.43198446e-004
      3.04448884e-004 5.52881334e-004 7.01171695e-004 -2.43545073e-004
      4.78855363e-004 8.98596190e-004 1.97756715e-004 -1.96058521e-004
      -1.15625458e-004 -7.05862767e-005 -4.78688526e-005 0. 0. 0. 0.
      1.07776497e-004 2.64854869e-004 2.03639676e-004 1.11886649e-004
      4.43217694e-004 1.20546378e-003 1.25613157e-003 6.52408344e-004
      -6.17758633e-005 5.12573752e-004 -1.85172394e-004 -7.30271313e-006
