<?xml version="1.0"?>
<opencv_storage>
<my_svm type_id="opencv-ml-svm">
  <svm_type>C_SVC</svm_type>
  <kernel><type>LINEAR</type></kernel>
  <C>2.5000000000000000e+000</C>
  <term_criteria><epsilon>9.9999997764825821e-003</epsilon>
    <iterations>2147483647</iterations></term_criteria>
  <var_all>64</var_all>
  <var_count>64</var_count>
  <class_count>32</class_count>
  <class_labels type_id="opencv-matrix">
    <rows>1</rows>
    <cols>32</cols>
    <dt>i</dt>
    <data>
      0 1 2 3 4 5 6 7 8 9 10 11 12 13 14 15 16 17 18 19 20 21 22 23 24
      25 26 27 28 29 30 31</data></class_labels>
  <sv_total>496</sv_total>
  <support_vectors>
    <_>
      1.44903958e-001 1.30915582e-001 -6.54601276e-001 -1.92077130e-001
      -2.33595110e-002 4.39837784e-001 2.65594989e-001 1.17475939e+000
      6.76076949e-001 9.02633518e-002 3.34049404e-001 6.14324272e-001
      2.25871816e-001 -4.52699840e-001 -7.02656806e-001 -1.10554051e+000
      1.19445026e+000 3.24738908e+000 1.05925107e+000 -1.31599867e+000
      -1.90846705e+000 -1.61024117e+000 -1.26260793e+000
      -3.51853073e-001 2.60154635e-001 1.84089601e+000 2.04903197e+000
      2.34505296e-001 6.92735389e-002 -8.87917399e-001 -3.59629124e-001
      -4.20079172e-001 9.65621233e-001 3.93317491e-001 -4.57916886e-001
      -9.59526241e-001 -7.87971821e-003 -2.36713648e-001
      -6.01788461e-001 -2.10653320e-001 7.69849122e-002 1.03576207e+000
      3.68425936e-001 1.13125145e-002 -7.88721442e-001 1.07149996e-001
      7.64673948e-001 1.39713037e+000 -3.19634295e+000 -1.99323475e+000
      5.68622828e-001 1.70153797e+000 2.18401885e+000 1.26498258e+000
      -7.66487956e-001 -1.21015966e+000 -1.35261583e+000
      -7.96453357e-001 7.01070249e-001 1.07084119e+000 9.97133195e-001
      -1.62177384e+000 -2.88100839e+000 -3.81782150e+000</_>
    <_>
      -4.65329498e-001 -2.09159231e+000 -8.32753181e-002 1.23849130e+000
      8.31531823e-001 2.49751192e-002 -2.04491168e-001 6.81231439e-001
      8.63333404e-001 7.48165905e-001 1.08801389e+000 2.30536532e+000
      1.93568575e+000 2.31093526e+000 1.65695071e+000 5.87152362e-001
      -3.11759502e-001 8.61489356e-001 3.63887578e-001 -1.32699490e+000
      -7.71264732e-001 5.01552888e-004 6.75245345e-001 -3.84314984e-001
      -2.11534780e-002 9.01685297e-001 7.26122797e-001 -3.84319395e-001
      -1.94337809e+000 -1.93816698e+000 -1.60059869e+000
      -2.22591013e-001 1.34253490e+000 1.91853493e-001 -3.38140309e-001
      -1.16355807e-001 5.02395988e-001 1.86767018e+000 2.65348136e-001
      -7.98578262e-001 -8.89220953e-001 2.92926371e-001 2.60768056e-001
      2.58005381e-001 7.55420387e-001 1.31150973e+000 6.86355710e-001
      1.01793277e+000 -1.31802225e+000 -4.64590430e-001 3.03318501e-001
      1.75419831e+000 1.51239049e+000 -8.81763101e-001 -2.79088449e+000
      -1.54981053e+000 -1.30621016e+000 6.25140131e-001 3.91670763e-001
      -1.24807302e-002 1.05667770e+000 -6.89555049e-001 -1.70826566e+000
      -1.40668428e+000</_>
    <_>
      -1.47768438e+000 1.59157649e-001 5.32548964e-001 3.28660727e-001
      -4.51983899e-001 -7.28099823e-001 -5.29421031e-001 3.95994246e-001
      8.68504584e-001 4.22714025e-001 5.13391078e-001 -3.42668235e-001
      5.76337099e-001 1.20987642e+000 3.61065656e-001 -1.47178784e-001
      4.23233688e-001 1.23487771e+000 8.00974965e-001 -8.58880639e-001
      -8.41444969e-001 -4.60803092e-001 -4.73973900e-001
      -9.59728360e-002 5.86698838e-002 1.75468668e-001 3.40607077e-001
      -3.56562771e-002 -2.57351041e-001 -2.75810771e-002
      -1.47750282e+000 -3.96188885e-001 1.71689975e+000 1.85763729e+000
      7.83813238e-001 -9.98870909e-001 -9.83268797e-001 -5.72761118e-001
      -2.92923540e-001 5.92503071e-001 1.52544463e+000 8.24250579e-001
      -4.96892512e-001 -1.47219265e+000 -4.36266720e-001 8.41464922e-002
      7.74507165e-001 1.07391500e+000 -1.78126848e+000 -2.65243113e-001
      1.01570392e+000 1.19268346e+000 1.58320117e+000 8.62919092e-001
      5.16560197e-001 -6.06597364e-001 -1.02198899e+000 -5.55660367e-001
      2.83480763e-001 9.85981643e-001 8.18347692e-001 -4.13335413e-002
      -5.13018906e-001 -2.00203013e+000</_>
    <_>
      -4.72791493e-001 2.47951120e-001 4.29876357e-001 -4.24131006e-002
      -1.24451375e+000 -9.19610083e-001 -3.44866395e-001 4.48473841e-001
      2.66947657e-001 4.66135323e-001 -1.95918959e-002 -1.56965733e-001
      -8.77937198e-001 -5.51254869e-001 -2.43868113e-001
      -2.68965065e-001 -1.82396269e+000 1.35420179e+000 8.60534191e-001
      7.28963315e-001 7.87517309e-001 1.55346847e+000 6.89064980e-001
      -2.56342173e-001 -1.05540395e+000 3.94470066e-001 1.05612493e+000
      1.60539246e+000 1.03251708e+000 3.21802109e-001 -1.71658218e-001
      -5.19462049e-001 1.96810156e-001 3.09660226e-001 1.45548061e-001
      -2.14456820e+000 -8.36748362e-001 9.30984139e-001 1.78104734e+000
      9.83458519e-001 -6.67998493e-001 -1.19002008e+000 -8.35168421e-001
      -4.16366369e-001 -4.20411170e-001 -2.21464798e-001 3.71482134e-001
      9.69867051e-001 -7.66104341e-001 5.17768323e-001 1.76017511e+000
      1.44277155e+000 2.09249949e+000 1.81877506e+000 7.18938351e-001
      -3.95509720e-001 -1.00796795e+000 2.42707565e-001 9.74933505e-001
      2.12750077e+000 1.53925693e+000 9.97752920e-002 -4.59108427e-002
      -3.96250844e-001</_>
    <_>
      -1.03035405e-001 7.12733150e-001 -4.28295583e-001 -5.40773869e-001
      -1.15265179e+000 -2.22184992e+000 -2.65331936e+000
      -8.98740590e-001 7.79534101e-001 2.24903122e-001 9.22222674e-001
      9.79115069e-001 1.23195982e+000 1.48644733e+000 1.11612342e-001
      -7.55472839e-001 -4.46404487e-001 2.12884092e+000 1.89671516e+000
      1.46048918e-001 -1.47949368e-001 -8.36488485e-001 -6.69827223e-001
      -1.58716583e+000 -1.93005288e+000 -7.21906781e-001 4.47009236e-001
      -7.09379613e-001 -1.03170824e+000 -1.21346295e+000
      -2.08515263e+000 -1.09894407e+000 1.12492096e+000 1.45650041e+000
      2.99815863e-001 -1.41831338e+000 -1.25114763e+000 1.06457591e-001
      4.40885335e-001 8.53357852e-001 1.04013872e+000 1.71280158e+000
      7.58108139e-001 1.21217638e-001 -1.42322516e+000 -6.62832499e-001
      6.48455679e-001 1.44262075e+000 -2.56091905e+000 -1.02299845e+000
      8.72352242e-001 1.65488231e+000 1.88658023e+000 4.87269044e-001
      -1.16677010e+000 -1.32561076e+000 -1.12576699e+000 4.77240443e-001
      1.21395421e+000 1.86859131e-001 7.69481361e-001 -2.16905570e+000
      -2.70831585e+000 -2.95571256e+000</_>
    <_>
      -9.37191010e-001 -5.82494497e-001 7.83400655e-001 1.34367323e+000
      2.65335858e-001 -2.78800204e-002 2.46473476e-001 4.52614188e-001
      4.54517156e-001 7.58067966e-001 1.67451179e+000 1.40422225e+000
      1.72833288e+000 1.61092401e+000 1.24166679e+000 1.43259615e-002
      -1.29655564e+000 9.74131048e-001 3.45528126e-001 -1.18878171e-001
      -5.39840423e-002 3.15886587e-001 4.07940477e-001 -1.45895913e-001
      -6.76446795e-001 -2.83091158e-001 -9.91688788e-001
      -6.49026275e-001 -3.42943311e-001 6.07455373e-001 -1.63768306e-001
      -1.78373650e-001 1.38019669e+000 5.15977025e-001 -3.47427398e-001
      5.62874787e-002 2.01377079e-001 1.31216836e+000 -9.01128411e-001
      -8.08516502e-001 8.48879695e-001 1.68773532e+000 8.64757955e-001
      2.58636147e-001 6.31191432e-002 2.76342928e-001 1.87188953e-001
      3.73446912e-001 -1.05035198e+000 -4.34420347e-001 7.01916873e-001
      1.15940666e+000 1.05284703e+000 5.62254727e-001 -1.24639761e+000
      -1.94542944e+000 -3.70717555e-001 9.20980513e-001 1.16954887e+000
      -5.07132933e-002 -6.88758433e-001 -1.20716655e+000
      -1.78820992e+000 -1.11543667e+000</_>
    <_>
      -1.41020334e+000 1.28364205e+000 3.24040145e-001 -7.06040978e-001
      -1.52998614e+000 -1.25373816e+000 -1.92576313e+000
      -6.87408626e-001 6.86657488e-001 1.14605576e-001 5.70963085e-001
      1.20238948e+000 1.73112929e+000 1.20279574e+000 -2.73013525e-002
      -1.73162723e+000 -4.61229712e-001 2.29350805e+000 1.87640798e+000
      2.48853881e-002 2.89071977e-001 -3.79677385e-001 -8.17341387e-001
      -1.37412465e+000 -1.20662355e+000 -4.01448369e-001
      -1.65266290e-001 -2.37054229e-001 -1.61282852e-001 8.25085759e-001
      -1.75660118e-001 -1.32023776e+000 7.12250710e-001 1.09358168e+000
      -4.50126454e-002 -1.37670553e+000 -1.18917465e+000
      -1.80553421e-001 -3.39777827e-001 4.65799868e-001 4.86152202e-001
      1.39692950e+000 1.14697933e+000 -9.82875824e-001 -1.38908100e+000
      -9.47747231e-001 5.60434878e-001 1.07370710e+000 -2.49552870e+000
      -5.07076323e-001 3.91570747e-001 7.65014052e-001 1.42902267e+000
      7.24592388e-001 -4.13709551e-001 -9.93334651e-001 -3.43128353e-001
      5.86617887e-001 7.52988756e-001 3.57569754e-002 4.15739387e-001
      -6.95712090e-001 -2.36919379e+000 -3.12038088e+000</_>
    <_>
      -9.19760048e-001 -5.80495715e-001 -3.67462575e-001 1.84154734e-002
      -3.60260950e-003 -2.19924510e-001 1.97473213e-001 -8.31830800e-001
      -1.18383849e+000 -8.67444277e-001 -5.85346408e-002 6.14304304e-001
      9.39246356e-001 1.62689328e+000 1.23132801e+000 -3.92626435e-001
      9.02070463e-001 1.79552352e+000 1.30727267e+000 -9.34142843e-002
      2.63892800e-001 -2.39466548e-001 -1.35352218e+000 -1.82544231e+000
      -7.33085215e-001 3.85073960e-001 1.28767717e+000 4.93253320e-001
      -3.54921132e-001 -2.98012327e-003 -1.84987819e+000
      -1.26509690e+000 1.57974911e+000 1.78414667e+000 1.13213491e+000
      -6.13544703e-001 -9.02122259e-002 1.93661809e-001 6.44229412e-001
      1.12646353e+000 1.09663486e+000 7.90570199e-001 7.98423439e-002
      -7.60542154e-001 -9.79548275e-001 -1.05251193e+000 6.85140537e-003
      1.18831480e+000 3.64517123e-001 9.12934542e-002 -6.75712526e-002
      3.13771069e-001 -1.68369070e-001 -2.95247823e-001 -1.98405787e-001
      7.68043101e-001 3.52711439e-001 4.51736480e-001 5.61942995e-001
      4.03959900e-001 7.61312246e-001 4.97814953e-001 7.16139823e-002
      8.31127167e-001</_>
    <_>
      -6.98104262e-001 1.46918011e+000 4.87955436e-002 -2.45575964e-001
      -1.04532158e+000 -6.39427185e-001 1.16295114e-001 -3.90977323e-001
      -4.95321900e-001 2.30471015e-001 7.82297254e-001 9.12359178e-001
      1.39784038e+000 1.40326786e+000 1.51787102e-001 -8.24567974e-001
      -7.54499674e-001 2.38237691e+000 1.85719097e+000 2.41643623e-001
      -1.67003199e-002 2.82980174e-001 -7.04850852e-001 -1.29872215e+000
      -1.26602769e+000 3.77049148e-001 4.43532497e-001 -1.40939221e-001
      -5.32317758e-001 5.82542777e-001 -7.07779467e-001 -6.91758454e-001
      5.00489473e-001 1.51764035e+000 6.72203302e-001 -4.32708040e-002
      -5.07186592e-001 -1.76249519e-001 -2.95224965e-001
      -8.96501467e-002 6.68958306e-001 2.09438133e+000 9.83468592e-001
      2.79264927e-001 -6.24047160e-001 -1.00585127e+000 -1.01053405e+000
      1.75639749e-001 -2.53430843e+000 -9.91047919e-001 3.48697156e-001
      1.07053769e+000 2.06248116e+000 1.54646909e+000 1.44816363e+000
      5.91234088e-001 -1.07105732e+000 -1.26189426e-001 -4.25502717e-001
      5.59746861e-001 1.14359117e+000 1.16120921e-002 1.79217875e-001
      -1.47589457e+000</_>
    <_>
      4.51170057e-002 2.10479885e-001 6.57425523e-002 -2.57300377e-001
      -5.42116642e-001 -3.14050943e-001 -3.40063900e-001 8.33316028e-001
      1.03605700e+000 7.10219681e-001 4.62004751e-001 5.98861694e-001
      1.12184966e+000 7.06160903e-001 6.73366249e-001 -2.42106110e-001
      -5.96874475e-001 2.24973702e+000 1.25444758e+000 3.02950054e-001
      -3.43322098e-001 -1.92309767e-001 -6.69442654e-001
      -1.49222779e+000 -1.11526740e+000 -8.53184983e-003 7.64235258e-001
      4.74711746e-001 -1.16177842e-001 -1.22689664e+000 -1.25694692e+000
      -8.51553261e-001 4.11499500e-001 3.07142317e-001 -2.88924843e-001
      -2.60587037e-001 3.00691605e-001 9.62453723e-001 -4.38117310e-002
      -1.04724729e+000 -1.04851268e-001 1.93650699e+000 7.51788795e-001
      7.72354960e-001 1.17219305e-002 -5.11600673e-002 4.48034793e-001
      9.79324222e-001 -1.45908499e+000 -1.03462338e+000 6.81390643e-001
      1.39263415e+000 1.71086538e+000 4.98954833e-001 -1.01730955e+000
      -1.57373321e+000 -1.17010784e+000 8.50982189e-001 1.53052807e+000
      2.95671761e-001 -2.71054655e-001 -7.44642138e-001 -1.50792611e+000
      -2.15824437e+000</_>
    <_>
      -1.44868112e+000 1.23352110e+000 3.88874263e-001 -5.45658112e-001
      -1.30203342e+000 -1.88023090e+000 -2.19867706e+000
      -7.99289346e-001 5.21843910e-001 -1.25141859e-001 6.54239953e-001
      1.53144479e+000 1.49665701e+000 1.61205518e+000 3.19503516e-001
      -3.23390150e+000 -7.99763203e-001 2.50107002e+000 2.51914907e+000
      4.74203944e-001 2.65349686e-001 3.10959995e-001 -3.55546385e-001
      -1.97820592e+000 -1.41977239e+000 -5.46655655e-001
      -7.54888132e-002 -4.84046757e-001 -5.74129522e-001 1.49041638e-001
      -8.31957534e-002 -1.63037586e+000 2.63937593e+000 1.14937329e+000
      9.97382462e-001 -1.83333015e+000 -1.14305389e+000 7.49708056e-001
      7.06160009e-001 4.34998661e-001 2.38132119e-001 1.04574955e+000
      -2.55415708e-001 -1.21722388e+000 -1.23420334e+000
      -8.76736939e-001 7.98803687e-001 2.34871411e+000 -2.94342518e-001
      -4.36519161e-002 2.66710520e-001 -4.12775815e-001 7.03707695e-001
      -2.62463897e-001 -1.70132309e-001 -1.39828622e-001
      -6.99736029e-002 8.87396216e-001 1.61556578e+000 1.24510955e-002
      -4.40771692e-002 -1.06815863e+000 -1.12189877e+000 3.31358723e-002</_>
    <_>
      -9.84266698e-001 -2.73252815e-001 -5.10577619e-001
      -9.73356187e-001 -1.55805242e+000 -1.96347868e+000
      -2.49988866e+000 -2.27786843e-002 7.82530963e-001 -1.70802221e-001
      6.92835152e-001 9.74159598e-001 7.66657889e-001 2.03376150e+000
      1.86068428e+000 -8.19375575e-001 1.20318139e+000 3.40678716e+000
      2.96203423e+000 4.95435685e-001 2.49110892e-001 7.06550404e-002
      -1.38893378e+000 -1.61810732e+000 -1.04652810e+000
      -5.44465303e-001 1.18645239e+000 -5.66460609e-001 -1.11983895e+000
      -9.81324852e-001 -2.03244352e+000 -1.49097884e+000 9.87573087e-001
      1.44435370e+000 7.61164963e-001 -1.56467175e+000 -8.94228935e-001
      -6.32528961e-001 -3.29106212e-001 6.46357119e-001 1.56879616e+000
      2.04489708e+000 5.01625121e-001 -1.40195656e+000 -1.60377812e+000
      1.47610074e-002 9.27314937e-001 1.48754156e+000 7.57048056e-002
      -6.54117107e-001 -1.83540940e-001 4.96440619e-001 3.73152852e-001
      4.56810921e-001 2.42641613e-001 6.69213593e-001 4.51169640e-001
      6.11449301e-001 7.27446318e-001 -7.90358424e-001 7.92905539e-002
      3.32017601e-001 -4.66257781e-002 1.47425041e-001</_>
    <_>
      -2.34025925e-001 7.11148322e-001 1.21470474e-001 -5.10819256e-001
      -1.00037324e+000 -1.00969625e+000 -1.25948703e+000
      -9.23445642e-001 -4.38954592e-001 4.91450466e-002 5.13383687e-001
      7.25599051e-001 5.95548153e-001 8.19051981e-001 -5.78878701e-001
      -1.89818358e+000 -7.20209241e-001 1.68791425e+000 1.43502867e+000
      6.36862278e-001 7.99436927e-001 5.50155878e-001 -2.11386040e-001
      -7.85275996e-001 -2.29471549e-002 -1.34279262e-002 4.00657624e-001
      3.54240894e-001 2.55742192e-001 1.84971675e-001 -8.36272895e-001
      -1.83939016e+000 1.27230835e+000 8.26994359e-001 5.52588344e-001
      -8.19589436e-001 -6.64061964e-001 -1.44775778e-001 5.17942421e-002
      2.50570595e-001 6.95629776e-001 7.71691859e-001 -1.25730187e-001
      -1.27463531e+000 -1.26085198e+000 -5.77752233e-001 7.16210186e-001
      1.10584712e+000 7.29087293e-001 1.19262123e+000 1.49712777e+000
      1.52266264e+000 1.41008329e+000 6.44244909e-001 -1.88211143e-001
      -7.05610394e-001 2.71267056e-001 6.34621263e-001 8.95064235e-001
      6.71368361e-001 4.11751449e-001 -3.12219620e-001 -5.88963926e-002
      4.75159198e-001</_>
    <_>
      -9.31332409e-001 -9.43483263e-002 1.81221798e-001 5.29564321e-001
      2.60158367e-002 -1.17619979e+000 -1.85198867e+000 -7.77596474e-001
      3.84700239e-001 1.61581159e-001 7.78798759e-001 1.20583856e+000
      6.97449565e-001 -7.43168831e-001 -7.25537181e-001 -7.39356816e-001
      -1.01609719e+000 1.70366669e+000 9.30239439e-001 7.52015412e-001
      9.81346428e-001 1.26487672e-001 7.84153789e-002 -1.11635852e+000
      -5.18549085e-001 8.89653385e-001 8.63439202e-001 1.17551935e+000
      5.40879607e-001 -2.11307466e-001 -1.38341582e+000 -1.44821787e+000
      1.95547414e+000 2.02767944e+000 8.16962838e-001 -7.40541279e-001
      -7.31388807e-001 -5.53644821e-002 -1.99240029e-001 7.56481886e-001
      8.09070528e-001 -6.19677678e-002 -1.23914313e+000 -1.03933370e+000
      -1.25521433e+000 -3.13773006e-001 6.52918816e-001 1.93327856e+000
      2.38571182e-001 9.51775491e-001 1.67464292e+000 1.77764428e+000
      7.10274220e-001 -1.35304078e-001 -4.40043390e-001 -5.62290967e-001
      -3.96403849e-001 1.18605554e+000 1.47685623e+000 6.91380262e-001
      1.11842084e+000 2.88977116e-001 1.32608533e-001 1.48780376e-001</_>
    <_>
      -7.30574489e-001 -2.54974514e-001 -3.49602163e-001 2.03472257e-001
      -2.16452301e-001 -7.72508606e-002 -9.18553993e-002
      -7.05862164e-001 -1.12863672e+000 -1.19016242e+000
      -5.32687567e-002 2.85110563e-001 1.35799944e+000 1.54570532e+000
      1.79582310e+000 -2.00610757e-001 4.04988468e-001 1.60402524e+000
      1.22124398e+000 -9.67991352e-002 -3.90816689e-001 -4.91031140e-001
      -9.47220147e-001 -1.66849279e+000 -1.36610198e+000 4.00831699e-001
      9.30122674e-001 1.87382624e-001 -5.47225714e-001 7.37797767e-002
      -1.61616361e+000 -1.58819675e+000 1.32478940e+000 1.93977416e+000
      7.72278368e-001 -7.19007730e-001 -8.26819718e-001 2.66955912e-001
      9.91280437e-001 1.30391073e+000 9.30094540e-001 1.35945463e+000
      1.88559994e-001 -2.35870838e-001 -1.46109366e+000 -9.48092639e-001
      -2.55523443e-001 6.84763491e-001 -9.95586455e-001 1.04253157e-003
      2.14428291e-001 5.83301902e-001 9.13453195e-003 1.08377382e-001
      1.42256036e-001 -8.42934132e-001 -8.88500214e-001 3.69107246e-001
      9.18594897e-001 6.74272478e-001 4.49510902e-001 -3.57621282e-001
      -1.37722564e+000 -1.05229771e+000</_>
    <_>
      -6.47229254e-001 1.02786052e+000 4.39413995e-001 1.05335042e-001
      -1.58483136e+000 -2.16256738e+000 -1.39591300e+000
      -1.01296926e+000 4.12041210e-002 -3.84533137e-001 1.25513279e+000
      1.44084680e+000 9.98833895e-001 7.09888518e-001 2.25632004e-002
      -8.43561113e-001 -2.71201640e-001 1.65054214e+000 4.68942970e-001
      7.38989413e-001 5.52647769e-001 8.13127309e-002 -1.07814319e-001
      -3.78463060e-001 -1.42061079e+000 -1.10982049e+000
      -2.63450474e-001 -4.77547795e-001 -1.99476480e-001 4.88682926e-001
      -4.00492489e-001 -6.87073529e-001 -1.42349273e-001
      -4.92288992e-002 -5.66461623e-001 -1.10332656e+000
      -2.48674557e-001 5.47231734e-001 7.77090311e-001 4.27826680e-002
      -1.72096312e-001 6.41784012e-001 9.33036655e-002 6.40718699e-001
      -4.01525408e-001 -3.57593685e-001 3.52672249e-001 5.32674909e-001
      -1.50241208e+000 -1.33208975e-001 1.22761977e+000 9.31030810e-001
      1.26349664e+000 6.26713276e-001 2.93227524e-001 -4.20370609e-001
      -9.10707057e-001 1.08373797e+000 1.26958716e+000 4.56979334e-001
      5.19957542e-002 -1.17068398e+000 -1.55694628e+000 -1.29326808e+000</_>
    <_>
      -1.28749657e+000 7.46127814e-002 6.46311581e-001 1.03980708e+000
      3.76545452e-002 -4.75198358e-001 -4.73529041e-001 2.06026323e-002
      3.15436363e-001 7.10306346e-001 9.65954423e-001 1.19551826e+000
      1.73007882e+000 1.85970402e+000 1.15785921e+000 -3.38658571e-001
      -9.95575190e-001 6.16023421e-001 6.43725097e-001 3.65394562e-001
      4.86374080e-001 6.85400367e-001 -1.52343214e-001 -5.42605281e-001
      -1.43851840e+000 -7.20426798e-001 -4.12969708e-001 1.42322108e-001
      -4.45461333e-001 2.45075747e-001 -2.38647848e-001 -8.13102603e-001
      1.56190836e+000 1.52776146e+000 5.21641970e-001 -4.93308753e-001
      -7.09086955e-001 -1.60109356e-001 -8.42992127e-001 6.84505284e-001
      1.48536727e-001 9.91842628e-001 3.63786638e-001 -1.47496521e-001
      -3.94574821e-001 -3.18659157e-001 1.39524654e-001 1.36248302e+000
      -1.63250971e+000 -5.87713242e-001 7.59770036e-001 1.10418665e+000
      1.16700971e+000 8.84992659e-001 4.56634670e-001 -5.48446000e-001
      -7.52147496e-001 -3.45536798e-001 1.01634431e+000 5.66734850e-001
      -1.36604337e-002 -2.29610160e-001 -6.10691786e-001
      -1.76431763e+000</_>
    <_>
      2.15931177e-001 1.24578047e+000 8.99243951e-001 4.77410406e-001
      -2.72544082e-002 -2.93527264e-002 -1.24998786e-001 2.97593116e-003
      8.54223788e-001 1.01181400e+000 1.59572911e+000 1.68830538e+000
      1.36300409e+000 2.04901770e-001 -9.89952505e-001 -1.31518424e+000
      -4.24534112e-001 1.32591486e+000 3.07282656e-001 -9.86930013e-001
      -7.63352439e-002 -2.48077530e-002 5.03076576e-002 5.19027352e-001
      3.72406572e-001 3.78451884e-001 9.04544353e-001 4.13885236e-001
      3.13321382e-001 -3.67786229e-001 -7.52865016e-001 -6.49342060e-001
      1.08141220e+000 1.23361921e+000 8.41126889e-002 3.30133647e-001
      6.51226416e-002 5.20743370e-001 -2.35890582e-001 -1.26662374e+000
      4.50054318e-001 2.24421024e-001 5.58375001e-001 -1.97995752e-001
      5.71759105e-001 7.45136499e-001 4.81408656e-001 8.43300521e-001
      -5.38369536e-001 -2.72739772e-002 9.88582373e-001 5.18758535e-001
      1.13423693e+000 9.65515196e-001 -6.43106103e-001 -2.22984147e+000
      -6.19673431e-001 2.22412944e-001 9.52121854e-001 1.18294132e+000
      6.16615474e-001 -3.13738346e-001 -9.78396356e-001 -1.69408429e+000</_>
    <_>
      -8.16872001e-001 2.64648080e-001 2.79332429e-001 4.95520204e-001
      -6.91682637e-001 -1.27749956e+000 -1.19212842e+000
      -7.73491800e-001 -3.59902829e-001 3.61924380e-001 1.07387805e+000
      9.70294774e-001 8.53351355e-001 6.35634840e-001 2.41729245e-001
      -7.37727225e-001 -8.05386007e-001 1.25297761e+000 4.29316670e-001
      4.74861860e-001 1.06080782e+000 8.03300261e-001 -1.54261097e-001
      -3.30159962e-002 -1.11661863e+000 -1.02268946e+000
      -2.70112991e-001 -5.44012487e-001 1.88884899e-001 3.12222451e-001
      -4.47792351e-001 -9.03637648e-001 3.41494441e-001 6.19506538e-001
      -4.88241583e-001 -1.38067937e+000 5.95285632e-002 5.15698195e-001
      3.59777451e-001 5.25246203e-001 5.36116540e-001 -1.14751674e-001
      -8.55957448e-001 -5.41719317e-001 7.29243383e-002 4.22470808e-001
      7.00645089e-001 9.04954672e-001 -8.15232456e-001 8.69640335e-002
      1.54313445e+000 1.30189180e+000 9.86183167e-001 -6.12791441e-002
      -1.67088580e+000 -5.60443997e-001 6.52372181e-001 6.13220215e-001
      8.18687856e-001 3.59903872e-001 1.63214296e-001 -4.88615096e-001
      -1.26538801e+000 -1.22536051e+000</_>
    <_>
      -1.28414190e+000 8.73634815e-001 1.89826429e+000 1.27192461e+000
      1.23158705e+000 3.20009887e-001 -2.44175568e-001 1.55565724e-001
      6.44820929e-002 1.16448462e+000 2.38475204e+000 1.97794628e+000
      3.03930998e+000 2.23857331e+000 7.91304052e-001 -5.34930885e-001
      -1.48340344e+000 -4.23276067e-001 2.14181930e-001 -1.99001387e-001
      3.03134143e-001 3.70491222e-002 1.36823535e-001 -1.30457234e+000
      -1.21932232e+000 2.72462189e-001 9.86906290e-001 -1.49609104e-001
      -5.58198094e-001 -7.71625519e-001 2.23960757e-001 -7.64058590e-001
      1.96791756e+000 2.09537387e+000 4.36187953e-001 -2.30231822e-001
      1.12850738e+000 1.32167482e+000 1.63310730e+000 1.24249494e+000
      2.97080845e-001 -2.05209002e-001 -1.50712773e-001 3.84050667e-001
      9.89871383e-001 1.45739806e+000 1.89879060e+000 1.99538791e+000
      -2.47046635e-001 -4.51865166e-001 -8.69940966e-002
      -1.02818704e+000 -8.24749708e-001 -1.33364692e-001
      -6.73439741e-001 -4.14321246e-003 -9.15411532e-001 5.26374161e-001
      1.12668407e+000 -3.75481904e-001 -7.72636151e-003 1.00895345e-001
      2.38327637e-001 2.96409398e-001</_>
    <_>
      -5.60972452e-001 -1.73776999e-001 5.46589315e-001 5.93012810e-001
      -8.85784805e-001 -7.55350292e-001 -1.38620377e+000
      -8.65787625e-001 7.35622272e-003 6.52348697e-001 1.74845433e+000
      1.44716132e+000 1.87476230e+000 1.61686182e+000 4.53032136e-001
      -6.71879828e-001 -5.77142060e-001 1.38405836e+000 7.01492250e-001
      7.49615550e-001 3.22867751e-001 6.16502404e-001 7.69203305e-001
      1.91172138e-001 -6.82893813e-001 -8.42186630e-001 -2.25513667e-001
      -5.59621096e-001 -1.16620667e-001 -1.76538631e-001
      -8.61436307e-001 -9.47588325e-001 -3.22490364e-001
      -7.13084817e-001 -1.35250962e+000 -6.28923297e-001
      -8.79969075e-002 7.73199439e-001 3.69147919e-002 -3.71147990e-001
      -6.70177102e-001 9.14134502e-001 2.25817636e-001 5.66032946e-001
      6.24360204e-001 7.40572691e-001 9.92140472e-001 9.85498905e-001
      -1.00139463e+000 2.68801212e-001 1.16060674e+000 1.05361807e+000
      1.60379720e+000 8.94319117e-001 -3.55080396e-001 -4.61053848e-001
      -1.20639646e+000 -2.73689091e-001 1.03086936e+000 4.20690835e-001
      -6.24179900e-001 -7.05017090e-001 -9.03383315e-001
      -1.43913805e+000</_>
    <_>
      -5.14542758e-001 -4.74420518e-001 1.03165340e+000 1.17636395e+000
      -2.20750406e-001 -8.56485784e-001 -1.60864139e+000
      -3.14960897e-001 5.58335066e-001 5.19367695e-001 1.49412155e+000
      1.40366268e+000 1.19857073e+000 8.98525476e-001 4.35097992e-001
      -5.65870225e-001 -5.51765501e-001 1.79710495e+000 8.41338277e-001
      1.37299681e+000 6.29580915e-001 1.35879707e+000 3.91131997e-001
      -7.80018628e-001 -9.55989540e-001 -1.13685441e+000
      -2.00859159e-001 -1.39095724e-001 1.34909436e-001 3.73806059e-001
      -3.38977039e-001 -1.27466178e+000 1.19294375e-001 -3.24910879e-001
      -9.46480930e-001 -1.06373739e+000 3.47316116e-001 4.68693703e-001
      -1.14752516e-001 -4.84454930e-001 -1.03800684e-001 8.49308670e-001
      5.42752504e-001 5.48173189e-001 4.39714015e-001 5.59536397e-001
      5.51854253e-001 6.46144092e-001 -2.04999730e-001 3.91528606e-001
      1.58866501e+000 8.56582999e-001 1.57926774e+000 2.84698129e-001
      1.06402695e-001 -7.54855335e-001 -7.35530078e-001 -4.17643905e-001
      1.36538422e+000 9.06336427e-001 1.05092585e+000 -5.41513860e-001
      -1.42335045e+000 -1.60817122e+000</_>
    <_>
      -4.65596467e-001 1.43545794e+000 3.01740259e-001 -4.02920812e-001
      -1.51560009e+000 -1.40310419e+000 -5.89468479e-001
      -2.82212049e-001 8.16919096e-003 -1.52257904e-001 9.71063077e-001
      1.88685846e+000 1.85055232e+000 1.20602858e+000 4.42807883e-001
      -8.92581880e-001 -2.04942543e-002 1.76445448e+000 1.26847970e+000
      -3.15027721e-002 7.91190326e-001 -6.47539794e-002 -7.09114134e-001
      -1.53925574e+000 -1.67871094e+000 -9.01291549e-001
      -1.89374983e-001 -1.38354957e-001 -5.33062220e-001 3.38121206e-001
      1.52859509e-001 3.19969794e-003 5.01928329e-001 8.06712270e-001
      4.10321981e-001 -1.14531660e+000 -1.18291271e+000 2.98568249e-001
      2.75758475e-001 -6.80226624e-001 9.47312832e-001 1.73711205e+000
      1.68566421e-001 -7.79377878e-001 -1.28116083e+000 -3.90247732e-001
      -2.71432042e-001 3.43268454e-001 -3.00136018e+000 -1.33297849e+000
      6.39388204e-001 2.26246452e+000 1.64206994e+000 1.35424387e+000
      -4.43118542e-001 -6.52824700e-001 1.09680153e-001 1.53089952e+000
      1.28578269e+000 -3.87746960e-001 -6.08879328e-001 -1.38470984e+000
      -1.47794676e+000 -2.26348400e+000</_>
    <_>
      -3.58713418e-001 1.48250186e+000 6.09412432e-001 -4.36097115e-001
      -2.08108497e+000 -1.03298783e+000 -1.57618606e+000
      -1.56107163e+000 -1.88047633e-001 -2.28975080e-002 6.29248977e-001
      7.16761112e-001 4.84060347e-001 1.07395601e+000 -8.65929186e-001
      -2.09876895e+000 -5.63218415e-001 2.78524542e+000 1.78619087e+000
      7.98509300e-001 7.66024590e-001 3.95970225e-001 -5.55883944e-001
      -3.57152224e-001 -7.86810100e-001 -9.41680819e-002 1.44553315e-002
      1.07835817e+000 4.60144132e-001 6.22320175e-001 -8.55150044e-001
      -2.11197209e+000 4.02872264e-001 4.59822387e-001 3.94607723e-001
      -2.11623117e-001 -5.57445705e-001 -1.52658418e-001
      -4.02883261e-001 7.23680317e-001 8.54208529e-001 1.11282825e+000
      3.26886266e-001 -2.87581325e-001 -1.00028884e+000 -1.24212217e+000
      6.76521957e-002 6.15984976e-001 5.69841266e-001 8.86289358e-001
      1.12528706e+000 1.00811994e+000 1.98500264e+000 1.26852334e+000
      -2.94955939e-001 9.71798897e-002 7.82776892e-001 4.57377464e-001
      8.44286382e-001 3.50187957e-001 8.56649041e-001 7.04354525e-001
      3.20205614e-002 4.10757452e-001</_>
    <_>
      -1.14983582e+000 -6.41717553e-001 -2.60437846e-001
      -7.86868751e-001 -2.55847573e-001 7.66074359e-002 -2.33420908e-001
      -6.56893134e-001 -1.86026561e+000 -8.38593721e-001
      -1.40657634e-001 7.30914235e-001 1.30500972e+000 2.70107388e+000
      1.94548130e+000 7.95281410e-001 7.49246836e-001 3.03691387e+000
      1.54266310e+000 -1.39985979e-001 -7.30663359e-001 -4.95627344e-001
      -1.50981700e+000 -1.08696556e+000 1.13927148e-001 1.46481466e+000
      1.54105580e+000 4.72877026e-001 -4.87676919e-001 -5.53179801e-001
      -2.70884752e+000 -1.47036505e+000 -3.24535854e-002 1.44437194e+000
      1.17458296e+000 -1.32397726e-001 -5.47683299e-001 4.63230550e-001
      1.26502365e-001 2.44007241e-002 8.71136963e-001 2.04508400e+000
      1.55239010e+000 3.45027953e-001 -9.63656485e-001 -5.66392720e-001
      -5.33303261e-001 -6.44455373e-001 -1.44692016e+000
      -1.53338060e-001 8.45142245e-001 1.49419630e+000 1.41257489e+000
      9.87239659e-001 1.13168605e-001 -1.02697778e+000 -1.35010958e+000
      2.63102680e-001 1.79047918e+000 1.62082565e+000 3.87472212e-001
      -8.95516574e-001 -4.05138195e-001 -8.64459574e-001</_>
    <_>
      -9.73541617e-001 6.79559529e-001 7.29854822e-001 -2.03762561e-001
      -1.12513769e+000 -1.33336782e+000 -1.15350723e+000
      -7.16346264e-001 3.91590029e-001 -1.71180099e-001 3.11334342e-001
      8.78621638e-001 8.96341681e-001 1.25009918e+000 8.32324684e-001
      -8.45306933e-001 -7.65361428e-001 1.79716766e+000 1.47261417e+000
      6.05127513e-001 6.53992534e-001 6.58267200e-001 -3.93581664e-004
      -5.88709891e-001 -1.57759452e+000 -8.52452993e-001
      -7.42329895e-001 -3.37203652e-001 3.28049920e-002 1.31146774e-001
      -5.57300746e-001 -1.35163331e+000 3.46944720e-001 6.63236797e-001
      -3.33535857e-002 -2.76960075e-001 -7.62546241e-001 4.01343107e-001
      3.88902396e-001 -5.51456660e-002 7.91948140e-001 8.15201223e-001
      1.24904765e-002 4.41317081e-001 -3.83276567e-002 -1.08959949e+000
      2.89739579e-001 3.18699628e-001 -1.05494165e+000 6.80926383e-001
      1.24313712e+000 1.21569240e+000 1.14620376e+000 -1.98681816e-001
      -1.24519455e+000 -8.38917851e-001 -1.15601361e-001 7.53406882e-001
      8.67797852e-001 8.20476353e-001 2.20163122e-001 -1.50702894e+000
      -2.06441760e+000 -1.76781547e+000</_>
    <_>
      -1.07946527e+000 1.23339558e+000 -1.57104339e-002 5.22708118e-001
      -7.79226720e-001 -5.37035838e-002 -1.52018741e-001
      -4.04746264e-001 7.35875452e-003 8.91656429e-002 3.36368233e-001
      3.26448083e-001 8.08952153e-002 9.24488679e-002 -6.36024058e-001
      -1.43749106e+000 -1.17758167e+000 1.38892150e+000 8.53103459e-001
      3.27756077e-001 8.28213096e-001 6.24361753e-001 3.84044647e-001
      -2.80160785e-001 -3.35849851e-001 7.73926675e-001 1.12807763e+000
      1.08699548e+000 7.60087907e-001 2.13617459e-001 -2.40743563e-001
      -1.62991524e+000 1.09965158e+000 1.20859849e+000 9.60545123e-001
      -1.05075526e+000 -1.17754543e+000 6.93243027e-001 7.14706898e-001
      -3.47897321e-001 -1.28707185e-001 -7.46334866e-002
      -1.24106085e+000 -1.81824493e+000 -2.09705853e+000
      -2.32453838e-001 4.38965589e-001 1.04217505e+000 -1.37604520e-001
      2.71008551e-001 1.27639747e+000 1.42670655e+000 1.60001409e+000
      4.91236120e-001 -5.91813385e-001 -1.24089670e+000 -5.11113048e-001
      9.45487797e-001 1.69390726e+000 9.75957930e-001 1.22657561e+000
      1.80979744e-001 -4.97581959e-001 -5.83898723e-001</_>
    <_>
      -6.07729137e-001 3.49025875e-001 -4.36606556e-001 8.28688443e-001
      7.55438089e-001 -8.11088860e-001 -8.69446039e-001 4.41210009e-002
      6.87467992e-001 5.68960309e-001 1.14290226e+000 2.26419950e+000
      1.06200337e+000 3.52078497e-001 -9.02422309e-001 -9.96320426e-001
      -1.48807192e+000 1.23003030e+000 1.34274232e+000 9.30221230e-002
      9.71253395e-001 4.00541663e-001 5.80822825e-001 -1.22285581e+000
      -1.44200623e+000 3.12444270e-001 1.19534743e+000 1.15937793e+000
      2.62065291e-001 -1.00456811e-001 -1.42591846e+000 -1.74784040e+000
      2.38314486e+000 1.81750548e+000 3.21735382e-001 -7.52221867e-002
      -6.42937839e-001 4.33930159e-001 -1.87620074e-001 5.71808338e-001
      3.56543064e-001 5.18803060e-001 -1.02894735e+000 -2.09540343e+000
      -5.06209016e-001 1.20573151e+000 1.84964013e+000 2.34808660e+000
      5.09947240e-001 5.22460639e-001 4.77423340e-001 6.33871853e-001
      9.55121294e-002 -5.73362947e-001 7.95897795e-004 -6.92787230e-001
      -3.89880896e-001 2.28642136e-001 9.16306317e-001 6.33250177e-001
      1.14025819e+000 3.50276530e-001 5.47394872e-001 4.90197182e-001</_>
    <_>
      -4.71178114e-001 7.60773361e-001 4.84368503e-001 1.01124370e+000
      -1.54866111e+000 -9.33560908e-001 -1.05670857e+000
      -9.88342941e-001 -1.43782124e-001 2.51095414e-001 1.23097885e+000
      1.10306454e+000 1.08775520e+000 3.85651529e-001 -1.03799331e+000
      -1.13525593e+000 -2.77801622e-002 1.88409400e+000 8.14552128e-001
      6.50730669e-001 4.70345736e-001 3.52335632e-001 3.67719650e-001
      1.92562506e-001 -2.76459455e-001 -1.87108040e-001 5.29996097e-001
      4.12186414e-001 6.66855156e-001 7.08930671e-001 -5.63876987e-001
      -1.04034734e+000 -4.69899476e-001 -1.96544379e-001
      -6.71913624e-001 -8.23378384e-001 1.33239552e-001 4.16373789e-001
      4.34178412e-001 2.38733426e-001 3.98862399e-002 -2.48908699e-001
      -1.74770415e-001 1.48164660e-001 1.25498414e-001 5.16437531e-001
      8.74167502e-001 8.73509109e-001 -2.92317905e-002 3.80009562e-001
      1.27311230e+000 9.88758504e-001 1.30685234e+000 7.74103284e-001
      6.65751994e-001 4.11472470e-001 -9.98353660e-001 -2.60505259e-001
      9.97025311e-001 1.16279197e+000 1.21013904e+000 -2.70404369e-001
      -3.05850983e-001 -4.63560700e-001</_>
    <_>
      -1.37948954e+000 3.99370909e-001 -1.68369278e-001 4.07638311e-001
      -1.32902718e+000 -1.19041002e+000 -1.44301474e+000
      -1.02709329e+000 -2.84075618e-001 8.37033391e-001 1.22524750e+000
      1.66120696e+000 1.26009738e+000 1.07034183e+000 8.26595351e-002
      -7.95626283e-001 -2.96198249e-001 2.25539279e+000 8.44341993e-001
      6.29007101e-001 9.54440236e-001 6.31432831e-001 4.12045419e-001
      -1.66808695e-001 -1.01073849e+000 -9.80958164e-001
      -4.90959346e-001 4.10607785e-001 6.53177023e-001 2.02547744e-001
      -1.03101254e+000 -1.21862960e+000 2.26747021e-001 -7.27965012e-002
      -1.15060747e+000 -7.60980070e-001 -2.85053045e-001 4.82562989e-001
      -5.49670728e-003 5.88683560e-002 -8.51798475e-001 7.13905334e-001
      8.01041305e-001 1.88008979e-001 -7.97774792e-002 3.54758710e-001
      9.27743554e-001 1.24357557e+000 -4.85032618e-001 1.59332052e-001
      1.33268523e+000 1.02657807e+000 1.66625428e+000 9.95735884e-001
      7.91919947e-001 -2.64059573e-001 -9.29743946e-001 -3.56145650e-001
      1.10472012e+000 1.02936280e+000 8.51088643e-001 -5.38072526e-001
      -8.85664523e-001 -1.25020969e+000</_>
    <_>
      -2.18921006e-001 1.17132306e+000 6.60574317e-001 7.07359731e-001
      -4.75618452e-001 -1.15961659e+000 -1.75962555e+000
      -3.12573075e-001 2.35236257e-001 1.44683051e+000 1.97881401e+000
      2.06180906e+000 1.58520579e+000 3.03720571e-002 -1.51033437e+000
      -8.21864307e-001 -9.54739094e-001 7.96453536e-001 -6.70857430e-002
      1.50216207e-001 8.64463627e-001 6.45350993e-001 4.85319555e-001
      1.72341131e-002 -5.21696210e-001 -5.34696639e-001 -2.75221854e-001
      -3.80112678e-002 3.80755603e-001 4.83794153e-001 -7.81239629e-001
      -4.62128013e-001 8.44644666e-001 8.30092907e-001 -4.39084232e-001
      -8.20296764e-001 -3.20785046e-001 1.31557143e+000 3.15692425e-002
      3.00247908e-001 -1.50454909e-001 -3.96209180e-001 -4.90030318e-001
      4.35243137e-002 6.99028790e-001 7.35756993e-001 4.81180727e-001
      1.45764971e+000 -5.52697182e-001 -4.42603007e-002 1.74131906e+000
      1.45593596e+000 1.00237060e+000 -9.10223499e-002 -2.09742498e+000
      -1.40127456e+000 5.11283994e-001 9.61683154e-001 9.58043277e-001
      2.30736896e-001 -1.33404151e-001 -7.44808614e-001 -1.06978071e+000
      -1.31294072e+000</_>
    <_>
      -4.47323680e-001 -2.91136265e+000 1.71388507e-001 1.88395512e+000
      1.33372855e+000 -6.49716198e-001 2.45144248e-001 8.80666852e-001
      1.55964482e+000 4.93946910e-001 1.04144239e+000 3.07281446e+000
      3.56781149e+000 3.65127063e+000 2.13249969e+000 1.12583017e+000
      -1.80423939e+000 -1.79874289e+000 3.58307868e-001 1.07398438e+000
      1.36306286e+000 2.39033008e+000 1.39324880e+000 -1.57439485e-001
      -7.61872709e-001 -7.26810813e-001 -8.93568397e-001
      -5.46833836e-002 -2.23499227e+000 -8.81370127e-001
      -2.67883111e-002 3.78240526e-001 7.32727587e-001 8.27271760e-001
      -6.57203972e-001 1.05955333e-001 1.50091171e+000 2.22825098e+000
      9.66779590e-001 -1.13488090e+000 -2.01794839e+000 6.81811035e-001
      -1.40944824e-001 1.00616463e-001 7.81370163e-001 1.54357767e+000
      7.87498176e-001 6.52316451e-001 1.99632120e+000 8.02733362e-001
      2.76253998e-001 9.98178840e-001 -5.62318802e-001 -2.07130265e+000
      -9.90723491e-001 -9.31562066e-001 5.70505261e-001 4.84200180e-001
      -2.01700270e-001 6.80984914e-001 -1.14652789e+000 2.45670468e-001
      8.02981406e-002 1.78112602e+000</_>
    <_>
      -3.60002279e+000 -4.82874274e-001 1.39255476e+000 9.10440445e-001
      -2.65974015e-001 -1.61023474e+000 -2.22026563e+000
      -9.16377425e-001 4.63840306e-001 2.35110372e-002 -1.00740761e-001
      -9.41246629e-001 1.27306867e+000 2.99829435e+000 1.75653040e+000
      -5.30007780e-001 -2.37548485e-001 -2.08868347e-002 2.46483013e-002
      -1.48687795e-001 1.39804229e-001 2.13304505e-001 3.12687486e-001
      2.45910868e-001 -1.32668853e+000 -9.29673493e-001 -1.85252094e+000
      -8.52777183e-001 4.43640351e-001 -2.36761898e-001 -7.37835407e-001
      8.74714553e-002 2.68840289e+000 1.97802675e+000 1.10306191e+000
      -1.27834702e+000 -2.62146711e+000 -1.08328605e+000 1.06564295e+000
      1.26682627e+000 2.05749488e+000 1.42196202e+000 -2.51078892e+000
      -3.59676576e+000 -1.23004568e+000 9.22861338e-001 1.72085261e+000
      1.83405852e+000 -7.49540269e-001 4.14225668e-001 9.64984119e-001
      8.99536669e-001 4.96130258e-001 6.25590265e-001 2.20306945e+000
      4.19731766e-001 -6.11409843e-001 -2.39067063e-001 -4.41172391e-001
      4.49065685e-001 9.28138137e-001 1.42857778e+000 8.10205162e-001
      -1.11232173e+000</_>
    <_>
      -3.22046161e-001 -2.54350543e-001 1.01118227e-002 -1.05407871e-001
      -2.50483990e-001 -5.17679632e-001 -2.74688065e-001 2.70330727e-001
      6.06599212e-001 4.91901994e-001 -2.26131693e-001 -4.90852326e-001
      -8.76227498e-001 1.64015904e-001 4.34389591e-001 4.75264460e-001
      -1.73611295e+000 -6.70276403e-001 7.78987646e-001 1.83541918e+000
      2.30312991e+000 1.92424607e+000 1.83249068e+000 5.65638363e-001
      1.51332021e-001 -3.48441452e-001 -4.45258409e-001 5.22424221e-001
      1.53423953e+000 1.57980311e+000 2.75578469e-001 -6.46149576e-001
      -1.52296528e-001 -4.77961749e-001 -9.48822275e-002
      -9.78835881e-001 -6.62446737e-001 4.92646396e-001 1.62030518e+000
      4.92085218e-001 -6.44246876e-001 -1.49493599e+000 -2.35075340e-001
      -3.25871944e-001 -6.46770895e-001 7.50597042e-004 3.35992664e-001
      5.08382261e-001 1.26384342e+000 1.07596087e+000 1.24269009e+000
      2.95042336e-001 4.30454105e-001 5.82289636e-001 5.44617772e-001
      -2.51938492e-001 -4.89208043e-001 6.11920714e-001 7.99484134e-001
      1.25624597e+000 2.61956215e-001 6.19334400e-001 1.39938986e+000
      1.68062747e+000</_>
    <_>
      -1.13777125e+000 -9.50227737e-001 -5.47697365e-001
      -1.43662918e+000 -1.80095351e+000 -4.13980818e+000
      -5.35920477e+000 -3.24606442e+000 2.25915648e-002 6.81334913e-001
      9.36652184e-001 9.31859314e-001 2.03047132e+000 3.23018670e+000
      -3.26587826e-001 -1.48258531e+000 -1.83262074e+000
      -1.99571043e-001 2.07505131e+000 3.56630683e+000 3.37581372e+000
      1.89054370e+000 1.15598321e+000 -1.36091578e+000 -3.41352487e+000
      -4.01830864e+000 -3.08457971e+000 -1.61385262e+000
      -1.50767076e+000 -5.23966074e-001 -1.10470259e+000
      -1.21580601e+000 4.65737730e-001 5.82542658e-001 1.00235772e+000
      -2.52088010e-001 -5.01817405e-001 -2.18667135e-001 4.24974412e-001
      8.70551288e-001 5.78813553e-001 4.37187731e-001 -1.83818236e-001
      -3.48900020e-001 -1.74993217e+000 -3.41312796e-001 5.55274412e-002
      1.34897932e-001 1.86036181e+000 1.67099667e+000 5.22903323e-001
      -1.03254601e-001 -3.74615371e-001 4.86605018e-002 4.48152214e-001
      8.24270248e-001 1.03722119e+000 1.87845647e+000 7.95598447e-001
      3.23497057e-001 5.39248437e-002 -1.48468566e+000 -5.77011883e-001
      1.23961282e+000</_>
    <_>
      -1.10370922e+000 -4.29120779e-001 1.18678224e+000 8.58063400e-001
      3.98940951e-001 -9.79800150e-002 -2.79941559e-001 4.04182345e-001
      6.53301060e-001 6.90998733e-001 2.08183599e+000 1.57727492e+000
      2.25401688e+000 1.43530524e+000 9.28854108e-001 -4.02423829e-001
      -1.95502222e+000 -1.54668891e+000 3.15898746e-001 1.09750152e+000
      1.56974220e+000 1.04934645e+000 1.46610343e+000 -8.19967985e-002
      -7.31528997e-001 -1.63684249e+000 -2.35089111e+000
      -1.35860515e+000 2.21782118e-001 9.32084680e-001 9.46055293e-001
      -3.55601430e-001 5.10594964e-001 6.43591940e-001 -2.18143180e-001
      5.72715461e-001 8.49043190e-001 3.78113776e-001 -1.09552957e-001
      -6.70440435e-001 -9.54982489e-002 8.60556602e-001 -6.69867396e-002
      2.28257433e-001 -7.39879310e-002 2.46202752e-001 3.64014655e-001
      6.53446168e-002 7.32405007e-001 4.67953235e-001 4.48031098e-001
      7.60781348e-001 6.90741464e-002 -3.55831802e-001 -7.00679898e-001
      -1.70854712e+000 5.13813138e-001 1.42354333e+000 8.45965326e-001
      3.15879852e-001 -1.30395257e+000 -8.73175144e-001 -6.43974066e-001
      1.03506374e+000</_>
    <_>
      -2.27528501e+000 9.41977441e-001 5.80917299e-001 -1.38524199e+000
      -1.50941133e+000 -2.16852784e+000 -2.84904575e+000
      -1.58381641e+000 -6.30951822e-001 1.32099736e+000 8.88707519e-001
      9.20285359e-002 1.89395809e+000 2.25870514e+000 4.83761400e-001
      -2.07767296e+000 -2.29493237e+000 6.05378628e-001 1.92203927e+000
      2.01603055e+000 2.44711375e+000 2.09761477e+000 9.78962839e-001
      -8.45093369e-001 -2.00744367e+000 -2.33938670e+000
      -2.47585845e+000 -1.02147198e+000 -3.58576924e-001 1.39833975e+000
      8.76938760e-001 -1.54879248e+000 4.69782323e-001 5.01425147e-001
      4.06900734e-001 1.59272656e-001 -5.11602044e-001 -1.34158468e+000
      -6.44511264e-003 1.98255643e-001 4.57109034e-001 5.69144189e-001
      -4.17919248e-001 -8.52184415e-001 -8.81194413e-001
      -6.83515668e-002 8.67959261e-001 9.75289881e-001 8.54304433e-001
      4.56436276e-001 -2.52282917e-001 -7.26601303e-001 -1.72108799e-001
      -8.96752626e-003 6.15347445e-001 6.24246538e-001 5.34464478e-001
      8.55060577e-001 3.65358233e-001 -5.26848197e-001 -1.29540217e+000
      3.10254216e-001 1.77070610e-002 8.88140023e-001</_>
    <_>
      -1.35214162e+000 -7.83826053e-001 -1.17918260e-001
      -9.06906351e-002 -2.98516363e-001 -1.94295809e-001
      -1.83510378e-001 -8.72749925e-001 -1.67534113e+000
      -8.08493435e-001 -1.34867162e-001 3.45282853e-001 8.79688680e-001
      1.23673940e+000 1.33499312e+000 -4.03230973e-002 -1.15096524e-001
      1.15168738e+000 1.28113043e+000 7.79754460e-001 6.54755652e-001
      -7.33162090e-002 -8.21631134e-001 -1.32603645e+000
      -5.13020992e-001 -2.57555008e-001 2.05449745e-001 -4.58718203e-002
      -1.07594907e-001 2.55055249e-001 -1.08774221e+000 -1.12919903e+000
      1.00031650e+000 1.07216525e+000 7.18375027e-001 3.10401589e-001
      -8.27730224e-002 3.69786024e-001 6.48703992e-001 9.57347274e-001
      6.59926951e-001 5.85905850e-001 -5.81312716e-001 -8.78497303e-001
      -6.25187635e-001 -7.49346137e-001 5.43876328e-002 9.39773500e-001
      1.37935448e+000 2.56895751e-001 -1.83907062e-001 -9.30034041e-001
      -1.02822399e+000 -6.39934599e-001 6.63040519e-001 1.00996757e+000
      6.97544992e-001 3.97588730e-001 4.98284876e-001 9.32339765e-003
      3.74925613e-001 6.71719551e-001 1.17764938e+000 1.85612273e+000</_>
    <_>
      -8.82421434e-001 1.45977461e+000 1.18991113e+000 -3.29771801e-003
      -1.31876171e+000 -1.10879040e+000 -6.88792706e-001
      -1.82677329e+000 -1.41020644e+000 -4.16410193e-002 9.21590567e-001
      7.16560543e-001 2.08927488e+000 1.80879056e+000 4.81312603e-001
      -1.93097019e+000 -2.09953761e+000 6.96351528e-001 1.51186657e+000
      1.38954556e+000 1.41751456e+000 1.39702392e+000 6.33465469e-001
      -1.16455185e+000 -2.01287556e+000 -1.16742861e+000
      -1.48155248e+000 -4.17496324e-001 -6.84774816e-001 9.67497706e-001
      6.23310924e-001 -1.64107704e+000 1.13750279e-001 1.02402031e+000
      1.56889284e+000 8.13645184e-001 2.76264906e-001 -7.20381558e-001
      4.39973593e-001 -3.24016213e-001 1.09143353e+000 1.97179163e+000
      4.01108772e-001 -3.08401972e-001 -7.03067239e-003 -4.70268577e-001
      -1.38248551e+000 -9.17946815e-001 -2.17240021e-001
      -6.29832029e-001 -1.82416558e-001 -7.08484471e-001
      -3.87708962e-001 1.89591825e-001 1.57773411e+000 1.62048292e+000
      -6.99706078e-002 2.05920383e-001 -7.24852204e-001 -3.66973609e-001
      2.23710060e-001 1.30045557e+000 1.84624922e+000 1.73495042e+000</_>
    <_>
      -1.90092564e-001 -2.74626255e-001 -1.17316186e+000
      -1.42393279e+000 -1.15657115e+000 -1.20153773e+000
      -1.01532169e-001 9.96745884e-001 1.43630767e+000 6.16418779e-001
      1.97123957e+000 1.30764222e+000 1.66691625e+000 2.31278849e+000
      1.65264976e+000 -3.51268977e-001 -2.60399044e-001 2.87259579e+000
      2.92748523e+000 3.02213907e+000 3.06993484e+000 8.78656924e-001
      2.08617643e-001 -3.18646669e+000 -2.43725157e+000 -1.62612760e+000
      -6.83655143e-001 -5.39243281e-001 1.54447377e-001 -8.39457691e-001
      -2.64175677e+000 -3.09138703e+000 3.18382263e-001 7.18693852e-001
      -1.02370709e-001 3.99773568e-001 2.49745154e+000 1.90248692e+000
      5.60226560e-001 -2.28625560e+000 -7.58567154e-001 2.70243645e+000
      7.36166835e-001 9.74999905e-001 6.29776359e-001 9.44002390e-001
      -1.88587457e-001 1.58594799e+000 8.03963244e-001 -1.97121397e-001
      6.08012795e-001 4.06810611e-001 -2.04284161e-001 -1.01036704e+000
      -4.19835627e-001 -8.32273722e-001 5.36840737e-001 3.68099308e+000
      1.85330522e+000 -7.46876538e-001 -2.37680173e+000 1.03142643e+000
      3.21646661e-001 1.48697004e-001</_>
    <_>
      -1.66459382e+000 5.59681535e-001 5.85380197e-001 -2.58441210e-001
      -8.64793003e-001 -1.51084220e+000 -1.58912456e+000
      -1.09691262e+000 -4.62195694e-001 2.39329845e-001 7.04072416e-001
      7.50857741e-002 1.53967249e+000 1.27138340e+000 1.68682471e-001
      -1.59830570e+000 -1.61853445e+000 2.09410831e-001 1.67887521e+000
      1.50274825e+000 1.21197510e+000 1.44953239e+000 5.01669109e-001
      -9.81777132e-001 -1.55265915e+000 -2.15903187e+000
      -1.37865758e+000 -6.28097117e-001 2.41841719e-001 6.70236886e-001
      3.35604936e-001 -1.40111029e+000 4.77222055e-002 3.80544543e-001
      8.10432553e-001 1.14885323e-001 -3.87435555e-002 3.18592012e-001
      8.93245041e-001 -2.58775175e-001 -6.66943312e-001 5.78937650e-001
      -7.49812543e-001 -9.17132437e-001 -7.95540571e-001
      -5.97570539e-001 2.94615060e-001 1.05924416e+000 1.49459481e+000
      7.56185949e-001 6.02129251e-002 -5.74757934e-001 -5.60188770e-001
      -1.18825269e+000 3.42734903e-001 6.53784752e-001 3.54962915e-001
      1.14671433e+000 5.90285897e-001 -1.81224555e-001 -6.66855156e-001
      2.78454702e-002 4.44739223e-001 1.76029098e+000</_>
    <_>
      -7.02052832e-001 -1.30056691e+000 -5.91695011e-001
      -8.87069583e-001 -1.34621477e+000 -2.21813631e+000
      -1.88118064e+000 -1.45062149e+000 -3.18805903e-001
      -3.25210840e-001 1.63234815e-001 -3.14231843e-001 5.34817934e-001
      2.34287977e+000 1.77814257e+000 -2.09733844e-001 1.80100679e-001
      1.80326700e+000 2.28712320e+000 1.05630863e+000 1.52568424e+000
      4.19617981e-001 -3.15283895e-001 -2.44719878e-001 -1.05469084e+000
      -1.56640494e+000 -1.32591665e+000 -1.15177703e+000
      -7.21448243e-001 -3.78030300e-001 -7.89179325e-001
      -1.25452280e+000 2.18849614e-001 5.54995954e-001 2.34323740e-001
      -6.48235008e-002 -6.49924219e-001 -5.91217577e-001
      -3.55855554e-001 6.46914959e-001 9.86722767e-001 8.33469808e-001
      -7.88380206e-001 -1.27244389e+000 -6.62399650e-001
      -3.70021373e-001 8.75908062e-002 4.18676704e-001 2.07382321e+000
      1.36923718e+000 -1.18991189e-001 -6.11362755e-001 -1.00882971e+000
      -1.92258075e-001 4.81909156e-001 1.91508746e+000 1.30856502e+000
      9.16905284e-001 -3.53965387e-002 -6.47503436e-001 3.39960717e-002
      3.53061706e-001 1.18575430e+000 1.97869408e+000</_>
    <_>
      -3.37124228e-001 3.35478991e-001 1.05943918e-001 -5.76165140e-001
      -8.42862189e-001 -7.16350019e-001 -1.12445557e+000
      -6.99374020e-001 -1.87507063e-001 -8.43194649e-002
      -1.05293415e-001 7.26326466e-001 6.42935157e-001 7.51793623e-001
      -6.52853131e-001 -1.17064440e+000 -1.19621062e+000 7.91524172e-001
      1.36590600e+000 1.42342234e+000 1.54106069e+000 1.34067917e+000
      4.25588936e-001 -3.54516864e-001 -4.48272899e-002 -6.58357978e-001
      -4.15486664e-001 -6.54789433e-002 3.63370389e-001 6.04948997e-001
      -4.21627760e-001 -1.24087071e+000 3.93899977e-001 2.68871486e-001
      2.57588476e-001 -5.76617777e-001 -5.90243816e-001 7.91598782e-002
      3.82767409e-001 -2.58866787e-001 1.16184905e-001 3.97945702e-001
      -5.00317872e-001 -1.00719655e+000 -3.38900954e-001
      -5.98001659e-001 4.70788240e-001 5.08710861e-001 2.27516937e+000
      1.90440488e+000 1.13206744e+000 9.93413210e-001 1.65234685e-001
      -1.23852544e-001 1.08585889e-002 9.18229148e-002 7.86365449e-001
      8.95203769e-001 3.05980533e-001 4.16461378e-001 -6.29654408e-001
      -9.91514232e-003 5.46856642e-001 1.51967072e+000</_>
    <_>
      -5.99850297e-001 -7.90167451e-001 -1.81830153e-001 2.93742210e-001
      3.98331016e-001 -1.40667343e+000 -1.22141874e+000 -5.04073024e-001
      1.80223703e-001 3.50755006e-001 2.56748646e-001 9.88783956e-001
      1.07051134e+000 -3.61888438e-001 -4.72518981e-001 -3.57239515e-001
      -8.42548132e-001 5.46949387e-001 8.18602622e-001 1.43846965e+000
      1.77374208e+000 1.17782998e+000 7.96147585e-001 -2.58052945e-001
      -9.98814106e-002 -2.44487733e-001 2.01342180e-001 8.56017470e-001
      9.07546699e-001 4.86142218e-001 6.48314133e-002 -1.06962812e+000
      1.56954074e+000 9.01412249e-001 4.42149311e-001 7.94142187e-002
      -3.11159283e-001 -2.67496794e-001 4.90249515e-001 5.71959138e-001
      2.00217679e-001 -6.41515136e-001 -1.01583564e+000 -1.10226429e+000
      -7.77591586e-001 -4.15814063e-003 7.49774873e-001 9.70315516e-001
      2.10281014e+000 1.85847402e+000 1.00736082e+000 7.58190095e-001
      -1.95253789e-001 -6.56522393e-001 4.61890638e-001 -1.35814726e-001
      6.52543247e-001 1.81389129e+000 9.70661521e-001 -3.98742020e-001
      5.14201581e-001 1.00674398e-001 9.92575526e-001 1.62701392e+000</_>
    <_>
      -1.36920190e+000 -8.43445599e-001 -5.44696748e-001
      -2.35496685e-001 1.74697846e-001 -8.89292359e-002 -8.46618861e-002
      -1.71495402e+000 -2.08514571e+000 -8.43166590e-001 4.61230166e-002
      -9.47910845e-002 1.46987891e+000 2.71637750e+000 2.31952500e+000
      4.35926169e-001 -2.29006186e-001 1.40999353e+000 1.40915561e+000
      8.21463287e-001 7.79642224e-001 1.38634220e-001 -6.97982013e-001
      -2.07942176e+000 -1.40293562e+000 -6.18749738e-001
      -7.53593966e-002 -2.78691724e-002 -4.16774809e-001 3.41031015e-001
      -1.50928509e+000 -2.13148713e+000 1.95851362e+000 1.64511192e+000
      4.79570955e-001 1.93346381e-001 -1.17013025e+000 6.68127369e-003
      1.48872268e+000 1.35410106e+000 1.25116754e+000 7.16708064e-001
      -1.04488230e+000 -1.17014313e+000 -8.94754887e-001
      -5.46496809e-001 3.93707603e-002 1.17249525e+000 1.02117980e+000
      4.94223267e-001 -2.15964794e-001 -5.49328566e-001 -9.88482237e-001
      -2.05603376e-001 9.91007209e-001 7.53358066e-001 -3.92317660e-002
      3.35039735e-001 4.36301440e-001 6.72590435e-002 8.94872770e-002
      -1.35107249e-001 2.27529600e-001 1.23552608e+000</_>
    <_>
      -4.50302631e-001 1.10103500e+000 5.85178852e-001 -4.93821859e-001
      -1.16839671e+000 -2.29736066e+000 -1.78508437e+000
      -1.48955262e+000 -3.41858029e-001 1.18525155e-001 7.73415446e-001
      7.20321655e-001 1.03737736e+000 1.18835628e+000 -7.38645671e-003
      -1.17598629e+000 -1.28480184e+000 -1.83628440e-001 1.29225135e+000
      1.89459169e+000 1.71676767e+000 1.17581773e+000 1.20910905e-001
      -6.78269267e-001 -9.44920003e-001 -2.13055611e+000
      -1.29280198e+000 -6.25402808e-001 3.38138491e-001 9.78784800e-001
      5.02389133e-001 -5.81813276e-001 -6.22656822e-001 -3.61840993e-001
      -8.15000951e-001 -3.65891278e-001 4.36191648e-001 4.28737432e-001
      9.85612392e-001 -2.43552640e-001 -6.62412941e-002 1.54666051e-001
      -2.02949360e-001 4.88425970e-001 -1.43732280e-001 -8.27408135e-002
      1.08123608e-001 1.39000192e-001 3.69439065e-001 4.41767484e-001
      7.74302423e-001 8.83922458e-001 -3.15131992e-001 2.84914017e-001
      1.50605902e-001 6.42980397e-001 4.48876321e-001 1.26094913e+000
      7.25688457e-001 6.14925086e-001 -7.68279374e-001 -9.72605169e-001
      -2.60526806e-001 7.38626838e-001</_>
    <_>
      -1.56753528e+000 -1.77538231e-001 9.16916847e-001 4.12932605e-001
      4.24416244e-001 -5.53618312e-001 -4.96049851e-001 -1.54985681e-001
      3.17010909e-001 6.58078074e-001 1.09225535e+000 1.14752901e+000
      1.95845068e+000 1.80572248e+000 5.65391243e-001 -1.00719476e+000
      -1.96542990e+000 -9.62362349e-001 7.92836130e-001 1.14525902e+000
      1.60365272e+000 1.70060790e+000 8.48263264e-001 -4.61211532e-001
      -1.65754271e+000 -2.11132026e+000 -1.16895032e+000
      -2.52005845e-001 5.68906479e-002 5.30831277e-001 8.68574619e-001
      -6.18405938e-001 1.24165404e+000 8.60293031e-001 4.60373461e-001
      4.62574326e-002 -4.68357116e-001 -3.66879016e-001 3.14733863e-001
      2.77127922e-001 6.46690046e-003 1.91820115e-001 -2.37969339e-001
      1.31038412e-001 1.39317494e-002 2.83944160e-001 5.31083226e-001
      1.09581316e+000 -2.81404078e-001 -9.62925255e-002 5.36146224e-001
      5.72109163e-001 -2.34316677e-001 1.24758348e-001 1.06955457e+000
      9.78330597e-002 -3.75828385e-001 1.58077359e-001 6.34262860e-001
      2.95075089e-001 -6.23174071e-001 1.22751817e-001 4.07460958e-001
      1.63668469e-001</_>
    <_>
      2.53867000e-001 2.51599717e+000 2.37272787e+000 3.20214778e-001
      1.90804124e-001 -2.56128997e-001 1.86324313e-001 1.23060834e+000
      2.05071092e+000 2.51982307e+000 3.09656930e+000 3.45753860e+000
      1.90453815e+000 2.21077278e-001 -1.31005669e+000 -2.75034165e+000
      -7.09487677e-001 3.29657316e-001 6.73317015e-001 2.88350582e-001
      7.17941880e-001 8.67077231e-001 1.13349473e+000 1.52780819e+000
      8.47542524e-001 -2.77264506e-001 -1.50230423e-001 -1.94953918e-001
      1.03796375e+000 1.56495601e-001 -9.03255716e-002 -8.45418870e-001
      9.46797371e-001 2.54807091e+000 1.39001071e+000 6.53350294e-001
      5.89796841e-001 9.91547525e-001 -5.02135575e-001 -1.58894742e+000
      -2.79258609e-001 8.20872903e-001 -9.23155308e-001 -9.34032559e-001
      2.32178763e-001 1.31739450e+000 1.29240513e+000 5.65563738e-001
      4.39392328e-001 9.45485592e-001 -4.40273732e-001 -8.14011753e-001
      -3.21775734e-001 -1.92330867e-001 -1.81731999e-001
      -2.00393510e+000 -6.58943355e-001 1.27900267e+000 5.17455816e-001
      8.09855700e-001 -2.56498516e-001 9.67041135e-001 8.49618614e-001
      -2.54047543e-001</_>
    <_>
      -9.44880188e-001 7.67524689e-002 4.67900217e-001 -1.24282710e-001
      -2.47366771e-001 -1.05263233e+000 -1.31301713e+000
      -7.69258201e-001 -3.56450491e-002 1.88515574e-001 1.01221931e+000
      8.85163903e-001 1.05826545e+000 9.18286622e-001 1.11132197e-001
      -3.63326937e-001 -1.44759429e+000 -2.05557764e-001 5.28571367e-001
      1.31037974e+000 1.59687912e+000 1.24212694e+000 7.54779220e-001
      -3.92897353e-002 -1.17703259e+000 -1.82994270e+000
      -1.44967639e+000 -5.76903343e-001 1.92506850e-001 7.21001685e-001
      -3.42812575e-002 -7.47104049e-001 5.21977484e-001 2.27836177e-001
      -1.16129443e-001 -5.60451448e-001 2.03051671e-001 2.21799880e-001
      5.52103162e-001 5.18046796e-001 3.05714518e-001 -4.86219376e-001
      -1.29292881e+000 -5.32480359e-001 1.86593533e-001 6.59338176e-001
      7.32012749e-001 5.47019720e-001 6.31397247e-001 7.27983594e-001
      5.79101026e-001 6.47902906e-001 -1.99702501e-001 7.27371201e-002
      -1.03718400e+000 -1.95981160e-001 8.14480782e-001 1.08453751e+000
      6.18617952e-001 3.09297144e-001 -6.65149510e-001 -3.69291395e-001
      -8.36509645e-001 8.80824775e-002</_>
    <_>
      -9.94340479e-001 6.08945377e-002 9.13875103e-001 7.96431601e-001
      4.63619888e-001 3.29126090e-001 -2.16304392e-001 -5.00526726e-002
      -6.84221387e-002 6.63857460e-001 1.40514696e+000 9.11076248e-001
      1.68623865e+000 1.22054648e+000 4.27473128e-001 -1.83785379e-001
      -1.67566359e+000 -9.93360102e-001 2.17863917e-001 7.00195670e-001
      7.91374564e-001 5.10458350e-001 5.36968768e-001 -6.03126347e-001
      -8.90343070e-001 -9.08646047e-001 -1.53261557e-001
      -2.04385012e-001 1.48241654e-001 3.78948152e-001 4.63196486e-001
      -3.60651791e-001 4.20100957e-001 5.40161490e-001 5.65841854e-001
      4.31557953e-001 9.11476374e-001 5.73753119e-001 1.02853072e+000
      4.94653195e-001 -6.87724590e-001 -4.65435326e-001 -2.69821342e-002
      6.29967511e-001 3.33006799e-001 6.85010135e-001 7.03231573e-001
      8.01013172e-001 8.13386977e-001 7.67427161e-002 -6.10204041e-001
      -1.48467278e+000 -1.22673619e+000 -5.56711912e-001 3.52645218e-001
      5.82374930e-001 1.16761416e-001 2.48276532e-001 1.36321098e-001
      -4.14757550e-001 -7.84487844e-001 9.48328912e-001 9.02145505e-001
      1.24264193e+000</_>
    <_>
      -4.60528553e-001 1.70808449e-001 7.43086159e-001 7.48149678e-002
      -2.44508579e-001 -1.16920841e+000 -2.36307716e+000
      -1.25100136e+000 1.69759646e-001 1.30896497e+000 1.59500110e+000
      1.11985922e+000 1.85086763e+000 1.47000384e+000 5.72024398e-002
      -7.68105984e-001 -1.06713665e+000 1.65534064e-001 1.05124629e+000
      1.71275115e+000 1.83209491e+000 1.66281080e+000 1.05338454e+000
      1.35630310e-001 -1.03058863e+000 -1.46408033e+000 -1.41935730e+000
      -4.46557611e-001 3.80293041e-001 3.93340975e-001 -2.67004550e-001
      -1.23616505e+000 -5.08793950e-001 -1.12281108e+000
      -7.51178145e-001 -1.71242237e-001 3.38718683e-001 4.18652564e-001
      7.13421166e-001 8.03877264e-002 -5.47782898e-001 4.26244855e-001
      -1.24426775e-001 4.26948547e-001 5.03020942e-001 1.85031265e-001
      9.49241281e-001 9.49354947e-001 1.25635171e+000 5.41622937e-001
      4.85762775e-001 6.17866516e-001 -2.20382005e-001 2.03878254e-001
      8.67488086e-001 4.78561759e-001 -3.83139759e-001 1.83039308e-001
      4.50138062e-001 3.28351974e-001 -7.51297414e-001 -3.54175985e-001
      -4.99636680e-001 5.74422717e-001</_>
    <_>
      -6.78708494e-001 1.03874095e-001 1.13937068e+000 7.09562957e-001
      -6.31779283e-002 -1.42677140e+000 -1.37891293e+000
      -5.15908241e-001 6.85359418e-001 8.68925214e-001 1.28840339e+000
      1.01096117e+000 1.33701348e+000 9.13003802e-001 3.17156047e-001
      -1.44903004e+000 -1.19706511e+000 1.50156677e-001 1.29450500e+000
      1.74005425e+000 2.23828483e+000 2.15094280e+000 1.28430235e+000
      1.37011647e-001 -9.20539856e-001 -1.80701602e+000 -1.69506574e+000
      -3.92789751e-001 4.79757637e-001 1.16552043e+000 8.44593346e-001
      -1.02208281e+000 -5.79493821e-001 -2.80904353e-001
      -6.29747450e-001 -4.19821918e-001 5.12511969e-001 2.08225578e-001
      2.29652300e-001 -7.42274940e-001 -4.08153594e-001 2.16084301e-001
      5.90626597e-001 -4.09208015e-002 2.15233773e-001 -1.03721179e-001
      1.53771535e-001 7.03681707e-001 1.27881646e+000 1.18494046e+000
      9.77277279e-001 6.08762741e-001 1.40575618e-001 -2.74188697e-001
      2.85705715e-001 3.55656058e-001 -1.29250631e-001 1.24687418e-001
      7.18811214e-001 1.11285484e+000 5.14093041e-002 -3.89975667e-001
      -7.91446507e-001 6.13497674e-001</_>
    <_>
      -9.95352626e-001 8.72682631e-001 6.58193350e-001 -8.86458099e-001
      -1.68769491e+000 -1.91681778e+000 -7.04505324e-001
      -1.39491785e+000 -1.05054545e+000 -3.18853140e-001 8.05950224e-001
      1.69525981e+000 1.79744005e+000 1.73729908e+000 6.20207906e-001
      -1.33441365e+000 -1.26112854e+000 -5.76092660e-001 1.17995429e+000
      2.35129642e+000 3.19205832e+000 1.70550025e+000 7.37328768e-001
      -1.15974486e+000 -2.22178984e+000 -2.59859610e+000
      -2.64720941e+000 -8.76750052e-001 -1.78838521e-002 4.59738880e-001
      1.26469111e+000 -2.40670964e-001 -4.53150421e-001 6.00084484e-001
      1.40326548e+000 -3.70375752e-001 -6.57985032e-001 -2.99876958e-001
      6.91128075e-001 -4.40152995e-002 3.88359159e-001 8.50025237e-001
      -4.20918882e-001 -9.30293262e-001 -5.33766985e-001
      -2.65772700e-001 2.24635705e-001 -4.30528909e-001 6.59222662e-001
      2.07073927e-001 4.67396736e-001 9.76307452e-001 -3.71304661e-001
      4.23614323e-001 3.59954566e-001 8.32174599e-001 8.49199355e-001
      2.16489220e+000 1.08509123e+000 -9.64535326e-002 -1.90914237e+000
      -4.49623644e-001 9.61886406e-001 6.80488050e-001</_>
    <_>
      -3.29404831e-001 8.34404051e-001 7.97307789e-001 -6.03054821e-001
      -7.54214585e-001 -7.17812061e-001 -1.40831709e+000
      -1.21758342e+000 -5.66157043e-001 2.95855910e-001 1.06428765e-001
      1.89134125e-002 7.65645206e-001 1.14849102e+000 -7.70081878e-001
      -1.31362545e+000 -7.57777929e-001 9.13778067e-001 1.54720116e+000
      1.17474198e+000 1.15601242e+000 1.28134751e+000 1.63777307e-001
      -4.62740241e-003 -6.74058914e-001 -9.92954314e-001
      -7.21313119e-001 4.18793499e-001 1.85320139e-001 1.08665299e+000
      -2.55393296e-001 -1.43975735e+000 -6.01434052e-001
      -2.40611553e-001 3.77898812e-001 2.97686875e-001 -3.52410764e-001
      -4.43897873e-001 1.36797413e-001 -2.65960842e-001 1.77015334e-001
      6.48725510e-001 -3.25483046e-002 -3.93184304e-001 -3.11762691e-001
      -2.98078388e-001 -2.84853280e-001 -3.65503013e-001 1.97652030e+000
      1.39717591e+000 6.08873963e-001 5.03336668e-001 1.24210447e-001
      1.14858851e-001 1.72212362e-001 9.52431560e-001 7.94381201e-001
      8.17907393e-001 1.53842688e-001 -8.10433984e-001 -2.18555912e-001
      8.83309543e-001 1.26727962e+000 1.89478564e+000</_>
    <_>
      -1.07843745e+000 -5.20925701e-001 -3.06993276e-001
      -3.68023008e-001 -2.90648252e-001 1.43287301e-001 -8.59626651e-001
      -1.13651991e+000 -3.08569002e+000 -1.15318620e+000 4.09792513e-001
      3.60877633e-001 2.51899767e+000 3.73393703e+000 2.89032912e+000
      1.10104620e+000 -1.45084333e+000 1.27725124e+000 9.65962946e-001
      8.59351814e-001 1.04672277e+000 1.02813673e+000 7.59821415e-001
      -7.79651284e-001 3.92436922e-001 -1.04174626e+000 -9.20192003e-002
      3.71026516e-001 3.96155208e-001 -1.14787412e+000 -2.03917265e+000
      -2.48707652e+000 -1.08680928e+000 6.14696980e-001 2.02034235e+000
      1.43868387e+000 1.12544581e-001 -2.67301261e-001 2.49635220e-001
      5.40525001e-003 1.40427434e+000 2.77153921e+000 4.65204328e-001
      -7.03853250e-001 -1.06139851e+000 -7.00168431e-001
      -1.30149984e+000 -1.42787635e+000 2.38602638e+000 1.12963247e+000
      5.39844692e-001 -5.68650007e-001 -1.46644843e+000 -1.12723243e+000
      5.46034753e-001 4.27252650e-001 8.21421016e-003 8.41586292e-002
      1.04758787e+000 9.12790298e-001 -3.32475454e-001 4.43056822e-001
      2.60886455e+000 3.38566184e+000</_>
    <_>
      -1.01143694e+000 2.50250041e-001 6.77968204e-001 -1.04690924e-001
      -7.98101246e-001 -1.12640667e+000 -1.13692701e+000
      -1.02418494e+000 -2.00322077e-001 2.82825410e-001 7.01239407e-001
      5.62217176e-001 1.16568327e+000 1.39575529e+000 4.59937334e-001
      -5.65559566e-001 -1.47483027e+000 2.81840682e-001 1.44580722e+000
      1.52097821e+000 1.90226293e+000 1.47164381e+000 9.52996850e-001
      -6.60594106e-001 -1.13168287e+000 -1.83564627e+000
      -1.94253504e+000 -6.11931741e-001 2.58522153e-001 6.93515301e-001
      1.02365911e-001 -1.33230793e+000 -2.83934355e-001 4.48025376e-001
      -2.28104636e-001 1.15334310e-001 -4.45488930e-001 -4.41469610e-001
      5.61235905e-001 2.57399350e-001 4.62029219e-001 6.79459795e-002
      -2.26441473e-001 1.68653633e-002 -6.83555543e-001 -1.95207730e-001
      6.33385122e-001 6.34549737e-001 1.43625867e+000 1.65238333e+000
      1.10439420e+000 6.58626199e-001 -8.50774571e-002 -8.12009335e-001
      -5.16174972e-001 1.74856618e-001 3.73433709e-001 1.18840849e+000
      2.57228434e-001 5.97464502e-001 -4.87236500e-001 -1.47473502e+000
      -1.01907063e+000 2.70497710e-001</_>
    <_>
      -7.43566155e-001 5.02261937e-001 1.01634622e-001 1.30696930e-002
      -4.51656133e-001 -5.43600440e-001 -3.02319527e-001
      -5.21738470e-001 4.18648636e-003 3.50425154e-001 -1.90158591e-001
      -5.44573702e-002 -6.23702168e-001 -1.61895692e-001
      -6.45024657e-001 -5.78041315e-001 -1.11459935e+000
      -2.61624545e-001 1.25708485e+000 1.80679679e+000 1.71434855e+000
      2.04295444e+000 1.42757237e+000 6.10565662e-001 2.99867630e-001
      -3.92847247e-002 1.34225070e-001 9.05818343e-001 1.98788488e+000
      1.65820277e+000 2.49714047e-001 -1.38531590e+000 6.69557452e-001
      9.27698970e-001 1.04302728e+000 -7.82590806e-001 -6.82154655e-001
      1.77096531e-001 9.80011165e-001 -1.54452607e-001 -3.62002999e-001
      -1.58591896e-001 -1.09542572e+000 -1.70508587e+000
      -1.17836690e+000 -1.43077821e-001 2.10618719e-001 3.73253763e-001
      1.49708474e+000 1.34229136e+000 1.24554610e+000 1.03685343e+000
      7.13475823e-001 -6.47554219e-001 -3.65716189e-001 -8.12331960e-002
      -9.61289927e-002 1.40685999e+000 1.06291556e+000 6.38967752e-001
      7.19019175e-002 5.70746660e-001 4.91206676e-001 1.31709349e+000</_>
    <_>
      -3.84849370e-001 -5.11703312e-001 -7.47051984e-002 1.20487593e-001
      8.04642618e-001 -6.42145693e-001 -6.15711331e-001 -2.54552692e-001
      2.22691506e-001 5.93766510e-001 2.83289552e-001 6.19685531e-001
      1.20891988e+000 1.31899357e-001 -3.82649183e-001 -2.41420865e-001
      -1.62892008e+000 -1.22053064e-001 9.84298348e-001 1.09938955e+000
      1.41606236e+000 1.40017509e+000 7.94676006e-001 -2.18780801e-001
      -1.04493904e+000 -4.05809164e-001 3.12359989e-001 7.44722784e-001
      4.28285062e-001 7.82727063e-001 -3.05741966e-001 -1.24830651e+000
      1.23363042e+000 7.48476267e-001 4.60728675e-001 5.60841322e-001
      -2.45958298e-001 2.08702952e-001 5.07993400e-001 2.71917790e-001
      9.70220342e-002 -3.74716640e-001 -8.93665791e-001 -1.50884950e+000
      9.20849591e-002 7.21176863e-001 9.29350019e-001 8.74176919e-001
      1.49916101e+000 1.21197295e+000 -5.32934964e-002 -4.34580445e-001
      -1.17312980e+000 -8.51149917e-001 2.49828205e-001 1.87877789e-001
      5.91923058e-001 6.47222161e-001 2.16174319e-001 -2.17255071e-001
      -7.79543370e-002 7.86826313e-001 1.26192975e+000 2.06559467e+000</_>
    <_>
      -4.92376566e-001 8.36938798e-001 6.89625561e-001 6.91009998e-001
      -8.04499507e-001 -1.19165611e+000 -1.45469916e+000
      -4.20831889e-001 4.00381416e-001 1.17803645e+000 1.62969315e+000
      8.86512697e-001 1.23949659e+000 5.22045851e-001 -7.31356144e-001
      -1.00489545e+000 -1.16369613e-001 7.23188102e-001 8.76543283e-001
      1.44232988e+000 1.53472447e+000 1.50289631e+000 6.17043614e-001
      5.47147214e-001 -9.97008085e-002 -6.06497943e-001 -2.53477186e-001
      4.12788898e-001 1.33982539e+000 1.34845412e+000 -8.37978303e-001
      -1.03496826e+000 -5.51523209e-001 -5.81107199e-001
      -5.82267582e-001 -3.87166262e-001 4.29272473e-001 4.85470980e-001
      5.45370281e-001 -2.36944526e-001 -2.69891262e-001 -4.00454640e-001
      -8.38007450e-001 2.16915399e-001 2.14994639e-001 2.62096018e-001
      6.96470916e-001 6.61139011e-001 1.01068819e+000 4.47200686e-001
      5.92048049e-001 4.66984272e-001 -1.26585901e-001 1.87141180e-001
      6.70650244e-001 1.32820928e+000 -5.14039040e-001 1.68587625e-001
      6.84001505e-001 4.64528829e-001 2.03591660e-001 3.47372055e-001
      5.91231227e-001 1.13827837e+000</_>
    <_>
      -8.40782642e-001 4.23352450e-001 1.49842992e-001 -2.49879137e-001
      -8.27485800e-001 -1.20621991e+000 -1.78777802e+000
      -9.30167258e-001 -2.33904675e-001 1.10997903e+000 1.20092404e+000
      1.34015667e+000 1.90729499e+000 2.04547596e+000 -7.18083680e-001
      -1.06318045e+000 -1.21560097e+000 6.30707443e-001 1.28542864e+000
      1.80969322e+000 1.77503753e+000 1.53277957e+000 1.15879285e+000
      5.34379959e-001 -9.63556409e-001 -1.78812993e+000 -1.29249418e+000
      3.79526436e-001 9.39327419e-001 5.56922853e-001 -8.45638990e-001
      -1.54141557e+000 -3.84821147e-002 -1.80365443e-001
      -7.80082345e-001 -2.26653010e-001 2.01313198e-001 8.01985934e-002
      1.18219912e-001 -6.89170836e-003 -6.26480222e-001 2.64430285e-001
      1.29698604e-001 3.17647755e-002 -1.09304711e-001 -6.97636977e-002
      5.72247624e-001 1.83492437e-001 1.57785940e+000 1.03484213e+000
      8.39126885e-001 5.60621440e-001 -3.73339087e-001 -3.90849039e-002
      1.15632987e+000 1.44340387e-002 -7.36346245e-001 -2.76542045e-002
      7.57744133e-001 8.03439856e-001 -5.34028769e-001 -5.39719105e-001
      -6.30038679e-001 9.13244963e-001</_>
    <_>
      -3.36789429e-001 5.04369557e-001 9.06100273e-001 1.62900254e-001
      1.61030531e-001 -8.36603463e-001 -8.14933956e-001 -5.06472647e-001
      6.73642755e-001 9.59914625e-001 1.76850271e+000 1.58720922e+000
      1.75192583e+000 3.75628024e-002 -1.31994152e+000 -1.38918746e+000
      -1.28464758e+000 -9.36256111e-001 3.87876034e-002 1.03183103e+000
      1.71476567e+000 1.43651843e+000 1.40512490e+000 4.57706064e-001
      -4.92933631e-001 -1.42061853e+000 -1.44382417e+000
      -1.55832767e-001 8.28348994e-001 1.03471386e+000 2.49823496e-001
      -1.86168686e-001 4.03293431e-001 4.13726628e-001 8.48693959e-003
      4.13652696e-002 3.27309459e-001 1.72439620e-001 4.31033611e-001
      1.93791717e-001 -5.54333031e-001 -9.89113033e-001 -1.04013646e+000
      1.02930978e-001 2.75658637e-001 9.18125689e-001 7.63250530e-001
      9.58221376e-001 1.01002681e+000 8.20005000e-001 4.08801258e-001
      5.68234265e-001 1.79654628e-001 -2.93759108e-001 -1.33793294e+000
      -4.99939799e-001 4.53681827e-001 1.04153681e+000 7.42474139e-001
      4.77396213e-002 -1.03728521e+000 -6.27049565e-001 -1.21946456e-002
      2.52763331e-001</_>
    <_>
      -9.47229803e-001 1.44217050e+000 5.42647839e-001 -1.28930330e+000
      -1.10184848e+000 -7.53227293e-001 -1.37335777e+000
      -7.86016285e-001 -5.95946848e-001 -4.60033178e-001
      -1.42995045e-001 -1.08755076e+000 -6.63712993e-003 3.01874965e-001
      -8.15559458e-003 -4.47952390e-001 9.86209512e-001 6.36617899e-001
      -2.11360991e-001 -6.17345035e-001 -7.07945704e-001
      -1.12710416e+000 -1.08720958e+000 -5.37222385e-001
      -1.51140273e-001 1.76674679e-001 3.12416013e-002 -7.93016076e-001
      -9.67265740e-002 2.06038907e-001 -3.63664687e-001 1.58523008e-001
      8.02293837e-001 1.17358696e+000 8.14396024e-001 -1.15774548e+000
      -1.50260532e+000 -1.14139044e+000 2.40104087e-002 1.74594867e+000
      2.42209506e+000 -3.79772186e-002 -1.35176349e+000 -2.33742595e+000
      -1.18025851e+000 -2.41474062e-001 7.85358012e-001 6.73963010e-001
      -1.28620291e+000 -6.38360739e-001 -2.97803849e-001
      -1.76983550e-001 9.81832743e-001 1.80870736e+000 1.39301550e+000
      5.70976213e-002 4.80317734e-002 -4.20724154e-001 -2.90291816e-001
      4.50646907e-001 1.17685723e+000 7.68025219e-001 5.39136767e-001
      -1.07437944e+000</_>
    <_>
      3.88857067e-001 8.26555490e-001 1.14192881e-001 -1.64582932e+000
      -1.03528428e+000 1.29956275e-001 1.97921142e-001 -6.78826571e-002
      -1.82047382e-001 -3.64786357e-001 -1.16014040e+000
      -1.83623278e+000 -1.87820423e+000 -1.34709847e+000
      -7.86025345e-001 -2.87483126e-001 -1.16438842e+000
      -3.62005867e-002 3.27106714e-001 1.07296860e+000 1.50773883e+000
      4.29435283e-001 6.74252331e-001 -2.88540274e-001 -4.33100492e-001
      4.66381043e-001 2.09810138e-001 5.24622202e-001 2.09840918e+000
      1.97576499e+000 4.92123842e-001 2.70156950e-001 -1.11519849e+000
      -2.16108225e-002 -2.51551867e-001 -9.52942669e-001
      -5.66956162e-001 -2.01870762e-002 5.58743417e-001 1.33127034e+000
      -1.72156259e-001 -1.86003506e+000 -2.61832356e-001
      -1.61374524e-001 -9.16395068e-001 -3.74477744e-001
      -6.43307865e-001 -3.09659958e-001 2.98372686e-001 6.40202522e-001
      7.15505064e-001 1.48734033e-001 3.28242600e-001 1.13675380e+000
      1.17815483e+000 -3.71301770e-001 -7.45690335e-003 -2.36289337e-001
      9.73790348e-001 1.30798078e+000 1.17743862e+000 7.18992352e-001
      6.26402915e-001 6.34192526e-001</_>
    <_>
      -1.71508685e-001 2.89076567e+000 -2.91681260e-001 -2.37963486e+000
      -1.81529093e+000 -2.20778370e+000 -2.72138476e+000
      -3.14678764e+000 -1.24218047e+000 -1.60784647e-001
      -8.90340470e-003 -9.88474429e-001 -5.26426375e-001
      -4.82589841e-001 -9.94206369e-001 -2.11834788e+000
      -2.47656986e-001 7.72457480e-001 1.26769757e+000 1.27391827e+000
      7.19332695e-001 -7.65572250e-001 -1.59989166e+000 -1.84177184e+000
      -1.95663369e+000 -1.97393906e+000 -9.31595206e-001 3.23013365e-001
      8.45278084e-001 1.48566544e-001 -6.31865799e-001 -1.12168646e+000
      -5.42598188e-001 4.52910215e-002 7.65607595e-001 -2.24246114e-001
      -1.98061442e+000 -1.70783889e+000 -4.48779985e-002 1.54613423e+000
      2.47280860e+000 -1.21320181e-001 1.52454793e-001 -2.75454164e-001
      -1.48631608e+000 -1.05192673e+000 -6.05191827e-001
      -6.40117586e-001 -5.27825296e-001 -5.19863904e-001
      -5.96505523e-001 -5.81372142e-001 1.78194959e-002 2.08856106e+000
      1.14913297e+000 7.40095675e-001 2.37678617e-001 3.86722893e-001
      2.31482744e-001 -7.59244621e-001 7.30266469e-003 -4.62122828e-001
      -3.13147977e-002 -6.04053795e-001</_>
    <_>
      5.95838130e-001 3.22385359e+000 1.46790051e+000 -7.67789543e-001
      -8.90254855e-001 -1.28424740e+000 -1.39648116e+000
      -2.06605268e+000 2.55846471e-001 1.57830107e+000 1.21469486e+000
      3.52793396e-001 9.53488767e-001 4.60934520e-001 -3.20640415e-001
      -2.01425004e+000 -1.83674669e+000 -4.31162328e-001
      -1.08947361e+000 1.33904469e+000 2.25337410e+000 1.07033753e+000
      -1.47255585e-001 -1.56523252e+000 -1.50096989e+000
      -1.52154064e+000 -3.94449997e+000 2.29367331e-001 1.58496845e+000
      1.43168950e+000 2.32569313e+000 8.37129295e-001 -1.33237481e-001
      1.96489727e+000 7.36589313e-001 5.02671957e-001 -4.58738506e-001
      -9.39413667e-001 -2.72885084e+000 6.11386895e-001 3.14302278e+000
      3.11739296e-001 -3.77716452e-001 -1.45028174e+000 -7.10937142e-001
      -1.02459037e+000 -1.69677544e+000 -2.30386019e+000 1.09731805e+000
      1.87431369e-002 1.33378625e+000 -3.12178284e-001 -8.41473520e-001
      3.68289495e+000 -1.15972197e+000 -4.27092218e+000 2.83902168e+000
      5.56971741e+000 1.81992924e+000 -8.38389218e-001 -2.92455435e+000
      -2.88374805e+000 -7.93582439e-001 -6.41394556e-002</_>
    <_>
      -8.96166325e-001 2.86654878e+000 4.88149881e-001 -1.63868690e+000
      -1.79465532e+000 -1.09655499e+000 -2.06262207e+000
      -1.94130766e+000 -1.19770634e+000 -7.50763237e-001 2.24982023e-001
      -4.85431135e-001 9.35147181e-002 -1.40897662e-003 -7.18378544e-001
      -1.27893925e+000 -6.17102087e-001 1.16336119e+000 9.88026083e-001
      3.13536495e-001 4.40467954e-001 4.77073759e-001 -9.06797469e-001
      -1.12714612e+000 -1.08880198e+000 -1.21646965e+000
      -6.22718632e-001 4.94520038e-001 8.36829066e-001 1.42996740e+000
      2.40707055e-001 -9.94462907e-001 -4.80918229e-001 3.69694114e-001
      -2.14272052e-001 -7.95116961e-001 -2.29984283e+000
      -1.16940987e+000 -5.86367130e-001 1.46080744e+000 1.52401114e+000
      -1.96488827e-001 -1.01829618e-001 -5.05546689e-001
      -1.61645281e+000 -9.64609206e-001 -7.51301646e-001
      -1.39948145e-001 -6.88033879e-001 -4.50744718e-001
      -3.23958158e-001 -9.91112590e-001 1.78297371e-001 1.24085402e+000
      1.66313159e+000 4.26437974e-001 7.06005991e-001 5.37766665e-002
      -2.61270791e-001 -9.97419059e-001 -5.41270852e-001 4.38195109e-001
      1.92714274e-001 -3.38685989e-001</_>
    <_>
      -6.20762825e-001 3.92633915e-001 7.70639861e-003 -7.38282859e-001
      -3.59428853e-001 2.88981080e-001 -9.37441289e-002 -1.06235898e+000
      -1.67348325e+000 -8.59925747e-001 -5.66480398e-001
      -2.93405533e-001 3.76748562e-001 -1.01984590e-001 2.50399053e-001
      4.51449156e-002 6.64980292e-001 9.88060117e-001 7.77355731e-001
      2.16095373e-001 5.71685374e-001 -3.86394203e-001 -1.18910599e+000
      -1.94995391e+000 -6.04756951e-001 7.18969181e-002 5.91241419e-001
      5.72457552e-001 4.59219873e-001 6.08759224e-001 -8.72444093e-001
      -9.17807043e-001 5.16847610e-001 5.68652272e-001 5.67538023e-001
      -1.94245204e-001 1.82855129e-001 1.25762224e-001 -3.29124518e-002
      1.41507638e+000 1.27082729e+000 -3.35730880e-001 -1.07778430e+000
      -1.24409163e+000 -1.17951953e+000 -8.26635540e-001
      -1.94710225e-001 5.01368642e-001 4.03068215e-001 -1.11276396e-001
      -8.68392050e-001 -1.06222582e+000 -1.48869526e+000 2.34818876e-001
      1.03574824e+000 7.65614510e-001 5.37708282e-001 2.38554463e-001
      2.66768456e-001 1.15133069e-001 4.66264784e-001 5.53650618e-001
      1.02005172e+000 9.91971314e-001</_>
    <_>
      -5.00153959e-001 2.19077301e+000 2.13155180e-001 -9.43944037e-001
      -1.01372671e+000 -3.79981071e-001 -1.09490063e-002
      -1.75889432e+000 -1.37214279e+000 -5.58532216e-002 5.97311556e-001
      1.47411004e-001 -1.45919472e-001 4.79559571e-001 2.76438072e-002
      -7.58557141e-001 -3.67876321e-001 1.15994775e+000 8.84177387e-001
      -9.87060368e-003 2.75651991e-001 2.84749776e-001 -6.42300904e-001
      -5.58183134e-001 -1.27966261e+000 -3.72338206e-001 7.71014035e-001
      -2.11531445e-001 5.62554717e-001 8.44613075e-001 2.99074620e-001
      -7.03489840e-001 -8.96109164e-001 6.29280984e-001 1.29311812e+000
      6.19204223e-001 -6.40506268e-001 -1.35393178e+000 -4.00813222e-001
      8.47363234e-001 1.21777070e+000 4.12167668e-001 6.59612343e-002
      3.01896390e-002 -7.46086419e-001 -1.31626296e+000 -8.42107952e-001
      -9.98807251e-001 -8.84195209e-001 -8.76740754e-001
      -1.01144947e-001 -1.03434741e+000 5.96613809e-003 7.92591810e-001
      1.84864402e+000 1.39484322e+000 -3.84153068e-001 -6.11318827e-001
      -4.69908059e-001 -6.09038353e-001 2.15976968e-001 1.04809058e+000
      1.34459889e+000 2.03877494e-001</_>
    <_>
      8.64190996e-001 3.38142300e+000 -5.76224625e-001 -3.12607408e+000
      -2.04424310e+000 -4.31448109e-002 -2.95377314e-001
      -1.71443969e-001 1.86835259e-001 7.13230371e-001 3.40596475e-002
      -7.24610269e-001 -3.46207693e-002 -6.99453771e-001
      -1.66134453e+000 -1.76036286e+000 8.14998686e-001 2.75280261e+000
      1.74756050e+000 1.76430374e-001 -2.32180268e-001 -8.77861738e-001
      -2.65191793e+000 -3.66262650e+000 -2.83356905e+000
      -1.40444064e+000 2.56137669e-001 1.03863442e+000 2.57996249e+000
      -5.48265517e-001 -2.35093594e+000 -1.63726330e+000
      -4.32160527e-001 2.57913560e-001 4.02089208e-001 1.41130960e+000
      3.28619003e-001 -8.82006064e-002 -5.25921404e-001 -5.17030180e-001
      1.69231975e+000 1.27305293e+000 7.07332790e-001 1.65847972e-001
      -2.12294474e-001 -3.83526683e-001 -1.10048711e-001
      -1.02226011e-001 -7.73494303e-001 -6.66424096e-001 3.12572300e-001
      -2.47012436e-001 -1.67191565e-001 1.17418563e+000 9.66851830e-001
      -4.11280572e-001 4.89144057e-001 2.08389139e+000 9.37234461e-001
      -8.61152709e-001 -7.80208409e-001 -2.86484838e-001
      -1.06050894e-001 -8.71394873e-001</_>
    <_>
      -3.31690878e-001 2.39989305e+000 6.29748642e-001 -1.62777686e+000
      -1.16162801e+000 -1.47154236e+000 -1.82090020e+000
      -1.39897668e+000 -9.34979975e-001 -1.15222983e-001 8.62536654e-002
      -2.94489890e-001 3.81352812e-001 -1.48839742e-001 -3.57381731e-001
      -2.06947374e+000 -6.13313973e-001 8.11895251e-001 1.21179020e+000
      8.14339936e-001 1.22942162e+000 6.49281591e-002 -7.26231575e-001
      -1.40686095e+000 -1.26377749e+000 -1.40520597e+000
      -2.19538271e-001 1.24351103e-002 8.08488369e-001 9.28402185e-001
      4.97806638e-001 -1.33277607e+000 -1.09006127e-003 2.74156541e-001
      6.85595572e-001 -9.59552169e-001 -9.94936168e-001 -9.19003844e-001
      3.90731752e-001 1.24012780e+000 7.32374310e-001 -1.51314244e-001
      -7.73030341e-001 -9.25325274e-001 -1.40807569e+000
      -1.07742548e+000 -8.80921543e-001 -3.51348892e-002 3.07055801e-001
      2.58991510e-001 -5.88862896e-001 -8.51817727e-001 -9.34572756e-001
      8.33248273e-002 1.57966900e+000 6.82998598e-001 7.41984725e-001
      4.95049894e-001 5.39744556e-001 -2.42156267e-001 -3.60331416e-001
      -1.02017991e-001 2.99711615e-001 1.09526694e+000</_>
    <_>
      -9.42493379e-001 9.95259047e-001 -1.80918157e-001 -1.76849282e+000
      -1.32210088e+000 -9.72559929e-001 -1.79587567e+000
      -1.05002534e+000 -4.16883707e-001 -6.51637852e-001
      -1.13951333e-001 -7.95051396e-001 -2.97531545e-001
      -1.17419474e-001 4.45524335e-001 -6.47739917e-002 3.00991893e-001
      1.79494083e+000 1.41753602e+000 2.51254559e-001 -2.08603442e-001
      -5.97537100e-001 -1.52163696e+000 -5.94536006e-001
      -8.30994546e-001 -9.71438527e-001 -1.10992432e+000
      -3.37246865e-001 8.15768540e-001 -5.42115867e-001 -8.99002790e-001
      -3.43694478e-001 -4.28575218e-001 -3.31073433e-001 1.65587008e-001
      2.29387009e-003 -4.04954314e-001 -1.04758871e+000 -1.20947266e+000
      8.65724862e-001 1.61091304e+000 4.48653132e-001 -6.08007967e-001
      -1.01048732e+000 -1.43460417e+000 -9.06138718e-001
      -2.71885425e-001 -1.65195152e-001 8.63380134e-001 -1.44905791e-001
      -1.03469169e+000 -9.59831834e-001 -1.35523045e+000 1.07414973e+000
      1.61829734e+000 1.40735734e+000 1.13892293e+000 9.81189087e-002
      4.31262702e-001 -1.11510360e+000 -6.10867977e-001 3.07781488e-001
      1.52371168e+000 1.02562654e+000</_>
    <_>
      6.07782364e-001 1.72598708e+000 5.19656539e-001 -1.26958632e+000
      -1.43766534e+000 -4.70522165e-001 -4.08548385e-001
      -1.04630005e+000 -9.57272947e-001 -5.77764452e-001 2.28801280e-001
      -1.33535683e-001 1.99619737e-002 -5.94048500e-001 -1.14916337e+000
      -1.73626316e+000 -8.97223130e-002 1.28401613e+000 9.70511973e-001
      6.86545134e-001 5.28551400e-001 2.60039628e-001 -2.95281839e-002
      -4.10709918e-001 5.05309477e-002 -1.29043773e-001 -1.23828486e-001
      1.98789820e-001 1.22723019e+000 1.19897866e+000 -1.01927742e-001
      -1.50108004e+000 1.99865863e-001 5.89199923e-002 3.63824926e-002
      -4.30536687e-001 -1.11362612e+000 -6.90731108e-001
      -2.06945866e-001 2.52210498e-001 1.09386325e+000 -3.78046721e-001
      -6.11854315e-001 -9.97242928e-001 -9.61944103e-001
      -1.14973176e+000 -1.82377458e-001 -1.22065824e-002 9.16986108e-001
      7.45721638e-001 5.07892728e-001 4.63945299e-001 1.76454499e-001
      8.27378333e-001 6.43117070e-001 5.22800684e-001 6.66950107e-001
      3.39186668e-001 -1.69790089e-001 4.65843439e-001 -2.36116037e-001
      9.99612659e-002 6.41606212e-001 1.01476502e+000</_>
    <_>
      2.80700028e-001 1.55816746e+000 -5.58531165e-001 -1.09453344e+000
      -6.02797449e-001 -8.64565074e-001 -1.43362820e+000
      -1.64535975e+000 -1.09095514e+000 3.34731370e-001 1.38539404e-001
      -3.29150259e-001 2.62643009e-001 -7.30829239e-001 -1.29023099e+000
      -2.23867607e+000 2.60729611e-001 1.78473830e+000 1.80999160e+000
      1.28228140e+000 1.41997659e+000 7.22518504e-001 5.40242553e-001
      1.20150819e-001 2.52251387e-001 8.21916997e-001 2.24771544e-001
      5.21195292e-001 2.56585813e+000 1.30352724e+000 3.87428612e-001
      -1.74069881e+000 4.12534803e-001 1.13390648e+000 2.52070189e-001
      -5.57882905e-001 -8.62897813e-001 -9.92361546e-001
      -5.28803408e-001 1.73806202e+000 1.90795350e+000 -2.77206373e+000
      -3.31895494e+000 -9.94794607e-001 -1.02977693e+000
      -5.02386868e-001 3.55001599e-001 1.23493057e-002 1.49144638e+000
      1.07794297e+000 4.95377094e-001 4.65517759e-001 4.67246652e-001
      8.54293466e-001 1.38891160e+000 6.83905333e-002 4.86795962e-001
      1.17755985e+000 3.55761677e-001 4.90876257e-001 9.19812381e-001
      9.95943606e-001 6.88475192e-001 7.03538597e-001</_>
    <_>
      -9.18579757e-001 9.57966864e-001 2.40197927e-001 -8.04618418e-001
      -6.35394692e-001 1.43206373e-001 -2.82611668e-001 -1.65861535e+000
      -2.15304661e+000 -1.13239539e+000 -7.12928176e-001
      -6.50024891e-001 2.71438539e-001 2.38324344e-001 3.08952153e-001
      -1.32267684e-001 2.35726848e-001 7.06686020e-001 4.31698442e-001
      -2.31503919e-002 3.57656121e-001 -1.02107453e+000 -1.51848042e+000
      -2.16926432e+000 -1.31012893e+000 5.72327860e-002 7.23269105e-001
      5.84125340e-001 8.61265302e-001 1.19860575e-001 -6.84632421e-001
      -1.26865280e+000 5.14805555e-001 2.25802064e-001 9.32478681e-002
      2.98431814e-002 -1.21091056e+000 -2.42797062e-001 2.69994408e-001
      2.16293907e+000 1.46657562e+000 -2.81262130e-001 -7.76536584e-001
      -5.37283361e-001 -1.54192853e+000 -1.10722208e+000
      -3.87531459e-001 1.33870706e-001 -6.53540045e-002 -4.72691566e-001
      -7.41322458e-001 -1.10365498e+000 -1.12320769e+000 1.26169646e+000
      1.65178180e+000 6.75873816e-001 -1.31397128e-001 -1.60322934e-001
      4.80314642e-001 -6.15513802e-001 6.35877788e-001 6.47012413e-001
      2.60251135e-001 -1.05263107e-001</_>
    <_>
      -4.45333242e-001 1.85425961e+000 3.55802119e-001 -9.24240470e-001
      -1.56052864e+000 -2.04365921e+000 -1.84271872e+000
      -2.04412293e+000 -1.45270228e+000 -1.27915919e-001 4.04497862e-001
      -4.57386374e-001 5.47481440e-002 1.39344353e-002 -6.94728792e-001
      -1.23653400e+000 -1.72491640e-001 3.56175065e-001 9.03737903e-001
      7.99469948e-001 8.37850928e-001 1.55352950e-001 -8.75758171e-001
      -1.09453261e+000 -1.36058474e+000 -1.05985177e+000
      -1.23619592e+000 -9.72486511e-002 8.74493778e-001 1.05481076e+000
      2.93579191e-001 -8.20409715e-001 -5.37094772e-001 -2.62013525e-001
      -2.30920583e-001 -3.56263548e-001 -8.48726034e-001
      -8.19384456e-002 2.43789300e-001 5.76463103e-001 2.89626151e-001
      -4.56295460e-002 -1.69178694e-001 8.11359704e-001 1.39571920e-001
      -2.55244136e-001 -2.20063865e-001 -6.93750978e-001
      -5.20249426e-001 -2.72304982e-001 1.46638393e-001 -3.09702121e-002
      7.69182714e-003 1.16780353e+000 1.46830356e+000 1.41267669e+000
      1.13089554e-001 6.27949417e-001 7.02568650e-001 -1.63889766e-001
      -4.36193079e-001 -5.17109275e-001 -2.55753193e-002 3.23021412e-001</_>
    <_>
      -6.84563518e-001 2.10409427e+000 3.11078012e-001 -1.17498040e+000
      -8.99508178e-001 -7.67349303e-001 -7.06284225e-001
      -1.12161338e+000 -1.91676971e-002 1.57871902e-001 2.89326966e-001
      -3.43329050e-002 1.28332400e+000 1.06022549e+000 1.13978647e-001
      -1.28874648e+000 -5.66754699e-001 -3.88197899e-001 4.50787209e-002
      2.63520807e-001 1.52942550e+000 1.54877746e+000 -4.18050259e-001
      -1.59591985e+000 -2.34643459e+000 -1.81606364e+000
      -1.23517895e+000 4.26939428e-001 1.15763664e+000 1.55868208e+000
      1.37097883e+000 -2.10328266e-001 4.92562503e-001 1.47927916e+000
      6.94265723e-001 -1.42011121e-001 -2.35136271e+000 -2.23169374e+000
      -2.29135714e-002 1.93575668e+000 8.50225270e-001 -8.56047571e-001
      -1.82161525e-001 3.00406963e-001 2.46836483e-001 5.12741692e-002
      1.15758523e-001 -9.95166227e-002 -1.68664110e+000 -2.07204771e+000
      -6.11851513e-001 -3.86670768e-001 6.36449754e-001 1.83980882e+000
      2.66570687e+000 1.23854864e+000 -6.83750689e-001 -9.21830356e-001
      6.68957949e-001 3.49657722e-002 -1.32408106e+000 2.56748311e-002
      9.01014686e-001 -5.26834249e-001</_>
    <_>
      1.45309949e+000 4.52281523e+000 8.60083044e-001 -1.71015310e+000
      -1.15492475e+000 1.82717904e-001 -2.84633815e-001 -2.03159630e-001
      1.39843535e+000 1.20902514e+000 1.29995441e+000 3.24055642e-001
      7.04699576e-001 -7.62526453e-001 -2.88271403e+000 -3.10954595e+000
      8.69004667e-001 1.36883998e+000 -1.43863130e-002 -8.18478644e-001
      6.82916582e-001 -2.37191990e-002 2.92931378e-001 9.25630331e-001
      4.79094476e-001 9.07625735e-001 2.16147840e-001 7.89410770e-001
      2.98803973e+000 1.05928314e+000 -1.29224479e-001 -9.94466901e-001
      9.10504341e-001 1.15361691e+000 1.37060273e+000 1.11659908e+000
      -3.40357661e-001 -5.74981391e-001 -8.43272865e-001
      -1.40423751e+000 1.57435775e+000 -7.90018886e-002 -2.72141606e-001
      4.01619449e-002 9.82738256e-001 -1.36660546e-001 -1.78227633e-001
      -5.89188516e-001 -2.60824889e-001 8.44928920e-002 3.12661201e-001
      -8.10927570e-001 2.10569650e-001 1.71585524e+000 4.18012828e-001
      -1.66683483e+000 -1.01389565e-001 7.20599711e-001 4.33886021e-001
      4.09198344e-001 1.15750813e+000 3.26669186e-001 -8.34964961e-002
      -1.23569012e+000</_>
    <_>
      -5.87626100e-001 1.40519583e+000 6.13233387e-001 -8.93047810e-001
      -1.27113271e+000 -1.35277164e+000 -1.60476720e+000
      -1.24076319e+000 -1.30021024e+000 3.22375953e-001 5.43985605e-001
      -2.97733009e-001 -6.02314584e-002 -1.70849431e-002
      -4.24705207e-001 -1.12220240e+000 -6.73812389e-001 8.26907098e-001
      5.35269499e-001 4.32677329e-001 9.46727455e-001 -1.53831134e-004
      -5.70939124e-001 -1.08720267e+000 -1.37169409e+000
      -1.77997792e+000 -7.76773393e-001 -3.95734161e-001 9.13556278e-001
      1.09833169e+000 1.03484266e-001 -9.90047634e-001 1.99852474e-002
      5.12242317e-001 -5.67575634e-001 -8.69676828e-001 -5.77875435e-001
      -1.79867133e-001 3.63804460e-001 1.51811576e+000 1.15447664e+000
      -1.49988031e+000 -1.34761608e+000 -7.83837616e-001
      -6.04966164e-001 8.59974861e-001 3.51417214e-001 5.63077271e-001
      -1.84881955e-001 4.98491406e-001 8.89518499e-001 2.58016616e-001
      1.77937523e-001 6.02894247e-001 -6.89183474e-001 3.85278493e-001
      1.32287550e+000 9.35345232e-001 1.04618835e+000 4.96627614e-002
      -4.48406935e-001 -1.53640909e-002 -9.89794850e-001
      -4.39707994e-001</_>
    <_>
      -1.46681786e+000 2.59612560e+000 9.13901031e-001 5.75370677e-002
      2.05458194e-001 -4.78422165e-001 -5.30788839e-001 -4.50699121e-001
      -6.37608349e-001 2.12872848e-001 8.11656773e-001 8.25025320e-001
      1.39981902e+000 1.50829470e+000 9.32660222e-001 -1.01238847e+000
      -1.08739781e+000 1.95362434e-001 7.07183003e-001 3.31130862e-001
      8.45811486e-001 4.11219835e-001 -7.44573116e-001 -5.21627843e-001
      -1.87443256e+000 -4.91195083e-001 4.35573190e-001 5.90342842e-002
      6.50931835e-001 1.46013749e+000 1.66738427e+000 -5.31408250e-001
      2.31885887e-003 6.86989486e-001 8.93344104e-001 1.74424261e-001
      2.73469031e-001 3.05196553e-001 1.87746286e+000 2.56879616e+000
      -4.34495836e-001 -2.62079263e+000 -1.00317284e-001 7.06424057e-001
      6.53776228e-001 6.36903286e-001 7.86906242e-001 6.17181718e-001
      4.22482967e-001 -8.99840653e-001 -1.77763093e+000 -2.88055801e+000
      -3.49418330e+000 1.61130071e-001 2.25577474e+000 2.26803112e+000
      -2.29476720e-001 7.12525845e-001 4.41347718e-001 -5.36396205e-001
      -1.29211366e+000 1.31377459e+000 1.47694588e+000 1.47920609e+000</_>
    <_>
      -9.24997926e-001 1.62301493e+000 4.59670186e-001 -1.56562245e+000
      -2.09042168e+000 -1.49759555e+000 -2.61391592e+000
      -2.97878838e+000 -8.01318765e-001 2.36568689e-001 6.97686315e-001
      -1.57681704e-001 2.69947588e-001 2.32237548e-001 -4.35130864e-001
      -1.65312922e+000 -1.35189459e-001 4.07214016e-001 1.38939428e+000
      8.28547001e-001 9.68391478e-001 4.70001101e-001 4.18111011e-002
      -3.38249058e-001 -1.64230037e+000 -1.21021736e+000
      -1.67518711e+000 -2.93398678e-001 1.28423297e+000 4.53179747e-001
      4.78871949e-002 -1.12877870e+000 -9.77665842e-001 -9.64215875e-001
      -1.06369817e+000 -2.08786488e-001 -6.50295615e-001
      -6.06024444e-001 -2.34778792e-001 3.74463141e-001 -2.29120433e-001
      8.84307474e-002 -2.53159236e-002 6.76663876e-001 7.18052685e-001
      6.67762935e-001 4.10334855e-001 1.05879784e-001 -5.74295782e-002
      -8.86164844e-001 3.18026602e-001 -3.55806947e-001 3.57003927e-001
      1.61087191e+000 2.39014959e+000 1.87945175e+000 -9.89754573e-002
      -9.03620839e-001 2.00587705e-001 -4.78770971e-001 -4.76186931e-001
      -8.06671157e-002 6.80099905e-001 8.16030383e-001</_>
    <_>
      -2.54767209e-001 1.99799860e+000 3.98542345e-001 -1.08962977e+000
      -6.20109200e-001 -9.61758792e-001 -2.20384455e+000
      -1.80848193e+000 1.82681784e-001 2.09875852e-001 8.38367045e-002
      -6.78816438e-001 -7.37496793e-001 -3.62153649e-001
      -1.21651435e+000 -2.10041523e+000 -5.32180183e-002 9.60463524e-001
      9.03088927e-001 7.84231722e-001 1.31566393e+000 1.01162076e+000
      5.86738944e-001 -4.14458722e-001 -1.51086080e+000 -2.03615832e+000
      -7.43855715e-001 3.06429297e-001 2.10755587e+000 1.49501777e+000
      4.11523521e-001 -1.33885312e+000 -1.31766629e+000 -9.01440680e-001
      -3.62206101e-001 -8.00345957e-001 -2.15232879e-001
      -6.20534539e-001 -8.87951136e-001 -2.02264920e-001 1.94703951e-001
      -3.21630299e-001 6.73540413e-001 6.70082569e-001 1.02239037e+000
      6.09559774e-001 -8.35114777e-001 -8.22919607e-001 7.29913414e-001
      4.34589803e-001 7.11655080e-001 -7.21502006e-001 7.85312712e-001
      1.25358057e+000 1.81292474e+000 2.53366041e+000 4.24041182e-001
      -1.20167208e+000 9.99960154e-002 1.62505388e+000 1.19345307e+000
      6.45015299e-001 -3.49080682e-001 -2.97168702e-001</_>
    <_>
      -7.52791613e-002 1.96209729e+000 3.25770915e-001 -2.01283050e+000
      -1.75266337e+000 -6.80650532e-001 -6.17475748e-001
      -9.63488221e-001 -1.59863245e+000 -9.13852394e-001
      -2.81849056e-001 -2.58989632e-001 2.79268801e-001 1.09692179e-001
      -6.62541509e-001 -1.37075853e+000 2.17013195e-001 9.07040834e-001
      4.13972050e-001 7.74785757e-001 1.20103562e+000 4.38416630e-001
      -9.22667921e-001 -1.30869460e+000 -1.52117538e+000
      -7.83712566e-001 -7.77951300e-001 1.15586065e-001 1.16539383e+000
      6.47904813e-001 1.29948342e+000 -1.50125936e-001 -1.46776974e+000
      3.64110768e-001 9.74941730e-001 -6.83318138e-001 -1.73911440e+000
      -7.97813058e-001 -4.38381016e-001 6.61208451e-001 1.21982443e+000
      -1.32736340e-001 -8.76130104e-001 -5.64429641e-001
      -9.02797580e-001 -1.00475740e+000 -8.73362660e-001
      -7.87308931e-001 -7.70007014e-001 -5.53710282e-001 2.03935415e-001
      -1.89735278e-001 -1.59652025e-001 1.27575290e+000 2.00049353e+000
      7.35563338e-001 2.29329944e-001 6.55113578e-001 7.90778816e-001
      -3.14692587e-001 -1.20783973e+000 1.00650035e-001 1.14520645e+000
      -3.97826642e-001</_>
    <_>
      4.45094526e-001 1.54747713e+000 6.79673314e-001 -9.76706564e-001
      -1.07418585e+000 -5.80456972e-001 -8.32236886e-001
      -1.52041960e+000 -8.36259305e-001 -4.92217779e-001 1.23895481e-001
      -3.53599757e-001 -1.18775368e-001 -2.64529794e-001
      -1.33389068e+000 -1.50320506e+000 5.69590591e-002 1.24312031e+000
      7.61505425e-001 7.84589410e-001 5.77694893e-001 1.07247628e-001
      -7.26582348e-001 -4.69959229e-001 -3.99991810e-001 2.30251491e-001
      -2.34350841e-003 1.99940443e-001 1.39138472e+000 8.63375962e-001
      -5.01167357e-001 -8.33587289e-001 -8.96430194e-001
      -1.17183633e-001 1.56087548e-001 -3.75295877e-002 -7.23780215e-001
      -6.72773540e-001 -4.97627825e-001 2.56471783e-001 7.60159373e-001
      3.70005101e-001 2.79191858e-003 -5.66368997e-001 -6.31292820e-001
      -8.98261189e-001 -8.25031221e-001 -6.98355734e-001 9.00846303e-001
      1.89618781e-001 2.25280598e-001 -7.93674961e-002 2.84309089e-001
      1.10803306e+000 8.84473443e-001 6.51611030e-001 7.19839633e-001
      3.06141898e-002 -3.16752702e-001 -1.93637520e-001 1.38245985e-001
      7.13407457e-001 5.14088452e-001 1.16437805e+000</_>
    <_>
      -5.84645092e-001 1.87868953e+000 1.02061138e-001 -1.45277476e+000
      -3.85981530e-001 -8.87191221e-002 -9.31676984e-001
      -2.17553186e+000 -3.76032853e+000 -1.51467717e+000
      -7.57403612e-001 -1.91575333e-001 -4.06655252e-001 3.62668395e-001
      -1.58376679e-001 6.98410198e-002 4.99260187e-001 1.38678777e+000
      6.16874658e-002 -2.02277936e-002 -2.12200716e-001 -9.53467667e-001
      -1.10837674e+000 -1.32224846e+000 -5.34842968e-001 1.79033130e-001
      8.13784361e-001 1.00149322e+000 1.48996937e+000 -4.17844877e-002
      -8.79336536e-001 -1.47820902e+000 -1.74456096e+000 5.11876106e-001
      1.31696236e+000 6.54202282e-001 -7.55171597e-001 -1.29366183e+000
      -9.03098702e-001 1.51348877e+000 1.84457207e+000 6.97248459e-001
      -4.65637594e-001 -7.66652048e-001 -9.21551168e-001
      -1.44655848e+000 -1.34448564e+000 -2.05356169e+000
      -7.59522319e-002 -5.86542897e-002 3.96412499e-002 -1.25940931e+000
      -4.85616356e-001 1.07221377e+000 1.83962071e+000 6.14387453e-001
      -3.81463915e-001 -1.46432832e-001 1.02533984e+000 -1.35634780e-001
      3.88559848e-002 4.91345227e-001 1.93526220e+000 7.28582263e-001</_>
    <_>
      -1.10386348e+000 2.34308481e+000 4.39774781e-001 -1.76480603e+000
      -1.55780280e+000 -1.13405192e+000 -1.12675643e+000
      -1.62803984e+000 -8.87716830e-001 -4.63456810e-001
      -9.89603102e-002 -5.39219737e-001 9.92392004e-002 2.46860068e-002
      -3.41356993e-001 -1.12096655e+000 -3.16780180e-001 9.66558456e-001
      9.21894014e-001 5.36441445e-001 1.14725423e+000 3.91683251e-001
      -1.86036184e-001 -1.38195992e+000 -1.71192944e+000
      -1.29188132e+000 -1.03443813e+000 -2.70716124e-003 9.93844509e-001
      7.67281175e-001 2.12336510e-001 -1.38806283e+000 -8.58233124e-002
      1.47982568e-001 3.16182435e-001 -2.20296338e-001 -1.80411518e+000
      -1.10102415e+000 8.40527266e-002 1.09630775e+000 1.11954999e+000
      -2.37706587e-001 -4.71628189e-001 -5.30197322e-001
      -1.03894961e+000 -7.79208660e-001 -7.34504104e-001 2.07211390e-001
      4.10148054e-001 8.14361691e-001 8.75933528e-001 3.98489647e-002
      -8.23315680e-002 8.01003337e-001 -6.48371829e-003 9.72041726e-001
      1.14308906e+000 4.47953433e-001 4.68074381e-002 7.51915425e-002
      -6.27323568e-001 -6.28985465e-001 -7.05858111e-001
      -3.65137339e-001</_>
    <_>
