<?xml version="1.0"?>
<opencv_storage>
<my_svm type_id="opencv-ml-svm">
  <svm_type>C_SVC</svm_type>
  <kernel><type>LINEAR</type></kernel>
  <C>10.</C>
  <term_criteria><epsilon>9.9999997764825821e-003</epsilon>
    <iterations>2147483647</iterations></term_criteria>
  <var_all>400</var_all>
  <var_count>400</var_count>
  <class_count>32</class_count>
  <class_labels type_id="opencv-matrix">
    <rows>1</rows>
    <cols>32</cols>
    <dt>i</dt>
    <data>
      0 1 2 3 4 5 6 7 8 9 10 11 12 13 14 15 16 17 18 19 20 21 22 23 24
      25 26 27 28 29 30 31</data></class_labels>
  <sv_total>496</sv_total>
  <support_vectors>
    <_>
      0. 0. 0. 0. 0. 0. 0. 0. 0. 0. 0. 0. 0. 0. 0. 0. 0. 0. 0. 0. 0. 0.
      0. 0. 0. 0. 0. 0. 0. 0. 0. 0. 0. 0. 0. 0. 0. 0. 0. 0. 0. 0. 0.
      6.74996772e-005 2.14563988e-005 -6.61914455e-005 -3.20041840e-006
      -1.97919828e-004 -3.98613833e-004 -1.55195099e-004
      -6.58777426e-005 -1.53046203e-004 -6.04346496e-005
      -4.81886673e-005 3.21932057e-005 1.36735489e-005 3.29639734e-005
      1.80420702e-005 0. 0. 0. 0. 0. 1.21687699e-004 1.35057227e-004
      -4.01907455e-005 -1.00230769e-004 -2.71591969e-004 1.65441816e-005
      5.33546729e-004 3.92555550e-004 -6.05431618e-004 -3.42571322e-004
      1.48447813e-004 1.10041554e-004 -6.63421597e-005 1.07617809e-004
      4.63711804e-005 0. 0. 0. 0. 0. 7.45747311e-005 5.93292134e-005
      9.11852258e-005 8.56257975e-005 -4.33519454e-004 1.94129112e-004
      1.10920846e-004 -3.49720125e-004 -1.75938068e-004 2.62784801e-004
      3.95997777e-004 6.30152237e-004 -3.12638120e-004 2.55465304e-004
      7.96400782e-005 0. 0. 0. 0. 0. 3.28889182e-005 -1.40411692e-004
      2.24945252e-004 -3.11587472e-004 1.01951700e-004 1.29854074e-004
      1.80976494e-004 4.58461465e-004 -1.38582909e-004 5.61313878e-004
      3.81846185e-005 -3.34136013e-004 -8.63329769e-005 3.46198358e-005
      1.08224776e-004 0. 0. 0. 0. 0. 1.68800325e-004 1.68074941e-004
      5.33396262e-004 5.79442363e-004 -3.65401123e-004 -9.45698775e-005
      -5.52721140e-005 -1.89349885e-004 -6.89355715e-004
      -2.08872079e-004 -2.12679748e-004 2.46814801e-004 3.26120389e-005
      7.09481537e-005 1.82353164e-004 0. 0. 0. 0. 0. 6.91211244e-005
      1.55044385e-004 4.84468939e-004 7.32267508e-004 5.86534792e-004
      -6.17703539e-004 -9.75598741e-005 -1.12368987e-004
      -1.00043777e-003 -1.51843749e-004 -7.46001460e-005 2.86756171e-004
      -2.39633264e-005 5.11343278e-005 1.53329675e-004 0. 0. 0. 0. 0.
      -4.54576707e-007 1.15441857e-004 2.85678922e-004 4.96076536e-004
      6.00289437e-004 9.11770403e-005 -1.21089118e-003 -8.74707301e-004
      -6.86211977e-004 -5.50242257e-004 6.04560191e-004 4.13978676e-004
      1.32958794e-005 1.58579103e-004 1.56068127e-004 0. 0. 0. 0. 0. 0.
      1.00713805e-004 9.17626385e-005 1.45556143e-004 2.59368098e-004
      -2.98824831e-004 -7.00883393e-004 -2.96232931e-004
      -3.84631770e-004 -9.74668947e-004 4.05912760e-005 -2.21276368e-005
      9.12189862e-005 1.53814035e-004 1.28874439e-004 0. 0. 0. 0. 0. 0.
      1.13570888e-004 1.13570888e-004 3.21427046e-006 4.64751443e-004
      8.26082600e-004 9.60806210e-004 2.59491528e-004 -3.63193365e-004
      -1.54139660e-003 -1.19947921e-003 -4.73005202e-004 8.88546565e-005
      1.45015452e-004 7.09400547e-006 0. 0. 0. 0. 0. 4.06627578e-006
      4.56067064e-005 -5.43958013e-005 6.72140101e-004 1.00610242e-003
      1.61654793e-003 1.50528643e-003 6.38856669e-004 -1.50825223e-003
      -1.54216099e-003 -1.51351921e-003 -6.94826769e-004 2.80893146e-005
      1.36710980e-004 0. 0. 0. 0. 0. 0. 1.96541605e-005 -3.38091704e-005
      -1.61929216e-004 4.74793225e-004 1.12803385e-003 1.38936227e-003
      1.84927578e-003 7.09120301e-004 -1.01691205e-003 -1.33678410e-003
      -1.13226089e-003 -2.28550503e-004 6.97905052e-005 1.72451491e-005
      0. 0. 0. 0. 0. 1.42407080e-005 -6.77182688e-005 -7.44046178e-004
      -4.11193847e-004 2.07716977e-004 4.07530606e-004 1.28620234e-003
      1.01288140e-003 -1.98024252e-004 -1.26539753e-003 -8.49142089e-004
      -7.18627416e-004 1.05333402e-005 5.63563408e-005 -1.87426704e-005
      0. 0. 0. 0. 0. 9.91034813e-006 -1.06661042e-004 -2.43557952e-004
      9.33647912e-004 9.85776889e-004 1.04593078e-003 1.07211061e-003
      3.85598687e-004 4.39783966e-004 -4.23455611e-004 -6.51096634e-004
      2.38934124e-004 3.96921125e-004 8.12696017e-005 -1.55467587e-005
      0. 0. 0. 0. 0. 1.04213250e-004 -2.84359085e-005 -6.54065007e-005
      9.81186167e-004 9.47542198e-004 5.83214220e-004 5.22612594e-004
      -1.98757320e-004 2.98503379e-004 5.03781121e-005 -1.60390045e-004
      1.64848971e-004 1.83788579e-004 8.20775604e-005 -3.29779732e-006
      0. 0. 0. 0. 0. 8.43381858e-005 -2.75043658e-005 -1.42576886e-004
      5.07703982e-004 1.61797725e-004 -4.18205134e-004 -2.59987806e-004
      1.15606999e-004 3.41448293e-004 4.15527029e-004 1.31671375e-004
      -4.20254684e-004 -8.13384304e-006 2.75874081e-005 0. 0. 0. 0. 0.
      0. 9.86532323e-005 1.40186006e-004 9.71455811e-005 4.47378203e-004
      2.77971209e-004 -2.52325117e-004 -3.61916609e-004 -4.15179602e-005
      1.81893105e-004 2.53953767e-004 1.96210385e-004 -1.31286492e-004
      9.46306609e-005 7.21223914e-005 0. 0. 0. 0. 0. 0. 0. 0. 0. 0. 0.
      0. 0. 0. 0. 0. 0. 0. 0. 0. 0. 0. 0. 0. 0. 0. 0. 0. 0. 0. 0. 0. 0.
      0. 0. 0. 0. 0. 0. 0. 0. 0. 0. 0.</_>
    <_>
      0. 0. 0. 0. 0. 0. 0. 0. 0. 0. 0. 0. 0. 0. 0. 0. 0. 0. 0. 0. 0. 0.
      0. 0. 0. 0. 0. 0. 0. 0. 0. 0. 0. 0. 0. 0. 0. 0. 0. 0. 0. 0. 0.
      1.61521719e-004 1.12808819e-004 0. -4.56983253e-006
      2.37687680e-004 4.12484551e-005 2.03876523e-004 4.00134420e-004
      5.16257074e-004 -3.89656925e-005 -3.48859088e-004 -1.58961426e-004
      -9.89060791e-005 -7.32847475e-005 0. 0. 0. 0. 0. 0.
      2.92277400e-004 3.64064821e-004 2.92013487e-004 3.90310102e-004
      3.94136790e-004 2.41601214e-004 2.33950836e-004 5.99292747e-004
      7.12275738e-004 6.30713330e-005 -6.81986392e-004 -4.50251420e-004
      -6.28570997e-005 7.18857409e-005 6.31649709e-006 0. 0. 0. 0. 0.
      3.05096561e-004 4.76873625e-004 5.40617679e-004 6.34737487e-004
      3.74284427e-004 4.26692684e-004 1.12368485e-004 7.99715926e-004
      6.85773790e-004 -5.14693238e-005 -6.23699219e-004 -2.76721199e-004
      1.65592166e-004 1.86777339e-004 1.89665643e-005 0. 0. 0. 0. 0.
      2.92277400e-004 4.40909120e-004 6.67376793e-004 9.49209323e-004
      5.80260588e-004 3.24896071e-004 3.72725743e-004 -9.26716457e-005
      1.74125264e-004 1.49136569e-004 3.68170708e-006 3.03566689e-004
      3.43083491e-004 2.34026258e-004 3.80569072e-005 0. 0. 0. 0. 0.
      2.89713556e-004 4.14194277e-004 5.27649885e-004 7.06856546e-004
      7.25611579e-004 1.56458744e-004 -6.52500545e-004 -8.41481378e-004
      -6.89818757e-004 -1.61798511e-004 3.05209629e-004 5.15208812e-004
      5.76439197e-004 4.10853565e-004 8.40929424e-005 0. 0. 0. 0. 0.
      1.97415429e-004 3.46425950e-004 2.73109850e-004 1.33979585e-004
      2.14083848e-004 1.24090175e-005 -8.75461265e-004 -4.85134544e-004
      -5.68167015e-004 6.57173189e-007 3.84293060e-004 6.38356898e-004
      5.63783746e-004 2.30455742e-004 4.62293356e-005 0. 0. 0. 0. 0. 0.
      1.04298924e-004 -9.28020090e-005 -4.65695717e-004 -3.03615176e-004
      -4.80570481e-004 -8.61318142e-004 -5.30136691e-004
      -3.04631772e-004 -1.69971507e-004 1.89964034e-004 6.11430034e-004
      4.13008820e-004 1.10847490e-004 2.14880911e-005 0. 0. 0. 0.
      -6.21986619e-005 -1.35395341e-004 -2.78485822e-005
      -3.64208594e-004 -5.09104750e-004 -2.86664086e-004
      -2.72636127e-004 -3.16249236e-004 -3.26576788e-004
      -1.95791963e-005 -1.09366178e-004 3.74198804e-004 3.58915247e-004
      1.70735933e-004 1.64872894e-004 0. 0. 0. 0. 0. -1.60032650e-004
      -3.73746996e-004 -2.70377845e-004 -3.82996688e-004
      -9.01838124e-004 -3.02546425e-004 4.76352056e-004 4.11824236e-004
      -3.97310621e-004 -2.64202594e-004 -2.85015965e-004 2.71913130e-004
      2.24961899e-004 3.58193538e-005 5.21575203e-006 0. 0. 0. 0. 0.
      1.16370875e-005 -1.86097648e-004 -5.05209435e-004 -8.72779638e-004
      -8.77643470e-004 -1.44080434e-004 3.70751804e-004 8.19841807e-005
      -8.46112205e-004 -6.23401778e-004 -4.59177536e-004
      -2.07900710e-004 -4.02158039e-005 -8.05517702e-005 0. 0. 0. 0. 0.
      0. 1.41986229e-005 -1.64228049e-006 -1.29840118e-004
      -5.61220862e-004 -7.18362397e-004 -3.88639339e-004
      -2.66043149e-004 -1.35718728e-004 -8.31315469e-004
      -8.43808637e-004 -5.81436499e-004 3.50333903e-005 -2.25839503e-005
      1.22834017e-005 0. 0. 0. 0. 0. 0. 3.58827128e-005 1.78641960e-004
      6.12364238e-006 -2.00856957e-004 1.75506866e-004 4.21260629e-004
      5.68163348e-004 -2.26237244e-004 -4.57261951e-004 -8.03706935e-004
      1.45983096e-004 -1.14514041e-004 -8.42880181e-005 5.88611692e-005
      0. 0. 0. 0. 0. 0. 7.09681917e-005 1.12179456e-004 6.92742906e-005
      2.16891392e-004 7.77997950e-004 7.73852342e-004 5.59337379e-004
      5.27067925e-004 4.27943101e-004 -5.52328311e-005 1.04634768e-004
      1.27840700e-004 3.10960022e-005 1.58931161e-005 0. 0. 0. 0. 0. 0.
      7.68431055e-005 1.03680584e-004 2.24456220e-004 4.16292198e-004
      6.17076934e-004 3.73014336e-004 9.18729493e-005 -6.52941890e-006
      -3.21655971e-004 9.00080777e-005 1.50539618e-005 -1.73600074e-005
      -3.15316211e-005 1.65163747e-005 0. 0. 0. 0. 0. 0. 1.04012652e-004
      8.60813816e-005 -3.91520334e-005 1.76546077e-004 4.05382394e-004
      1.35521404e-004 2.01261500e-004 -7.20279932e-005 -5.50631492e-004
      -5.52850543e-004 -4.99259622e-004 -3.77529243e-004
      -1.95270157e-004 2.80466747e-006 0. 0. 0. 0. 0. 0. 0.
      -4.31132830e-005 -8.21281865e-005 1.60620679e-004 1.78170623e-004
      -3.68189685e-005 5.97801154e-005 -1.75886104e-004 -1.51325803e-004
      -1.16017269e-004 -1.83586217e-005 -1.07379441e-004
      -8.65468173e-005 0. 0. 0. 0. 0. 0. 0. 0. 0. 0. 0. 0. 0. 0. 0. 0.
      0. 0. 0. 0. 0. 0. 0. 0. 0. 0. 0. 0. 0. 0. 0. 0. 0. 0. 0. 0. 0. 0.
      0. 0. 0. 0. 0. 0. 0.</_>
    <_>
      0. 0. 0. 0. 0. 0. 0. 0. 0. 0. 0. 0. 0. 0. 0. 0. 0. 0. 0. 0. 0. 0.
      0. 0. 0. 0. 0. 0. 0. 0. 0. 0. 0. 0. 0. 0. 0. 0. 0. 0. 0. 0. 0.
      1.42244928e-004 9.93456561e-005 -1.80699972e-005 -6.51381342e-005
      -2.90674041e-004 -1.74159723e-004 -1.54449299e-004
      -1.55344551e-005 -1.61165008e-005 4.85979945e-006 -8.13604856e-006
      -5.80944179e-005 2.81423618e-005 9.00120358e-006 3.99612290e-005
      0. 0. 0. 0. 0. 2.57395557e-004 3.21885571e-004 1.21618024e-004
      -3.14184799e-005 -3.98230215e-004 -3.30329232e-004
      -9.76986557e-005 3.86308791e-004 2.18361325e-004 1.42685722e-005
      -3.92274873e-004 2.16003809e-005 7.45965808e-005 8.38549604e-005
      7.48077218e-005 0. 0. 0. 0. 0. 2.68684846e-004 4.43035649e-004
      4.17550589e-004 1.13336318e-004 -7.57321774e-004 -5.44379640e-004
      -1.82460662e-005 1.70779720e-004 -1.26115963e-004 1.51159853e-004
      -1.10451881e-004 -2.15115710e-004 7.80715782e-005 6.89970766e-005
      7.72785279e-005 0. 0. 0. 0. 0. 2.57395557e-004 4.39054100e-004
      5.68559626e-004 5.68121497e-004 1.38715961e-006 -1.06036445e-004
      -2.37493849e-004 -1.47646337e-004 2.86670780e-004 7.26596045e-004
      3.64841690e-005 2.52000464e-004 4.43561003e-004 2.09235150e-004
      8.22880174e-005 0. 0. 0. 0. 0. 2.55137711e-004 4.10634850e-004
      5.82588022e-004 3.54721647e-004 -3.29697330e-004 3.31115094e-004
      1.91765488e-004 -2.21845985e-004 1.94542736e-004 7.23865815e-004
      8.17615539e-004 6.10595278e-004 6.94977236e-004 2.65041657e-004
      6.33326272e-005 0. 0. 0. 0. 0. 1.73854904e-004 2.70616496e-004
      1.74781308e-004 -3.66889406e-004 -6.14834193e-004 -4.39304655e-004
      -5.55999286e-004 -4.44937206e-004 1.37626863e-004 1.00527145e-003
      8.34658276e-004 8.42880341e-004 5.86260459e-004 1.21283585e-004
      3.64510270e-005 0. 0. 0. 0. 0. -7.61091142e-005 8.41816509e-005
      3.55526827e-005 -1.23117270e-003 -7.78515358e-004 -5.47885429e-004
      -6.91076391e-004 -6.40245504e-004 -2.50885991e-004 2.09861857e-004
      7.01767567e-004 6.70404115e-004 3.42420273e-004 8.93911565e-005 0.
      0. 0. 0. 0. 0. -4.46727427e-005 9.76306910e-005 -1.22078083e-004
      -7.69075588e-004 -1.02005526e-003 -6.94864837e-004
      -2.94962025e-004 -3.65927466e-004 -3.91710637e-004
      -6.88433647e-004 -6.58440622e-005 5.30525504e-005 2.94304882e-005
      0. 0. 0. 0. 0. 0. 0. -4.46727427e-005 1.24240207e-004
      5.94344310e-005 -2.71123485e-004 -5.40272333e-004 8.80645894e-005
      4.61091113e-004 8.85335612e-005 -6.68505847e-004 -1.12224102e-003
      -5.38479420e-004 -7.26310609e-005 -2.47882381e-005 0. 0. 0. 0. 0.
      0. 2.80581935e-005 -4.78655857e-005 -6.89394947e-005
      -1.39143915e-004 1.38595540e-004 6.54098403e-004 9.49590059e-004
      1.13857177e-003 -2.04983935e-005 -8.56277649e-004 -1.31851842e-003
      -5.45510266e-004 -1.20083409e-004 -4.23894962e-005 0. 0. 0. 0. 0.
      0. 8.27946678e-006 -1.14751920e-005 -1.38172167e-004
      -2.68962409e-004 -3.55326738e-005 4.25022590e-004 9.55433992e-004
      6.31277042e-004 2.37833621e-004 -6.30364928e-004 -8.67439259e-004
      -3.47859954e-004 -1.95596047e-004 3.03691395e-005 0. 0. 0. 0. 0.
      0. 1.73059943e-005 -1.76284273e-004 -3.31296877e-004
      -2.76451494e-004 -3.90997069e-004 6.53323194e-004 6.76463183e-004
      2.59278342e-004 -1.19496472e-004 -3.67074070e-004 -5.04652737e-004
      -3.55635391e-004 -1.96078108e-004 1.15846451e-005 0. 0. 0. 0. 0.
      0. 2.89076161e-006 -1.73387598e-004 -1.74002489e-004
      -1.23714140e-004 2.39255649e-004 4.39925992e-004 -1.62346652e-004
      -4.13460657e-004 -1.75517926e-004 4.46519349e-004 -2.22717499e-004
      4.16611620e-005 -9.96546441e-005 -1.90256433e-005 0. 0. 0. 0. 0.
      0. 5.37745073e-005 2.11777529e-004 3.04726273e-004 3.03921493e-004
      -2.23341791e-004 -1.02069907e-005 1.53238972e-004 -2.92713376e-005
      4.58233029e-004 4.17256029e-004 2.52026890e-004 3.55907774e-004
      1.65846490e-004 3.45118751e-005 0. 0. 0. 0. 0. 0. 1.40120474e-005
      5.61094639e-005 1.89134240e-004 2.53652979e-004 -4.34074580e-004
      -6.11823518e-004 -3.26428359e-004 2.70369288e-004 1.46683033e-005
      1.19378186e-004 4.74048720e-004 2.25657583e-004 5.71290948e-005
      8.66508071e-006 0. 0. 0. 0. 0. 0. 0. -1.25594661e-005
      -4.36067749e-005 -3.07499213e-005 -1.19302225e-004
      -3.36219324e-004 -2.82378634e-004 -8.38828055e-005 1.20574543e-004
      5.01499278e-004 4.70087136e-004 8.38190899e-005 0. 0. 0. 0. 0. 0.
      0. 0. 0. 0. 0. 0. 0. 0. 0. 0. 0. 0. 0. 0. 0. 0. 0. 0. 0. 0. 0. 0.
      0. 0. 0. 0. 0. 0. 0. 0. 0. 0. 0. 0. 0. 0. 0. 0. 0. 0.</_>
    <_>
      0. 0. 0. 0. 0. 0. 0. 0. 0. 0. 0. 0. 0. 0. 0. 0. 0. 0. 0. 0. 0. 0.
      0. 0. 0. 0. 0. 0. 0. 0. 0. 0. 0. 0. 0. 0. 0. 0. 0. 0. 0. 0. 0. 0.
      -7.41449767e-005 5.62872629e-006 -1.92082618e-004 -1.73179997e-005
      -1.34102607e-004 9.68096356e-005 1.40469783e-004 1.54185272e-003
      -3.02758679e-004 -1.80360361e-003 -1.51877495e-004 4.74480825e-004
      -1.00915631e-005 0. 0. 0. 0. 0. 0. 1.65198389e-006
      -3.83739127e-004 -6.99618424e-004 -3.10949865e-004 9.23370244e-005
      -3.48562375e-004 -4.92267427e-004 7.76162487e-004 1.60647172e-003
      3.77763237e-004 -2.84917490e-003 -1.33019313e-003 3.02687899e-004
      1.82323129e-004 -1.24039929e-004 0. 0. 0. 0. -1.26144541e-005
      -9.68754975e-005 -1.00974960e-003 -6.89542503e-004
      -2.14267476e-003 -1.63623074e-003 -1.02913962e-003
      -4.90919978e-004 6.44035288e-004 4.68623068e-004 -4.83660697e-004
      -5.97520440e-004 -5.65529044e-004 -2.23721130e-004
      -9.95360315e-005 -1.62808166e-004 0. 0. 0. 0. -4.03662525e-005
      -3.41654260e-004 -8.64763802e-004 -9.07786016e-005
      -1.00298272e-003 8.18512694e-004 -1.31149672e-003 -8.68968433e-004
      -1.95446378e-003 -2.04946962e-003 -1.57145283e-003
      -8.30188452e-004 -1.24606525e-003 -6.62148115e-004
      -2.77887564e-004 8.00530397e-005 0. 0. 0. 0. 0. -7.18526862e-005
      -4.23901336e-004 6.25533401e-004 -6.01059473e-005 -3.48241301e-004
      6.19029393e-004 1.56399346e-005 -4.15284245e-004 -1.03522837e-003
      -2.20900212e-004 -8.23891780e-004 -6.56854536e-004
      -3.78252327e-004 7.21190299e-005 1.35025330e-004 0. 0. 0. 0. 0.
      -9.33469564e-005 -3.93037742e-004 7.28742816e-005 -7.81087670e-004
      9.57808574e-004 6.15999044e-004 -4.95313783e-004 -5.04650059e-004
      -1.87480194e-003 -3.88871005e-004 -3.55195371e-004 8.61621578e-004
      2.05106160e-004 2.66410992e-004 6.87073552e-005 0. 0. 0. 0. 0.
      -5.29807039e-005 -1.47213563e-004 3.14880454e-004 2.84696463e-004
      1.17609801e-003 -8.67693161e-004 1.54711117e-004 -9.39691789e-004
      -1.78763075e-004 3.01462103e-004 1.69724575e-004 1.08329847e-003
      3.91657755e-004 1.36436327e-004 7.47739396e-005 0. 0. 0. 0. 0. 0.
      0. -2.77432446e-005 -4.88457408e-005 -6.60466554e-004
      -4.59262170e-004 -1.41241343e-003 1.28325497e-004 9.15333920e-004
      9.00641957e-004 5.87632123e-004 3.00507119e-004 2.30151243e-004
      2.33235420e-004 5.75974736e-005 0. 0. 0. 0. 0. 0. 0.
      4.46300037e-005 -1.47875704e-004 -4.98856709e-004 8.46693642e-004
      5.24961564e-004 -1.00461149e-003 -1.63075211e-003 -7.03215424e-004
      -7.48310413e-004 -1.36955787e-004 1.23874866e-004 7.40074902e-005
      3.17050331e-006 0. 0. 0. 0. 6.52813003e-004 6.95620431e-004
      2.72897247e-004 2.16286444e-005 5.56532294e-004 3.15495126e-004
      9.57079581e-004 1.23302639e-003 -4.10228386e-004 -1.59147102e-003
      -1.84459484e-003 -6.80764439e-004 -2.10632134e-004 9.65616709e-005
      7.02794860e-005 0. 0. 0. 0. 0. 1.92633350e-004 6.34097087e-004
      1.08616659e-003 2.79315893e-004 4.50855558e-004 4.94690030e-004
      7.76602188e-004 1.33937167e-003 8.81155371e-004 9.18832142e-004
      1.56160549e-003 1.58798241e-003 -1.62315609e-006 6.30998838e-005
      1.79661856e-005 0. 0. 0. 0. 0. 4.52140637e-004 1.34597567e-003
      1.30718306e-003 5.49736666e-004 1.12397654e-003 7.28164974e-004
      9.61640675e-004 2.09372884e-004 1.26264800e-004 5.53129008e-004
      2.90831365e-003 1.26282242e-003 1.82718111e-004 1.28746178e-004 0.
      0. 0. 0. 0. 0. 1.59833478e-004 4.02915408e-004 6.90649904e-004
      1.43891491e-003 1.66165188e-003 -3.92960588e-004 1.38865398e-005
      8.49752571e-004 2.77211686e-004 7.97866727e-004 2.57094717e-003
      1.71929703e-003 5.53444843e-004 -2.82812016e-005 0. 0. 0. 0. 0. 0.
      1.36088842e-004 -3.31375923e-004 3.42408166e-004 1.05710665e-003
      -7.44268240e-004 2.31551312e-004 1.09255069e-003 1.65142666e-003
      1.61533663e-003 9.08938528e-004 2.05868273e-003 1.50091387e-003
      4.54717199e-004 9.11476527e-005 0. 0. 0. 0. 0. 0. 4.64153163e-005
      -1.27275984e-004 -2.40918191e-004 6.92155154e-004 -3.79619625e-004
      5.89800882e-004 1.69311080e-003 1.47475488e-003 8.21201887e-004
      -2.27991710e-004 1.38802896e-003 4.88640391e-004 -2.33558530e-004
      -1.72109561e-004 0. 0. 0. 0. 0. 0. -1.15027062e-004
      -4.41416749e-004 -7.73864216e-004 1.91771222e-004 5.06468292e-004
      5.29494428e-004 9.93623282e-004 9.83120524e-004 3.21817643e-004
      -1.08652130e-004 4.60970274e-004 7.50274776e-005 -6.97502401e-005
      -5.31456135e-005 0. 0. 0. 0. 0. 0. 0. 0. 0. 0. 0. 0. 0. 0. 0. 0.
      0. 0. 0. 0. 0. 0. 0. 0. 0. 0. 0. 0. 0. 0. 0. 0. 0. 0. 0. 0. 0. 0.
      0. 0. 0. 0. 0. 0.</_>
    <_>
      0. 0. 0. 0. 0. 0. 0. 0. 0. 0. 0. 0. 0. 0. 0. 0. 0. 0. 0. 0. 0. 0.
      0. 0. 0. 0. 0. 0. 0. 0. 0. 0. 0. 0. 0. 0. 0. 0. 0. 0. 0. 0. 0.
      1.51730987e-004 1.02697340e-004 -1.60260970e-006 -1.45267586e-005
      4.93990483e-005 9.43019841e-005 3.31059156e-004 1.73583234e-004
      4.20946191e-004 1.80165502e-004 1.67935825e-004 2.14218686e-004
      1.41666678e-004 1.48009976e-005 7.40049882e-006 0. 0. 0. 0. 0.
      2.74295744e-004 3.45087028e-004 2.02184718e-004 -1.03505816e-004
      -2.68181902e-004 6.86351414e-005 -1.18210475e-004 -2.14489366e-004
      1.80417206e-004 -6.57287892e-005 -2.88955547e-004 1.67205595e-004
      5.29529934e-005 5.47442278e-006 1.61657572e-005 0. 0. 0. 0. 0.
      2.87390227e-004 4.69358551e-004 2.55812658e-004 -2.95195729e-004
      -1.93641041e-004 -1.22247247e-005 -4.96053137e-004 7.09565138e-005
      -8.48161435e-005 -4.12383706e-005 -3.35519726e-005 4.11117071e-004
      2.17596444e-005 -1.19865756e-004 2.02960618e-005 0. 0. 0. 0. 0.
      2.75476603e-004 3.23859043e-004 -2.55903324e-005 3.57440760e-004
      7.47612386e-004 5.49922290e-004 6.37126504e-004 1.98304566e-004
      4.21413977e-004 -2.41881440e-004 -2.21902679e-004 -1.70025596e-004
      2.09185280e-004 -4.45437945e-005 1.57784216e-005 0. 0. 0. 0. 0.
      2.73060141e-004 3.07448878e-004 7.73228676e-005 1.75919995e-004
      4.56364724e-005 1.71896536e-005 -3.47949317e-005 -3.54291296e-005
      4.16313997e-004 -1.43970406e-004 -1.95702291e-004 3.00021842e-004
      -3.72708309e-005 -1.54659632e-004 7.76028992e-006 0. 0. 0. 0. 0.
      1.86067526e-004 2.92558834e-004 3.53479845e-005 -3.07930575e-004
      -3.71432252e-004 -2.38558743e-004 -1.08077307e-004 2.12950792e-004
      1.33091613e-004 -1.84532691e-004 3.73527791e-006 2.11720879e-004
      1.19650476e-005 -2.26410950e-004 -2.72372330e-004 0. 0. 0. 0. 0.
      0. 1.52407112e-004 1.51970598e-005 -8.56805593e-004
      -7.02105695e-004 -1.08625903e-003 -1.07756595e-003
      -3.10957781e-004 -4.34575981e-004 5.11683756e-005 2.94678204e-004
      1.82098229e-005 -6.83910694e-005 -8.59703359e-005 -8.97139835e-005
      0. 0. 0. 0. 0. 0. 8.22247821e-005 -3.06145754e-004
      -9.92207555e-004 -1.13287091e-003 -1.45822729e-003
      -8.95084406e-004 -4.92622203e-004 -5.34730556e-004 1.23400241e-004
      3.62888444e-004 -1.19991864e-005 -7.08723974e-006 0. 0. 0. 0. 0.
      0. 0. -1.45314858e-004 -1.84916833e-004 -3.85241932e-004
      -8.63900001e-004 -1.32807216e-003 -1.92338091e-004 3.47943802e-004
      -5.74474281e-004 -1.22067030e-003 -7.53825938e-004
      -1.95964341e-004 1.29342603e-004 2.09448081e-006 0. 0. 0. 0. 0. 0.
      1.55142130e-004 -1.58005627e-004 -6.23813423e-004 -5.83260553e-004
      -3.76353069e-004 -1.38611969e-004 1.05302874e-003 8.04743613e-004
      -4.98089976e-005 -1.22060510e-003 -1.59260537e-003
      -8.83172965e-004 -7.39961324e-005 -1.12842929e-006
      -2.53043623e-007 0. 0. 0. 0. 0. -2.62449554e-004 -3.73589632e-004
      -3.79443489e-004 -2.01373390e-004 -3.90789210e-004
      -1.07724896e-004 8.77325656e-004 1.03669718e-003 3.75911564e-004
      -5.68651303e-004 -7.05153681e-004 -7.33396097e-004
      -1.00728554e-004 1.21265373e-004 -1.68695760e-006 0. 0. 0. 0. 0.
      -3.07013368e-004 -2.74165359e-004 2.31215061e-004 -1.61267144e-005
      -1.56564711e-004 2.80941662e-004 1.00496411e-003 4.92896361e-004
      2.86136579e-004 -5.79758023e-004 5.69200165e-006 -6.03284629e-004
      -1.39671509e-004 3.03033976e-005 -1.85565330e-006 0. 0. 0. 0. 0.
      -2.81493878e-004 -5.08951896e-004 -1.62504177e-004 4.03872371e-004
      -5.11457438e-005 5.92866563e-004 5.85474831e-004 1.45907077e-004
      8.72368691e-004 1.49600557e-004 3.06666072e-004 -4.36599279e-004
      -6.61492913e-006 3.49331749e-005 -1.77130539e-006 0. 0. 0. 0. 0.
      -7.29498206e-005 -1.37646311e-005 -2.07561156e-004 1.98586000e-004
      1.87264435e-004 -3.11039708e-004 8.32375314e-004 1.05130102e-003
      9.11843439e-004 9.95896058e-004 6.40825427e-004 -3.23425164e-004
      1.40169490e-004 1.15594747e-004 -1.43391389e-006 0. 0. 0. 0. 0.
      1.19379756e-005 6.54454416e-005 -7.96632448e-005 -1.34263551e-004
      1.62474404e-004 -4.94225300e-004 -2.16059751e-004 -8.93243778e-005
      1.10203997e-004 1.83537661e-004 3.03099892e-004 -2.35713233e-005
      -4.62727076e-005 1.98998459e-005 -1.68695763e-007 0. 0. 0. 0. 0.
      0. 2.49159780e-006 2.56514522e-006 1.71287815e-004 1.12515081e-004
      -2.49717123e-004 -3.48469388e-004 -1.93018772e-004 2.99445837e-005
      1.11028006e-004 1.48657229e-004 3.36091143e-005 -3.75556795e-007
      0. 0. 0. 0. 0. 0. 0. 0. 0. 0. 0. 0. 0. 0. 0. 0. 0. 0. 0. 0. 0. 0.
      0. 0. 0. 0. 0. 0. 0. 0. 0. 0. 0. 0. 0. 0. 0. 0. 0. 0. 0. 0. 0. 0.
      0.</_>
    <_>
      0. 0. 0. 0. 0. 0. 0. 0. 0. 0. 0. 0. 0. 0. 0. 0. 0. 0. 0. 0. 0. 0.
      0. 0. 0. 0. 0. 0. 0. 0. 0. 0. 0. 0. 0. 0. 0. 0. 0. 0. 0. 0. 0.
      1.92929816e-004 1.12155023e-004 -8.32731093e-005 -2.87002709e-004
      5.27021111e-005 1.76028698e-004 3.53670650e-004 2.31869068e-004
      3.50580638e-004 -8.17710970e-005 1.73269102e-004 3.87075124e-005
      -6.09557137e-005 -5.94651829e-005 -6.79162167e-006 0. 0. 0. 0. 0.
      3.49111098e-004 3.94352159e-004 1.99880349e-004 2.14074797e-004
      9.91127745e-005 2.56164640e-004 5.58612635e-004 8.03676259e-004
      8.17134569e-004 2.34169449e-004 3.93066759e-004 -1.45253740e-004
      -9.28578083e-005 1.19228360e-004 3.50604751e-005 0. 0. 0. 0. 0.
      3.64422973e-004 5.24208008e-004 5.68140007e-004 8.80162115e-004
      2.33855520e-004 2.04715383e-004 6.18846156e-004 8.08046549e-004
      6.11740572e-004 5.12730971e-004 1.73795615e-005 2.60753004e-005
      1.31233464e-004 2.82923284e-004 8.86245907e-005 0. 0. 0. 0. 0.
      3.49111098e-004 4.82254371e-004 8.05069925e-004 1.24096009e-003
      5.43067988e-004 -1.61476564e-004 4.93977859e-004 -3.38694343e-004
      2.56969477e-004 1.95034372e-004 1.02868173e-004 2.61306443e-004
      4.25449456e-004 4.43278783e-004 1.09067427e-004 0. 0. 0. 0. 0.
      3.46048706e-004 4.52601438e-004 6.90278481e-004 9.66825231e-004
      8.97895428e-004 2.35133441e-004 -2.65572889e-004 -1.03723234e-003
      -4.86591598e-004 -7.71093066e-004 1.43033467e-004 3.70219146e-004
      4.15337505e-004 5.07987919e-004 2.06003853e-004 0. 0. 0. 0. 0.
      2.35803105e-004 4.05225001e-004 4.80301969e-004 5.21050417e-004
      4.64167475e-004 -1.03724749e-004 -2.41339992e-004 -7.26795406e-004
      -2.22200921e-004 -2.88391486e-004 1.45815487e-004 6.29442802e-004
      6.57283701e-004 4.35896596e-004 1.91384621e-004 0. 0. 0. 0. 0.
      -3.50528389e-005 1.40325777e-004 7.72465646e-005 -1.34625821e-004
      -3.67682987e-005 -1.04554085e-004 -7.20982789e-004
      -1.29827834e-003 -5.51291887e-005 6.97744326e-005 5.84522277e-005
      6.89081789e-004 5.29027602e-004 2.30312959e-004 5.78158069e-005 0.
      0. 0. 0. 0. -5.60845401e-005 1.40504359e-004 6.11645664e-005
      -7.10106047e-004 -6.28591864e-004 -1.31481866e-004
      -6.96027419e-004 -7.43441866e-004 6.16774996e-005 -7.30328102e-005
      -2.15112057e-004 3.23948247e-004 9.41933977e-005 5.10192694e-005
      5.82479697e-006 0. 0. 0. 0. 0. -6.38740603e-005 1.61165852e-004
      5.37442902e-005 -1.18659763e-003 -8.44884140e-004 2.31114434e-004
      2.95654056e-004 -3.83717794e-004 -6.12751814e-004 -5.79664600e-004
      -3.69704940e-004 -1.10789835e-004 -2.34528430e-004
      -1.45506070e-004 0. 0. 0. 0. 0. 5.60653280e-005 -7.24812571e-006
      -1.62054028e-004 -3.20785330e-004 -3.57331970e-004
      -4.48237333e-005 -2.02434036e-004 9.84645594e-005 -1.06387003e-003
      -1.56908657e-003 -1.07845478e-003 -6.33034215e-004
      -3.81631544e-004 -3.24654015e-004 -1.13931594e-004 0. 0. 0. 0. 0.
      1.65438669e-005 -1.02830534e-004 -2.92168814e-004 -2.62330548e-004
      1.95599481e-004 3.60288941e-005 -3.29599046e-004 5.53886348e-004
      -3.25139961e-004 -8.86159949e-004 -6.29137445e-004
      -4.82881645e-004 -9.55145661e-005 -1.02321530e-004
      -1.10881942e-004 -9.34742366e-006 0. 0. 0. 0. 5.38951172e-005
      1.12113768e-004 1.93145424e-005 1.85807039e-005 -6.37046542e-005
      3.02564265e-004 1.35379378e-003 7.95737316e-004 -1.59054413e-004
      -1.04048755e-003 -3.07862501e-004 -5.49133576e-004
      -2.70155084e-004 -1.94642038e-004 -1.76368776e-004
      -7.08846273e-005 0. 0. 0. 0. 9.01012470e-007 -7.00139790e-005
      -8.60670698e-005 2.18119530e-004 5.01396833e-004 1.00053861e-004
      1.14899594e-003 8.10082129e-004 3.52798263e-004 -2.30435471e-004
      -2.32401362e-004 -4.11324640e-004 -7.62891665e-004
      -2.57845182e-004 -1.89369588e-004 -9.42531842e-005 0. 0. 0. 0.
      -1.92136049e-005 6.53795496e-006 -2.14150175e-004 -7.61651681e-005
      3.75064410e-004 1.13289178e-004 2.10775717e-004 1.68696832e-004
      -8.73793688e-005 1.79241979e-004 -1.81632895e-005 -2.93312478e-004
      -4.18253156e-004 -1.42373174e-004 -5.84827067e-005
      -3.19370301e-005 0. 0. 0. 0. -5.55941879e-005 -5.56612249e-005
      -4.91721148e-005 -2.61303619e-004 1.16266041e-004 3.20464693e-004
      5.26303018e-004 4.88177553e-004 1.63701450e-004 -2.72734353e-004
      -9.17358047e-005 -4.86164645e-004 -3.78610916e-004
      -1.92310632e-004 -1.68653278e-005 0. 0. 0. 0. 0. -4.59581643e-005
      -9.50321410e-005 -8.88124341e-005 8.84109540e-005 6.66190317e-005
      4.79581322e-005 1.30802509e-004 1.04199527e-004 5.64517541e-005
      -2.63689944e-005 9.85232837e-005 -2.09491845e-004 -1.82220989e-004
      -8.28782213e-005 -7.58939768e-006 0. 0. 0. 0. 0. 0. 0. 0. 0. 0. 0.
      0. 0. 0. 0. 0. 0. 0. 0. 0. 0. 0. 0. 0. 0. 0. 0. 0. 0. 0. 0. 0. 0.
      0. 0. 0. 0. 0. 0. 0. 0. 0. 0.</_>
    <_>
      0. 0. 0. 0. 0. 0. 0. 0. 0. 0. 0. 0. 0. 0. 0. 0. 0. 0. 0. 0. 0. 0.
      0. 0. 0. 0. 0. 0. 0. 0. 0. 0. 0. 0. 0. 0. 0. 0. 0. 0. 0. 0. 0.
      2.12083352e-004 1.40443677e-004 -7.59104514e-005 -2.59661669e-004
      -1.36935720e-004 -5.43895840e-005 1.96878595e-004 -3.24287139e-005
      5.95901693e-005 3.03075067e-005 1.40106393e-004 1.01327605e-004
      1.00986930e-004 2.05288998e-005 1.02644499e-005 0. 0. 0. 0. 0.
      3.30091774e-004 3.50190880e-004 1.83809301e-004 -2.05034725e-004
      -5.96279628e-004 -6.24937762e-004 -2.43303148e-004 3.77298071e-004
      4.72305255e-004 6.77101547e-004 3.21956526e-004 -1.28157029e-004
      9.52064220e-005 9.97324332e-006 -3.48959693e-005 0. 0. 0. 0.
      2.65865333e-006 2.99024570e-004 3.52868752e-004 -1.84737044e-004
      -3.28049238e-004 -9.81288496e-004 -2.23476927e-005 1.69012565e-004
      3.76890443e-004 3.54628384e-007 7.42060307e-004 2.47871300e-004
      1.19199889e-004 1.20923600e-004 -8.06357857e-005 -5.36251428e-005
      0. 0. 0. 0. 7.97596022e-006 4.68626880e-004 7.18407216e-004
      8.18536559e-004 4.98246867e-004 5.03223797e-004 6.32499345e-004
      6.12497272e-004 2.36791730e-005 -1.12249319e-004 -9.49110472e-005
      1.98932408e-004 1.19120326e-004 2.02949290e-004 1.46864140e-005
      7.79092588e-005 0. 0. 0. 0. 3.98798011e-006 4.21211676e-004
      7.15004513e-004 9.46886954e-004 3.45136534e-004 2.97693914e-004
      -2.30958045e-004 1.00024510e-004 -3.45060980e-004 -2.55148829e-004
      6.57731725e-004 -1.16135983e-004 -1.66691156e-004 -6.01792417e-005
      2.26712989e-004 1.54925321e-004 0. 0. 0. 0. 7.31129694e-006
      2.92988290e-004 6.06720743e-004 5.84625232e-004 1.28670406e-004
      1.83335680e-004 -9.69732064e-004 -6.76547061e-005 8.32070509e-005
      5.84872207e-004 8.31235549e-004 -1.14570714e-004 2.52251077e-004
      -1.21975281e-004 -4.25296857e-005 1.04305997e-004 0. 0. 0. 0. 0.
      -4.46298600e-006 2.80128792e-004 -1.58586583e-004 -5.54536993e-004
      -4.18201729e-004 -1.60243490e-003 -1.14379777e-003
      -6.07356313e-004 4.06193751e-004 -8.36652995e-004 4.18328891e-005
      4.30631917e-004 1.89130762e-004 -1.46283084e-004 9.22585023e-005
      0. 0. 0. 0. -2.13851422e-006 -6.13660586e-006 2.78898224e-004
      -4.94322681e-004 -1.04783732e-003 -1.15814758e-003
      -1.99324405e-003 -3.73018527e-004 -4.87121782e-004
      -6.20384002e-004 -5.28919743e-004 -2.19706126e-004 1.82969219e-004
      1.16154166e-004 -2.70193093e-004 -1.02222468e-004 0. 0. 0. 0.
      -2.13851422e-006 -6.22958487e-006 3.44058644e-004 -3.87338921e-004
      -1.02904218e-003 -1.14193663e-003 -5.56994288e-004 6.35898090e-004
      -4.18668642e-004 -1.03784422e-003 -8.55524035e-004
      -5.96188358e-004 -7.13327085e-004 -2.43644201e-004
      -5.45758412e-005 3.29322370e-006 0. 0. 0. 0. 1.11361958e-004
      1.14154907e-004 8.41783840e-005 -6.03457622e-004 -3.52979376e-004
      -4.16179362e-004 4.20934637e-004 1.56460027e-003 2.73697544e-004
      -9.97418887e-004 -1.42208324e-003 -8.82346416e-004
      -9.79242730e-004 -4.47976345e-004 8.55004691e-006 0. 0. 0. 0. 0.
      3.28609058e-005 7.27269362e-005 1.31987777e-004 -2.89956544e-004
      1.56759736e-004 -7.01264304e-004 6.71474190e-005 1.02892052e-003
      4.45556710e-004 -2.20234855e-004 -8.96970450e-004 -9.65087500e-004
      -6.56259013e-004 -4.30983840e-004 -1.28216721e-004 0. 0. 0. 0. 0.
      7.39886746e-005 2.65960203e-004 4.00524914e-005 -3.28965325e-005
      7.57311296e-004 -5.08164476e-006 7.48758612e-004 3.51772294e-004
      6.08025934e-004 -4.03162645e-004 -2.46012933e-004 -7.76753994e-004
      -4.85611672e-004 -3.84164829e-004 -1.04740924e-004 0. 0. 0. 0. 0.
      -6.38181609e-006 6.34654134e-005 5.12362640e-005 3.16881516e-004
      3.77519580e-004 3.47444788e-004 4.23518708e-004 -1.63227262e-004
      7.41274795e-004 2.64190079e-004 -3.59767058e-004 -3.95221054e-004
      -4.90504084e-004 -1.52053486e-004 -1.36994320e-004
      -2.09355658e-005 0. 0. 0. 0. -1.07559235e-005 3.37855272e-005
      -1.61092074e-004 -1.57056420e-004 -7.89137857e-007 9.76753436e-005
      3.13195400e-004 2.15391381e-004 1.02906677e-004 -1.25530350e-004
      -2.54903116e-005 -3.97006370e-004 -1.82968579e-004 2.43060913e-005
      -4.02924452e-005 -6.97852238e-006 0. 0. 0. 0. -1.20023076e-004
      -2.77745887e-004 -1.01055477e-004 -3.35703982e-004
      -5.50088735e-005 2.74712715e-004 -4.07677842e-004 -1.10023262e-004
      2.13242980e-004 5.22875343e-004 4.83235723e-004 1.14735085e-005
      3.44507571e-005 3.22060296e-005 0. 0. 0. 0. 0. 0. 4.01984180e-005
      4.93207153e-005 8.15326202e-005 6.54654796e-005 6.43995954e-005
      -2.80432228e-004 -2.24749980e-004 1.21293378e-004 4.56950918e-004
      7.37613009e-004 6.89929002e-004 2.14666987e-004 6.97065698e-005
      3.34811084e-005 0. 0. 0. 0. 0. 0. 0. 0. 0. 0. 0. 0. 0. 0. 0. 0. 0.
      0. 0. 0. 0. 0. 0. 0. 0. 0. 0. 0. 0. 0. 0. 0. 0. 0. 0. 0. 0. 0. 0.
      0. 0. 0. 0. 0.</_>
    <_>
      0. 0. 0. 0. 0. 0. 0. 0. 0. 0. 0. 0. 0. 0. 0. 0. 0. 0. 0. 0. 0. 0.
      0. 0. 0. 0. 0. 0. 0. 0. 0. 0. 0. 0. 0. 0. 0. 0. 0. 0. 0. 0. 0.
      1.29701089e-004 4.18412383e-005 -2.51052370e-005 3.19535525e-006
      -5.25299438e-005 4.89135273e-005 3.38407226e-005 -3.21511216e-005
      5.43161732e-005 9.50297035e-005 5.78625186e-005 7.73841894e-005
      4.69753068e-005 -2.46031414e-005 0. 0. 0. 0. 0. 0. 2.30748788e-004
      2.23582814e-004 1.09885645e-004 -1.73717548e-004 -1.84753299e-004
      1.96800116e-004 -3.42300737e-005 6.52111994e-005 -1.32018104e-004
      1.03103361e-004 -4.34642279e-004 -3.29277420e-004 -4.96407047e-005
      8.19584020e-005 -4.95872064e-006 0. 0. 0. 0. 0. 1.42667515e-004
      1.34956033e-004 1.15879724e-004 -1.93080137e-004 -4.99099900e-004
      -6.78434299e-005 1.22951940e-004 2.91790707e-006 -1.28108615e-004
      4.69512270e-005 -7.74837041e-004 -3.51767638e-004 2.88968768e-005
      1.08221764e-004 -7.86945748e-006 0. 0. 0. 0. 0. 4.49075342e-005
      4.31395310e-005 -7.89835904e-005 -1.14493509e-004 1.13301001e-004
      2.89580523e-004 1.59711781e-004 -1.86309422e-004 -1.53201370e-004
      -2.44276453e-004 -7.98969704e-004 -4.56014241e-004
      -7.12235624e-006 -6.10042734e-005 -1.19801962e-005 0. 0. 0. 0.
      -1.59230021e-005 -1.13769507e-004 -4.44535181e-005 9.60598700e-005
      -2.37469299e-004 -3.95999990e-007 -5.06631077e-005 3.58360958e-005
      -5.94656631e-005 -3.67295084e-004 1.67677994e-004 -2.10568905e-004
      -4.70244959e-005 1.32626228e-004 7.52672531e-006 -6.31447529e-006
      0. 0. 0. 0. -5.26343683e-005 -2.42911585e-004 -1.31458364e-004
      -2.13307314e-004 -5.80204825e-004 -5.55174425e-004
      -2.78868742e-004 -2.54311435e-005 1.56594673e-004 2.89139163e-004
      5.54339844e-004 3.61374376e-004 4.54543951e-005 -1.40360804e-004
      4.12351037e-005 0. 0. 0. 0. 0. -1.18778255e-004 -5.08825993e-004
      -4.20135591e-004 -5.61409746e-004 -8.68759409e-004
      -6.30546245e-004 -4.99992049e-004 -1.14879695e-004 3.73136194e-004
      8.17385968e-004 1.18410797e-003 6.70976122e-004 3.28021997e-004
      -6.94737973e-005 -3.14036988e-005 0. 0. 0. 0. 0. -1.36630784e-004
      -5.41982823e-004 -6.10136893e-004 -5.99809457e-004
      -8.91102420e-004 -5.96673868e-004 -3.74856645e-005 5.35420782e-004
      1.00064150e-003 1.08309207e-003 8.36997060e-004 4.55473084e-004
      1.92307954e-004 1.80285333e-005 0. 0. 0. 0. 0. 0. -1.41568336e-004
      -7.11129687e-004 -9.82202473e-004 -5.94688754e-004
      -1.02974894e-003 -9.89423250e-004 8.32337711e-004 1.34930725e-003
      4.59576288e-004 5.81458444e-004 5.79190324e-004 4.13126341e-004
      1.48820516e-004 2.57550482e-006 0. 0. 0. 0. 0. 0. 9.80116747e-005
      -4.19456774e-004 -8.33495404e-004 -5.80033113e-004
      -8.88435228e-004 -5.33432001e-004 7.18335737e-004 1.03862968e-003
      6.80704426e-004 3.50677728e-004 3.22798092e-004 3.82374739e-004
      1.94098946e-004 0. 0. 0. 0. 0. 0. 0. -9.72326234e-005
      -5.46106196e-004 -5.67373354e-004 -4.59383969e-004
      -7.67348218e-004 -5.61124529e-004 2.60013650e-004 8.53726116e-004
      6.66650070e-004 6.77130229e-005 2.56813189e-004 2.77345447e-004
      2.52134167e-004 -6.23541837e-007 -4.36360533e-005 0. 0. 0. 0. 0.
      -1.37699435e-005 -5.40937879e-004 -5.25750103e-004
      -2.97152437e-004 -2.94509373e-004 -3.10877425e-004
      -1.01868209e-004 7.07059662e-005 3.54167743e-004 -1.86419842e-004
      -7.70138577e-005 -5.98235056e-005 -1.57081777e-005
      -1.85821700e-004 -8.59498032e-005 0. 0. 0. 0. 0. -2.53764629e-005
      -3.11768701e-004 -2.49613280e-004 1.62226643e-004 1.15954108e-005
      -1.66999598e-005 8.53727488e-006 -1.00627636e-004 3.59907455e-004
      2.56337749e-004 -3.95041570e-006 9.02866232e-005 1.27500116e-005
      -2.08417099e-004 -7.40490577e-005 0. 0. 0. 0. 0. 2.46123618e-005
      -5.94578887e-005 7.65385412e-005 4.33993962e-004 -2.20910544e-004
      1.23734178e-004 4.07690794e-004 2.09093574e-004 6.26067340e-004
      1.86697900e-004 2.18161207e-004 4.21358782e-005 3.62233441e-005
      -5.78344179e-006 -7.93382787e-006 0. 0. 0. 0. 0. 1.42202462e-005
      -1.06469925e-004 -9.81922767e-006 3.77172342e-004 -3.84391897e-005
      -3.56585806e-004 -3.62101098e-004 -3.10320989e-004
      -6.17633486e-005 -8.56413135e-006 6.11764030e-004 1.95864370e-004
      -4.32284178e-005 2.57399915e-006 0. 0. 0. 0. 0. 0. 0.
      -2.80228724e-005 -5.01894610e-005 -3.60220583e-005
      -1.47431449e-004 -1.26130893e-004 -1.03109371e-004
      -2.10422713e-005 1.85905956e-004 1.45359343e-004 7.01392710e-005
      5.02078437e-005 0. 0. 0. 0. 0. 0. 0. 0. 0. 0. 0. 0. 0. 0. 0. 0. 0.
      0. 0. 0. 0. 0. 0. 0. 0. 0. 0. 0. 0. 0. 0. 0. 0. 0. 0. 0. 0. 0. 0.
      0. 0. 0. 0. 0. 0. 0.</_>
    <_>
      0. 0. 0. 0. 0. 0. 0. 0. 0. 0. 0. 0. 0. 0. 0. 0. 0. 0. 0. 0. 0. 0.
      0. 0. 0. 0. 0. 0. 0. 0. 0. 0. 0. 0. 0. 0. 0. 0. 0. 0. 0. 0. 0.
      2.05795339e-004 5.31517508e-005 -1.55712289e-004 -2.81729153e-004
      -4.67440055e-004 -1.09660345e-004 3.56426026e-004 -1.83594821e-004
      -7.61749470e-005 4.99993475e-005 2.78173218e-004 3.70451133e-004
      1.47391940e-004 8.16326137e-005 4.08163069e-005 0. 0. 0. 0.
      -5.74088008e-005 3.17319762e-004 3.19100567e-004 -4.83589574e-005
      -8.33134909e-005 -5.90774813e-004 -2.12804021e-004
      -1.04447216e-004 -1.64470272e-004 -9.50138274e-005 4.57989576e-004
      3.36542755e-004 3.26362177e-004 3.93320370e-004 3.03198089e-004
      -5.73802536e-005 0. 0. 0. 0. -8.03723233e-005 2.79813510e-004
      7.92267529e-005 -1.86016056e-004 -4.66209429e-004 -1.16153515e-003
      -5.82666893e-004 -7.08648178e-004 4.49660038e-005 -1.30511718e-004
      6.06696354e-004 4.59529721e-004 2.18965171e-004 1.94430628e-004
      1.95997840e-004 -8.06463595e-006 0. 0. 0. 0. 0. 4.06051608e-004
      7.04944832e-004 5.79810643e-004 -3.04765330e-004 4.02219506e-004
      5.24278847e-004 7.12659967e-004 -2.42579001e-004 -4.00228280e-004
      4.76593035e-004 2.15895663e-004 -1.67804155e-005 1.91851330e-004
      2.52433238e-004 2.31896367e-004 0. 0. 0. 0. 0. 5.36635634e-004
      9.92493238e-004 7.55997433e-004 4.80673916e-004 2.61143083e-004
      1.33274458e-004 2.25874901e-004 -2.46258074e-004 -6.25712972e-004
      1.86107936e-004 3.19836399e-005 1.11417678e-004 2.57674201e-005
      3.31039599e-004 3.25792324e-004 0. 0. 0. 0. 0. 2.12793559e-004
      7.14779075e-004 4.05560160e-004 8.19640554e-005 -1.57905652e-005
      -4.61143936e-004 -6.61609811e-004 -1.99944232e-004
      -1.14118600e-004 -5.94944831e-005 -1.32109009e-004 1.26553103e-004
      -3.83099905e-005 2.20303409e-004 1.39335418e-004 0. 0. 0. 0. 0.
      -9.87431413e-005 -3.27390662e-005 -7.54543755e-004
      -7.44047808e-004 -6.21365325e-004 -1.14753156e-003
      -4.66958067e-004 4.20456090e-005 3.30381969e-004 8.27288022e-005
      -3.98191005e-005 -2.55966384e-004 -3.74592695e-004 4.96597113e-006
      1.02231228e-004 0. 0. 0. 0. 0. -4.24825121e-005 -4.21339268e-004
      -1.32701022e-003 -9.00511979e-004 -1.32126908e-003
      -1.31605356e-003 6.94969727e-004 9.88116604e-004 6.88429980e-004
      7.12439287e-005 -3.36905447e-004 -1.09888369e-003 -5.59778418e-004
      -1.85651916e-005 2.52468744e-005 0. 0. 0. 0. 0. -3.55934571e-005
      -5.23705094e-004 -1.24706363e-003 -6.70550449e-004
      -1.39625021e-003 4.18125797e-004 1.87297724e-003 6.72790979e-004
      4.72908461e-004 -2.63526192e-004 -4.02474834e-004 -8.31541023e-004
      -3.75556556e-004 -1.73425244e-004 -2.69175944e-004 0. 0. 0. 0.
      2.04715732e-004 1.57286384e-004 -8.23666516e-004 -1.60503434e-003
      -9.15499186e-005 -6.55175594e-004 3.94205097e-004 1.57409557e-003
      4.39285737e-004 -5.09907084e-004 -6.96907635e-004 -9.59048339e-004
      -7.14991242e-004 -3.10415169e-004 -1.35279741e-004
      -2.50180310e-004 0. 0. 0. 0. 6.04079214e-005 2.19758702e-004
      -5.79650339e-004 -1.13026204e-003 -2.28691191e-004
      -3.64986801e-004 3.38929240e-005 1.52071775e-003 8.81215616e-004
      -4.20250399e-005 -2.17962108e-004 -4.10972891e-004
      -1.89421335e-004 -5.21797629e-005 -3.06282716e-004
      -2.02435971e-004 0. 0. 0. 0. 1.22493846e-004 -1.27355786e-004
      -5.13408624e-004 -5.49699413e-004 4.25839717e-005 3.18804377e-004
      3.68420471e-004 4.84522083e-004 4.90959676e-004 -4.96401044e-004
      5.46151481e-004 -2.38827357e-004 -2.57021107e-004 -2.65280454e-004
      -3.36026773e-004 -6.49322901e-005 0. 0. 0. 0. 8.88122377e-005
      2.74104590e-004 1.12648886e-004 2.47010612e-004 4.56651789e-004
      1.13699655e-003 2.62465066e-004 -4.24645434e-004 3.42688756e-004
      1.92815773e-004 6.84439205e-004 -1.67143357e-004 1.01961028e-004
      -2.72151519e-004 -2.32992345e-004 0. 0. 0. 0. 0. 9.63010243e-005
      4.51512460e-004 -1.69314182e-004 4.49701765e-004 -1.16067808e-004
      4.58386930e-004 -3.62299397e-005 -3.86887114e-004 7.10907741e-004
      7.90104095e-004 -1.07438987e-004 1.34010261e-004 2.48038967e-004
      -1.44214515e-004 -1.12676622e-004 0. 0. 0. 0. 0. -1.76934282e-005
      -2.78316584e-004 -1.83475684e-004 -7.72948726e-004
      -7.76505505e-004 -1.66707832e-004 2.33760526e-004 1.86988051e-004
      4.46597725e-004 4.25386184e-004 3.71020113e-004 1.19250362e-004
      8.48621039e-006 -1.83591310e-005 0. 0. 0. 0. 0. 0. 1.10464898e-004
      1.63763925e-005 2.23471710e-004 2.20374612e-004 5.74141013e-005
      9.96091985e-005 2.65474887e-006 1.04062659e-004 7.09156040e-004
      9.11021489e-004 8.14090250e-004 2.43558039e-004 2.30379082e-004
      1.75782305e-004 0. 0. 0. 0. 0. 0. 0. 0. 0. 0. 0. 0. 0. 0. 0. 0. 0.
      0. 0. 0. 0. 0. 0. 0. 0. 0. 0. 0. 0. 0. 0. 0. 0. 0. 0. 0. 0. 0. 0.
      0. 0. 0. 0. 0.</_>
    <_>
      0. 0. 0. 0. 0. 0. 0. 0. 0. 0. 0. 0. 0. 0. 0. 0. 0. 0. 0. 0. 0. 0.
      0. 0. 0. 0. 0. 0. 0. 0. 0. 0. 0. 0. 0. 0. 0. 0. 0. 0. 0. 0. 0.
      1.70093175e-004 1.18795229e-004 6.00087105e-006 -3.66715176e-005
      -1.70681451e-004 -1.29761920e-005 1.14733804e-004 1.25845603e-004
      4.48041188e-004 4.18622134e-004 2.37925560e-004 -6.04930428e-005
      -1.09103363e-004 -1.24265091e-004 -8.10951897e-005 0. 0. 0. 0. 0.
      1.61429591e-004 1.79105002e-004 3.14911704e-005 -9.53664130e-005
      7.87048775e-005 8.11552163e-004 5.88113442e-004 5.29552868e-004
      8.54458718e-004 6.15456025e-004 -1.86951569e-004 -2.59112217e-004
      -4.17810843e-005 -2.67261676e-005 -9.48971356e-005 0. 0. 0. 0. 0.
      2.19649562e-004 2.16117362e-004 1.33030757e-004 -3.09532224e-005
      1.42981226e-004 8.74754216e-004 5.84217429e-004 5.15569816e-004
      5.88213792e-004 3.45741777e-004 -3.64724663e-004 -3.91146859e-005
      3.40277707e-004 8.36143954e-005 -4.84679686e-006 0. 0. 0. 0. 0.
      3.12525168e-004 3.06492933e-004 2.65191164e-004 4.95582004e-004
      6.89747336e-004 1.02741935e-003 8.22809408e-004 4.57535265e-004
      2.40227513e-004 3.92221409e-004 -9.97297866e-006 7.36179063e-005
      4.57616174e-004 2.67627445e-004 7.95663072e-005 0. 0. 0. 0. 0.
      2.70319550e-004 4.78027912e-004 5.72874094e-004 4.86507255e-004
      8.24886549e-004 7.26036786e-004 6.72697133e-005 -1.35256822e-004
      -2.70661316e-004 -1.97963673e-004 -1.10019748e-004 1.18608434e-004
      4.48847801e-004 3.64346517e-004 8.67190101e-005 0. 0. 0. 0. 0.
      3.85820276e-005 4.76838468e-004 7.07397819e-004 2.30007325e-004
      -3.60831531e-004 3.03315755e-004 -1.24347687e-004 -4.19272837e-004
      -9.18096281e-004 -5.83541812e-004 4.29731532e-004 3.61562619e-004
      3.89813737e-004 2.48221098e-004 7.21959950e-005 0. 0. 0. 0. 0.
      -1.46358056e-004 8.44135211e-005 -1.59528236e-006 -7.61652831e-004
      -7.26967002e-004 -1.45435974e-004 -5.90736221e-004
      -3.49293667e-004 -4.50342253e-004 4.61911957e-004 2.42281414e-004
      1.14847171e-004 3.16376740e-004 1.86928883e-004 -1.59386673e-005
      0. 0. 0. 0. 0. -2.44837374e-005 9.94354268e-005 -8.10509257e-004
      -1.23883248e-003 -1.01285276e-003 -5.15580177e-004
      -3.33038217e-004 -2.74719758e-004 -9.35109056e-005 6.53740572e-005
      -2.73496145e-004 -2.68971169e-004 -2.13152180e-005 4.73493928e-005
      1.16117394e-006 0. 0. 0. 0. -2.19355225e-005 -1.08474895e-004
      -4.16996598e-004 -6.27773930e-004 -1.25940866e-003
      -9.10310773e-004 6.72789116e-004 1.39502715e-003 2.19356327e-004
      1.37193987e-004 -7.51412474e-004 -3.84020386e-004 -4.19242075e-004
      -1.91803527e-004 0. 0. 0. 0. 0. 0. 1.91927000e-004
      -4.73420405e-005 -6.91102643e-004 -7.66876561e-004
      -7.19620672e-004 -3.85747349e-004 1.38341216e-003 4.92880412e-004
      -4.25943108e-005 -8.12320213e-004 -3.76022595e-004
      -5.07636345e-004 -4.43476805e-004 -2.21060327e-004 0. 0. 0. 0. 0.
      0. 4.17602314e-005 -3.85839754e-004 -9.46474087e-004
      -4.90467704e-004 -7.63457385e-004 -3.81209800e-004 4.27283114e-004
      8.03347619e-004 2.86030729e-004 -8.75243393e-004 -3.81348713e-004
      -4.35685361e-004 -1.09320288e-004 -2.17718878e-007 0. 0. 0. 0. 0.
      0. -1.79551025e-005 -2.49259145e-004 -6.97837735e-004
      -3.24128254e-004 -5.28710021e-004 -5.13965788e-004 1.37758063e-004
      2.57949578e-004 1.47550410e-004 -7.49552739e-004 -4.96243483e-005
      -2.85541289e-004 -4.10987377e-005 -7.96402237e-005 0. 0. 0. 0. 0.
      0. 1.14650838e-005 -4.33416571e-005 4.75911183e-005
      2.73305428e-004 -1.60276250e-004 -1.08212989e-004 -5.51104604e-004
      -8.32833102e-005 5.72363133e-005 -2.83171630e-005 3.62459949e-004
      8.66854243e-005 2.46377633e-004 2.89397012e-005 0. 0. 0. 0. 0. 0.
      -5.02959629e-005 -2.21985811e-005 1.88880425e-004 4.04153427e-004
      1.38034287e-004 -3.46913177e-004 -1.52709370e-004 1.47397106e-004
      4.41025011e-004 2.79216125e-004 -3.92267029e-005 -1.24657003e-004
      3.28587572e-004 1.22044825e-004 0. 0. 0. 0. 0. 0. -1.83751854e-005
      -1.50703854e-004 -2.00633702e-004 1.76150555e-004 -2.88415584e-004
      -6.62175531e-004 -3.86537664e-004 -1.18955832e-004 1.04855368e-004
      3.05493741e-004 1.60461259e-005 -2.28735415e-004 -1.32200585e-004
      7.58816304e-006 0. 0. 0. 0. 0. 0. 0. -3.43096399e-005
      -6.03079825e-005 -1.38857531e-005 -2.88358802e-004
      -4.55340603e-004 -3.77403223e-004 -3.21832667e-005 2.15535329e-004
      3.31436924e-004 2.90457101e-005 -1.13766931e-004 -1.85638739e-004
      -3.61263228e-005 0. 0. 0. 0. 0. 0. 0. 0. 0. 0. 0. 0. 0. 0. 0. 0.
      0. 0. 0. 0. 0. 0. 0. 0. 0. 0. 0. 0. 0. 0. 0. 0. 0. 0. 0. 0. 0. 0.
      0. 0. 0. 0. 0. 0.</_>
    <_>
      0. 0. 0. 0. 0. 0. 0. 0. 0. 0. 0. 0. 0. 0. 0. 0. 0. 0. 0. 0. 0. 0.
      0. 0. 0. 0. 0. 0. 0. 0. 0. 0. 0. 0. 0. 0. 0. 0. 0. 0. 0. 0. 0.
      1.63763019e-004 2.18480054e-005 -1.49264553e-004 -1.07311927e-004
      1.54642417e-004 2.59223802e-004 3.76810000e-004 4.70356288e-004
      1.34919959e-004 -2.96031121e-005 1.58625407e-004 4.25044622e-004
      2.09878475e-004 7.22916138e-006 0. 0. 0. 0. 0. -1.01469552e-004
      1.45754573e-004 1.52099499e-004 9.98272153e-005 8.50534925e-005
      5.71507053e-006 1.69935942e-004 3.40865081e-004 6.35419492e-005
      -3.00029962e-004 -2.55519029e-004 -2.69670534e-004 3.36989615e-004
      5.65126502e-005 -1.20142540e-005 -2.43700852e-005 0. 0. 0. 0.
      -7.02481484e-005 8.05993477e-005 2.95436213e-004 -4.33838359e-005
      -2.80187785e-004 -2.86065886e-004 -7.68118072e-004
      -6.94603485e-004 5.33918268e-004 -3.34093405e-004 3.84144769e-005
      -3.31268413e-004 1.64858473e-004 -2.00032737e-004 -2.67098629e-004
      -6.70648442e-005 0. 0. 0. 0. 1.53303642e-006 1.38208648e-004
      3.41800129e-004 5.63172391e-004 8.74519697e-004 7.06286577e-004
      9.05180568e-005 -2.15279520e-004 5.50236364e-005 -2.34458115e-004
      3.34407378e-004 -5.07600838e-004 3.67131113e-004 2.15915919e-004
      -1.27421503e-004 -6.54767136e-005 0. 0. 0. 0. 8.50138349e-006
      2.52740661e-004 4.52943728e-004 5.56156272e-004 4.80410323e-004
      1.56627386e-004 1.95460438e-004 -1.80596209e-004 -4.26206301e-004
      2.29180063e-004 1.05152454e-003 3.82346218e-004 5.62091125e-004
      3.71641712e-004 1.42875782e-004 -1.08719860e-005 0. 0. 0. 0.
      1.11493557e-006 2.20624046e-004 2.74473772e-004 8.46249095e-005
      3.96463583e-005 -3.15401092e-004 -6.42205705e-004 -6.29967370e-004
      -6.28290465e-004 5.38177672e-004 9.18971898e-004 6.37154677e-004
      7.68282975e-004 4.57312854e-004 1.06659449e-004 2.09265199e-005 0.
      0. 0. 0. 0. 0. -3.78081313e-005 -6.35037359e-005 -8.91416785e-005
      -7.94758089e-004 -2.09397799e-003 -1.49071286e-003
      -1.12460449e-003 1.59124829e-004 1.32645608e-003 9.65168874e-004
      4.75407665e-004 6.04576744e-005 1.00209560e-004 3.42433941e-006 0.
      0. 0. 0. 0. 0. -3.40662482e-005 -2.68075528e-004 -7.92511913e-004
      -1.79227337e-003 -2.34923628e-003 -1.10454415e-003
      -1.34526554e-003 -5.30246878e-004 4.69492137e-004 4.29458523e-005
      -2.84682261e-004 5.89442643e-005 1.52192865e-006 0. 0. 0. 0. 0. 0.
      0. 2.81633038e-005 -2.43437258e-004 -1.28875289e-003
      -1.73607247e-003 -4.93558997e-004 9.78342956e-004 -5.15491760e-004
      -4.19923919e-004 3.75832693e-004 -3.22800188e-004 -4.68063139e-004
      -2.05871358e-004 -6.78696779e-006 0. 0. 0. 0. 0. 4.37382878e-005
      4.66063721e-005 -1.35054928e-004 -3.57956771e-004 -5.01305913e-004
      -8.31574318e-004 3.94250499e-004 1.22857164e-003 1.97509653e-005
      -3.08758201e-004 -1.88987993e-004 -2.56514235e-004
      -4.46479040e-004 -3.44904256e-004 -1.30431275e-004 0. 0. 0. 0. 0.
      1.29063801e-005 3.82300568e-005 3.78520272e-005 -2.85855262e-004
      -3.20513034e-004 -4.51995700e-004 -2.25562588e-004 1.13106833e-003
      1.06115674e-003 1.95341301e-004 5.89276606e-004 3.78637546e-004
      2.75917264e-004 -1.13038077e-005 -9.89185210e-005 0. 0. 0. 0. 0.
      8.98240251e-006 1.15361734e-004 6.92077301e-005 2.27589480e-004
      4.38938237e-004 -9.27002077e-007 -3.62671562e-004 2.11161023e-004
      5.14534826e-004 -3.84207815e-004 7.18274794e-004 -4.59893890e-005
      -4.57724964e-005 -3.82771032e-005 -6.45120817e-005 0. 0. 0. 0. 0.
      -2.03728578e-005 -3.63326326e-005 -8.55628532e-005 1.28559754e-004
      2.19889611e-004 -2.30607875e-005 -8.25340321e-005 1.72643573e-004
      3.45231791e-004 4.00177931e-004 3.14328878e-004 -2.00730909e-004
      -4.83545562e-004 -2.35109532e-004 -8.48370910e-005 0. 0. 0. 0. 0.
      -1.03940201e-005 1.70916974e-004 -4.30634136e-005 1.55163332e-004
      -2.79486965e-004 -1.77846770e-004 5.72411518e-004 2.18285291e-004
      8.76657723e-004 4.57127899e-004 -2.27936820e-004 -7.90822902e-004
      -7.48248829e-004 -3.82962491e-004 -1.48673047e-004 0. 0. 0. 0. 0.
      -1.41235651e-005 2.98819814e-005 -9.15167329e-005 -9.07297799e-005
      1.38340212e-004 -1.08373257e-004 -5.08840487e-004 -1.32828471e-004
      4.33905196e-004 4.89585982e-005 -5.80973167e-004 -9.05949564e-004
      -4.21418139e-004 -3.33531032e-004 -1.42869438e-004 3.06607285e-006
      0. 0. 0. 0. 0. -3.96778087e-005 -2.14306448e-004 -2.10611688e-004
      -3.47647365e-005 -1.20025332e-004 2.19168505e-005 2.90360440e-005
      2.45620293e-004 3.22665903e-004 1.65237303e-004 -9.19849626e-005
      -1.96168388e-004 -1.77636408e-004 -2.05883571e-005 3.62354058e-006
      0. 0. 0. 0. 0. 0. 0. 0. 0. 0. 0. 0. 0. 0. 0. 0. 0. 0. 0. 0. 0. 0.
      0. 0. 0. 0. 0. 0. 0. 0. 0. 0. 0. 0. 0. 0. 0. 0. 0. 0. 0. 0.</_>
    <_>
      0. 0. 0. 0. 0. 0. 0. 0. 0. 0. 0. 0. 0. 0. 0. 0. 0. 0. 0. 0. 0. 0.
      0. 0. 0. 0. -1.39938641e-006 -2.01412277e-005 -4.41914235e-005
      -5.34174360e-005 -5.34180581e-005 -5.42576890e-005
      -5.50967015e-005 -5.45375660e-005 -5.11809012e-005
      -4.83833719e-005 -4.67047284e-005 -3.55189550e-005
      -1.25857832e-005 0. 0. 0. -4.66498159e-006 1.43295722e-004
      1.06290274e-004 0. -3.39906401e-005 -1.28831685e-004
      -1.29877750e-004 -8.21207359e-005 1.16560295e-004 8.29847486e-005
      2.39240195e-004 -1.33154781e-005 2.79725849e-004 1.18844880e-004
      -1.14209492e-004 -9.10999515e-005 -3.55189550e-005 0. 0. 0.
      -1.80768038e-005 2.19333000e-004 3.26788926e-004 1.87642581e-004
      9.75259609e-005 1.01285426e-004 4.94971282e-005 -1.63720088e-005
      -2.42177157e-005 -3.83671810e-004 4.94175620e-005 -2.02196228e-004
      7.44215795e-005 1.65065896e-004 1.36030239e-005 -1.50834530e-004
      -4.27895538e-005 0. 0. 0. -6.41434963e-006 2.64643895e-004
      2.22732939e-004 -2.53048638e-005 3.02069293e-005 1.94963752e-004
      -1.76562156e-004 -9.89874097e-005 3.46511151e-005 6.46572971e-006
      6.26156761e-005 1.03807426e-004 7.57500402e-006 4.19448988e-005
      -2.60865170e-004 -2.74413469e-004 -3.80366073e-005 0. 0.
      -6.43717749e-006 -1.70725143e-005 2.67781463e-004 -1.13414235e-005
      -3.55814875e-004 -3.67554894e-004 -6.11124269e-005 2.26499164e-004
      -1.57999802e-005 -1.93141314e-004 -2.22656963e-005 2.27648543e-005
      5.81146487e-005 9.79812103e-005 4.57633636e-004 -1.70917876e-004
      -2.37777989e-004 -3.94347517e-005 0. 0. -1.23146001e-005
      -3.82834987e-005 2.08089376e-004 1.17984622e-004 2.00623734e-004
      -3.35731049e-004 -1.05734318e-004 7.02254620e-005 -1.21459583e-004
      8.76148915e-005 2.02203475e-004 2.98683997e-004 -1.97839436e-005
      -4.20534961e-005 3.01597640e-004 -1.99030153e-004 -1.94415654e-004
      -4.58650975e-005 0. 0. -1.39938638e-005 -1.12229223e-004
      -1.97583606e-004 -1.34411326e-004 -3.22176114e-004
      -7.89996702e-004 -9.07918613e-004 -6.27067115e-004
      -7.61416974e-004 -5.79316169e-004 -5.69333090e-004 5.49187971e-005
      -2.80509048e-005 -2.39946356e-004 -3.13523953e-004
      -3.67641856e-004 -1.34935501e-004 -4.11133951e-005 0. 0.
      -1.59530045e-005 -1.17380572e-004 -3.94734758e-004
      -3.67089146e-004 -5.90907934e-004 -4.75941371e-004
      -5.61165274e-004 -1.11229799e-003 -1.26202789e-003
      -1.11002033e-003 -2.50553247e-004 5.45864677e-005 1.60967335e-004
      -2.29494748e-004 -4.65182588e-004 -2.37499175e-004
      -3.39188919e-005 -2.18211135e-005 0. 0. -2.37833592e-005
      -1.35129143e-004 -3.49395501e-004 -4.36205039e-004
      -9.92552261e-004 -1.05513539e-003 -1.08521245e-003
      -1.28749525e-003 -6.32473326e-004 -1.97417889e-004 5.90538475e-005
      -2.34305799e-006 -3.93925875e-005 -1.64703506e-005
      -1.05547508e-004 -1.42149278e-004 -6.32940510e-006
      -4.47803632e-006 0. 0. -3.55257835e-005 -3.23126558e-004
      -7.76046130e-004 -5.44404145e-004 -1.01500971e-003
      -1.40671583e-003 -1.09182636e-003 2.64233822e-004 7.60322611e-004
      2.09548216e-005 -4.03341284e-004 -4.46132326e-004 -3.74480551e-005
      1.06234715e-004 3.09971574e-006 8.31583020e-006 -7.36190577e-006
      0. 0. 0. -3.97177319e-005 -9.42103943e-005 -5.35014959e-004
      -8.35759798e-004 -8.26948439e-004 -1.57364237e-004
      -7.49826286e-005 5.51339006e-004 8.57930339e-004 5.47154748e-004
      -1.49600237e-004 1.76751695e-004 3.93809285e-004 -5.73963625e-005
      -2.62245885e-004 -2.11656243e-005 0. 0. 0. 0. -4.08366213e-005
      -1.38167976e-004 -4.14415350e-004 -4.43655939e-004
      -4.90594248e-004 -1.32830944e-004 -2.28435820e-004 2.11567065e-004
      7.12805660e-004 5.32098464e-004 -1.32576431e-004 9.27888395e-005
      6.88024084e-005 -1.48060382e-004 -1.63196906e-004 -7.57172602e-005
      0. 0. 0. 0. -3.74836818e-005 -1.34865113e-004 -1.37317096e-004
      -5.78784457e-005 -4.97892441e-004 5.49000015e-006 -3.85143940e-005
      -1.92325198e-004 1.29309978e-004 6.64440740e-004 3.08305578e-004
      4.15494578e-004 -3.55885481e-004 -3.17041231e-005 1.70410640e-005
      -4.88809674e-005 0. 0. 0. 0. -1.65059282e-005 -1.16770861e-004
      4.94741216e-005 1.62571145e-004 1.11323825e-004 2.76790408e-004
      1.89067141e-004 6.27969421e-005 -3.38462734e-004 5.78916515e-004
      5.39234956e-004 6.23883272e-004 -9.67917949e-005 4.36846429e-004
      6.40970175e-005 -2.83959671e-005 0. 0. 0. 0. 0. -1.78036309e-004
      -6.00721178e-005 1.13341976e-005 2.26984179e-004 3.86215950e-004
      1.93172775e-004 5.39984845e-004 1.19134434e-004 4.72352986e-004
      9.58125966e-005 3.01138876e-004 1.49206928e-004 1.02136677e-004
      -3.90593232e-005 -2.46536547e-006 0. 0. 0. 0. 0. -1.21507419e-005
      1.67830894e-005 1.00643905e-004 1.55569534e-004 2.33984945e-004
      -2.70278630e-004 -3.85175779e-004 -1.76510453e-004 2.86907045e-004
      3.21811094e-004 2.79690023e-004 7.15657152e-005 -1.84413875e-004
      -8.99942315e-005 0. 0. 0. 0. 0. 0. 4.97091241e-005 3.42377461e-005
      6.50325237e-005 3.61581006e-005 -9.29583402e-005 -7.76275701e-004
      -8.83184257e-004 -5.69699623e-004 1.05865787e-004 4.05802653e-004
      3.80512181e-004 1.78252638e-004 8.68418792e-005 3.60982922e-005 0.
      0. 0. 0. 0. 0. 0. 0. 0. 0. 0. 0. 0. 0. 0. 0. 0. 0. 0. 0. 0. 0. 0.
      0. 0. 0. 0. 0. 0. 0. 0. 0. 0. 0. 0. 0. 0. 0. 0. 0. 0. 0. 0. 0.</_>
    <_>
      0. 0. 0. 0. 0. 0. 0. 0. 0. 0. 0. 0. 0. 0. 0. 0. 0. 0. 0. 0. 0. 0.
      0. 0. 0. 0. 0. 0. 0. 0. 0. 0. 0. 0. 0. 0. 0. 0. 0. 0. 0. 0. 0.
      1.24906175e-004 8.72360615e-005 -1.72001467e-006 -1.54202004e-004
      8.28200209e-005 6.99729353e-005 2.28482109e-004 2.64220405e-004
      3.58871155e-004 -3.52525012e-006 -1.10885230e-004 -2.98562509e-006
      1.01263004e-005 0. 0. 0. 0. 0. 0. 0. 1.86747784e-004
      1.38309508e-004 6.30551904e-006 -3.51762865e-005 7.25884747e-005
      1.85462559e-005 -2.85955699e-004 1.22063604e-004 3.41275008e-004
      -1.21902049e-004 -2.71254103e-004 -7.88239049e-005
      -1.14225850e-005 2.59201333e-004 0. 0. 0. 0. 0. 0. 1.14237111e-004
      -7.67794409e-005 -4.39684110e-004 -6.25744346e-004
      -6.23864762e-004 -3.27132933e-004 -3.44019500e-004
      -4.79954178e-005 4.87412588e-004 2.82067253e-004 -3.55166412e-005
      -3.26075475e-004 -1.97508940e-004 6.36751502e-005 -1.04862147e-005
      0. 0. 0. 0. 0. 1.79966621e-004 1.25782477e-004 8.32413789e-005
      2.82014662e-004 -3.99935379e-005 -2.63764756e-004 1.81743933e-004
      -1.86419245e-004 -1.40670527e-004 -7.50739637e-005
      -1.57615170e-004 1.59096508e-005 1.56857932e-004 -2.29796162e-004
      -8.12142098e-005 0. 0. 0. 0. 0. 1.82931122e-004 1.29810185e-004
      8.83674365e-005 5.74929254e-005 -5.93338082e-005 -2.58788554e-004
      -2.54117840e-005 -3.35371267e-004 6.26098408e-005 6.28448906e-004
      7.03969199e-005 6.07564347e-004 3.96972144e-004 1.86412290e-004
      -3.92576403e-005 0. 0. 0. 0. 0. 1.06126943e-004 1.18314951e-004
      -6.42594168e-005 -3.74658091e-004 -3.73855582e-004
      -8.72552453e-004 -6.86519605e-004 -8.20193309e-005
      -5.19522328e-005 5.31633501e-004 1.41193072e-004 3.01317603e-004
      2.56875559e-004 7.76640518e-005 -7.75982189e-005 0. 0. 0. 0. 0.
      -3.56777309e-005 -3.12956081e-006 -2.05642064e-004
      -6.41738065e-004 -3.39985563e-004 -1.81370042e-003
      -1.16264087e-003 -6.83653285e-004 -1.35520095e-004 2.33575600e-004
      3.44602563e-006 -2.06828172e-005 1.07171487e-004 -1.21613004e-004
      -7.21663455e-005 0. 0. 0. 0. 0. -5.42921953e-006 8.27572876e-005
      -2.01440198e-004 -6.66629698e-004 -5.98042563e-004
      -1.63999363e-003 -6.54844567e-004 -8.49527569e-005 3.20263207e-004
      2.73157319e-004 1.55738708e-005 -2.84369977e-004 9.52908158e-006
      1.01366641e-004 0. 0. 0. 0. 0. 0. -4.88629776e-005
      -8.15384192e-006 -3.32467389e-005 -8.63505702e-004
      -1.43495377e-003 -5.69199852e-004 2.23903640e-004 2.08624479e-004
      -3.63588886e-004 -3.46101908e-004 -1.91203886e-004
      -1.80956442e-004 -5.03089468e-005 9.11096959e-006 0. 0. 0. 0. 0.
      3.12177785e-004 2.68792937e-004 -2.10774670e-004 -2.24165982e-004
      -1.91863612e-004 -7.67775200e-005 3.38162354e-004 7.06146588e-004
      -1.48528547e-004 -9.54278163e-004 -3.74387222e-004 2.21909886e-005
      -7.31450054e-005 -2.45028095e-005 0. 0. 0. 0. 0. 0.
      9.21180326e-005 9.37327786e-005 6.46062836e-005 -1.52121866e-004
      -2.75907019e-004 -2.14845626e-004 1.53477900e-004 7.73826207e-004
      7.31291133e-004 5.28827950e-004 5.77969418e-004 2.69987038e-004
      -4.22178200e-005 -1.91240497e-006 0. 0. 0. 0. 0. 0.
      1.57931514e-004 1.96063353e-004 1.17554191e-004 1.02613500e-004
      3.29518632e-004 4.05244122e-004 1.41174663e-004 1.11237794e-004
      7.32356100e-004 6.49362803e-004 8.34820210e-004 2.19585680e-004
      6.01937536e-005 4.60757146e-005 -9.30723400e-006 0. 0. 0. 0. 0.
      6.54949181e-005 9.04966000e-005 5.23807365e-004 7.13582849e-004
      1.04719470e-003 5.95790101e-004 -1.78085193e-005 -5.36314328e-004
      6.76715863e-004 1.09104801e-003 9.53461684e-004 2.36953536e-004
      1.67465929e-004 -3.73554030e-005 -2.79217020e-005 0. 0. 0. 0. 0.
      1.10409768e-004 -3.35357472e-005 8.97914724e-005 2.30924823e-004
      5.53653226e-004 3.79523437e-004 1.94153225e-004 -4.39174937e-006
      1.39984570e-003 1.34110334e-003 8.27853801e-004 4.03538754e-004
      2.17572073e-004 3.97284748e-005 -3.10241126e-006 0. 0. 0. 0. 0.
      8.36758700e-005 -1.37474824e-004 -3.68060399e-004 -3.38172889e-004
      -1.61683070e-004 -1.20855577e-004 -2.40267167e-004 2.41290982e-004
      9.72354843e-004 8.75916216e-004 4.25183476e-004 1.53938934e-004
      3.88584849e-005 8.32681781e-006 0. 0. 0. 0. 0. 0. -2.90534172e-005
      -1.15765251e-004 -2.62198155e-004 1.75400073e-005 1.80300212e-005
      4.09604290e-005 1.52726323e-004 3.41872772e-004 6.21260260e-004
      3.29318951e-004 2.12142244e-004 7.13749614e-005 0. 0. 0. 0. 0. 0.
      0. 0. 0. 0. 0. 0. 0. 0. 0. 0. 0. 0. 0. 0. 0. 0. 0. 0. 0. 0. 0. 0.
      0. 0. 0. 0. 0. 0. 0. 0. 0. 0. 0. 0. 0. 0. 0. 0. 0. 0.</_>
    <_>
      0. 0. 0. 0. 0. 0. 0. 0. 0. 0. 0. 0. 0. 0. 0. 0. 0. 0. 0. 0. 0. 0.
      0. 0. 0. 0. 0. 0. 0. 0. 0. 0. 0. 0. 0. 0. 0. 0. 0. 0. 0. 0. 0.
      8.84346591e-005 6.17638871e-005 0. -1.90376504e-005
      1.64989309e-004 -1.29522858e-004 8.98297076e-005 1.07401254e-004
      2.87090534e-005 -1.16875519e-004 7.51894258e-005 1.86872756e-004
      -4.88274236e-005 -2.76325620e-004 -6.98209260e-005 0. 0. 0. 0. 0.
      1.60024618e-004 1.99328919e-004 1.60389536e-004 1.22336845e-004
      -3.40759902e-006 3.52967327e-004 4.88841964e-004 4.57588554e-004
      8.92730750e-005 4.06707899e-004 -2.06723431e-004 -2.52592814e-004
      -3.46116954e-004 -6.21898274e-004 -2.21042574e-004 0. 0. 0. 0. 0.
      1.67043239e-004 2.61092791e-004 3.43268155e-004 4.61675605e-004
      2.00855560e-004 1.67868551e-004 1.86871112e-005 5.42408612e-004
      3.19474639e-004 4.62334974e-005 -3.06219241e-004 -1.81876909e-004
      1.06487540e-004 -3.38060840e-004 -1.66884827e-004 0. 0. 0. 0. 0.
      1.60024618e-004 2.43017479e-004 3.89569264e-004 6.87654829e-004
      5.78228151e-004 -4.64301207e-004 1.62699274e-004 1.13446113e-004
      2.34182357e-004 8.22347502e-005 -3.41347768e-005 9.54572024e-005
      6.17076585e-004 4.05521205e-005 -6.09298149e-005 0. 0. 0. 0. 0.
      1.58620896e-004 2.11921375e-004 9.73811548e-005 2.64467788e-004
      2.48512486e-004 -4.26133658e-004 -7.94223044e-004 -9.55028634e-004
      -8.82493987e-005 4.94533277e-004 5.22367714e-004 3.79994104e-004
      4.60663665e-004 1.81661570e-004 0. 0. 0. 0. 0. 0. 1.08086802e-004
      1.53259200e-004 -1.78451286e-004 -1.03318926e-004 -1.54946130e-004
      -1.10424438e-003 -1.69077248e-003 -1.55774481e-003
      -5.69878146e-004 4.97221365e-004 6.60072721e-004 8.35302519e-004
      3.91082751e-004 -1.44941412e-004 -9.31867762e-005 0. 0. 0. 0. 0.
      0. 6.54534670e-005 -1.95423389e-004 -3.32376891e-004
      -2.68988049e-004 -1.09509134e-003 -1.62800110e-003
      -1.05282909e-003 -3.52918170e-004 3.55875789e-004 6.20403735e-004
      8.59381107e-004 3.02250060e-004 3.66910399e-006 -1.79205326e-005
      0. 0. 0. 0. 0. 0. -6.88333093e-005 -4.04209568e-004
      -6.89467881e-004 -8.57135048e-004 -1.15375698e-003
      -5.61603403e-004 4.01189434e-004 2.95023056e-004 5.76606137e-004
      5.10246260e-004 1.93415253e-004 8.27546610e-005 1.08606539e-004 0.
      0. 0. 0. 0. -1.43364261e-004 -6.20050472e-004 -2.79527158e-004
      9.06142523e-005 -4.11754823e-004 -9.72766895e-004 -1.29547931e-004
      -3.11801588e-004 5.78589446e-004 2.12277519e-004 4.05324419e-004
      2.64399045e-004 9.01094318e-005 3.92553738e-006 5.23405015e-006 0.
      0. 0. 0. 0. 2.81810790e-004 7.44914723e-005 -5.55050967e-004
      -5.93101955e-004 1.60753712e-004 5.89541742e-004 5.14312356e-004
      2.82071007e-004 -3.21337226e-004 -4.95698070e-004 -1.89537619e-004
      2.56159343e-004 1.17912881e-004 0. 0. 0. 0. 0. 0. 0.
      5.09003257e-005 2.95671653e-005 -2.05620192e-004 -3.87824111e-004
      1.30626213e-004 2.08086814e-004 3.63196043e-004 1.05705818e-004
      -1.38476767e-004 6.97204596e-005 5.66165079e-004 5.92218828e-004
      1.82500429e-004 7.72048588e-005 0. 0. 0. 0. 0. 0. 4.31807603e-005
      3.31187803e-005 3.17547994e-004 5.36717198e-005 -1.79903582e-004
      2.85207410e-004 5.24610630e-004 -2.74404243e-004 -4.54367109e-004
      4.98229812e-004 1.45558221e-003 6.20043545e-004 1.14114177e-004
      4.99093185e-005 0. 0. 0. 0. 0. 0. 2.94743895e-005 -1.75480784e-006
      7.31911918e-004 6.72222057e-004 4.75623645e-004 2.47006246e-004
      -1.35729220e-004 -7.63508200e-004 -4.66488913e-004 1.07010198e-003
      1.11899467e-003 3.79385805e-004 9.43623600e-005 1.90010051e-005 0.
      0. 0. 0. 0. 0. 5.29159570e-006 7.74770160e-005 1.51968503e-004
      2.66080988e-005 9.46032305e-005 2.14573287e-004 3.94066679e-004
      2.58224609e-004 -1.62861397e-004 3.50604183e-004 6.27106521e-004
      3.18705541e-004 6.16724428e-005 1.97461413e-005 0. 0. 0. 0. 0. 0.
      2.95351219e-005 6.11235155e-005 4.92592517e-005 1.24988510e-005
      -4.12342342e-004 -4.06658277e-004 -4.57037444e-004 9.58868332e-005
      2.78554449e-004 1.88098435e-004 4.00784222e-004 1.77846101e-004
      1.95684206e-005 3.35311847e-006 0. 0. 0. 0. 0. 0. -4.30009604e-005
      -7.72673520e-005 -1.11488589e-004 5.48363423e-005 -1.04926046e-004
      -2.76552979e-004 -9.20496022e-005 4.38235766e-005 3.49110254e-004
      2.41248490e-004 1.49250453e-004 2.93674366e-005 0. 0. 0. 0. 0. 0.
      0. 0. 0. 0. 0. 0. 0. 0. 0. 0. 0. 0. 0. 0. 0. 0. 0. 0. 0. 0. 0. 0.
      0. 0. 0. 0. 0. 0. 0. 0. 0. 0. 0. 0. 0. 0. 0. 0. 0. 0.</_>
    <_>
      0. 0. 0. 0. 0. 0. 0. 0. 0. 0. 0. 0. 0. 0. 0. 0. 0. 0. 0. 0. 0. 0.
      0. 0. 0. 0. 0. 0. 0. 0. 0. 0. 0. 0. 0. 0. 0. 0. 0. 0. 0. 0. 0.
      1.86245408e-004 6.43008752e-005 -1.24525657e-004 -1.57328002e-004
      -1.59256393e-004 -6.17090991e-005 1.59728166e-004 -6.41379665e-005
      -1.34860181e-006 -6.63310639e-005 1.11477755e-004 2.48732395e-004
      1.80849151e-004 6.51091686e-005 3.37510137e-005 0. 0. 0. 0. 0.
      3.37015517e-004 2.56030442e-004 -3.33722091e-005 -2.13433290e-004
      -4.34438407e-004 -1.51900776e-005 -7.91763377e-005 1.36473591e-005
      -3.97076401e-005 1.25283725e-004 -2.47334625e-004 -4.80311428e-005
      1.14272938e-004 2.11237639e-004 5.26472613e-005 0. 0. 0. 0. 0.
      2.40843918e-004 3.00303014e-004 1.19135642e-004 -3.01994587e-004
      -3.27298680e-004 1.27148887e-004 2.78321007e-004 3.61707382e-004
      -1.30229682e-005 -4.43960525e-005 -6.79408040e-005
      -1.63687888e-004 -3.11529766e-005 1.16270974e-004 6.22824300e-005
      0. 0. 0. 0. 0. 1.30159475e-004 1.39227879e-004 1.72304382e-004
      3.89129418e-005 3.07851762e-004 -1.29686339e-006 1.88729362e-004
      2.21280279e-004 -1.25108621e-004 -1.26162267e-004 7.43206670e-007
      -8.16454922e-005 2.47998891e-004 1.47482933e-004 1.05596839e-004
      0. 0. 0. 0. -4.79594892e-005 8.17418331e-005 7.20638564e-005
      2.03289193e-004 4.08119988e-004 -3.94100934e-004 5.52036836e-005
      4.58957773e-004 1.15892362e-004 -1.24962535e-005 3.45396635e-004
      -7.03011028e-005 1.37452313e-004 5.39158995e-004 2.99577368e-004
      1.37560201e-004 0. 0. 0. 0. -1.37883530e-004 -2.04338648e-004
      -2.44507482e-005 -6.30918221e-005 -2.62720976e-004
      -4.02593199e-004 2.45093106e-004 3.03784735e-004 1.83477328e-004
      2.00700233e-004 7.70297193e-004 7.37338793e-004 3.81162943e-004
      3.10764037e-004 1.89832193e-004 9.80412951e-005 0. 0. 0. 0.
      -1.47475424e-004 -5.04359952e-004 -3.67829634e-004
      -5.87745220e-004 -8.24228802e-004 -9.83535647e-005 4.69616993e-004
      3.04718887e-005 1.62863900e-004 6.39426929e-004 1.13609398e-003
      6.40866463e-004 1.94519933e-004 -3.35381469e-006 3.12345364e-005
      7.52559572e-005 0. 0. 0. 0. -1.99535076e-004 -4.80080460e-004
      -5.52722486e-004 -9.71237314e-004 -1.18839124e-003
      -1.72564236e-004 4.59334318e-004 2.50918703e-004 3.36526020e-004
      3.85419000e-004 1.65365011e-004 -7.90314516e-005 -4.93699372e-005
      -5.08675075e-005 3.25260080e-005 4.19786447e-005 0. 0. 0. 0.
      -2.10325961e-004 -4.51207598e-004 -6.42126543e-004
      -7.05066486e-004 -9.04335990e-004 -2.90379714e-004 9.56814911e-004
      6.67256711e-004 4.79373812e-005 1.20922623e-008 -5.27723634e-004
      -3.40693776e-004 -1.74395522e-004 -1.16055096e-004 1.05614472e-005
      -1.67438066e-005 0. 0. 0. 0. 2.74066351e-005 -3.47782479e-004
      -1.02130359e-003 -1.05903624e-003 -6.80125842e-004 4.60986368e-004
      9.40164318e-004 6.07280526e-004 1.58748808e-004 -8.82718246e-004
      -5.60143148e-004 -3.38804239e-004 -3.23314714e-004
      -1.87422396e-004 5.75819795e-005 0. 0. 0. 0. 0. -1.67387421e-004
      -4.17920499e-004 -7.47120474e-004 -1.02574087e-003
      -8.90489027e-004 1.74522866e-004 7.08042004e-004 1.00628904e-003
      1.51156462e-004 -5.23459865e-004 -3.60077334e-004 -1.53008295e-004
      -1.55252070e-004 -9.61537226e-005 -5.61520865e-005 0. 0. 0. 0. 0.
      -6.67100248e-005 -2.30441772e-004 -4.31932829e-004
      -3.96957505e-004 -4.81117109e-004 3.92191025e-004 7.08419888e-004
      1.90582738e-004 8.55982726e-005 -6.44164276e-004 6.87133288e-005
      -3.13798722e-004 -2.17697365e-004 -1.11421963e-004
      -3.47706300e-005 0. 0. 0. 0. 0. -1.83068448e-006 -3.06452828e-004
      -3.00685788e-004 2.21100505e-004 -3.25742119e-004 1.78429327e-004
      1.57921779e-004 -2.88133480e-004 3.67548491e-004 -1.10706962e-004
      3.03694342e-005 -2.48359574e-004 -4.31620538e-005 -4.74397129e-005
      -5.99493615e-005 0. 0. 0. 0. 0. 1.56399357e-004 6.22398293e-005
      -1.24198414e-004 4.90315899e-004 -1.58787225e-005 -2.13504492e-004
      -1.15722651e-004 8.22661314e-005 9.07562731e-004 2.14341446e-004
      2.89311662e-004 5.62925743e-006 1.78011687e-004 -7.75655426e-005
      -1.01711448e-004 0. 0. 0. 0. 0. 3.67644025e-005 -6.30170398e-005
      -2.42661699e-004 2.41654780e-005 -7.51749758e-005 -3.58866819e-004
      -2.23316165e-004 -2.38301116e-004 -8.91740056e-005
      -1.93366977e-005 4.47181461e-004 1.97013665e-004 2.99466956e-005
      -5.33194470e-005 -5.95109705e-005 0. 0. 0. 0. 0. 3.49560178e-005
      3.87840773e-005 -3.24347820e-005 -2.99537041e-005 -5.82823632e-005
      -1.98736598e-005 -1.38963689e-004 -2.67179683e-004 1.21071920e-004
      2.66144634e-004 4.03724058e-004 1.78245260e-004 7.24053534e-005
      3.47773748e-005 0. 0. 0. 0. 0. 0. 0. 0. 0. 0. 0. 0. 0. 0. 0. 0. 0.
      0. 0. 0. 0. 0. 0. 0. 0. 0. 0. 0. 0. 0. 0. 0. 0. 0. 0. 0. 0. 0. 0.
      0. 0. 0. 0. 0.</_>
    <_>
      0. 0. 0. 0. 0. 0. 0. 0. 0. 0. 0. 0. 0. 0. 0. 0. 0. 0. 0. 0. 0. 0.
      0. 0. 0. 0. 0. 0. 0. 0. 0. 0. 0. 0. 0. 0. 0. 0. 0. 0. 0. 0. 0.
      2.16878820e-004 1.27723120e-004 -1.41784374e-004 -3.44029831e-004
      -1.92444160e-004 -6.73589748e-005 1.24372003e-004 3.13780271e-004
      3.88060842e-004 1.92613879e-004 1.39663712e-006 4.55757145e-005
      7.45494253e-005 2.02518786e-005 0. 0. 0. 0. 0. 0. 3.92447400e-004
      4.00924822e-004 1.73730892e-004 -2.80407869e-004 -3.10648204e-004
      8.80034568e-005 -1.39186814e-004 1.87044585e-004 5.73951256e-005
      2.57671461e-004 4.04653765e-005 -2.56207248e-004 -1.89645856e-004
      -1.93510314e-005 2.30210262e-005 0. 0. 0. 0. -3.10395953e-005
      3.20335792e-004 5.08688041e-004 1.37001029e-004 -2.98547442e-004
      -8.72985169e-004 -2.45475356e-004 -1.79669762e-004 4.23099613e-004
      2.10430182e-004 1.77161186e-004 -1.99781978e-004 -1.47851053e-004
      -1.55991816e-004 -7.73188949e-005 -1.30973989e-004 0. 0. 0. 0.
      -5.26732547e-005 3.08811897e-004 4.75088164e-004 3.97004595e-004
      -1.38888063e-004 1.34893426e-005 7.07434665e-005 1.16678450e-004
      6.34797325e-005 1.53662695e-004 2.18349494e-004 -2.53416947e-004
      -3.11795360e-004 -3.88148510e-005 -1.98614987e-004
      -1.26063795e-004 0. 0. 0. 0. -4.89108788e-005 2.85140559e-004
      3.46389919e-004 3.11343436e-004 2.34763400e-004 2.42048336e-004
      1.26511659e-004 2.04570009e-004 1.24864137e-005 9.76770934e-006
      1.00099693e-004 1.37286115e-004 -1.79886003e-004 -2.27604251e-004
      -4.34377871e-005 8.78551073e-005 0. 0. 0. 0. -3.76237549e-005
      1.83242446e-004 8.83212051e-005 1.46556131e-005 -1.85943936e-004
      -4.56926995e-004 -1.40566583e-004 1.17749514e-004 1.02812941e-004
      -2.04066309e-004 3.30012233e-004 5.06632787e-004 -9.09013179e-005
      -9.86185987e-005 2.25361684e-004 1.01460326e-004 0. 0. 0. 0. 0.
      -9.78172538e-005 -1.82370146e-004 -3.47597292e-004
      -5.56324201e-004 -9.07169539e-004 -6.43145700e-004
      -2.72717676e-004 -4.67489190e-006 -2.98520317e-004 2.61720765e-004
      3.54146992e-004 -1.30641536e-004 2.22441173e-004 1.92504958e-004
      3.66936147e-005 0. 0. 0. 0. 0. -3.64180130e-004 -3.04243847e-004
      -4.93983389e-004 -1.12468144e-003 -1.85772660e-003
      -1.55017909e-003 -1.11823238e-003 -6.05685287e-004
      -2.19404174e-004 -4.69191989e-004 -4.27923515e-004
      -2.39413668e-004 3.63404470e-005 -1.36897970e-005 0. 0. 0. 0. 0.
      0. -4.24194935e-004 -1.18285854e-004 6.01401989e-005
      -9.30289447e-004 -1.41651079e-003 2.52504309e-004 3.64207459e-004
      -4.99352929e-004 -7.31784734e-004 -1.26902072e-003
      -7.15453411e-004 -1.24757993e-004 -4.38216121e-005
      -5.64356305e-005 0. 0. 0. 0. 0. -9.82706333e-005 -3.97427037e-004
      -3.59745463e-004 -4.56419395e-004 -4.02395788e-004
      -2.14411921e-004 1.09653885e-003 1.07888284e-003 -2.02865704e-004
      -7.67591933e-004 -1.16320304e-003 -5.26888354e-004
      -1.23619277e-004 -1.00553443e-004 -5.64356305e-005 0. 0. 0. 0. 0.
      -3.39777034e-004 -1.49867934e-004 -1.86649449e-005
      -2.26285410e-004 -2.77103478e-004 -2.16368266e-004 7.12849433e-004
      1.18066440e-003 4.27356426e-004 -3.98083735e-004 -8.12596001e-004
      -1.49933388e-004 4.04478014e-005 3.92756410e-005 -5.45544426e-005
      0. 0. 0. 0. 0. -1.67232356e-005 2.08024532e-004 2.55439139e-004
      -1.13509333e-004 -3.68393317e-004 1.94252803e-004 2.49794481e-004
      2.46185518e-004 7.11504894e-004 -1.57884293e-004 -1.42029356e-004
      9.79370452e-005 3.01076307e-005 -3.13771488e-006 -1.88118775e-005
      0. 0. 0. 0. 0. 8.90617739e-005 2.65884755e-005 2.34057497e-005
      2.43407092e-004 6.12989592e-004 6.37254561e-004 -8.76638805e-005
      2.57782842e-004 8.40981258e-004 1.79462906e-004 1.11774643e-004
      9.79012839e-006 4.55765221e-005 -5.29376266e-005 -4.70861523e-005
      0. 0. 0. 0. 0. 8.28522607e-005 2.96820072e-004 3.83589504e-004
      8.62546949e-005 -9.82046986e-005 2.23507959e-004 -3.47340174e-005
      3.07144423e-004 9.69658140e-004 2.55733699e-004 -8.77230850e-005
      -7.75293156e-005 1.67399572e-004 3.92975162e-005 0. 0. 0. 0. 0. 0.
      3.54641998e-005 6.66039850e-005 5.08634439e-005 -7.77929454e-005
      -1.06382766e-004 -1.89827086e-004 1.10932648e-004 6.20517298e-004
      7.13558227e-004 2.27204699e-004 1.48995096e-004 1.46637267e-005
      1.41823739e-006 2.58105920e-005 8.10362781e-006 0. 0. 0. 0. 0. 0.
      -2.98123196e-005 -1.61015196e-004 -1.04785118e-004 2.90807347e-005
      9.16022254e-005 1.15649003e-004 2.81268440e-004 3.27415066e-004
      4.07398416e-004 3.08649149e-004 9.71047193e-005 -5.49999595e-006
      4.96673965e-006 3.13688815e-006 0. 0. 0. 0. 0. 0. 0. 0. 0. 0. 0.
      0. 0. 0. 0. 0. 0. 0. 0. 0. 0. 0. 0. 0. 0. 0. 0. 0. 0. 0. 0. 0. 0.
      0. 0. 0. 0. 0. 0. 0. 0. 0. 0.</_>
    <_>
      0. 0. 0. 0. 0. 0. 0. 0. 0. 0. 0. 0. 0. 0. 0. 0. 0. 0. 0. 0. 0. 0.
      0. 0. 0. 0. 0. 0. 0. 0. 0. 0. 0. 0. 0. 0. 0. 0. 0. 0. 0. 0. 0.
      2.41205576e-004 1.36280767e-004 -3.01332650e-004 -3.78091732e-004
      -7.58089882e-005 -6.02136752e-005 3.55828466e-004 3.64658044e-004
      6.69888395e-004 2.43971270e-004 2.85204471e-004 3.29632516e-004
      4.74779790e-006 4.45292353e-005 5.52228121e-005 0. 0. 0. 0. 0.
      4.21156816e-004 4.43145836e-004 -1.32234331e-004 -5.32529899e-004
      -1.81715848e-004 6.00589265e-004 5.26407443e-004 1.19451503e-003
      6.93524838e-004 9.42483603e-005 1.18397169e-004 4.36895498e-004
      1.69444669e-004 2.10105500e-004 1.15803799e-004 0. 0. 0. 0. 0.
      3.94948729e-004 5.96677186e-004 6.74627954e-004 9.16754943e-005
      -2.71485624e-004 5.33177343e-004 4.65334073e-004 9.32367402e-004
      3.95584648e-004 2.79448461e-004 -1.37097159e-005 2.80274726e-005
      4.09091997e-004 1.09601984e-004 1.18955204e-005 0. 0. 0. 0. 0.
      4.31547902e-004 7.09350163e-004 5.17010048e-004 7.60776864e-004
      4.11426765e-004 1.31464651e-004 3.40604514e-004 4.03280748e-004
      2.57417851e-004 -5.81892673e-005 2.42434078e-004 1.00256686e-004
      1.04790874e-004 6.71463056e-007 9.94077855e-005 0. 0. 0. 0. 0.
      4.76946851e-004 7.31063483e-004 4.20517608e-004 8.54476588e-004
      1.20245840e-003 2.40214838e-004 -2.31312632e-004 -2.10038153e-004
      -5.33445505e-004 4.14543116e-004 5.22631628e-004 3.85671476e-004
      8.53763428e-004 4.38247516e-004 1.93293279e-004 0. 0. 0. 0. 0.
      3.00691492e-004 5.84805908e-004 1.53610323e-004 5.07057761e-004
      4.32048982e-004 -3.80318059e-004 -6.10130432e-004 -4.36347880e-004
      -7.66327023e-004 -4.07693296e-004 1.55692862e-004 9.26755543e-004
      6.77777687e-004 1.64742378e-004 6.78927536e-005 0. 0. 0. 0. 0. 0.
      2.36447464e-004 -2.12453422e-004 -2.14833854e-004 1.80260322e-005
      -7.96923356e-004 -9.56592092e-004 -7.22463767e-004
      -6.20653736e-004 -6.81844365e-004 -4.58825125e-005 3.28788505e-004
      3.50897724e-004 1.62231532e-004 6.59187663e-006 0. 0. 0. 0. 0. 0.
      2.64328643e-004 -4.62769880e-004 -1.22468185e-003 -9.59901256e-004
      -1.31762854e-003 -1.47336395e-003 4.97851906e-005 -4.56365196e-005
      -9.04351182e-004 -1.17523351e-003 -8.34672828e-004
      -2.18437330e-004 1.54389363e-005 0. 0. 0. 0. 0. 0. 0.
      3.02565633e-004 -7.35695183e-004 -9.58514167e-004 -7.40305230e-004
      -6.92752714e-004 2.34957377e-004 5.12630504e-005 -1.09221422e-004
      -8.25141498e-004 -9.93504887e-004 -5.59697626e-004
      -3.20094434e-004 -9.55128053e-005 0. 0. 0. 0. 0. 1.68906685e-004
      1.79982526e-004 5.96528698e-005 -9.62811289e-004 -2.96655577e-004
      4.93446714e-004 1.69352119e-004 9.76962387e-004 -7.06873325e-005
      -5.96868747e-004 -5.72233927e-004 -9.47026594e-004
      -2.72648758e-004 -2.31352111e-004 -8.42102745e-005 0. 0. 0. 0. 0.
      4.98413137e-005 4.11559304e-005 -3.50502931e-004 -3.16636288e-004
      3.88873537e-004 2.65835115e-004 -1.39836309e-004 8.65498791e-004
      4.77813068e-004 -1.72100510e-004 -9.08861286e-004 -4.03894112e-004
      1.90903866e-005 1.64167868e-005 -6.64379913e-005 0. 0. 0. 0. 0.
      -8.93051474e-005 -4.74969798e-004 -8.08833458e-004 7.25476348e-005
      7.62465468e-004 2.76076062e-005 3.48700647e-004 4.99368471e-005
      9.65075276e-004 -1.27811873e-004 -4.81248455e-004 -5.15231397e-004
      -1.74165674e-004 -1.76113315e-006 -2.91847555e-005 0. 0. 0. 0. 0.
      1.15533025e-004 -5.75601953e-005 -2.77108426e-004 -5.28183045e-005
      -1.30512097e-004 1.17483723e-005 3.73352173e-004 6.87632491e-005
      7.12483714e-004 2.89796997e-004 -1.39564523e-004 -3.14498116e-004
      -1.63337943e-004 -6.38433194e-005 -3.34276956e-005 0. 0. 0. 0. 0.
      -1.82210642e-004 -3.22618231e-004 -2.62699003e-004
      -3.40108003e-004 2.13157284e-004 2.28598932e-004 3.05198075e-004
      2.56332802e-004 4.04095073e-004 1.62611366e-004 -3.23198648e-004
      -3.01690132e-004 -2.21962007e-004 -1.84088829e-004
      -7.03352780e-005 0. 0. 0. 0. 0. -5.87973009e-005 -1.65384277e-004
      -1.36005241e-004 1.82190575e-004 2.35096421e-004 1.92352891e-005
      2.71773722e-004 1.90531078e-004 -8.67475901e-005 8.32895021e-005
      6.03491317e-005 -1.44455335e-004 -1.81621683e-004 -8.44011593e-005
      -1.88436079e-005 0. 0. 0. 0. 0. 0. -3.55917837e-005
      -2.01764306e-005 3.41215899e-004 3.35504665e-005 -1.60513882e-004
      -1.04232160e-004 -4.29064130e-005 -3.36851808e-005 1.69680090e-004
      6.78051074e-005 -1.40117001e-004 -1.08362714e-004 -3.10814139e-005
      0. 0. 0. 0. 0. 0. 0. 0. 0. 0. 0. 0. 0. 0. 0. 0. 0. 0. 0. 0. 0. 0.
      0. 0. 0. 0. 0. 0. 0. 0. 0. 0. 0. 0. 0. 0. 0. 0. 0. 0. 0. 0. 0. 0.</_>
    <_>
      0. 0. 0. 0. 0. 0. 0. 0. 0. 0. 0. 0. 0. 0. 0. 0. 0. 0. 0. 0. 0. 0.
      0. 0. 0. 0. 0. 0. 0. 0. 0. 0. 0. 0. 0. 0. 0. 0. 0. 0. 0. 0. 0. 0.
      0. 0. 3.30657058e-005 3.61218772e-005 2.40166599e-004
      2.96006707e-004 4.41853103e-004 4.23281250e-004 -4.24391947e-005
      -1.30080080e-004 1.19143850e-004 1.17209674e-004 -1.65669974e-006
      2.15037926e-005 0. 0. 0. 0. 0. 1.12431526e-005 7.17954390e-005
      1.94016044e-004 4.15502524e-004 3.25383735e-004 2.32725273e-004
      2.99726787e-004 1.03263813e-003 9.05851775e-004 -7.56007430e-005
      -3.68956680e-004 -3.59581580e-004 -2.22445902e-004 4.10563916e-005
      1.80104635e-005 0. 0. 0. 0. 0. 6.18373379e-005 5.07370452e-004
      6.81964681e-004 8.86655180e-004 1.23933505e-003 1.09011191e-003
      6.97042036e-004 6.01444510e-004 5.40538807e-004 2.30165955e-004
      5.22888004e-005 -2.46970361e-004 -6.33604141e-005 2.63371039e-005
      1.15910698e-005 0. 0. 0. 0. 0. 4.49726103e-005 4.75484412e-004
      6.48405112e-004 1.06730417e-003 1.14946137e-003 9.98813193e-004
      9.02372005e-004 4.29186126e-004 3.12014417e-005 2.86486349e-004
      -1.32339555e-004 -2.79777654e-004 4.57026414e-004 1.69350053e-004
      -1.37448678e-005 0. 0. 0. 0. 0. 0. 3.06379021e-004 7.65886973e-004
      1.14696915e-003 1.26085803e-003 1.24220399e-003 3.90020519e-004
      -7.43521843e-004 -5.37971209e-004 6.60234145e-005 1.07976470e-004
      3.31470335e-004 9.66089894e-004 7.12726905e-004 1.21793622e-004 0.
      0. 0. 0. 0. 0. 2.66712654e-004 6.17180194e-004 5.88004012e-004
      1.11979770e-003 8.99460807e-004 -6.26844048e-005 -1.06223777e-003
      -5.21358219e-004 -1.02329221e-004 6.79145742e-004 6.92064466e-004
      7.97098968e-004 4.25572041e-004 1.03728366e-004 0. 0. 0. 0. 0. 0.
      1.25421648e-005 2.45427364e-004 4.49317595e-004 5.38392400e-004
      -6.55484473e-005 -7.84469768e-004 -1.41861464e-003
      -1.44297970e-004 3.67333996e-004 6.76468713e-004 5.63065289e-004
      3.08744697e-004 1.77772861e-004 2.38344164e-005 0. 0. 0. 0. 0. 0.
      0. 9.31476006e-006 1.51595732e-005 3.16764672e-005
      -8.58487765e-005 -2.86822557e-004 -6.09282986e-004
      -1.46562583e-004 3.76050681e-004 5.48153126e-004 -2.18577654e-004
      -1.48335792e-004 2.23423151e-004 4.61311320e-005 0. 0. 0. 0.
      -2.98475461e-005 -2.98475461e-005 0. 8.90246229e-005
      1.28049069e-004 2.45921052e-004 1.14359159e-003 3.28209600e-004
      -6.07488793e-004 -6.12328877e-004 -4.77675712e-006
      -5.90915501e-004 -5.82790992e-004 -4.97642905e-004
      -1.34266142e-004 0. 0. 0. 0. 0. 1.70781241e-005 2.65860708e-005
      -5.33606144e-005 -4.95443674e-005 5.27581957e-004 1.16682064e-003
      1.46568078e-003 2.19669688e-004 -5.64027985e-004 -1.17250835e-003
      -7.66169047e-004 -1.10274972e-003 -7.73514214e-004
      -4.40279255e-004 -1.14142058e-004 0. 0. 0. 0. 0. -5.74167170e-005
      -9.96776216e-005 -2.89216667e-004 -1.92720079e-004 1.73460066e-004
      5.37126558e-004 1.22596778e-003 1.94445689e-004 -8.93745513e-004
      -8.31132755e-004 -8.71463679e-004 -7.54079258e-004
      -3.77427816e-004 -1.70199841e-004 0. 0. 0. 0. 0. 0.
      6.39452628e-005 -1.67348800e-004 -5.32396894e-004 -1.24390237e-004
      -3.69115733e-005 -6.78184790e-007 3.88291082e-004 -5.14218351e-004
      -5.37160086e-004 -6.07387628e-004 3.34224955e-004 -1.39930111e-004
      8.52836092e-005 1.06429025e-005 0. 0. 0. 0. 0. 0. -2.99668955e-005
      -2.74274411e-004 -3.52076167e-005 2.61932495e-004 5.17655106e-004
      -2.96986109e-004 -1.04825781e-003 -2.84587259e-005 2.12662329e-004
      -2.06252691e-004 2.87630333e-004 4.40899748e-004 1.52774606e-004
      -1.87391270e-005 -5.21083311e-005 0. 0. 0. 0. 0. 1.74718705e-004
      1.78253365e-004 -4.56907510e-005 -4.45172809e-005 1.27046806e-004
      -5.05303724e-005 -7.45160854e-004 -1.20244033e-004 1.63035998e-006
      2.08563870e-004 3.48477828e-004 3.71614879e-004 9.16391364e-005
      1.84951132e-005 -5.21083311e-005 0. 0. 0. 0. 0. 2.17868088e-004
      9.38274607e-005 -3.29171045e-004 -1.87913189e-004 -1.58730982e-004
      4.38049377e-004 -3.05806490e-004 -2.63286842e-004 -4.43713652e-004
      1.52548484e-004 3.92738497e-004 2.64305505e-004 1.63825738e-004
      1.05336825e-004 0. 0. 0. 0. 0. 0. 0. -1.22961050e-004
      -1.94244931e-004 1.84616802e-004 3.96350893e-004 3.54653370e-004
      1.97476242e-004 -3.54585463e-005 2.27814453e-004 4.32179550e-005
      2.49727804e-004 1.16528072e-005 0. 0. 0. 0. 0. 0. 0. 0. 0. 0. 0.
      0. 0. 0. 0. 0. 0. 0. 0. 0. 0. 0. 0. 0. 0. 0. 0. 0. 0. 0. 0. 0. 0.
      0. 0. 0. 0. 0. 0. 0. 0. 0. 0. 0. 0. 0.</_>
    <_>
      0. 0. 0. 0. 0. 0. 0. 0. 0. 0. 0. 0. 0. 0. 0. 0. 0. 0. 0. 0. 0. 0.
      0. 0. 0. 0. 0. 0. 0. 0. 0. 0. 0. 0. 0. 0. 0. 0. 0. 0. 0. 0. 0.
      2.06545941e-004 1.44254300e-004 -4.77871617e-006 -1.72888322e-004
      1.47117564e-004 2.76440318e-004 3.77526245e-004 5.41777350e-004
      6.19464205e-004 1.94665248e-004 3.65974061e-004 1.10151828e-004
      1.44587393e-004 -5.42950038e-005 0. 0. 0. 0. 0. 0. 3.71797098e-004
      4.59000759e-004 2.50075595e-004 4.64338427e-006 2.03906748e-005
      -1.11854761e-005 5.40925212e-005 5.69007185e-004 4.14541893e-004
      5.77960047e-004 9.54560255e-006 -2.28509962e-004 2.21989307e-004
      6.83550534e-005 -8.93951437e-005 0. 0. 0. 0. 0. 3.11794807e-004
      4.70092404e-004 3.94538511e-004 1.41787110e-004 2.79186293e-004
      1.54532565e-004 2.98097031e-004 1.14695379e-003 -1.13616959e-004
      -1.07155211e-004 -6.52346644e-004 -5.20646514e-004
      -4.89702332e-004 -4.28625324e-004 -2.60391447e-004 0. 0. 0. 0. 0.
      1.80637042e-004 2.20034199e-004 5.78564301e-004 3.98093369e-004
      7.46893988e-004 4.96364140e-004 9.42032057e-005 -6.19408966e-004
      7.03503974e-005 8.19799170e-005 -9.74059003e-006 3.90988462e-005
      -3.48447880e-004 3.50194910e-006 4.17766532e-005 0. 0. 0. 0. 0.
      3.70471273e-004 5.15604101e-004 8.27091106e-004 8.14799685e-004
      3.87909298e-004 8.17830078e-005 -3.89805151e-004 -9.76668904e-004
      -4.52177774e-004 3.31436313e-004 4.21058270e-004 2.94909405e-005
      4.11947694e-004 3.13566736e-004 -1.20468882e-004 0. 0. 0. 0. 0.
      2.52445025e-004 4.26011160e-004 4.78143716e-004 1.26093844e-004
      -1.92326755e-004 -6.24609995e-004 -8.68908654e-004
      -4.05202009e-004 2.30260965e-004 8.31673446e-004 1.42171630e-004
      4.35098686e-004 8.33376136e-004 3.83045204e-004 1.26189741e-004 0.
      0. 0. 0. 0. 0. 1.85734898e-004 9.63134808e-005 -2.78233929e-004
      -6.23037457e-004 -9.45916167e-004 -1.17351022e-003
      -1.09427003e-003 2.99263396e-004 5.21581678e-004 7.38499744e-004
      8.95154546e-004 4.65661171e-004 2.25251104e-004 7.98343244e-005 0.
      0. 0. 0. -1.21164530e-005 -2.57474621e-005 1.15715513e-004
      -4.98566777e-004 -8.26424279e-004 -1.22763065e-003
      -1.72933959e-003 -1.30873453e-003 -9.52883973e-004 2.94781581e-004
      8.49992502e-004 6.83235761e-004 4.15629678e-004 3.13792407e-004
      2.44588824e-004 0. 0. 0. 0. 0. -1.04504405e-004 -2.36270833e-004
      -4.59526433e-007 -5.31933583e-005 -1.17885438e-003
      -1.20009482e-003 -3.23034212e-004 -9.35276985e-005
      -7.78189162e-004 -1.38913194e-004 6.84488696e-005 -1.80328279e-004
      3.86653555e-004 1.41060023e-004 7.23668063e-006 0. 0. 0. 0. 0.
      7.14756970e-005 3.45247390e-005 -1.36652461e-005 -8.75675178e-004
      -6.44685642e-004 3.78745863e-005 7.20106356e-004 2.77284009e-004
      -1.20674958e-003 -9.50081390e-004 -4.89261991e-004
      -4.44100733e-004 2.95138540e-004 1.45933709e-005 0. 0. 0. 0. 0. 0.
      -1.72938584e-004 -1.52248744e-004 3.39034450e-004 -7.90764694e-004
      1.60598385e-004 2.96792277e-004 6.51190174e-004 2.11264924e-004
      -7.65994482e-005 -7.63417920e-004 1.98938622e-004 -2.88120864e-005
      1.81402356e-005 1.80317875e-004 0. 0. 0. 0. 0. 0. 9.02234606e-005
      -1.25951177e-004 -4.59171075e-004 -3.72839451e-004
      -5.95474849e-004 1.97941321e-004 6.30842696e-004 3.14235745e-004
      8.76674094e-005 -5.52373458e-005 7.47034035e-004 -1.52865759e-004
      -3.13758792e-004 1.93912943e-004 0. 0. 0. 0. 0. 0. 3.81264254e-005
      9.58782985e-005 1.40685166e-004 4.16009134e-004 8.82164240e-005
      4.93391010e-004 -3.57526624e-005 8.81892120e-005 2.00862167e-004
      1.53412446e-004 8.64736940e-005 -6.48002722e-004 -5.41366171e-004
      -1.09345899e-006 0. 0. 0. 0. 0. 0. 2.94937781e-005 2.14261352e-004
      3.45339475e-004 2.45761534e-004 2.12794665e-004 4.34907386e-004
      1.10404850e-004 2.52476806e-004 3.38953920e-004 -9.66443622e-005
      -5.75010272e-005 -9.38974088e-004 -6.86263083e-004
      -4.46139311e-004 0. 0. 0. 0. 0. 0. 1.39306096e-004 1.80225557e-004
      -7.44133431e-005 -4.23586607e-004 -4.83753276e-004
      -4.26460574e-005 3.25636298e-004 -2.90119526e-004 -3.31398260e-005
      4.74587461e-004 -2.09703605e-004 -5.27947559e-004 -4.88177408e-004
      -1.48414765e-004 0. 0. 0. 0. 0. 0. 0. -3.93784721e-005
      -2.09651233e-004 -2.64028844e-004 -1.04626699e-004
      -2.61912617e-004 3.34046308e-005 9.96551025e-005 4.11100336e-004
      4.45971993e-004 3.26442911e-004 -7.77652385e-005 -7.58509414e-005
      -4.91042483e-005 0. 0. 0. 0. 0. 0. 0. 0. 0. 0. 0. 0. 0. 0. 0. 0.
      0. 0. 0. 0. 0. 0. 0. 0. 0. 0. 0. 0. 0. 0. 0. 0. 0. 0. 0. 0. 0. 0.
      0. 0. 0. 0. 0. 0.</_>
    <_>
      0. 0. 0. 0. 0. 0. 0. 0. 0. 0. 0. 0. 0. 0. 0. 0. 0. 0. 0. 0. 0. 0.
      0. 0. 0. 0. 0. 0. 0. 0. 0. 0. 0. 0. 0. 0. 0. 0. 0. 0. 0. 0. 0.
      1.82192918e-004 1.27245847e-004 4.31083390e-005 1.11889894e-004
      1.68238730e-005 7.44852005e-004 6.05806476e-004 6.68207358e-004
      5.27787604e-004 2.97086081e-004 -8.52608282e-005 -1.61961303e-004
      -1.31864115e-004 1.57375143e-005 7.59140021e-005 0. 0. 0. 0. 0.
      3.21755011e-004 3.49597365e-004 1.47751882e-004 7.40669639e-005
      2.73624057e-004 9.72267531e-004 5.39605157e-004 1.11628708e-003
      9.03817883e-004 4.61017800e-004 -1.29240434e-004 -2.46083888e-004
      -1.05671897e-004 1.95061337e-004 1.56125025e-004 0. 0. 0. 0. 0.
      3.11300071e-004 4.58227121e-004 4.50023450e-004 3.66140652e-004
      -1.80142684e-004 6.86179905e-004 5.68868010e-004 1.43092102e-003
      1.00499415e-003 4.01594269e-004 -1.41489669e-004 4.03823709e-004
      5.56739142e-005 2.57448875e-004 1.66151396e-004 0. 0. 0. 0. 0.
      3.64072941e-004 8.04622832e-004 1.08289823e-003 4.78553004e-004
      6.23874366e-004 7.95854372e-004 2.36032196e-004 9.05821682e-004
      6.16101956e-004 1.58993207e-004 3.49893875e-004 3.56902223e-004
      2.34266146e-004 3.34029377e-004 1.61854376e-004 0. 0. 0. 0. 0.
      5.37695945e-004 9.86920088e-004 1.07412040e-003 9.68223729e-004
      1.07209454e-003 2.02844312e-004 3.58144098e-005 -1.27921070e-004
      -2.53913167e-004 5.74374106e-004 8.13016261e-004 1.11532188e-003
      7.95769913e-004 4.49566782e-004 1.50395659e-004 0. 0. 0. 0. 0.
      2.52882892e-004 5.34174964e-004 5.38978493e-004 5.12775092e-004
      4.89069906e-004 -2.94386438e-004 -8.67093215e-004 -4.63044707e-004
      1.19310243e-004 8.80119915e-004 9.97297117e-004 7.00362900e-004
      6.09402661e-004 2.20731978e-004 7.30493193e-005 0. 0. 0. 0. 0. 0.
      4.51434862e-005 -2.69004639e-004 -1.37662719e-004 8.13433326e-006
      -9.91057255e-004 -1.12350646e-003 -3.25733330e-004 5.56539395e-004
      1.50398479e-003 1.40097551e-003 7.71589286e-004 3.41483508e-004
      6.81389138e-005 0. 0. 0. 0. 0. 0. 0. 7.31235059e-006
      -5.65258611e-004 -9.87444189e-004 -8.72527482e-004
      -7.39054405e-004 -1.17443129e-003 4.79635492e-004 1.08170835e-003
      1.13069429e-003 9.84004117e-004 4.48921841e-004 6.22978550e-005
      5.22865685e-006 0. 0. 0. 0. 0. 0. 0. 8.61042718e-005
      -4.35031223e-004 -1.31188333e-003 -1.02981518e-003
      -1.65764010e-004 8.39719200e-004 5.68617717e-004 3.66584660e-004
      6.28650188e-004 6.68211025e-004 3.76530632e-004 1.11183826e-005
      2.51983465e-007 0. 0. 0. 0. 0. 4.63960023e-005 4.94383639e-005
      -2.02742522e-004 -8.20793852e-004 -9.61302547e-004
      -5.32095844e-004 4.93045605e-004 2.13871957e-004 -2.01026458e-004
      1.14798931e-004 3.40333150e-004 4.97324858e-004 1.47060164e-005
      -1.87791811e-004 0. 0. 0. 0. 0. 0. 1.36906237e-005 2.41708349e-005
      -3.23998480e-004 -8.75388563e-004 -1.74579123e-004
      -6.16100908e-004 -1.16119080e-003 -3.47901310e-004 3.40421626e-004
      4.96724097e-004 -1.87822588e-004 -1.13319242e-004 -3.41540976e-006
      3.57950776e-005 -3.24024986e-005 0. 0. 0. 0. 0. 2.77615436e-005
      -7.13032350e-005 -2.66956369e-004 -2.58852029e-004 9.90658737e-005
      -3.23335436e-004 -9.29918489e-004 -7.39832176e-004 2.51069258e-004
      4.99259797e-004 5.09021513e-004 2.83201778e-004 -3.87133943e-004
      -5.80959895e-004 -2.52739468e-004 0. 0. 0. 0. 0. 3.62028295e-005
      4.22676567e-005 -1.51000393e-006 -1.73739754e-004 3.29383838e-005
      -8.41606408e-004 -1.29114056e-003 -3.62638413e-004 4.89243364e-004
      6.30065333e-004 -1.73766428e-004 -5.29257886e-006 -3.31902294e-004
      -1.09523135e-004 -4.53634966e-005 0. 0. 0. 0. 0. 1.52302106e-004
      4.29875974e-004 1.12511450e-004 -8.97568476e-004 -6.44425047e-004
      -4.38734220e-004 -1.97010944e-004 2.34738560e-004 6.53056020e-004
      -1.37785784e-004 -6.68488443e-004 -5.71059238e-004
      -8.30967794e-004 -1.32892237e-004 0. 0. 0. 0. 0. 0.
      5.49825709e-005 1.84885066e-004 -1.37964264e-004 -2.85015471e-004
      -8.09118617e-004 -7.08287815e-004 -5.44439361e-004
      -7.13210920e-006 1.19932694e-004 1.39625554e-004 5.97433973e-005
      -4.52566659e-004 -6.39022735e-004 -7.59641916e-005 0. 0. 0. 0. 0.
      0. 0. 0. -7.89392070e-005 2.33390761e-004 3.99006909e-004
      -7.97992398e-005 -5.12573024e-005 -1.12832407e-004
      -1.29916298e-004 -1.68927181e-005 -2.06404526e-004
      -6.41467632e-004 -2.37071261e-004 0. 0. 0. 0. 0. 0. 0. 0. 0. 0. 0.
      0. 0. 0. 0. 0. 0. 0. 0. 0. 0. 0. 0. 0. 0. 0. 0. 0. 0. 0. 0. 0. 0.
      0. 0. 0. 0. 0. 0. 0. 0. 0. 0. 0. 0.</_>
    <_>
      0. 0. 0. 0. 0. 0. 0. 0. 0. 0. 0. 0. 0. 0. 0. 0. 0. 0. 0. 0. 0. 0.
      0. 0. 0. 0. 0. 0. 0. 0. 0. 0. 0. 0. 0. 0. 0. 0. 0. 0. 0. 0.
      -3.08349559e-006 3.39069433e-004 1.96943962e-004 -1.51366417e-004
      -3.80361569e-004 7.35211725e-005 2.54550192e-004 4.04274440e-004
      4.05631552e-004 4.18026204e-004 -1.09833185e-004 -1.49870553e-004
      -6.75383271e-005 4.03650047e-005 1.15751674e-004 5.78758372e-005
      0. 0. 0. 0. -3.69027330e-005 4.37560491e-004 4.67038742e-004
      6.16450998e-005 -5.08338504e-004 -3.82082653e-004 3.55474476e-004
      5.07947290e-004 6.81450590e-004 5.96901809e-004 2.47365097e-004
      -2.98515515e-004 9.74094000e-005 5.22073715e-005 1.41622266e-004
      1.10492256e-004 0. 0. 0. 0. -1.39321040e-004 1.80556599e-004
      1.94864522e-004 -6.61416052e-005 -2.42650407e-004 -2.63096212e-004
      2.13712789e-004 7.25453196e-004 1.41098187e-003 8.23917042e-004
      6.85383216e-004 1.49227460e-004 1.79460272e-004 -2.56372034e-004
      -1.84930643e-004 9.55191208e-005 0. 0. 0. 0. -5.28215860e-005
      3.89892928e-004 3.31954565e-004 1.86918460e-005 -1.64793910e-005
      2.15468099e-004 8.39135027e-005 4.54639609e-004 2.26099262e-004
      4.19870164e-004 2.88930954e-004 4.50088090e-004 4.05701896e-004
      -1.73614389e-004 -2.75175815e-004 1.62285578e-004 0. 0. 0. 0.
      -3.00046377e-005 4.60656331e-004 4.64778423e-004 -8.94293698e-005
      -4.19369171e-004 2.45300151e-004 1.85407203e-004 -2.55392079e-004
      1.81509422e-005 -5.20785863e-004 -3.86447209e-004 2.06726239e-004
      8.06720564e-005 -2.08310070e-004 -1.32402811e-005 3.23731329e-005
      0. 0. 0. 0. -3.11755757e-005 2.72562262e-004 3.52049508e-004
      -1.47749270e-005 -4.60026495e-004 -5.70575939e-004
      -6.38770172e-004 -1.46804479e-004 1.19813049e-004 -8.99848179e-004
      -7.84364296e-004 -4.82538046e-004 -3.48950474e-004
      -5.07062177e-005 1.81379437e-004 1.68305531e-004 0. 0. 0. 0.
      -6.16114849e-005 -1.54417707e-004 7.06625869e-005 -6.06945774e-004
      -1.10562390e-003 -6.99915923e-004 -5.31156664e-004
      -6.83685648e-004 -1.38178410e-004 -5.03728166e-004
      -5.57616993e-004 -9.54526535e-004 -5.10769387e-005 4.23786783e-004
      3.42603627e-004 1.20294819e-004 0. 0. 0. 0. -8.73694444e-006
      -1.56922237e-004 4.03553713e-005 -6.43379753e-004 -1.14162720e-003
      -9.92549467e-004 -1.41462462e-003 -3.33619158e-004
      -8.65713955e-005 1.71158390e-004 -7.38359173e-004 -6.12389995e-004
      -1.97723304e-004 1.16697403e-004 1.33972702e-004 0. 0. 0. 0. 0.
      -1.07412170e-005 -1.91786065e-004 -1.14605878e-004
      -7.72167521e-004 -1.20765227e-003 -7.46738340e-004
      -4.24844155e-004 8.02247261e-004 2.71575089e-004 -2.75610335e-004
      -9.84466635e-004 -6.44223590e-004 2.76414736e-004 7.59206450e-005
      -9.43507548e-005 0. 0. 0. 0. 0. 4.03697741e-005 -1.49028070e-004
      -7.25177350e-004 -7.32195622e-004 -1.59456293e-004 1.28769767e-004
      -4.62573371e-004 1.10872020e-003 -7.05510669e-004 -5.77870233e-004
      -6.61405618e-004 -5.14406769e-004 3.11503507e-004 -1.06722633e-004
      -8.67569834e-005 0. 0. 0. 0. 0. 3.48838375e-006 -1.01273472e-004
      -9.19392114e-005 -3.23574379e-004 1.26578132e-004 -2.41036818e-004
